Pesos da camada de entrada para oculta
-0.3009240480624369,-0.4624551730009136,0.32056471299968015,-1.678038076018293,0.5013523281099703,0.3850711838615144,0.22902128483286488,1.065548640413619,1.294940975163033,1.0744898760955932,-1.4398759491918682,0.9340980594040542,-0.9857478974699301,-1.3973951298960279,-1.4236353865653109,-0.2076877885486448,0.3064169761567714,-2.141831517488954,0.6393475466172,2.5831010609610767,0.06825710447621906,-0.38107364585148645,-2.429336696916137,0.7868022857912179,0.5962818289548122,0.5782355868212253,0.28624072368193565,1.5226806231069336,1.0353223516604395,-1.1871423172609987
0.5151345453781379,0.009350670018192005,-0.09716744968526438,-0.5721679337363428,0.39761691382402103,0.061299568452490294,-0.12213865283523419,1.2621079361738983,0.23592184644802047,1.5646798959768855,1.2572315447483333,-0.4101116569745434,-0.7875034332074969,0.10960876799525734,-0.5347673254040752,1.8524206467714341,0.2259586847588967,0.9327041995662668,-0.6699570337487099,-0.210127164758777,1.1558413842335973,-0.2798307692279693,-0.5847530532216622,-0.6975066348909745,0.6076375145406834,-1.2982536226022865,1.095461377372584,0.5120441358714242,-0.2848449064469022,0.16090019950743237
0.5024865070402166,1.2897562305633614,-0.1390494611928669,2.356108035361983,1.1357067209123437,-0.1638553104414031,-0.00619976743512842,1.0029927356024053,0.02116733120408693,1.8351797805286543,0.3424095352446375,-0.49181457095835146,0.9165952639721647,1.0035874362923702,-1.731924713680488,1.527520331758485,-0.3485330286481629,1.1750107502639418,0.4342834267051217,-0.6182618603689723,-0.6585814544991708,0.854968307696059,1.0783662540318057,-1.1992290974283255,0.0334477431122722,-0.16863372181236025,-0.5010536881024816,0.11436663912488979,0.165145484534415,0.40785429972869347
-0.09851249501363736,-0.8560160830499974,0.4920823573356995,0.5565790009839108,1.2590757629447307,-0.6499276155915148,-0.611427522381211,-0.6507594666324382,-0.6779692686440406,-0.17185270795137433,0.1351896225269446,0.6913403072968081,0.11483306208234022,1.1988098233623954,-0.3329104543726645,-0.4942050564419375,0.1151346821520475,0.19374740388736475,-0.1708594871369061,0.5363833058166616,0.3957045591367655,1.3649548580239321,-0.12843901216237472,-1.3163952033653978,1.0362048874010865,1.6547959139097879,-0.9463726050835529,-0.14577813185229832,-0.715738317661432,-0.41499424525055517
2.264895955840763,0.799089975507263,2.1024874550809813,-0.2821592939221208,0.42067114870803357,-0.4912444674892332,1.9036412345408973,1.5318247589194594,-0.41032892604378746,-1.418925282282463,-0.5181062627637659,1.3153194603861902,0.42245869472661907,-1.5255246156286104,-0.6968276428054484,-0.6921166935840906,-1.4288178823452427,1.0314997856022823,-0.6687385676710814,1.1531173406886477,1.018615805852598,0.4791635541154735,-0.9480306136782722,-1.30982072219217,-1.4068176500457452,-0.3296715746050899,1.3515151006508566,0.06854771856092057,-0.23507122476404996,-0.6062668830079684
1.013604741077393,-1.1545750012784715,0.29923454729717336,-0.8903878166042368,0.9756197911109278,1.0411095161145658,1.2448736014507182,0.20739207343689042,2.3964026283880298,0.6365243942583213,-0.1642655565075782,3.0692913373412076,0.12793076262781097,0.42934547065297707,0.32211622516421434,0.05276037971652333,0.9081479861879269,-0.5373391932246292,-1.950279113405957,-0.5133036905995718,-1.5831446053845766,-0.5354370383284194,-0.28743731963572633,1.1586059646699758,0.03549780064126225,1.8295874102384142,-0.6135248615836246,0.0035055548566227082,0.6884328665524742,-1.2301315355849127
0.6285255671459155,-0.4809034933634332,-1.2865561680783137,0.14401254671057714,1.4535207376585648,-1.7251505867329957,1.242545541567062,-0.013914633532652416,0.19771296113482056,-1.3996716921226249,-0.6541935914277824,1.6934648729545094,-1.3624988340905386,1.152005489642845,-2.0253781123238563,-1.9974177229658951,-0.6432125787950823,0.2766083591062936,-0.07297544595473784,-0.782961499350881,0.1347507583198887,-1.179073772166253,1.699925488270049,0.2946528874968678,-0.2543510543169795,2.4722061961448296,-0.643050727302773,0.38038009927813093,1.3960256217933487,0.4337271095022134
1.7212055160487045,2.4937043176238793,-0.06790997821588532,-0.5698521656865597,1.9556170223625415,1.017433457264507,-1.1867007556883105,0.17427362881011105,0.11213657659294177,-0.519808905343861,0.2153936819377343,-0.6550216176534355,0.7650335087375308,-0.9554577403964122,0.8380942265394243,-0.20590528262055294,-0.7154210306832665,0.4902565809242559,0.5156897495183742,-0.2197441370031912,0.5742792437130343,-0.08980902355149228,0.2980170948088017,0.16233641293328924,-0.5147687102731887,0.8595204713544684,0.8402742893081825,0.22678935740616077,1.233213785357842,0.8790506817773707
-0.08504322756746052,-0.00233782047597829,-0.8749122281927866,-0.8679803918575599,-0.8620321559651379,-1.2920366407675523,-0.36405916329769467,0.8580464601226228,-1.4637482850001802,-1.1741414600981517,-1.0215805226886314,0.9303600450016662,0.4624137913297968,-0.8664087647887881,0.982645312282938,0.31520832285366224,-0.8645632570712231,-2.3325341935203334,0.6153315724699732,0.02711736054563894,-0.8232599932451139,-0.5115732048953684,0.8775273389365826,-0.9145559159942873,-1.0969322154104222,1.9310869537208557,-1.035713943983861,-0.6085549898324324,0.30998611295839196,1.9325015661159366
0.15212632412431876,-0.14903618256332263,0.8890505957572771,-1.013364317061947,-0.35460695019717714,-0.4831142096125421,-0.452571226130326,-0.03234811084304517,-1.8670728894167168,-0.7860127262085513,0.8654287629314491,-1.1175017155800069,-0.25619831285347194,-0.5261071355885891,0.38991046137907903,-0.10525206430743393,1.484303616611846,0.5229099807982286,0.6411491298204307,-0.7320360126584072,-0.49251530700203106,-0.7784276997758119,1.090877360990956,0.7128393524961764,1.534231660448549,-0.1120714433911788,-0.15715353917004485,-0.7190586420290425,-0.1271495824774096,0.057075356671915656
-0.6725837626593325,1.471819365476819,0.29861347115403236,1.8680992654820434,-0.8720832278753042,-0.43002935972348044,0.555371434769809,0.05259979454577657,1.0088719425500592,-0.19801487122430853,0.2971508539597125,0.14137751913790966,0.06878878127903511,1.0513330724554897,-1.039613838688216,-0.15463029695907463,0.422637633972176,-1.1385475521260913,-0.18972397778334066,0.041595090575218006,1.1659641857114293,0.6520996310481815,-0.9886296257269798,0.6948474833153995,1.4465912445306224,-2.5798897239171668,-1.1360030697123922,0.09875432317326824,-0.12358273311772647,-0.446063093976705
1.720657763848932,-1.6844481895949437,-0.14477074132090284,-0.6009010239989954,-2.3577931095262095,2.001783126613855,-1.205836106531494,-1.179412390995771,2.642237294841992,0.6020612411088608,-0.0244970300347955,0.1358622586376778,0.6037364329154327,-1.4024372446252713,1.2010957940301148,-0.8587365105826332,-1.596001925741877,0.06957693784350227,0.3365059463047065,-0.29558626969097523,0.6034807496609599,-0.1887243986400654,-0.06073525858294661,-0.36113449195880454,0.022719416396372705,-1.2704661985722674,-0.09137418810830529,0.7878268291643827,1.1385657458237306,-0.37415337533850396
-0.6130448145071553,0.06961551746973584,0.8813370487031774,2.3011337691696365,2.039080181288284,-0.2072157737145631,1.5944090466261542,0.4218033627380482,1.678709495892019,0.05471733259938402,-0.03927711249174029,1.0913695113979556,-0.8859856679263568,0.44732462506019055,-0.25825803247456003,0.9672393207754405,0.9372684381639453,-0.18015072178954045,0.9830214217738299,-1.0663810540699397,-0.06741191078398784,1.180406793161261,1.0041221387034411,-0.0444757695623438,-0.0011361819370495792,0.3332213332022531,1.6092060899905212,0.7315432008200569,-0.2487623384872679,-0.6085105199088929
-0.5363090914428666,-1.1016905669354062,2.0084379757098816,0.6865354176043127,-0.5825592148949488,1.1298696697799484,-1.7329757764541274,0.823786742691666,-0.35759302569225626,1.4667672534430016,-0.10027943743747648,-0.9861186098294497,0.13218058633458618,-0.14675524774604295,-0.7829375225314501,-0.2957215715907996,0.5155081693620054,0.34648705059346463,0.22111428824929868,0.6471375662610809,-1.9207455688173574,0.5851160166531366,-1.2041037689986653,-0.2778836594898136,-0.3644983445490284,0.053889015622765775,1.13918464018906,-0.2850924715693033,0.2664069210215809,0.9361008087975496
2.910986489508685,2.434633855307556,1.1025325125685026,-0.6106111955199556,0.17044416532200232,-0.759768832609763,-0.6053474739867316,2.0037095602701505,0.049299988083891855,0.8616238270452905,-0.5164382195423727,-0.19823967217039104,1.688415288221042,-0.6332726001259653,-0.9785387973198548,-0.1542760349043784,-1.8795442464222896,0.6736879029965205,0.21369031033956568,0.6961472762922135,0.038298147436916216,-0.9810172590956895,-1.8932952990623082,-0.7925982462047142,0.4929860642575704,-0.6993636221811925,0.17065841293603123,0.15595506195380038,-0.2837994758857962,0.74792948492063
-0.2988493670847984,0.2697758441169424,-1.1314100445498947,0.4571334491130516,1.1072506225648795,1.229423638268006,-0.01486306261267983,1.8697488059596716,1.689019420423548,0.9389415636009188,1.76355296430676,0.11861668926793692,-0.0013274643503683203,-1.6263317224050116,0.5186012970188564,1.6053505374096788,-0.46810865026813164,1.2483368102236514,1.1723976221981423,0.5376003028504474,0.26112036773715974,-0.08276822384747684,-1.0944576552304301,-1.503960457654119,-0.9550066149238496,-0.3183213695405794,0.1958368861680298,1.7426773831476003,-0.9554830411239301,0.10227912420813355
-0.5892161202239101,-0.13508411256882424,-0.2784215069528353,0.7058225898339061,-1.1664729391229902,0.8492491039188755,0.687976347398386,1.0734984650307948,-0.23381631310471182,-0.993540304945258,-0.029433270446127695,0.34159788568889154,0.2196587860540897,-0.08239037480819505,0.8704597631307174,0.7660740518558959,-0.33396537401744286,1.8101531523935848,-0.07629013347011927,-2.953704914594745,0.04104224836479688,-0.41359863406071345,-1.6092750392268589,0.4387083582901013,1.185060208393935,0.7974017893583598,-0.47051092439248754,1.5820672335746153,1.5534931855460794,0.6430398716924242
1.2018044408988504,-0.028333390107057897,0.12945679277862746,2.743258449106398,-0.9020909813764066,-2.894777590756177,-0.4265515311645302,-1.017369577557556,0.07044906073483172,-0.30085624443582415,0.2600308505525205,1.3052947356737123,0.05696195190541745,1.5622160775206644,1.0384194993278566,0.15172458803457048,0.5694979398584952,-0.09008023855962201,-1.1779742173297376,-0.5389691695016163,-0.10669054581467022,-0.24059114120059247,0.8543566278978387,-0.7795559352049267,0.6244830668963749,-0.20371180314114862,-1.3440178343470301,-0.2853070650526232,-0.27530311931802537,0.4919833349086328
1.6209402689022434,0.374113683416315,0.11397210978314054,-0.6788535512146228,-0.2746536678245778,1.3857008919707603,0.8778625667076985,-0.18535229194841366,0.10122172526277445,-0.7056315604598167,1.990687292321253,0.09616901726099981,0.8531009166006144,-1.4089661606879873,-0.41677128314715983,-0.3599654613550163,0.49019976810060306,-0.736121527881079,-1.095262836808628,0.9580259827259564,1.2055317653409017,1.1679472221539964,-0.13732617181979764,-1.0611541100510433,0.2949195384037434,2.6154185278012534,-0.7900559890907123,1.1557413048983962,0.022142994903727037,1.072775770488747
1.9846994824622324,-0.19951614924546482,0.9124799385763657,-0.15432336783476722,-1.1836552293589713,-0.22435349359437745,0.9890617789302686,0.9734007144952939,-1.3115072111298767,-0.8977848067342602,-2.0443060317247252,1.633080347859883,-0.11408699835843679,-1.7120517103852653,1.4747436393699431,-0.27753952772828305,1.3341270611065992,-0.5111194554545002,0.753439042400245,-0.011107498870459784,-0.9556644927584946,0.1878344228492745,-2.294450166557734,-0.960374303179684,0.8661873424857497,-0.4108146194963491,0.5522655817076465,-0.2423379116841982,2.0857011985141676,0.32261406153659317
0.6002504555929915,-0.5570783389205856,0.05839131463611538,-0.7508963972841887,0.044335798015820486,1.3886647544199506,0.8004945351890662,-0.39627579723738665,0.11974013615088903,0.17780572473472545,1.4507345578109443,-0.47064100426886835,-2.569902422300398,-3.166601386576345,-0.16375766725452656,0.4527889720619294,-2.9739159807806046,-0.1660122557527893,-0.8847198895124712,-0.13424604356521413,1.2812999810566987,0.7386084814521388,-0.38365983927753355,0.35689190111249,-0.5352801980147484,-0.13526430522254804,-1.112001342392879,1.8794097397600364,0.19379358511755918,0.3611510362218622
-0.7910588176539609,0.364378627899892,-0.6129728687227896,-1.3676881860007668,0.42796616358633743,-1.8211982595101013,-1.0288004521617413,-0.4688921181191738,0.7739647270285098,1.4602148618835133,-0.2854092263063552,-1.42103603920971,-0.7392565019034266,-0.6887677074043742,-0.24471239579461335,-0.19754826127893557,-0.7384158698823732,-1.1154915924860827,0.049818197576811385,0.28170326904968784,0.0890609974750911,-0.758303343720075,0.48466153172168736,-1.8207138636571314,-1.6848824233543696,-0.1758449741585222,0.6484134416817385,-1.7422224560916635,-0.5020191306200468,-0.16525492072592735
-0.17685308859319304,1.3384918579770253,-0.9391298910110926,0.7371457047840421,0.5754168685575424,-0.5088643352104242,1.57615319762815,1.2083855017051044,-1.196159446552246,-0.9679011077975103,0.746389905755761,-0.18220121926008417,0.54544643655426,0.9021453680127247,-1.0499791542075967,0.6041411449899052,0.27206366107611935,0.33010301821952187,-1.148292189523918,-0.42926504979027374,-0.4240455047775789,-0.34297222419461526,-0.3390365579781491,1.5540193165796297,-0.967126194496633,-0.909292718936921,1.3895421955824276,-0.5147724096280515,-0.7566154235848219,0.14547742435843755
0.3480908356379779,-0.5685618761427825,0.8545286475079933,0.3244001808456973,0.8308656208529248,0.02205723469703022,1.3901759094593424,-0.6065795834540465,1.7595031670311225,-0.2578178654616528,-0.9532224720473782,1.0519457487530843,-1.7533294719519468,0.17150953091877796,0.6541303332237824,0.5667652003812198,1.9748687989020335,-0.9558392914904544,-1.316987098052825,0.4483080384519144,-0.5105221677084263,1.174087997143136,-0.037374795000854,0.2620511179210913,-0.19130467922852412,-1.4932306537381315,0.7506059334580967,0.9106616117725211,-0.11787992364193273,-0.2831269695512956
2.2166841687074728,0.22466957127268988,0.5129220435733713,0.23692844413608816,-1.5466168576140638,-0.0034712420407887134,-0.36207838584115426,-0.14502774528855952,0.10847404745000164,-1.0820401456406799,-1.3876593011275409,-0.06172154297628881,-0.06398033785628747,0.25913799998545756,-1.3456505067125868,0.9362447723374574,0.12075488969188265,-0.7900279028166839,1.159456682715081,-0.10097054827591416,0.41289572393156415,0.5567442274238935,-0.8636567014397842,0.7576028024932707,1.1145760009308665,0.643164326512409,-0.09264984816152136,0.3598469105349815,0.7493225382147252,-0.8059428764513438
1.9380040395642248,1.790720690980578,-0.6122316139280074,-0.12421095238756966,-0.24377593379139742,0.07266203973270534,-1.329432780669125,0.3070380639213393,-0.674972692383055,-2.4126862669569467,-2.5532959591564293,-0.8887903174008482,0.26852950008103676,0.4358570459341851,-0.016648617766815588,1.4671250868744954,0.13106354665344644,-0.22981087745867265,-0.20278645068122853,0.07603123675362565,-0.613063176205252,0.03426299676087974,-0.9261387684348122,0.11627467331651974,0.6802434202497534,0.5481849338946528,0.43048562283924685,-0.7422389934631806,-0.6054492783280343,0.6358189418759211
0.2827926174442735,-0.1704449170288448,0.9869474320597441,0.16180789894570738,-0.5786759345304182,-0.5919175083698448,1.2806569667047134,-0.6884780456292765,-1.4021455954548734,-1.889177290988363,0.039008006259215695,-1.9667464921386493,0.09823332642770669,-1.4278080264376651,-1.2010177217315512,0.7116627162384339,0.44376286161658995,2.0570781046900377,-1.246894584223315,0.28332608576676466,-1.125005558025259,-0.061185270830728826,0.5031844754418683,0.16118194288014248,-0.552629480356163,-0.7060344238563881,-1.13517637271044,-0.4808661428644555,-0.40997034532694215,-0.4531750801145771
0.5233069842823844,0.7798031072235299,0.607462754315495,0.20995609561982548,-0.6741036926340724,0.27380501987173445,0.4618608821141775,-1.7794997916572106,0.32433074972976106,-1.0220674381568606,0.6938215641044921,-0.3060046969318927,-0.9585331367766592,1.16032827748992,-1.444262554529165,0.1596643323460969,2.099263228290244,0.9648053020610837,-0.2252434332918487,-1.6604110624085877,0.898329895664075,0.48326774148923146,0.3048275281700465,-0.2469375337121276,1.5313959521016618,-1.297513124731394,-0.46141046977610045,0.2940762854758081,-0.417871284445719,-0.001313150376514638
-1.2286605801345907,0.9368345035846962,0.5165616975463774,0.7181422762193508,-0.8905901440913744,0.06148526682092586,-0.8205785293726189,1.1655729531500638,-0.444696218368471,2.0808019491807364,0.0019443229649716276,0.7077162160373474,-0.015613442313170446,-0.11704553649329462,2.095500636931744,-0.11390961465309651,-0.15328363238172663,0.8512940608196794,-0.55023346548358,1.000934595429699,0.12670585195999445,-1.0370507385344658,0.45145449433597323,-0.595106010382082,-0.9295930398802962,-0.46471435859639343,0.3072032086645126,0.30832878869549574,0.8863421290964097,-1.346448015769664
1.1609877305630851,-0.17862112783260503,-0.740922082797685,1.1450485470182954,-0.43675416575289694,-0.7420504259701295,-0.1950267303245585,-3.31215685518428,-0.32263182876135,-0.7309231774886006,-1.9492586567497852,0.4467676481250617,-1.6537819246824208,-0.4818278671549253,-0.5064559263102666,0.8721313610905654,-0.3448655576359581,1.5077872260993983,-0.5466570690817343,1.4114599269395525,0.8479646561079242,1.9831376944908918,0.4104745742303209,-1.0076008603387856,0.8721693074043385,-0.498178669461982,1.8277439800296862,-0.05094399902364262,1.2316945643385209,0.01298102746443241
0.8285598459155215,0.6195827009750864,-1.384830649010133,0.3819245699145916,-2.1240498477966154,1.783707789717589,-0.9072668341776818,-1.0216414185048903,0.34842516767462595,1.4060807842113454,1.2293159643909628,1.3356486628372017,0.1042528258907874,-0.30465363797937084,0.46246631305650815,-0.17229429790090336,-1.587566818408006,0.6255715579558444,-0.2016737032803371,-0.32131638698028414,1.3829292866542273,-1.3608953520409197,-0.8242887814024286,-1.3286369893914638,-0.9632656664721986,0.40732090457970443,-0.7673233299787333,0.3296059110419392,0.15147786199753005,-0.27105598301071865
-1.172236925467751,-2.3130121625188176,-1.1898060679356046,-0.03096763543402782,0.4253785027085479,1.203252603236377,1.3975608351447983,0.44049585707661393,-0.461759248415257,0.5969070937695905,-0.607010106654916,0.39046882468882044,1.2474341026380684,0.07446426342137608,-0.8168316069788808,0.05127535400168704,-2.232228308839293,0.858582936660098,-0.6312420179414792,-1.0377957344218098,0.9113171708853477,0.962261538510406,1.5150724406644218,-1.1583962226915194,0.148393575783425,-0.11069978194644378,-0.4424648504097693,-0.08053656606102755,-0.669537424675002,-1.1152581468486462
-0.5407107595091368,-0.4346605698704693,0.9470416793817944,-1.2412085989124282,0.6896978376462825,-0.6481744717929997,-0.2161797218071579,2.4127868372952515,-1.711906479524787,1.762472372684414,-0.6118833342892174,-0.24524126300145374,-1.0810712374515672,-0.2056379311731634,0.7243562878895635,0.4101372766449966,-0.24729265119789878,-0.1608375529811772,0.7903595985438961,-1.7629777914411775,0.7792199875401571,-0.37166513312784605,-0.6139200490657315,0.7070322327722278,0.9580793239353257,0.32772422047595084,0.8089974081077342,0.1554809350389001,3.0243916871283587,0.8608289521005489
-0.11382934567741267,0.2519212973551646,1.2385043244405547,0.5399155056533407,0.4695343881711354,0.31026317121556385,0.4270707494263857,-0.6743024990104346,-0.44204171987694124,1.140131661964127,-0.6166926671359276,-0.693514276931804,0.48658897365883524,0.20516611798839968,0.31829334644997,1.5796740942356235,-2.079083897870924,0.2735772910406335,0.5069824402320428,-0.3304195459750412,0.6958214751723187,-1.1979527756223367,-1.3424111847188742,0.1782374218020422,1.0249586470912422,-1.0038339369247251,-0.03967582678126333,2.080857575317851,0.06810937076755127,0.6920369799734731
0.2435834250083606,0.1534576935749065,0.8000709436363097,0.8751713733840176,-0.06941126388745392,-0.45142668909746125,2.027043819569529,-0.59329893504866,0.4836989253404235,0.34336393574492724,-0.8802603447390989,0.507534668623421,-1.1791903732369722,-1.722770833437936,0.4546441349709619,-0.5942668792514869,-0.6745422893051284,-2.2080731680304573,-0.49841415249514676,-2.5371527089164134,0.8564011008023127,0.8374999710326756,0.14288874510765992,-0.6541625652993552,-1.6504236990466317,-0.28829199119412996,0.4037525523755339,-0.2803688320912021,0.14486926208553277,-1.442388812823001
-0.8719900938639144,1.1014990530453412,0.960139899396302,1.2173767979649095,1.568288959415878,0.1540287036551672,-0.011427113118528275,1.1128420468811535,0.8747564268573248,0.14172155583842397,-1.6901422390844365,0.2510379790466777,-0.4075415532040645,1.5565348917676973,0.3433792086701023,-0.7638879692718723,0.5839944671274337,-0.3162065861282764,-0.394425678497524,0.316778848498476,0.9154326015899298,1.2577324034793316,-0.6299063896784725,0.6898033649933999,0.8669039738513232,0.5501400432591416,-1.8941860450800494,2.30687728699461,-0.47923641442495507,-0.9199961583263135
1.4874201981785828,0.39044942816580314,-0.878944812251708,0.13425791941560097,-0.644331511820194,-0.8609375886224184,0.032248332925518736,0.39391354205800144,-0.15775889433615756,1.6384800623714344,0.2913946463817751,1.2575173370167996,-0.3897527065626849,-0.9667607788478413,1.3358848407124735,0.18766302444293856,-0.3197000812457402,-2.0139607035282903,-0.5318597381067905,0.21134384355197597,0.19478857400775282,-0.7648150657964314,1.6226187175626599,0.6770442153649467,1.123515673600552,-0.23551800081115956,1.9765713273001841,-0.46785520682055753,-1.558347863796694,-1.1863988513919699
0.5682027216902956,-1.0708615140407036,-0.11989669287852614,-1.3209596596070368,-0.251744835743222,0.7277479583637737,-0.33866209545489956,-0.7791079504938933,0.4044246818109186,0.7191009870899373,0.13873210563154534,-1.9095747460592345,-0.8278342299170476,1.686149860212903,0.2904286082275134,-0.04056920387104043,0.8063992435441132,-1.7256809160458493,0.2403113210636035,0.23938414991027013,-0.00025948569161595033,-0.13299273325416855,0.12380639961374346,-0.7545015380965632,0.36886685149756115,-1.4603755483884218,1.9616889513576996,-0.883451413583077,-0.18698821282849806,0.33786993741766513
1.1739453778030229,1.064056014006582,-0.3912026013040996,-0.12959977100272954,0.9244491714386691,-0.9432308630591608,-0.3406898550217003,-0.49672990909275505,0.8783376425177046,0.042715746631265504,0.013977510797463876,-1.755376590732603,1.950215891272924,-0.3106151547598928,-0.4004860801486084,0.48653608307167523,0.6503116797056185,-0.8377164780420767,-0.7327615226989284,1.0353393899423882,0.15703981172822545,1.637585458219434,0.5141712396671889,1.3553004731720542,0.6178150000301885,0.9038702520889421,1.1138943663110752,-1.5170752052813354,-0.4063607099320165,0.040249967543016754
-0.4528587585783265,-0.2848789816103301,-1.1322566968281518,-0.59335358561084,-0.7362737659682629,-2.671699772668442,1.1544512401653952,0.22422833414378696,0.3698633381502432,-0.519736732583927,0.5390012063688604,-0.4867566325385443,0.7860375321817011,0.8699117479912797,0.08413710573618428,0.7964542028307114,-0.8804121152875823,0.2586726034798573,-0.31290066768143837,-1.1073919579918392,-0.3197226596128556,0.27268269497571257,0.12286051939210717,1.566274625165513,0.9714409511053343,0.1179127754059689,-0.11858782147217084,0.831625518698714,1.3442499143584183,1.762420726868554
-0.12811235698539875,2.348706563412899,-0.2203503275832433,-1.3656004366595167,1.0567022421547092,-1.9684433456097319,-0.14186156666398014,-0.13604354386722817,0.7192223305736084,-0.7401398183867995,0.6888688864269634,-1.1641120871368158,0.9947897693341098,0.4863715847094505,1.420455867827356,-0.12605438796435864,0.043320115451239635,0.16956677101703976,0.3402559189442213,1.9579380525640375,-0.12783314767277704,-0.8124898824768916,-0.6476619951291109,-1.0154963613179475,-0.2985944324874354,-0.5183014347496198,1.4695962578081974,0.3627935723291292,-0.06419985236457904,1.0528811993853606
1.9787017993236355,-0.6173812007120514,-0.541490461808596,0.819503285408687,-0.08244148457362417,-0.7027217591039504,-1.3041714710692702,-0.1861248880197383,-1.274990738903992,0.9557478374889231,-1.6035944950983472,0.18700213394101164,1.1961094672980748,-1.2395911415014849,0.6955836097417434,0.42490592605386723,-0.5048213452525339,-0.42541913816297805,-0.017905602696255837,-0.5162105444159253,0.18550646771341364,0.13835026493673735,-0.6882509450476326,-1.7210623157929672,-1.1630057654074921,1.370208028645044,-0.05257448883258342,1.3050349325931534,1.1937545910137608,-1.1394704726062783
1.277034341003599,0.43908611561823074,-0.24869457619090762,0.12961909472079966,0.45643933694724953,-0.3596628141020924,-0.7014283838028386,-1.0719903435578078,0.3144178277487396,2.988011700068189,-1.595994090585442,0.036061546676260534,-1.1669284790800698,-0.23239796917216535,-0.352933654262518,-1.0976535349839827,1.916781214828532,0.11865339112265189,-1.1068368355459726,-1.442906959032574,0.6660267255803375,0.14689809788701888,-0.9462641673236895,0.575307253447978,0.36307259285900956,1.404851360752259,-1.4760561925827733,-0.4756180963902389,-0.19903374633012588,1.2778582677517636
1.2397158278195266,-0.961483811105321,-2.1545296359985877,0.9346513594038077,-0.593572374741099,1.5874698942633616,-0.7684900099913486,-0.3030267395760297,0.19992970743653168,1.4311909982933801,0.3656815784055814,0.27185102690747986,-0.5710647671962228,0.7226870882033813,-0.35457539563160684,0.2937861284603927,-0.6608113938868716,-0.019562020561528812,0.9506312552941661,0.6698415474101483,-0.1433404403091126,-1.488899795896461,-1.6665561380077472,-0.05731103710514715,1.7476503009122124,-0.6581936515564846,-0.6024597981639532,0.4348566072449314,-1.102190775998457,-0.9588758003093684
0.014959019993503044,2.128741690645914,-0.14074728834737368,1.077163011416619,-0.45725061530301764,0.26139417572507645,2.6836319315685544,2.2321878709228353,-2.0320949701305273,0.44440164147515954,-0.8752282747876681,0.7058798715089094,0.8235442142612107,-1.2367717668588512,-1.9282607380342849,-0.12890414506253528,0.4067646801759361,-0.13472939381256144,-1.0188930610663551,-1.11955273339806,0.9083336103695032,0.01586351063836961,-0.439220180577466,-2.865632044837728,1.0587244402270564,0.06980540318374559,-0.9777170703929574,0.7751960852029047,-0.8100407519751315,0.9826229965530486
-0.5662258327917276,-0.15607336811348047,0.6457592778123395,-0.5018612593038224,1.0024147821172043,-1.569658235635452,-0.7856907814814769,2.8718436496268045,-0.996054599324653,-0.5884613979757912,-1.3347996079350317,-0.6060209350568124,1.1558518139914447,0.5824060231943113,-0.02752866149197869,-0.039618995455800526,-2.8518864350689617,-1.3329263637985245,0.27845322810133677,0.577322489708225,1.5246306521501785,1.188325463456464,1.0014341265664048,-0.6183716105420161,-0.4764153077941065,-0.0384881202499491,1.0593265416785205,-1.0301743556994467,-1.3776904576937543,0.8912060266417385
0.2757139052318694,2.0053908158845517,0.4787136908455461,1.285540597515526,-0.810189917424174,0.5943912141833658,-0.34372841082475347,1.3368783795989665,-1.7734346242155872,1.856909498661012,0.5594567035715118,0.6587988454505059,-0.9048213045500187,1.0630342793982437,-0.9550357176420791,-1.181202880827588,-0.23144385791719113,0.0318509944635041,0.2643050936180332,-1.1184913437129582,1.7680869316139924,-0.3622568754559597,-0.12195157051712227,-0.362574166845556,-0.5534489936349635,-1.4107594975706936,0.42654344519302023,1.361004816138691,0.11318387591552234,-0.9762068014682833
0.12130379508354922,-0.01486883894244989,0.7419677705979562,-0.7117873780152774,-0.5289733301749595,-0.09422857901766138,1.3863162620409406,0.096219241037246,1.7968183756215272,-2.120501522515984,-0.41810757789131126,-0.19501284621657286,-0.8699919463466148,-0.029617703182029,0.039048747921731124,-2.009875256090729,1.3111535066410613,-0.9388907985419508,-0.41082182480917495,1.0204250984220262,0.3907575903242111,0.7187299798675315,-0.9410301753723279,0.5614085407022227,0.3980790390953318,-0.05980360982074193,1.9612148938405647,2.2545184607624513,0.6172526669019617,-2.310719990762514
-0.3604529239426606,-0.07644380980080506,1.025195322423567,1.5007720039075632,0.382874415283964,0.5865292447807938,1.3538602249533982,0.03991610670844411,-0.25518975776902797,-0.8127176209254661,0.5865381348465862,1.2942196598922808,-1.472653058562509,1.347031430098583,1.0205939070257526,0.17335854802424763,-0.23577167195207416,-1.6732892106227697,2.1748289465025787,0.8872482654853278,0.9189818516919922,-2.9217039120750052,0.4042331917609535,0.6122706227855533,1.48846162795795,-1.523584316098577,1.140281687023285,-0.2668998636501921,1.4199206168960783,1.7533525014961269
-0.8325170324908069,0.22907544082515732,0.461511405194152,-0.6651331087520506,0.06232367798682494,-2.4301057661078254,1.8138982441667812,-0.6104871123321491,0.7364996025257609,0.020708499359707592,-1.6788765472461527,-1.636088382495699,0.31734098051775805,-0.412224164955821,0.830264193119558,0.9252234370127345,2.5043392155735464,-0.48417444348458827,0.5586262042324868,1.5627902126268012,0.494047519359087,-0.24569760317923273,0.25157382113644816,0.870107919588731,-1.8995110408240938,1.9976259107809908,-1.8240247529586004,-0.21740867520358703,-1.5235048872041355,-0.544475007388351
-1.1813033773365005,0.5351746612763318,0.7206016929907458,1.3757892938766687,0.5202408020725339,1.508707079670427,-1.2592969314195426,-0.45488566666542574,-0.0076015692612024215,0.3085849393846807,0.47631464644333654,-1.6949911815758383,0.768904537010566,-0.3133354443292073,-0.7317355594024381,0.5003008030699606,0.36663728790639777,1.979628950026403,0.5100217362661882,-0.13681934568668636,0.6828842090200401,-0.5622078396580162,-0.7628348231407475,-1.050282451947652,0.12699159326243803,-0.44067700102423124,-0.6402300261349888,-0.43734969474049384,0.5800554559042723,-1.4435623302651426
-1.5167193901493137,-0.752972490674373,-0.2355204304300385,-0.8928763664530739,-0.4712189131350884,0.5405598550064865,-0.12585222499335122,-0.05882149524133949,-0.7300426236916955,-0.26308143742622314,-0.6347479196977927,0.37068916143559977,0.43762541827250306,0.4215178753621434,-0.941248107857994,0.4264935217941541,0.38357413065812274,0.1625359032387012,1.8409153422154974,-0.9815855026724586,0.6694398278212825,0.42489349774662216,0.8795385332128361,0.543468427796423,-0.9555003833108717,-0.23841320207306751,-0.4388188632173318,1.5720596827562356,-0.41127727647832074,0.39957113490201657
-0.7157450688515786,-1.1595175955360493,-0.15319199759934385,0.17576876444865477,0.1387463375240548,-1.0304682531426794,1.6620088058416906,0.4501386023499209,1.53107055589471,-1.251180361322305,-0.6708551509787568,-0.6960999688265237,-0.4682083428053644,0.6219489948470761,0.6527777688621044,-1.748590698996187,1.2074112976811298,0.06629352306075646,2.6216411061295095,1.7579715825715143,-1.1772944314423799,1.1254359380013486,1.3330823319497709,0.17007577562266998,-1.1638776276941414,0.25883804687085676,1.4178349825962664,0.43888907880115,-2.7684982430817358,-1.1006744170039529
1.1549518831893484,-0.01205265562534691,-1.5126203052056646,1.6185159783690848,1.9675983419669398,-1.353320739301849,0.7656328537712112,-0.05489805483801696,-0.7103798531865777,-1.2939778025494502,0.46566188045388435,0.8390628801543322,-1.2851625970740859,1.07471704293746,0.9101372012322327,0.5676892815719118,-0.6945059346762669,-1.228049726656125,1.234883202056769,0.10108155511399602,-0.6250781875987887,-0.29829471405213887,-1.6626912272550347,-0.35470307756364994,0.9119074204132391,1.3722382559519597,-1.4033173450542182,-0.4533548986803551,-0.650481352721945,-0.9094433625864935
0.730567402925425,-0.5020493348226751,-1.9332941367134044,2.534993920936645,-0.015867843255838614,1.3300179753387311,-1.828590287947509,0.29346128216578843,-0.3978837435262895,-1.1782593956530472,0.05782879014325001,0.143743011519832,-0.1383066075534854,0.5472328819765447,1.3753581405519506,1.031844341576219,0.8746236176029192,0.9153432728704108,0.9764528886806649,-0.3341720479189744,-1.1737084754857074,-1.1537398259514458,1.1473390767072351,-0.13154712399719704,0.795059340192047,-1.6002392125313871,0.6884718869150152,-0.11223069734491119,0.2771160522627764,2.0772243152559358
-0.26365799276444174,-1.91408287740716,0.07580997063602544,0.08029403095087026,-0.0024531621892827015,0.7732804721138805,1.1430787598522913,2.1932171614039855,0.3015375785142761,0.15100270851829076,-0.07402073650165296,1.3449654427881006,-0.8446271369824311,-0.611683321159031,1.2058421673668431,-0.13075573833086826,0.4069547909427918,-0.04830824415064757,-0.04979439584137431,-0.2218574785184137,0.9281110499813227,0.1579622498436546,-1.4880929170695376,1.7994049739325042,-0.11013966281213194,-0.39846030652225944,-0.1520907464174831,0.6122379155591393,-1.7609889071109586,-2.0419305799844882
-0.48877419702831787,-0.6696952979518058,0.8702237707263651,0.8937727599448327,0.042740945636418975,-1.0502129640865394,-0.9126218856827583,-1.3969136055056732,-1.7841315409457055,2.119284497048145,-0.8822195548494203,-0.5465637620291024,0.4903693632337008,-1.3250155076168542,0.14745728760654025,-0.0016336400655541955,-0.39326819673559,1.2369038489526423,0.28085210249601944,-0.2438896930234905,0.1709275642439559,-1.997169769932313,0.8714686017346505,0.7627321931984407,0.44487181363686773,-1.3900020207588002,-2.060147151106375,-0.5954653824081614,0.39077608230847166,-0.2831857693289854
1.389798317514746,-0.8988500894903907,1.0322618448827507,-2.525509065483541,1.8082180014878149,0.8254520821327934,0.3432641583738095,-0.25452976967720503,1.6996113423130916,2.1204947029526693,0.10204004920649482,0.319900302750269,-1.5856170770795186,-1.1906973046570049,-0.3747069905617844,0.9214144248117533,1.9351121491597019,0.09932361224835637,-1.1877226526352052,-1.0403711819892623,-1.6158475371606429,-0.9892057808517472,-0.18405202109680713,-0.32888792650736126,-1.611470440588304,-0.8375446470051492,0.3581940222218279,0.2111708687802819,-0.264319092195873,-0.8106195193932695
-0.872030562843744,-0.4842960898544322,0.3100757576814935,-1.6856374203665614,1.107231001037924,-2.0330985159077875,-0.8251558085864861,0.7587954830506033,1.2858051604504388,0.23748890277715978,-1.6979761070607038,0.34121878795505967,-0.5102579084794892,1.1429409921730906,-0.016358468466467886,0.40132799033123356,-0.035040347799601426,-0.5260268212438513,0.8364848388264018,-2.027083202520406,0.8878300077264291,0.4176662085416915,-1.0817439047598165,-0.8201515235111198,-0.11187763495160649,-0.18140077800432916,-1.6961484910922233,0.983124483871446,-0.4059783989094864,-0.10925567470425963
-0.22559194014005746,1.9967189805729535,0.8995507346533155,0.36357468666934356,0.6071660332602559,-1.7034669684072519,-0.37873542603272853,-0.7381646642118967,-0.1692463316181937,0.09809466483646845,2.0582958382453334,-0.22862987833502252,0.9323575347226271,3.3485327471482096,0.25437954765088605,0.7100658855414658,0.869926933840751,-0.6607073331739974,0.4469592043204016,-0.7113595834150922,0.22724433180158432,-0.007851141225945253,-0.22306506611855711,0.42305417173939386,-0.03778826655109977,0.3771851500213849,-1.9542305910446605,-0.21930324922992364,-2.3110685885077786,1.2023692610609953
0.5114556086781528,0.46209768033571064,0.23908288252584942,1.4135101214117702,0.3132634888530272,-0.5383794111305698,1.1702303073957074,0.2839755740483634,0.3757288108419735,-1.5161667504816647,0.441367700079197,-1.1782503844095398,-0.14929852416615705,-0.7882027330220194,2.2949434687387407,0.07464635099287184,0.3226323946698683,0.8685926221870007,0.8598304083969768,-0.15628526523716435,0.9109699834198772,-1.5300189499287593,1.6176786298809538,0.8163512980537955,2.0293739395728663,-0.327730738224853,1.6375777105594516,-0.0591341950527216,-0.8352125284674513,-4.096437809103663
1.8366798391844446,-0.5263595716302686,-1.1416482546329985,-0.4270172220608025,-0.8031667598706019,0.5285373777496835,-0.9464924721010376,-0.7320163552303555,-2.016426798554877,0.9156778769187787,1.2684632938534868,-2.1110442810274437,-0.0964594772769321,1.1535643906791717,0.3504517002881514,-1.6373930033850785,-1.134782970788548,-0.26359331412149145,-1.0125312501155332,-0.22982632966229477,-0.03431426436782762,-0.8457698360392849,-0.4397182627937037,-0.896883889666774,-0.8753687084687838,-0.7860685314814142,1.3243298525964113,0.5307435255711263,-0.7613105006320509,0.40834266071070213
-0.13712860555533407,0.6752941640690376,1.3145079121922867,1.7308425193936345,0.435202458194753,-0.4480403697662662,-0.17194060855140358,1.096994021269341,-0.6023391565601153,0.016448891904793407,0.7112450093343,0.1866265295910774,0.9633629219782788,-0.517383549840796,-0.7244630420638732,-0.11160296604546835,0.7964602684651727,-0.45247425858682827,0.30668908644607035,-0.235947716269926,-1.1256592943429307,0.6930479455532138,1.148552367481272,0.22411839131072078,-0.7929365906140328,-0.2098165315335411,-0.02112280893169737,2.015458179720637,0.21938943199450986,1.6625066411007883
-0.3358389950288995,0.3222240585921728,1.2829787721680836,-0.0007269613949234216,-0.7052766111958229,-1.305669937829876,-0.45489898478195867,0.8103328245307276,1.0636177259554584,-1.0153493174059947,0.10248575699461626,-0.28258868218754574,1.4477329832285857,-0.8736355724432814,-0.20284673825890132,-0.8514004558922756,0.7088177920160722,-1.4064189829898885,0.19448985900776006,-0.9592277180130249,1.0067237717670336,-1.411552793135009,0.5297484866651676,1.193029474573193,0.7182726860124987,-1.471109248929752,-1.1678379779264048,0.2226236938560278,-0.020810624993524766,-0.057737714762660215
1.3083297801197293,-1.5100311594347686,-1.0645936380335959,1.1949855420808273,0.10402463998167491,1.9389432316134712,0.9932147334133352,-0.3517834836013073,0.11148258840805558,0.171599268756378,2.5358047597367785,-0.5270256764726505,0.8337276109552928,0.08495477784938102,-0.7255399762607398,0.3144577433995913,1.330509267977033,0.9017475897845225,0.25330305957803173,-0.8613825695819985,2.144180105539733,0.07780899325712563,-1.5473587199101975,0.425773558492234,1.7742383639145312,-1.2780645006800646,-0.756588718945332,-0.01877268656921825,-1.2381307019385581,-0.5154676615441288
2.3259448478147764,1.2022944304676502,-0.9857492706625017,-0.5343627323042285,0.006412937240919301,-0.013880106294212073,-0.624857842656499,-1.536517753829571,-0.4374302197486007,0.07699746876422728,-0.5688871533085228,0.8608057502251316,-1.0374528119048645,-0.9043276311688514,1.7650205239311818,-0.527650169017602,-0.3190179974969098,2.064323688916983,0.46288707414986874,0.6952889680860196,0.9973284980093414,-1.3439659360826925,0.2961299601377213,0.17115468334780784,-0.8095311320458163,1.104017353137649,-2.37170870358588,-1.00449497345352,1.7665151895376583,1.8119144668369402
-2.790082533889392,-0.3981533399235559,0.04123249762628008,1.1016880305030603,0.14657121062998596,-0.5120391002314778,-0.07331126472340437,1.0476826437786846,1.403375466292721,-0.5848376400014809,-1.1048932610986129,-1.5991390515884807,1.7631064396089648,-1.3046556441263992,0.28324060567064574,0.09689056241383004,-0.006375544079316938,-0.847100655270364,1.2148328881796406,-0.41118483496411035,1.787208314724637,-1.0139226134158326,-0.33664512965222015,1.8263486670439621,1.9553036628656375,0.15210566181910734,-1.9702911546778312,1.2865496207395635,0.9035000266092259,-0.07900598988966431
0.029416039934064914,-0.06960900243034067,-0.47122423953850245,1.291443345223654,1.1726181407901846,-0.34409745134443653,-0.84240896753146,-0.40050744165497304,1.306944997466256,-0.6636815473267564,-2.147799631147502,-0.7458790912903146,0.27129163890252506,-0.25392269330110057,-1.8333601159962432,0.31298219346553635,-2.919136187263114,0.8626036671271452,-0.2336520771452592,0.5800180606419112,-0.893346575060261,-0.8013578270956474,-1.12504744181511,0.31460634594814935,1.3316285486325732,0.594392517531968,-1.3720661911195593,0.5627271234214661,0.8967277185446737,0.4434634840264134
0.5635050177226735,1.2860217055593146,-0.48649002068602776,0.31013814015630237,-0.07741713305222826,0.8948040100595738,-0.1248049983569529,1.4442862429927252,-2.377881078631413,0.08502463363712204,-1.1547618408826172,1.555369140255192,0.25840224767765063,-0.6066124574744663,1.0000868607154887,0.7261644945532391,1.7696678436937692,-2.1821708140329585,-0.4811270245237314,1.196515375774588,0.2826298391491632,-0.35143011073022223,-0.006701834832058024,0.3420052603139759,-0.23204010171058267,-0.976577598271379,0.39211426906551217,0.11448901033285655,-0.3658570383759428,0.45531809208648044
-0.4373951375036707,1.5416612447015698,0.9092534592231518,0.9949499918334762,1.0632769579429737,-1.7740758821396827,-0.08308930742794694,0.49474075846671,0.5961393054840046,-0.5964107010577168,-0.5134132138070238,-1.0763275344296888,-0.511972024835314,-2.188413565984169,0.6317998189640097,-1.3226037177892982,1.4547858313486604,-2.0848090913884345,-0.11334734695232718,0.06894185571232002,1.3947595719387686,-0.11524197906740352,0.30427735634312825,1.2572015686851865,-0.0271642159325744,1.451085859362703,-1.0109874671550803,1.480742004859786,0.3171878068356662,0.17235785979145724
-0.546797100846617,-0.03299127710540634,0.14558977170394355,1.1777459348976185,0.7114351127328278,-0.4378402720890437,1.6699309852235626,-0.3595753338643286,0.9162649731751608,0.8435213070903045,1.8096118117718438,0.4366345150793664,-0.9156964144767211,2.09334378537576,-0.6506041399729157,1.112252395509025,0.06496648920011834,0.40662428694565683,0.45407195253563615,0.2002636558941581,-1.7243032983573863,-0.19318441325266125,1.2939776497847206,0.010405712026553245,-1.2699502422967228,2.230162916020306,-0.5681635433638779,-1.855798732946727,0.6858106629444606,0.006929751455614501
-0.32556806700601865,-0.9237551804984712,-0.7437358903967979,-0.9265158023421795,-0.37073070705032635,0.29795552992018187,0.4504531229133933,-0.7054327846436912,-1.8694769429340232,0.8086395046258277,-1.1861010406020827,-0.7639679347578663,0.0058618749916555905,-0.03408885785865511,-1.726544213215215,0.5678325575702172,0.8628191633557183,-1.5885968679227103,0.9131608350708895,0.6347785518653583,1.3787323515019112,0.3759878464748881,0.3441205546670979,1.5724193972921854,0.0988229838894796,-0.8032137820027893,0.9548454772508762,1.1764171024194114,0.4752894571981949,-0.8369571233466072
-0.1535582979711192,0.646009319254565,-0.06589457285104745,0.35683796833361064,-0.5744532238417032,-0.8098765531667887,-1.045782529437952,-0.9388884147761225,-0.2682092239076627,0.2040497044122193,0.9621776964058041,-0.6465650649304183,0.032486369915437234,-0.04739903557773308,-0.5304087781924857,2.362963729206659,-0.8460482336302867,0.5188969495100936,-1.283519381318165,2.380731346764932,-0.14142349546582875,0.03938579301576668,-0.5046232727675584,-0.238835179030142,-0.9158467136680339,0.4935892860189906,1.0432549696625162,0.5353235442179047,0.8709169584645147,0.18089356691837927
-0.06895185057082996,-1.060572387119435,-0.15699063000221591,-0.41195004113670236,0.2913033639310826,-1.2699494902803838,1.3486642639954314,1.0506356210352343,2.0410404786575125,0.6119689401683289,-1.8457475554384033,-2.5741744496742385,1.2593770833106086,0.4289985891069327,1.6762418327075956,2.123442324350737,0.2250321333288641,0.897676788492216,0.18471634746432067,0.1555971228510734,2.2803030934747857,1.2719586260642646,0.03725087842859823,2.1391650977546295,-1.2964390486147297,-0.3877419989054248,-0.02259221751629587,-0.17205183752420225,-1.7407219091068298,0.22900474793477726
-0.6341960480766653,-0.365558137852349,1.3315980905479587,-0.08567993783513456,2.035158524765082,-1.2676427946747948,-1.9275506502485362,-0.9665017777761666,-0.2331471044050956,-0.46540166365384383,0.31453197870362526,-1.2521785742860763,-1.4624458138296121,1.5934728584457905,0.7906974600805861,-0.5201165770407379,-0.8972835205913353,0.20265889225232542,-0.9328598427434671,0.2236290750318733,0.8773056554238854,-1.6123413302933345,1.203386034029651,0.25068920611910206,0.3102440672578276,-0.04316542877568025,0.5004820869852911,-0.3630073441843438,-0.25044670326939067,1.091694612531132
-0.543337059592344,0.4429169401122166,1.442543574893375,1.4162727692711086,-1.023727004736211,1.025954134380522,-1.0934555696712849,0.09573724257965634,1.0413874272696078,-0.939259765361695,-0.9779825923860256,-0.08158121937191973,0.22552959130950756,-0.16717299374329136,0.1416240038775572,-0.7127962434358246,-0.5761084809047642,0.07784510503618504,-1.329784821380108,-0.7417488148384677,0.1022771522759405,-2.131027358526297,0.43836746820982975,-0.3654882073546073,0.0007661184459162377,-0.1457755613415976,0.8208064673158185,-1.0248009604368173,-0.9771773131073287,-0.4146729236034625
-1.0202830211351925,0.5070233627811659,-0.5606301947015642,-0.8792699414647209,-0.9650326984443347,1.7571038326266506,-0.4108461822570468,0.638095467616409,-1.4296326326601427,-0.622955824195407,-1.4246860779021722,-1.7169962309573368,-0.17866295821582204,0.19469521988063332,-1.1352236575012322,-0.1306075158145198,-0.2835254202531687,-0.44630178710088547,-0.9077954474042544,-1.0626743874015718,0.22275030795678347,-0.13593029985343225,-0.7995835814981347,-0.9523920700350362,-0.9634468305923015,0.06931844877666687,1.02363986150058,1.5057564824195149,0.4428530963943238,-0.9956909601746158
-0.7488341930434355,3.313304797765242,-0.49116699900190514,0.8693586896196828,-2.478208359119831,0.4524642989183295,-1.2216765993941898,1.1603615099278817,-0.6928491119901741,-0.08533272447787725,-1.470450896832566,0.4142658386850584,-0.6162764757899012,-1.0873388381250564,-0.46907149938516074,2.1254638456157773,1.4878305365955338,-0.8930582274571468,-2.1799749829453505,-0.1431255224757904,-0.5066512551776474,2.2306426858689687,-0.7376710799477453,0.48520899167616227,-0.50791440307444,-0.08977132933317493,-0.5897805911002317,0.19502241936151346,-0.4867565786530847,0.5471505202790882
-1.0138261105245814,-1.3568309593331178,-1.1145461874537133,0.21817431174985305,0.7201899179175777,-2.121532407381636,0.1178946845629834,-0.3370512771184907,0.547381868412165,0.14526642247786026,-0.29273136051448867,-0.23680162286673595,-1.2634698942341072,-0.06683623185966246,2.169293215661438,-1.2682055818882072,1.257814044021854,-1.0633950448171114,-4.4566057469020794,-0.05141846530233184,-0.8470335862526076,-1.3393896580997369,-0.6631010578934341,-1.4798508570021702,-0.28549466770885595,-1.813485594861815,0.2393737320524373,0.7447063590317995,1.7645840301902977,0.9172013467100418
0.2535908251703611,-1.5000117597748812,-1.4798684164961822,0.34351434795443425,0.5847070891894501,0.9371819867988064,1.2628505422178011,0.48132703580921204,0.4851170097190948,0.5414556715851886,0.22367159943587064,-1.4109616756510976,0.8189124907625858,1.430596577084032,-0.46145953468697637,-0.8965285348990627,-0.1305177058055727,-0.6826231901938341,2.0275443345072848,-0.2592853943451685,0.36121547317592834,-0.22856973224699725,0.7061956162678853,-1.1559564898655637,-1.2599105815557234,-1.9455875889441108,-0.3324614265344402,-2.0734787561937167,0.30058773506384096,-0.20054705621720972
0.5930169845088545,-0.32500238590713215,0.3126297505673286,1.2806581638185097,1.5610516339233171,1.2330445486068295,2.2418160670507437,1.206848378687658,-0.9764024793703002,1.2051558321945706,-0.4234379921192725,0.335179707425925,1.546162137376925,0.08084799907787146,-0.43896589596123553,-0.2471921766754674,1.164816296805346,0.6533203512867248,0.4186864900391839,0.7340601731290272,0.4294110836345518,-0.15670678085595913,-0.24784618012227771,-0.34594966714234426,-0.8737405329547431,-0.6983860615229256,-0.06054580624083581,-1.34287792716177,-1.5823455875779713,1.4259430318899353
-0.11839676699803285,-0.27493832908928567,-0.8899777884145829,-0.008009499078455261,0.9208121704711685,0.4037215237983607,1.1512050906051712,1.695797915083367,-1.6909185995835754,1.0860977068724111,-0.20918426612977675,-0.4366434998152131,1.1747530577733523,-0.35431358227732,-1.1803096298122715,-0.4323873111082543,-0.4348586149795228,0.7478532499881114,0.3590747896175192,-0.5161050123622981,-1.7358517279518206,-1.6170256799900202,-0.14988789847135092,-0.6093278954911397,0.261304591651747,-1.2214324431286907,-0.8340056529443606,-0.7619957597343514,-0.39853575233907446,-0.8182421858960546
-0.44740699029566555,0.27168868015979514,-0.8505667911493794,-0.6741354360764327,0.9577670096587859,0.9910492589507068,-0.7471642597266852,2.056592873012978,-0.12566509318450672,1.7164859214899366,1.4467195626929163,-0.6308962052594869,-1.4640981174797723,0.25444159609822875,0.19774327954270338,1.722377663440369,-0.7743158096260093,-0.9349016564634618,-0.6526979372107456,0.32120541989640383,0.061329723888760325,0.7294901937693059,0.7509595508467922,1.0358903156391333,0.5241184051180856,0.5630134885540711,1.448207182968699,-2.0920755569123552,-0.0740156467667728,-0.333207064715588
-1.0581277824999578,0.128870361062172,-0.7262343230931669,0.40799723845638014,-1.9052071394608159,-2.1385894488665476,-1.5327751535846312,-1.695524663275319,2.108072951230902,-1.5404547432280664,0.04921275214188764,-0.3859485046330867,-0.0453468229038123,-0.08418499526961992,-0.9197568641312016,-0.4648087721209524,-0.579341721815715,1.0077404194688506,-0.38285595030083525,0.1722538766217834,1.006598742361569,-0.11285932296010702,0.9687157562624901,0.24099932557869888,0.18964822973461962,-2.4417974463266017,0.5421725774248819,-0.040201657805463635,0.48522640593711347,-0.06934248795426913
-0.4988749594962866,0.36003257917284137,0.06988258252644826,-3.0298632429862433,-0.3428344938732275,-1.111395952717421,-0.4694901274788919,-0.3449374283291308,-0.741175774549292,1.8627814600549917,1.1427346272784342,0.35815620353436056,-0.8218209051486827,-1.6875788257461413,-0.5561944832317308,-1.5825529743534026,-1.569378161905999,-1.7690420451516256,1.832110191769033,0.5650626592299564,-0.4189401176598785,-1.4235010343823602,0.8894987299122067,-0.9060400902641653,-0.10571596924191608,0.9320284680829413,2.2206007990689365,1.2566058978230459,0.4156755178718765,-2.0086571659829313
-0.13859552399566555,-0.47264883454572165,-0.035288925145019016,0.0693550175058529,-0.2280292820700187,0.6165887030538021,0.639330320294822,0.9040784189882101,0.27924732307527184,0.29893207419945383,0.6033513711216933,-0.642456114995142,-0.531261721382449,-0.38148409088337887,-0.3901537058770675,1.2243115096134238,1.5673927510862184,0.004497452611471569,0.028970896239858518,-0.04566382821809877,-0.9661796123839541,2.0030804495347634,0.44344613890104473,0.7898230321354833,0.4123162264420637,0.32419583795065143,0.025725018941816006,0.6025235688738757,0.5673239348124656,-1.0646592225566527
1.8034195319099346,-0.8050232528567992,0.3004022356096022,-1.0253986470223873,-0.5461951006157275,0.6830461796499536,0.19779121032080627,-2.340965237418066,0.7572339891483553,0.7403338414177538,-0.6431905038415718,-1.0792357432381245,-0.6099506412002068,0.7404691521091972,-0.7379981678339874,-0.8407914730943451,1.2949417634016416,0.6274897992256754,-2.8189490053997632,0.8523331627974136,0.08528866378050713,-0.5479212221128033,-0.6463953889278847,-0.33531215661284036,-0.3326406098364939,1.9484658910907162,0.8154048394213048,-2.302286257715661,1.7549835201189912,1.5493749285674026
0.8133767290252699,-0.5283239293663289,0.08102048005011142,1.146145053310955,-1.0186195624560184,0.6203657950257621,0.13411387109487596,-1.2975755999055196,-2.239949652045706,1.2238186987824367,-0.7837283141041579,-0.14288350314892667,1.089765930917375,-1.215603619579542,-0.6974745686123307,-0.859728624180481,-1.4131701286446023,-1.1952527134380855,-0.7245508103483164,-1.376623718030173,1.2234789257607845,-1.3404725845363512,0.2730369158360272,-1.4892693186423682,-0.5240263137348612,1.525647974461188,-0.296147129052404,1.8270808310234234,0.8890465132271753,-1.3640854620127985
2.0893881033490316,-1.0741535018138004,-0.102776591419755,0.9375313704018672,0.4361023566059491,0.7116935216951565,-0.026769817671674672,0.5720613037196994,1.0434129193735893,0.09195103965960243,0.25119406130908734,-0.34504229663100583,1.9916430882549154,-0.24602137156268258,0.12273622886730266,-0.9356854912778894,1.3588689535022656,-0.15405735347689195,-0.07229733494512171,0.6266144251620284,-1.1781347655210601,-0.03263493872967227,0.17019302079566626,-0.22259860463686487,-0.9208828793250166,1.574564402989679,0.9618416016401244,0.5679678846333474,-2.368485038833186,-1.3010239338920853
1.0439389067052067,1.811695379398886,-0.2910439617803237,0.38791674635667556,-1.3247419886021128,-1.0000660866194502,-0.3428919795232242,-1.8457164287864691,-1.9332645526181806,-2.003142569803188,0.8370875439814703,0.6620219175087038,-1.5208706403631822,0.503025115948423,-0.0477613438338734,0.18679655690131733,-0.10685040525765072,-0.4597441054820104,-0.25586906516855107,0.5807761506086095,1.218134627485077,2.2761372074006423,-1.9152259102085247,-0.2728042871592232,1.3609928349375753,0.6730503673204542,-1.3088700415731935,-0.48330611377323773,-0.9748051148545043,0.20670784018225816
-0.04503619755162507,1.1921600612926777,-0.5686327926823173,0.6340240759124536,1.3515551683090625,-1.2230182292579381,0.43620885005676097,2.0089104547403984,1.8201342341045859,0.1907788541214538,-0.1894334271375448,0.871802174993779,-0.13219595404616935,-0.07352069432238677,-1.0008301299451974,0.24190031584405897,1.1018499595139746,2.05259035474447,-0.7487447449861114,0.21541959109324696,0.33312539490647697,-0.33417045095214915,-0.5994541577719785,1.389606669314858,-0.8038866066334984,1.2639241645130075,-0.14008550459641114,-0.2837080692529831,0.014289752969712126,-0.4817114780735326
0.21328451010709004,1.1534987860280832,-1.1971726785711732,0.12389283034236305,-1.2043653098998888,0.3340116996150439,0.5942026176190793,0.42317534354855285,0.9587615948792716,-0.27850933663476185,-0.23152806095128514,0.15004907194999942,1.1518883430708715,1.7072546583604213,0.1948360649711884,0.47203027968296746,0.051308946462318865,-2.0315389862766815,0.5880357592430865,0.34943159479080776,-0.9584324215920985,-0.060348175097527317,1.8466327345439493,-0.038050723609080885,-0.4940818254907943,1.6957319074516193,-1.528114769769669,-0.8562734034754536,1.928353000286924,1.5700727473576388
-0.7166606382886811,-2.4685261026172802,0.5684633458124254,1.6524482130248557,1.1914442945786696,-0.5552825829684485,-1.0018621988431988,2.4931433389142192,1.0983718771927398,-2.0350630390458733,0.306261475645383,0.30052319785705084,0.09479993350013492,1.1196919953882218,-1.3094997984930645,0.0468623158171025,-0.06207771450192716,0.5417395598538342,-1.0560616835887773,0.24630629750826805,0.5210151520433329,-2.1461330693781235,-0.06362153711608028,-1.4599980454095935,-0.1877332014871193,0.30026710167387427,-1.683488135249347,0.10922860142014768,0.6010400836345378,-1.0712613366868016
0.12172048593314527,-0.36179937560771136,-1.3494645337963014,0.690096689561726,1.5635222594140386,-0.13987667364991963,-1.0368764622262296,-1.3252548544490124,1.0448027265154238,0.9212388622047828,2.5797821597465873,-0.4704153355380064,0.7150866973614945,-0.5639233893639319,-0.35193521001135536,-0.2747480204472866,0.857218899006357,-0.5428056057676237,-0.7353162920383728,-1.0555030034875528,0.26893329201819094,1.431005352810711,-1.482635426561769,0.12070801045660594,0.7101900973849212,1.0064248196196492,-2.4494365174100805,-0.26007484403949716,0.47809537337627056,-0.1559730935337411
1.4204394891344374,0.5831316227079512,-0.45400141875160116,-0.8679492942056043,0.3634837169560081,-0.3608800537085155,1.0910927279311902,2.1214244694318443,-1.8510825583879744,0.12832994427961922,0.32690618689638407,-0.5171610726511525,0.3733067838513718,-0.10525146319085982,0.24043693476754785,0.8126095018872893,0.9757916751866481,-0.6250827628879424,-0.24856094832536701,-0.3471055388530441,-0.004028887215364585,1.0227247622684716,0.34237408648115925,-1.0034750470530076,-1.4299108401526963,-1.5373776714964098,-0.273239417537063,1.3984830882549726,1.7236520432611502,0.7189284889794598
1.6552699670637738,-1.2627712346425535,-0.16677664171967424,-0.2846560262513273,-1.943071333658932,-1.6769512536143028,2.0134278359708024,-0.18128335729851427,0.9750862770051936,0.12900518194513128,1.1341219344821418,-1.4814679559204684,0.945555724684638,0.2253704513274275,0.658885016586652,-1.6519676758856596,-0.9623623881204397,0.3959004938628806,2.5456131759627696,1.3061138738531681,-0.37531583242895805,-0.404339720863826,-0.9572450698680929,-0.4571063789411523,1.4705932548752703,1.6391192306041964,-1.5350304175843288,0.24420013229555276,-0.9729146969655801,-0.814707269200723
-1.8993972559693864,-0.23227457078581693,0.9848123753546255,1.8837548231603385,-0.2716912996260082,0.07291862471424189,-0.43686081895796136,-0.2573937728998867,-1.4065428584690671,-0.9817834311094077,-1.4638830130109213,0.8963885542876084,-0.11227687083642562,1.7545382274862655,-2.1110536821974826,-0.8751062850436708,-0.5025572437245325,0.3882698433589206,0.4072444543441165,-1.9426735492061156,0.8047505963171314,-0.6005567622488953,-0.183213901553859,0.8236355780653225,-0.13998332471230926,-2.461321499715285,0.6301873773151595,-0.1976056686980022,1.0659487193647845,0.4143297276192529
-1.2624927942134216,0.6668228943236192,-0.21139824646312103,-0.26195731298950947,0.4892681389890812,0.4639796700817754,-1.8316054308767693,-1.628641964668448,-2.079181555978665,0.9189191852111368,-2.9081569255358,-0.328043636663168,-0.7596420282991232,1.6224231726379996,-0.1152494156685399,-1.2693355510228828,1.048317501780705,-0.15763871809040428,0.06409534524311389,0.3452895058070844,-0.9823717793502021,0.3832522525184671,-1.021083214096937,0.6072641105068142,-0.16718004644911602,-1.3481653372055578,-0.05410673100664258,1.1032754178609552,-1.5046218833473017,0.7747055621443305
-1.320940440141701,-0.08483758997008639,0.1792378529986819,-0.05110983873685696,-0.7984535465047472,0.4080389421805273,-0.9752014779948075,2.0121730068330472,-0.017992869404520037,1.2653065199557798,0.1974623536722798,0.31801814794945227,1.1815325048253265,0.2422091556757502,0.03482154053482666,-1.4087767419169246,2.1596836275793714,-0.7246680313664478,1.222549897955536,-0.4908860918252789,0.03933939514969564,-1.072167473177171,0.5603620758838438,-1.9598340276781134,-0.3094427593475807,0.6398514716347422,-0.12378481579398312,-0.6255893982162832,1.3277613834802118,0.6103108143127823
-0.5022135529761974,-0.7549973769547389,-0.09336295879630496,0.3129911486423405,-0.7682971543445658,1.2812726432892667,-0.4115179079042426,-1.0397289218024846,-0.5285171538297234,-1.374885888520613,-0.05736588454192169,0.3295191728621669,2.0766000075999074,2.480063392779787,0.42979174018865185,-1.3793016857744096,-0.07171158733598793,-0.5839362150227166,0.13696739645861047,-0.722383124981552,0.35096668505654466,0.4696686511890056,-0.6480115655036247,-0.35066261127969567,-1.7102807529426898,0.7012523320182252,-0.4243272780081144,2.265228816554179,-0.20813563145499953,-0.12679539910236645
-0.6953127634167034,0.46568916191359544,0.1529677367704318,-0.23213043914402115,-1.2360575734544301,-1.148785954609071,0.20010970050575838,0.6195775301599578,-0.5352768758693179,-0.4867683651868565,0.5585318253693631,0.15408899922831018,0.2010263046554244,0.36190261187411893,0.02208057497823117,0.20597177763893315,-0.012120239088706119,0.3133355420791388,-0.9376907309822174,0.33944329916556953,-1.1231037437062141,0.3885903061465065,0.24660048130674858,1.3040252078061088,0.16326013859398472,1.9472198366987825,0.5033547698839559,0.4494229936853409,0.028906744059070944,0.19063070382649996
-0.19797069476210608,0.531546905519788,-0.2738604533535366,-0.8430765430295498,1.0872988324411992,-0.15002504521130552,0.7747278464297255,0.2913813346930487,1.4181136975835598,0.3008767457912914,-0.053134389658600095,-1.2721493321309465,-0.4493794666421175,0.4949887600609847,-0.0035644694436576647,-1.1349785396719736,0.9358989081691228,1.3742438760715203,0.8447436777285322,-0.479190261154175,-0.5635162741667334,1.1372952450423137,-0.2252352084742785,-0.09384042270507213,0.5660028674655494,0.5788687002466876,0.47403684301721627,0.736010105595644,-1.6543014124336095,0.5519889271283394
-0.3922247538352425,-0.1275579232119464,0.7868662581623107,0.16534596385355765,-0.9469244284769553,0.6475833071930305,-0.1423476171732212,0.45345550712547006,1.1991196359497227,-0.5077715876599643,-0.24604076978506859,-0.13782461304075813,0.07227928490940073,-0.03788805211564704,0.022155396388398023,2.0223415086272225,0.909359113295333,-0.6202250841139872,-0.35880428203270065,0.10343629363614538,1.7879230436627673,-1.3612801471616185,0.21574417408623756,1.4834784829049783,1.4202584986076248,1.3614802700868989,-0.6307578704436448,0.4382818575870203,-0.12473498096828475,0.028697365021604887
0.030471187008489234,2.2479337526654364,0.8347702527658715,0.6586912714849135,0.11317072693671291,1.246065678918761,0.4899012852241157,-0.2605717562001186,1.1136570810699553,-1.3105663654437647,-0.4870994085726612,1.9251388019087183,0.36098398347291166,-0.2286482994258625,0.6031369233368168,-0.2927455209902285,1.2424784284052088,-0.09442247895359986,0.37419974745884493,0.15238545565998488,0.7985892517566419,1.1609544705615704,-1.765613821237237,-0.6818402183771957,-0.2330240560304605,0.04101410575783814,0.5751394663451255,-0.5036274738641057,0.7577886850726476,2.156632313590618
1.1451743822303417,1.8960428935514113,-0.09323997494792266,-0.7022103452668941,1.7083453523793064,-0.3594608250365121,-0.4723997692452855,-0.8759478052164339,-0.15605195220811574,-0.2633915519267795,1.111345149690623,1.7892125590363261,0.7804638979527957,0.10267631134775239,1.0541170855178028,0.06041956722193717,-0.12494563373728591,-0.1048592394359616,0.3333390234997084,-0.842100444539937,0.5417095754719401,-0.456124017299983,-0.07939471014095846,0.6882404660210236,-0.03374842585959118,-0.38891325866712756,0.03338573750042884,-1.4793467965158138,0.5199312292008506,0.6420758375166655
1.390401769266894,0.2917805196834281,1.4356283623345045,0.5220518610911389,-0.7237818594810645,1.7571842504707453,0.16820750538956086,-0.5165346430090998,-0.0571945406195328,-0.27367669648308623,-0.2648438879952793,0.3676417425135114,-0.614041024374625,-1.7862150515394695,0.883982525243633,0.5184207370123586,-0.5244163022256851,0.4641679874494926,0.04301611105924471,-0.5601851744731663,0.2789978853312768,-0.004554967574202189,0.06391298897988536,-0.41349233205383845,-1.6016148628030005,-0.8432893402939402,0.5244245189481932,0.08818074108147267,1.257812370243799,-0.009872752650139387
0.10419991861083933,0.09630786735060218,-1.839749536031394,0.23643749187488028,-0.45402580664882053,0.19592792878870036,0.9937961663357274,-1.3295699536600614,-0.2754521293288356,0.10973177040605052,-1.8201803123763995,-0.310711358479652,0.37023312304493156,-2.4132081132275376,0.252984327861695,-0.7084444079675057,-1.2545398657333815,1.2593014832434444,1.4368691943879852,-0.8426936568058967,1.4490379402972102,0.03515136115534142,0.6908691906290346,-1.876465072937453,1.5172862195937915,-0.8903122643915472,0.9210286265260735,0.9694964946957503,0.0680882427318572,0.4953105820666268
-0.16811848061648285,-0.35319428070696396,-0.5029539357834821,0.09629492524577131,-0.03159411471793863,0.9377439890671866,-0.46533903658722503,0.8817729019084528,-1.5386248794975086,0.4467805142425418,-0.2475628462850781,1.0997872424888289,-0.38933962239468256,-0.011688691795041548,0.3303668475675462,1.508870001310002,-1.2253352061960796,1.0987197995652263,0.2278677734673494,0.6340024246148536,2.6116160955696963,0.20293221762460215,-0.3399341700107509,-0.40352101904482157,0.05788134371431155,1.1367841590271708,1.3002592961407309,1.5724711945360443,0.3835428721194291,0.41142357132791263
0.5400584324025915,-0.34044818011939554,-0.02358923276735277,-2.313818590473061,-1.0004366627229277,0.6372482077014696,-0.48035548006105844,-0.6626659369195387,-0.9250648780608388,-0.6076639546663307,0.23489562405435732,-0.48265215530069216,-1.5333285291875087,-0.3059096136179879,0.7097686348702522,1.5674628919482336,-0.09875881071278157,-0.3624640119088275,-1.0297597844699824,1.2742295084761388,1.7760780731212056,-0.20785146453320347,-1.0844142443643998,-1.5901159383760763,0.2919687023749803,-1.3877734041851337,-0.7500523647809075,0.5093012697422642,0.5020199004193732,-0.549283118389015
1.756409177441065,-2.6984642855976566,0.6854880418201134,0.3727267967387472,0.7457730472438382,-0.685048242599306,0.2548707532692684,-1.0714587166372305,-2.6818515899071618,-0.6748741620097324,-0.4842137283616973,1.22050261014863,0.3771736814568466,-1.0379532176571422,-0.6759408055445741,0.5010075863736742,0.7824758362180328,0.6052076636030946,0.4898171835910993,-0.197163553240313,-0.46501042534037307,-0.3677445440937991,-0.7214513893114614,-1.2586457976943424,0.6383359663547208,-0.179809994357944,0.06835553285431213,1.488897997371651,1.7524203503463252,0.7457485875977475
-0.013900861377671825,-1.3354834037306873,-0.6704753719543594,1.570481798979213,1.6064029555295463,-1.9410831423130661,1.241798633466515,1.6571700894650163,-0.9987861916349706,0.7736550210401827,-0.3436866438554881,-0.7601259009759095,0.46915878537240435,-0.3178418386102127,0.5614414052757035,-0.43953482728709414,0.6092553671577734,-0.902392331458465,0.42993633761781375,-0.22467366417398618,-1.733967717886447,0.2704634758097288,-2.5712147664916043,-1.1439543098534668,1.0742675183786887,1.1010928340805888,0.42500029666430095,1.2311632350083785,-0.5043544359025842,0.6736931978289556
-0.9956220125330867,1.2689904275361017,1.690667888423339,1.27103855555099,0.4289790088265805,0.15898855065327705,0.9710755820797046,-0.01208090602072803,1.1151968263046574,-0.28409662767858673,0.041079555594369814,0.6746946877315464,-0.48406455566258816,-0.795054908626154,0.17819943377401182,-1.8799375730167334,1.8402020200172868,1.5464070756360042,-0.03689750154270659,0.7474580801874112,1.1188791580101667,-1.476461193564724,0.32100894201460584,-0.3429022299292784,0.3567501296620033,1.0625229229142594,0.3038225136924893,2.991724171301285,-1.416983602333293,-1.4238903379508756
0.7111917364272288,-2.6320518597267535,1.7303759110262027,-1.1852913936823555,-1.062637537918587,-1.2313813997327703,-0.4871520167043489,-2.0118762462454964,-0.2025350394122981,1.120176379214025,-0.37927785657197793,-1.9288199399590051,-0.9272356568774051,-0.3935716409407659,-1.0729217191761637,-1.838561716504972,0.7057283075067939,0.28431335285053916,0.9388178074087804,-1.717650528290257,2.7494209016145876,1.3208232364036498,-0.04822284273002734,-0.9017091742570419,0.28727653551902665,1.3940263207865586,1.7091315404965215,-0.2597247232309318,0.43856807375576623,-0.16293100835405241
0.9113741123472912,-1.1791222178056449,1.3265027018869435,-0.2389411719752592,0.7585610289218228,-0.9301668336118649,1.183790542465746,0.2885225190905001,0.42352084686293406,0.030930985269087875,1.221875179428152,0.16049182731410672,1.2211131707904566,0.13945012729816839,-0.46426244434754377,-0.1002221002336513,-1.3545791306269985,0.6092535540421096,1.359640544896292,-0.5735855866585549,1.415270515863918,0.30415120224094244,-0.4803973936196141,0.2862640779287483,0.87990673411079,1.6695237104587508,0.5425754024397396,-0.7193045176811381,0.1399102878768093,0.6314450096717186
-0.2919981989447304,1.1104331111768009,-0.10251627916640546,0.013206627608656691,-0.03728407932736816,2.208006295981656,0.12957332695725904,-0.18724441814542014,1.486557261949948,0.3407457472108387,0.8974648923372992,-0.42746075694932223,1.530949416022614,0.6228878998202855,-0.13052039921940997,-0.28196002139247495,0.22603370851202728,0.07783357125681027,0.2552909294662368,0.036146623748520686,-2.0306311699808854,0.5613972139376355,1.144083416744905,-0.15170948763766062,0.0008883805793309836,0.716762756186356,-0.14825630033905607,-1.5440962092658306,-1.6818710281875238,0.2460647602532294
-1.0906233501936968,1.2499580117854963,1.050699813024423,0.7049156052046082,1.106569934027329,0.344287300355202,-0.4980193881998134,0.10507504133323084,-0.7189355622318985,-0.15063638698580548,0.009131584392714838,0.1289631551267856,-1.522403275753598,2.6569889532979625,-0.7742676482071762,0.025378014424739286,-0.8443879361127613,1.3177440514697578,1.4589365609420253,-0.1559392225880145,0.8798098287384586,0.5733126790502399,-1.2522696666575024,0.6790263262165757,-1.3852576601108286,1.16453070074233,-0.5573831610807451,-0.7478369361337578,-1.230182974674022,0.5943622743883762
-0.376472899673548,0.42418595238053347,1.3964825021478582,-0.5791090244777198,-1.0384580730212012,-2.548581654711831,-1.1357755224562809,0.5976399661730123,1.0400632170978807,0.18157602586677848,0.6504506016346334,0.5317093349569605,-1.4646908664888505,-0.4537083585737442,0.029579218965014243,-0.6623728337011215,1.2505133681043938,1.0729131001101588,-0.1369122694168088,-1.3605256628641065,-0.6658688317920542,0.20945482003245494,-0.668313240727855,0.4661042202727802,-1.117065805343029,-2.4466601873944334,-0.7514200622851053,-1.6361112908524753,0.32288159024304486,0.9596688712547776
-0.22976066580199955,-0.1860813783995857,-1.1611180499278853,-1.191488671115677,-0.24988100754318504,-1.324699794789884,-0.6958687425881478,0.7220907912583766,-0.6581121585025821,0.6717601935284355,-0.011220088955173627,-0.20785504128448232,0.25449520568696,1.7686994708367922,-0.7937406830260662,0.42216096418833743,-2.2191475906806155,0.7529706426943352,0.6912662035848364,1.7031993833498988,0.02213225563653277,-1.206938241306735,0.07323987457376767,0.3594410676413588,-0.7120743768076633,-0.601003196218171,-0.45943820162067983,0.45148031123094107,-0.6910924502536527,1.732046206005373
0.6824583132840434,1.037301271837021,0.11828373154823098,2.154685619099405,0.3488277299897515,-1.4183018973164705,-1.115432752888029,0.3076531751019369,1.0239306153318353,0.03371690728525646,0.7514143321739883,-0.07121833276890456,0.8090610166798594,1.3565649177488912,-1.123427888269933,2.0500961507871467,-0.10508137797667713,0.35398056381453946,-0.20200760076250418,-0.5377869679939103,-0.33146087654964523,0.7580158080280853,-0.012958775721691447,0.3088745237115967,1.2841204246834794,0.7376701394838473,0.8264702822157811,0.29624291847213075,-0.4055173406066559,-1.1308979979438551
-0.49986182419125164,-1.1649016242192867,-0.09151612587928065,0.06418164849487819,-0.7653347592014028,-1.5718418413638071,-1.604867728399056,-2.125898599582551,-0.5439559673288332,0.8758367279110733,-0.8245684787293331,-1.0996602072226094,0.9204193219721635,1.006740645060226,0.6518773466096591,-1.1559211620134842,-1.5586322015108738,-2.1776291433967416,0.4562850672341309,-0.4902990260868614,0.012430641372680405,0.5081016300375345,0.20443843122160943,-1.0462690338895198,0.4110314956742345,0.7373807960204942,-0.24610330858361265,1.4333012473408382,0.8813829281589334,2.3528216544147207
Pesos da camada oculta para sada
-0.31097643156827937,-0.5561550335433338,0.5348577546926253,0.5906777428822524,-1.1079944571208573,-1.1177837862673472,-1.6428323454799472,0.7645859997100588,-1.4410085758827815,-1.22166309042248,-2.1048074424324152,-0.21356552553943933,-0.46710253985047534,0.6765524292716407,-1.1313984953417564,-0.26999197492753874,-1.5998926338771322,-1.1948444882267277,0.5637314665770661,-3.602239984676323,-2.732323267841154,-1.0152498303670712,-0.650566505974643,0.37798857653964574,-2.066896228128569,-0.8655680157256341
1.0237750691335203,-0.2592329360586904,-0.017878868731192925,0.21738310947674297,0.3835117504324789,-0.682754059557644,0.7172199800804752,0.38569364470015416,-1.2198719011503565,-0.39088987017304094,-0.9371718803230209,-1.3462733217197622,0.016589747473081517,-2.310626330961079,-1.32330209795738,-1.7218801836711464,-2.651206157767344,0.2588652748614306,1.4916597605955864,-0.996539992793627,-0.16662503281637597,-1.127247186964881,0.5935172941861075,-1.825387838607626,-0.14911723782358888,-0.4659949941710603
0.6568418882784132,-0.82836465102732,-1.9378471393231396,-2.0568170137291992,-2.4296926794933285,-0.8581033526226584,-0.9238056796614484,-2.293542010012896,0.9488785672455599,-0.5520459835473702,-2.759963392727253,-1.1318565594530556,1.0763678800939143,-0.7513587713920775,0.44821245492502376,-1.4662747534064229,-1.1543383035578438,-1.4032234782517976,1.5934392399131605,0.613399455261537,-2.108424243176608,-0.7742454553024896,1.018659166378083,-0.11876677708952066,0.8154255560760694,0.4608565929135199
-2.354800103242631,-3.1214460702403324,-1.0741165014072895,0.4420451734947048,0.9231360450903305,-1.7414972300616112,1.5553598941261018,-0.3929489014647684,-0.8204351610326687,0.41559050597115943,-0.7619522327179706,0.6059480295281244,-0.06602603438459066,-1.1643849508729929,-1.847604217305505,-0.04620754904434911,0.5218671406286493,-1.7830649278983088,0.6769795574017047,-0.642869514168473,1.5155063356143255,0.187035648805643,-1.6207347505398073,-0.3229853314132102,-0.9202994399160379,0.39181679505928196
2.4545785588928855,-0.21995676313842874,0.30672989227099456,0.06422470293627269,-0.9326073380121433,-0.6075171973475522,0.527078596935855,-1.3598047767484436,-1.83148816463717,-1.3520715798185305,0.7089289616447604,0.5227576783407226,-0.5528807159989534,-1.4280831838826575,-2.0367834303864436,1.7588793014656643,-0.7519608404213459,-0.3543004442682655,-1.9395880150635776,0.9940964954172576,-2.027826514778501,1.3461536050827847,-1.8370237571494994,0.31418628296380513,-2.3719569151946573,0.2722159579872509
0.38352962715362016,-0.46509495337482987,0.530196262178314,-1.2143296932441707,0.10393661518425647,1.7401702625778668,0.3393143173771879,-1.4267497632026516,-0.10431349793010107,-1.0522836286567114,0.7014957056795761,-1.1946013180088206,0.9579502018894939,1.7989729564573338,-0.06127152666100403,-0.295848663032944,0.12934928211349156,-0.016485697774392797,-1.0414095292352117,1.616453722817641,-1.4580479904170427,-0.6666475829475574,0.11128425035696493,0.506749103482627,-0.8449183663940967,1.1992808094222036
0.641469466146198,-1.5825476913327434,0.7386309361268524,0.7252949014795966,2.892772005542054,-1.0677288922486752,-0.5760109587148101,1.3946985434451855,-0.9123132642659707,0.056630347365148874,-0.03461796931874917,0.8922485443720055,0.7770104645221512,-0.10376524021584838,-1.6846711949674462,-0.6415548299427107,-3.4482528502857988,0.17431086178553898,-2.178158784071901,0.5588508030471582,1.1168218546444983,-0.15591293121397418,0.030434381614726422,-0.6710099115619439,0.8355525087158648,-1.1212417393973222
1.0238127985460512,-1.8704603129973316,0.6329761105992722,-2.829908376588751,0.18985388304602752,-1.3020441682755253,-1.477795167917027,-1.9775834498095484,-0.19429793641927173,0.11442011861292294,0.5017166484222851,-0.15692499799733217,-0.9701847747159156,-1.5032012951007414,-1.1390600885152375,-1.0414848571305484,-2.1963852343618493,-1.596504769155832,1.172357835424542,-0.4147403995022236,-1.0517604283244555,-1.2286872526215198,1.3572098837942836,-0.853925002296628,-0.8403569084029591,0.7556281869691878
-1.131063645361291,0.6967273782210509,0.1852334316751512,0.30035016798931957,-1.8341208949125005,0.5168089899165954,-1.2688939042101406,1.3623241817996936,-1.5679365517101602,-1.013969722026266,0.7233225155854202,-1.2060438427338114,0.5267479037944933,-0.5299653844092967,1.1057780520677205,1.6822148540272903,-0.387269402622479,0.26471404603966636,-1.7333170634673007,1.146200675173827,-1.368671400753588,-1.982322002232823,-1.072600939095462,-1.6537000546268878,-0.41392317512767923,0.28269556596022183
-1.2353564789530784,1.3210580854448106,-0.1036066080891045,-3.0335130886347574,-0.23724717892633712,-0.6917952275188308,-0.7324406338560759,0.46467370453461454,-2.1783472640808457,-1.5184733341061598,-0.17651400505759793,-0.3481801796306609,-2.5976511503525437,-0.8427500380458807,-0.43103034540434365,0.3884460146348133,0.25447639866161875,-2.0248551020951404,0.5400270423034454,-0.24784233327136249,-1.1839518541796477,0.026595623860251934,-1.814625122918747,0.15620376709967235,-1.7355323906820226,-0.4320279787728073
1.6368036721343495,-0.2231075908889322,0.3922114830049379,-0.6936586128907216,1.2928892350373185,1.0377595208385038,0.11780640286608766,-0.4113276486258378,0.963608424144168,0.4701946597255711,1.253346068282505,-0.7378807145683104,0.613099937173934,-0.8160612909427326,0.8971172041418273,1.389903381260156,-1.470201177369671,-1.4204893868118236,-0.7963370022138364,-1.9647971727620015,-0.919793930706098,0.40569563476864645,0.7566322934148015,-0.14337143607836283,-0.8431029069743857,-1.4468179534674195
-3.2838479493166313,-0.18431320514067936,-1.9670896526283217,-2.385529364572293,-1.372269967705544,0.5026180834126872,-0.20358808374906026,-0.08850861867166909,0.08399521821541081,-1.1374073372594362,2.962453702866259,-0.6926394943647819,0.26830583724754836,0.3619184049466672,0.6467679295350685,-2.3181233250273423,-0.9651215641360682,1.6662705458783489,-1.0641905296165335,-0.8152673836665674,-0.9031582035409521,3.004354996049041,0.47079330395560687,0.15527252051813656,-0.07486528073050816,0.09676948726238652
-1.3493924069787957,-1.5530262847851617,-1.206417882067053,-0.0005107308283427476,-0.5922030734419895,0.2995523295694139,-0.4255064241673609,-2.1212089250519734,1.0911260105413207,0.23685131454833275,-0.08601995815982706,-1.093200427235368,0.7722146425474113,0.3147975337280105,0.00754509245821234,-0.25347171161246757,1.1061383344955056,-1.442156052029443,-0.4862226481010148,2.0793336882221,0.49359039880898425,-1.2872451317282751,0.6283771226046624,1.6230567043380264,-0.2532556008404399,-0.6052769609235037
-1.4028374605676017,-2.2770769205222887,1.3420331410974506,0.23299347008314847,0.33795493960008427,-0.7804810096821859,-0.014233215088316353,-0.9976673128922394,1.2989840582146381,1.2877775153981015,-1.902452083532631,-3.1258851327171677,1.4521714440662297,1.3595305864989213,0.7552145085844313,0.34085313722968014,-2.1223889862521745,-1.974881600809897,-1.203219772796934,-0.1042952740252766,1.8354708994519622,0.07607976553781085,-2.6676769547755996,-0.16546613535512272,-0.2557160695404374,-1.0819159675594228
-1.4576137112149714,-0.807550003607485,0.16796219849810748,1.7527973546185647,-1.4466941869415633,-0.12863189119824578,0.061012828906871874,1.225664412294716,-1.1848993047013776,-0.7074723077108958,-0.22484028841518336,0.6389635642661208,1.8847418054819394,-2.7885329121852753,-1.4970615400545324,-0.10350067980867989,1.7969958348218014,-0.5222508087072493,-0.693910172014202,-1.629124350496538,-2.7422800922467174,0.25517324121264584,0.5796089114193125,0.5935528979497174,-0.6324951781573918,0.30408965676614513
-0.5739968919970789,0.32375888924446594,-0.15003745533768104,1.0463046449463744,0.740257520126356,0.20444847988359258,-1.111889123295219,-0.27799726877113645,-1.0212658829169734,0.2718505810028007,-0.7901609739491265,0.59297066056769,-2.0205975177347133,-1.0485938810636843,0.5021450332842445,-0.23739644207179236,-0.3809220799129554,-0.7664214151906631,0.2266146972659508,-2.3523106884003466,0.13233274197115205,-1.7440886060445786,-1.2278163683105918,0.4318185913537567,-1.9892073570414215,-1.4209598845543945
-1.1602202135673083,1.6125902094608888,2.07253870682585,-3.028880035026604,-0.07385352394030548,-1.6717668180869676,-1.145312550138754,0.44057867025853187,0.8916740922053533,0.7421816124960015,0.03476172806362134,-1.114015315213859,-1.1293268847718267,-1.5627096444463757,-0.8982119782329259,1.3914942670824832,1.276221626396982,-0.27211442100903477,-0.29153568772052385,2.0771201630813785,-0.890390754364812,1.4843443162673828,-2.6870190213886276,-2.3180253970015925,-1.1616414671655275,-0.26154060907343035
0.7288413929315155,0.3988928929374208,-1.237546500888582,1.8429369645969869,-0.21853448889767374,-1.615065676022204,0.919068742778914,0.22608617680819926,1.621315166276542,-0.8267101090138717,-0.45483078370668145,-0.41204323607076004,-0.09340367113789816,-0.6868686195072686,0.6497867145396354,-1.81467244293018,-0.8136985132343671,0.06896136105856858,0.2098865065483886,-0.7793365519007445,0.29434950171869456,-0.8564177422265842,3.6089092702148315,0.3897377368308946,-0.1433832098731004,-0.8732314133350403
0.6967556926979694,-1.4117851756661526,0.8473303044656014,1.0407918556437064,-2.642075518388251,-0.19487940849577332,-0.5400776983954594,-3.214941996060821,-1.1081018044400768,-1.2205885841966693,-1.543731778233244,-0.5025931832645463,-0.5602746743744688,0.018984566673944565,-0.5308969559041116,0.08844418476064903,2.8076695863839,-0.9550785459795191,-3.3241856129486353,1.7432280103222808,-1.1491802197872014,2.0060186950640366,-0.1911156360542033,1.3760036212478122,0.5316054719640464,0.08815095835279767
-2.4475651931167257,0.1865476337344801,-0.035187095381519005,-0.42529045453837994,0.8802171164197853,-0.5705924690703924,-0.10723532422380587,-0.3113851221674756,-0.08760654775245574,-0.028959016228281516,-0.15915080838315368,0.3285448411489292,1.8550658505040072,-2.128504629414604,-1.2510360459956897,0.2304917110930214,-1.5035899025804431,2.121260857113806,-1.369256285322728,0.08950558030026344,-0.5726381699433439,0.36650522977426314,-0.949167019122133,-1.1451840368252895,1.0100498310513997,-0.02966994862494957
0.04077771274253,-3.3258890654464803,0.0008511848435045197,-0.26264105345985583,-0.3290551427316577,0.8643421110107882,-0.7940909752229468,0.1636729916513927,-1.1650819686029088,-0.2461591698441272,-0.7595147727423974,0.3864867645301251,-1.461040191784072,-0.6302949183338222,1.3194020972335692,0.415160085520463,-0.26804123358702936,-1.2842869687215344,-0.4653281513759902,0.4441184009853158,-1.5005840455174706,-0.7597476476887892,-1.8928183641650236,-0.34787940690084274,-0.030807640882036608,-1.7291998663618569
0.5001737556605873,0.6515044683687352,-2.206516049123139,0.8529333099388726,0.5102481357330096,-0.047560700311063915,-0.4314625378612144,0.54359731822941,0.5973148825198812,-0.1949768492731448,-1.3065237213494583,-1.6693708811399695,-0.08050998827317708,1.294440681310913,-0.7576752086058666,0.8348467773921164,0.40280223105439306,-0.4986428757764826,-2.1553690127273915,-1.7755682298163615,0.3888547274098098,-1.8514416116847223,0.9045421014471116,-1.4945018039445184,0.4643706873090603,0.6181646243318896
-0.2141309703973015,0.6364572658768072,-0.5941051480019405,-2.340513962732863,-0.5294256491836545,-0.7554936104549969,0.8684164138187805,-1.1944882046081973,0.19817415537155675,-0.25869092338653304,1.13513422747882,-0.6603703758185182,1.3412375963615966,-0.8602366298997377,-0.1768784932254326,-1.690326834026794,-1.3941663334314907,1.1763704632779202,-0.9938773766960936,0.41540352385168317,-0.8225974472943717,-0.9744313583192317,-0.1869030941154053,0.3474428720718951,1.3552043645425866,-0.7244262043462237
2.0595734958253105,0.6427218276721571,-1.3142809867500285,0.7147064653619198,-2.273276154902923,-0.6999971059465425,0.6505861016468446,-1.7950185606865938,-0.4040829424638394,-1.103110484822624,1.8727949350578792,-1.7433743671580404,-2.100049784755624,1.266180410900052,-1.0316987613792288,1.0932594620319407,-1.7698585691249096,0.8782178975925741,-0.9409198700905793,1.1229549771183214,1.290857992828092,0.12654757839346464,1.089310391150504,-0.40622087772199567,-0.07007916734452148,-0.6118062187454733
1.1043106282831057,-1.7538023809208563,1.026323726089122,-1.6843364917730248,-1.1006799698795897,-0.4518563394047084,0.7953222145924279,-0.15629199310281008,-0.5836171489687773,0.19756314443700718,-0.24927013998231798,0.4704925331369757,-0.3263817563716048,0.8342113576335914,0.14412932037568615,-3.08000051185726,1.581447474348271,0.37429466744846607,-0.02561686438622899,-0.9060377798734299,-0.8731175650612905,-3.8286584543811357,-0.1292998978486234,-0.7955261620008965,-0.900009475580962,-0.4472736264380748
0.8144812546262061,-0.3348661595271881,-0.4925572669347536,-1.9340012231221893,-1.8494135375023018,-0.5810032457637144,-0.35132015235699166,4.141726537178682,-0.11858419129324593,-1.1036449417667091,0.028165178327337607,-0.3889628141526908,0.3986309025669156,2.5646166326199142,0.28893328939056806,1.472472694850467,-0.8056296333288103,0.002205668690691343,-1.667011932098146,0.49659006495212615,0.7539444995802012,0.6824459346137084,0.156647154529057,1.865980870415244,0.14774404123146445,-1.076370711061643
0.3971522379639201,1.0919459506711555,-3.0014783262483538,1.0840955892124988,1.4368386951909022,-0.16772896213368146,-0.13986810070657046,0.25846042842788575,-0.9733476101249843,-1.8101827450871066,-0.8971728964871803,-1.816198449615791,-1.0615978091530058,0.5612572238833979,-0.7805680226739872,-1.4686442825176547,2.4183766268428033,0.008335820836841501,1.2705402321508341,-3.2763766656106466,-0.5857052472285803,-0.7342007432247792,-0.7369498596843326,-0.5259180638659195,-0.13025366208834335,-0.6595238800393938
-2.2871047911477103,1.723050145779202,-0.8983034927270206,-1.0233723405669568,-1.9983233996549794,-0.5775321982879424,0.6601184275428422,-1.637270455420247,0.2243617000872394,1.469066699507524,-0.4661289069417011,0.10238253808709645,-1.2204615575125881,-0.15324024730573613,-0.3960486083528981,-2.81272229884701,-2.2830789823989583,-0.7037311738561927,0.7335844492889333,-0.6360561760269731,-1.0667540543395737,-0.42439796036094457,0.9433259765083173,-1.040562508722623,-1.4625023383983367,0.6601199876194879
-2.2388672845532684,1.6146769215303274,-1.1787015114226715,0.8707680325978124,1.865151442757652,-1.0370231449501086,-2.3913564613508558,-1.804428609529527,-0.5716464866629238,-0.6916117792714279,-0.3017390685922029,2.141096836777041,1.2456888990108272,-2.0790691061375943,0.610476522123196,-1.0444326906680006,2.0183642623608757,0.38898533976309546,-3.4325626811856815,-2.292746719919618,2.41529015166132,0.9565334865135762,1.2843536628002008,-0.3623328365803557,0.9344045239048518,-1.8063202820836257
-1.56652636447655,0.7849409805930382,-2.0949300358847713,-2.5339403069215876,-2.330367247415537,0.4463075044443078,0.27478792548587455,-0.9826744479901851,0.512003800161934,0.09007919785576712,0.7304560543794977,1.2352819893593827,-1.8455557471698631,-0.8097333799909265,-0.5855310376398505,3.0993353516773356,0.8580514475318769,-0.20891792039227933,0.2228016024275939,0.42042317577824206,0.12846120878778455,2.6899447938596674,0.5360972619574136,0.14131612701809662,-1.2012490439852341,0.020925781358456814
