Pesos da camada de entrada para oculta
-1.160973582473182,0.20646672071092925,-0.27628518179488043,0.5715833235302697,0.7723319325079369,1.1278435795166508,-0.5701759012320856,0.033094200366504484,-0.7531865959879783,0.44276512475453333,0.20523382718835567,1.2321195796351692,-0.7441096011662331,-1.0193113279250572,-0.6216944242513854,-0.1698981244245371,-0.7007327193192731,-0.6839480922440835,-0.21845649049190052,-0.4968221979270164,0.6130623606048439,0.24764565588644452,1.2977132382619603,0.5317491114610322,-0.9162759235121499,-0.3979368014530639,0.6618422747648276,-0.44774389644025714,-0.7597118213984448,-0.691634549318021
0.0036150973353554715,-1.3975500317082736,-0.6625388864448793,-1.6468339038015152,0.3798235919307569,-1.4474348821426943,-0.24875774308593554,0.8029733854027261,-2.067059997103684,-1.489149707607423,-0.6162731450228797,1.0798925392354644,-1.5578939544335595,-0.7426078791589791,-0.39011781760039693,-1.2455808779349937,0.9828819417282443,-0.7357858644181627,0.3251509243699637,-1.075750397214865,-0.6132936149362331,0.06458449744400069,-0.002147634189919678,1.0612445797702743,0.5209687813179813,0.5668225040200017,-1.632621954221558,1.4057478846939437,0.21528602786453904,-0.6958188262125171
-0.2555457348083282,-0.9105115247135421,-0.3726674865868104,0.9822305903616663,0.18556513956654969,-0.7611208847415054,0.7873671182420182,-0.3748497387433582,-0.6532757797639687,-0.39851881549454227,0.4428016279514956,1.2639199131116474,0.9856555582561777,0.9832107487944258,-0.6334453784012908,-2.2789888371188116,1.4011873350339905,-1.1287811667773315,-0.2728001336445829,-0.8136195087615015,2.378861474782547,-0.2953457330381456,-0.22035213677544746,-0.0017061460136002244,0.8474873776943583,1.1893147420550791,-1.28376166625852,1.6124176111872746,-1.3111935721489032,-0.6777980885490862
-0.29213735873385094,-0.8667735596460651,-1.4852910031652096,0.06618248188850905,-2.250825834210993,-1.0372684738334024,-0.494514338649882,0.27101613409725994,0.17413381351540463,-0.07694653638225402,-0.23599221349660907,0.31913321955822266,0.30533730825156197,-1.1265197799171807,-1.0985045687483816,0.31742665746335735,-0.8525052291993808,0.6167215511445595,0.6055867488566963,0.9214544461724896,-0.7321290793109869,1.1004938453564228,-1.049402870228461,-0.16905204554322534,-1.3079465055012727,0.7087747772569589,0.16318528137826846,-1.1249475057322729,-0.2806450181391014,-0.20055624831300803
-0.5301787370932367,-0.3389427498478082,-1.5763488696977817,1.3809111974562525,1.3921531988659925,-2.247545848048457,-0.6827097628109443,-0.03060529974932839,-0.2523564878462089,-1.3624507377598452,1.256575702043228,0.7609859166744563,-1.2445660336916504,-0.7341984176663402,0.04179012648584523,0.4015532889647719,-1.903308894535623,-2.0546554699292674,-0.13958927917153835,0.422335665404283,-0.1539463018369757,-0.32893703436596483,1.284019558686214,-0.6585191016041828,-0.33318092088477463,-0.16632136457069951,1.4469742902538516,0.7747835539992302,0.23487031946782877,-1.4286812244049785
1.9727632828130177,0.7626489678688618,1.0406821781281796,-0.2141350150360898,-0.9076150852554855,-0.6864204392845247,0.8815387872726368,0.6771938558541426,-0.67592437408283,0.17558117383626304,-0.2547278800927643,-0.5086279073369296,-0.389058118642687,0.8244593435442007,0.38273867164067815,-0.8722445423545733,1.0397425444244406,1.131967800057951,0.7029428476486267,3.335606792282169,-1.6346881813704621,1.2079097217805617,-1.5539355390591496,-0.09395750905596592,-0.7014794525854987,1.5346377503280235,0.8431779999101098,0.9443915768518355,1.6314971243880874,0.6451185463748528
-0.009176838835956502,-0.2853766702924949,-0.9336195358649991,-1.5378504314724102,-0.35047575278948195,1.0304957237973953,-0.0632329739556283,0.22372140810753005,-0.3338232253962496,-0.4563151032428481,-1.15454590556967,-0.4931976060750211,-0.4005820146498104,-0.8694294311083792,-0.7086984630584653,-0.2301925353335031,-1.4767868650018217,0.8768569948223048,3.376388135824923,-0.33659636368142276,-0.4542495352849008,-1.2784054587427898,-0.9406618528518641,1.0758560947026496,-1.549466180198424,0.8765658199800542,0.006301697735278201,-0.2580725691140079,0.4605018261018887,0.8077678733532123
0.5011873387093138,0.36232087927097806,-0.3929560831578474,-0.2613883754346288,-0.15060667937605293,-0.03406924623999568,1.3029260564979896,0.5520126118113552,-0.8229213499277085,-0.07127867108918519,-1.0629381629714663,0.4468556854521721,-1.738877310743351,0.42184101794775464,-1.539650676670252,-0.7289512074266045,0.7076428681951388,-1.279016408451913,0.8166056073081053,0.39710839237379053,-1.487039862807845,0.676326854471881,-0.2298079143377419,0.4522715720266807,1.9083391607435014,-1.1013549289691835,1.1228484768921863,-0.13191381485809692,0.0889244547544473,-2.2880817747608053
-0.5829303797026826,1.0644425550588923,1.495035132320721,-0.7392312915018812,0.20705845122810956,-0.2738938221516983,0.11868082798913047,2.023566030378672,0.2575305659431717,-0.3256759085090436,-0.6297415483733265,-0.991599033122012,0.48383205499607507,0.6035841511215657,-0.608790697631165,-0.21745454168917458,-0.32602284416015176,-0.5041557562520977,0.8285663185943237,-0.661744551682664,-1.0782466839785683,0.4495637819848908,-1.1238531400491785,0.06678400356955341,0.29906228534549495,-0.41649345972772617,0.01732983512457816,-0.03711202111903548,-0.6721166363973106,-0.09151050193535394
0.1966060310117631,0.34223496726405983,1.2454875990523702,-1.247245731425584,-1.9653667745146302,-1.198743513487298,1.4019962858479993,-1.266773214297346,0.8773902920136465,0.045335863866434185,1.909266704260293,0.9887445561864832,-1.910589149706509,0.9773295953274935,-0.966112893588414,-0.0012391617658335807,1.5886808566267494,-1.8820868923070349,-1.0078477518267008,-0.46642635351489475,-1.6056802472370468,-0.12549287099601342,-0.587239837586463,-0.24846796330630205,-0.15607729835329803,-0.22082406295422596,-0.8334506213075541,-0.49114277078547747,0.4884883385239954,2.499055468729751
-0.4337022380750123,-0.574226497404427,0.07609896640273194,-1.2924740523646503,1.0920356812851357,-1.5150678089796075,-0.9016006099712344,-0.19911098652972517,0.023564340307304237,0.8724203021923947,-0.909416272776545,0.17756130423900765,1.0538021178400574,-1.1664236699570416,-0.31226600386194775,-1.0041779912604092,-1.209913662069359,0.25729925473403525,-0.26623653600655806,0.8883539429095376,0.15895785371196747,0.6175788858360464,-0.13392912523064712,-0.49042433635573973,1.7824462534740748,-1.813804647934673,-1.6294406298033575,0.1524741887046959,-0.34098695386776573,-0.859398116272676
-1.3847131378953694,2.5993563978292,-0.947747356490051,1.0141270905469006,-1.0873678972835326,-1.357664216391599,1.4824338033524256,-0.7830065714502314,1.9546876282285013,1.8166141771785702,0.6208450284898412,1.6607698160375246,0.3858521016089426,-0.9336184340542967,-0.07956257691088614,0.3730995940869173,1.3659003985965454,-1.3659857793927295,0.634299734194725,1.197707046337643,-0.49520194622698227,0.551050280931455,-0.4042429560175155,0.2977147091664842,0.5388778121024494,-0.03418136708955641,0.8901327717001601,-1.5178227260451758,0.051898522910517476,-0.012142921643791384
1.0002966234953818,-0.14980580145035166,0.6076254514948263,-1.1823670103572093,1.2229207521994065,-0.3753909628062997,1.1864050438600136,-0.5628435838035044,-0.5562223529854906,1.1918317548226605,-0.009027715759942398,-0.12514924294320592,-0.21976668639593905,-0.0683122825069359,0.7231350788684101,0.6964831319304735,-0.3251244217797322,0.018823954721654122,0.6495400755934853,-0.09877773057088235,-1.5055727375368664,0.6043876749842965,-0.8297488376212917,1.9883817954540726,0.9550730529360766,-0.20064281592606042,-0.3768262865544278,0.3705155924358412,-1.230154082811636,1.3272556540744282
-0.5631013601273989,1.5087638740015636,1.8664879665150007,-1.17050709886618,1.2069214361091127,0.05509890637576115,1.697282651192352,0.13254655967404286,-0.5139433163594171,-2.225047366589785,-0.7100442778134975,-0.8825822737366525,-0.27040148479874754,-0.6811187070423026,0.2449970219869802,-1.3799130097506513,-0.21221765061081246,-0.5105311016365602,0.0666650357301969,-1.0374052387463097,0.7238352630791542,-0.5366589968913917,-0.23403571203901868,0.30403575717962955,1.2595944456908859,-1.1798823575135837,0.512131416056708,1.334913012087397,-0.0013240396378492196,-0.2660026485686299
1.2326641794872497,-0.04416581480705844,0.30143471038760355,0.7723575324688048,-0.5447047020853912,0.5280034214829219,0.4852619457993251,1.6842351083302771,1.5650086650605577,-1.697526143717369,0.5298409011956198,1.8790877359284783,-1.3394069097673118,-1.2430147505841305,-2.303081863988923,0.19869399295452547,0.8151956427130811,-1.2793368692472071,0.863938912043938,-0.5114129682023186,1.854956865969623,0.833310166733772,1.8427654418877792,0.9125506081272438,-0.7491398202399696,0.8064107041242569,0.20966970675370314,-1.5435633420605646,-1.0150691391179982,-1.542752620952481
0.3534443006795246,1.4596528181775508,-2.252219551980206,0.674417801849648,-1.5789901719251553,-2.1315920516213205,-1.2852195489177558,0.4648228000289281,0.8977977584268776,-0.6770333540315912,-3.4157619434836772,0.0021729026461436963,0.10726029128813845,-0.77905160528805,-0.3450623516273251,0.5410120363079657,-0.9788484859826614,0.4907040126691161,0.14407947522885628,0.6686411758399449,0.12928776963301242,-0.8711083508455921,1.7786385710887576,-0.4411723373012245,2.513978647431612,-0.48538605962286485,-0.6473791010812614,-1.480116944249843,0.6303174452154002,1.4884249379794947
-0.787867943003757,-0.3882655901795203,-0.8149093936455368,-0.5685719851566049,-0.5794613208015167,-1.2035520741621557,-0.10372478461612668,-0.865591970698655,-0.6935743593100799,-0.3350903358608039,-0.8546795239778456,0.6981610391770365,-0.16447305797180134,-0.19711801175672253,-1.986488595705389,0.09547906772676365,1.7620604162944227,0.2892700180980117,0.9593314477713817,-0.2615175574146411,-1.5784244481029621,0.8402545398839011,0.29661814297524486,1.2905344886978265,-1.5183925059227108,1.4235434808997205,-0.8429737356773621,-0.8151975298030404,-0.20221012611951025,1.7375163526011208
0.5302509906859255,0.22037950316615423,0.7531095375432869,1.8858390707890798,0.9486225181917274,-0.4112635595605376,-0.3118595317987975,-0.7046100032662247,-1.423008569249894,-2.30395118750398,-0.577553341438668,-0.2810116265363314,0.8527314428325875,-0.42117588074613915,0.6639083595321867,-1.7611504080194793,-0.06807000592487095,-2.8852165162338417,-1.0036088607732339,-1.1142166094406982,-1.0509202658969419,1.0154417003720544,-1.5330264648749525,-1.4082825684275264,0.7365609580782057,-0.045544433552719164,0.008795073690756081,-0.8466166068353543,-0.380159685539358,-0.6131436648794316
-1.298109375134849,-1.585150602506846,0.4108168399130912,1.5232645184273461,-1.1877914146016078,0.2904101425425468,-0.20597861341474777,1.211606776318418,-0.9503066089302524,-1.2106333362168737,1.5598659457525021,-0.920646956693641,1.1601801809101426,-0.7680289906598313,0.6097922667867262,0.9750156058965886,1.8039067528636439,-1.5667165184619294,-1.4701299858598862,0.5166270654234721,0.008708109782183008,1.7302626201386135,0.44028671237343475,0.5316221146994973,1.3076898005667201,-0.5697492723681633,1.7213254435863408,0.7287511096596477,-0.6933277925689779,1.5479831800519694
0.9688053758347478,-0.4731119508775576,-0.21657472094207975,-1.8460699740929336,-0.5359005953700526,-0.6113749704424948,0.29935237148416666,-0.18151265218919888,-1.5562624374957281,-0.1558152799259256,-1.2711753407188784,-0.17764584314730045,2.159877708171727,1.5451102579054734,-0.8163212933319575,2.156985558541615,-0.059794164241883,-1.5444885033663511,0.6670445755598851,1.6507265889732177,1.5853422037672023,-0.07777639020626353,1.343958926161959,0.9506845044875665,1.2231156152479663,0.8038697169786346,0.5478386495178414,0.8013696512000363,0.8721522815602549,-1.0293638724247853
-2.1240267693863317,0.12183472831622251,0.15369509281971241,0.18939772764802923,0.34341253622082074,0.43295857356876455,-0.7613639325480981,-0.003647867229326084,0.08847910794000347,-1.8782339746333525,-3.289241778523536,-0.21841520323364313,-1.0027937628660664,-0.28776059242308916,0.272305753934061,1.2823748410491025,-2.854124813663124,0.6202097632148806,-0.5149165487340336,-2.6761307007460893,0.7115062859941479,-0.8190121332162345,-0.9357123442379366,0.48883318052237595,-0.35936205365701335,-0.7282893636337571,0.11329485954870143,-0.4832621197874964,-0.36487390510657347,-0.6740214146987733
1.2035763783822369,-0.07360824043988938,-1.8851021271230923,-0.12199669408113356,-0.26128325725188073,-1.9669044178224244,-0.3132458060657231,2.9529288723343434,0.7239815205100668,0.07936834621308389,0.33186422600099663,0.4050672573582788,0.048632007941110396,-1.5450160234616739,1.1898596272097537,0.6440893796222725,-0.05710559275307016,2.17808749151769,0.5058032115441798,-0.13831065214457983,-1.2216637870837976,-0.3440995088267409,0.724704640402292,-1.8354133743612573,-0.33100466797155226,0.5666356375068036,-0.7422799537704755,-0.9095747733566109,-0.22575166802156352,-0.7195790819954075
1.5871329310988977,-0.8790640887193656,0.17391681089726252,1.3285986444885716,-0.9160564263884722,-0.5097761543982073,1.8646496575896374,-0.5042426615743373,-0.39854988660628443,0.5743110203617884,-1.4084563746707297,0.8968580666066552,-0.7739741921534606,-0.9826777732839959,-0.2881081128023832,-0.12614621607240536,1.2449040202670538,-0.8698554703586499,-0.44039084296392433,-1.596592340520345,-1.718205039196517,0.5550372085117717,-0.08473640690966674,0.8480942215065654,1.7626129894752132,1.4735438114583872,1.7868848744087074,0.9917623382308873,-0.3010348837488363,-0.4290935046666252
-0.2148393077629597,-1.1253261862861212,2.7523227682588436,-0.4899272279657918,0.8308685342371446,-1.2676262977763153,0.8424227202643358,-0.07290068651528946,0.047848600865453075,1.6624695399248557,1.3554321918141745,0.8690071873238882,0.44869555927573507,-0.20541120005551072,-0.07369591119107209,0.7105050632283766,0.8656499273316071,0.8439292032862749,0.066373546493322,-0.05566280694995949,0.31706340162839913,-0.361592687055504,1.5723075226322785,0.14129734087815218,0.16668362226961772,1.3425362841537647,1.1994941016480816,0.6062274184439188,0.48852250578490397,-2.0765893800898487
-1.250155889893259,-1.4754318638967892,-0.12909287497417898,-1.8791961344487358,1.3726905573659618,-0.05027099042361538,0.5662569595068716,0.8465310858331127,-1.616871809144769,0.7090229363844205,1.1753315028501565,-1.5424217743162107,-0.20464677341977816,-0.5241762035905764,0.4149878248070617,-0.5023394957753767,1.361547963921325,-0.8713885645594184,0.6759859690008022,-0.9946086716372113,-0.8970905061368984,0.3888008515004365,0.1408812892841513,-1.0577189293278244,0.09504575399084389,-0.46951164172616716,1.0014405899267949,1.1137516466822621,1.513024483057252,0.011327396045703748
-0.4191234350477527,1.417155139307803,0.4518219307713488,-0.8081251281676649,0.917337552921866,0.10143434180862942,0.3520847329727618,-1.811360428699407,-0.9686499777652278,-0.2645186471610885,0.18268051226169232,-0.45548971428124835,-1.7443041674002357,0.1252890221558364,0.06071524405216017,0.09732920305438444,-1.1292931907846262,-0.25532985926233365,-0.4347884573509383,-0.47678881703282244,-1.4658078904846596,-0.07531288096274243,0.8642063587463148,-1.5032464434404391,0.675347935510173,1.1371650966980449,-0.051441216222845,1.3489723110471705,0.8746422645913515,-0.5638829551553082
-0.260270058141106,1.0516645439361807,1.2900057317862759,-0.340248694931266,-0.9141724618208449,-0.750924766291075,-0.3050838945282208,0.9383344500639504,-0.6174197552383048,0.4931837001027556,-1.0682376474741933,-0.7625197036250374,-0.4190201188734075,0.19647433237380849,-2.6642428612700946,-0.6015640282464625,0.48873888054578707,1.1490963551755535,-1.470911137826827,0.4335450748157708,1.175898793340884,-1.9346101871501347,0.023542930817598055,1.7109710905543505,-0.15176366326723031,-0.9949555535056347,-1.3491227659121234,2.149963456196475,0.2011687256595463,-0.2661826193544383
-1.0976697617866011,-1.0390599096279687,0.4319195568039674,-0.9611605930062194,1.2544422764364511,-1.0279779336825017,-0.43859251757703477,-0.1518795113305884,3.057372004755741,-3.2396267581812204,-0.9408618213179443,0.17855183678102773,-0.3587979742321185,-1.686188116317522,0.8801153630316726,-0.32874934187342797,-0.1736922923129743,-1.2086674742890773,-1.0035100715229242,0.713500175190903,0.23187342102960062,0.23496155778135464,1.4970959020072725,-1.8195503881065043,-0.4461070621988358,-1.5405914362576993,-0.35487902345837413,0.5209482369042963,-0.9738831298562787,-1.220600794997803
-0.6410329160193806,1.8233925059901825,2.007200442423583,-0.6819766940021821,0.004095003700295094,-0.05575370612242027,-3.007328322970102,-0.7967098702391219,0.9200377228849291,-0.09857942094521151,0.4831539069609098,-0.46892915870716734,-0.21356687343078828,1.5983243805328342,-0.25436600452465363,1.2446279039251056,-0.043283645398816635,-0.5779080198720157,-0.6008602812321199,1.4911042760574582,0.5852865387544378,0.19048223517146928,-0.29513802352243323,-0.09749731120528542,-0.6340709261178231,0.13453435718488635,-0.5532326331169098,1.1246828695639477,-2.048559591912764,0.6021872082920776
-0.7583027674192712,0.6059478228634799,-0.39330649797274114,-0.7124503072932721,1.0141870866950478,1.053766561987996,-0.3722123484175374,0.4146176003433434,-1.353110833653878,-0.3599225346137655,0.9425839271318563,-3.1075812043452204,1.0915328026999327,-0.744466132965075,-0.05901685147476571,0.46850812661765445,0.9534472304847337,-1.366362211281571,-1.2803926579634723,2.7961239045602464,1.7101543988600005,-0.35257418338453655,0.29267015782224093,0.4442449464314998,-1.4867958757855932,-0.8774002523123777,0.9750704048030274,-1.2380081481882472,0.7089695947406217,-0.6259172096108129
-1.250055684343576,1.686296504717335,0.14441893551470386,-1.5128353855694747,1.150079094127689,0.7858683771949316,0.17989320805671638,1.3288712705696146,-0.5960934027042859,-1.3293425869729978,0.530967664381233,0.39596005195005923,-0.2966920466324894,-0.5071372908096505,-0.5887271301111828,0.8761827270956702,-0.6955495880362617,-0.40670986862252,-0.07585816986872562,0.34048514828136645,-0.06326485668994766,0.9137325054291632,0.5061293693765968,-0.5788175241007554,0.13083372834655613,1.62844983738989,-0.8780407818399173,0.46657734459512185,0.6212697644866988,0.4590374224086855
0.4433087330578047,0.9947505490947326,-0.3680992848530328,-0.9584720111940241,0.2609760849406429,1.0408915876424782,1.0194680882177658,0.510867200034179,0.16847264943548004,-0.26253702949606217,-0.6820178050476484,0.3242973175576291,-0.023475439326957514,1.3064700706137773,0.5740178891223554,0.7489084372174134,0.4530000308091214,-0.07265756581875475,-0.9931921733763996,0.6833919930891316,-0.07897760884757195,1.3079188823163868,-0.25240520337777944,0.989597748618526,-0.7318679553976571,0.2857226762902309,-0.04080963580584968,0.07393779612078834,1.2020614228330078,-0.3564163178127406
2.0313958928916382,-0.004603084664984573,1.4544057596626279,1.9519789962449228,0.5773316489943421,-1.147829502611863,1.2084293986596584,0.6523122240105346,-0.9830894389153481,-0.8105263520202021,-1.5546727723184228,1.4258412503899953,-0.7512552393810675,-0.9711783159657055,1.7555732677904525,-0.14695980916398715,-1.2681045342909854,-0.08058338087083194,-0.3327818940189024,-1.2484755420784266,-0.4621943071672734,0.6165047062283054,1.2859163066774502,-0.7902632734094303,1.6259403007352051,-0.7478879610321834,-0.1014213054243599,-0.10377682384689156,-0.2949955574084895,1.1281891860491573
0.3698840085889287,0.6190091615789366,0.9265486584480936,-0.43722794378971586,-0.21646817669253965,0.9017710435666113,0.45171828694306176,-0.33604540167388086,0.3308729840941575,1.3645517875209565,0.5631360196587808,-1.7450200000500036,-1.4610318350511944,-0.6884364613720456,-0.9374862207972889,1.4215438148738564,1.9679769331104304,-1.148592056102941,0.9338881184496725,0.20745301321437967,0.029291803892983626,0.3907153251706526,-1.2490954613923073,0.029455498166101594,0.08311915737792934,-0.3711837335516402,-0.6286743104355508,-1.078194720659985,-1.1519157996022265,-1.5148163270465902
1.1087367957982448,1.2802526455605703,1.4999152777496152,0.7005554219043442,0.32398413927384284,-0.3396270454567687,0.3563521092991893,-0.9587804571814523,-0.4648881513436168,-0.17732146728666245,0.5921083743738494,1.0655093485924216,-2.144771731269682,0.1773604951644079,-0.6431593867001458,-0.4860652559682812,0.6937656617635095,-0.8206663927139404,0.15171323025256583,-1.4696238975159286,0.36925010930638014,-0.5005388394103422,0.1585721210088683,-0.2611524604946989,-0.5195296769711254,1.05887362814999,-0.28038073671874914,0.13898919954403646,0.2874247653592786,-2.4258798997312927
-1.2485918665602314,0.36969996575140407,0.7418773140665627,0.6879118528423396,0.19945723294607115,-0.654749436365386,-1.095792276926522,-0.4993313677723023,1.123546862368586,1.0825707987036346,0.23251976585188328,2.0997712523481864,-0.32635161781832617,-0.6928268461309476,0.7638111954674995,-1.016403065632944,0.6311920349029975,-1.5238926438692106,1.0598175764546778,0.8591954835122474,-0.22015009639876812,-0.03494391182624401,-0.6667338165396195,-0.6887520609024594,0.26104924146350855,0.7190658383183283,0.7735848765878721,-1.4629103546288895,1.8268156394616262,1.5445339334118593
1.0626756485076236,-1.0233614397341024,0.3109109273480757,0.3731823942609582,1.0386958424714672,-1.869212578393589,-1.6544568952200376,-0.2891319240438138,-0.7232437324812048,0.9907821653589169,-1.2958519189743167,-1.1542206988185073,-0.4528028068809046,-0.9813472189605597,1.7358885431656694,-1.0415639776285714,1.6578392644843525,0.049719463526591214,0.04273824962886483,-0.8371882708504442,-0.5608484484506241,1.026170517915131,-0.5535468703531767,-0.8468043526552603,-0.818027730684901,-0.23969166443273213,2.4406567584481675,0.6224490259095741,-0.15686072365437412,-0.41713180740168393
-0.08927687585700854,-0.9553603258488707,0.01997973865061232,-0.03438711015298778,-0.5077606642683143,-0.5140978473437685,2.3157119301128786,-0.46454500011389915,0.12233680913527652,-0.6623875105468912,-0.9522694891481671,-0.18882586007323665,0.453348697553359,0.5132313852968764,1.5600391612605413,0.6686226988325507,-0.36870192393222034,0.7362482742657728,1.6943589788569968,-0.5982348893992853,0.3212840698300301,1.0193039257950356,1.345938642768652,-0.75276661815965,0.7327885234862064,0.5218524863620143,1.6554374609279408,-0.03317787466693853,0.4984483595656817,1.4659646100134383
-0.8634786330581555,-0.06795163225925925,-1.3385218728808563,0.9767504922126526,-1.6213951110550286,-0.014836168826893523,-0.012812618397751226,0.5075149465029187,-0.26444167900986654,0.5219329217483585,0.754139352499612,0.5204539910293725,0.42528375037925303,2.0827710859457484,0.5166251189165405,-1.3684769398750705,0.6386690808471276,-1.148815839545645,-0.1495288765642391,1.018690340105654,0.3598885830737267,-0.4588809062910654,0.32100620145062075,0.33425236082738796,1.0793871135389337,-0.3402711268002009,0.02433908028555506,0.7382569858618537,-0.3051610904408907,-0.32086740956717075
0.1986359243668838,-0.07916284280131904,1.1084920480080365,-0.8157279233482699,-2.765048517375354,2.017014798672064,0.3317561193625062,-0.06294324249508852,-0.4889550875546742,-0.2386067592278696,-1.103273025592528,0.5450139859762398,1.3123184361912177,0.8760737663356057,0.9935022526950871,-1.1280496679321137,0.6092255724034069,0.18844367845674354,0.12171338009907534,-1.4159942910544878,-0.19939491464462442,-0.8493888495657025,-1.2428637952531845,-0.1634880180520665,-0.5060752848447462,-0.5792219993812489,1.0429350456941828,0.47869832121818395,1.0488007903643684,-0.3726662861392378
-2.13327781431445,0.31296076526750854,-0.20697770352576256,1.2958233881015915,-1.5887919086823574,-0.23409488022911734,0.04823815641466419,0.20857081803455252,0.9938851228383455,0.2503312524011157,1.1630583523229507,-2.2882026493140515,0.45017040355534943,0.4095858592115593,0.9450860933875755,1.4476220473141168,0.22679785705259867,-0.0672082759589356,0.535944750029203,-0.665553964682924,-0.9633968200739047,-1.326451657027107,0.27358871531850787,0.0623516957404989,1.220666266066666,-0.37680478228013914,-2.303812128308432,-0.5696545554035578,1.2664959562214273,0.32571464297475067
0.26538111301951856,1.0561808511438546,0.23455228629873323,-0.752729882819201,-0.6214462815831886,2.547820120895285,0.08878322076497619,0.04052446479734724,-0.5474299553634256,-0.5886975757065698,0.3417705868746694,0.3461287440265823,-0.45635632129733605,0.555095544523673,0.7441266096117367,1.1199265880817806,0.04126032230514085,-0.6326526664768204,1.4170310165229705,-2.316379543286117,-0.18036496062650234,-0.8057003297221279,-1.7266022867358488,-1.1074908977254225,-0.6891794449802476,0.0653973014918507,0.15661790923040772,-0.8336462110739159,-2.1016696027056385,-1.0130478363015463
-0.14111607350651795,0.4795996040648191,1.6203410218376886,-0.6803273270648781,1.3060688094980373,-1.4069035583486127,-0.9850333797907755,0.6758785024750937,-0.9310443442371931,1.5758634426928995,0.5258525912449385,0.014763449031219645,1.097322159232624,-1.6057435386406245,0.4788098623454307,0.10441045437473939,1.119825399747543,1.522566309718368,-0.19452158061682878,0.5860701413816978,-0.6722119453887629,1.0618576251818832,-0.21497359053664006,-1.495872596371628,1.1786661846283264,-0.6323063949376198,-0.8821579604192937,0.05051215150606177,-0.7024494268478827,-0.6780393095552096
-0.13878657421352417,2.0797204599821084,-0.9832961585236613,0.8514836948556981,-0.49433895144451107,-1.2406993315884955,-0.465096133629142,-0.30100928782606734,-0.5019725508811871,0.7408384745174028,0.86700666322306,0.0971484270785542,-1.3853758812109034,2.8006726916914455,0.09407391926921334,-0.4338126859389524,-0.9982403565318491,0.46638941820181706,0.8948520183522001,0.2576923601962044,-0.8163622547134043,-0.575945341959678,-0.9734846709516152,-0.1867332186713643,1.658969414308406,-0.448439695007889,0.8447992789189724,-1.2993962504197711,0.5297896939220135,-0.6110521813571143
2.368573582321651,1.3900535243376977,1.429162325956279,1.7350640857209112,0.048848879000923495,1.010525211582289,0.46023118074165464,0.16323584224668816,0.5317925983066846,0.3774404105235893,1.1735420568858175,0.6764686644983727,-0.3679670736878838,0.6967058879305545,-0.010138849781001349,-0.5050138454145792,0.40039109588002975,-0.627902198898383,-0.5056587373489538,-1.1319121463517587,0.8188043927550447,-0.23680977850624807,0.12556591990912136,0.13305205467300893,1.0307767853135696,-0.0011005984066799718,-1.1053171199196083,0.309657867540256,-1.1933514485533996,0.9393044325880477
1.877613053281762,-0.31955133112754375,0.0426365659054782,1.5654682516531833,-0.617605820097398,1.0902499133065044,0.5249004692269492,0.6920058298498749,1.8542705478289445,-2.7508826454774473,-1.573584238786199,0.15646307526884548,1.4457987721533196,0.9590958247449145,0.4493521731308902,1.0686034583171438,0.8117856537363968,0.04191960293751425,-0.18247416547093576,1.0841796045085255,-1.065983158078449,0.36191341885594874,0.4787758949356694,0.13959527388699217,0.44339429855865503,0.24704114884335915,-0.3574287835628653,1.8253819682639592,-0.2829311530881571,-0.568264498837792
0.26023790267051705,0.05516397348592468,0.31502108430496917,-0.9130253047070797,-0.09250963568586332,0.3101025344069001,0.6848123218908111,-1.4267316463805235,0.6312224543072875,0.8407327810828236,0.576212387496924,1.2214684328598107,1.6356803809711247,0.35985440571560356,-0.13377764983954019,0.770726898588792,0.20236725720984913,-0.3796252603387641,-0.68535662770092,-0.8444619079462276,-0.3146300890420854,-0.35175275905908965,0.5210230369070559,0.0910941195589775,1.0500239135210436,-1.6837929399276885,0.4022294166003914,0.5349586194885887,0.18398446994982826,-2.637952227730533
1.1180021297212106,0.3339454885174205,-0.835051265557074,-0.2982023060973732,-0.2943006117499858,0.03225792988237436,1.7891149306932435,0.8419532703313959,0.0585990533665856,-0.34638228312545905,-2.097854134871431,-0.049848493145037594,-0.2922141438913507,0.5671057992318286,-1.5519435604319514,1.485399606635687,-1.8253822437260263,-1.2667557994634275,1.3154566249234911,0.9780457746509515,-1.8835989067475165,-0.7642555635855103,-0.9939949348854478,1.957786036362462,2.765284319764153,1.8308872511439924,-1.3899281179377854,1.0688717279477762,0.9038212737578747,0.17641841959580323
0.0073920666111012365,0.7968630525230024,-0.29179013394505365,0.661715036961452,-0.6743977396337926,-0.3570033871587856,-0.8075518029423324,1.3985518323050359,0.7981629300274276,-0.4767886767019189,1.0375498786693467,-0.4194360892875647,-0.22920195251465172,-0.7359899154127496,0.635539558187386,-0.7001109541064567,1.858298650767993,0.5468651978110856,-0.9794547316213226,-1.5263805793252425,-1.0722939631303345,1.0904544231407656,0.7662366568915165,-0.16943153366703553,0.8472370183380509,0.17556867086227088,-0.11543954422159057,-1.2520915725604942,0.08479179099840543,1.3572789656064959
0.6038048539994453,1.1152751133532002,0.659225554137328,0.347377358962373,-0.051714794543659355,0.04076866183647712,-0.9660752832004623,-1.3555548363819807,-1.3247566835174631,-0.31823769007416974,1.0871937502188433,0.34245454341584486,-0.3073453206577096,-0.6229462476015687,0.004960267498153135,1.569239948880484,-1.4148608102212215,1.1958016270947505,0.7382399554151786,0.10870645194078629,0.7215164553821765,-1.3412888098424065,-0.2502447701914457,1.6137055815506882,-1.4117494456547353,1.2200573679492535,1.6556173413152333,0.5990852597905469,-1.504491379811407,0.023179938084902534
0.9242117952204919,0.10660290245089793,-1.4235459770578993,-0.03705300776880634,0.12669173916817855,-0.0022871934879209357,-0.5423062722604338,-1.3772378591304775,-1.2708765467010943,0.6185772445783633,0.6681193380986864,0.47825263843928195,0.333230323713154,-0.18809228903913197,1.5377250605711814,0.7458822183018574,0.16769168896933231,0.5793598564750301,2.154738221808874,-1.735022806354286,-0.3784461859628679,0.5166810318046323,0.5763631708843675,0.09556508397607541,1.4729740820729886,-0.13424632099828532,2.0540253547345797,0.3970549772153417,0.416399578585824,-1.3730066325830694
1.749294741674216,1.1543508049429683,0.855922154508802,-2.075326251812621,-0.336636347748778,-0.09553053058453108,-0.6505755621755652,-1.7719812418926064,0.567175709522852,0.6652416477842201,0.1823792723719319,-0.3906047299217653,1.2019817103321462,-1.0098509878205386,0.5670657049307696,-0.9475921221188444,-0.4148763179262443,-0.9682928279628136,0.6042372661341657,-0.9651713913107229,0.285524849282984,-0.9739312609594517,0.7275532048813863,-0.04574146431103361,0.20355612914185797,-1.23967043872569,-0.3894632110282069,0.29547858225368173,-0.38167426633838375,-1.2713355126576258
-0.2449772926207742,0.4017553797113787,0.7463877687353802,-1.1752762743096972,0.2250383459784768,-3.306539474673183,0.724157598440647,0.9805025773630669,0.7217891559459058,-0.374883014435449,0.9655747053344271,-0.6856101701204413,-0.445935283242856,-1.2877827106237598,-0.7448452090364343,-0.4219752694351248,1.2301356669074566,0.6337098452766471,-1.9964465334134296,-0.8725417333897184,1.3138101241561937,0.4519711432944938,1.5332512590384113,-0.04137708859934985,0.0986004588980693,-2.812889359932201,-0.8375074412795915,-0.8313078993475777,0.30353323216673983,-0.3647896228896767
0.061924503165861476,0.2017725469768602,0.07224220829455251,-0.07149541064420069,1.6822012647974312,0.8558449918402933,-2.0667952172550637,-1.7398685682711812,0.2709145955593394,-0.4178756038705038,0.1981934505704219,1.6348730849738207,-1.947392237730745,0.9210850204007428,0.9546011534116556,1.3856241291248443,1.6780940794103145,-0.05243322069788817,0.5664032410779473,-1.4095587743291949,-0.9357010489826747,-0.017857922483601445,0.21883379115155244,-0.31684223792482097,0.3446438790743518,-0.09096820833050372,0.09753234092860494,-2.3359164047026124,-1.1925379878304239,-1.131681641243346
-0.10990365532809661,-0.8825489143794112,0.08173646394054025,0.8122729605652187,-1.3885099700672698,0.5504000958827122,0.8630126248552777,-1.6554671341519973,0.0854520683829788,0.7517049044971087,1.241865516308342,-1.2418284926811036,0.8560356913722408,-0.7868570971214375,0.6495840732187897,-0.961864677474583,-1.8253838358824548,0.1477449292005405,0.02795385139427532,-0.47235232202746064,-1.593473029418379,0.2639255753762654,-1.1396507998168728,1.4174833406938232,-1.081521889713212,-0.030806104589018696,-0.28902997829051263,0.30534556969943993,0.9017510869588639,-0.9844151422479727
-0.29205565211504286,-0.028724982229321842,0.1023116919136167,-0.8417988199181422,-0.6522783231383407,0.2208163785669367,-1.9216190811789973,0.946866652571818,-0.7463453819852491,1.559127539518928,0.20135094710682344,-0.8788312714747996,-1.2304760812388367,-1.1501194399628631,0.14608785942581765,-0.6885076124530769,1.122545384802574,-0.9523616322380969,0.46109379708565973,-0.3854023969704498,-0.34939980398142884,-0.04221322503711143,-1.112265828422107,0.6677210910071039,0.6748632849470245,-0.9406512549429862,-0.48537966011454137,-1.708869408732455,-0.3726650799955891,-0.9367880257916547
0.8117808487628414,2.1418503169108583,0.6427989883369121,0.6282917012109313,-1.3149190189472826,-2.7487409434376606,-0.2724979956138225,-0.09762023340341562,1.066729323589501,-0.18695534014469944,0.6152525383669805,-0.32740096311345984,-0.611638652385799,-0.668708876355037,0.9438403861915531,-0.20993533218193336,-0.8602619536198143,0.03783834184216412,0.1575687898044376,-0.5457186716193471,-1.3608545637158949,-0.2706635507653077,-0.29836810231442873,1.2224607168737234,-0.8994905206048313,0.4744002097603931,-1.611306663450502,1.3242140062035077,0.40245395025899866,-2.3724886838779495
-0.34739460054061105,-0.5166727484252056,2.8143533109216423,-0.42859607595150445,-0.7372847619531138,-1.4798910915708976,1.9335399101099149,-1.157192485053388,1.4522225998694076,1.3217985004776756,0.2810462200840785,0.20385931039635094,0.7233531523540201,1.1762084913006132,-0.9715551257630838,-1.5921589380972014,0.48402093494501336,-0.16204424809296758,0.1807012929105028,0.921758553701504,-0.2457412097341132,-1.1716368183481203,-0.6640573825252452,1.2849546453727954,0.5987859520595845,-0.9981054415616473,-0.035977852355192116,1.6370849087950936,-1.1392099610791018,2.654324293223188
1.4450510404824994,-0.47023791697139194,-0.519545366783005,-0.8005329527040257,1.6244463963388198,-1.57525371901808,0.09823953571919769,0.748167250609929,0.6281569450562401,-0.3991029455899673,1.0232624395940413,1.1758409311589557,-0.5435220784994328,1.66388552417951,2.712793673368396,0.8572346525935307,-0.7397799555054678,0.32356379464307855,0.2802241233140276,-0.14387985282753288,-0.6956982905816731,-0.5696720480394782,0.48963601115678057,2.229677656463819,-0.276450818339491,0.0685044327798061,0.6060023040659315,0.6917289104314459,-0.6289427106666787,2.592386147046183
-0.8142023226607553,-0.10993969587349428,-0.2482365547592618,0.8064056758165457,-0.6997941885526913,0.5015964476174348,0.7431388989677099,0.0520304060430784,0.371803145386233,-0.4475820564283383,1.9417852993822404,0.15926831626259302,1.0049508776353089,-0.6684869888846234,-0.8680881143188214,-1.058793855928333,0.08750799777938525,0.11422283730246473,1.6856558932249102,-0.3009175246845107,-1.4917406589875306,-1.0631246851182232,0.30161593708578344,-0.32304120159102223,1.2438200143789833,-0.41104564237225194,0.6315306340854353,-1.6291461075453035,-1.24077981339107,-1.3132835698908103
0.11612516742157343,1.0975011630751441,0.7844015632424969,0.9750199647292498,-1.8976644142033932,1.6887566817465,0.2062907466596769,1.7978098569833296,-0.6484735546156939,-0.8554737273570691,0.4554205486297451,0.12256961779133205,-0.4805175608758993,1.0931389662374904,-0.5406077421992466,0.5162676741909785,-0.3808196553182936,-0.07094720270326899,-0.49427273242768366,0.9274065163038828,0.5820783392790524,0.21784137180306726,-0.7463802947857641,2.1184413174852867,0.8455089965795359,-1.2077254974673903,-0.399518139820279,1.2946803082076157,1.0506104265015173,1.2572302850843142
0.14424932532460433,-1.5184024065584223,1.2175639967094403,-0.4250001003362577,-0.09951898944359414,-1.3648602623726125,-0.11582569715743213,0.039553961816599446,0.36949118341590526,-0.8266346919718812,-1.1318218752811775,1.4570774983197312,0.44488051425526076,0.6720051715815889,2.3847741463511603,1.0628629532079719,-0.3609583450672861,-0.802089162648585,-0.7638202284317588,-2.10254545249145,-0.5493699858744676,1.7737659021936176,1.3582902053485724,0.42167625834702244,-0.27461722332448324,-0.787245223997433,-0.5292111644585633,0.3855680034330134,-0.19077500788627755,-2.43117913494736
0.8930852616817639,-0.1159350447822063,-0.10861056611579822,-1.0809866994888235,-1.1029485518283944,0.8686968498551504,-1.0933730441769265,-0.8212777961673839,-0.7081592555201293,0.3132433556459591,0.4735619813570873,0.41318291524026607,0.2640776170412472,0.6950010290919486,0.7118627745513426,-1.7624709256808233,0.33775342735317004,0.7363736782232694,-0.32526446239489004,-0.318758211406357,0.4986618197030104,-0.8084107645488952,-0.6093661158845834,-1.7102837743713935,0.7076848811126447,0.48017345105873055,0.8442632217640493,-0.809159878411251,-0.6915061273466159,0.9193619805896739
-0.11187354482674144,-1.5393310948781387,-1.0411869107526204,-2.1619759109641925,0.9024565661251579,0.4767688800479733,1.5584257014995166,0.9127316082094536,-0.8426590295172122,0.5801268308769698,0.9518634072008284,-0.6591240462230532,-0.21592130121898814,-0.04101702324846771,-0.3262385818783013,-0.8666506338734715,-1.2235380891077274,-1.4261598038893168,-0.21930216278886533,-0.6916052234112823,3.049149740321182,-0.39980082255167165,0.3757355634222014,-0.7099800781773962,-0.8744448994238107,0.9018167532974439,-0.7312497082900331,0.4263414666790205,0.6136923431953859,0.18358650520590333
-2.3827363114453397,0.2804361563063878,-0.5117519260171268,-0.46786156417623553,0.8672460247095687,-0.030495845943825792,0.6313206732426384,-0.049467571264569965,0.7828770411424171,0.7201573648437601,-0.014289973542122442,0.14323823253069812,-1.0331855858273042,0.4694857988771207,0.16312187439121292,-0.4000718696151357,0.4833013447101172,0.5312984369341656,-1.5729017416550897,0.8702607953671894,1.2404724230417803,-2.084521977152063,1.2038207942849704,-0.04366215426432338,0.10032396007828619,-1.044117337523576,-0.27337063120044125,0.7544408125033645,0.3017984072544344,0.8243233817276764
-1.5302780938806484,-0.761234200188742,-0.6991289092385575,-1.3354359730790373,-0.6383895402344759,1.2517050409326818,0.5654763127682112,-1.1758839393901228,0.22508543361699604,-0.012435228598306775,-0.3372488476568638,1.0237476024424939,0.7895197451097026,-0.5908865714889902,1.2195512036374807,0.5127831833404051,0.5934890677846408,-0.4786502955255513,-0.04310522751184807,-0.6444630205396474,-0.36051508174066055,0.3570978022337813,0.18743919705985143,0.32340034015959207,-1.003951107677054,1.444484604606312,-0.05261371545977268,-2.5769138976501154,-1.221762686592972,0.21649291071357943
-0.2559630323673843,0.6970432195269388,-1.1285414533178526,0.8685781173029772,1.4458039365794129,0.41168530840214745,-0.15387105577348728,-1.5105016484177956,-0.643873607992462,1.2395664104215078,1.7251980828162903,-2.1534584297937696,-1.156356357042173,-1.1549215948182565,-1.241060739625531,-1.051060340595518,1.3020860432485557,1.0765174784472797,0.2513862166502384,-0.9979235780176555,2.2486272695598344,0.4649666887529969,-0.36803364222410534,2.295086750352857,-0.34481128535587885,0.44711318336284467,-1.290844469992142,0.9663513719099459,0.5251678591581534,-0.00031753027942559443
1.474267072404546,-0.11958666586825145,-0.657730915580716,1.1439041582435516,1.0347593814187697,1.1179204484756817,-0.33613743068819973,-1.9821863165262477,-0.10292937418721677,-0.06384055492338894,-0.775538317099488,-0.6276105671950378,0.02848161586190533,0.05891765885220473,-1.4243395511312902,-1.1655047915218595,0.5965707578558685,-0.16742831047810258,0.40402227276570524,-0.8034646566306659,-0.13786953274984343,-0.352194953366347,0.375430119865602,0.054277809939805126,-0.4667676529867174,-0.8851208054761676,-1.019300652764538,-0.1824731908631626,0.41372925320242393,0.11625004364143508
-0.3850934918265814,-1.1745943273470856,-0.1702370215647646,-1.6106719415714965,0.12748714881045323,0.11612959227566977,1.6459207532135056,-1.040443270159987,-1.2620540252066828,0.7300143711850595,1.5904347675086714,0.40155548048532136,0.6952465907130073,-0.33064283245091763,-0.7523964517937163,-1.1359127299090965,0.06813053210058549,-0.036096518718433244,0.14231141733962618,0.39821033927643656,-0.5680981912405423,0.3047278933699754,-0.45357054253304213,0.23789627668648164,-0.7682688168833377,0.3879148976534142,-0.33112858876465767,1.356100732495494,-0.700336999639129,-1.6247769639333662
0.6614137369003732,0.8851426485511209,2.480277880172128,-0.813190725483789,0.24306096490183726,-1.0217620079200223,-0.015338211070461249,1.2893968746736866,-0.6656239928363684,-0.43299363213048536,0.4607612626797802,-0.757716703807284,-0.7527346499493465,0.5466019640954102,-1.0091254068800541,0.9935846098954303,0.015312231061560135,1.4615477280869973,-0.18739474423515076,-0.9936413681058998,0.9557535777996073,-1.0007722577264657,-0.7162098512261286,1.116671356523541,2.1577677884264603,1.896806898249515,1.11308689947566,0.9527225827170054,-0.41986482174195316,-1.5277095566125696
-1.2685724533436606,-0.15775780801916062,-0.3913216471507557,0.8800903440362604,0.34051265418660714,-0.6231119053922477,0.9177272693779974,0.3020046698369294,-0.6061423838015977,-0.8792614417188722,-0.9359362648960338,-1.660170634585147,-0.009680717679396923,0.14661287659257935,1.1152651517189114,-2.087264314867595,0.8648584832740001,1.6433751215931454,0.4385112600017224,0.4670083919538211,0.014275611347217857,1.0086685603022902,2.067458219072718,2.7456623990394937,-0.0711841843944789,0.23981110525124175,-0.31593250456924765,0.8932352079435203,-1.534639000621705,-0.8971804340864472
0.01779345769097083,2.789655293175598,0.09703302757899802,-0.5123167287694893,-0.7071574332270066,-0.5745551885268133,-0.5425514146858031,-0.3160532876451268,-0.5716155197542281,1.7431137500434422,-0.09547625819544897,-1.2834849671253377,-0.07333849503959554,-0.20162759261101093,2.7073335821514135,-0.5020719121350251,0.2535907779077541,-2.176774218296451,0.009232585264488176,0.26494994523459997,1.6277619390742644,-1.5177429081421285,-0.8650047919645144,0.5531017896583744,-0.553097836223472,0.7789742245774846,0.34178546761006656,0.03990657257803371,-0.6603632504709036,-0.006884478100984517
0.9557207596507905,-0.5520785941827113,-0.3137345387250507,-1.4434186894109238,-0.9531201147618361,0.666405980457389,-0.18636001670685312,-1.8175129931762344,1.2684559246452223,-0.3766798594034461,0.2700810506162073,1.1236966843577145,-0.015919693052785094,-0.34446223998245,-0.5249466529143229,-1.2914065585682752,0.8110816317824492,-0.46224329560139155,-0.7356440403141202,-0.5029106460436733,-0.549510165169201,-1.2619294153277196,0.9940493223296042,0.3651366892453859,0.6200976022261631,-0.7013151094101965,1.546560892473121,-0.5152033907101226,-1.391570996559359,-0.6931030970881856
0.5295273078224946,0.38012697672760964,1.7959026004370462,-1.4381318540926666,0.3330491735222217,-0.0029185951359423233,-1.2289475981868931,-0.4954652337288166,0.678239772698654,-0.4500507438784531,1.6730839749330466,-1.289044325134239,0.7050552029171635,1.266488519919363,-0.6356766118640262,-0.27759454046319887,-0.8831435156597434,0.14622970286446627,0.025596689565970263,-0.9234481573650428,-1.3493907256439386,-0.23374661665214524,1.3497885212261234,0.13055437941153836,1.0989950139376246,0.14844365577507945,-0.1324637027083132,0.719180102398002,0.5674120310586139,-1.6630493808446385
1.037387678961906,2.055922365154348,-0.4314998573662182,2.267332672091255,-1.067821276666272,-1.3789583342690788,0.4590038660908075,1.0184059901780522,1.599050951751361,1.6915868452056106,0.7672357920509705,-0.03109116924883442,2.22297643451102,-2.3390800603087327,1.8781435067857508,-0.9212587553916556,0.30920652213634264,-1.317887437487812,0.8485199230498532,-0.13271512085689346,-0.9520104052874794,-0.30570600732275494,0.3845612845982454,-0.793704316838564,-0.5814469144743755,-1.1689289551467381,1.6820692068988907,-0.662489174995377,-1.2752647107725097,3.1160173162099487
-0.6315496913253209,-1.1267278956031785,-1.0410562746000696,0.8150573920893313,-0.6639344746578997,1.8693222662645086,0.5240249757971641,2.2669258257264864,-1.039816420535124,-1.1314484577363375,0.7035411689446767,1.2741942991702435,1.056598618386683,0.9845578954720215,1.2894239697699827,-1.4350956562168546,-0.5234722972136476,0.28381643383375055,1.4991883429033526,-0.5187383492638983,-0.3017923012607264,0.76286744274025,0.0180350549219709,0.49227862463674465,0.14215503725829376,-1.2444979948304646,-0.5027295881917014,-0.229431925546609,1.0673022240677865,-1.1719318799605798
-1.4863264484388277,1.104908544032967,-0.4605299650601903,1.9599445694808517,1.683281080274376,1.5609037814278386,-0.5280890615326481,1.6340970146019553,-0.8971621704599809,-0.6983917250240163,0.07101382784906396,1.685649693823494,-1.3212903239178935,1.4147746796027383,-2.0988139498785285,-0.4955682106939574,-0.4448302790605633,2.7030368972965944,0.35573975464933744,-1.2835280634843418,-0.8146429733021716,2.058741330186421,-0.38425614523500395,2.0259475727792586,1.1107505320114166,0.6141698500451509,0.8761696375021584,-0.7227012316283248,2.4113954245871914,-1.2273084509172012
-0.565724904195899,-0.6869121216041604,0.7170300213368714,0.3266835949520524,-0.184476822198217,-1.8040771946134369,-0.1754265486974851,0.9789145438200209,1.8120358125129565,-0.024984794306172505,0.8482091721512136,-0.8388426624280696,-0.7358422891157198,0.5962696790251536,1.5009002552306479,-0.7788764643966563,2.300190393475035,-0.47532876443531075,0.7446722603482239,1.2740922066899616,-1.1457837783284728,0.46142280785928186,-0.908369488466102,0.785418464381345,-0.15563139084806735,-0.5402265888079127,0.6005389791575436,-0.9435711111738904,-1.4673829381093404,1.0859500455980773
-1.5258246194750018,-0.24171074600654457,-1.168137046585609,-0.2446600365603614,0.3973094021007225,1.443396735733138,1.002699097375755,-0.5967708546929729,-0.5188035881977121,-0.7512810943881127,-0.47347611330952,1.4277900522331464,0.17203686818747724,-1.0291665728210482,-0.5753641513458227,-0.7589973542954411,2.4479918675162065,0.7289113659327905,1.3148601787131853,-1.2526027929275503,-0.2112586853907552,-1.66324004645399,-1.4123599531238002,-2.2198370045724247,-0.8976899547870545,0.5094234574601219,0.16924842935436193,0.08330869099666649,0.965574144172104,-2.0841339772182357
0.18549293981105447,-1.0772776327314872,-0.003569195381556887,-0.7809478256339916,0.9724786454533823,-0.7075294441109816,0.26222757836815247,0.041509286567502496,-1.246188882016475,-0.4176993968068331,0.8727963973851949,2.3354874587026697,-1.7004323577918525,-0.13244557692243125,-0.3859936160437388,0.2264677547837181,0.3873261833239253,-0.6529066942766836,0.19447010550767427,0.46824005828453363,-0.3413107008794794,-0.5120696525384184,-1.0587771828228714,0.6580622794906646,0.6767965327091939,-1.7482591497223468,-0.4574419936130693,-0.523328122402936,-1.611561008609645,2.1326015696818965
0.233048787086687,0.5703224058308191,-0.8871410305211799,-0.03647050968539155,-0.1871153139085628,0.6936778099051726,2.4293531008393776,-1.4267233617095039,-0.47707543307364314,-1.3680635341199976,1.6401238876928141,-0.11111805702603651,-1.1155995298989816,-0.27267918213378745,0.16553469652622893,-0.338014286729375,-0.3120956481779318,-2.041848617710242,0.5529415678149637,-1.30621701520735,-1.1474323976165077,0.09552772165304256,1.3739101633882373,-0.4812088873386243,0.2521250554424378,-0.5772271819353189,-0.944375391728834,-0.28217793650576056,-0.5835590179858948,-0.4331431670644688
0.16994779847040636,-1.1758756856002803,0.009735112774030621,-1.3419313199119904,-0.12603706029503006,0.430294185566699,-0.6339302052471658,-1.991722375124667,-1.2694591543329001,-0.6924828810563066,0.7332947877941092,0.7435933826021189,0.19974328899206215,-1.237776295094466,1.1995660367362364,-1.051701561044796,0.6733827321888388,-2.0324477925469977,0.11852815246087411,1.0326666195097045,-0.3342196701934663,0.25417096725268834,-0.6562445192250328,0.2213597630092032,0.7192221679253483,0.6958023413702279,-0.9180672577213599,0.015753384689950124,0.7607080307380829,-0.8863512579188855
-0.2086042676441073,1.7900329383963287,0.30902343831233087,0.07436935882117358,0.3822781994649029,-0.6928831050686625,-1.3844674709748468,-0.7239559102295625,0.40957360995301717,0.23782001555556098,-0.6921099069603056,-0.17937855432558603,1.730451194545175,-0.20508018833550415,-0.47790617224597876,0.3809536937843305,0.20155123431887317,-0.20692674808146375,0.33260408583868983,-2.8061021451128485,-0.1733358783004304,-0.035169168247584745,-0.5200646861988149,0.6279024653822405,-0.40716904258797765,0.4644927706665487,-0.575659038641172,-1.0230038265010735,0.1729234411076311,-1.0016563263855933
-0.0666358031594081,1.40806198764031,-1.052093926687855,-1.0010238811911074,0.39138326827118985,-2.5784626371468433,0.19081617915521418,-2.4160031864762925,0.3917254547762473,-1.4802660102145582,0.026050984985269462,-0.31058351757758507,-0.06147488306016306,-0.25988128362348706,1.6357101501425235,1.6179414116280992,0.48084369926310827,-0.2437325557819911,1.158002216315364,-0.3461944605671791,-0.6695996573548683,0.5433422884373236,-0.7285841405281187,0.5027355559660318,-0.6548218771467795,0.025637065633400652,-2.2167551265092182,1.4331561298193332,-0.365536444196844,-1.0126902238936422
1.2308258600320723,1.8422790295749996,0.652891703626451,-1.232043304202208,1.0669312579550094,1.2404097793766453,-0.5926078984967559,-0.17159337508818923,1.161098183171851,-2.324602356409199,-1.7974566730534425,0.45394186853082624,-0.44176855690398864,0.23298609582331337,-1.18093088739718,0.3475075569782775,0.19251017890690011,0.4567209862521882,-0.027886837388194797,1.8540335953167453,-0.44713023013046527,0.8536383556646843,-0.4917711678628658,0.29694595765309933,1.6957933666494,-0.520789758794014,-0.010105083941486273,0.3288815471909604,-0.7562365391227344,0.26466630722823786
0.27238071882676024,-0.6678062401900112,0.566254726247194,0.3526697672407127,1.10042533528551,0.5758703542864694,-0.43367623375334585,-1.238085409368881,1.2269981341307414,0.5348892625194431,-0.5329283237758586,0.34617554721588445,0.823220159851734,-0.317171494410965,1.8456828258984586,0.49171911704286686,-0.4398644907510549,1.1410624740378719,0.44537861379952004,-0.47570433301659343,-0.725802878017122,1.7240078203394034,0.9208252864871487,0.8085309227576717,1.740371937323221,-1.8685758944071857,-0.7432519841301387,-0.19778473591065435,-0.30833840029788795,-0.18337199181946523
-1.1260195280209313,-0.10057686383917962,-0.12232974457388376,-0.1749723000039485,2.410077988969607,-0.253933463497715,-0.7580357420306456,0.4227346794159704,-0.638543241245475,0.4005403606333181,1.3368311543533533,0.8816277286892599,-0.3847921888099479,-0.7202264524506904,-0.31217127137296047,0.26341265884117754,0.13205025207051177,-0.18832768806735764,-1.6494553923833035,-1.27640928603145,0.029669960196457987,-1.9501562588578092,-0.2595445615393806,0.5169330816513132,-2.0673131006272025,-0.941590533317061,0.7062921569147547,-0.9636697417630825,-0.9786727277294672,2.0050944496190715
0.39001539431970916,0.4538094628552556,-0.24331276016889336,-1.0268388887682716,1.6918554165911315,-0.7379712550432574,0.7730412761867288,-0.03748373882046644,0.06497309577014315,1.6325380475042195,0.5025081842731491,0.5748019198727351,1.0699546639605835,0.13637972146063232,-0.401617654755412,-0.04348656138199414,-0.01202505194098311,0.2367742154979481,-1.113162805660371,-0.3195753370771583,-0.7222401805956146,-1.5199000310007822,1.2427454900268007,-0.8066471333812462,-0.9066570136288138,-0.19100908813305012,2.935173987683655,-0.02668562581719041,1.5220992855786508,1.2412060054958167
-0.7113898041376749,0.7241909713595381,0.4932287885322485,-0.31872239338048713,-1.4918410586728301,0.2866193995102773,-0.13540578540539253,1.4974582702924408,0.19813371795241996,2.3122323142190964,-0.32020152662145157,-2.005483609074077,-3.0372429919242823,-0.5612868104098051,0.4636967818496508,0.38118235395793126,-0.7054161367593501,0.9273805445014527,-0.5432709063494656,0.08578730641008289,-0.8672228782011088,0.48065783830374603,-0.8552828018037892,-0.33569533578556465,0.0461990450896007,-0.6420825209644805,-0.03953749198720961,0.8279648004847402,0.767742182058613,-0.6867586429478275
-0.24547318713497462,-0.5976300921195048,-0.31148466199472036,0.2161287366143471,0.7808854667762131,-0.6414859957749124,-0.6713266559353142,0.9007931973708084,0.08101099478682106,-0.7799477294703108,-1.0859832929979192,-1.9019291225088928,0.0038344025840128283,1.2978929593302087,0.39878168456824,1.331548723376355,1.4750875334335216,-0.5503516418092077,0.46804561757415003,1.7470473459601836,0.2523292595116234,-1.3199647172291533,-1.5251910896876217,-0.37747364787341525,0.48632015564791853,0.5020234370051514,-1.0179441426176528,-0.015040170271403246,0.14385717045404978,0.20121619642399916
1.2173338274297598,1.1832250310849814,2.3352475005896136,-0.8392787604270114,0.6703427491062366,-0.6828375518300083,-1.7664071104306962,0.22868292015042757,3.118641495424355,-1.4846827983568176,0.13533042647180338,-0.6471900100745817,0.7431349502048108,0.2160690554732394,1.399231395215861,-0.16833343985203966,-1.2005517988548262,-0.10478794756340683,0.5474376124019862,-0.10560054647495343,-1.1289907215713049,0.25699590096404284,0.5167268406400041,1.2579707911958657,-0.4967124459660165,-1.469258673118788,-0.4535459568525861,1.0564696336278967,-0.46815138676803375,1.0040268308943652
-1.0362477358468034,0.05277541227255611,-0.1399262424075073,-0.2655063944575805,0.883476419876193,1.3521818807856156,1.5268431309649035,0.4786352689589279,0.37900693159937204,-1.0951654097050514,0.26469211306897356,0.9465372381477027,-2.3886221901604476,0.2984663487302021,-1.1293246886181405,-0.04442941487120851,0.10864497964080679,0.41649365106680786,0.1450848636424183,0.9732033759258545,-0.3851247298217372,-1.5699285793115743,-2.678052370338061,-0.7404979400861,0.3150918161087837,-0.6378931612523375,-1.4091549683669076,1.4711912395685187,0.9972217934878269,-0.7643923397533151
0.5092403320416964,-1.8147113115676972,0.7861035352303728,0.5686878554781197,1.7139835812022308,0.9284480931661939,0.5930650448342981,-0.14198597780005626,0.4364286693752606,-1.189169829479318,1.7175584660595395,-0.5229870392687478,0.9152060081835443,0.16843981773844338,0.16817949361089268,0.5918488203536751,-0.10512386021075612,-0.41086958193925804,-0.21464063607632697,-0.06420475530707062,-0.06690359839750609,1.5215685121045848,0.12864945091500188,-0.5515760459060655,-0.9241706273323116,-0.16321642678592013,-1.290784324820263,1.108509811069247,0.12083607382727685,-0.9312335977189561
0.6729493227718141,-0.9320562699375067,0.7717173005800407,-2.1392669235304647,0.9239083997933036,0.9843858549838023,0.569998393906884,0.5131258879584307,-0.5227727491821557,-0.8665940226374023,0.5985700262909377,0.1912914393765261,-0.00962262857644892,0.7870001913096498,0.31926807309863053,-0.09938091753658396,0.10595894398683367,-0.4947527635171622,0.7743807149850773,0.22683571952766002,-0.991616735880836,-0.37487299717642336,-1.0468109315793597,0.48676601610736514,1.212099164277622,1.3722512102938111,0.9212745706021539,-0.6692637469364183,0.023551677560651945,-2.4065455680595558
0.5979996348879947,-2.547966178232126,-1.7131650975570725,0.621964465607896,-0.5221234419874107,-1.0547625687716895,-0.5239204733335567,0.6835123092310775,1.178039214289681,0.9052322057620923,0.7721195934706387,1.5641271678403597,2.233639692398467,0.8824760762117405,0.11437337230874796,1.3395786316000484,0.10849800379236907,-0.8605374859323061,-0.9313509356886036,-0.6149678198739934,0.1640506439022913,0.6261158510239802,-0.16818626613360627,1.591763738026307,0.42580822505200344,1.043030050068462,1.0651653970050379,-0.11903681018564125,-2.6678723623765377,0.829830322235471
0.6006322221073483,-1.7086040282850625,0.045442974579101805,-0.2908327837003841,0.3609015185811684,-1.3043785893720408,-0.6952151905036816,-0.12360739057021612,-0.15792785410724763,-1.3024319728873823,-0.42206820242938614,-0.6105584710008928,-0.611134908866579,-0.6867875036566387,0.9482320961315089,-0.487429738269975,-2.400216449856063,-0.17074852142081398,0.32979778346270044,1.1487426305785091,0.26451221076136183,0.9552789166252623,-0.6086579929095086,-0.23626118098533702,-1.972119233731002,1.5379965946612637,-0.764958887160533,0.45417708782105376,0.42298308292024195,1.14634498152538
-1.0870503477176,0.3597029335565323,0.6842424773055993,-0.8393857020645237,0.49259106298622607,-0.5810461655760102,0.7486968641871214,-2.0188179271810887,-0.3695743332052258,0.501275060060985,1.250964063800408,-0.9571921465505797,-0.20991705940204414,-0.2356492874732596,-1.1489786227595455,-0.1898994468879583,-0.2287896981951368,0.20599159000485096,0.45024036470678674,0.44321509662928044,-0.33008202923493796,0.9633948902399804,-0.44581012846856155,0.03302896146144823,2.248592174280077,0.23709540744657448,-0.47226236618145007,1.3235571057661848,-0.00924216756226946,-0.5890078524808915
0.15851956341242557,-0.22066492117495234,-0.938946592980259,-0.1617777657719028,2.5286526852316764,-0.053564381636687274,1.4374212562404227,2.277077943022151,1.3943180818917615,-0.29498307171360727,0.07505003876176124,-1.2761457498289452,-0.9418964445913139,-0.4298895418795745,-0.5206063135911584,-1.1276670342373671,-0.3966080510154592,-1.1520580458293503,-1.0577217962437828,0.5630414466474329,-0.1374244991401764,1.7102274521721146,0.7025871874789846,1.0894775893728923,-0.4189838237094838,0.8120784488822773,-1.9552900767756791,0.47912702048572087,0.926390355177369,-0.5434295745572589
1.7173388312104696,-0.777412240602764,0.2388610472581895,-0.5477729046698523,1.2837289138249817,-0.51656348418922,-0.21991075317164377,0.4341461704045776,-1.309275850015193,-0.760019009260851,1.125404889688505,0.550878600476384,0.4477788984133811,-0.6190133635778339,-0.7959748231285746,1.780310463960906,0.2150219604171794,-0.3910589409620038,-0.26335197140708283,0.751885567813883,-0.5631699162879277,-0.41252215522623714,1.1155519696630454,-0.9733039707985975,-0.15309029776765803,-1.0761711647204442,-0.7106476501196297,-1.2124833109292918,0.9378964183481379,-1.4938663137724015
-0.017320949615162475,-1.5933334885287291,0.952562205827402,-0.6839079085639005,0.017087874880094903,0.7100545734977217,0.4896761945217101,0.5961132457945888,-0.5242992367158748,-1.204553184657973,-1.0358209417483522,0.8468345311717446,0.05776489210180283,0.3449974238433735,-0.49746591433590254,0.23500651488351915,0.14839841736156764,-0.9256532422822132,-0.6452666459045184,-0.4533357054775993,0.20822193400367336,-0.33860192783192783,0.3387898346475327,0.0597418021345774,0.7979721333026039,1.64446650516202,1.1524612507076462,2.1572386769127245,1.2380313130913805,0.6486132958652644
-1.0437404880439702,1.3197227335011699,0.9136652778994381,-0.6801309878681927,-1.007086041422169,0.45400359435434123,0.041054561548157044,0.42158520061492394,1.6510993716513866,-0.24974909784588842,-1.1533545851156837,-0.04776728328746271,-0.1795301989870414,-1.5717334018675648,0.9953225339705402,0.7194871148975761,-0.880255814773681,0.8820534571338692,0.1967482768004371,0.30101328530219107,1.4405574901787024,-0.14459245882407087,-0.7646680414772421,0.5243565976668016,0.15951117552026026,-0.0818215085801208,-0.0600482109717773,-0.8645652863952226,-0.9374951410656265,-1.4060544617037596
0.7481127072719134,0.28243128543534857,0.4398996328597287,0.03759653711649848,0.9346098681626692,0.21310529341212667,0.8957564371380642,0.06111576821375563,0.33084343359672924,-1.3965642184959843,-0.7106342591619236,-0.9971644481716078,-0.5482408494137837,1.7411758286451942,1.5470351897878112,-0.23827859548165067,1.1807126765709688,1.0257560421380658,0.38160916120411575,-0.07882121873753677,-0.11597593969439629,0.9913907037687414,0.8748491937406048,0.5405231870951211,0.051361058525410924,1.7970845243416855,0.31399355647474436,1.2920442658017741,-1.6604945468427879,0.019441481415290212
-1.4376421751394852,1.2178189987016699,-0.8506704526132666,-0.6395632798885922,-0.2764587680613636,0.7645802811203577,0.2589042291252352,0.5826738585388562,-0.40467220386904024,2.2389644961712585,0.6175166889365069,-0.1267702973699183,-0.6594456709915426,0.24693367729494145,0.44790057671491545,-0.4165299879689624,-0.37663546214522,-1.1825297010114926,1.0614008027980812,1.0158785350007524,-0.09882512392371423,1.271718843235137,-0.07032666958003268,0.2572875409554777,-0.6031531126069637,0.28800154328532307,-2.300029869957521,0.7185830840507621,0.08830233719631322,-0.6266705133322846
0.5795988506821484,-0.6447294272846708,-0.6095294174940279,0.8803903664960558,-0.06895042536199673,-0.26819892889966584,-0.4649570529567139,0.5369435033941821,1.5677149055560795,1.3567469044256248,-0.24061316285321815,1.1937991749810168,-0.25621492106354066,0.6433787961090882,1.5529432842807411,0.14321343883778673,0.47885883863424505,1.3696818761650156,1.2170238439819703,-1.4346824281241866,1.4002616670537134,0.38220511790391054,-0.049877009931701036,0.41911015828777676,-1.8411263562328044,1.049563219122547,0.7351397311350789,-0.4283030896702812,0.09869692800328438,-0.2800287154528642
1.9331493527945196,0.7630188499930832,0.07308516838215005,0.13800788707299386,-0.47576209826140364,1.0652409243751875,0.511456786006458,0.5034200965279056,1.3309830841440151,0.21720008680531522,-0.014649478801746588,-1.1397187493215117,0.5274868298710242,0.7683475289879254,-0.6819359914893788,0.8630659061409087,0.90918852916916,0.09634361706380314,0.6131515780891772,-0.7205226330260559,-1.2823035606542186,-2.6312246198394478,-1.5873001238315323,0.4544251898164647,1.519720368851968,-0.2661464938866249,1.272239774732359,-0.41073349147989785,0.3225233360885074,0.23620517738045108
1.0529513013680494,2.029986272337577,0.8462818869708938,0.7028337620629218,0.5338836762802844,0.15352165279305566,0.29857348617602647,-0.6402355397181821,0.7320557887248184,0.8342232175477945,0.3362527862297639,2.119896783917228,0.26352967366573227,-0.4923423849798222,0.06301366449557153,0.9722582545507717,-1.1024573379826814,1.1471881972654152,-1.910090094568526,-0.5200225705756478,0.8314255260829815,1.2520010399496975,-0.57512785844691,0.4674257496631007,0.6368965247641685,-0.21734352433706033,-0.3899913757846683,-0.596599635812328,1.048101425268303,-0.8799084804516678
1.187193025467038,1.8417688270405659,0.8042784471090492,-1.2784649109249786,0.2566864369848681,-1.5810849368786257,-0.12110949245661536,1.3177970738926683,-0.21039134743559237,0.19039101973424757,-0.18196900939112806,0.6549447660421679,0.17107525139567625,0.4090617144905948,-0.0790073680301036,-0.18603380062969987,-0.48731911111389387,1.1237647383078835,-0.6611790125707344,-1.3366704259236617,1.0093202271843094,0.27357608281189444,1.0574126016657597,1.378337665306647,0.010901197763774354,0.47302421959658375,-1.016926164974099,-0.6152548091725981,0.20314822794245757,0.4762174121660107
0.5348489312285891,1.8042691958035415,-0.7227504067706083,0.19313329938950863,0.25082088242362405,0.8163157616188418,1.0597627969017742,0.05001265141879033,-0.3721092819258889,-1.0062232004897278,1.0816476334549587,-1.933774968176008,0.6631103696118951,1.7231181938696651,-0.314717988194815,0.4547407534819815,-0.9891508434565756,-0.5606247044981416,2.3275724515239418,0.7656394265110353,0.26182556531591833,2.1610104163356882,-2.0684374358824895,1.035220229375789,-0.20794716368224256,-0.15418015344297442,0.6128502994037401,-1.455873221859017,-0.3754420385688306,-0.4214358807257212
0.11848776090357134,-1.5742369360768347,-0.7888625205240968,0.6122425940407186,1.0293053936589296,-0.25888092077703334,0.13141028220929976,-0.21973837156873927,0.6896744077481074,-0.825888575090184,-1.3384772583154076,0.5570406132009356,0.6611045320033205,-1.9257928851604558,0.44079505559339827,0.983493773649524,-0.8615147818525698,0.37455840647249844,-0.27310084953882974,-0.0024221998781739727,-0.34756730885958087,0.7403119417696068,0.051987210169180446,-1.5211704211117052,-1.00357152213341,-0.6177460687881264,-0.5286638179997138,-0.867945751889165,0.9688955610598841,-2.1405054903449114
-1.5284439286651177,0.4443548853965943,-2.1413532710367473,0.3982234175224871,2.4843814336209538,1.4022417790538682,0.31610718352699557,-0.39211909079740165,-0.6319299051764702,-0.6761165814830873,0.2883030931427308,0.05806359191182535,-0.7090788231849375,0.8942783253872659,-0.8367486515391709,-0.7400146603638389,-1.9183663240653344,1.3342923805661702,-0.05651953344536601,0.7000693124534997,0.06845645679639767,1.32913134040362,-0.8834028824583091,-0.3556718948165506,0.7077577967469101,-0.9722497557750284,-1.4362725012039166,0.174071161947153,-1.8582781710210465,-0.12377564951434045
-0.7003823858223628,-0.4482525467247174,1.6486437749677174,0.32907885486058536,-1.3903459839407677,-0.8123623368196227,1.4398114773125368,0.1309089563196406,0.5158551578554755,-2.5939724950656844,1.4028635929699893,-1.164343775620554,1.652933930346878,1.8451470586430012,-1.495091287227466,0.8598688777117277,-2.1901579216210836,0.4039572880836809,-0.2485325315631661,0.0795264944978023,0.7754876919465381,0.6366285933482558,0.04959627242735379,0.41072899915869876,-0.405728390474326,1.184734655898772,-1.1903418724985346,-2.8210309466282175,0.9535133279074569,1.111514090241622
-0.3911394186315356,1.2559297828554472,-0.7098127772940118,-0.6697781843665286,-0.7325254355415975,-0.027721963017654214,0.5737929945187551,-0.4673764142696379,-0.03207289681563383,-0.4729628980922468,0.19923749162099072,-0.022292383178001626,-0.16107819548390387,-0.7332290753370432,0.32876395256689267,-0.3307080059706675,-1.5597570397999885,1.1162423145332747,-0.912278380608063,0.6179230607862383,0.7913631463052212,0.9215690072268888,-0.6822609566450197,0.7545794992486103,-0.32759404261646347,2.192492608333615,-1.0677466500167836,-0.15140448181822766,-1.0016701968902657,-1.4734218185403543
0.005760739067514389,1.9997479806799876,0.7659621405741738,0.4515552088733251,-0.7268765534729986,-0.5191445743466989,-0.2457910102397682,0.5459931882549399,-1.0342248858598293,-0.5348417821307131,0.3576445213477709,-0.44671825497165674,-0.6828067698069439,-0.3605351743109828,1.626070117825131,-1.3650193349824788,0.5627049209842919,0.18664116768705777,-1.1171702435091095,-0.7504866718184188,0.19524941669369963,0.35657667175591584,-0.33300281003683585,-0.05044252399347707,-0.9144870291408389,1.1302187267487207,-0.9592226299461543,-1.6907287011030343,-1.1283539853993163,-0.9910133733314753
0.3308977655839803,0.2063818791976861,0.09210739374854383,0.6340491425266663,-0.2629152312734089,0.20562671450060874,0.7595471306547186,0.4030496104394804,0.7626677140058845,0.1508983327236622,0.12211581007125709,0.26999862059489355,0.07569825742221994,0.3760589984531856,0.2805509384078258,-0.40718917086746603,0.31428946246109696,-0.4919796819994111,0.19793267788239674,0.9023998037079191,1.3935001018314808,0.23892430736070577,1.042768465994665,0.4140496657611248,-0.28208052843537035,0.3279578750960657,0.6045081553195878,-0.10760895728381377,-0.04865356357526064,-0.25363893659224857
-0.9443349512954716,0.6291002219697883,-0.24373195957671842,1.1177871557911971,-1.6095459485785184,0.879856588820042,-1.7773126639947996,-0.27998898248371423,-0.33077048669389325,1.5181915981774008,-0.9334420357771598,-1.7174833642016192,-1.504083208144978,0.35901177260584133,-0.10343175239573729,0.7431673610347913,-0.8877205557889915,-0.8477690401670875,1.8866384176729358,0.05801375986062498,0.316133135218186,1.2607578888278475,0.4969830321659771,-1.2701201467148902,-0.7886619599747638,-1.9816860980092503,1.3300838517603182,1.4839873897362823,-0.828238246189787,0.9622427411840985
1.0290941277237353,0.29728533506097,-1.2364364571720332,-2.3084960831699384,0.19375419392349963,0.35495441888730556,2.187953244802914,-0.14944104266057712,0.669578063200988,0.6494076055853029,0.15024367213193618,0.44926127830942914,0.15097053627974288,-1.2081371343242537,0.940542413644986,0.5526076739016977,-0.6085803239335834,-0.16244198720089084,0.5522218564906912,0.40385573744833153,-0.6213577554719262,1.5534834215053923,0.6940662274182907,0.2415720307811506,-2.3602806443805937,0.3703998970889313,1.29554793352168,0.009216737043182543,2.5293760830203693,0.7016065044231551
0.9475640176952762,-0.6831197711903637,0.11823918003275084,-2.4730373712093088,-0.6398000792260217,-0.42410647458909423,0.4280808371288295,-0.27866007004968174,-0.6584309937261149,0.49929757325238233,0.04697525781020752,-2.3755350497092222,1.4253031290914755,0.9765776749266086,-1.5607433740054935,1.502426929654636,-1.6241729223522008,1.9246685308083975,1.570158673740138,0.010577456718798714,-0.7931597951345368,0.7181122970810312,0.018522661239063837,0.3108698138437496,-0.10436148488113786,-0.7826199925159417,0.8363407797315194,-0.11706706026462303,1.080037216483686,0.2681731036154367
1.1958638752890136,1.7155228088143117,0.6227382234944461,-0.9404099862003235,-0.19640542348045442,-0.7134213861140216,0.43320439295011015,-0.7521305197115936,2.874099147171458,1.0327478360692173,1.4576446920424657,-0.917545737668841,-0.1141400056976039,-0.6871728459090127,-0.029116227594748762,0.6658695037625549,0.13701273815836465,1.6456886899258203,1.6377467450066072,-0.3046500994037113,0.36532963578760574,2.607579552506086,0.04770972050518775,-0.18093681325704172,0.277368793965582,-0.5892580627330658,-1.087926927487726,-0.00351481437810397,0.06774800031515389,0.36760177732432586
0.8399128081866349,0.9163148653026911,1.399492757756229,-1.1960096926055135,1.4767007150660725,0.5200184542520921,-0.6204638469750308,0.45280505151655254,-0.6337221077802243,-1.3719460333204385,1.1816452017383159,0.6382169514760067,-0.8758668551583941,-0.5247793351192879,-0.34049225851515214,0.047653615949675966,1.5255482802591565,-1.6568320009063249,1.4372548399924308,-2.0270026076459344,-0.39924325562303187,-1.5664148900761432,-1.6993714410696932,-1.9978628405907304,-0.7848495806537458,2.0523493361378007,0.008931060724124761,-0.9665713749792691,0.19945866001888762,-0.42187545983757985
-0.33471634447416315,0.809322381984699,0.6325572195908431,0.9727374195888369,0.9172012284422608,-0.7135250025589249,-0.0594213571256671,0.031085095974283036,1.8696525491207376,1.2951103501659604,-0.39141383415008973,0.8098246825136982,-0.9660411979828826,-0.11019408199932838,0.025974799601945823,-0.09581410195140323,0.6519731165563117,1.839514069633108,-0.8922183075728013,1.5435168093225091,0.0007271360565570394,-0.7474287054760387,1.140231231261141,-0.3456657518668879,-0.6529402637331191,-1.4834994543806164,0.881049373255103,0.2641668143495589,-1.540110564669959,-0.3709148700457443
Pesos da camada oculta para sada
0.4779304083540135,-0.7441814591988519,-1.1889144982992708,-1.4371773310697529,-2.037844521221497,-0.7264578083328329,-1.2264101922206625,-3.0754954199124303,0.9406419676857155,-0.297105492656191,2.1167324708510553,-0.7355457692772516,-1.3483431433552295,-0.2847263345189547,-1.0830191426974678,-1.7761892461150768,-1.8774158941033532,0.1751088326614716,0.15506061133673898,-0.7223374401774628,-0.6315684906288956,-2.817218187258685,1.4431458008057303,-1.4173660105962194,1.2418737056153786,1.6364209024780827
-0.5942053899979245,-0.3881092965333443,-2.157296314561527,-2.062299162670153,-0.4091189375621972,-1.3473418505641768,-0.48888005877212615,-1.2060631255131267,-0.658123900891828,-1.6414366585565274,0.2938282838286321,-0.9347155253540046,0.3212613617161937,-0.7162786633388842,-0.6575082400597457,-0.4413656682964933,0.14249104442855953,-1.686914648035494,-1.7500972643701649,-1.7413847219619671,-0.18036566300019757,-0.4433047456245819,1.419124955653009,-1.0217407438160704,-1.701096539768921,-0.21711837176502435
1.1447580468480145,-0.568299460701512,-0.5485017636396674,-0.1244113418597909,-1.1496039378939589,-0.8771997567545081,-0.23412107865311524,1.0864081912876986,0.028678687863745323,0.16673131032244012,1.4640669826568848,-1.0603551596725933,-1.0619335874202467,-0.34446380197486165,-3.123784307352636,-0.9325052639649927,0.6607587640309882,-1.2884907083973816,-0.42981540058999385,-0.0035777902132762534,0.9797563500664624,-0.4890140479571432,-1.0105099871943486,0.46345302806432753,-1.3927850494620917,0.15167749578906564
-1.0592665825275545,0.5405883183430498,1.4015364045597625,-1.8576226691579414,-0.5409138450284883,-1.1794902805207381,-0.23394388536840538,-0.0010716839210510552,-0.19860027109758657,-0.13659538779615513,3.4404346553727376,-0.9060720513587996,0.7378272930356121,0.013410049190710635,-0.8839528073685246,-0.6478870023601525,-0.9076333073859593,-1.3540818639938406,-0.97641942981803,-1.0791842254845838,-0.05067628093340406,0.7634349122111754,0.5781819460909251,-0.2662350121887082,-0.9214114572926339,-0.7967368769360278
-3.0123509204348538,-1.0394596385226726,-0.9494068523668737,0.5021160238929185,-0.2991381870355234,1.2159727026404739,-0.8411005199900227,0.18122264511639594,0.7214534104224325,0.2280932932061638,0.17289257898864777,-0.29743472998790943,-1.104611147832025,0.8015618924494826,1.666332367109967,-0.7666892086755748,0.5385783614472606,-1.1154019213541284,0.26944130293103885,-0.057482408971001195,0.3520404450417897,-0.4015269201505576,-2.8625093019811634,-0.20796549765637998,-1.5201113883551898,-2.2394568947842735
-0.6465619463764988,2.2077040484823782,-0.2709316740113606,-0.6452077696498095,-0.4273727568691894,1.7740813465823844,1.0367147712322484,0.8440286119155774,0.33612624999390917,0.8458541575563566,-1.1053516082456223,-1.639519669428155,-1.330584586049509,0.4074918491795904,0.6439881094198759,-1.2925355833128125,0.4434630224921869,1.078888060703401,-0.9863690031248827,-0.9465012401224,0.31530540882267266,-0.3589283532561655,0.18369983918903945,-1.8048865171225865,0.6493120945057121,-0.9338860354658891
-0.2745733142673598,-0.20342408681403398,0.7321986440179682,-1.0263022674701392,-0.673968434773984,0.13988099593170747,-1.303593445078024,-2.1694388932583286,-2.978480499979421,-2.0264669326924394,0.15395001550175413,-1.0776064610793001,0.37702930899785947,-0.1640587148464173,2.952826753639557,0.9258573654840446,-1.60080231395807,-1.022832929171152,-0.6587093672605495,-0.9442320661886431,-0.2684098921953451,-0.27762781433187356,-1.1109457634619426,-1.2918993923401507,-1.848622505585479,0.5529117074838608
-1.4018206020446706,-0.6809125437087462,-1.1146061106115814,-2.775862369314652,-0.369296546624395,1.0784481920695126,-0.6352572990495942,1.404314580944989,1.644296524930089,-0.008572931125179907,-2.7621417827826975,-1.3254323651148594,-2.171194646128838,0.7456532990906078,-0.2692426180284329,0.6130869975836857,-0.11730240536784808,-0.08574177168557687,0.04131456678300468,-2.177789562417964,-1.1467638986996629,1.4849330179169913,0.4729412911469459,0.6193282163321154,-0.4279762375826004,-1.6893324414217277
0.3593481918844505,0.23948643768894623,-0.12256281720510087,1.2065797555175817,-1.2965170499362897,0.9654260531775595,-0.16295191475694146,0.4362672043725194,1.0117054875946652,-0.923248586867905,-0.9801067571440022,-0.8540595811464923,-3.8956848373408968,-2.1694644143560677,1.7816034859977392,0.6658458675435732,-1.8474144738374985,-0.8793394129220288,-0.9695974077793328,0.7091885512554351,-1.4435841287846405,-0.8439525050565021,1.244087635823224,-1.5424263568102377,-0.6261037827609864,2.016969317765133
-0.46423176526203364,-0.9208578414334221,-0.5730691561300683,2.365841468914496,0.5733786629022143,0.48771164475783446,0.2995759548889446,-2.997811519890593,-2.593643032578909,1.1286288457629852,-0.8336649393963688,-0.8807272129356433,-0.6043858223877941,0.06787692303472476,-0.44022830273603986,-1.0287192672105383,0.008581691676087801,2.20006358840625,-0.35917625909234246,2.9644840234763628,-0.347385202901438,0.29108446507831304,-1.1848817497792272,-0.3749533958972702,0.2656780345111142,-0.5684383634194206
-3.3372936504036517,-2.0061499781469454,-1.1987376099997014,-1.9165387284004791,0.051231384095207104,-0.46701938117771663,-0.10319487769103651,-1.5854061005050128,0.8368277785972869,-0.9856911588833368,-0.5783130547536487,-1.1623115828599504,0.26783881042084107,-1.0020179886688836,-0.7060869055335922,-1.546605605715216,1.1399792219130278,-0.6685351276624061,-1.014865092873049,0.29240995602933034,-0.5795686175497231,-0.6820691982027578,-1.6493250193673377,-1.64044276696365,-0.4176899541227955,0.43951695534327134
0.7403597124164204,-1.1386618845923562,0.052906470056889886,-0.3730330921723371,0.30946331356102824,0.8487499391837774,-0.44672627788598024,-1.1879198567717233,0.31771882413635627,-0.7824121319632757,-1.970441509696518,-1.931583686080094,0.8044663399509648,-1.2441313235093996,-3.1676696239162725,-0.11581981881816457,-0.007150048417941509,-1.3038555852680238,0.3007210682695453,1.9731315779124328,-2.2892806921155344,-0.8622959715291715,-0.15682131545148503,-0.6200921856828383,0.07706860917662892,-2.1872101089794933
-1.5597313887727067,-0.5367516419671736,-0.06325644255611249,-2.313585798904127,0.6016502484896759,-0.9799165621302024,0.07861941844286757,-0.10363559164574794,-0.4156310439942513,0.5035312226578909,-2.1250070209622733,-0.8028534352552232,-0.8094582130899681,-1.2468513346894703,-0.85026150308043,-0.7964415438083232,1.2712719876211713,-0.815958960124448,0.044090314674545224,0.10955054720628778,-0.4490504667088935,1.3783590677616646,-0.2817976758085508,-1.1087761855027045,1.2124091752074893,0.1849568425777228
0.3558750781878845,-1.1394110692209225,-0.11835675682930487,-2.1242323592067125,-0.7276116989842569,0.4721364704533334,1.345109454106675,0.7364132343147096,-2.3964372515842576,1.0383085979385167,-1.6122870675295708,-1.248328351248382,-1.5785146499834029,0.25749366913144506,-1.997083027623934,-1.6398369696839805,-1.3972874720042006,1.4234194050446547,0.7948052404162871,0.6483853919742436,0.5083959968925161,-0.7015817846157305,0.8256673603895309,-0.02619870188167068,1.393852636353784,-0.3982205519625673
1.109873834616421,-1.6827181326176337,-1.1962073669899638,1.5544377464264325,-1.7298675257327163,-0.35211200846294244,0.12111064968016182,1.1631328124041962,-2.983831965433187,0.05367693555906503,-1.7988890468484524,1.0006195316163102,-0.34183144207608773,1.191303059820275,-2.8312050805974485,-2.569258927192385,-0.3770555000202656,-0.5647803292417753,0.25496166875178716,1.8676497047354519,-1.197123429162884,-0.9952620638243134,-0.46766988917578706,-1.4911100704143814,-0.8044865058010078,0.08533038822169071
0.2895085461082088,0.13735985852878244,-1.311024902942722,1.8960741465457664,-0.6555827431420682,-0.566009540314555,-1.280525786736794,1.2789596570973791,-1.9202203421818562,-1.3861190091846127,-0.27139544164276674,0.25439861962963795,2.3484469057209543,-0.5995208975007108,-1.238503463281089,0.2654453700264246,-1.3540909329490958,-0.12748536295960539,-0.09086402531253711,-0.8446434886314117,1.7044028679411465,-0.750148406512591,-0.4335509133674896,1.208083539088827,0.2012923971974376,-2.4507810349430055
0.03827283588234476,0.7601756537020898,-1.6366042182640788,2.399258310347359,-3.058438233853001,0.12932099233754418,-1.1148389017174445,0.9671771507154024,-2.418723818718734,-1.748727860822077,-0.023791970273513464,0.3306355467192008,-0.9963083672612733,-0.8422021914617897,0.5401833481918428,-1.936956269578474,0.05249951776777652,0.046560600163597865,-0.38908477896941623,-3.309438976305201,0.1890465928203077,1.2529295459429484,-0.9441743072311498,-0.17819279508701327,-1.5372297194328037,1.0849344005339228
-0.3288961231244859,-1.2207739014654624,-2.3215532060406114,2.3968575159011793,-0.9060823350782216,-1.6542133069402147,0.9484170530820923,-0.4450976194499046,-0.6252912211128204,-1.4027720838054647,-0.9875767298771365,-1.137820331945056,0.2767243700982126,-1.4628531691510724,1.2352380393607962,-0.4638056318976146,-0.910967109617437,-1.5471768363864737,1.1088596416622314,0.605977006184567,-0.5409150259184402,0.6519528984049469,-0.7553023192785685,-0.3895810817047366,0.3870133641048725,-1.8825071708812067
-2.6144865446653838,-1.1112842035121813,-0.19420808774468298,-0.902689984994405,-0.9729079650037498,0.3134024903230577,-0.5943524868772996,0.055085990538618644,0.44942886701190005,-1.539947378297776,-0.5588151310855515,-0.5656908376888629,1.045391127565236,-0.10031966196241744,0.11022962834028942,-0.5040576541835835,-3.908619976756602,-1.1139560931010664,0.09799110464468047,-1.9759907746133387,0.6148360961565851,-1.6014444829713346,0.7902041992233827,-0.7259267023750752,0.2686865462341168,-0.3912704835790511
-1.8875657243684327,-0.8081406915046366,-0.9103197946945515,-2.6155805336100872,-0.4110476839023591,-0.12526136788959868,-1.6624301183814632,1.2972746737239342,-0.580310373250762,-0.6906552014752826,1.9608768648341732,-0.8715044396288484,1.7072378078188863,0.8536707204586105,-2.3564509931198767,-0.5617267232128668,-1.1155895160827303,-1.6828020468456348,0.2154153562982714,-1.034085159788741,0.9909705821492825,-0.34314856166782126,1.640994046258982,-0.36902786350775685,-1.1916200563481993,-0.801541303321433
0.821111968333114,0.2896445921002033,-1.1958697732729637,0.9791580898713375,-0.5074472501464729,-1.7872988162520798,-1.2151526015898393,-1.3389009797847873,-0.6591603974245189,1.0209684068563696,-0.48994247795937795,0.7156680500067882,-0.9783216072681387,0.6429121755731553,-0.21153442053630647,-0.6118776648304797,1.373602369394282,0.5406106525070858,0.2829431229721423,-0.7007581497053608,-0.33523888500239624,-0.00850712920358741,2.093119385686071,-0.804231201367995,-1.2063997149763195,0.19425721131284843
-0.18970031255699188,0.4589824371718122,1.5233496104016593,0.35527495825155897,0.4762341921239757,-1.2960883207539187,-2.0444633093705415,-1.1157428612515208,-1.0686495730248042,-0.9298485373658315,-1.4901940864813856,0.9365785684147673,-1.261094702427223,-0.7543751013293469,0.7645882547724581,-0.757147464516055,0.4796894559070893,1.0795859202539027,-0.7291858215596755,-0.8676767309203289,-1.9284309654297445,-0.718292915744781,-1.014428461998451,-0.22091540732927895,-1.6412551918022984,-4.305346681183279
2.240590055004584,0.22917839736868922,-0.6818037144662145,-1.0263713842585582,1.8483675419008339,0.9235484055641656,-0.3721362398522675,-2.6832557264500747,0.5950674676563108,0.7610458440490507,-0.7366816292605282,-0.8889021737500623,0.15952616529621155,2.29436265202549,0.9671904295863635,0.40026558184955763,0.9624037438468737,1.0547493364767484,-2.489615598899061,-0.4576102140171173,-1.7127726195632655,-0.9798357785970226,-1.8725970309332653,-0.47902390449355253,-0.2656570682699134,-0.46862903593446037
-0.8670191393104626,-1.378078928356416,0.16026563658311122,-1.5224274543723813,-0.4947830743793806,-2.3025736414262408,-3.1318173303848496,-0.15003474407928796,0.2058717407546428,-1.224388894276372,-1.44029767097325,0.4562753159024255,-2.0460508512738333,-1.5696457634924572,1.2848987932498803,0.5672527200179327,1.1473628679883405,-0.23366034195983224,-1.7459486286325407,-0.6977327550023321,1.0231700890370514,-1.5342818183720808,-0.019841436638739756,-0.2326673965184739,0.5311145570798999,-0.2758802318048237
0.04246155861316973,-1.1524424739756725,-1.3255993087107107,-1.1162990303716558,0.0874985793660493,-3.4271872262411036,-0.6428488661047487,-1.0088766684696,-0.9391615907575399,-1.6573759362637572,-0.437355838177684,-0.3080087439775462,-3.985385683807711,1.083480429417318,-0.9915225117841291,-0.7968842792035853,1.3485706275703593,0.02280031385056314,-2.611144333425738,0.15709526222112744,-0.1286593882380504,0.4102269058433694,-0.31864473672669863,-0.2609372525998886,-0.5075467718150763,0.9397800284899145
1.0807716485273797,-2.0597799591953763,-1.1034899037313846,-1.284218079207352,0.1240587195592774,-1.4937348763167144,-0.7850608737275373,0.7637579681143173,-1.7353764438428503,0.8731730283000951,1.1489198998593793,-0.43178462216926616,0.5881321946869604,0.1577109680046654,-1.9206348053297126,-1.170733540057144,2.2141458880589244,-1.0827617170708623,-0.6665776834783563,-2.1407671551483647,0.8074043364446141,-2.478101394385052,0.44506020213060793,0.6020993989523601,-0.22666962937532895,-2.1821366662784496
0.74876540795648,-0.22012551704496414,0.6199632952297497,2.6432497799625576,-1.2571879624987983,-0.6461606957651325,0.515772370236932,2.4318807621298664,-1.514591252403379,-0.8782769044059775,-0.10387740856432562,-0.6967848337106212,1.3096302588954722,0.2147754831579526,-0.4765935037458753,-1.024370738856013,-2.541262042748371,0.001950342791195764,-0.4338409433517717,-0.5260982775404861,-0.9759760597617116,-1.9675911979469856,-1.4331477330684839,0.7701752543348002,-0.7414678037636547,-2.3426945547403673
1.6137447676134675,-0.9370774493158986,0.078493635401661,-0.7185207243446113,-1.5134383796335826,-0.9012015395657813,0.634233414741508,1.2035683596648021,1.2159275212268907,-2.0746477068398193,1.0788501637809527,-2.367123680024263,2.029745691279835,0.7180045656276551,-2.7404238771661906,-1.8082700728146985,-3.3807301044092712,0.48309787765246476,-0.9594668868872136,1.514906854377947,-2.4097776193372242,0.18153108346892208,-2.350015045836528,-2.4013313198531567,-0.5542395195855511,2.019173021490233
-2.1694073184064555,-0.18850848242514517,-1.2333555448919087,-0.05572304364135233,0.5777313450053719,-0.5160814085301904,0.4959517328371793,-1.400028464000204,2.962752336464519,-0.059464673592107005,-1.3379921218543076,0.9951464660848157,1.8295074339997652,0.43187781602785674,0.5369027975055575,0.12471227072707432,-0.9083579827255814,-0.019148952593669038,-1.6814825257854478,2.4733565132792097,0.5386319814564893,-1.56958230768048,-0.01323544300267093,-0.0583396740313954,-0.24389263519573942,-1.3143641772131212
-0.05819786448999255,1.903054082324655,1.551650519818529,-1.605767969496795,0.31307690097967855,-0.4247574600005906,-0.21469151155572347,-1.5954628010757606,-1.2415776636375382,2.1784070413534726,0.3957768854008336,-0.8939089909076762,2.245395575949807,-0.9213805666147398,-1.3710503009554453,-0.601159210692745,-0.8522930704490217,0.5857128136154974,0.6803451772284699,-0.07641034659202099,-1.1856038229112364,0.6894899568191485,-0.6422427381180046,-2.027168703132126,-0.18480988607322588,1.0003337672953645
