Pesos da camada de entrada para oculta
0.7057710151354647,-1.0418465299467843,-0.8881433362586546,-2.362255441417975,-2.090836073455415,1.469633624915429,2.1408164517525483,-1.763786080694552,-0.8782213065851585,-2.4164579090647766,-0.5318887453095141,-0.949171728322482,-0.07049435410447494,-1.7095852660978843,0.726037833090957,-1.482608251947843,0.5450857495590289,-0.7287278416482957,-1.0256492163565252,-0.31788840135098945,0.8606803386499995,-1.074537946026175,-1.374517399128128,-0.7119823517651616,0.23386501819451866,2.1126370381051482,-1.3960434258981766,-0.6563564221891339,-0.5463063143513399,-1.7277937848773508,-0.6779896449737358,0.09050757366984008,0.29770787379370767,-0.38112182429418484,0.1391778255815005,0.712832670849168,-0.3872850964359644,-0.49894202664811027,-1.2939737100840238,-0.8236786281043851,-0.10291936942562924,2.07918532277551,0.18874516360355628,1.3269557385855484,-0.8802076147745788,0.37779813259629913,0.7462838523109334,-0.4275416783079451,-1.64960701909878,1.0032158864254586,-0.5364803040915742,0.15256090041678882,1.1242266370019425,0.5998868587410299,-1.632722980863138,-0.477512400397478,0.35080675220347785,0.4879586629582416,2.6046989094687207,1.3391554504097571,-0.1506730317248388,-2.236121443941436,0.4036862840190917,-1.6604330666561655,-0.6640090632447888,0.8655387050293718,1.4726585751849468,0.18394123305591603,0.9069692867911353,0.009419448242008866,-1.313128117129812,-1.2299237020942453,-0.9391371976289088,0.5734274322930991,0.2736877528855962,-0.6788134209282217,-0.4483482348390749,-0.05820061283342885,-1.2926363574885384,0.060940639654116106,0.24202152990829,-1.0791290455572817,1.200821764106101,1.0770383702105055,0.1506952627547858,-0.575011925477148,-0.0900806643017702,-0.5900749196189812,0.5419175443734693,-1.0655106465586681,0.6823998043606846,0.34151473906547797,-0.16195410769492327,-0.250033558395152,0.0328569387796616,2.4678346454349622,1.7364024786263217,-0.10766841867724357,1.6411407657829031,-0.43151688963631846
0.6636799762627378,2.3906715122394275,0.7198002434423452,-1.6829942764938357,2.392820866719243,-0.06277848166551729,0.05114681500230067,-0.2289570682028173,0.9632900524824115,-0.44952762925725587,0.3106239437910142,0.9734138390661063,0.14647672061178268,-0.44148761804905573,-0.511903120194068,1.0436358444380782,-0.9093699229135859,-0.9495684891682363,-2.232998697715913,2.578470646597784,0.6969269225628287,-1.3326954138895484,0.10309150902992587,-1.1783786495650947,1.3602692730256263,-0.03581274881735246,0.7717401419844947,-0.4538750079702529,0.4181903418418313,0.3013785416311095,-0.16832517162547167,0.4722244212914566,0.3972541746560095,-0.632417637392586,0.09658893981024311,-0.3622526842347321,-2.344026893616341,0.2054873718935345,0.14967901988826374,-1.9601156325836402,-1.3641824418218376,2.8007451218770547,0.7758298196686212,-2.5382623081396525,-0.5533001655900627,0.11537287972193568,-0.6964070563448775,0.763597503300502,0.1991226665789397,-2.1579183208165977,-0.2821325252383803,-1.938846855543512,1.3489363126234042,-1.1695334195628866,0.24812691113870222,-1.0067796923419596,-0.47079851721910815,-2.181642905135444,0.9599005196415221,-1.7307942114337207,0.4560492610182894,-0.3254791389897364,2.3006522380933214,0.8216409102012556,1.3342063611315793,0.9932497423196421,-0.24231296768759178,0.43445625900308027,-2.0663155988771433,0.48153712363515666,-0.5140532896926772,1.2053209290735571,0.4053956187043884,0.4494160076617323,-0.7871068384229882,-1.080078510145276,-0.27735579137705985,1.0684242782609643,0.6739172843613618,0.9293091387487984,0.9793756989218388,-1.1021782977508776,0.1400703564209915,-1.0286791211693738,-1.3301289769267062,-2.044147164803229,-1.3852836525228205,0.13745170906355475,-0.5620574702551984,-0.38724457812778607,0.23057517145623843,-0.16255202344657196,1.1508511397194587,0.4153725299315189,-0.47970558214067244,-0.7066814528032787,-0.2600443605681237,-1.7767618550513857,0.7415958850675827,0.8820786023779278
0.20034007431819226,-0.9557140672170037,1.171176454491838,0.5880738737520004,-1.602446256825002,0.7267590239595173,-1.078346668342454,-1.2400606990213792,-0.7137090255815628,0.14656020413901089,0.09207031596037622,0.21321330696059915,0.4940299167732484,-1.0667485049897252,1.2031611990515043,-0.4214140884559993,1.2431022180174278,-1.4985756072407501,-1.0149379529816451,0.4736656510351362,0.28320673636809895,0.6884392488040915,-0.09811685415475922,0.7522417782498213,-0.9222454740419027,-0.29902604928818505,0.46033710731431615,1.0241351366814304,-1.31000022696786,1.4517826244248844,-0.16144557321803182,0.6076759173094465,0.6828865777232008,0.4088856270250332,-1.1856366565384098,0.29501423416292005,0.5810713666077323,-0.7483549598116535,0.4433044183209772,-1.2500864351839707,-1.8745533699791128,-1.008263971629663,-0.19346569156305332,-0.19547743223742944,1.505901343400067,0.738750088330395,0.27243583283947764,0.22245686746090837,1.3470146939064287,-0.43341915644564777,0.7530958755316323,-0.6739827714164719,0.4042007040953174,-0.20757545940643304,-0.8643700188579803,1.5223891773169822,0.07662928609872703,0.482293084717395,0.8160488355376804,-0.10113320960296374,-1.5071116350267522,0.7849262536996363,0.47254134159312616,0.4590856526496541,0.2011779693710369,-0.44340923850506453,-0.5616611680001223,2.4855559763334423,1.5409430204673076,-0.126416751558883,1.761601020992457,-2.4639301026935496,0.8377220541742019,0.1542299966408008,1.3587549366459215,1.7499271804392915,-1.6182465154165513,1.5972345433868873,1.7040452465256744,-1.1899380382049787,-1.2677290202178635,-0.6625067672247126,1.7899155457203664,0.15359319926472276,1.1752464383474885,-0.8324268403922817,-0.4043669617292719,-0.0696998443290189,1.4871523527068984,-0.0895831254559314,-1.1183061393331224,-1.4835596342129909,-0.3908423984170456,0.6769304856626415,-0.12444493855964836,-0.16074500492729044,0.2579825936160237,-1.7875083429162475,-0.6632286869828257,0.20380955096419165
-0.2210047236871745,-0.9197238294631342,-0.5592226784963699,3.0284531449740437,0.6338847797763426,-0.39062133967813295,-0.9457152027779873,0.2984590145146186,-0.23684090100957578,-0.26528944930182513,0.99466565215081,-0.0660450774478644,0.24123013488136624,0.4076031386511741,-0.10669017916677571,0.21005888584030497,0.3000832478534615,1.3980067102715712,1.088127635485503,-1.8442845479731105,-0.5889905266516957,0.5585869714618246,-0.11376043653688717,-1.6645552751135404,-0.5472763221247101,-0.24164411778104533,1.9948409437567551,0.02973756519680158,2.0215021519269376,-0.2990371317609686,1.2676982705626993,-0.09465916453262478,-0.01299883424395149,-1.047513329728256,1.2605443856823257,0.4904114359505433,-1.5414790255748336,0.5078136242131949,0.33151473906218054,-0.01921924995014615,1.44042652449885,0.08445854704109618,-1.3991805097933427,0.06785444838450062,0.7533482875430488,0.5383829484061962,0.630414678585134,0.7062468046815568,0.45198823069039584,-0.7539519136266807,-0.8376990055019105,0.8394941805761094,-1.2590939264375762,2.310326242314804,2.048229430014984,-0.3136863227283144,-0.13434390968966256,-0.41840926948447094,1.6306972417229393,-0.6736843696412971,0.9070538790324315,-3.737626707484559,-0.6403689533253069,-0.10955947522552699,1.6875607270396362,0.9361043278296443,0.5872921334799467,-1.9430019101180427,-0.12148702049860113,1.7960937536259154,-0.18832955283797517,1.373893400230535,-0.4621682673911978,-0.9254475202638281,0.6317193005627024,0.9862188847054145,-0.24421554422800792,0.09300579890634358,0.23133549161847117,1.961752002427211,-0.34051273214734595,-0.5433287946898537,0.5010024345445722,0.8334831353969497,-0.4940082608721596,-0.09505677521306197,0.23568948390104985,1.3558714145561834,0.1697098939326363,0.9473945297508413,0.9640104791987234,-0.008409873445526102,-0.8301827857483917,0.500250980498785,1.1429576959995142,0.5766946435522315,0.9299250752235064,-0.883612589582874,-0.5937280537981734,0.656332702768365
-0.7114883589099421,-0.7743773576905894,0.8651979520660339,0.9611933885408054,0.7268081450103441,-1.7276276826721793,0.23236108721078025,0.670461800943062,-0.5306682891866329,-1.5168535178471714,0.6995802233891485,0.7638293656191171,-0.23527376664327188,-0.9864751881719278,1.4778436333662268,1.5028522966180333,1.5077423094107647,0.339863292779907,1.6690718301550262,1.875759806997923,1.4855157325426467,0.15725098484493513,0.5356024778253329,-0.6104415860344018,1.4949272176494999,-0.057723536695628075,0.38269619815716627,1.1654653676731448,1.7034443112235853,-0.31734693551744897,1.972666376758789,-0.32623202815250935,0.06420056621793703,0.3749105091074732,-0.08336344708363358,-0.5369674573558257,1.499471770199797,-1.0016314374780575,0.8894761501848935,-0.1681671823705053,-0.7271107401832387,-1.7006986180577592,-1.065590543976008,0.27264238741703406,0.8011390880302863,0.09754219765731206,-1.3344219766284522,1.349924756885781,0.7210359283962557,2.291622597742505,-1.06816185421606,1.366388165070425,0.2137630578825141,1.123041576313625,1.4940980584057093,-1.0600348102536228,-0.8440740349373675,-0.7609666214564004,-1.3433205381301552,3.44104479984234,0.553268054035683,-0.4984207652610589,0.50401756836639,1.1922565779192758,0.10175273031711594,0.19295309194073637,0.8186828864748926,1.5669088025535756,-1.1022731972184652,-1.7376801714425114,0.3161299071989434,-1.6095456900716105,0.06913004297060667,1.1273768235975048,1.1456251372530935,0.13365569777787992,0.09529626401888203,0.24074070937453584,-1.7633500202409969,0.11999575025274618,0.0024730097963972866,-1.0151632601564118,1.6986648066572019,0.9322390978370605,-0.44792192505024375,1.6704365914852637,0.26365815735925036,-1.0001990699944046,1.0082600614333235,-0.3554035959024685,-0.9623656834428809,-0.03580050185312542,-1.5872999653960902,0.05117344009473377,-0.10155620842381592,-0.03709700507473378,0.0222558799705801,1.630695855737859,0.5985687678601163,0.3579370469548376
-1.628040400057154,0.12181460953728722,0.726125064801085,-1.0172588300198178,-0.1327497248598986,1.6746414699119458,0.05376994102288511,-0.4453503191940083,-0.9429879855630149,0.38005037905636274,-0.6664621283925634,-0.6931768754974343,-0.18189205804287528,0.2185377891818717,-2.5673487256233556,0.1943619422014533,-0.512642771533302,-1.6340883723104327,1.0644247001691671,-0.2970647096039742,-0.5136028408711358,0.09174346159641038,0.8797107672587869,0.33415130839577406,1.5069416772854571,0.15064451432070433,-1.4697566316291455,0.4692067689172706,-0.13970293435815728,-0.7588767771488553,-0.5808912070087424,0.24789485641513503,-0.6900277181673213,0.4804017899067691,0.578233639985511,-0.3513906699074243,-0.5572544026280872,-0.39815583250992,0.24337928816857426,0.7148554745133504,0.9916114015347218,0.35119580167076336,0.39380568972542235,0.20706541627164426,-1.541928631118511,-0.3742734097309387,-0.953250909270331,-0.27244832312947104,0.5893481305456638,-1.8492962266321231,-0.33717883467460197,1.154378552724974,0.32669353349564473,-0.6736989263281412,-1.0030311018717113,-0.009683985418747945,-0.7211469580944835,-0.038496999082603615,-1.4265230628556123,-0.658491844673751,0.7822037110994161,-1.5307476479996827,1.1216201957692173,-0.49022936925977945,0.056419853450505375,-1.0648235556431886,-0.7781281391892331,1.1856119496161708,1.018237245150421,-0.00025334714592644455,0.7738191690203101,-1.2183992271069908,-0.25719771426968324,0.48044922137167756,-0.22814299921960862,1.050113677480057,-0.2535102279830358,0.49523215486984934,1.0388315406817317,-2.118721329174325,-1.2149114403892876,-1.8695137851240358,0.47206431382566205,-0.17153923547218275,-0.36111324612679474,1.127327629940153,-0.30921813991448543,-0.7518330597338874,-0.061535298450387944,-1.1168900375804491,-1.3849720356297868,-1.6275063131093308,1.4593150481798889,-0.8652354649298147,-1.4251962861989693,1.2568164207057373,0.3229761713721038,-0.390857102415678,0.9868502291565162,0.6841534650428525
0.7165926162548948,0.4459432974753286,-0.41551315268887,0.15796484984615175,-0.32778936731584934,0.6502320616941826,0.70987452520194,1.2587135337670456,0.2603763329718852,-1.0061802715240427,-0.6614916807525404,0.699553337202558,-0.5401501175275187,-1.0705575728454482,0.28805569509488593,0.9175640282699914,0.589979884910138,-0.33553007447680677,-0.6677412467380773,-0.9125207791879133,0.42958797796472387,1.4361384705406512,0.1126939507134322,-1.5224839353206412,1.097945310581261,-1.656050043626414,-0.40719947384146304,-1.7752368926995674,-0.6445649658158885,-1.413570581044133,-0.8147539410216046,-0.07670807677660996,-0.429779377898231,0.8585163684681435,-0.28508214158246364,0.42014539439413345,-0.07922831446237028,-0.2748028062046941,-0.9458424257851712,1.0593536497287617,-0.8014161612856209,0.059719373940282795,-0.026470700119474982,-0.29909717220235377,-0.18375515444841312,-2.101067110937782,-0.8979355483483858,0.216959502830191,-1.507489115079074,-0.9706311391699998,-0.2051399095789197,0.31092357077774696,-0.6021205194453133,-0.6511822246673328,0.7576225663594036,0.09448291500903526,0.6364708340143803,1.096502446771503,0.3352401294973829,1.0173262220011074,0.09268293105549597,1.0864414342695026,0.32349058951388165,0.48385929104476316,-0.06152212643908948,0.23223904166050593,1.1062739644394266,0.18687987763085634,0.32150307788255866,0.7716252347089753,-1.682159597868281,0.5921015138430428,0.8344395349519488,-0.018492007760489475,0.3208609457339697,-0.10645997683901513,-0.3659322404898162,1.0554111962402324,0.21074661085447435,0.167254221031332,0.6363563488222725,-0.7016078895007237,-0.5816338330807077,0.4837386509439578,-0.5476622704616123,1.3711321956867186,0.48911021501721036,1.0109410912628676,0.31042039672780836,-0.8383889532248825,-0.001424231975460178,0.420701523290626,-0.25452791160445,-1.8378519383122418,-0.4620005018671312,1.4395048297020965,0.22093012134105086,-1.1926024056383027,-1.2380804322654695,1.6349442438733406
0.7750931706413041,-0.6356235204088334,-0.8625244359500719,-0.3270441009788591,-0.5213651973121354,-1.4250140177149702,-0.07127640449435957,0.5863868617301105,0.5682946306937996,-0.7350076249210628,-0.7575109699972373,0.21500219844869564,-0.25689655225429325,-0.978325080153677,-2.2444114627511955,-1.0088906817017222,0.09660901515917146,-2.656999469229593,-0.2870199365599975,0.26181426064381325,1.1977720430111722,-0.32119979303007884,1.0516855257752908,1.187827366530842,-1.1021600910939233,-0.887329478296278,-0.7610726488976338,1.2127322310351538,-0.4941119239428601,0.14680307728184294,-1.1502888752512017,0.37205147188786897,-0.11786429317010202,0.0926481220636873,2.749760750952764,0.36504206356898605,2.7188225594109343,0.9487030281690773,-0.24302417274421959,0.44538267207123994,0.20077788431652088,0.9182196868791784,-0.8010695715261915,0.6211208749406296,0.3953212819830456,-0.2726645776181506,0.7907158896564052,1.355930482907536,-0.7572420380539638,-0.1843746959702414,0.09196926128117441,2.087965979219912,0.23972877881764962,-0.955073070162951,-0.9851560542667507,-0.960424113018271,-0.5904446721959307,-0.15344695389841567,1.6900747812800545,1.4889579236949941,-3.0079263837400387,-1.4386581015234008,-0.6542585554541678,-0.08451494991314144,0.5058664289565126,0.42593688545606767,-0.7761359410516224,-0.2310810715119974,-0.4471248632849287,1.5152862853557578,0.31602712942124567,-0.5181076378384722,0.19446720532284453,-0.49975799711497737,1.4943216740226226,-1.0475533601857225,0.03666150691725086,-1.0902752505888131,-0.42704285530209213,-0.2385134901071383,-0.9770242745605067,1.3015801576770056,1.5763438566453531,-0.3882242850676749,1.1758158578335842,0.6084123113546702,1.031241605872888,-1.0924651021668397,0.6650080516149293,0.7034560180694175,1.3308525205663957,1.7511848626276731,0.44390208357250854,-0.8495543490728038,1.4971123055916917,-0.38717584328702953,-1.010884222391548,0.5444887873761728,1.2950236980526146,-0.42262013969552537
-1.660911779286192,-0.08713129372215936,0.4288996633027684,0.011434892363843454,-0.700353344879642,-0.8022164595240857,-0.9726547900905741,0.3850453034194475,-1.8131344936005587,1.2781245214143246,0.5346607006540047,-0.4260753362591779,0.6431487559631585,-1.0821850970157136,0.6618098066647105,-0.7025727905948516,0.25277027077921943,0.64710063064345,-1.0022438592812375,0.374791952668932,0.7161415141952806,-0.1102983652247228,0.517887607418081,0.3239096934554654,0.6164333890344913,0.5013281682273866,0.7011040172634113,-0.14286065917288984,0.8643754637057862,0.9539840407853232,-0.4046457995822057,-1.2571541192828026,0.02348260427129077,0.8934428872750672,-0.07315470272356776,-1.1685711162146823,-0.4414183885772742,0.775376586068983,2.8159310988641026,1.1281271452133215,-2.1691078647374566,0.32411546747760867,0.7406971451309466,0.8635196762887153,-0.17480649849896382,0.13623332452256567,-0.367878305640106,1.0137416467304832,0.38458071909365843,0.10313644614946024,1.4200432846839666,1.2336723017975413,-0.7511674015999504,1.1628365416015738,0.5525157571787127,-0.7360743564918386,0.282078600770163,-0.03439280050803677,-2.029044382033792,2.2112113358047205,-0.13892794463086267,-0.17470472910942061,-0.056866700955230734,1.325790551372515,0.01642078934113627,-0.1983776241964246,-0.990765293328425,0.5169263745781033,0.5418765287626437,-1.5837710518527082,0.49940201187552813,0.7532090399434928,-0.02866601879010818,-0.32953307996477477,-0.7294701866096932,-1.2450833329071913,0.5747710313312749,-0.07503737440621486,-0.28204400754348224,-0.16774795704754022,0.6448919885543188,1.0474962655333995,1.8158406534315799,1.9416753656591994,1.1185501336647,0.2656064796804129,-0.164827577865131,1.1714841688862605,-0.7730805376593146,-0.27371376493385585,-1.5772890693105293,0.45561678242070086,-0.8364288058066216,-0.2236389253703029,0.9400124592417287,-0.39527982939019674,-0.6512404398026889,0.5188864538833158,-0.12334639625618916,0.11931261779664214
1.9036432038298785,-0.551640821553373,-1.4020901595568174,1.6766864017352796,-0.3242032869162802,-0.32191313300932617,-0.1991391963359093,0.5049373842872475,0.3419055857048686,-0.3429373326901621,0.9667794958854776,0.7878690596240616,-0.2870537194337704,-0.860242865305649,-0.49226509569349536,-0.7856231176667214,0.31363489167285086,1.4509753263248095,1.6016171906617769,-0.15687714970407032,-0.5993047288591858,0.4005390837494973,-0.2282109964078142,2.33285757453147,-0.39844928036577865,0.12605479871109262,-0.26849078367403895,-0.3397128466631614,0.7351400822023609,-1.501684921754018,0.5951080924316668,0.17956543090464946,0.010397633160102887,1.6147249764371259,2.881253194221579,0.8714165922230795,-1.2129868162262816,-0.8438588088383919,-1.939401490376749,0.9420958213015542,0.5684888789209959,-0.6324396848927424,0.4143209225281508,0.6376188124873627,2.2823225268361687,0.022202811120833627,0.13509611682240413,-0.8680161918955513,1.5842914825867904,-0.7231316018844942,-0.93788823214627,-0.29871334555200885,-0.7116093268577703,-2.516773785618458,0.4163379308201106,-0.33126479715303253,-0.739409835953688,-0.22374949136443945,-0.010589405789391982,0.0352982435053388,0.07983011816144885,-0.030360511753050348,1.1802885315317144,0.9287059110973538,0.36702418395974673,-0.6129406399302193,-1.0347722920198035,-0.7931652219856771,-0.1858354356292036,-0.16378969630352652,1.379035624417183,-0.0033732274633253958,-1.1428482213295044,0.10956725718560519,0.149327231509892,-0.3238083252701015,-1.9974586997149333,0.5393370711010259,1.266003609562997,-0.17345369854896592,-0.727496868850957,0.544625117609272,-1.341170236819192,0.35157928264007626,-0.24213619122111169,-0.5185286562673095,-0.8178185762543128,0.8340793953130203,-1.6998114059937155,-0.008847378600774974,-0.1947801378819507,-0.3125499715570385,0.18925355667635937,1.4551028027918995,2.207294483112844,-0.7653344984019457,0.04885426667527482,0.5395172832669082,0.5194876002137211,-0.025215394149071264
-0.33557438107968757,-1.748090089518584,-0.4315182109712392,-0.46545290737217887,-0.17599470605486978,-0.7366128539873679,-2.2258179198105443,0.0860293755729541,-1.53575518399519,-0.9050607760096674,0.9402580919827979,-0.525155597642663,0.9147921835686306,1.6662789507167857,0.16592688249900295,0.059964159705439786,-1.0974975770925142,0.51610459364234,-0.886415217479212,-1.023391197352946,-2.2398567000495873,1.9775166689384063,-0.027925016265489568,1.1453364942486124,1.7863738119070312,-0.19116267570540277,-0.2543253465545717,0.022638245689539246,0.9604153090652345,0.9726184270129603,1.1947655540087334,-0.8685841615521535,-0.08343136491337656,0.009006884492844853,-1.078337438434245,-0.7440935575584973,0.6148957934263893,2.1058061346562087,-0.22886169917177493,0.3454591297895408,1.0859466994828373,0.648151993668906,-0.012056453673122667,-0.27174704265959915,-0.30421702348236296,-0.05388823731017607,0.802027497755663,-0.8251006803429741,-1.4473912652637204,-0.8789267956231119,1.8721758143475136,0.13817031082299405,-0.8823027541268795,0.9125503099816336,-1.7320199504435327,0.16774849197851122,-0.3205373150720897,0.651231957312738,-0.12349823203789254,-0.2363450568240827,1.5194465307586527,2.639660669883752,0.10255896083435022,0.5695251766784097,-1.5845833290048672,-1.1772946682904004,1.1831150144215266,-0.5601453680213405,0.9029221824015699,1.1256801257643674,0.005506304785732732,-0.4550865376267735,0.07659124233009627,-0.47893575452173703,1.7419041196045089,-1.2788081722620468,-0.8396201692756109,0.5266973770500983,-0.30206234918181935,0.4543264110201003,0.6590718748005566,-0.21085895633183052,-0.2706938007486423,0.14096905669328544,0.3128242741303862,-0.6768877802890927,-1.056992074160397,0.919482103947977,0.9073692680595078,-1.5773758543298577,1.6960400838469583,0.0796951096991751,0.4267691750275061,-0.08245041347059529,0.0019866094994828265,0.13223204401900593,-0.17994026641417735,-0.4516463929030744,-0.7969859831552615,0.37112068842917184
-0.015968483554491573,-0.39376494662631084,1.1996691052190225,-2.2500790622481635,-0.6707547175188883,1.469349190129242,-0.9480392158946669,1.027652808789366,-1.1585273152157103,-1.129131332343776,-1.0201700966964393,0.5623307827039152,0.4536579190709824,1.2130748306724222,-0.5566061849176506,-0.2178811804354784,1.3906368139085348,3.0152247279706463,-0.8762002291948113,0.9376042298505207,-0.23323725719068766,-1.136928502001772,0.34843045412400736,-1.056047757077502,-0.8444515995097898,1.9901013552809577,-1.0196227835935983,0.02819353152454677,-0.7223015661946967,-0.9582147277748352,0.3117332067386793,-1.583981243527439,1.1528414138423098,0.35723889351837684,0.8224660627031996,0.04801298904884552,-0.37261664308670406,-0.1495606129054627,-0.9638740215473566,1.7869809976749649,-1.3574449676961378,-0.9376725619659598,-1.351586864668259,-1.3016119742930226,-0.16864912637471752,-0.3986128334902673,-0.6313958307623522,-1.9787508608470152,0.3219118327151704,-0.059280136083239295,-1.1576409523331712,-0.7056838673533723,0.5933451284316842,0.612580766168676,-0.27156800520589036,-0.8392239628545357,0.7450007252983673,-1.1419940709879413,-1.250805707675185,-0.6547206662991154,-0.33904419160269333,-0.9139127852318707,-0.2892304634335826,-1.0713039274812308,1.9011345576241152,-1.4715414745661228,-0.7964068416865987,-0.11012449935004061,-0.3885225041851572,0.4788423337645805,-0.3004056723889459,1.4700328774574234,-1.1137487705849187,1.4336996269495508,0.8980222516877975,0.6264345925445604,-0.2438889618382236,-1.287492952407417,1.024263463553491,1.6553776887669398,-0.8941404261826661,0.6076284644179212,0.11969963054655568,-0.6543596778342273,-0.6249707718206784,-1.9846330657027187,-0.9067688887589278,1.4623981273986375,-0.47090100807930607,0.07959060009315394,-2.0642328627068087,-1.0813684555739527,1.0172194812369713,1.2155840229315713,1.4505672834827001,-0.5150459623890111,-1.5000927492507798,-0.040740636362493886,0.5851894687730304,2.5643072444763173
-0.6536948599486916,-1.9625227966658063,-0.11311679050433307,0.0532718270188898,1.2553436355102603,1.5743150948465507,0.5172156609219012,0.155293754820089,0.16406412617243113,-1.2485196496435924,-1.0916468916796447,-1.6960116965959504,0.572536462185636,-1.0510173957869322,1.0691685291047668,-0.7769081996515297,-0.7437789784653379,0.39426712084430404,0.9365597275542302,-0.1296077302900794,0.14815880488828503,-1.441967200238004,1.2301649666943415,-0.001559603240330172,1.8324763695245447,0.7196878050437924,-0.4152219627168455,-1.323533815673499,0.265143441288914,-0.07502551317667548,0.051677412712752516,0.3118535698599324,-0.5734838100827538,0.1873401628190466,0.6211025149946824,0.26906579272580455,1.422207446202963,-0.26502015858074796,-1.8320062340423735,2.084308947470867,0.5291003541951673,1.076395210503596,-0.26704504601574836,-1.0479727381219295,-1.2226548994971138,2.103846721114515,-2.8618026994006627,0.9427332318410372,-1.6488628257392575,1.2911971149540429,-0.043362758425529835,0.3816856511519041,0.36686843580154893,-0.5542959755448424,1.6070154591489794,1.1482859990275451,0.25946454848080674,-0.023292521445459704,0.08301900780809432,-0.8030073899821908,0.896490805713267,-2.253619799783546,-0.014338956790775828,0.29488854452585367,-1.6299471447622642,-0.09113043545747535,1.441470080690534,0.8660609176840985,-0.035432389884639454,0.049534805200735825,-2.48333540772758,-1.9647181814748749,0.08489141705976394,-0.9209277695713528,0.46899172558321134,-0.44735248669856714,-1.5967226919195658,0.8839685084414913,0.8724386602374908,1.4580203382651622,1.100865492630593,-0.7462909794196918,0.31232084735169885,-1.5857629202466297,-0.3368073608973083,1.0613957796749618,-0.385421004916912,1.0349008639644663,-1.599022476380417,-0.06661010336245896,0.4459521750506212,0.8107726937993737,0.6596092455522885,0.775842983872192,0.15174231157190993,0.36201393763871526,-0.026621367205453297,-1.6910477228306806,1.7507479603666023,-1.2404814941831561
1.2178257751411572,1.7839798616013915,0.5717585442205018,-0.8749420364745207,0.30002551559218216,0.21935804105075718,-1.6963275111159914,0.7904121934843604,0.15858162459534364,-0.139383723060947,-0.18389057152145863,-1.6902130550109038,-0.053354516930635046,0.4077712575316477,-0.936802456781648,-0.7245263788720219,-0.4175951055066924,-1.8264570919424843,0.49481361168174,1.1280626467498287,0.23300859467239995,0.8893849712092058,0.37715447566668847,-0.37822206856198703,0.33904197850401807,-1.5301067412928944,-0.5522590245004165,0.4071805854528645,0.9146210213157112,0.6152436550874836,-0.6326135565866032,0.21014703900642875,1.7081085762668284,0.622137533101374,0.4754167736414767,-0.3829214808578883,1.2157339659245585,1.9697745242859075,2.1357937503692033,0.3335320810858411,-0.2963579762622797,-0.9863197757265766,-0.4792585809688973,-0.11213223430452765,-0.04686328138690445,-0.7371467634107444,-0.024994755367299767,2.248000936592999,0.4700434368951838,0.07866125674040197,-0.2220467906739018,0.95736758390715,-0.6508680135528746,-0.44828950329777506,-0.03310919512442028,0.611605033244257,0.5588676468434672,1.9786876441253571,1.1523336226793748,2.3609737062115492,-0.9825868636794013,0.19027680380953949,-0.6618665927082328,0.8778888704344274,-0.571586544193717,0.7923136884186649,1.9185485697051745,0.4759788105260285,1.074565503417201,0.6983462930071425,-0.5263764264140455,-1.4738344312708611,-0.34338195289607726,0.46741147333134164,-1.3698356156549345,2.767216845443697,-0.5105121805616473,0.08391866604317633,0.39665203225467127,0.03147967682303195,-1.1218275907307909,1.5671123271319494,-0.0915018137923957,-0.7132032797931119,-0.16596877410195407,-0.4563892945806009,-0.45309341106587514,0.36722914823544883,0.5844154121963273,0.5237480279784911,0.023854497525241464,-0.7494540746189797,0.4433048163672833,-0.2387020295844622,-0.38360991735567707,0.20784609843675192,-0.38272516655544303,-0.4179906449822006,-0.7684582952278014,0.6710355135865631
-0.4054342870306465,1.1935285209276658,-0.035027088801675765,0.7840939547164992,0.2432274451086552,2.25297190508558,-0.5745787253706306,0.3869466759710093,0.9239764983263026,-0.5950549509120175,0.7073442928920144,0.5493664538145077,-0.2657022311195023,-0.6833850632551963,1.8998283204753152,-0.7990584422140394,-0.26647730364012623,0.9045580696736386,-0.34222982778555455,-0.37453781123714003,1.283707890060917,0.3720484306132644,0.6651947408334626,-0.4988752222172085,-0.9437364784956991,-0.5580625216978802,-0.5254444989393642,-0.42918980370551774,0.3033769425495173,0.2683597137130564,-0.7491253599441102,-0.43060637298556065,0.02999597234720359,1.0694352199442119,-0.7053980357999424,0.20777721290572604,-2.267911618817843,0.5117280018217337,-0.5606451678782942,-0.6520980676038286,-1.0680483594974473,-0.519827208986807,-0.050382833121597644,-0.3160424495477891,-0.30301718970896696,-0.13648054011884214,-1.7134208858791329,0.6541101788109982,-1.2288448554288969,-1.7977174837076821,1.542980899975288,-0.4934442452580408,-1.3992216743250827,2.1703734474536907,-0.36199012261619384,-0.09729257162288556,-0.52028813832426,0.6060768804751139,0.8051428682611526,0.9317354719585869,-1.9868626668261904,0.0020591663297036735,-0.5210264754420729,1.4470391880630653,-0.523002020646769,-0.12509081237344644,0.5667423640770851,-1.0506925185288478,-0.6121163724163744,-1.6948464878439047,-0.36447079418139083,-0.6034511151324029,0.3313068962727199,-0.5673323224832102,-0.2034333819219958,0.9510799681737753,-0.6689309079700344,0.33922556154448813,1.5573287902304758,0.6580160525727968,0.012624702060020034,0.6698918162304572,-0.7844393267332602,-1.43111984830682,1.1176281261244843,-0.9503543947747402,0.8015503787754372,0.7860264003593531,-1.43351313008146,-1.7911596190885708,-0.5605655582329876,0.2743672543014063,0.16808792531068262,1.903981062449354,-0.39074515355504275,1.163982876550833,-1.4770649797154753,0.6015896199722589,0.9762705574546529,2.0619947359426583
0.8486221453543284,0.6110585573890561,-0.037484793249025865,0.8607505215117336,1.774986275452263,0.4613744125701096,-1.7525323199301095,-0.17110847199481857,-1.0598617642136985,-0.48278447187650586,0.951115267160582,1.3400768304704835,1.4593409323930424,-1.5396181763686596,-1.38692290060574,0.3233559520458537,1.8352685035956173,1.3141616278083565,0.3637231902272278,-0.8196074025551846,-0.006126941459580461,0.12504611881991204,0.7308058630140023,2.072057081202678,-0.7258021499246576,-0.9259166926220411,-0.9193103446437447,-0.16766598770652708,2.8342948869061835,-0.38391266950803116,-0.8143390381794239,2.0936060680424995,-1.434155279762682,0.4227011494941819,-0.9814817116315306,0.1765630449281527,-0.5394142975822397,0.6623344098507804,-1.1638396973255003,-0.19130137385725648,-0.1288152564793501,-0.026577212219570694,1.9495497519428417,0.9123404132735744,1.376672412878494,-0.876206838086959,-0.1095319948185961,2.0919773865113958,2.3159115004233692,-1.084798446647901,-0.7462801506832712,0.17204856235863486,0.46798306502517534,1.4592405004620441,1.0724033243004047,-1.507270209240362,-0.7571369092048451,-0.3880654392120456,1.3132821926351925,-0.7239410370753588,2.330435865180542,1.0968504485350123,-0.603747344851746,0.2718910959658531,2.414323860043495,-0.07641132100391414,-0.15320912723285549,-0.15435612191226192,-1.2694083285447675,0.9734369923740297,0.2203296148286122,-1.5649418909695798,-1.560167852485037,-1.1286852168676398,0.41094143570238184,-0.27524131032094745,-1.1486146870895693,0.2767810974364258,-1.1582605398820447,0.671970955015185,-1.5016607936701,-0.6324929682279642,0.9024912148496061,-2.206941484713377,0.7494524625210814,1.024865608686077,-0.6635160985663278,-1.0030268505509188,0.7675275242220785,0.8530874448146221,-1.5089894411019351,1.1586195685266376,0.2722050602593878,1.4635609948953585,-1.4426089929009687,-0.24972117890713696,-1.007628175183395,-1.8125826496849076,-1.0333078628112773,1.3774203311212976
0.26475896438050744,-0.08345506160084498,0.27083881234734686,-0.6792204733566856,-0.7466352696278544,0.9760330587736135,0.43558760922313294,1.323827060721085,0.8639214097364621,-0.35883078041600486,0.3085121886359511,1.8398073501075338,1.1043829988524336,0.6960636079980028,-0.08082619206183024,-0.8838981351743784,-0.14865961175220554,2.0092886101544423,-2.286189354707569,0.0001745413866658412,-0.26062470843821334,1.726101678887951,-0.45653052350837026,-0.5828550935043201,0.48846238253009977,-0.11384751374632597,-0.6782557201861188,-0.66712601491533,-2.2765182965666524,-0.9568077154416625,-1.6255864443281502,0.1116251737209205,-1.4050941788672484,0.41565604045448823,-0.8340505148183838,1.8953753105421602,2.0486798122833196,-0.30687656074359454,0.8729323715202008,0.21844889047361277,0.029687256355810376,0.24763667777742318,-0.1886989047252644,1.1177968629360824,-0.8207575974685601,-0.19561554782839086,0.568084428157491,-0.765048481770477,0.524396875342832,0.5559336944705185,-0.052775441921591636,-0.6799891481619215,-0.43421654919642494,1.530524217760728,-0.5857737575033712,-0.9171899213358986,-0.590177808267753,-1.5181873498540792,0.17454595212699203,0.5752280766858079,0.9738890443842378,0.8094316615381313,2.064209750414897,-0.06602772144020758,-0.0919313010749676,0.48546746145509434,1.8845066819733745,-0.9019730126953345,0.5087221226712461,1.5298730359837667,-1.5631614572652703,-0.36834837177448576,-0.3997775884605146,0.17414362711177384,-0.1604937558645499,-0.28914245623137697,-0.21451368532776857,-0.44363115620876303,2.2328308792885037,-0.3795540180226647,0.3857717117691668,0.6339080825923645,-0.5259127742384601,2.547667531692129,0.18054320624924533,-0.4212422109271358,-0.9415268654940815,-0.3415312313321397,-0.33025568100682196,-0.11794203033904356,-0.00017613220004180367,1.213827464583576,0.5231269393257837,-0.7546416597244526,0.033099963111058985,0.4074149556995508,0.2857506503276254,-1.8377286617727222,2.22401106070987,1.2201661212781587
0.3920559443172094,-0.42980313836087675,-0.18854242734524376,-0.10350482815198929,-0.37491280790363246,-0.1857355668618454,-0.3478445021177859,2.2505416605184068,0.022538977090197886,-1.6549446438465467,-1.1328978890116248,0.03466431949546271,0.6566767837284629,-0.7824587589424816,0.4685618277752624,-0.9361230406953366,0.7197846747833638,-1.6095601437789226,-0.006069689803968582,0.15883769977607096,0.06677748795962739,-0.5730768359261759,1.2877290302538074,0.02027455258570624,0.883341393804576,0.040399860082264864,0.25379613176946253,-0.6355409266692844,-0.2726652938143918,0.3432230238701787,-0.8853827530151794,0.6826098123520311,-1.3199140113673624,-0.4543801848872351,-0.9489313588191475,1.0555388842265472,1.360779885535043,1.002301539231044,-2.1529931339975135,-1.6570593255052661,-0.7527078914558395,1.4634890380896468,0.43360811514040687,-0.3106285650234304,-0.3256471736307638,0.4422313315238949,-2.0676797710558596,-0.6560155034784073,0.214811735955973,1.1068768269319906,0.9803910946757424,0.22752509833960594,-0.5119944355375651,-0.22370677569338784,-0.16514774949824113,2.7581692807297817,-1.0435443097671218,-0.2100914012694265,0.14998782401799599,1.1269991272529087,1.5089003334974098,-1.4592487545240913,0.4023638030307452,-1.4233519164498059,0.7875175876960064,-1.285148130094464,-0.47714475655445904,0.07801084812505849,1.753244326053856,-0.6883771856733345,-1.9770127025946733,-0.8011254571290355,-0.721598980646991,-2.370819142003227,-1.1287695353602065,0.21328017508271868,0.6334549463430835,-0.5731275024122283,2.5688015652070417,-0.8168245346506631,-0.3308137807039897,0.9773666496514959,0.9409988655759144,-0.4842434649756158,-0.6678923461692089,-1.3575669006702547,0.9702928629975217,0.41546926963829867,-1.3364098084421836,-0.19670548102571478,1.1463340794253558,0.36929094100878856,0.4813140121636423,-2.0442430785402883,0.628595591894809,-0.8479831898385422,-1.2569615758340718,-0.7615601215084389,-0.141538546363391,-1.3243926126373513
0.862231795117107,0.8933333756693506,-0.7437887778029084,-1.4189226524948257,-1.1018701743352655,-2.3749505481063884,1.5067577000311434,0.6487588202814301,0.14269493237905112,0.40042795748385346,0.7602037997322032,2.092860809297944,-0.2927233185015142,-1.12727288758043,-2.4935754741519265,1.215055697375773,0.7793998037952719,-0.11502471025213834,-0.18441523887165098,0.504029736875656,-0.26470396573990995,0.6860342468008883,-0.24101909703768395,0.5321479126602285,-1.938815561041937,0.13536465740684225,1.0263723696109257,-0.7191663382975748,1.2894638497263196,-0.8471587490233852,-1.0819925058507602,0.5384895282062153,-1.0561333095737522,-0.12186359382258209,-0.9111473536499093,0.41725850844340406,-1.909682140606446,0.08783328692819294,-0.7652385000039165,-0.4657926065552781,-0.44112040102333044,0.31707476092086506,-0.25773592993465366,1.314971208065901,-0.44436010476947635,0.7296612480359537,-2.217957109467771,-0.29432972754617653,-2.0628405417309326,0.3143779052979285,0.6734248334807807,1.0204563436711422,1.6538631707770812,-0.02931886380487993,-1.9304326620495276,1.0755088347886081,-0.08471730403643143,-0.23828182383248958,0.5664844177466744,-0.2608577784800235,0.21582030716666906,-1.1227120971710216,-0.6583415433800349,0.557487655305722,-1.1322509460095131,0.9801618213822234,1.4736165614784185,-1.7191618008241498,-2.4250502919269628,1.0140506455541953,0.32462837492134794,1.2260682511516505,0.6109505171831804,0.686150241879948,-0.8054623121369113,0.9248583386827037,1.1689267445847216,0.5037225671100505,-0.07992001659860568,0.314001921498657,-0.19381776854516566,0.42807090393029956,-0.8452775817289198,0.40125110312593903,-0.7257289302946581,0.6180764608862146,-1.4227372705025614,-1.5799752101444298,-2.0040831767708895,-0.5108822384527496,-0.6402568026516083,1.0424337784407276,1.2036898545351833,-0.6593016306937396,-0.4874040340996846,0.12984791466840945,-0.4206529302191794,1.190899249161217,0.4715904072218151,1.1926782850143456
0.8606107194140176,1.0946181758710467,-2.485305355786056,0.4443185256588052,1.8284127745689092,0.9853682263735286,-1.2761248109020007,-0.1428417991646482,-1.0674499824506172,-0.7412540478841922,-0.5627371934979264,-0.31774368201509645,-1.6322533962013266,0.8465688277974626,0.20786637862445623,0.044919205130664726,0.5521450413594646,1.2685344024052465,0.46603509441649293,-1.0125193153887493,-0.8229518703302272,0.290711478447119,0.49994643510496006,-0.1804789250312054,0.9062632592042117,0.9210932110252437,0.26409181603468107,0.14900822063191135,0.3508820125565784,1.2083736734355757,-1.9348578222893207,-0.18339509050153077,0.26210295678255885,0.5285671596463442,-0.29948167962321615,-0.6604496745064634,-0.4127963977700703,0.07837338781647274,-1.0636177898827384,-0.5114054352904768,-0.15143449969266323,0.09875738658415359,-0.5545596062313171,-0.04067565339982744,1.3804786753945009,0.18381109532720885,0.06397747725440951,1.0817619961303948,0.3184003543987739,-1.6941992407995108,-1.3756218533973643,1.1835769212939518,1.075032186845654,0.15315777850912912,0.38662186722299174,-1.0520189874602106,1.8612210646218441,1.7667611441274076,-0.709374162890922,1.5330971276347354,-1.443926101153374,0.49456846889967165,-0.808027487497314,0.21666794029964412,1.2003065584430472,0.11623470914801844,-1.264776264465278,0.5518725838670444,1.519627012412431,-0.3200141680116585,-0.5739437870700052,1.5795632080645878,0.9398188309524848,0.9271721203253774,-0.12574137054477327,1.2864534586754155,0.3576319862900107,-1.4153434819066175,0.1271429525217488,1.2292184187918158,0.19257647959119598,0.26535300289213504,2.206496164962008,-1.1061071713622936,-0.30658565479126104,-0.6572283605196962,-1.0570932574948462,0.4159253085060103,-0.9976161685519171,0.9724444582975781,0.5769061754062438,-0.7613116023785051,-1.2706303718088132,-0.8247745601204439,-0.725559522117541,0.6374835139998485,0.08605142611349827,1.166110884610014,-1.851073984666157,1.3569810482769535
-0.6761190351614755,0.9361905733390465,-2.184638901498183,-0.5739563546042399,1.0251695918203063,-0.5028044990812965,0.46125142887855186,0.07399937610919859,-0.9432544288513126,-0.7629467976658333,1.1621511628633001,-0.16376154797186998,1.1693116046654823,-0.4670548016486663,0.4340915723363653,-0.7298888439600275,-0.7277721533277903,0.857883178062427,-1.0252262586383456,0.17311010519824513,0.38524281466834376,-0.17034822271005298,-0.4550402845710382,-0.042184266407340604,-0.5070378322821361,-0.051493892550609925,0.8070350408587565,1.1837863436342797,-0.9775247898890451,0.3035081805113766,-0.29152649876490055,1.1292223481775108,-0.36441325872436736,0.17824616561411172,-0.6932187931105551,-1.0145481807099337,0.6834241892806495,1.3486105450172088,-0.7527152067736508,-1.119427256099445,1.6526783972622574,-0.4683730890381757,0.6190048216611356,-0.6122114384596969,1.0198432275647829,0.5613339517960404,0.37504054760482036,2.375812061680344,-0.08024398539535511,-1.3631272660857146,-0.08266462440561374,2.5359038113876595,0.016812942445308905,-0.5393942813629714,0.5805096883030896,-0.4762016075678086,2.211801656546361,-0.03982495482735386,-0.2594528753732251,-0.45273234151882824,-0.16422692650230458,-0.7164842272918373,-1.8412566082842732,-0.1929551204217556,-0.11005328015798581,1.294007418618375,0.194830303228573,0.6930653147662206,-1.0453720457943338,0.5804827100341896,1.9004564622956848,0.9091571852085155,1.424514896066458,1.1131834376889547,0.374163078005117,-0.04309539236823058,-0.6685052296483723,1.0329678491257421,-1.4221173532246205,0.6812089555309536,0.5078506110595921,0.5293350448334224,1.7550083713100306,-0.8039289569635071,0.4888498013861927,-0.4210206783744374,-0.11599143336996322,1.69356437031702,0.469552421680262,-0.3128918989373561,-0.15757341791843552,-0.8935593826741004,-0.7602576043451772,0.6888158138375954,-0.5710096585560148,-0.6377694065631968,-0.7431981112261928,-1.4399359077203495,1.3537272024513234,-0.6673304657699588
-0.6407801963655395,0.12792696757194638,-0.2415591070783615,-0.046411500774130525,-0.6316028977357588,0.2573758094400148,-1.6919834652598364,-0.7193687098878334,0.8440733675276966,0.9601794562841552,-1.1078000947496451,-0.43531222539190684,-2.143906014124006,-0.22420042753255667,0.03518259671599627,-0.7302444146828903,1.1724458682238437,0.16866517051460525,-0.11178917369340673,-0.35535532878577314,-0.2650032462785543,0.654273377907438,-1.0402187176172208,0.9156842184795678,1.3641534736581633,0.7020451377291074,-0.8875437631940677,-0.02316416087114812,-0.3196604428550515,0.06595000796016776,0.32231086934591413,0.9380397181043992,-0.6676163537678189,0.721452438486253,-0.24040347783068122,0.1747667868010933,-0.08149674778990407,-0.8795383012751833,-0.3470102265484979,-2.3112220515160624,-0.8371696831445777,0.3679186657825239,0.41264283013018904,-0.5777419954286,0.27956314485921047,-0.3207970800223514,-0.291815593881187,-0.3064313500749637,1.192586774458182,0.042591747341862746,1.440437542083744,-0.8968740666930258,-0.19115754949411795,-0.100972040062799,-0.6291427962828731,0.6212440434580212,0.6004329425464704,-0.4052283145747416,-0.34753456394756843,0.13453870388322028,-0.8093881404084389,-0.1425999915078831,1.0450656186613128,0.5728836896429019,0.06638025523766333,-0.34969518382460957,0.2714336918654217,0.32968395854707244,-1.8201212738294956,-0.6938394363069322,0.18500368979812315,-0.8475625443253566,-0.2957285846547243,-0.7890564411774893,-0.35474377630471166,0.5433107466506719,-1.443385884195687,-1.7719222386289901,-0.8115143783257526,-2.3452494473847283,-1.615855672473631,0.5428380924078914,0.08217737887315348,0.9093048155435357,0.32879359150353676,-1.1140276708336283,1.2682284217744115,0.44150573024725337,-0.6409566061260717,0.30642408967343115,-1.6855749896014762,0.9340630577452074,-0.8920869117550444,-0.5486064681031835,0.5957716813233102,-0.25284229793713353,1.4573787720428895,-0.18330091350892416,0.9317163175919801,1.614052876522397
-0.2814856363724144,0.8908257941435753,1.9017536193314264,-2.9985919471320277,-0.35282343682163336,-0.40724050447398796,-0.17025781890170794,0.17339117734753073,1.5611624302343536,-0.8517854734000987,-1.8753135870216877,0.18868022468271298,0.8376581563383452,-1.3869836336105374,-0.11084769218282743,0.02418005741861788,-0.6828233205780364,-0.4883657098250034,-0.7809612872842621,-0.4148810225516722,0.6170698416224136,0.3159540616887233,-0.7852324278662987,0.04605276086989224,0.37818144389766595,0.04516055579796831,0.490169456541751,1.7376388320526133,1.7565469611070375,-0.11345268631951992,1.9359240533654094,1.0465395699154099,-1.9811426245900754,-0.4351262897705786,0.5405462044809874,-2.212654586018998,0.7428847330485759,2.0702145744085514,-1.612435508809099,-1.5090081910107185,-0.4942662553250415,-0.6309329844930236,-0.3518844802894644,-0.7624220702049239,-0.6885181393346731,0.10387298115905987,1.3284237717774015,0.04738157685793433,1.6778953533427947,2.527371876756898,-1.5671471626737834,-0.6055205062803594,0.41040695416785244,-0.9800535869672629,-0.4286978060634149,-0.021722750287881606,-0.347970659103528,0.650301876677826,0.9979335087580051,0.2334688796515863,0.03513415075369829,-0.8474478536105804,1.1288323858104576,0.812316276585547,0.08986066801992648,-0.3809647672098159,1.2604916385449048,0.4397295303715162,-1.059830266625353,0.12863364744668493,0.09668485380373937,0.43122350668268256,0.5928690057453141,-0.5335722022194811,-0.8217470448846238,1.1571059617919488,-0.09164652792806245,-0.5433474106044225,-0.8714175970148292,-0.20714250730586223,0.5547364860121052,2.120108301714566,1.9209410391092332,0.5023208453916157,0.037715910401880805,-1.1576618325139734,-0.20718140074078648,-0.8668972801056818,-1.5910793944331252,1.2527686209290587,-1.6514431578317947,0.018148825116180576,0.5946602191047351,0.03842129174831396,-2.5064147506624317,-1.357075421567173,-0.3193026623473488,-1.1162205609870004,0.6289763619221268,-0.89327370235817
-0.5494328846267253,-0.0861108061329834,0.24127702874407098,0.5410432805984094,0.24016221090424855,0.22953258091560136,-0.6293981335903557,0.9057287305021945,1.2120969449341792,-0.8330996438801482,-1.4535344723133221,-0.31451697705376896,-1.226519915211011,-0.014630831154141485,-0.5590514820344353,-0.5581237462142411,-0.6905129984394995,0.7652254128960728,1.563294788761171,0.8743488564113095,-0.055034701701180244,1.3486078135471744,-0.9109814000999631,1.1780055623635104,0.8628300408350676,0.3360500707139441,0.5048574954095018,-0.11887226365424966,-1.7551164670090096,-0.99582311852837,0.5839281488240288,-0.24525406203886388,-0.9656131230042245,0.8004605362624245,-0.796116308132322,-1.005121618805109,0.3439535412555584,-0.08933480490356337,0.9609539569986177,-1.8571016299909047,-0.5463375072440759,1.4985482423140377,0.297064199747829,0.046679091214633574,0.28993596009976347,0.32625197461519245,-0.7844265788273199,-0.7959327729445835,1.7140384274625673,-1.856107027403027,-1.424138995746474,1.637534880168675,0.7034426541951644,0.6664493354147842,-0.561502587842778,-2.125221693162554,-1.0005905653005633,1.4680319957123489,0.05251265973939907,-0.1190288284343376,1.3169778435775374,0.04840149222326893,-0.8326120706082908,0.16147828813631318,-0.5638716368692708,-0.40267444155274323,-1.4379415943769058,-0.31439046727138303,0.700833883440283,-0.136763639596462,0.8913554205582843,1.968266674285087,-0.2870717182038628,0.18544137450959103,0.23401003859042793,0.5308625415381649,1.2266594720198327,0.48145588150559326,-1.6753596195669767,-1.1855523818343305,0.5991694336505055,0.5253753744932735,-2.0038804674959327,0.8939430258044432,-1.1585830693646377,-1.4711768647761934,0.5279231375190871,-0.2514273233478174,-0.4105627279475319,0.4969720028082693,1.102121765902003,-0.5596665189144658,-0.44876229089613273,0.6049895244877264,-1.9299325566563676,1.2984577975731697,2.372896239764851,0.801712359169711,-0.22060642449370188,-1.5304192378599812
-1.8875605913352078,0.6669479266967816,0.6956193217297791,1.8629714843728071,1.0695154412389993,0.188318755332747,-1.2517224735816028,1.7400349163490634,1.141282362582133,-0.8956514660353354,1.3870962851684099,-0.09048053821501872,-1.290075374539525,-1.2700340021824141,0.09512782678866048,1.430205203637937,-0.28779520568092815,-1.895930428774227,0.04638447855646513,-0.4472284465682789,1.006581174018038,0.0908712465006483,0.03425379859067798,-1.1717635064305327,0.504027211193868,-0.7169001123788501,-0.9742560516372272,-1.3340009820622403,-0.9861875891000781,0.028172324891321713,2.709434859621195,-2.0323722118183625,0.45154422483655976,-0.2612293282779544,-0.5072385492811077,-0.7175418728044355,-0.9709243907567333,0.9371499520228928,-0.7106978573981987,-0.36452569152586267,0.5335801240269056,-0.8689704303910588,0.9304361312217131,0.08954855027499281,1.3172451775382217,1.572267574103781,-0.15398300880882024,-2.068644515366856,-1.1626363197928595,-0.07028524176699057,1.1524970821478977,-0.04304329452793711,1.5510950844444185,-1.3527738638038047,0.5788538519750251,-0.07853476177249644,0.32181996147190545,-0.9409620552589684,2.1555515720639056,0.2320115971738646,0.662813075737834,-0.13886119071907005,2.8330925642108467,2.2396695264135635,1.0405165059582178,-1.3079023198551536,-0.6866270004447771,-0.7855980034846728,0.8933940061101543,-0.5391593638008497,1.7184820843257689,0.6212422589854163,-0.04870992201259499,-0.13567267531638869,-0.25595577753372667,-1.4557174543349338,0.49187620303099794,0.6970066261760383,-0.5105101028355139,0.13676300434425254,-0.08111217957055734,-0.8956859064127337,-0.5331447267278742,-0.9054873420295311,0.2428593854334278,1.2364769122925352,-2.4715129474123643,-0.4757598526078561,0.9839219983255817,-0.7494941919899646,-0.469455969869121,-0.031915989872559065,0.26978376795947484,-0.1852799115785053,-0.6807353884741972,0.0035549517274752365,0.30242093173806706,0.7069721027414289,0.5337695218504801,-0.9352544327832173
-1.0287909408676945,1.3360856761211888,0.15916195721632312,1.0401827480818338,0.8035860868868565,0.12479215276509761,-0.19418829076926267,-0.6703964864731624,1.3589058652192614,-1.8746395815946584,1.6667970912075962,-0.11607412320221126,-1.5393386985122701,-0.982689328013872,0.05355636043158975,-1.1252983471011853,0.7603443592781429,0.46555371907096216,0.09075050628169103,1.4088197958830717,-0.2348791994049527,-0.6950084710565194,0.05714564960112216,0.04573243266609837,-0.5592807617264343,1.534627486262349,-0.18756871010162846,0.06176992932203482,-0.582680658166222,0.18781447576122895,-0.5009244464970685,-0.5482726590505488,-1.0831728815631747,1.4004781974048655,0.01726552730724518,-0.0796273973617469,-0.2574401406869113,0.40785817210458647,0.4136007126382002,-2.250159449412965,-0.8051427578289398,1.0058448975828886,0.329878181482207,-1.3430259674897185,0.17059279864377355,0.08768988718913218,-0.7749599864321417,0.7371473804209572,0.6368923910949885,0.8104841633424271,0.4235280109231934,-0.3917820881059083,-0.3056390630558906,-0.646145893939131,-1.3894825494252576,1.1992491367310139,-0.5032473623469683,-0.33857261256816085,0.4050573507022728,0.0637273523364784,-0.18445608992019777,1.0706414766569705,0.919622982582096,-0.06167947220958542,-0.538857392122431,1.3369554419425083,0.7268418289889113,-0.36407595600053344,-0.3984726144038385,1.1862864191627014,-1.1600534247437704,0.060613199471806455,0.5211039478290408,-3.248255556295262,-1.1406125110641125,0.6185621388269278,0.622066051832489,0.6288416261894337,0.9205609770948456,-0.9250375535310904,-1.1797505181052883,-0.44079794464010635,-0.4967562023175078,0.4621375418793512,-0.008075755035719326,-0.9713358652158149,-1.0450871344528865,1.426089851819265,-0.2722284287071685,-1.375537339723584,0.20506576892254932,0.7664318430676029,-0.7559651093652681,0.34807536545178547,0.7653491238055954,1.173222395461846,0.7008528533908188,0.3763883739073786,1.6826461981695526,-0.04263084554237825
-2.3278737056341035,-0.09840401797483724,-0.34533244728370077,-1.7969338345538834,-1.6960813061530922,-0.9375675597018935,1.0337907909784223,-0.4541070205093332,0.9065110997919852,-0.7004474200603329,-0.7550874993130368,0.06888834770851684,0.7938954867485054,-0.49003367685429133,0.5861462456683699,-0.9484774262090746,-0.03110749028932281,-0.5232437429573983,0.8999298543202414,0.7128171602133054,0.27873925975973546,-0.20712185084775558,-2.2639521967766645,-1.3389623565375468,1.029025422070722,-0.5510877183467177,-0.6948857355318757,-0.7873209115877863,-0.013299079530182898,0.7422437929707911,-1.2447872254212895,-0.1365767438121649,1.4052567629533597,0.7373232715865179,0.16432896124658405,-0.16824134142202654,-0.5352681130768315,1.1265402910494076,0.1336686416912183,-1.462357041274309,0.03543914547092391,-1.313826189538004,1.4064312315147722,0.11821735275591128,0.27010580973571446,-1.012893539523969,1.0060014130063335,-0.17720163700362362,0.14604415380199187,0.8874298350126809,-1.0757718193109285,0.9140520121682902,0.2584809008993181,1.998098041820041,-0.7901879648679256,-0.928122939202576,0.5137910243498051,1.3481156419064664,-0.004041685390833208,-0.24000688785872143,0.2101922148624932,0.15815455169382586,-0.8351412502441147,0.30180487837685616,0.541040411012055,1.3685618931189971,0.21203188130021516,1.3301811000111579,1.7602574715824377,1.9112048004584623,-2.3913984740089247,0.811181227276166,-1.5919239613490475,-0.7209733672594891,0.17459384460231692,1.3804392290643177,-0.3640886933720531,1.2723298392121394,-0.2002917529126743,-0.0962136786957246,-0.08741847963724178,-1.3378749335433335,-1.831730936794033,0.43673556227682137,0.6252532225186934,1.773954223909619,1.392420151859945,0.6631387073954925,1.7308835112857865,-1.29994781542041,1.8610293064451662,-0.009375031913844714,0.8367486503667317,-2.235679741543777,-1.816104520277251,0.7392531112553911,-1.9858852725189575,-0.3549136176147156,1.0425908375337327,-1.6243855318235971
0.07691614953115791,-0.7456439463875291,2.390788832969704,-0.16634571549119728,-0.21171311044323304,1.6784614787383645,-1.1265151712244406,-2.605015888433355,0.16206704496878796,-0.6656960734385422,-0.10955069534338772,-1.455156678555403,0.03164564637954009,-0.8899742618404136,1.2265189353427257,0.6905292074951508,1.6968959153135013,-1.2459614884836028,-0.0528065967002228,0.09507626451676333,0.5949592538159949,0.7009516542047471,0.3346599612831126,-0.6011704360666212,1.2667679036890072,0.7170269274055733,-0.6339675139139218,1.8988874701236589,-0.9741156655268861,0.7679329958293525,-1.3113921297901725,0.30299350891058385,-0.3004385556537389,-0.6486110421108987,-0.40632990118706636,0.1138204050243379,0.6336213896412164,-0.5306987047249601,-0.09260192634126523,1.8972025498602594,-0.29263381586790294,-1.2788736714759608,-0.7168561549948452,0.4759208725648717,0.2931196973219431,0.14310732966836714,0.26567015097870905,-0.865517459305817,2.058888469722531,0.04572376964732448,0.6995425780130194,-0.9394981033178761,-0.6378326767643364,-0.10854454737119898,0.15826519645523796,-1.0283463558502821,-0.22772874220495132,0.46852186561429066,0.602869428967139,0.8260247298959528,-1.7674347356103597,2.5802261817891137,0.6424315075846234,-0.12519448678506792,-0.36184746572578097,0.08986907325999444,0.12928244245956336,-0.2170179866468484,-2.5955706543902934,-0.13397417020943544,1.5351818375920134,1.240851600454449,0.7584420421791123,0.5635172049991554,-0.7303595379776744,-0.8244940899582327,-0.7493201199990359,-0.7818729500114325,-1.2704602814710895,-0.4314666366113885,-2.1978973456637405,-1.9076596967004291,0.7847805890494541,-0.9862928835584895,0.13896339226459523,-0.9365039089511912,0.2826362021032526,0.2609677851595507,0.1842143096903941,-0.2529159032975253,0.2462343393380967,0.4351936882619304,-1.6734635341801645,-0.02630973797489583,0.2992919428807081,1.907831460062392,0.930339709538953,-0.9163004086018672,-0.5886401090608517,2.464066940633474
-0.13650001864624334,-0.6712136484771262,0.23964899198371667,-0.7847832705915208,-0.14226308101087148,0.5017960196199512,-1.5001011326882832,1.4147882065562853,1.378017129770273,0.4686498837449033,-1.268292772333696,-0.27859290079856597,-0.4296074388099965,0.5767586987228538,-0.9026622158698102,-0.3676033412783944,0.009785234022066042,1.1618867376622937,0.12107258385092239,-0.5714056735779238,0.6036468461411808,-0.8122629847404372,0.7936353565121929,0.822715994867311,0.907558753264289,-1.2323264586791853,-0.11050136246077841,0.3590970641662217,-0.13138524661722215,-0.6037639648238311,-2.7747344954667468,-0.472834809000734,0.8153175694527213,-0.901647174916463,-0.4152263311754057,0.7350529366307526,1.203462161525826,-1.200277913364394,-0.3070650306205846,0.20427733391520342,-0.8712436102752795,-0.8188149956565715,2.1825580035120256,0.22411148760324476,0.3964516291367745,0.781822436168865,1.0965312551437054,0.9711612588535921,0.6906513915122187,1.8236984508073073,0.33971365280643506,-0.8146328159468812,0.0706563901083607,0.37230845698878967,0.5837319374010763,0.6764817696133593,-0.411941928957725,0.8427017824314171,-1.1486847064206194,-0.9824947308372798,1.448124550076201,-0.5456212868083938,0.4044596519862038,-1.4609746604209248,-0.7124488919614637,-0.22528469766930415,0.7588656443230077,-1.5252822558737893,0.013591323836185182,-0.4740552215199811,-0.8761139894105708,-0.49141667801834726,0.8245997729790796,0.8053162153913237,-0.25237942914639816,-1.936142218397658,0.7931627390870526,0.48221223031496885,0.39485512829488983,-0.6446997287670664,-1.2008203081564057,-0.037535256711466,-1.2346281901503044,-1.8949892524312182,-1.4810493681045638,-0.09803810799150041,0.5723812608634001,0.06286326992884952,-0.015172252529492569,-0.5088353456609291,-0.4822025402457915,1.395226760266176,0.9273661758662114,-0.7978625953593277,1.6488498082215028,0.3836570986210737,-0.5397493660106017,0.5063057840485469,0.15213588794176786,0.00584546278352891
0.7418834507177466,-0.967445311925992,1.5909191938949936,-1.4931031805566073,-0.7980829450665845,-2.445587764128987,0.9986712756445958,-1.194412693635479,0.2858624933698157,-0.26553909061361514,-0.16641783564689558,1.541260521849873,-0.9486446890999652,0.049357781897548386,-0.8040275781872259,-0.04363570813382423,0.18837215934372847,1.2165446218618428,0.3863426637043755,0.8007877236755067,1.3477359566715643,0.29613351980184743,-1.682820882440044,-0.6429713845654612,-0.8523084100274788,0.695561348424611,1.5110306999935619,-0.5994417445231385,-0.2135738014555176,0.31582296159697815,-1.4917764775942497,1.0304397743095626,0.15932191292982154,1.4889440576632371,-0.7176468685594,-0.5528684622166951,1.2268840605679554,-0.1768189493192952,1.4824310963078822,1.8257796958690418,-0.4001195182744428,-0.34843356166246914,-1.4406295060163832,-0.8445925316554207,-0.7454768833492359,0.5231036766303052,-0.6602819595135752,1.5646993858900593,1.443613499376679,0.052182419449537214,-0.5286993994276418,0.5187429107171836,1.3558243080494803,-0.4654932949257715,-1.2997387724738967,-0.5987887548649677,-1.391918586002016,-2.7020698576377806,0.7158244040673614,-0.28851486728219305,1.0312945580695874,2.2794957702628813,-1.620126792135237,-1.1785946057930778,0.21285995767819021,1.7905270046588144,-0.7617163207456003,-0.46516237847398473,0.8757807178435917,-0.8317047171462066,0.4813893480671525,0.3633320027173384,-0.9642984365655816,0.3153990196652485,-1.7074345136888276,-0.7316770325596863,1.1803665827664342,-0.05696073259499294,0.7830579495303096,1.6869722242534209,-1.8758361082967834,-0.3912073772483425,0.025459544515997596,-1.705744730358537,0.7462191231368172,1.1598096815502648,-1.1120932213226251,-1.2874050830548638,0.7631748664505457,1.4187296624702064,-0.5113455911879246,0.5395202176320357,0.18909267667454596,0.7264726549061049,0.049278718533562214,0.2567070053269402,0.1253786347974263,-0.39041622937180886,1.1676818892177856,-1.351734710106968
0.026541808012177915,-1.2992044210357245,0.47581208979831713,0.6355410818275924,-1.1210026615103812,-2.2258873857707013,0.6010822647141651,-1.659683972329552,-0.22713970624255758,-0.6967762026879126,0.43863840209710925,0.5695032427610179,2.179438262810568,-0.6522979437014402,-0.7208988827160867,-0.5634348331419995,0.24423686867405497,-1.7286590779047255,-0.4920442745349946,0.9230236644784509,-0.4627291598961005,1.471391384972009,-2.102412081143564,-1.7229149289544965,1.211430046999634,-0.8157511550487493,-0.02453952778075493,0.9602243593713498,0.13749316612849016,-0.4859707849755727,0.03093219058040836,-0.20174306418203128,0.31809985827668374,0.6292223117451401,-0.46514551006868016,-0.47805454062664937,-0.43774450312900126,0.5537583426731564,0.16933159597522685,-0.2757691235433456,0.621768158665691,-0.7664323257436017,-1.2929944545005922,-0.043053049467462794,-0.4406183157116284,1.1376808626762436,-1.0680054914461397,-0.5303483187044589,-0.4867649797609983,-2.08728534152978,-0.35494903601451244,0.7267924585570501,0.10743578045355597,-1.5967998835667727,2.048469153342806,1.638434038254522,1.129193258911206,0.9989741953329234,1.7173870976508798,-0.8382460820601539,-1.2103867293877253,0.2718096504889426,0.8041337183117975,-0.06016946065785554,-0.1456986144348278,-1.2743260124327533,-0.6388045553947744,-1.379543545982732,-1.3403772423196774,-0.05295390870523878,1.146223020755868,0.8574892304106443,0.7424583474422605,1.5403641358485851,0.6386458688213953,1.145271811467234,-0.5606888603848652,0.6154392379400847,1.7021970562569149,-0.5159065292683428,-0.3922075746065302,-1.0989468077360118,-0.7133410530001847,0.3169715963629165,0.3512341782218803,-0.15479016447819452,1.496871178570527,-0.5588699967105277,0.34758217949738496,0.6721398435878932,0.39699451067830765,-0.1902042295705991,1.37935311985375,1.158840534804266,-2.2060255127066823,0.6595510289223138,0.8978207543577884,0.49703755019727947,-0.25767199156067083,0.7690080692407782
-0.6144388139473145,-0.7081775870954232,0.1912049042139727,0.2973555043528953,-1.8337826754732516,1.6394074967118606,0.21663033842194612,1.6684857580291994,-0.010708666146289889,0.6351435240527754,-0.9770939925582321,-0.3169030557142342,-1.0460661169341319,-1.108407675331218,0.7212057180680225,-1.0354396417998233,0.7045964492424122,-0.8564574152261056,-1.3672821427014488,-0.0898487483996995,-0.4864515994185828,2.2792614735146284,0.11604174447461041,-0.2952875098059425,-1.17925963818193,0.18336901688097348,-2.23422462553983,0.5963950168241834,0.34059418330343244,-0.24352214985999002,-1.355697067942108,-0.5658136844712921,1.0129121171133855,2.3553736001694,0.2673697344582301,-0.6081114193199275,-0.3053343700198739,-0.16011361812159963,0.35955010384397673,-0.06853280865722328,2.4325364436416796,-1.1990171896338406,-1.098834018545137,-0.16292231667335827,-0.8944642546704091,1.7973498319660368,0.10210554500495475,-0.36771342261999657,-0.09389717419628985,0.6492686260813199,-0.34460070592593306,-1.0525570504537134,1.6378328219972749,0.2965055737368613,-1.1709645755358065,0.3258203810266728,1.7231071319923568,0.8777368919184361,-1.4004059950085563,-0.9366965369706156,-1.1109973695455662,1.114735368562676,-0.6536189569785945,0.039293997413407895,1.3050488729856757,-0.9240659454515966,1.6047165300605408,0.21612241714408179,-0.7206207673002252,0.37679328604420814,-0.6489833992945812,1.3522929453054922,-0.9259699317236904,-0.3352884893789545,1.8107563090923628,-0.10650852132463587,0.5194847118827741,1.2460037067473861,-0.8046725148122627,0.8543434139321384,1.7970350440249903,-1.8228511123023676,-0.43639532110052537,-1.794996707263627,-0.253186075588249,-2.156511382468944,0.5533618346367112,-1.6254597070706933,0.12436667431711794,-0.14846245889581056,-0.35773734025015697,0.6326831381790865,1.8499479909791976,-0.9022431485300803,-0.6450379560322758,-0.060483292521981584,1.5230070500375168,-2.224343386924301,-0.4848498289841405,1.2133506120452224
0.049651815539545195,1.3825621484303212,1.2123878664534697,0.7217373108550144,0.9239251673380686,2.4611948224317044,1.752393759424287,0.6279760636433326,-0.42597521731441473,1.0390836313952314,1.217918738180907,2.478988089880901,-0.39866483366691685,-0.6968769362846278,-1.442757859818163,-1.149462537639409,0.42409797213472744,-0.8495516804645035,1.1945099199323292,-0.8271295247301619,1.7709533009640837,-0.926933647264009,0.21233048726372242,0.07013372011073164,-0.7608254014378597,-1.6542649823836735,0.8981672320747963,-1.0253959882077734,0.30928894650996497,-0.035711450900956794,-0.48014044455313803,1.8646505419251,1.242537279151993,-0.3547964382940801,1.6264787370265643,-0.2780131311856626,1.118005951889007,-1.3325722614488469,1.7281619304918134,-0.6938356331820938,-1.884989652948813,0.7168695420177964,-2.2568907416736335,0.9852326260465185,0.196087625972095,-0.4433971329905344,-0.6878608105599826,-0.9949756883934193,-0.17352477190529955,-0.05626564783074006,0.7606916660957932,1.4530196620648081,0.7107954043943877,0.5096899880556311,-0.5391100111630297,-0.7854263600627769,0.9580539285779177,-1.259708669011757,-0.7781271151156534,-0.11346463337494234,-0.24315409554013384,0.30764968742983995,-1.450485575055339,-1.2620254852003043,-0.14767119890727742,-1.228424732022091,-0.19478973076219366,-0.6368615876563706,-0.15355319850393398,0.7059506843975782,-1.362971604304023,-0.25033959090588653,-0.004993775879980568,-0.2629848654887715,2.4820286198289483,1.2253570840251964,1.2372909426244292,-0.03791893763276304,-0.7295207816762271,-0.2742001700096092,-0.646113323179502,0.2452818544987286,1.0173097143169847,1.7158163664489712,-0.5442676575246991,0.8581244013371372,-0.7458541317468192,2.1443026136237298,-0.5688277464714371,0.33991780776054603,-1.1365078033839882,-0.6695024408208207,-0.1952021400786827,-0.5162223668703801,1.4752516835064855,-0.16906738105035263,-0.9760184942691085,-1.1669231400115738,0.3129721947087776,-1.177537706449442
-1.2770571619212927,-0.43437991849364244,0.8837150388745829,0.6214452721534767,-0.6957450034398942,0.8898479198529007,0.77136262787618,1.403754547820522,-0.8915222486543679,-0.7615591039316745,-0.04042103027843399,-0.3768370466160914,0.44678169720026095,-0.5369889446494088,-1.222895606960052,-0.8994581469597523,0.5097234784901705,-0.713543617256965,0.09920640529595848,0.7305126916946264,-0.29771895644540697,0.3324956958942261,-1.0832813362348916,-0.3156597375936715,-1.1278228125996286,-1.2573763029817628,-0.4586695876436028,-0.1099968943340331,-0.08509877736328837,0.5594607979691365,0.7761552634711791,2.604097727471773,0.2786593992290972,-0.5408023611663194,0.3218683853227668,-0.4347427376759955,-0.06501826816228451,0.7971240566615967,-0.10122443439854571,-0.9045377656563158,1.219140193942661,0.9298895663287918,-0.7730873063078004,-0.3730457166651122,-0.6286329657780388,-0.28981077973159985,0.17036294706519464,0.6095421792257125,0.4306018671028561,0.37561975261290986,0.025556209394818268,-1.555423138757122,-1.1994263637962856,-1.762030107496027,1.3362946882246765,1.6617948442799395,-0.4270968073127783,0.2714247194483231,-1.5674194398841328,-2.265238255217858,-0.49639599245986743,0.8915924665896026,-1.076695447843633,-1.1805239445781528,-0.20676740331743804,-0.9455898816440707,0.13649171260180262,-0.24681716228162762,0.7349324986232211,1.4818154882195729,1.4248553512750448,0.2091504067222097,-1.1846319005259272,-0.17039067708581618,0.7434471563788977,-0.538102711979843,-1.5360730316754394,-0.7341651637568116,0.4446374040469139,-0.31485296326740403,-1.1699777019213045,0.21031556778358007,1.713965240250176,0.4699243145588479,-0.43016884678460043,1.5207772723319017,0.2521487402556374,0.2906879981556465,-0.1300325849393447,0.24318335821665565,1.225715503099907,0.019995688552254698,-1.071858616160728,0.849862410465747,0.2068466222970071,0.16064624583053255,-0.6815564686081313,0.39466252971267896,-1.4548704507278465,-1.6964304637398842
-0.8447619666127997,-0.11881830404957339,0.1415695491527339,0.3055428248884644,0.16872244138265716,-2.0043295057230863,-1.2626764689733065,0.7928549162843241,-1.1066929664663183,-1.402071530060705,-0.7851552486656457,-1.7677955989091558,0.2013427494027088,0.9634903768479969,0.5495870777676742,-0.5308650128452688,0.23362426445163273,-0.6930091509306476,-0.6158232829996252,0.8261184058920661,1.5552463750203986,0.7409828813758388,-1.0512682541070963,1.72142025273234,-0.714335054572542,-1.436819923257557,0.29995967796919965,-1.317089857217887,-1.3146140278631375,0.8213656932783394,-0.9839286164123612,-1.3021886812236465,0.28314495254034255,0.4354083346668152,1.7668839644131158,-2.4710201471868825,0.3308524705745535,0.3130342427450645,0.5176630028895353,0.6875461048513565,1.3727656868235785,-0.17222136596671453,-0.3184710561948399,0.6936288520877238,0.4138637668516382,0.2574866406191359,0.67394616657479,1.554517053704585,1.2077135044743,-1.4213451757215692,-0.6170343205579524,-0.0027439773771469112,0.8215371731161577,-0.7157472043129962,0.2990054265902388,-0.9839812060290047,0.4886347816937756,0.01358762677326992,-0.22586179019952496,1.1758705896058397,-1.3919175066402187,0.6360408870847866,0.010380319656000935,-2.646794515859771,0.6668641619938762,1.6770088002014105,0.8904566338489871,-0.9811440742880762,-0.040500517072254806,-0.3393603150552955,0.33278887019831127,0.8884730623967139,0.518906058525879,1.0289730402502164,-1.9376584083943387,0.16922044052465327,1.1754302065770497,1.0678578077551688,1.4609240779667303,0.40757660861177725,-0.10738845158138427,-1.2612269158552052,0.0748868802611152,0.22983628852022542,-0.012627764842636757,-0.9222914844921991,1.091050250264302,-0.11244788357801688,-0.6091227247870982,0.008509576635462224,-0.5376093861717101,-0.21434682449510697,1.1792322367155725,-0.704954043311289,0.41290528465624365,-0.6890466251225147,-0.2777122250896749,0.37856743925207265,-0.023847577042724798,-0.3165228341294563
1.4866483128937096,0.8045699210878036,-0.3914642636503541,-0.7648504225592697,-1.0226514326496718,0.6305935828902743,-0.1863986405705479,0.12196378040484933,0.8798124092667847,1.2453631898626443,1.2457497097997503,0.12370352844000808,-0.3340368157682474,0.5251500573209226,-1.977905828463207,-1.304331050426074,2.281029752437707,-0.9872477912282388,0.5601377696408962,1.4120145014413183,0.5242759585330953,-0.38573310264952587,-0.5965621016105169,0.833712112157128,0.8172150027473531,0.6307151202602046,0.8235096751920516,0.6200172351621737,0.03135646951092815,-1.6159674261833235,0.9927446495849501,0.41681688082567614,-0.4355557352687253,1.585580282420539,0.07814905512584458,0.9342973295531747,-0.9051488163373261,-2.096273101913154,0.9118700698260458,-0.06554412080512802,-1.1701582684126293,0.7634361914216733,-1.0441557618703246,0.7225580205686422,1.302599192083957,0.6768068326409183,-2.034821990944532,1.0975230097605166,0.10508170228704923,-0.15262873866886334,-0.2508908937691928,-1.742084798106948,1.4928788155048767,-0.8436549407990965,0.8084676223084591,-0.7214234192997433,-0.9032293987924147,0.298993573824386,0.5316958527845336,0.8856747253625222,-2.212721316021758,-0.7758240231274669,0.0817292130524061,-0.5455170723975831,-0.05025199966249598,0.536103114349548,1.0871091082274285,0.8161940296388535,1.5570066405328304,-1.2784296583768673,-0.9214979847417785,-1.416780072065177,1.767349753135663,0.9545386539973846,1.1192090370095498,0.36045504459174543,1.5455731919920515,0.6609473175860087,-0.34432926710767414,0.35705070627282304,1.6831943373860572,1.171838070855994,-0.10406119572225778,-0.3234165244286208,0.11985941358481007,-0.8778815248580712,0.16635317250337767,-0.7921903494841618,0.2202184768777736,-0.34354982362516956,0.6605646401022672,0.919768481766931,1.4178497797659357,-0.26651804001222323,-0.33427198373168837,-0.2472118844868426,-2.281815500358554,-0.015420433053647918,-1.5781152833248437,-1.8056496228509669
-0.20946069058460962,0.06334444245171175,0.4759061414316155,0.7564340227393238,0.9650839875755538,0.591999759854124,0.6803803250514875,1.029908779678741,-0.6655464624372637,1.1279158479331284,-0.18081315988967878,0.36015382223147185,0.5895577494584937,0.23369514693824717,-0.3228017051453814,-0.6485084502706212,-0.7015515459436191,1.9306285121731726,-0.383051208125137,0.7258647460630648,-0.13484034327150596,1.1229685245221739,0.22595143371620963,0.8468800753515985,1.1685363655569803,-1.092264934637855,-0.202489104887643,-1.023026645409825,-1.0647671577003301,0.4660146279170354,0.06668786320451668,-0.1910761985754303,1.3612576925656281,-0.5823855349909949,-0.13484327066946422,0.24189457284717986,0.6483984245116333,0.540139288244412,-0.10574581791144873,-0.04722522773853407,-0.24471845565037398,-0.23533189132673493,0.5312807167728715,0.1738414285008276,-0.18771388680411755,0.93538575890428,1.7417251070340742,-1.8469311591817112,0.675370990654106,-0.8374417692000016,0.6210426534194243,0.4313749604761073,-1.9334100229498559,-0.289510718991165,0.16672448422770922,0.634352351417095,0.4890664194831939,0.21627910864011887,0.1699895439488008,0.3440335457112417,-0.8561601756861986,0.3690396974472468,1.4629429709386743,-0.5166822242164111,0.9073830586763245,1.8909052554060122,-1.8274908779034735,1.741944326234689,-0.4245411709140384,-2.007218691479176,-1.6022159739647392,-0.20163418318268686,1.6048541207644986,0.24032214037229227,-0.465623729564137,-0.6588667296504744,1.1179244078832493,2.0476264636153885,0.3687892292988261,0.1459531848384364,-1.5636374249524694,-1.5691967357977892,0.5173953356319565,-0.7140250422948013,1.161714452132039,1.6701560876066834,-0.11442026640582732,0.4613222194871677,2.1525744932234723,-0.18073552845810215,0.08287408621754494,0.5619484386613506,-0.24327170382428495,0.7072457686565239,-0.3697313444145222,-1.7171734835463537,0.738525285545142,-0.5570767966423616,-0.956401814627587,0.5846696777578189
-0.8568323885428155,0.045305258542993734,0.29507286585117243,0.6336452795484573,-0.2330592940290308,-1.0224814787288827,0.818647056541109,0.41068635735312387,0.3535522289819969,0.7074287198267039,-0.19305873351806682,0.5501963867646588,-0.01937049943652437,-0.702833509736313,0.3130910633349775,-1.0266591884236123,-0.3810123264019304,0.8510458379149447,-0.06738432530311819,0.5574823177493229,-0.45688341152374234,2.4978803822201803,-1.1943971508872107,-0.7219176663943496,1.0474130988377273,0.18316017907704313,-0.623119613169637,-0.979962828897295,-0.08124711685810045,-0.48702393922314996,0.731905531793192,1.311156912037326,-0.6639819276776109,1.592880481012769,-0.885606907097807,0.05627430248492429,0.036424177875956594,-0.22967662204676895,-1.4432284996896658,-1.2685291038351907,0.9106004249077222,-0.10583595854713687,-0.32882162824766625,0.5320513359395987,0.7105039580538985,0.9707281813770771,1.4034214347966887,-1.0713907659711939,1.2166749141290898,-0.044612890988603535,-0.4938807220148889,0.031477942777360074,0.40153539785162473,-0.44652620195086873,0.9688622539034971,-0.36807175778838047,1.2503476364686827,-0.05021723818398206,-1.5346583965483827,-0.11396538152310272,-1.1061976249801053,0.5555025524816413,1.4809705603311902,-2.3108855740626826,-0.022686224846726864,0.780980126462192,0.6725479625551521,-0.439758287677625,-0.18028468404399187,0.9451475774728217,2.399870414603755,1.3956971205988864,-0.025844324870971623,-1.439399930873462,-0.7609738225566876,-1.3964295212099378,0.0978519890956937,0.2756405969252897,-1.404954034810387,0.783583076142687,-0.5411285011527578,-0.7343345656503693,0.10634454137476,-0.95578371207667,-0.5062973749530976,-0.3574537389257177,0.14830825792244537,-1.144222899075308,0.05770518287305213,0.5138874314136042,-0.9850769209807324,-1.1972103993949368,-0.5088919458607319,-0.5987629391949846,1.1465946157072697,0.4639212659288479,-0.30059135930555025,-0.025205551324868576,-0.6520690700516377,1.3366529676723646
0.6869461106375394,1.000808570536278,-0.18379595679234687,-0.6334208528055327,-1.7225163494874678,2.2581058363061763,-0.35176952176143494,0.7348556885469919,-0.2121447806556294,0.7274944387621755,0.10438484142890148,-0.8693986651455659,0.07420768568730914,1.691383214124437,-0.5052687640779718,-0.0602169568905087,1.2630633631327406,-1.2819649520803083,0.30112744471919073,-2.7039600152080516,0.930478445084286,-0.5025566136197409,1.1271248486781356,-0.20757517388292054,-1.0891918707183523,0.9423059128299562,0.0665502037250505,-0.05053610025943413,0.5009209791397965,-0.796167072872766,0.22709560673108753,0.8501057978426283,0.09936615149856894,1.0182191897881436,-0.17257260586268278,2.2865891031650656,-0.7568923308517163,-1.7007816302344203,0.9320034575549291,-0.6884220576467032,1.3156792606112422,-0.48847438379289965,-0.5544119530655498,0.9869644367593144,1.083253957240395,0.05205838901816665,1.3936057133919877,-1.3020358377589194,-0.3701926724491442,-1.2902067880089687,0.21957440546268006,-0.7220338078580951,-0.9480668658620441,0.5509671882575837,-0.25906673853780515,0.1879795329700895,0.4946417143093479,1.169601366352051,1.0987278509316976,1.0681157157103118,1.1355137949943088,1.5468408599123815,1.2216740784654232,0.6171332362858672,1.3809780731484125,0.1637538855879345,0.7159579772711079,0.816509444372587,-0.8914743855538089,-0.33427313389038743,-0.9299230943551541,0.7739369937844973,-0.12019402740123022,-0.3433416369461768,0.5527005331718469,2.7433892383159986,1.1010451740464968,-0.7545417651471541,2.6976537998010466,2.5273401420076143,1.2698006408297136,0.2580974048720693,-1.484343463921402,-0.48528171077910487,0.11315515890206065,1.7173597951748008,1.8285215413592368,-0.57153356706775,-2.1117930836420498,-0.0026944793959833633,0.23702426201248794,1.463452271569657,1.586039602644766,-0.5823015731566484,0.6475895466302269,-0.2967989299855463,0.339442312672808,0.9900914151552486,0.4650074134966885,0.6531378254295069
-0.015039923713642791,-1.1586532614506453,-1.3618567519624858,-1.112758150730924,0.7433021590582293,-0.2879098675578773,0.8880428491507529,0.9990598977635747,0.2834160462112012,0.2911640879282275,0.28917174566455706,-0.18606052131930784,-1.216948356594261,1.5438599730933915,0.06286726331793144,0.6213404510256085,1.143172975638387,0.6002467629946706,-0.21987288226513937,-0.7354646225466884,-0.037278594140718574,1.0640370760262943,-0.07496334612996272,0.3456816050652931,-2.4025010238666984,0.5989794193173525,-1.4783796798450546,-2.081460201990845,0.3590397231277555,-1.6098010947161687,0.21750087482662242,-0.9713294525756009,-0.0661618824025457,-1.3395076899494156,-1.6110482153991155,-0.4114630689163569,0.012574931527640899,2.332443187641055,-0.25173359412546986,1.4382201376454713,0.45451232441756606,0.6351029700909725,2.410971522790609,-0.09195705911891355,-0.11778943725371538,-1.5923933384988291,-0.45915284134369766,-0.7021400814859312,-0.046269424517619624,0.8625430278025025,-1.8425753676272296,-1.0182049719325208,1.0325686257498767,-0.5677465867821699,0.3553147270813999,-0.09011855192528544,-0.12381968515429859,-0.043942117115178154,-0.3150914740024699,-0.4998523830450843,-1.44157879344081,1.001251802131167,1.023032594906383,1.9856683990763049,0.9882923282437645,-2.076805553255917,-0.8152335626015881,-0.8282976222358532,-0.8698147044249782,0.7738136162398007,-0.3601618710303272,-0.9404644246897628,0.11418660289859837,0.2975137023232883,-1.7225258751593016,-0.13179028622721048,1.3484418077458156,-1.05766206778032,-0.21968462288096663,-1.1881520411394124,1.129915398747648,0.8263175890047748,0.026921112819322295,-0.4073913433385635,0.47647801667817524,-0.5376075843006258,1.3939258365999239,-0.7693613816535037,-0.6852426957848826,-0.09453291017755391,0.7918832725598767,1.9523337942228405,0.6551232784987349,0.6118570072239363,-2.923561887244673,-0.5367974866097067,0.6264651577684892,-0.7513691074215563,1.1079418815887807,-2.0318851321100544
-1.5064670711288448,0.44581208918954374,0.5029180372504042,2.342940373156071,1.4743619757115247,-1.2236605033662717,0.2656194654038502,-1.712838688206614,0.37882947176356796,-1.5332295112110907,-0.4578610213790206,-1.5523532875976314,-1.708263282688709,0.07448335917987449,-0.7112511931560915,-1.530311533432988,2.0149118384521914,-2.625082622629993,1.2473462187189175,-1.3731970111121452,-0.00917663160407911,0.977794377661935,0.8802754084322425,-0.19066844448830442,-0.21194605129910138,0.5468385212928709,0.8843535232060374,0.19587612902965282,1.287273748390747,1.338000077091781,-0.17147433261521897,0.044997971255471475,0.35455342263310263,-0.2417217260288,-1.339471506891157,0.7470455556753537,1.0522997551947944,0.19439664870759565,0.29833541359779836,0.43968684556009263,2.2727565660784412,0.09200096343687987,-0.8749332129912467,1.0289179720264796,-0.015379556281909424,1.5130445910043964,-0.5960962076678664,1.3886173895941998,2.0304402690521233,0.3455817160487509,1.941592583042432,-0.8183547253170627,0.21668264863362077,-0.4889003417609272,1.6747797065492787,-1.803815927254698,0.9745423007179624,-0.9450986645640159,-0.7595651694810746,-1.8574422919636087,-0.8065749182310142,-1.2803129122328685,-1.7141913757151623,-0.12660842952651064,-1.1956840640350286,0.8549723732666114,-0.08644918126355793,0.3394347799756924,-0.8378361559794333,-0.0429085436388122,-0.156980797445601,-0.4308324100859329,0.7937408962104909,-0.1631078393418301,-1.0856813123730487,-0.7953245960278246,0.15784198410204625,0.2030685432884943,0.5202922686986619,0.9356678611667644,-0.8045417213882438,-0.3026195453236029,0.16109867758754168,-0.1582901565975322,0.631693679062837,0.20492878640264794,-0.9540352573995073,1.4579665807617879,0.22556470636077147,-0.2457895829590378,0.02777971695094931,0.15655045660606068,-0.416816234315384,0.500929093994191,0.17385420476794408,1.034008209280532,-0.630365654703388,-0.1777893718882956,-0.3021755552710191,0.009364645779753567
-1.0075456907147358,-0.37579895497242705,-0.03784212933313462,-0.8966466416826124,0.09721767938205206,-0.4638930777778747,-2.470984976350858,1.4884585297522654,-0.21240446730734908,-0.31338285744530076,-0.09966238793666571,0.1545933758814203,1.3950082654732963,0.23341436269247745,-2.085913997109687,-0.7676403514334778,-0.48631789660036384,-0.522441588427545,0.3248396848316374,-0.8027402683823135,-1.2328062151443595,0.10529489107276879,1.6164547830366143,0.036916556776883214,-0.6150449647645466,0.026334382115645885,0.5493635550841807,-0.5628965864536141,-0.8606828794121639,0.3678972183499621,0.41419535799905866,-1.3102549098052128,1.0516527220673084,-0.322000577664659,-1.9457289230110513,-0.3517400041686359,0.2113732023804158,0.5863787224775555,-0.26358104589027515,1.4401938694352097,0.5153206908635175,-0.4305823335119067,-0.9680856632800212,1.453612986053656,0.941169769191358,-0.21004340725114387,-0.5903252293666011,0.07078248902432463,-0.33872139362711196,0.4004214345332913,-0.42458574373944197,0.4422019378859815,0.020402110896674378,0.8847139641265914,0.6720013001558587,0.22476786877965893,0.42662890058437086,-0.24611954227400593,0.06144867642491942,0.6928659239773728,0.09347104001758975,-1.1872698671800654,-1.3014847331587371,-1.2418197532936885,-0.2902079955843886,0.8835734060968731,0.37509063565110157,0.13964628657151018,0.6232617025021265,0.36753748395912667,-0.575323990201435,-0.48586711103927527,-0.6491978397225784,1.4419026843947158,-0.5718913515926021,-0.626531165269209,-0.4863314432672511,1.9961293558298163,0.4465848050547401,0.24353307252607573,-0.3769820587816957,0.29248304158300537,-1.125856044795744,-0.4822951781824171,1.5757563976075348,-1.3229055612486225,-0.36116462891769135,-0.5399749314895211,0.15796229515680468,-1.1660866769646347,-0.8574453762932325,-0.6029622105941884,0.22658275947683582,0.5712938392443551,0.38325086825840865,-0.15343763050272624,1.899713343874829,0.8568070844479418,2.1001317444020673,0.2892090894361104
0.08112783217375952,-2.3660509995988748,-1.0964400091881028,1.3029421058872357,1.2426461000346145,-0.6326844003954227,0.5357384788077495,0.8110643016537916,-1.4282904567981698,-1.702222593507386,0.3135376605581725,0.19881419474515008,0.8610039902989595,-0.8187822237745249,-0.005066242336911376,0.893729755888338,0.08284314816325487,0.7279718151900337,0.779852719534664,0.35868106605535977,0.021587950820734884,1.3135080612910375,0.056860105619203245,-1.455282617740847,-2.52527654015537,0.6922798144486545,0.7451999886804523,-1.0190578272247819,-1.0209525232782448,-0.1282038724071112,-0.2577102756652014,-1.4864998764433168,-0.8153532484490505,1.04547422250899,0.48412136557893837,0.5194094645469679,0.7883856143982745,0.15370664937542886,-0.6333815562782471,0.20069682840341976,-0.8286504421664084,1.155408933709323,-0.5064268614930757,-0.8811318376985231,0.6702558121533685,-1.0590318810456953,0.4969980089860859,-0.04388317451656558,-0.5478725576373997,-1.2774684231850846,-0.07944088127062193,1.090151361637626,0.4179808422197549,-0.958909497929956,0.5180838871389936,0.936794423837384,1.0557060434427397,1.2215883986419906,0.4217705073817119,0.25100353686098276,0.4311626642130609,0.0020300424526252365,-1.3610547903806651,-0.3216945277219815,1.8149848671288906,-0.33683306027905474,0.01669256346099744,0.10246255692287093,0.2802085502991286,0.07507582015308138,0.7936928067463399,3.2785816180508633,0.6930962148840386,0.7074762430942734,2.448188092329449,-0.7531095644334164,-0.3573225607603888,0.4106659906942974,2.344025251623975,-2.2418989479221128,-0.8816330991835938,0.9613479486465274,0.7570623073218895,0.8673183542606062,0.6582421786386097,0.6550619876486876,-0.25375952936059604,0.516911325290306,0.07909624738763663,0.42328740502975803,-1.2080898021207152,-1.0509709019959175,-0.7772632028425682,1.3917891524555062,0.36370043723304846,-0.0045773417579728195,-0.7898431069990866,-1.3139671561693975,-0.634659979005161,-1.8187570947818748
-1.0308124677787232,0.6160108875246004,-1.3604464574659916,0.17702684009822828,-1.5282917745709095,-0.8060340912415006,-0.046023578808409384,-1.6806558688823225,-1.0423669962796562,0.4190163667660571,-0.47898146352065085,1.1656201694863568,-1.2326820094997764,0.5998635523138958,0.7687975701225851,-0.06629011340986497,0.9815146022940255,-0.026345622608664482,-0.9150809628093491,-0.5460642374290395,0.968891904176155,-0.9674202284538952,0.9236439353929962,-0.6240184084539312,-0.5784481170894348,1.744385668786115,-0.5580330540447669,0.017311927650047527,-0.13440875935493465,-0.003185442184096266,-0.5675848781439243,-0.07440569785738446,1.8798705301316543,-1.2906511169262156,-1.096293567074016,-0.31927234695101075,0.028835831578043265,0.029633749078137053,0.288063730855787,-0.45255199910984584,2.3389310946316355,-1.5266174082149164,-0.5033521837966615,-1.4595233778602066,-0.3762741042490434,-1.1359465376138564,1.4579575351825749,-1.5752110754221482,-0.9972917065556459,-0.03747483238192105,-0.7475025198432944,0.23640601547324586,2.182912541216567,-1.506763364604951,0.44901203227916303,-1.5834626505507017,0.9734686209337035,-0.4846148563499834,-1.005775122092305,-0.43880315471922265,-0.6365685402923248,-1.4728521352546808,-0.512056567886404,0.022691852483754965,-0.13353922438874394,-0.6913267261687043,-0.898226753643388,0.4055349680752831,-0.10162704276202157,-1.1781947258038672,0.32077204483963656,-0.5021922286661543,-0.7425620954675419,-0.8677520480587304,-2.48597304248342,0.3689011512507568,-0.2806142454245863,1.1912873807388238,1.0190475033707236,-0.44138492360352977,-0.41068880989503953,0.555009903971279,2.2187503873896732,1.0358057558357523,-1.0194444626797152,0.3547911895900107,1.1310959623896948,-0.13342302111851306,-0.8388826582722398,2.1412489999384343,-0.9581821073703204,0.4560467273582096,-1.3626806439745447,0.8910418759619843,0.8335688684732161,-0.4914074615077417,-0.2876137310828841,0.8904309400698069,0.561569440380383,-0.5931109760488712
-0.30638498951640947,-0.484534920811233,0.5186526372348836,-0.6307877794983661,-0.11578210011976445,1.099662549774823,0.6890277304761334,-0.8852752578034427,-0.5640475492485202,-0.7197683600567739,0.36634871751823656,-0.17290863759935385,1.3227707238577857,-0.7580970317711011,-1.4671443652392049,0.8540750240827224,0.5939636383032909,1.7836685134968306,-0.531605815607663,0.9288420712981988,2.16923634273277,-0.3870428424589868,2.211442483934462,0.8483176423743115,0.6756165368344808,0.6676303173943685,1.5271683594578613,-0.07678068847114038,2.11279068094544,-1.1163630431516502,-0.9879626144683621,0.1943990148177271,1.5608599852626766,-0.4962080713621133,-0.23673821549172563,-0.7575891847510259,2.2171170481364477,-0.9317556933100467,0.5777950437572114,0.28801491516841177,0.2859370911024254,-0.4345091920711264,-2.3015433835194945,0.487322451240267,-0.6858312579255662,-1.1014844156105605,-1.1103025434155709,-1.1550229270139958,1.0475502053595858,-2.1146683039238945,0.7608413789335264,-0.14707876702774608,0.14274797294687128,0.44991803996704993,2.5254084899423788,-0.8464270837543495,-0.26616987292076577,0.894091907541427,-0.7015151355623183,0.4944383755302824,0.6300369379898382,2.500597553933049,-0.3178078558229232,2.2563334888827837,0.419589390717992,0.20717329957355202,1.203144331716989,-0.43926215526401546,1.5023639245116698,0.21738259371985438,-0.7529644270824153,-1.9484125518185438,0.25787485545872474,0.1135674155176291,0.003872669850100312,-0.6758473597175724,-0.8532220386465047,-0.9005758734486549,0.8914182711458722,0.6222704800803737,0.555045859852786,0.7611260406978777,0.3946530489095391,0.10985369084710062,-1.024045421041291,0.45468785003580353,-0.8333281948516854,0.3439402487531841,0.7642482626045625,-0.7526762948374371,0.4550373604433373,0.10431857038768835,2.882414634686746,-0.40738127083498527,0.03352532030105249,-1.208839949307478,-0.7990740542392054,0.3239418043179589,0.12163992860705546,-0.8015946337160781
0.5216339759707866,-0.5137325821098279,0.32285161361236364,-0.06749161342009602,0.7610478407327685,-0.20269820672435926,-1.9926982099914266,-2.412682670743008,-0.6795631261699981,-0.4069110124401689,-1.653991984625385,-0.9694890304236755,0.18057754151358876,0.27253506526209303,1.0068650060166702,-1.791796845420641,2.430865314576349,-1.9735647735224233,-1.1240328799831767,-0.21508484485962176,0.5392488833902102,-0.8290101333852902,-0.7996343714926044,-0.8389909209181435,-0.5828181953392246,1.3538066946705813,0.9742991668707631,0.06463236331845079,1.2666548612343218,0.1256983697992149,0.2629144081312478,0.6487735686061994,1.4028243366939357,0.9813690378003767,-1.315442404673414,1.0191083157068965,1.208729826186655,1.844916637349044,1.0804718070962125,0.6466639191286108,-2.282862756322934,-0.9714135238091277,0.907262157311379,0.7310385769092878,-0.09507648246679526,-0.8559991723934001,0.41118476800563186,-1.2665548991554627,-0.1697489062378312,0.5442401652994415,-0.34440756474312667,1.1384194691310903,-0.08867367148846264,-1.455997267804578,0.24736356055153638,-1.1183964391598245,-1.4672154176089143,1.5617781097249799,-0.633437634275443,-0.039786963290844767,-0.3583967420582925,0.44972922649856556,-1.2083723320225266,1.602810147719613,-0.09683408027496915,-0.3042999808077991,-0.3758839625245588,-1.0678867275184936,0.2618897535323315,1.6383346891211774,0.07170486518003232,-1.6251944011319677,0.42641954088808337,-0.40998487522812727,-0.967404547788009,-2.3924558135283878,1.4151501684883216,0.40246633404928656,-0.15844409310675822,-0.6487589138995987,-0.8860197839111649,-0.4428771530070136,1.079458030761554,-0.4704214656016804,-0.1851778774976281,1.8407601894851358,0.5448119116787346,-0.09085850704298752,2.310227912710136,0.4511019282497102,0.16700531873246466,0.7263268721254207,-1.3776257507480185,0.03792434545467297,0.337723237023535,-0.8207073642081139,0.1335744794605447,-1.0088136238841992,0.5421234823747292,-0.07085599162779505
-0.03455124932438499,0.41093964132960187,2.281913367571774,0.255943669690212,0.02426906181012936,-0.9076339473251869,-1.072625255239412,-0.9212406666198913,-2.2136133820490125,0.2834256673020284,1.4199900771348435,-0.7940065855830859,0.07313366730302917,-0.5495585939380074,0.8265203461186806,-0.7876403734369902,-0.8120774973901542,0.8295362602926202,1.0634284403224266,-0.14072209037251285,0.07040150259138894,1.0789179602663908,0.7408015578240765,1.0462060821023154,-0.6748235021299684,0.008094300601328206,-1.0265684950000367,0.3714379089637897,2.6821220393510083,0.3833082559223991,-0.19138512474393402,0.4396327414754105,2.850817775136238,0.36450824077138866,1.2841305185757705,1.116142357118865,0.51721522151288,-0.6711354178030285,0.7947315270946065,-0.5722818161397303,0.3493209577775094,-1.9742282498377608,0.9620601872129294,0.8552316092525075,0.45264444732372744,0.9126877512262235,0.40970151802405524,0.16376892131235748,-0.9773142644367224,0.6013477532210988,0.25286356697316414,1.6373516215197657,-0.039831412638502824,-0.3914824072133049,-0.9460742675850448,-0.27581666120925863,0.27910834658717976,-0.13941610183012215,0.7178376537336275,-1.372125515583217,0.47539376791305765,1.1039451146913044,1.4245807560479247,0.26689342743395805,-2.4295975338142157,1.6506608296518002,0.08756843099051079,0.22357368150158438,-1.0510538089481887,-0.05146179316935857,-0.3716530784138641,-0.47148494202736124,0.22064230712912822,-1.3583169647019415,0.8964557094555954,0.3506736544630928,-0.21104725250456216,0.23240161339145654,0.6781243730982521,-0.12006007450871355,0.6878195078653826,0.24932659237718802,-0.8518506848448705,-0.3159233002213373,0.017841164490307516,-0.16933889507914332,-0.2985157161075829,-0.3723575432989799,-1.0812892562975422,1.304069537204055,-0.6925120211455794,0.6966019171374789,0.3672714197179113,0.7873825685125483,-1.2146991981777566,-0.15349471711386756,-0.43693226577183586,0.6350124705715479,-0.1333891099994815,0.570954987679898
1.1919814393506394,1.2003514139620257,-0.02406776110791332,0.9109336733053981,-1.2896836745338787,0.40005078590361676,1.0704221735979953,-0.022973063917803977,-0.3350146524274456,-0.3806606253698789,1.0591930617194019,0.6350794041391639,1.7335680199096952,-1.2088941796003192,0.33425941364360073,0.36950280310429395,0.1483740911389701,-0.6993039223125844,-1.4015170981449312,-0.12145745132681797,-1.251769848132628,-0.06653577886447323,3.1054942337483684,0.6404164051704613,-0.5643649830858343,-0.19036661379763314,1.2952358233294912,0.16214094641434093,-1.8974279273137011,1.2440338638878676,0.9141198406952197,-0.4307963786392828,1.0933753608001964,-0.5158494742991268,-0.20948703800216237,0.4756990066261571,-0.966110924551642,0.2801934185943588,0.5592835087222296,2.1215930548655777,0.6256152812721717,-0.6395812881397807,0.47412483024647867,0.6438005955140355,-0.04509831530645763,-0.5544333096862152,-0.6544406921343561,0.5688665529509643,0.418307617127116,0.6502776182113157,0.8315820185421278,-0.42366798989373883,-1.1542047605343453,0.7727853233387578,1.290311765167636,0.49001893332430835,0.5798350270458495,-1.2226259782144706,1.7494391539744127,0.22073863496020157,0.23007587427705542,1.3126086046753038,1.2489547676005943,-0.4628205382894724,-0.26944677214030277,-0.563843450956645,-1.2756029422645156,0.6759844357846463,-2.096453415848252,0.3691661925139226,-0.03664602004678953,1.8756553852184585,0.29859507117384143,-0.4247323430677826,1.258201515007895,1.3564881861469849,-0.6882777204765372,0.6568371568213315,1.0232008321434987,-0.7002159656807818,-0.6910256212737013,0.49837904404480377,-1.4563947408269737,0.4695278792857868,-2.312523915112305,-0.40214252172908704,1.1323332353740616,-0.5803675068161297,-0.2233579645329425,0.7911116681020985,0.9054276532006047,0.9417185484854519,0.9869921786017267,0.8033648284553443,0.0334638730111689,0.22217985521837055,1.1712595062221591,-0.7589572850204924,-1.0103057838152814,0.8896964312248999
1.6945232445151557,0.9231579773639246,-0.6027800270660184,0.12411365454803042,0.03229594050049084,0.8800995288492481,0.8185288757790439,1.0121656335982725,0.6452777118105034,1.5903224111921246,0.8522833410299147,0.6058317688142807,0.8976942097676034,0.6250040378385273,0.07333761275760049,-0.516092223188913,-0.47090280803925316,-0.14270171580176055,-1.1729000132537015,0.4160882388856759,-2.0894589879689653,0.19037069558666003,0.6820854544670009,0.08695374387473341,0.4112775701558422,-0.20374207244859033,-0.46401873515584524,0.4319098878449841,-0.29128246240347944,0.4519344868070899,-0.06399087061462351,-0.19452943852126245,0.47646148901424024,0.7127386160451229,0.28399121819952994,-0.37432436453747814,-0.141955319983394,-0.03722422439407115,0.7534633360757793,0.7364728450485434,-0.43921417561080095,-0.4758531737202756,-0.911707689074941,0.06189943762803928,0.7945000595772111,0.731284978558493,-0.9977613852313199,-0.7818298254827113,-0.6918353810729325,-1.7229979834652935,1.1556509398995483,-0.23483305048260883,0.16265841432111877,-0.7345005934141476,-1.0121695163253586,-0.35477321783238713,-1.7731401894543335,0.3512921923501597,0.5684931618254879,1.7291200375369955,-0.10019701616369654,-0.5298347864594233,1.042238370678639,-0.0006305230466967166,-1.4748136742034248,-1.3820905847282738,-1.6000897580293072,-0.06706071922409386,-0.15194605688168136,-1.4025936767829095,-0.016493627056258404,-0.07094670165489887,-0.2908005678775798,-1.524232885089809,0.30867637549923155,0.47373841681963885,1.308479738521502,-0.03643134550341163,-0.8270010949788972,0.2773595481424986,-1.4744793787474764,-0.5638473233687317,-0.22922467820151537,0.5206504392234563,0.4337411692357827,0.6341700814407576,1.3312833545272895,2.431782596485535,0.009018695496109775,0.6857459836259895,0.24035912451802438,0.008377116441820614,-0.34867008424688184,-0.16819567926821274,-0.0016055028425856202,-0.2334417103990137,1.2961117703797882,-1.22956195297662,1.0495414366745024,1.7358055644357895
0.4406056955030495,1.4070151453689215,0.85246118558496,-2.3980442221597147,-1.6007377040259474,-0.16540890644696288,1.5667899505352918,0.12205966037471959,-0.533151342022519,-0.6346596174565682,0.541687075239508,1.1673215330410756,-0.8651568135971393,0.7197512566412071,0.5073015263941247,-0.7348301816203744,-1.0150578153732903,0.8170380272308498,-2.089325932409256,-0.6243889627089084,-1.0667265758997022,0.55601189512512,-1.793275552641541,-0.5450563597034294,-0.5142712929841236,-0.30120321799563843,0.5584742967722546,0.0761596197354648,0.1676271781762779,-1.6366367418085002,-0.07659451960215849,-0.11339213367872832,-1.1962079265680132,0.45929759613637855,2.5209507380643017,-0.12611042068955505,-1.5091857688602033,-1.2657278530359533,0.016533358235807354,0.5928116704503361,-0.47731872938540776,-0.4710223683192947,1.6305542727770057,1.3283494181718545,0.6863229360716159,-1.646550584076142,-0.3625669900541652,-1.1159048228117217,0.19589656800916416,-0.14514665155885467,0.4340370042721055,-0.8951122005194884,1.065670590578917,-1.1034695784378068,-1.2032688376065257,2.6227793973389244,-0.20519038776897042,-0.27287250126132184,-0.7846433095634334,-0.12658036338500098,-0.28501130861051127,1.0906484725278693,-0.049206233921808555,-1.4132700838412098,-1.5599405363224288,0.6838974885951735,0.2762604187851775,-0.553192288825542,0.441695173562494,-2.4240025469093855,0.4976722610523106,-0.7266417370854109,0.6124745076996276,0.6727988708341587,-0.5491429071511464,0.48514954746376815,-0.9146749176330911,-0.3453688478122538,0.585724859086255,0.013534059584546223,-0.046736226802604655,-0.8434561392074998,0.6215374477191669,-0.11480783952318617,0.7212560988606092,1.0192186729173702,-2.3164973253245265,0.2750141169518484,-1.816101885771796,0.33371441613516506,0.653089430296317,0.15380397415962635,-0.1679697014581232,-0.02682898222432282,-0.08076111745929486,0.32824068192943545,-1.190496499038464,-1.3318584341812918,0.11037060209211111,-0.4407101911352984
