Pesos da camada de entrada para oculta
1.9456778009580071,-0.29873426043530127,-0.5209744503097206,-0.6352255268725071,-0.2427967502184588,0.29292950057813033,-0.5397872628457581,-0.7391024295834239,0.009912223511969763,-1.0278199708968727,0.5365682289049428,0.4148437203216755,1.177435344208849,0.6595125755577049,-0.6967084971761952,0.9854651418706583,1.1224011055722332,-0.5079577114005748,-0.2555813170845777,-0.2597114504367143,-0.272330749669376,0.8178785467983849,1.363950959081776,-1.292534781178669,0.7728294799045556,-1.6072463407537307,-1.3375162065295993,0.869143117671194,0.33915640370001376,0.6342924178407746
-0.12025331935501674,0.9390615608500584,1.309355093854955,-0.6006420301624747,0.7496476646012241,-0.6891327013680428,-1.6288182215847948,0.6803273814545875,0.5928447282262684,0.036967320460331556,0.7369222414150428,0.15846550371425352,-0.42328161132780434,-0.6648703223063841,-0.43209286221022436,0.2914841027748441,-1.4527590286074215,0.01829294999170149,0.20991453502072158,-0.29246021033368164,1.1766399107078744,-0.3720144400758695,1.5556049707484525,1.1613266517268406,-1.1720102875139924,-1.2906595412740343,-1.078155026752873,-1.0617735938476172,0.34354191542302415,0.26501643984659423
0.4959535620809996,0.03454532635577644,-0.9577794778727546,0.29101464396392823,2.5921455186712272,1.4443546294198202,0.5612126697830305,0.4942913429300023,0.5435665949347088,-0.17787131849518298,0.9383888524885621,-0.5021560513420597,-0.33798619524128665,0.7523904797265121,-0.16265784010909048,1.5908670731001322,-1.0257593052980598,-0.15852768009860896,0.9851226558094214,1.0189974208853994,0.15639511888807406,0.2946397427324515,-0.10744128656877891,-0.6281278896755941,0.8298777674411401,1.2464079800767285,0.5104889828555759,0.20196796402350678,0.7278570917374312,1.3046685246188194
-0.10195564513063766,0.71547127721312,-0.41378407458431105,0.2941908597218838,-0.1566250047235465,-0.05477775279200518,-0.9853296672127311,0.9372128208542765,-0.24548943256413686,-1.9929657874358275,-2.6836102241362654,0.8276993972799717,0.3282925352247144,-0.4140626407647792,-0.8048629084856139,-0.4945412441221856,-0.21193825268875688,-0.8473107959945777,-0.02428608489137946,-3.0183617590189424,0.1877234935005105,1.0455081263055692,0.07933593514845028,-0.7313474687966756,-1.6622326779575898,1.5123818458309677,-0.8183165145373777,0.263785787327685,0.8897578197660725,0.8509836281620194
1.2706362787574448,1.1766838633441077,0.04865059387829643,0.32235816022777036,-0.8897855491933916,1.035527635396623,-0.07972030550332529,-0.6891431740293219,-0.8246870920802238,1.5982861458794635,0.8797578286451989,0.46437311042151624,0.06248864245797953,-1.2436799940654772,-0.009276505621340324,0.7737717937956412,0.21861496836752625,0.6827192397307986,0.11554815980624657,-1.0341173017893528,0.9335849314788728,-1.4734384996700776,-0.3358349874878723,1.8347986738439213,0.13864350151052385,0.719954877800265,0.5875127447399003,1.536514679065199,0.07334285852785387,1.1018276240849771
-0.11133908246831985,-0.4968385952111494,0.4840320062698075,1.7378729345607034,-1.4860212764495317,0.8342877907477929,0.4978798641042035,0.24797113062002202,0.1075134146269843,0.7595642857214999,0.4136824690214299,-0.7713790085236788,0.08237665308401029,1.2610921724910302,1.3743444879411884,-0.2638027620010046,-0.47830491056675717,-1.1081838285709509,-0.8497174170492602,-1.5201842422403207,0.8803409070377981,-2.0948109816765212,-0.7538153166662408,-1.1368741950888692,1.1826926902127894,-1.126307716661139,0.9249058151396947,-0.3123467108412646,-1.391187625946696,-1.3424271156173861
0.5657439573963113,1.0608356004763269,0.7476845548633142,1.1077199787792344,0.24384153934633548,-0.5978768789231101,0.3094614947129028,-1.5739923700720462,0.3382387177004648,-0.7288736152554913,0.4552018870645665,-1.398806740412635,0.562023156893346,1.54009642288925,1.775702043014412,-0.7967285904559097,1.351640776964193,-0.3882826782554832,-1.8013168424690373,-0.7935051776787422,0.21809948476405216,2.166192237325497,-0.16891642948130617,-0.9889099232655151,0.3283589000487937,1.4258002710254634,-1.9409733476345814,0.5023028362491088,0.06642353362629703,-0.28957507978702507
1.3643939190447631,0.3733074424879493,0.4147543923865787,-0.07155029266677945,0.5748294738334853,0.5261831362752788,0.2895643413334427,0.34711346365177465,-1.8213799474543644,-0.3978540083973925,0.4621311466442746,-0.7200394118356404,1.4763304840046692,-0.38574030911478874,1.6104596005489025,0.4574328208239681,0.9466914778010986,0.3638699034086093,-1.4100855976518225,-1.9864565266017769,1.2053055239474249,-0.5611612649422003,2.174395725811006,0.12106712114370391,-0.2166716995160077,0.7306300019802707,-0.5655572182429943,0.9145894572746148,0.6514459746819404,-0.30263027717992025
-2.121294884560058,0.23308652355023982,0.7564162329528527,0.5337968656132431,-1.559039139195318,1.038152416155028,-0.9789613723312866,1.6218684596409298,0.8630035643625605,-0.9929640741282972,0.5100613260608944,1.047518134200585,1.5644693930475604,-0.036156037301994404,0.10552906545479644,-1.0331204064948236,-1.1830413763429959,-0.3228161906525338,1.5141603840569253,-1.7002639624345857,0.7717719154054359,-0.5492515067270222,-1.389819026127506,2.205582393835318,0.5269656466827731,2.41599864979911,2.0117134770802547,0.7482807047124311,-1.9073890977809356,1.1477602128074609
-0.6433553605182013,0.38241982253337,1.0366057863348355,-0.4497379044815666,-0.43814278973531934,0.6431166143940066,0.2721664459568385,2.5382668974611113,-0.02472447776720286,-0.6286397456465569,-0.26806485459780366,-0.22294894338645943,-0.5743157469507606,-0.5579520788407415,0.4820538531585624,-0.8764676176856956,-0.3816143285753106,1.8132649427394811,1.4128645795355523,0.20702888589604812,1.525683877393409,2.4499700714352706,1.1098627611712344,-0.689778555497613,2.0217760535401474,2.925505972349043,-0.15224179543628652,-0.4352225821287651,-0.6038293294586216,2.403536238319297
-0.1744699530315373,-1.0272095948192257,0.04378998222117472,-2.761692210115595,-1.0363600043517875,-0.6108812674436331,1.2707353394338363,0.6136569403790311,-0.6266565508553902,-0.6149759134136089,1.3417629684172045,-0.3557445323260316,0.6207167777097715,1.4961067575939908,-1.4120872199296823,1.693186058654748,-1.1656054283993276,-0.5924862350064699,-0.6302801142428497,-0.14876208004620026,0.2225540374303037,0.21781118858036297,-0.3078554168331234,-0.2529063258312758,-0.485913656605203,2.3456435148005657,-1.2355121996916485,0.4111468611496927,-0.14006449097486753,0.6557327965858315
0.31577077148733357,0.021747078348165784,0.13280944427502173,0.609639591793351,-1.6805929536967874,-0.0962189518466184,-1.241732878363419,0.5376252319299801,-0.7360842293583121,1.591073924981914,1.8046608945952352,1.3159683645401912,-0.34762756651357396,0.047206667014705064,0.30240606768978234,0.01539766253599356,-1.640902866360284,-0.9402601813011583,0.32806046707800873,0.42655586586337435,-1.093055792168488,-0.16026758184021353,-0.24074031047963657,-1.6078780970047883,-1.5231600416194269,0.8648881882190282,0.9381218149036675,1.7177502875547255,0.08263978294454212,0.6267462584816046
-0.3493829295480157,-2.4049069347364056,0.5620514683224768,0.8966491045355847,-0.14891887706208567,-0.3431506966388949,-1.0207812229997673,0.22160861058438225,0.6647459875285728,-0.378129422971927,-1.2835747209212898,0.796735959994118,1.269540793909255,0.03439578580167951,0.796784596114178,-1.0604815854103773,0.36564310795573646,-0.861007861183782,1.0961475073023823,-1.9152846880522054,1.2572972608926924,-1.7313341589161715,-2.450744032953914,-1.3441624484097043,-0.8752552612754628,-0.6523443008288097,-0.42530042739500806,-0.701811346377261,-0.37929685769869603,-1.1440207072646706
-2.079058674171092,-0.460327146819272,1.1255698396677587,1.0567599571915887,-1.6048731158747078,0.13259343110416397,1.0086795697851647,-1.879829523717844,-0.3230364362403411,1.6986914063503489,1.222512195366898,-0.061275645679853205,1.1535226978478281,-0.2191980078774764,0.8509797830447748,-1.6899822239067315,0.6918969598840763,-1.9311385405868884,-0.829519291417139,0.19262146657218832,-0.9877832986663863,-3.1402150164065783,0.48773450812245456,0.2542168264541317,-0.23262629291929246,0.3933787117690755,0.12175453130905851,0.1710225330552183,0.4764996195000064,-1.486794828796193
1.3882831299676588,-1.7725894159417914,0.5184567184902344,2.134680589411425,-1.3602961311448145,-0.8921893089178765,0.19173540791461005,-0.22441989831682455,-0.06815665754986036,1.6151188072133311,0.23783428305364862,-1.5393767466041373,1.0666678383795227,0.7600850062674156,1.8028175716538664,0.033493300677505666,0.816106580939156,2.2784208933927057,-0.11666346510700448,-0.6657783316050765,-0.6039213841230459,0.8185651659834529,0.554950601851405,0.09884065254584365,-1.1275494642305164,-0.36788712118865186,-0.44513878720245653,1.1902616711814025,0.8451893518650724,-0.8493019415543935
-0.19903540808057923,0.3545311314550884,-0.26688696311213717,0.1818523829233872,-0.9654069063206417,1.1792135381348985,-0.7016200134939108,-1.5985336373095964,-1.4972749868743664,-0.37705296703038693,-0.47280773186727365,-1.2156947712467292,0.09460313330257403,1.1544199740854562,-0.5072638105473796,1.1753313278058495,0.6132527878826632,1.1644804576635226,-0.20523259393301257,1.6554921233550877,0.8822035318991128,-0.29843311212920953,1.6993032575807798,0.18210662650086296,0.6266830524110779,-0.47927725412793243,1.1764241337532892,-0.17333789377168016,0.7428465693278491,1.1702426417365694
-1.4328288832511695,-0.29005847184646405,1.4033132921412308,-0.14424040528641696,0.6171015558084944,0.8579397178720939,1.2756343831777555,0.1812764985431065,0.4561726963191392,-1.310350815202028,0.8567231524788163,1.1355532003920024,-1.3782605928786764,0.688967274985982,0.6301886760401325,0.26446152683509816,-0.46954285124676143,0.10923569431039161,0.32927090641349394,0.39158538890555655,-1.3728904026899251,2.8057722542912424,-0.10783970079998137,-0.8468714608442321,-0.3659291938752611,0.06761516229509984,-0.5223302952256651,-0.5546301437619134,0.4087999042256967,1.4029902628262627
-1.1719463701084398,1.6137957402670409,-0.23185130196654263,1.07819429464612,-1.1196935221435655,-1.1670591907594203,0.040662591401867794,0.9686811362925846,1.2458096403690722,1.8423704604381175,-0.39737901409309256,1.0253542541054044,-1.2009236453966663,-2.223166947359066,1.0443372602355108,-2.6860444275790933,-0.022906488069055077,-2.8272595993055805,-1.2781472026418954,-0.09856296098284792,1.6443356545356178,1.688860436365948,-0.1620023918560425,-0.3497119862982925,0.4177684644996047,-0.3664536880099343,-1.4267716287600836,-1.1797879792142105,0.1138919655608102,-0.819023348650251
-2.023389030048778,-1.6404088809976416,-0.8572838739120572,-0.6563261154540174,1.0079107572855666,0.055635815132506365,-0.3925426828446643,0.13708573318195175,1.0677481199055217,1.0934576091973633,0.8005194765428538,2.449966598439103,1.5369861401520353,1.2524586149545507,0.8975822452674541,-0.9348271451407498,2.1364725024019022,-1.0927151222025797,0.5549169735892874,-1.4781784590606144,-1.29374420810857,-0.9307762268183288,-1.3188598382957952,0.5330065127046145,0.3276805487696407,0.1054535435857505,0.21491470402568458,0.42979570733414374,0.7859651949815998,-1.1154761455526743
-1.3664066380087354,-0.6199652081549233,-0.16859552430960623,-0.19665377675188572,0.34477734234978397,-0.6046840076343721,-0.8356282681781179,-0.4952017233878629,-1.5302979684385183,-1.5316589328710986,-0.5825247015420143,-0.5971349941033648,0.8978765309329977,1.2668067979388318,1.0179778199476188,1.0052262809196415,0.12831086373230519,-0.20816755610707277,-1.9686543077940537,0.5065836101767223,-0.29128541830850196,0.7359750096687749,0.059091097290777606,0.19043845467484039,1.5833612913897555,-1.4132235134704416,2.42247317059526,0.11443162879981203,0.6973086681729969,0.6475055603143336
1.1162587159187387,-1.2163406078786583,-0.7485419044652531,0.14434467619126692,0.6918874264211633,-0.1205517773188949,0.5462579228282664,0.3570556313678444,-0.45941121903134297,-0.28714666717620274,0.643766192643722,-0.5161356999219199,-1.4606980201961357,-0.24279064092728936,-0.5742341043482391,0.6456565085653891,0.6321509673054567,-2.2447372785514434,-1.5170355503618949,1.3389213492895597,-1.5817089482777928,-0.10888378674878274,-1.2017234291436605,-0.6956751498659874,-1.5066466191225962,-0.25708453309081053,-0.9262413424086438,-0.8245586911568915,-0.9881060489752357,0.8242610786038869
-0.26858323550891355,1.024098109697313,-0.8290331875196495,0.2736635001950081,1.3000646112010468,0.6403976144524697,-2.3565301414082658,1.0581674851549645,-0.22906530303239542,-0.8739939488011169,-1.0215048778879976,-1.5927628769068323,1.0382638323719655,-1.7911808991759566,-1.312643285895357,0.6856569094554509,-1.4397275773003653,-3.402647195019809,0.4137555129329466,0.10348335679553419,0.2678943190103349,0.2845811851136182,-0.3917181530311602,-1.0124565760924857,0.9751054564229259,-1.4020532023464785,1.9255993537519178,0.367097163265833,-0.45440021485576565,-0.7414867823960212
0.21679220867388693,-1.6792038959213385,-0.5705809160787944,-0.037092714874317485,0.5359418923008308,-0.09402777122052203,-0.4132735716318173,-0.3649385355696099,0.17087274377890402,-0.3827867972997368,-0.876840359987333,-1.5351083801212702,-0.9163602260202177,-0.6239442907013337,1.9977787869930725,-0.6235661589658821,-1.0558250624252594,0.8589927428908565,-1.6229538225721762,-1.4863533707591865,-0.7494579543040191,0.17602194260604254,1.013847978936794,-0.3429008296462571,-0.5102812586483092,-0.47944747128603227,0.49028306077049605,1.6195468982362127,-0.16538839850608575,1.977540683350682
-0.3771810842675367,0.8156019845016728,1.0288647847159678,1.275176750028318,0.01594267216331472,1.0317394480709456,-1.7422206463115353,-0.9560923199204414,-0.41952733013857557,-1.0056845219638633,0.5257996423447585,0.29247085026463593,2.009175154353875,0.7346841131207151,-1.1510300159683247,-0.7844322338639479,2.573951992502531,0.20122473721101483,0.8109014718124137,0.0014139273935405206,-1.115565803961912,0.39035474343376453,-0.011214887603920483,0.6964817904815199,0.08020377788309446,0.1716132821918943,0.5337584762061642,-0.1942211304356291,-0.4641147443150796,-1.7329536087554835
-1.1826900249057253,-0.7321153307975038,0.21599528629449768,-0.8251071468119033,-0.6956514458667907,0.07744443431823374,0.7247427441084028,1.593222907800533,-1.037971584769303,1.1136418552108398,-1.0776071505399847,-0.5766046469552886,0.9295123039822477,-0.5000120169533598,-1.1177766880173954,0.30996169898117704,0.3643787094361309,-0.019962957946768643,-0.7399230698771344,-0.6525995192796709,0.7599694030985624,-0.653584410167392,1.518470297433335,2.568685409118696,-1.247896361805767,0.20153732809069208,1.9466732907829691,-0.3468102429086513,0.2717190353540536,-1.021112824587763
-0.6286197838279571,1.7004470946536703,1.1931239148167025,-0.18347396179281242,1.7931944846387589,1.3290624779513887,0.4075333798003594,1.0524853328629922,0.16591415625583184,1.5329882945005535,-0.7498361677229491,-1.2473951751882058,-0.009192375134543913,-0.2580230798273665,2.1547121795893687,-2.048972251177958,1.0588379753454025,1.0312253733828947,0.07315442678960182,2.227283230320253,1.0531914235604656,-1.0862713950678027,-0.9797600173241172,-1.1172405747183105,-0.5311433049121292,0.7575906329764767,0.07679393401254286,-0.1036394919432607,0.25889074602475554,1.3193430392435546
-1.741916966090769,-0.1843328580133664,-0.8721720090844948,-1.7820004709546653,-0.13318720812878548,0.2597480555938552,-0.8829156015986065,-0.08506113097277469,-0.20462139989872927,0.10257264389414465,0.7441073159900141,2.2289523628670715,0.5977468651680894,0.25772102340051245,-0.1326454713568218,-1.7108792376692135,-1.1822280579146451,2.1147339494212263,0.5171746693702879,-1.0935438867873977,0.6713674774080066,0.34686084229197855,-0.4329148795104288,0.32532346682069474,1.5307221102362967,-0.7733279019561442,-0.7377560697061225,1.895580794564243,-0.6679532467201132,-1.7186289975750773
0.16802513439819558,1.7371336758159996,-1.1223384979882567,0.998620716818305,-1.5331918187370408,-0.9883550955100948,0.7049644667838957,-0.46097220456748356,1.9453766846385527,-0.7778337860468094,3.0288554259876905,0.22488119129134182,-0.039188137455635916,0.016791319765761842,0.4190552439973719,0.5823718754416504,0.19289918699572112,-0.5041354844248064,-0.9563383292661618,1.2966945430806869,-0.04822661643431465,1.5897572939673006,0.18844485671035513,1.2469473409268392,-0.08387298048319358,1.3512806520434713,0.10739539931961785,-0.5694743394203231,0.6243799169941542,-0.7157103608965496
-0.18701133307131773,1.6128344489100552,0.891667151250387,-0.9004338081908748,1.2221134085268315,0.3542131925952803,0.18109520744304453,-1.0871162374559364,0.8067546426695487,-0.7684051255986396,-0.13344486895470953,-0.9996223348781477,0.7619350576976974,-1.0048481999270058,2.400725747256785,-1.4493967992761787,0.22150167090397985,1.3116933565542002,0.5317619980334016,-0.4960614387897966,0.22778814760783286,-0.21872474817259346,-0.31658828403348555,1.8293766154669495,-0.062458704051692404,0.8685752471095581,0.9445245860664334,-1.6522058131813615,1.0450468524078276,0.636099523116062
0.3956656243317074,-0.31191941303801934,-0.47964845649814847,-1.36193731645598,0.2943356752314845,0.4658233904844299,1.278848301586696,0.024121392269847993,0.3319167913307649,-1.2154310980309526,-1.3168022630865763,0.5414878519089189,1.6508900849104389,0.47195019039438507,-1.4125389163982012,1.140966483902389,-0.31417190334926737,1.5596442077583945,-0.9158211131115115,0.9107776726507104,-0.8609297319383424,0.18699503220823904,0.6714470739621785,1.6133858124481526,1.4854170403500986,0.46607949525503867,0.9001200547063172,0.2528323474517662,-2.220137899021953,1.142273062171982
0.5229928413820458,0.9322741799059128,0.14957927145625025,-1.0821936062050563,-0.4277020009778525,-0.6821843212843923,0.431032374854341,-0.012010454520725133,-2.0622270698946927,-0.7377779796401981,0.12058832051147063,-0.5106653131301017,-0.7453607560497811,-0.4733795099043665,2.1947851268675955,-0.24852150009932442,-1.1286447629847407,-0.626559480979422,-0.41896402802249827,-0.253065878337368,-0.9910926219549108,0.03250576849683572,-1.187331833762667,0.08819948788809767,-0.008234639622121693,-1.7598490349624425,1.5684173137235724,-0.09595748350223543,-0.4388845558690739,-0.7683071727265707
1.0771621919054055,-0.021532426537972247,-0.37118533733117837,-1.6337428872486737,-0.8409734190417412,-1.3966972361931775,0.05808745614077615,1.1131568234743745,1.1749700375822445,0.49920114443904734,-0.5245841071364248,0.8086312400084881,0.8536440651416497,-1.7968443397181806,-0.9930188626632036,-0.9965638830881955,1.6457563527267427,-0.39773372756891284,0.4991937993781081,1.1520180176628385,0.6419641504676601,2.1725983446399364,-0.7124345514236289,-2.5213790701783956,-0.027264353988117076,-1.071740241432912,0.24732739736679138,1.8174634915236414,-2.3536159203908817,0.2706807214198616
-1.1122739388489498,0.035963629928342344,0.1481127763057056,-1.9653606096259482,-0.58305392889646,0.3723982395727901,1.2808269015146132,-2.4817880969949018,-0.665035050922438,1.3459211491786558,-1.8102809073167008,-1.345501852796208,1.6104064289491078,0.20344720123742804,0.9681254066610493,-0.011708285895587475,1.2215176379451327,1.551133253674604,0.6307039899622089,0.8866473002027426,1.508288074608124,1.415719543321121,-2.369842132494867,1.4771423401195578,0.6146867737527083,0.16489678463149474,2.0971760344594785,-2.2599093745970693,-0.42031620624218685,0.3242485251103965
-0.13552740026963722,-1.0890928368822523,1.0125047911588316,2.2875861862291558,-2.4358349575096616,0.26327529540618333,1.942071722172455,-0.4670955202425542,1.1569116864312505,-1.4013244327435592,1.3489253167005741,-0.07577277174404608,-1.5680288109682432,-0.9747883959391012,0.7564897454604521,0.24912721532123053,0.4739186047590136,-0.006016278509423178,0.8744545216989492,0.4304619325088948,-1.061417321236412,-0.5956590390905778,0.1789463033086895,-0.48804666544167846,1.1290273718169628,1.1399852567459121,-1.5054373149353757,0.31106548641960136,-0.6252103293888231,1.441352252467334
0.45009887729514847,0.6570435177545217,1.166984327821806,-0.8995836725051943,0.5432646702558646,-0.8547420873653983,0.8402346150681993,0.4598244400782731,0.8877770974776272,-1.4837576198258762,0.6714639085944696,-0.7404625193903859,-0.3766969057741402,-0.3199704607028659,0.03199347730265456,-1.740776143289999,-0.3059453315956769,0.05326031587126363,1.6591652412532263,-0.891506078166665,0.23476531014152632,-1.3971276254272127,1.6597988989055419,-0.3559157167178696,1.0252366966583726,0.3349261483209689,0.9841048722539459,0.17703521571621184,0.3708089504433471,-1.6715498325862184
0.6516730841240135,1.7907881447434708,0.9439584725788672,-0.10043520755822011,1.237438744544638,-1.1737042203092678,-0.5219115036753221,1.048030797810431,-0.34148717362734826,-1.7171978533552268,-0.5184368428716599,-0.07626695408971525,0.22354508957665942,-1.9359299722082046,0.9939825078131093,-0.31903646415257403,-0.08824638710755933,1.6075231025044805,-0.8697290137648271,-0.5093196296684337,1.7373707624682062,-0.3474698420734998,-0.39004008671070345,-2.3778032117793946,-0.17253500523902204,-0.7912338601236723,3.2355795863953123,-0.10523059172865973,0.21054270828415964,-0.6509527973795265
-1.3421630865328713,0.7851029330140656,1.1370016643792331,-1.330355958264136,-0.3516609615505053,-0.11406939237749258,0.27256235758047714,0.06002952276372044,0.114766391511872,-1.3454772792774388,-1.064876936683165,-1.0729423853281217,-1.337443538069554,-0.9364185895155113,0.05474854312885218,-0.8570052694172489,-0.6066109400694409,0.9724004637353106,0.14222949772985405,1.5104061457601994,-0.369739637420325,-1.0447700916870637,0.7639971370775716,-0.06335958481469789,-0.20178452031030653,0.6569984204878767,-0.933689686778781,1.335513891881328,-0.2067569236726397,-2.230144971517064
0.05816337798982236,0.6326835015287786,-0.8076134670173896,1.5151846525356156,0.3560056903050022,-0.9135610194393715,-1.265878621396768,-0.8107986257563071,0.5638375771206755,1.1639863164686184,-0.35153697515419385,1.4709187566726627,1.2505981045964973,0.7246328572940152,-0.7545516593952898,0.5004202046714495,-1.204133916873439,-1.6022337536741145,-0.22199683640114956,1.263585772391741,-0.744846040989461,-0.6781843398484653,0.7041585948079874,-1.6236278023425383,0.6956291822942573,1.5590273148513782,-0.3849632811324831,0.831359703449491,0.6477974612807101,0.512974284979373
1.5586762179854416,1.0435203527688475,-1.5246088989728568,-1.1368298132504224,0.17214879657892235,0.015010728246789904,-0.4425498169259169,0.39763407691873254,-0.8361098731577563,0.5144343816504383,-0.988267000268402,0.9658254995805831,-1.630811642405244,-1.2046515630757508,0.08593081266696524,-0.5700671786462274,1.2202028547483987,0.5235065531374774,0.331204724884771,-0.04477297334480287,-1.5156850660413983,-1.1926064273016297,-1.0952469027554355,-0.6851358920521424,-0.6309400680881939,0.13513403629393678,-0.008638312259102672,1.8170729312427698,1.800470771712617,-0.6617715573427136
0.933604216792234,1.054829829196678,-1.3674882321024757,1.794217956868289,-0.17871864642215296,-0.26902984200110025,1.488635346234369,-0.21282168653041708,0.10323497613070175,-0.2379302378067717,-1.3521882793231097,1.376249400245041,-1.006502136205349,-0.11103277628876718,-0.3305691082361739,-0.629595018174507,-0.23810924101939554,0.7961505252264791,-0.1187630692312034,-2.0231620577811245,-0.6441610448213206,-1.1660193332646243,0.004740312504068437,0.23567958824572893,1.4450863663902787,-0.32691126087367306,0.3562375020069616,-2.5799423316957895,1.4739810408111451,-0.13389984391308485
-1.1376059131762388,0.4748919806613451,0.642821974153967,1.1261200299891014,1.4815400923075712,-1.3760701068054415,0.6531442016605997,0.5722759219009316,-0.37340914117276824,1.1929229643202242,0.022730751506399662,1.0804927908272006,-0.5798658072367603,-1.5630042810671314,-1.1103042267374434,-0.500992944901271,0.33963839175347804,-1.435856040414701,0.5826630181394724,1.5204251703918745,0.49009781318003504,-2.526542772356879,-0.6917975183392655,-0.3103539209299761,0.9231441311302492,0.48164557105602307,-0.2673888036277172,1.6315262249472742,1.2935844244579389,-0.48036374969921875
1.26139609406989,-0.9077481362898729,1.1744343675004303,-0.34365980807017427,0.14062208399628784,2.4020918190020035,-1.298703762121803,1.2231789576728034,-0.166142937516715,0.7574336119327906,-0.11012406885996097,0.04659889068034901,0.6875215946020665,1.7901332801187761,1.111113897412964,0.7565157316820834,-0.39715845339363254,0.33595003891262204,-1.4437445043413983,0.36680136391212326,-0.25872934938633513,-0.030894234324291756,-0.5269204178274635,-0.5263471403552661,0.3779381389511429,-0.3442716150167474,1.2861620994431218,1.0208069735960705,1.1520329058732506,-0.7725878258676618
0.45254513145817393,-0.9633850631719199,1.1829784434003756,0.647134284820243,0.7770149737957386,0.6927664501639194,-1.4396669055007976,1.6690936749766565,0.4264971371151446,-0.14219436625123474,-0.27095690000029543,0.2272087822575771,-0.8779378435107746,0.4139968535660436,-0.7153425283282904,0.1681060152561701,0.011677390644366662,0.35847255760070673,-0.10921748826742098,1.1408799660030777,-0.5246404624997234,-0.8580524326478794,0.6707058697634329,-0.07753214938575342,0.20680095489502665,0.30592158416078286,0.5155265550794335,1.460652254325254,-0.268699037925734,-1.1320528111900088
0.44496836254256555,-0.12442890291864901,-1.6936741931915738,-1.4293960138820916,0.024911359892405505,-1.1378353585630074,0.9834721335421347,1.1122265871940205,-0.28148989965226434,0.033070325513094266,0.9550001009693514,0.3566132995036086,-0.6049783471063442,0.0561025665196108,-1.220710381791474,-0.7933473897085724,0.35152443644839126,0.17282371301792296,1.2224758945740037,-3.205972805870366,1.9570871690921636,0.5604670516437826,-0.34318313587864263,0.7446674696142798,-1.6881248927117984,-1.0096208977551746,-0.35264257785493675,-0.8420734694362428,-1.9620765709536392,1.808242452731782
-0.8214149178763585,-1.8206531848563,-0.6029616811601672,-1.4181090391648696,1.5134551118063742,-0.2864870914239331,0.1823822917788946,-0.045044107973770016,2.0331614327847705,0.2973132220795574,0.8783795309720277,-0.5048971965322595,0.5471284956894786,1.0965346525864381,-0.9561566681461633,0.3649202361642094,0.47863074459537386,0.776558911792347,-1.4672023784014332,-0.12088121512253212,-0.5658680899073136,-0.7477581270549446,-0.8522754618795342,0.6256697457807953,0.5073549001604358,-0.8764307976663331,0.17206268358818483,0.23799686957660363,0.934144078452052,1.8450881602977538
0.8786277102181601,1.5154899214901234,-0.15763690755609178,-0.9730388236839204,1.2775237397273926,-1.1955565522768379,-1.0153858887126408,-0.007624031507045393,-1.4565599628423542,-0.4808422223468021,-0.40663326402783934,0.17044602495434552,1.2549364750287804,-1.6896049697855766,-2.3440034624568455,0.7926882138544474,-0.22733838050476304,-1.0945899311823721,-0.6866398346333792,0.9107455787575378,-0.8863876963731521,-1.5124874020269685,-0.08290077278657627,0.5236658235640461,-0.9116927184759915,0.48611214341385267,0.7778360247735856,-1.6132951767042136,0.21879825575620337,-0.09491522720743772
0.007029185362233829,0.2446772045102945,-0.22508261554357603,-1.5764741191958935,-1.2599775395332906,-0.5419888140078951,1.2297390814944498,0.23927395420603098,-0.8379129022250552,-0.6261257606502562,1.4449990746285106,-1.192649115851151,0.1402822543922718,0.5414284045807141,0.5928716192211975,-2.0969336025562297,0.8746269629797297,0.16853974340391925,1.2894020033772964,2.2164402688021436,2.024213786888068,-1.4887862205719906,1.5042451724470707,0.9721828650796995,0.7999828493313128,0.8311892446965546,2.312230087792149,-2.7585349582017016,1.1721216070894414,0.11375464011524515
-0.44252247168564746,0.32532717855438376,0.8754234072271629,-0.0144574179860443,-0.8507244124231566,0.15200234436590856,-1.4874593332813775,0.1836912758998461,-2.189729936391176,2.2013665916764897,-0.8518337506928101,-1.029041598518994,0.665753121086258,-1.8234043843123975,-0.1263706407388346,1.3745815841021451,0.9798868460396277,0.9552689295653809,1.1313229969994638,0.7435022806560792,0.9879880925038311,2.1348514258981317,-1.1169915303203632,0.10055818464962096,-0.8374225139775856,-0.7567292157336376,2.2484304067571306,-0.07424404433493798,-2.3801334795638565,0.3202519130421293
1.1757379519791824,-0.8917386905823852,0.4617375633985911,0.4742096574072658,-1.5876205092107871,-0.19254011564404366,0.6406171817847778,1.0612693666124675,-1.6998651800079292,0.8685628755776414,1.2696591418947987,-0.04256947171519175,1.0402897825485122,-1.1170645216736728,-0.1361980796891624,0.9897130353721754,0.9488116432891222,1.2158644659585232,1.307997717997354,-0.31553289459288947,-1.4636832204708925,1.3201563835081553,-1.7866958434472549,-0.3873402355539884,-1.892393801654038,1.6779511708744668,0.4313218129429671,-0.33330863980755204,0.8272943529648167,0.20861146709852735
1.0657629178771906,1.6570775668392614,-0.2754435266600262,-0.6697207195536322,2.2476818314171645,-0.47218888689883326,0.8296558614007171,-1.7629186117948907,0.057483686286410755,-1.6018635152585665,1.5329486706362263,0.27079875923203084,-1.3363810484339476,-0.35316642437249746,0.3631433231396829,-0.22951543566633997,1.2731551772552463,0.12475243032173257,-0.024592284934335178,-0.2282082229682627,2.871744559214771,-0.4597551423398297,1.6136748580985467,0.0014628494234124362,-0.4144488689597842,0.5849491113419659,-0.21053986611133996,0.9184589727540687,0.06575033680778565,-0.9205604958717907
1.890315531592527,0.15546808882802854,0.7538869948309987,0.9200736665271891,0.3626739048192215,-1.0732476304014815,-1.2882037541453255,-0.14097275923463948,0.15582822429708346,-0.2268627263498416,-0.23035919468591448,0.30553577107754726,-0.6261861974225548,1.9109804771047068,0.11422124605294506,0.03237961426473147,1.020060148659374,0.7592854272740172,0.6555147574173815,-0.9608975920281221,-0.3116583203710073,-0.5250519347004243,0.15844501513133089,1.2070486063785757,-1.437252948293033,-0.054020687263106645,-0.5202344251810874,-0.055066835662079185,0.608675885331478,0.20397736445199477
1.090841548216617,1.2859225011194628,-0.6934616910062106,2.4573758943478996,-1.0021186019166235,-0.18939538718443924,-0.7812917975394433,0.10449414917612816,1.13471437670916,-0.8778629199649021,-0.37961751625913165,-0.16900889656791912,0.6175240516444087,-1.4092473008432669,0.2921295109469188,0.11369456408032545,-0.5072504862423193,0.24280243082708797,-0.09306515761397345,0.5337468027088037,-0.7138419096282704,1.5118235916849083,-1.2441775085401774,-0.9742467952816298,-0.6578075926030259,-0.7729606983258219,0.053444069422276586,1.0122796126757283,0.008477002406488847,-0.394781668611843
1.1573712581710787,0.8433235105259244,-0.34470738089341285,-1.8928304249847245,0.2886749226045516,-1.629789391952637,-0.3744881653389782,0.08903319867305992,-2.0618549694645063,-0.09996769847145667,-0.7851270287453389,0.669131197316076,-1.3989920044410133,0.3177556858126438,1.2617843390573664,0.806286427965922,1.302424734296448,-0.5104698196247761,-0.7569656610494071,1.1302651215348003,0.5364627851572346,-0.3299895137702602,-0.2368876882747787,0.3567661412351155,0.21079009201307736,0.1869964347639201,1.4520174614930261,0.7721794638431241,0.10994075439795734,-0.6403575923428289
0.588741331501962,-0.292458528377916,0.4601667537061719,-1.4610332439669529,0.28837726431911453,-0.6555666882980473,-0.5552820011437221,-1.0775205436761854,-1.9869680459474877,-1.5550780568115508,-1.3917942479359595,-0.5107285043523611,0.4374318755445313,1.381160778148586,0.5129930447846652,-2.098500192981096,1.4459961621863555,-0.8064915440676736,0.6796957647487254,1.3956642493954654,1.6296208835947652,0.8842082708998842,0.3431608337770018,0.20414866824390115,0.43008649027781004,-0.8418140679957603,2.3701838956420405,0.08384552382879155,1.7159563642940512,0.35764319708336256
-1.2171678630340919,-1.2657515286779826,-1.363221307995181,0.8732766437624119,-0.42836553873288846,-2.0829433293908135,-0.20594131094692095,0.13728590593623122,0.3598048069259364,-1.8768632751382868,-0.6935569280929321,1.085506654310785,-1.6283678808447972,-0.10629494745115163,0.8673340513898485,-1.4616515730458355,0.23990540597614163,-0.40988178363035105,-0.1714102186586985,-1.736087363411287,1.085130768561755,-1.918171598607555,-1.3239672964212144,0.17603810388497662,-1.2648052655887747,0.6993764646044011,0.41720314356559957,1.750715532035685,0.9600902474024597,-0.4336279777146782
0.5848922288775201,0.5496591041540756,0.3089060643479258,-1.6661489468400366,0.701627270667546,-2.4511233162667576,1.3272522990957496,-0.20034371499833134,0.009372449439698397,-0.7286273047954359,-1.2299632942881076,0.44583796391325,-1.9225855100779763,-1.4305770786481904,0.8813507530146669,-2.4957619368014843,1.8209717126916625,0.035043491876946005,0.9112439535962802,0.8056823946063687,0.3470597492385916,1.1745513375718055,-0.26553137190863235,-0.8098051193960106,-1.4530919270666327,-1.1220242018916573,-1.0809278983369346,-1.1355829133321071,-1.374667265053842,-0.7451855532573621
1.361864489234306,0.20570763429914088,0.6344764052702843,-1.1884134120528518,0.7296087022722213,-1.5275177549856511,0.7215879769406978,0.011630940096059864,-1.6858738521435677,3.3060864322949377,0.3851100095020177,-0.9230063390821136,-0.8412762456271349,0.8453023270138239,-0.6833473635965976,0.9205716919709692,-1.1600596255005227,-1.2973752796072302,0.6270795187292123,1.168817743601333,0.09053157578831036,-0.3516177239849668,1.5900903723821727,0.2714520085523032,-0.8092749149371384,2.298919399768378,0.8597821784761815,0.3432049047939975,-1.5316642768389668,0.7085588966659937
-0.3711499397097914,0.6245212008675104,1.4077959394061916,-1.457090284579268,0.27648269947204884,-0.7360573738637037,0.8872049321545521,0.17058242891051772,-1.6650337437945153,-0.42457531789701397,0.9811514056166454,-0.395117347494482,-0.13907872620536854,-0.733767088474804,-2.0476447870006664,1.8760711270266346,1.7863269057748221,-0.1478625858799907,1.1199160399984678,0.7899993409939605,-0.8626277718252173,-1.1051511697827403,-1.05872247527009,-0.8445975744366052,-0.20849769934080814,-0.2012909784662154,0.573871229473453,-0.47576227224093914,-0.11916576110004043,-0.27810433667803625
-0.04595698549402847,-1.0223869110552415,-1.1807716324948876,-0.5389400041630376,0.6061659865559509,-0.3773299803994113,0.9255062652619576,1.7937465052975003,-0.5270556421011535,-0.25943313344188007,0.24074742452070025,-0.30806868764900247,1.3975182829228574,-0.4343361937021321,-0.19654093957209343,1.0192167205911429,-0.08645244973707605,-0.9376672820290787,-0.62125803622796,-0.0013036988037376626,0.21017629351757994,0.20926270427484578,-1.61927994604323,0.725356585484196,-0.758868515321206,0.2742419294143477,1.253518787627797,-1.216215544664586,-0.6945092131822185,-0.28449130660961214
-0.9668533765378624,-0.5040670396921422,0.0863592347447263,-1.2352344221842266,1.0076447362597287,-0.9477721066080653,-1.0334175996155155,0.18154335387436413,-1.1544611931027942,0.6974187904646437,-0.4118976333597876,-0.19934249069763912,-1.2697704312450755,0.28281986219878646,-0.2231884912870515,0.8997922946237715,-1.5075756004964265,-0.13923782978140276,0.6886781702404386,0.25218175540399307,0.37790837562978963,-0.47250203625286,-0.7318181182457776,1.0389932493045846,-1.8367052031378397,-0.12418091098087417,-0.6489382948461605,-0.10109599527144522,0.10292199666735932,-2.0218461920781365
-2.66336064051826,0.9451058652176504,-0.6453136378853997,-0.18154235527307327,1.003786217095168,0.9154270350365437,0.252914645986356,-0.8253031843926382,-0.5650608338340226,0.8803411900263381,0.7059514996914983,-1.1574901275667093,-0.5728089594557703,-0.6186913374434416,1.5850139539178634,-1.8424117230401127,-0.9801840686987592,-0.09771764474407141,-1.0099824329795852,0.3867510241678485,-0.18653810385999284,0.03227703872028985,1.82002310342205,0.4290645149006176,-0.5855681812858743,-1.308713404846297,-0.3465450177388734,-1.3785768787708554,-0.7787078894309192,-0.8095430700238903
-0.03850273881784072,-1.2303762120784973,-0.19618093648949136,-0.20720357696452255,-1.5850023483067963,-0.21519567032586626,0.09090088465681631,-0.6737170522273747,2.2649647136902313,1.1614331094938286,0.4518274764320026,-1.0196356977621701,-0.9880493139403633,-0.7396082897509861,-0.4845403534164856,-2.0875072272841892,-1.161795252792901,0.28208735283554465,-2.4097693238618336,-0.22682054445044708,-0.15984452083024495,1.5541796411890867,0.5080439181156847,-0.061071957776838506,-0.6558467903696917,1.474967696993262,0.515011684946137,1.3655805336995932,-0.25563998296744656,0.3697395760137183
0.014681707869422713,1.8845850058852223,0.5258912106069994,0.13356564209013008,-0.49912675234737197,0.7625479677633097,-1.1778799992049684,-0.8160393086287595,-1.467590629199672,-0.6590462174991599,-1.4438836606194998,0.48315814431272597,-0.3839596656940989,-0.8033384941163279,1.1308488777676258,-0.25482873066851336,0.9517700822065386,1.423468086011702,0.45809706805868106,1.9532868184121779,1.8231358029346254,0.5393290249168431,0.8767542136399259,-1.2834359066231,0.04382687747909299,1.3842715049992234,0.39510280047163115,-0.9052873174109828,0.6164573980220944,-0.9186482911380345
-1.0142364048467452,1.3273376533308112,-0.037393927679227404,1.5086125597765898,0.5711563041440948,-0.659723900279283,0.35365262369893435,1.235299265152126,0.9946107927856195,-1.02956099863176,-0.6991613212802379,-1.7288783230278326,-0.14338275384272678,-0.2964801265116507,0.6868597705629665,1.5951305516710006,0.05337711633290346,0.2452827060021306,0.5072304292342905,-0.3183586154164575,0.42914589679075166,-1.3524345036160108,-1.2695801334386219,-0.5296617674111818,1.213464392717275,1.1337679666588503,-0.2773253432250187,-0.7759638089419636,0.31317169280923984,-0.4528212035844024
-0.1694332792949827,0.4216640618462193,-1.5229112138212346,0.4192813180413842,0.8192421337137143,0.4291838177211994,1.039107503147122,1.5408225061175769,0.9357649324454107,0.7239483808906078,-0.5757609729183745,0.8100108643515344,-0.16676246068209155,1.8981462382454748,0.13159747306659542,-0.5765607421429371,-0.4052274854777664,0.6522599988293093,-0.7932063986802126,0.09478069097892826,-2.0325070805817846,-0.5295329457736309,0.1721768900058223,-1.1157433032318311,-0.18603776556220958,-0.63072150916914,-0.4515628971104819,-0.45788109125575344,-0.8917773372751342,-1.1211944532946272
0.8001205791999875,0.8041768079467592,1.9188312964949652,-0.456218853405922,-1.0678402400815121,0.9033927346015768,0.11246657676935849,-0.3672234207053861,-1.4244656336077886,-1.0318563783194614,-0.42844021354389644,0.284132548092946,0.8785554878506187,0.24149866417851673,0.25710664465706307,-0.04887735036274992,-0.6543230466256841,1.82478583265944,0.7460358269447899,0.5738504792251611,-0.5455156520776218,0.45560395998445746,0.19729202190321185,1.4035909640891677,0.0030718010306196816,0.8781717058837368,0.719602292168852,-1.2102985148449275,-1.2286493165216237,-0.7308272957773885
-0.39783117676696594,-0.18880816591289412,0.26317109665892346,1.2315671026749304,-1.247601939765492,-1.6147775543828027,1.5547944969742482,-2.4596932526587234,-2.4024487815090323,-1.2774162719745477,1.231509692902432,-1.0263436950153226,-0.3869458654677913,0.7243101088807993,-0.3516202162165173,0.2938797967816423,-0.8025051968698279,1.0839461338288336,-0.9916389761914729,0.22890314915420001,-1.6943813346340477,-0.08613305864485228,-0.5859436276535173,0.6371888549774383,-1.8258708279330742,-0.500768779476046,0.7203129557786052,0.6062366967526415,-1.0128675206101483,-0.9173525744736183
-2.242938854943332,0.18529615684124406,0.0007884943354454293,-0.5065717950125607,-0.08189571927828573,1.7210702528409356,-0.7251282503260567,0.1332302718985647,-1.172030509049255,-0.8991476987500421,0.7065631863617235,1.5337284867186,-0.253337297148369,0.6919790271811066,0.7349271330197383,0.6729487184075145,-0.9099020255790763,0.9917462061569184,0.9592984933220986,-0.1978556991992502,1.4667702426763485,0.4863479113607573,-0.22619156757526634,-0.40847367679705565,-0.9077819566366315,0.6987023724045787,0.8620480192015798,0.5843269808957084,0.18802792951657787,-0.8824678881246224
1.2962566131022464,1.1936742065985,-0.5847751172131636,-1.2336091924847616,-1.1479845019654906,0.3459944878748467,-0.09083237964244499,-1.6288800311881,-0.26010790747251744,0.26626894384106753,-1.1302667080205286,0.2890540847034064,-0.2151267668195529,0.3861906119886378,-0.82556057341665,1.0275072299418326,-0.5416761288793652,-1.1377863844720102,-1.309204866437876,0.5091493753571138,-0.10051275598806134,0.3259965200104722,0.24321424850032625,1.0822459842046797,-0.43650304191886385,-0.1311405893154099,0.899638812986036,0.1592353301994552,-1.0926254623577853,-0.5330702054065459
-0.6296839486262965,-0.6710824398956821,0.24358046627034635,0.4669366694598895,0.6312125125623781,0.6172573085123197,-1.5551352267046954,1.6518199715537734,-0.0885281125853389,1.1781940474109382,-0.44970945505854976,-0.9277187524330287,-2.1608304921082433,-1.7088668980062183,0.4685054315672966,0.5247069859820463,-0.3842260807691402,0.9552799011780141,0.8419510303868174,-0.5706288625691386,0.11358993813240705,-0.4834720539040818,0.8679825834841565,-0.3928309086930138,-1.481264328574631,2.6750519526956453,-1.2730979050250675,-0.15226691656484345,0.6645119378273202,0.2123113630339489
-0.46556868575862076,-0.06109472271378364,-0.35773713481026514,-0.0034167619075630993,-0.48804240536658267,1.058152068426898,0.6792660548026884,0.2080670371399152,0.6477916966736291,-1.5886879460065926,-0.7364252880799295,1.6080759177450308,1.379009976728383,-0.07597939441839086,0.33362884198725884,0.3901968059322719,1.2207449883706427,0.9945328567659455,-1.1652280508889943,-0.6559071805365162,-1.0351351262017159,-0.49633689424009964,0.3669584676435392,1.3977154896694381,0.10125362971443462,1.12587101785527,-0.3767987669276081,-1.2672009579395422,0.2550562504122908,1.898626118257654
-0.71120279897681,-0.3580420630301271,2.53335006554082,1.9415484439810318,-0.24410800758847095,1.811744291087287,-0.055456220382306375,0.26757186431584584,0.724554249138172,1.2579760064580536,-2.0868200740101615,0.18352715012927273,-0.6076344671338627,2.1350161759001423,1.93817608852589,-1.2439987879365737,-0.7345684613884219,-1.5518219407586133,0.5071668610383228,-0.43496365649503793,-1.2174275883429306,0.7559497748886591,0.5223822579768853,-1.67704994847478,0.004022531126351242,1.5463699089035252,0.6577657592974492,-0.32269898109598105,0.35604777712233876,1.6711159966575782
-2.0810034321980067,0.08283103074745046,-0.616313068074153,-0.5571127022946394,-0.6252857495868619,1.4586992378736565,-2.321578014976521,0.8993398532763118,-1.0583385558247906,1.7010339005538326,0.23505593529362723,-1.2239018125495722,0.32914136981651015,-0.656315531181591,-0.08734421027871525,-0.17789770137374145,0.9318354344803114,-1.5465508086305029,-0.18892358648415097,0.506531248740661,-0.13915428991062204,0.4315687682288538,-1.5275526847701857,0.6179397834274762,0.26121865969612346,0.4028693716455944,2.1439286652443212,-0.4940500137683172,-0.13609425764067876,0.5909368443362074
0.48433881296862025,0.6963928948320216,-1.2217208438616265,0.5338709804039504,1.465370266233539,0.78232341344527,-0.05151882768209409,-0.3237061400417918,-1.2337393199583093,0.524217779791663,0.05082135315369139,0.019616007761352413,1.3912280879328314,0.38649698787738757,-0.5067812558220701,0.33837197446863054,0.19089021448170668,-0.6872991389427098,-0.4189572265456966,0.6550871432504006,0.022768497961283597,-1.006471309944024,-0.6278128394689463,-0.678808505302753,-0.5612306355961438,0.842056669614756,-1.45820992361541,1.1250782372211445,1.0523414208730166,-0.6811824065382317
-0.8569480095626265,1.44211895132128,0.6399179551866705,0.9614320937512407,0.07722848394885604,2.165146791389556,-0.776050452336826,0.7363506260237578,1.7403313465083703,0.5093346617672749,-0.06364088658675257,0.7661853774470235,-0.22071217013028785,-0.8770990651781106,-0.38362303022582017,2.228696455058717,0.8590293030650713,-0.742811972322431,1.8748095229984738,-0.3802973698592813,0.06714136961266291,-0.6198435604247782,0.3885488692742926,-1.5500098286398365,-0.047947797208875764,-0.12319025307486005,-1.728690474876377,0.34143036516194525,-1.0323953392458176,0.38970067757527443
-0.1475727312730255,-0.2596084006642278,-0.19706251261246568,1.7197442624033183,-0.34934952026863286,-0.07738644840346824,0.4136866660293427,0.6953651917161132,0.3006516442679033,2.215620662972292,-0.5505987517515898,-0.19884453671024174,0.45293547055615496,0.6579991381649691,-0.623902177237231,-1.0628016496407082,-0.5053314294614993,0.23601382682006228,-0.2702771128443001,-0.7451739161069778,-0.6770267673218432,-0.1595300044081287,-0.9212496160802893,-1.3018678356902547,-1.1750515720960975,0.2715190239303148,0.932563202057679,1.8969081159474546,1.495486988454895,-0.42213709293693047
-1.2486470784559613,-1.2014204563907869,1.137582293334268,0.3566669676337389,-0.2287833388602911,-0.609831444562904,-1.43262717346989,0.43087045766952736,0.9501009815056901,-0.46006865659789176,1.246354880027313,-1.172661876199878,0.9368188324912831,1.1281614976619991,-0.24328141417425783,-0.7733409609753051,0.08373985861472225,-0.15203627115380727,1.0250411977909835,0.09787306868058157,-0.9632991226740185,0.42090688818184474,1.291630879241036,0.9616369635050591,-0.1095474315929584,-0.4755560594860452,0.9443917607173498,0.6770238447576759,2.4881162846264404,0.18874892520420125
1.5825829206350635,1.8121649787405008,0.334036469961743,-0.30516450264792916,1.3985277888671745,-0.7678266700998426,1.2718723729696826,-0.7057794287040589,-1.506837197873201,0.5679609667152853,-0.8890225480528857,-0.3887277401212202,-2.0920399240253436,0.8595397192398087,2.173269639156179,-0.6851148226793409,-0.09684446745422869,0.6012980905952394,-1.348921851252605,1.8074345303315613,-0.6576910349735576,0.27556163970984376,-0.27570765125512114,1.2350323758686266,-0.8086393853807707,-0.2627046670952073,-0.6999455602417223,-0.0724309455986427,-2.4523287058775747,1.1506181466687297
-2.201468640318044,-1.1582856897439036,-0.16072631108894433,0.2892023568324426,-0.2326005825533969,0.15174360507930182,-0.7314791642670926,1.0183408865674966,0.5841591445381744,1.556999558941234,0.0899394824173021,0.03254116171134242,-0.4447112263427743,0.3599856217890973,-0.1609546272094688,-1.5004245606801632,0.01989508322808406,-0.7110490337670372,-0.7227228411589,1.2911889456274686,0.07151094127088058,0.9346874701041535,0.8606440944382543,-0.5337678103475001,-0.31494016225049193,1.1506276843153935,-0.07811304534588691,0.830249378440189,-2.4839399873350865,-0.1832474730718681
-3.29347894208793,-1.644721600213756,-0.47524451553041447,0.9360044196313781,0.6816405878592048,0.04324823221395073,-0.9492314190557759,0.9252787105434848,-0.7045746911491031,0.5063361409815084,-0.09388320937451802,-2.4050190019523345,0.19259267201434965,-1.0730223502912124,-0.6281105073069113,0.19059897055236816,0.01887855297083681,-0.6305162977913704,-0.2994014816932959,-0.7273558193838388,-0.6991013046744834,0.07689804367908853,-0.41639092958360785,1.2273938719433337,2.3273902136527207,-1.0496704702016169,-1.1420404975506744,0.14111154156728095,-1.0441613286503046,-0.19953449477083193
-1.6900027650020975,-0.5226139804808253,0.26962666748253444,-0.1900313281115755,-0.5286062173999042,0.239461857712442,0.7949531323863597,0.5402608623639673,-0.3899530292316941,-0.27526305272659696,1.9592541455684696,0.24797017678770192,0.2036151197870896,0.5326022664003078,0.9594974685716474,0.5496634525906684,-1.7218608386359964,0.6493345777125814,1.1117196464937151,0.8560374311267934,0.6102262832141281,0.7390177322446145,-0.6865910972122049,-0.6265453523285769,-0.19971251556340053,-0.9568896872562905,0.2262911067123762,-0.2562309528368332,-0.3072208107761727,-1.0819067707667633
0.054490662452183244,-0.39558244837470335,-0.17661826606638523,0.5968116146562696,0.08195239204179773,-0.36744284906075936,-0.18502909522460942,0.5644622467523754,0.08291811551479936,-0.32768636116905764,-0.13288248653731236,-0.2724698060123882,0.7843048565628915,-0.02630564313338905,-1.4794131803290569,0.14878224062791753,1.5817374950010081,0.3891153046541965,-1.3652436655238351,0.39468174058699,0.4653444847385686,-0.7155599281598094,0.13328236591254575,-0.25139942875492793,-1.161271401449498,0.8231954280185865,-0.15942580182702118,-1.9084014019600652,0.4293436949704197,-0.2987020128637261
-0.669865352933985,0.03640360358556046,1.9476485070296525,0.17824579705850394,-0.13083361556514483,-1.3279912671257887,-0.13467581859725125,0.18055148928890377,1.014118799319186,0.9287532976683449,-0.1610694331650046,1.467146597790458,0.031264200200081325,-1.319454434552062,-1.0635604344533807,0.12931053814487464,-0.7751598612501056,1.3219536574980393,-0.46046313004364964,-1.5340280542825793,-0.148260372080119,-1.122474209560317,-0.025044127881491036,-1.7501834884655159,-1.0963925337185378,-0.24136699580544554,-1.6771220536507672,-0.05095614092986771,-0.9481884235483979,-1.4427857160637196
-1.6618308651948177,0.910424861920622,-0.5284396259616998,0.6957599684406767,0.44360519140715254,0.07825996812066101,1.2146934836582441,-0.4513106432587297,0.228767893055572,-0.5977947039617125,0.45037765055497003,1.3237577391585655,-1.0536927605140773,-0.3549182876372471,0.3468431480449423,1.0682027941969736,-3.061908750461364,-1.035515127293539,-0.3405783843864769,0.1210495206591006,-2.5736664000669256,0.9713310586557228,1.4819638065365641,0.39611997619746,-0.6932134176935109,1.0728371229507845,0.8949200315567897,-1.0697776733063367,0.19740761598884635,0.7494567743954651
-0.23093462044795848,0.9234351451144646,0.023408412624497242,-1.2946749853493291,-0.2370320574861733,2.097870312029823,-1.1204457449153822,-0.3124535858465315,1.2718012256894085,-0.21826029078335804,2.4939545992147347,1.2530986181358583,0.4091093752470681,-2.1998994342105673,-1.710295051698508,-0.7671432693948237,-0.798001073851775,-0.6931698289303355,-0.7212543914546167,0.1433219657140375,-0.41611817118078565,-2.551582496954427,-1.084550953579334,-3.232909199384517,-1.0341700829847293,-0.7228049470961035,1.0231788639117498,0.8401440120288679,-0.5311311107951046,1.5064018376188413
-2.9868744435746324,1.2885262852819181,1.7981183125984597,0.5714265930948313,0.20870062626422298,0.06668279364671928,-0.6452404985994873,-0.534006758878427,-0.07818263961782,1.1141921966834487,-0.11541019592909942,0.6104506480861907,0.39763591648624147,-0.5242252447393808,-2.5739611901291544,-0.26771128915553855,0.5018581744972971,0.1599805515604429,-0.0819534502095243,-0.0503622478507607,0.8088690412830699,1.129713577646375,0.6380494960131898,0.22810144885603087,-0.8809608087975058,-0.7466375348827773,0.4750364651841869,0.9040513792860931,-0.6836277327409506,-0.1926161526738107
0.2237562894002733,0.1436015182854282,-0.6540477297937435,1.4215537234053677,1.1943434511512292,0.8894961843416619,0.9836170920052961,0.14661940615970168,-0.1880082961297461,-0.16900130061124166,-1.9530324807531043,-0.9125599832450739,0.5533677361811209,0.5208219724377529,0.18474014099426844,1.4164694635401167,1.8357039391531769,0.1479234330909882,-2.010737822430826,1.308017160174007,0.740554217164516,-0.1954364170860517,-0.6741157121705561,0.5131282906359724,-0.5148641136069836,1.023551800253448,0.10849935815780871,0.7546076513672009,1.988683068087102,-0.7158324299363937
-0.7409038586373908,2.733069259652006,-1.0494917816591838,0.38877803683307344,-1.304156120782169,0.2789952575721191,-0.09695159924431745,0.5728498404053914,0.8924352410847857,-1.3215196768476667,-0.15831254315180113,-1.043108954824964,0.25858323289479623,1.354554747805577,1.017321906734752,-2.057171108092919,-0.7103661039872698,1.0788882650077205,0.4554927772889842,0.7141509589795743,1.216111658529795,-0.31535381630191656,1.0263458894287314,0.00615392360231718,-0.11624721723401926,-1.6528306269670252,-0.6020438902916455,1.1680145279669987,0.7590575493904285,-0.40963818163299853
1.5306070532361118,0.14672135274128278,0.2809824284432602,-0.0673429184633316,-0.1772668489372495,0.6644931754998193,0.6050871880301244,-0.0076002324508899375,-0.9454948986351472,-1.1909772234712181,-2.011478951605953,0.26508133693747693,0.9384761068209831,-1.2262263779742422,-0.15694955631417576,1.2432153298390005,-1.027820692580743,-0.03980244402409014,0.5242662145486786,-0.9881588814681785,-1.8892598403761771,-0.49280491181234093,0.17013282021867285,0.9556086053810603,0.7144289414453608,-1.3549842535435364,0.48757203200354315,-0.859293632672832,1.4511597361240784,-1.2438668674631355
-1.1973469246447752,0.9815819892798188,2.32384861919399,-0.4073130003508417,-0.21047734490239908,0.15157943707632276,0.23415441186424502,0.520329512119259,-0.6899435349915789,-1.2752229284694183,-0.6926448931338917,0.8766143906795918,0.8221603904214457,-0.45590686068976843,0.051283686731908966,-0.8552740002560385,0.31965940387307756,1.635207489696378,-1.605294045847156,-0.35886402861941924,-0.010581743863193523,1.0267083314825247,-1.6816900073655345,0.23256220717755993,0.9225147136847377,1.195618127724888,-1.3895975565973147,-1.5466382324996746,-0.03474674476228193,-0.025551673784724532
-0.7041820324278232,0.9566918129340853,-0.32898213516968605,-0.3643585448902813,0.3636901165405638,0.14839178781464643,-0.89973754361681,-0.20416033277538326,1.8505465801805097,1.2419194325519787,0.525714844894041,1.895245446093443,-0.0011452396791397923,0.6646355547966403,-0.028219675815534157,1.5238727975844193,-0.42652043294083497,0.5692645450861497,1.0483581165826334,1.6439915344866958,-0.06931219439402139,-1.1449635222259198,-0.4805389458568354,0.23920432595189692,0.6928194354176529,-0.6582003036411103,-0.8038122541134481,1.9611963441474036,-0.6250158186230256,0.10713349815110125
-1.3553397559505858,-0.5109223524884134,0.9370923169670208,0.32270009975767794,-1.6262998798767534,1.379185095831725,2.713087682348035,-0.25136536724326397,0.8902501029871932,0.658028424364963,-0.3806832620581947,1.0157198403710426,1.485024418170347,0.7687253300034126,-1.0665166611294166,0.8842340227268501,-0.37496007672725007,0.34322940168931226,0.4837121614061398,-0.04677190135788901,-0.12022150086106684,0.14721441596038579,-0.04321054174688263,-0.9596458873334278,0.48140395505807143,0.749011173391497,0.6670942978797264,0.09023692165213248,-0.6420363105319138,-0.47999606316924803
-2.352128961048394,0.9300848204543786,0.9973790281987714,0.36230770630713605,1.2032414929048905,1.603405374882768,-0.6911912956010443,-0.05706053359545051,-0.622258051351634,0.3889171337262847,0.5361998150150787,1.9518839992797952,1.2018850221038986,0.5778015775948224,-0.7205606370093882,-0.5791805699673427,0.2647776621207216,0.903169669324813,1.347358638453323,0.1871022975380369,0.4099760533745159,-0.3901399834807764,0.4630250999078233,-0.3611879194597538,-1.4035925920730716,1.9511560302807016,-0.635984212330982,1.6910829685332693,-0.4580898388079812,0.759376617065935
-1.0350902925062408,0.730136037194468,0.7800831454049403,0.244434501564649,-0.9352070530827215,0.593525909475441,-0.7660054672607981,0.9554467446992334,-0.7817042168946492,1.441690355449401,-0.06705038996394314,0.4135000040401542,0.38030710732846956,-0.1891209632275518,1.7798988493138517,-0.15444114415538177,1.0838090098181645,-0.921398238283628,0.6262348395758502,-0.7461346817617045,1.3262952173067375,0.025876943306063643,-0.06416214855829142,0.8168215517100881,-0.9897606013309502,-0.7434358352558633,0.3615731963654621,-0.007487493739084562,1.9212627802481173,-0.910983171002232
0.35099855842778493,0.6194349720212884,-0.46198412997693616,1.8811159811668383,0.9694324093513347,-1.4524712073520984,-1.5668927291067238,0.5703183784691466,1.2246205675684703,-2.0515430721866164,-1.0281992644527147,1.2633633333237975,-0.7543775008326112,-0.5014118728654637,0.27560787825577593,-0.9422385600275076,-0.7413071260632684,1.4159250168042374,-1.7827828331017772,0.1587547809742318,-1.9341354872018066,0.1817703644459338,-1.0976563930348915,0.13101960044592986,0.26277245488331125,0.8866827863992184,1.3151187203136838,0.6620841491022027,-4.522184913920123,0.24828581545051256
-0.18909828785331545,0.25115613374128903,0.039459526583723335,-1.1990093895334297,-0.03060029091026129,-0.8708990651456308,-1.1891678917088957,-1.2407248740302232,-1.0497330623492354,0.859027884951498,-1.031626276776067,0.944274169715116,-1.400500677718362,-0.8918291192611892,1.00184446394158,2.2514078562391653,0.11009721259540142,2.453262386699478,0.07335099808902791,-0.40549647494866975,0.35721670646242765,-0.21505466895676362,-0.27351320022829656,0.9857903134711128,-1.223487152266378,-1.1954829394187638,1.6931173825246686,-0.34916365318719567,0.36171179664796754,1.599558330500488
0.4860239610779209,-1.3342542030437858,1.6671544060254462,-0.8205261372061644,0.36252165005655007,0.7994982068745135,-0.9312100834889794,-0.022561163081794997,-0.1488068210444902,-0.742579457520303,-0.8850025979018592,0.1519368858024291,0.13846811349096547,1.6794760668525914,0.7296608129134603,-0.650054189749685,-0.03230812767758288,-1.490875885930651,-0.4043229769964895,1.290427433279155,0.6426441009200671,-0.36054497287505344,0.28488014480882184,0.3344467720991864,0.005526317805487954,-0.7691792790540644,1.0626775613962622,-0.8265086489263358,-0.45210381037062985,-0.5832695136340367
-1.6531995241529374,-1.3434499633383519,-2.16474718131406,-0.9818751467809568,0.5619758095334084,-0.1554391751770544,0.8872383197781952,-1.507206279351417,0.5909452349582122,-1.2703126092550279,0.6199021916496333,0.5400514504356712,-0.01704052645647691,0.8056373153208131,1.3178181454883064,0.006915977729624932,-0.3260890838124043,-1.3183779071412005,2.1766066896135774,-1.402956644958113,1.3250732145075266,-0.1341950390847581,-1.5687589822523316,-1.172234727224806,-0.9801051282808593,-2.999016365164218,-0.38668482603789855,0.7786611322496713,-0.7928705560772288,-0.7006895176152176
0.2551616692696243,-0.4306329322825859,-0.9807710230523531,1.5899729114176162,-0.4695300338665326,-1.0625108328327184,1.7017867620371026,1.3942356291406262,0.33112294705536155,1.0888323519312428,-1.6946270401846026,-0.7784566727735109,1.059989098125327,0.6068901198089511,0.40291727469231586,1.204150696851795,0.01849128185562444,1.3795840826084973,-1.7976660232372135,0.1316249946893172,0.16306772797882704,-0.47650048843590476,-0.40081598755869197,1.0054588305023044,-0.6244830770740645,-0.8465460784493896,2.1140074610722137,-0.5437386826139353,-2.306200065712426,-0.6321255973628913
0.10549206674727207,2.806194327951584,-1.9333836509524644,0.4249015235918449,-0.943199582400525,1.029292345819157,1.3251157553461468,-0.004897581244487019,-2.4812840511621235,-1.0982696872859035,1.270967174235131,-0.35730723787401103,-1.5132595576622287,-1.0558247749566696,1.21350895475491,-0.6357807835658708,-1.3443037207908461,0.5207992057749083,0.2790579911078721,-1.9207596717944981,-0.5873852506531502,0.8126483665627573,-0.6364800423313125,-1.1092679625807922,0.14680714858245292,-0.6139245346561977,-1.7192749888021381,0.8595751485325136,-0.7548914075052403,-0.033860022227010934
0.10922482854064554,0.1410902739555916,0.6848204865685898,-0.13524928087960073,-0.035833919381749076,0.12550051447266292,-1.6855404392823674,0.3307010202584014,-0.26328761831160497,0.4506500419508833,0.28255114625840694,-0.7296257521319016,0.9154290058414044,-1.9617411016972466,1.287898674022184,-0.10582853514612212,-1.0399106654419332,-0.4008444814715302,-0.9594603846323736,0.5708841502373417,0.5057511422755994,-0.3493490080709024,0.8787334629499175,-0.5317341816518485,1.955181509024194,-1.6205183998271757,0.8288898305668058,1.3924233060138556,0.08916278042383186,-0.16351716998254476
0.0688466390765739,-0.1431836039856212,0.35051897872347654,-0.5402863806125435,0.7794630805293918,0.21450961629780937,1.986311936441061,-0.6864789741164239,-1.2371031041929994,0.8184271262670354,0.3680018783988073,0.28661548639938766,0.5876744847193665,1.6771950004010132,1.7922176128364757,0.5902651488572322,-0.1905382660637903,-0.5024507302374825,0.2404994671039898,-0.01100599263757128,-0.5551641805618113,-1.0882818819709168,-0.37633988144352776,1.4076057195734932,0.19298328147368363,-2.103043435032594,0.4471142047513392,0.14609640705950214,-1.3063410855941706,-0.12830905071691365
-1.4052368297257698,-0.6093566215168785,0.673816829901971,-0.8570372965823019,-1.2151437335557609,-0.38184019568015537,-1.03131528824102,-0.2615293537831624,-0.04904398282252352,-1.5680579530989947,-0.15770665780439566,1.6807905007660646,-0.4936777698057962,0.23502692441617842,0.18262750352239024,-1.081344662593773,0.6695297303667394,0.6530548200580225,-1.3700887168108618,1.5807816222222117,1.302522474422966,0.5944832158662138,-0.42032317354417337,-0.7137175342261195,2.181250090923268,2.3022060189386906,-0.41812750684575173,2.354471426818271,1.4288129063973969,-1.7280768598519682
-1.2894092410112972,0.3576172495711085,-0.9917223264843479,0.16899304893544254,1.7850054668820392,1.1838751813503756,-0.11420232996871547,0.5844510994133063,1.4758945502498912,1.5903755274083933,-2.017648910863384,-0.0900701923440936,1.088972595230276,0.7162415589181695,0.7183359839711739,2.013558728693167,-2.333317185497441,1.3858454061485452,-0.9696311999231526,-0.2568865914794802,1.8793387006376134,0.11565160883701633,-1.1420300171212794,-0.5642041489170322,0.6856348834744607,1.1256222749045972,0.3848643612347813,-1.860400668851083,0.5252663834473863,-1.21579567501857
1.0829145428437066,0.7016666506965774,-1.0000812493861557,-1.3498551004217463,0.35538690378538573,1.0050120940138676,0.6358990224963877,-1.358804522159441,-0.2911179886617033,0.5366173006192679,0.06468935594996815,1.50621739394976,0.8155773948049642,0.6386742070077387,0.2553940514543103,-1.687073185438926,-0.7349610814537101,-0.12232832550359399,2.187495010267047,0.08613244573470778,-0.84578135741488,-0.6871890205912365,-1.4414864692263931,0.3751300596455225,0.44265811203032857,0.4850051275758356,-0.3793992246814552,-1.1906483224047126,-0.8261581681161925,0.8630841005402788
0.9198412700162576,-2.2144112669359486,-2.0449383863632535,1.3371313998782774,1.2712258093007076,-0.6113533851905658,0.18570824197639269,0.9490526616773367,-1.9661302415722326,1.1937854472568694,1.4261936451256578,-0.42961241959202034,-2.0635479356319646,1.6469573961145125,-1.015487526463536,0.7478829391852141,0.020160160613914138,0.8908074277122385,-0.17185906434634884,2.3106770256236233,1.939860619998739,0.4591556353096991,0.6629105715538934,-1.3934929608818862,0.6908891308634064,0.30299765785165345,-0.3158261476899928,-1.0360893504414657,-0.5997919127364123,-1.846100027931212
0.14762582796270313,1.7649921958191521,-0.5319045317894041,-3.2979874990223315,-0.9555029320506663,-1.4260375698647318,0.05326953146483544,0.0008915399745256753,0.7529876811584394,0.5553998409275369,1.08112792560795,0.847873155252555,-0.05066942554138366,-0.0029931222093880954,1.207885572890067,-0.9213872692231911,0.8980703733025848,0.9483330905913373,-0.18925957387363665,0.5076988144854181,-0.37014098215732516,0.05400789363139715,0.3723377909981793,0.5917800980490866,-0.7810685912071568,-0.3291566081081075,-1.9536033396513306,-0.38838186156484134,0.6766670156274486,-0.8712168825819634
-0.6764260926911523,-1.1433619828863941,0.041355462413358725,-1.9345313040067222,0.19779184599548658,1.0380153219841575,-0.8156015894110906,-0.7444814093082065,-1.6017149650437061,-0.351924345581167,-0.20968863324197745,1.070528939091434,0.04401010815409894,0.5661925190257894,1.3795047508211664,-0.52293843982678,1.675782403982667,-0.11171190814723866,0.22414739635910644,1.205802738357031,0.6056841795153247,-2.3550100056494556,0.7440575289511837,0.8505139984053582,1.5009028090043517,-0.8092802224481306,0.6302248156775508,-0.04369088798354717,0.6647558717919422,1.5987368949615215
0.5984323611678479,2.9573688255014807,-1.326017133292279,-0.591571362101306,-0.49196530421404044,-0.15373744680064322,0.8408783580594277,-0.0531449059144394,0.0657933147270956,-0.1595447497896069,0.062092277763911116,-0.38018995018598967,0.0625476236793149,-0.42769804342462703,1.735231816882787,-0.6188816189441567,0.8921711194340689,-0.7665471849928457,0.714963902245041,-1.3633282256021308,0.2374367753203671,-2.189670854273541,1.046222053981349,-0.7600919205335711,-0.07189805160977518,0.6746241824248806,0.09108645885146588,-0.23500328743483903,-1.1399980119665163,-0.16877077364838933
-1.2149674868172715,0.822572626491335,-0.023676173472229622,-0.2221126950816502,-2.1089025169555167,1.3787210320436314,-0.8612084093174555,0.1602253428513284,-1.6462191772714243,-0.25461026980238877,-1.196853787188464,-1.81057508363941,-0.30847381773521165,0.32705478215259787,-0.6698311927291674,0.3821314975650735,1.252604738421443,-0.8914673314246425,0.5372146399880416,-1.329182469361367,0.5568946527946594,0.7034065642310985,-0.5651723240440263,0.7241499386260734,-0.009547295049894619,-0.9514161595160319,0.20640211047184143,-0.686448360925799,1.1711013437913906,-1.7459383919632643
0.644717153632398,-0.07340890328320986,-1.2754758998599522,-2.131155490078882,-0.2115014448026711,1.5549355844482111,0.3445196812267744,-0.9673142196662242,-0.7617988670614572,1.1199553002577587,-0.5039770549240637,-0.0493026358697838,0.6970018813402801,1.3185974956244744,0.7768325278485754,-0.5828498312714585,-0.3283250867484766,1.5789241965657685,1.460869183255512,1.364613665371763,-0.26035334484693506,-0.14540742464309456,-0.5862106650708906,-1.1084670852504084,1.8926085801958907,0.5872550191910669,-2.2924810557819786,-1.3696278844304035,0.7049394411618648,0.4691543243539892
-0.38197990838144497,1.1589554895204417,0.1985361219520284,0.4533376210185911,0.36349979029367024,0.4236336945413664,1.8587645115291294,-1.1738676410889604,-2.0355954229404785,1.7757026451170579,0.14379951233410784,-1.579598584686701,-0.9439928778094655,0.01761020470104415,2.0056951727214893,-0.655121749150581,0.8656604881179963,0.02163137994377769,0.7808602537706526,-1.578816537706242,0.11252775332396356,-0.24512856547104883,-0.6827494016696731,-0.0500482075077654,1.4207839264781397,-1.1870530016664727,1.3797808274500003,-0.7237789244306406,0.24330424776378062,-0.8266739709931028
-0.18322246977529066,0.7593077212216172,2.5764739258516034,-0.34119959932064053,0.36067325126457,-0.15432579771074348,1.0426859692996362,-1.2706631673448219,0.3458653680912254,-0.2142678788702117,0.982194374076612,-1.8571811466629082,1.1839786154126128,-0.018051498923333298,0.9750805032741604,1.5802604241525602,-0.11682700195901724,0.25070500799635087,-0.1726795827618361,-0.26343467103761303,-0.20565657995682807,0.38109576416081753,-0.6381553647044793,-2.261372490123395,-0.9909392356793288,0.6331272984495743,-0.17408361975310482,-1.607257014300923,-0.21880157721552632,1.2997052565600362
0.7622349444586247,1.14544934259253,-1.034303827894969,0.9907730107195035,-1.1963575329360479,0.9078088361601683,-1.5274352294009217,0.21125955391591691,-0.30419606665301735,0.0013164756937681437,1.8249122911892708,-1.0945074604490284,1.6356687178095501,-0.034925027237011075,-1.3488214522990127,1.307154433429782,1.286837711780924,1.2564169070206792,0.02689174937771827,0.1861122919919304,0.8212449746116938,-1.023557818456538,0.15080590319376586,-1.8906253542703735,0.24150425410318577,-0.5031583901006966,2.239624159026443,0.5430533837231493,-0.4301084607234703,1.5056762498750225
-1.262464783856696,1.0210919475551288,-1.3275186319859609,-0.7519091207760802,-0.06351223059541646,1.526767387107761,1.3741397269366022,1.536021216166549,-0.2290401803713537,-0.05688636365904028,0.8782162788605766,-0.18879422780660074,-0.8480102964187215,1.3596034736841045,-0.7193263511307613,1.3785909741283917,0.4169733848454616,-0.49755853396228195,0.7389812727488848,0.3272952728806386,-1.3455151218529349,0.5630867557103848,-1.3694068985232393,-1.225718812348059,0.211607856267252,-0.1886653719489328,0.41977791627569694,-0.7744971432438567,0.543074867936848,0.7198735598619618
-0.5295090237271437,-0.17521359347346252,-1.3073022297729606,2.8632257103691474,-1.6314025378469765,-1.550470217745486,-0.27867803323082263,1.7479701437303523,-0.36045358175057973,1.3861227163927015,-0.5854191189546231,1.3465268728799586,-0.4412741986511519,0.9924627693506974,0.16129199786997456,-0.0018771846052500635,-0.09643895947794397,-0.724465627316341,0.24594899106876433,-0.8933820021428623,0.7508168869601581,1.2130304652326938,0.113928554139475,-0.4065035810321197,-2.0392370058234914,-0.9202040646223083,0.8549244915889854,-0.7312295868458559,-0.2770232540521733,-0.18553889709994553
0.7326849579173271,-0.1958421688255693,-0.03451174825716105,-0.5606553818458175,-0.11642295696054873,-0.4774768023215546,-1.2894889037603092,-0.262025921441453,0.4156596959814253,-2.043752666559931,-0.25046909400936673,-0.4873721297764891,-1.6401604931448743,0.38241388351885996,-1.1654617761178034,1.8037411359334872,0.10795243530449601,-1.043155095066088,0.4946368733152769,-1.59992214619066,-1.865847146235014,1.5873690078939668,-0.993324475155163,-0.5095732122210191,0.8496357517540049,2.5835900245998693,2.086296284960084,1.7917631326782826,0.0865334385235437,0.3646935875647659
0.2713351160320526,-1.1587760271732526,0.07020017636570938,-1.0387709886590437,-0.44215823379553015,-0.34877234156675735,0.7556290642541336,-0.2555450660395162,-0.57609985157271,0.5734818432371556,-0.09412786732920746,-0.17468512332791242,-0.3945470776563062,0.37850989956871356,1.2694195326038422,-1.3486774019934058,0.019978129860753126,-0.6905612869016977,-0.4380254513543765,-0.9952423541004791,0.14564982840982055,-1.542408384029058,-1.201960411447998,0.41556205468218643,-0.5347057664406675,-0.021879797967678315,1.73005509114776,1.927408400716849,0.037793310193024614,-0.051730377299110036
0.9861585910430734,-0.9280359154725423,-1.6982242301279782,-0.6645276040881726,-0.3511406644315666,-0.16673290789067818,0.633346544124025,1.374535599891093,1.2569316667077532,0.6726269251834489,0.4556785213587757,0.3183914541936014,-0.44261212905759667,-0.9293421592583094,1.0118777051966712,-0.829131077712415,-1.3382853739941567,1.085191807040685,-1.4244880514056364,-0.05528000850013059,-0.06421748671670587,-2.0639807808193162,0.329022165032154,0.2352353322546707,1.5354857354802731,-0.7211212393653393,0.0008841006294859202,-0.5794282966001958,1.254324234694604,1.2930926514341403
0.4016312981992333,-0.5883083201126075,1.6713156637426017,0.29327713887875195,0.13612253664846283,2.1312415376918805,-0.33155512333546483,0.07903925519474178,-0.3951277780485517,-0.0223481478445037,-1.2224868829690414,1.1457533317986757,0.5425136088203836,-0.7450730290082225,-0.9889124419112316,2.3322677478748566,-0.3872248181117264,-1.2114395222118697,-0.17917029869535334,-1.3617118696847261,0.40992602126822664,0.4691446265627114,-1.0336066877421037,1.7719941741226395,-0.8586890239347155,0.16190831250641416,-1.4321631068232772,-1.0252721645167808,0.7609681317549799,0.5787868664658237
Pesos da camada oculta para sada
-2.3987111432573087,-0.006047723437001318,-0.1358854952140024,0.27468174495786246,-0.8824825103406053,1.7628915341173153,1.4525409661621596,-1.968552363943454,-1.8128418170110445,1.1968049559272664,-1.6797865486518613,-1.1493539119390754,1.5862362133077632,0.8990822891565043,1.7074029454079862,1.3996947307411387,-2.5274456645206635,0.47956742203592784,0.25512006093010825,0.6156426088704129,1.0900679732407728,-0.8308450462750534,0.4264024628070077,0.4686591078794911,-0.9820077730318625,-2.937676939920441
1.5519871635405755,0.11189679966437627,-3.959010666664466,-3.2383473052699574,-2.7029094707924552,-1.9557472504716553,2.3485754493273103,-1.6884958042809752,-1.633184601836301,-1.1173310738581026,1.1005081956954121,-2.21216161407812,1.4387661474653672,0.18419074586844095,-2.5478169502008687,-0.4406612008304928,1.9768038641180075,-2.263084853846487,-1.3223112345127235,1.0728725684741849,-0.8341047716988721,0.82550317838995,-1.748008934612988,0.4036569726273975,0.03771217317648796,1.2941082667260073
-0.4420740456746158,-1.1358302203916775,-1.8037795623874626,-0.40587794619767803,0.426123174018454,-1.0763185023548187,0.8980491284390739,-0.34145478758810005,-3.145231532819518,-1.9917527850075956,-0.4264656512620484,-1.4127425262099265,-0.0908376869795469,-1.0284576495001048,-1.5925294296475356,0.1125433006451975,-0.5965018338697966,-1.1591749982246453,-1.1879478767498999,-2.231672806227095,-0.5162698352611708,-0.6395218188238138,-0.3611475122910443,-1.868832277375972,-1.3255130598109683,0.5238983294162699
-0.2946858595936933,0.6723903978010765,1.350596560601528,1.0253281915361343,-0.48635879857296577,-0.701506196754393,-1.8808667719466448,1.5091867964923529,-0.38132690617918324,0.7628127907226382,-0.4897409475997517,0.4868435149114312,0.39411448000872273,-1.9900766829952872,-0.9391226920541068,2.2006848961062833,0.04594984382611193,0.8491213074593148,0.9798015846499764,0.04761520973385067,-0.1963484933678078,0.7093925276239207,-0.909931727504232,-0.35011612856012253,-1.1498117145170637,-0.3733062528495098
1.310676687247776,-2.5575227967362464,-1.207056123111238,1.9178741983319225,1.5376100634992012,-0.44433391370770586,3.5785886330307917,-1.5974876149820598,0.9566070639895367,-1.970473960326447,-3.2843773797892606,1.3550438797903943,-1.4176549519436694,-2.599370127283221,-3.5976442392626184,-0.5047050282005224,-1.475255072754445,1.4349692275991648,1.9532586426135639,-1.1738076912219426,1.833944018881749,-1.991779451372368,-0.5767956977175945,1.5552165229018113,-0.3864418983668507,0.7907426932256236
-0.6613395888256925,0.6073473253138609,-2.703034407664147,-2.3899042463863167,0.32092169112203023,0.9203109949219536,-0.38587563936984015,1.2455657802177482,-0.15867123484242424,-0.27064847226868116,-0.5164149298963047,2.091040646004297,-0.8352689546408756,-1.4491170233945476,-0.12684539831529848,0.7710523009718894,-1.2699457822145106,-1.9355000514350564,1.176330824755985,-1.4156148448104902,-1.3639759018436184,1.5274813595922276,-0.6537803417097052,-0.8435444285921462,0.9451427112800772,-0.48343932702074577
1.6132129785143159,-1.4624188474441167,2.645967037211958,-0.7246870594613565,-2.1781902126798465,-2.263505468492017,0.012484311224250082,-0.6204284785802261,0.026399987431519587,-0.8112644844956904,1.194691820092074,-2.8816508314053366,0.7865819822014875,1.618413833043308,-0.3928099225242742,0.2859409308135367,0.4065995830976286,-0.3655972602400712,-0.07628383134882298,0.5773143513583023,0.762750215226814,0.21899293464151867,-0.4944599599756296,-0.9641870332444044,-0.18152966805480386,0.6878901683695656
0.6939293991996583,0.20168680617989113,1.7292172518500748,0.3191576919401002,-1.342821623969949,0.7486403869086019,0.07457612731616822,-2.40089992764628,-2.0203572658097926,-0.5051747147195624,-2.3681379075792366,0.7289717110875614,-2.8193199212452518,0.5572332927999772,-0.13478781614475313,-0.44544754274091464,0.8294769369996142,-0.5326743723401223,-1.3269905916826898,-0.05803319941433212,-1.8872936396839777,-2.079544129531518,1.7048041758067771,-2.417191207392835,0.09806143915682972,-2.970000846400003
-0.9038473478877045,2.2212578784244537,0.3166137672254201,-1.7075005033933146,-0.492292570286897,-0.924967915350973,1.0065158415675421,1.487548656651602,-0.685127258789822,0.481017029667935,1.4325028699252498,-0.07144458115043795,-0.08906175119562092,-0.6732229680367876,1.8074431448483979,0.8133742485233196,-1.9180453738910412,0.9852603394914197,1.4829646806361239,-0.026316022080128187,-1.7443708770332462,-0.1922111939760008,0.4529193726363556,-1.9113784289769236,-1.1784365576256937,0.7970777516651302
-1.8788149621102794,-0.3885882112508245,0.5681383467568801,-1.6821260931396955,1.8932094743195096,-0.9968110426385172,-3.4204099961489196,1.1674138303112707,0.5620162851135386,0.028643139197157826,-0.604572822594345,-0.6590765382492453,-0.9622483483163625,1.4674259020933822,-1.4030908328236633,-1.2883789212614702,-1.2506106859355082,-2.8985087755947285,0.13279927862687943,0.15707087742636452,-0.1378498355386255,-1.3999812551664588,-1.435219703214943,0.4779477653032965,0.4771817510161735,1.5358929252498845
1.2060137395098498,0.7472573225707754,-2.095434930551241,0.6257525155305591,0.10353131876133534,1.5499413254034866,-1.5274288451411115,0.11905402250646244,-1.2878574975379036,1.06463635072207,0.4309526445922813,-2.901486870285214,-1.6509093967406745,1.4859044666304655,-1.715879608918608,0.5624231502343349,-2.6717782730404447,-1.7222881861318438,-0.32168329336625695,-0.46109107395501736,-1.615636089349679,-0.15174869855696455,-0.876760054193501,0.5381903274825623,-2.3817629404343563,0.7498396867197
-2.7599607585206636,-0.8828224814078842,-1.6010953307937092,0.22680068180785343,0.28209697695000596,-0.01059339061288664,-2.3642879775947723,0.33613016987446565,-2.404938336237694,-1.4817353699840476,-1.2717373020850828,-2.3515197037511935,-1.009081760345212,0.8543924419747461,-0.7435767578231111,-0.9996308165276531,-1.1406482141614158,-1.7500930066623128,-1.0597380989389684,-0.5625778294419338,-0.356221635490069,-0.16647761358919563,-1.3988852660238127,-0.7110019596107812,0.11431053266555553,-1.1541481396346212
-0.6104149297013649,-1.0096312105325305,0.8576824638932857,-2.277584603274575,1.0559505026111393,0.6579532677730326,2.0291361619040407,-0.6206531453309146,0.6191381725368704,-1.6089205725596787,-2.2000921000681783,-0.5007720886679118,0.4189323812125809,0.7154496766872456,-1.192544008162792,-2.4722736737812316,-2.600044568559622,-0.8312768052767487,-0.40925608993536455,-2.804599390551395,1.1341217745681513,1.244872820174066,-1.9562195630322607,-2.308871163522915,0.24135723817651195,-1.9770956674148565
-0.6270420130486025,-1.6131608383710365,-0.521585986091424,-2.113147868157597,-1.8787544886524377,-0.2127768693813742,0.6314040707883793,0.5307430818635618,0.8565551880639273,-0.6627769026435081,0.3771493267229691,1.1074206451112412,1.4797745857849731,-0.8508596897872497,-2.4384181349459095,0.7454581939438719,-1.619526447986889,0.884386637147206,-1.9398317567771992,-1.7337536423122226,2.8341012856193744,-0.6002340209905154,1.0750694638647793,-0.7021536547557188,-0.43896874908141126,0.600151503846468
-1.3747555318784315,-0.9722303281828203,-0.36241209028554955,0.17458064661548062,-3.3180405675991445,-2.4957737624706704,-1.0736078887932914,-1.051277069245075,0.8363464778978336,0.3742255472809807,-1.1763983034881778,-1.0086950133422812,-0.5023811738377532,0.2919402994741377,1.8140041251668926,-2.281668463328873,-0.23371527220291965,0.4742788216519395,-2.3888622423121424,-0.9034702794377649,-0.5465707226065377,-1.8035325823421013,-0.9034038658272159,-1.4950066181791783,-2.073425964012322,-2.234398981103973
-2.3690440243158792,-0.44864362469684876,0.4920773886769332,-0.1940678918610678,-2.5065753306489458,2.563182238068978,0.008928187637619362,-1.896600756864689,1.6971342752470002,-0.34795182088556204,-1.0703290615647807,-1.6483442911196755,1.4358366293574472,-2.2664278813157974,-0.28189529879030883,-0.5287893146823319,0.7283696872660761,-1.8232816151807139,-1.8860915940757859,-1.3805473193758844,0.32542327507612856,-1.7932233445298962,-2.2674507879084924,2.3215883584639205,-0.3289208015305457,-2.029117033607286
1.514763018933432,0.09085180353325362,-1.350634849883783,-1.8208618429184646,-0.41256210714119634,-0.1918153018499818,-1.0720239141840189,-0.3546727217038794,-0.620988004451817,0.4049398951593022,0.7790921222332002,1.6723500769120498,-2.3244382875226584,-1.9664310915584322,-0.5925204855103517,-0.11591241290458171,-1.6417034851388737,2.045753329230122,-0.3159888468345178,1.3407193734310814,-0.8168126702222053,2.7027416579405465,-1.024442797646785,1.3432684021543728,-1.1026439575081066,-2.048543468940193
1.8782462081190017,-1.26718272420887,1.736897615577492,0.2877646329422264,-1.6622672982862194,0.35525199319547074,-1.2621925451808176,0.6363538386068421,0.8122738798603377,-2.884392009789407,-0.7668163841223776,1.160651206364674,-2.035186102316369,-1.5721113113858427,-1.328334270007382,1.9887299772386662,-0.7705585588713812,-0.7769762026339353,-0.5521409017001581,2.1569325569478353,-0.45305189377732547,-0.041401291962389314,0.47349017184487907,-1.2837985326012518,-2.1700620947007923,1.5149648300004903
-1.3339556762892757,-4.077181210383012,-0.84455403644851,-2.7228593625982533,-0.03448101028255568,-1.5512601542710358,1.188136813823055,-0.7073953675638341,1.4068851889036775,-0.11050435207966097,-2.15072021316551,-0.5233041967131977,1.6609954853286137,-0.2750451131865568,0.25017999602916563,-0.04062676182047205,1.8763409552865138,-0.2683669503380319,2.689645291146371,-0.22937999952915017,-1.9869442534207409,-2.5566355378759313,-0.8850232615998225,-1.4671564910499342,-2.5374831555429735,1.0954061009930964
0.8103187778877494,-0.6270849863783676,0.6121937935549409,-0.035723666485777975,-0.04212819750936309,0.7358750071765634,-0.022908724689157025,-2.933953045833949,-1.5791471767398488,-1.3321129250257706,-1.095721139185148,0.62969857705111,-1.0740289132261678,-3.018516778152292,0.14003169274602384,-0.8254668274307749,-0.06136796058754076,0.5051432072771023,-0.30212073340013534,0.46454872085313154,-0.27377024907227127,-1.3693365974717602,0.27252781963304656,0.6533433868240609,-3.1009625759002555,-0.10541017703366633
-1.3565001725770922,-1.3099488270109907,-0.4032545967976853,-1.1437462996495198,-1.7126011248365245,-1.972665489682463,-0.832423657839563,-1.492340192991396,1.4448156276499446,-1.975482686174776,0.9585722660053461,1.7551117537225904,-1.764137727578459,0.24078582720765232,-1.2836637009534424,0.5519281521170555,-2.073337103402815,-0.35889874230619817,-1.1297502713790284,-2.0461593476057622,2.413808383036009,0.10626485795375433,0.9195170910469429,1.7457204369435149,-1.4899108214936303,0.1569801210469596
-0.32703933949250913,-0.5254587332349288,0.7282477303401876,-0.8673008894495037,0.37905674515246535,0.05952587468779228,-2.6853960638622367,-0.3543464423032286,0.9336230454394355,1.3502378714287906,-1.548726745296746,-0.04897399610865711,0.9835253191397376,0.4338049799996646,1.125216817306281,-0.9337619202516843,-0.969266202058224,1.1740777521804686,-2.090054420943487,0.8592870651254735,0.0890269314935333,-0.2514125045389511,0.5558003996726139,2.4268032660413237,-1.0120457499646376,0.34870265037463377
-0.6496403417901403,1.6180856487583153,0.28353101477639575,2.0982758616985215,-0.03953077785380038,-1.4717212509401043,-1.755382352443859,-0.6020524340197859,-0.14475253447112582,0.2290149175803621,2.210314488878354,-0.9229271761949795,-1.1769819776054993,-2.6264684979043897,-3.0739616047441287,-1.7141582767514105,3.7663319611241444,-1.7925036125042029,1.7074185228530356,-1.4546681878527852,-1.1529183233763614,-1.0028272058961898,0.9218679413121628,-0.04706764049903401,-1.1538981695173538,-0.924635092170462
-1.8084943461406764,0.9291253520829849,1.104535653399551,0.38866839236806183,2.152365621637707,-4.177921083317866,-1.3311073657817099,1.4469898904869438,-1.3466572404040327,-0.8834854747975682,-0.17403755148292913,0.4544558144988566,-1.0615008389254446,-2.001643387974739,2.2038108086462045,-0.5644407242755134,1.1024154982543755,-1.1329598980165287,-2.538187525977247,-1.542674091245958,1.033936805077536,-1.0356280491556318,-2.455530989110497,-2.074474989361645,0.4634825713224791,0.26752712784697696
-0.5869636849886309,1.9244245030458527,-0.607775009407864,-1.2333402596452039,-1.3168163106349826,-1.3315315474115244,1.2654014070169062,-1.1041017411783305,-1.7540406773730393,-0.852667912060205,-0.022244360357653776,-1.2543428638947896,-0.8036191269634075,0.15123462368423451,0.584010000415868,0.35179364886753434,-0.6586729534144842,0.47091816563272226,1.4616185303130835,-0.23270777413821533,0.3386751169462609,-0.22025727223368505,-1.042215256138927,1.3458984186663174,-0.546856480482298,-1.9745303576669169
-0.053347483888559054,2.1716532538376443,1.5781682601912854,-1.0282420359080366,-2.8125810332389927,0.47600486587601126,-1.958531438656902,-1.2047293510083639,0.5863836554836391,-1.9862730058306506,-2.7206314313398168,1.444965307915833,-0.3571903207322686,-2.3342473053057486,-0.9238298745099318,-0.8030515352137612,-1.186010756238923,-0.8046657152272702,-0.39772041599672514,0.2057727371320334,-2.847325057998397,2.2866105929389824,0.16038283391646682,-0.3952905029701661,1.3580909449922909,0.7258843717591562
-0.9818199012528189,-1.3156657052003258,0.7342170428537692,-2.0485107854120783,-0.7338130608360414,-1.6485858239880102,-2.581108160939613,-0.5532957870721048,-1.3456163185863312,-0.005724786038964107,0.23912452809871115,-2.4956029679410943,-1.0727357642130901,-0.4733148151957716,-1.251520140323151,-1.3761275278048697,-2.146658406955319,-0.16543359765416163,-1.2903876069327107,-0.3665161343861778,-3.5312448134241032,-0.6617303917685734,-0.6420398139807449,1.1560630667928524,-0.5776130112227467,-2.729588482112671
-0.946316848198256,-0.032211506292863325,-3.2457309150317646,2.710765630804745,-3.018752971079865,-1.3585093465877054,-1.4705683573569652,0.825698590162783,-1.078585190519546,1.2003227501158327,-1.1015163157078454,2.4169577020467123,1.4261390210558444,-0.6830223392932826,2.4555735705251167,-1.439297566456469,-1.722343997990658,-2.8545692782765406,1.1137207330926406,0.9362796105952783,1.7796297259012714,-1.970161949664852,-1.459287793553155,-1.5031129773717755,2.7103443844846744,-1.6191585121359888
-1.0980159137060894,-1.59392243774118,-2.0056430945708703,0.8332675034192071,-0.1994523047242075,-0.7744147266835122,-1.0616040701031564,-1.7680987982783904,1.9600230711948725,-0.3268133657980068,2.1310297437391656,-1.7169823840382425,-0.860266069869484,-1.1835237217946772,-0.9991168963980885,-1.2544515549620991,-0.1696909749872789,1.078107111186659,-1.1933986833846206,1.7504539749137409,0.3175546956678953,-1.3282986725973138,0.039412998481336614,-0.08717134894851153,3.352995363272276,0.5231511261407024
1.75183692761655,-2.1932666927475153,-1.8987289963590723,1.484132041655882,-2.2886630787580806,2.0320044380900804,-0.6131431912720423,1.557972137938146,1.1151345239791604,0.26701572342282537,1.064136752156201,-1.9696322846156387,-0.13132484667429034,-2.2167955887789765,-1.6105363021603,-0.5766197768490237,-0.26257016996330973,3.6220982179948606,1.5407059620771346,-0.45744739658522826,-0.4998810152265165,-1.9874323332157455,-1.7895823721997446,-3.2886838861809475,-0.7429272853312961,-1.5088977948543816
