Pesos da camada de entrada para oculta
0.9022568303793542,-0.21429553626361142,-1.34888441948809,-2.1622975642763853,1.1298391792672564,-1.9322374462038512,-1.9040320955860994,0.24235500066737775,1.2861667016646594,-1.9834306026999957,0.9938484517275548,0.1180563978946501,-0.7879009080816974,1.3709849859164018,-0.5223888626141742,-0.9954484880395498,-0.18600058288300428,1.661105710306788,0.6204660143417106,2.6674492432588375,0.01705388271647793,-3.485608979929266,0.9975276942536841,0.9108330051016413,1.1100077405639306,-0.7218811081585322,0.1831032126295039,-0.4013450696356159,-1.4261648052657958,0.08863693531589516
1.0767907662338483,-0.2766803965929468,-1.8126686678988846,-1.0239689368881144,-0.029970107743145936,-0.2021625468489573,-1.1883551010893696,0.2815917587989816,-0.502980299537536,-0.4407716340917468,0.5226782648926035,-2.91358979920237,1.5578564191827269,0.3050413158869857,-0.747790376364534,-0.8920994403347192,-1.0142471105219548,-0.0806121624697497,0.06876593852129322,0.9976578352350435,1.3981214534436606,-0.3460795866689838,0.2652214917742787,-0.22840052055408966,0.15809299223869056,0.6904093956477999,-1.2122237809471639,-0.13235442059162467,0.09529633439225435,-0.0064808540117922316
0.13347876104080278,0.7976016323851071,-1.6874977973935816,0.20163171126721346,0.7794941883122078,1.2616869984911474,0.20641961228526506,2.7726716529386985,-0.27594620799350994,-1.510549559585468,-1.3909232462962473,0.5473545808377643,-2.7218541578123268,-0.253086430665987,-0.6376964873527967,-1.0876604833014891,1.4871076801488128,-1.1385335707181699,1.9267669698544725,0.1835706124749522,-0.7081987362587342,0.9261459561333253,1.3653066002668128,-0.7551984712097476,0.7098435249894943,0.8490326689657095,0.6407986822081498,1.7975673108030887,-0.08967443170616692,-0.33023662698686446
0.8721204571262581,0.4794469237864227,-0.5819493460280053,0.45141809994284066,0.5632464564900507,-0.006531118654734646,-0.4097453402580896,0.32628918653040173,-0.7104102074352533,0.3553448417396436,-0.6803122831909102,-1.4430133308157866,0.9524120808651265,1.550881590906899,-2.183596932908978,1.459054757758337,1.1542559803546857,1.0841931564207807,-0.024991893957972255,0.6941981422736249,0.274002160028162,0.3334987375001289,0.5561891153843909,-1.9558577809345987,-1.9317786124485163,-1.100622507916768,2.0102404193018493,1.1054424356104704,2.434363617287824,1.4642882020306802
-0.5401105061469181,1.0396033527937267,0.8274029495319315,-0.8799614451087686,1.7352228306720772,1.439014532166673,-0.7376645185773322,2.0416751818211254,-0.0631474154376072,0.4990462229273022,1.7579069004037402,1.1475353694480959,0.24247271646360868,0.5718709560903724,0.12626876471179374,-0.42583695654119663,0.6811066941117678,0.5409958238239934,-0.6470302124031942,0.7817448494928042,0.2325814648893308,0.17585256778293412,-0.729759717456028,0.29260474562272515,-1.0518752244127532,-0.2571657770636135,-1.5061626170923017,0.12454163230293519,-2.466312441880206,0.6768403549966485
0.4105507386145483,0.6463338819500473,-1.2115426536537515,0.31749764999498403,2.383225977795185,-0.02679845063558158,-0.19042856674809427,-0.16918166318449818,-0.5289943288042569,-0.48619295799024115,-0.44171255449862745,0.8176219820378313,-0.5920741662662781,1.3640940168864277,-0.21420956265804056,0.7688466053097976,-0.07225222978982544,-0.11269093809896553,0.641498014576299,0.2898490073037434,-0.6539111496150795,-1.5012713005692477,-0.750881294094021,-1.8193033862059302,-0.657231426881908,0.5552457478311035,1.1459431303907168,0.9638833170453557,-1.0828445938657498,0.9983576839075785
-1.0095917544488306,0.9757975898353857,-0.2185169067280389,-0.6534881187547098,1.5524890031408138,0.542603766825703,-0.7690736034014806,0.35819362612202343,-1.2739584417963918,-1.0385157450668143,-0.24024375998582742,0.6794263116410405,1.86139662979515,-0.34291482634021714,0.1924720472467037,-1.1683123811371907,-0.41002961090999707,0.08688347643539508,0.26159191864985565,-0.2970146589587054,0.5466571725392845,1.2705684233052648,0.09077435297981061,-2.065744829142188,-0.9101747011849334,0.14948958934657386,1.022407837635152,-1.210774709267182,-0.17333267196569174,1.5582396983099258
-1.4017836696514128,0.486314057991135,-0.3364409639975352,-1.048476997403745,1.5154006139484093,-0.5930471583388491,0.025549710156481727,0.7709242161533072,-0.012785435761650124,0.3141247855700891,0.7773395336817885,1.498037566416385,-1.2041012210785231,0.23603853745259912,-0.04452403916329083,0.05816722260240822,-0.26011834509559784,-0.13606442078992526,0.18921481162430956,1.941078703408931,-0.6195343664566427,-2.556587519562194,1.8257038193128758,-0.3667059949885015,-0.5965827242575797,0.18289341703391893,1.8474520068897469,1.2114662975013375,-0.3760622736503621,0.37543937268169025
-0.36846907189553635,0.8048266802237116,-0.2995399516927412,-0.874935047021357,0.13170607709337445,-1.9623750516927134,1.6871153712455067,1.0300573483476698,-0.04887067166760207,0.5862260467488829,-2.2665456474536962,0.3978008520452946,-0.17224165397986518,0.2531103897364895,0.2869957223763049,-0.6905918527325698,-1.3724313663662284,-0.2628415328970013,0.5810786315501357,0.23429722632254946,-2.1340068114349293,1.0347104313492943,-1.7915210915958464,-1.6319464719129693,-0.9000141692044287,0.06229753921818134,0.43446331361869805,-0.15073738808343168,2.181641805733097,-1.0887994136585228
-0.46088707978852933,1.414447729221505,-0.4511944873021983,-0.2001983406226131,-0.561068906723491,0.06262451005653204,-0.3564892295790237,2.389998195284107,0.2408265349650606,-0.07078185774601602,0.5141335150317643,1.7134058872387892,0.7245651928362734,-1.2233212951099837,-1.4428767889909242,-0.3782555416308291,0.30411893734086753,0.5477032420076002,1.2860276164500177,-0.4106787934010362,-1.5012644546365823,0.6133811963441524,-0.3638591463863878,0.1067485555683079,1.7861610664402066,1.1349262000599871,1.1046788589774088,0.9845178147262594,-0.8141891289068409,0.36196305005126395
0.9275812377199952,-1.8667477172191687,-1.45963492550231,1.395023872157355,0.3748416986200196,-0.510651663284666,0.008008333584724173,0.09806896396079383,-0.5060412853786301,-1.4651190721793863,-0.6887600869390622,-0.4598798974714956,-2.7878464822415148,0.3096748425091994,0.358539293426107,-0.028392356632183032,0.42373262723220406,-1.265667978090246,-0.02525540934006788,3.1455139630401643,1.1505735407216164,-1.0290233324771627,-0.3637876114974968,0.6824581801908458,0.5303773383711281,-0.052198191121951454,-0.6097500056526951,0.8989144741078359,-0.6568650479038872,0.2262505980538932
-0.594723328179267,-0.25920733707533816,0.6521838152552688,0.7717622860816636,1.4006239666399,-1.2513813468063768,0.6277851130906706,0.5486852412833173,0.7772633413223438,-1.5058241897477882,-1.43335902440229,1.3299792541415156,-1.2980626331176508,0.8615516643307235,-0.0018002701069213378,-0.33131090703484106,0.1788616642915856,0.10972500023632648,0.15115744879734783,-0.9150683171160318,3.035571795637616,-0.6083865871142345,3.7429247244469384,0.4163644577827718,1.9393418225537797,1.5758610784068237,0.9408506273779317,-1.086424599099519,0.37359918648696344,-0.38142517253118047
0.7282364707734662,0.927377598180495,-1.098569912927286,0.8947445802961899,-0.6471673210855436,0.24087517403362496,1.5860715672632317,0.11004234085626706,-1.5970189726307786,1.252443550068927,0.366437378669087,-0.9680446524862292,1.2282258420574055,0.963036447253384,1.144916260650487,-2.4371765928833016,-0.5015117188070518,-0.029638659797201906,0.9807447862517449,-0.8157605002966192,0.04938669799514774,1.6175182692096148,0.7234654907500856,-1.4211652652165918,0.3782497974614753,0.6074393352939963,-0.4524453031950264,-0.6413796798773095,0.6029794668216971,-0.05709622836824268
0.15109606673409753,0.7277520567017652,-0.5470116683559011,0.9991970207890561,1.1851585653565715,1.2351196864692786,0.9393107226618147,-0.7627097437377456,-0.8832501148451685,0.8058312239657784,0.7323331117486628,-2.5151384166372512,1.073865406093417,-1.1615495670324503,-1.3772392229535106,-0.26996288503671506,-1.0282587716889526,-0.9518023282860023,-0.9371652257055042,-0.5052473361561292,-1.3547901897524437,-0.5675795995979332,0.15831063549683952,-0.3454497787259175,0.16072424526857276,1.3717521982114418,-1.0171341127773346,-1.0828818099588295,2.807788227346454,-0.060470834122897194
1.7078344740619076,-0.13259807613526634,0.6339057261461504,-0.3915681752570019,0.4666847917876711,-0.14574927019363,1.2072857321528228,-0.6761909817879402,-0.07694424211529334,-0.716093686262531,-0.7113855673986396,0.05986361066639473,-0.7961857995234792,-1.7505375134326893,-0.761865262803238,1.040068140058662,0.4430956348489193,-0.13008740764387636,0.9598909487862598,0.5384956718917063,0.1341030445718529,-1.2732007908823835,1.8689932581609483,0.14271866240537623,0.2711339919120328,-0.5157463753707363,-0.7967858986987766,0.9885097210948901,-1.4108421286854942,-0.3611696699647205
1.0046797798637663,0.641302832008767,-0.29849264144078874,-0.3406739562099016,-0.3662510578109931,1.6381096806534114,-0.5822634264207924,-0.3784598258186524,0.9535700429304198,-0.391766625022279,-1.6486986822318317,0.3170878594780669,0.7784013146896651,0.8264788024260131,-1.710908197257518,0.3643216196439972,-2.278622706571775,-0.2828109175151518,1.4412761636875862,0.755557194702138,-0.38088741651179814,-0.2594824439353766,-0.5750104597426056,2.5631013523874477,-1.2376371497586784,-0.38299135274787693,1.0846711951435704,0.11932634514352125,0.43393480670311385,1.169872168760895
0.6598996521503399,0.4530287473735544,-2.240678754380566,-1.6672201864787275,-0.949472390388317,0.6299841477598568,0.7621780945110025,-0.33816169454617556,0.6246371721865555,-0.6315038040099861,1.258115129549336,-0.35419294191725476,-0.1658530408002532,-0.1562681679167662,0.21551750351472188,1.5672686649445504,0.4055724987240244,-0.42766371053064856,-0.30971043663473086,1.0957093428687472,-0.40421512942050103,-1.1924387262061715,1.6324395473854416,0.30302594177082565,1.2169851243510026,-0.22059675362495956,-0.2568653134277491,0.6919898574225545,-0.5358361067203401,-0.32590198623023486
-1.418308803807347,-1.4022861319844229,-2.5890200269052794,-0.3726396506559402,-1.409973664623731,1.4842394907781369,0.42996380895900876,-0.4012812685686254,-0.5724185706148581,-0.03803344222757244,0.5664389893692333,-0.15478997814449466,0.921041916163255,2.5312858689699227,-0.6293057702264686,1.1941715481940078,-1.139296152586883,0.6725103659707191,-0.39722856015073177,1.333836801870721,-0.2668472836522562,-0.640442834265412,-0.23924661284897747,-0.013964627148400077,0.08055823183799224,0.1941116443372599,1.6423807844062766,-0.5003821808705715,1.8105198557676827,-1.2034364762269287
-0.8435512059313479,0.12023107847383788,-1.2596838801660823,-0.30653732411149903,-1.9450578196086123,1.1771286362363391,0.4731212096878853,0.4201073674852699,-0.008163174976323352,-0.35724338319317617,0.18613592696105044,-0.11498237118691312,0.3752394231533566,1.7711527521473123,2.0980928925609317,-0.977336880428893,0.0029149607478235282,-1.024151666698942,-0.6664203214643113,1.1935983419374079,-1.6012302519137915,0.10780094280004168,0.7132818552846414,1.244176246542567,-0.11534466173387406,0.9949750911062879,-0.8400882250110864,-0.22446025366332412,-1.0521006800792834,0.0956548401489468
-0.44605442029430653,-0.786721656903584,-0.8073078124151288,0.42878862780019605,0.750479594484422,-0.7246926659071661,0.9398034876356952,-0.7027660978970478,-1.3293400825160417,0.27197524808482143,0.7773087913264118,0.8491033023821088,0.553403707854587,0.3495195765218671,1.0867699928366494,0.3010097416167503,-0.9412496526072116,-0.37960570496549,-0.048356366242329966,-0.03921448131805927,-1.647871661445039,-1.0437176381391498,-0.9826116258961447,1.0602402248825933,-0.25014935475407113,0.9135782501871924,-0.6807705285960858,-0.23676371107998914,0.6373514825800627,0.3783380317954503
-0.3372229819951303,1.4291768956643882,-1.7343950060745927,-0.7243989954192057,-1.246510562932039,-0.8747429807066303,1.6623149983768422,-0.30560339969494466,-2.2250819184635104,1.6230384977628478,0.7166740694585731,-1.3419341356778984,0.8020342751703191,-1.010467035289152,0.10082865020622053,0.3923465162153415,-1.348082117124661,-0.31495778173401334,0.19739957051530904,2.288445338138965,0.10834989179180196,-0.5145724584063972,-1.0840448422399405,0.38589341986841713,0.6143094907357602,-0.3064779800716227,0.40913958307387804,2.1099556121147036,-0.07466603074624086,-0.9773680903091192
0.2079382012287936,-0.7970392919364416,0.5382709262725165,0.708771891002832,-0.948582233542974,0.3320320050027391,2.2081158107513335,1.9622321862281422,1.7030593539220342,0.6387248878341675,-0.764736550552719,-0.6564517065340967,-1.2361358134526637,-0.730221539804852,1.3043462226445475,0.13072903084746249,0.6668060633065747,-1.0204948708486994,-1.6021823368379393,-0.24274380457245281,-0.471749030577538,-0.7844614739732547,-1.627289404183722,1.5911918453212541,0.7558943543238252,0.3736803215061006,1.5235139833424725,-0.40782193623426166,0.39652076718916646,-0.4604418848844718
0.06509067004202938,0.6487185895137588,-0.545105469599916,-1.5591186463969433,0.8443492497055555,0.0812244600951894,1.431056475338049,1.951968300115519,1.6324633781449642,1.2732730065902316,-2.2602019617586655,-1.929866396511349,-1.206084384660308,-0.0731170252486719,-1.3519695327844032,-1.3758459025600354,1.5309857394030013,1.4009072963880012,-2.1087282157275578,-0.5305821266286159,-0.5373322028318753,-0.34649515221861704,0.20025202166490638,-0.6646059668751694,0.25942887816180693,0.27099711835907714,2.0588637908730427,-1.443865048138447,-1.9606753840725784,-1.4030666659546172
0.5378998306682117,-1.7498627474888426,0.5787069909365259,-1.2050900209686162,1.0277219763722925,0.44511451107831723,1.0915453150284877,0.538557858652823,-0.4475324359203615,0.2868161247802962,1.0036525121342514,-0.9044433764558272,0.9301150920072216,-0.8527869393730934,-0.002833166783179531,0.3916647200991835,1.1559892318951597,1.210155191296128,-1.7188534589086373,-0.36267919468391835,0.08174107954272167,0.2176856973520391,0.780854771504901,0.04342347423109165,-3.3071623612970007,-0.2530680584550848,-0.07861515401884783,-0.42917595137217374,0.5026713240420533,-1.4956660583887487
0.9846800867483794,-0.09870294400583558,-1.1591152881747244,0.6229648774671707,-0.24538706466541724,2.5312868959565185,-0.438854410284479,2.271727304218793,-0.8755866199200115,0.6857623808530124,-0.2112493319360521,1.2186137169869724,1.0606846628735265,-1.8376320529690824,-0.008893414217312446,0.018635649838146487,1.0215479339189817,-0.22112399307139946,-3.019602311927788,0.022388390362341515,1.711088371244463,1.3362787679428918,-1.5554468377807578,-1.056327957977673,0.9502661492492118,-2.389667098940998,0.11268138487267439,1.8320737756287286,-0.9839047570449416,-0.0714045518421932
0.08479882090126521,0.01270622759241949,0.5806941278165951,-0.02514719936220648,-0.8071523321904821,0.5772279789857945,1.1439499926965877,0.09325188432371917,0.14554621603639686,0.38322793432416163,0.45893644651995535,0.01754134379717634,0.03665231673860149,-0.5214557856135391,0.9967842617571671,-1.7444084772887705,1.0150415764926881,0.640932816021265,1.597624826671042,1.3315281868795776,1.8108478565663644,1.4105381691136982,0.4576560859864727,-0.19267809146260886,-1.1626626825028414,-0.45176321846984746,0.2403657408098971,0.18561788258472756,0.19221206497901394,-1.1724178552708218
-0.08534615149374539,0.9461462276205739,0.25770671063962564,-0.6800792325340039,-0.12460507757294602,-0.06097122138411356,0.1696887657390605,0.05359203623596937,-0.5125695230481295,-0.15104040112066708,1.6071753362149515,-0.8121772598093481,0.13628526869624874,-0.8696646594802968,0.7056951326525569,1.5774589690180625,1.173305735236082,-0.8971373111283213,0.7573902373294016,0.5988276663945679,1.509105181153137,-0.9658492598808437,-0.20565923777992995,0.7284823508903139,-2.0127690088327155,1.0627145260569097,-2.5956084993536943,0.024088148447442236,0.3661386203926153,-1.327273107605914
1.0555619592900147,0.4692399553643905,1.062401595910042,0.6804437044945407,0.22693317820773073,-1.2350912111851575,1.1638680866024236,-2.286875709811227,0.023884551820991376,-0.0713520643644134,0.7658207330538849,1.395658507960948,0.6046516128278778,-1.6927989960735021,1.125202617851815,-0.9554905993900721,1.4822437806261506,-0.31066439812174346,-0.43031313901582413,-0.6458712739550373,0.8419024650291128,-0.019617186161747992,1.7132108356207716,0.20309894858154923,0.8235673253702379,-1.7118793955128515,-0.12119129314207484,0.6481084694114371,0.03446102511009376,0.5472527418337083
-0.8299225341651469,-0.9310558147381897,0.6322355778534031,-0.4593612774506979,1.544115736606103,-0.19313833666538596,-0.3840337628550636,0.9116495062323539,0.92572106713843,-0.58969748319579,1.9445579275370701,0.05242434638266477,0.13359643503113605,-0.9355691813596061,1.3095563757718274,0.6785432943974528,-0.7892551923103885,0.10918680406832594,-0.995180130203542,-0.29617840558447944,-0.4041709097715818,0.7298896408811669,-1.0648624114156904,-0.2501385485476304,-0.6981607852952609,-0.5954612269228253,-0.25535054834261245,-0.9247943174225114,-2.1757160054025237,0.405523377818237
0.1256542157794346,-0.18418949633884252,-0.34073140803920715,0.4021645870697249,0.5690102252128388,0.6215564199603275,0.4420598449710553,0.46355722021820006,0.9790524593116979,-1.7605433553052083,-0.22817355528387884,0.5053286639355654,-0.49380954404333627,-1.3433942225379032,0.8413188531038661,-1.5696439746420936,-1.431562783483262,0.5514265774218731,-1.757983307333683,0.6587305025755991,-0.5684607517800758,0.16369379182993316,-0.5176859233015899,-1.0966672992984343,-0.37146465697433495,-0.21291531910388165,-2.752623800660849,-1.0442150981667924,1.1442365221840414,1.8412699954758347
-2.1019201306703024,1.3235190192437776,-0.44870928127501647,-0.18272339458145237,-1.4219578297769766,-1.6513488013481676,1.4318086052765038,-0.7744870046734182,0.8659750123400862,-1.4489448274393453,0.9942396415529037,-0.9805529778374055,1.599875763682791,-0.22015602415688315,0.03653731277159439,-0.42739571810400245,0.4874642113762341,-0.25460678148093985,1.0202047912095202,-0.5177558860738285,0.4544280817405597,-0.6719890892962601,-0.5871724368992312,-0.44007053115440264,-1.5585974543029264,-0.45145895033521144,1.1438978480914754,-0.7646187224414115,0.1813029693894774,0.03689821402657259
-0.06091064063870728,0.09107627596044858,0.2546773913209949,1.7017164730974388,-0.18966327719070528,1.99995770276714,0.9048170625625938,-0.9177471652634672,-1.9311442358238955,0.5900766112915176,0.9458940279914447,0.3019693372381003,0.7502406413135069,0.005023640959946317,1.7317176957420688,2.1412305552051776,-1.2418707500642852,-0.7794799798101604,0.07292223257144789,-1.4495334274439426,-0.5998971638085715,-2.487864125116755,-0.7901699430911909,0.8933841399036156,-2.1628795498882574,-2.272119998367298,-0.08161226031265843,-0.8819256752074983,0.9519109257618884,0.13278406869307316
-0.25499810989732574,1.2713365782473656,-0.5413009351021658,0.0528143684801624,0.7022478918590499,-1.431690012535864,2.1288402838033917,0.8129263384903767,-1.4590513667350624,-0.3162121364240569,0.08908819625179293,0.18032387671876363,0.05708959644702414,-0.4665357383158947,-0.033538311730333496,0.631460340766791,1.2154085312596103,-0.017237340237879123,0.4496568660704767,-0.13431318966520198,-0.13909961448039518,0.860224487065013,-0.6421749088971253,-1.2412876370575467,0.34529218513017856,-1.1902127711822255,-0.14823915718571323,0.15435876032636325,-1.5729938892430788,0.24618872702936126
-0.19909335342538725,0.059646734275753135,-0.21847750627935367,-0.3138543491292221,-1.2721451323899102,-2.418799798746443,1.1215093635436058,0.8738380107088879,-1.6471995145346785,-0.7268190919851137,-0.6804100678599363,-1.6721850254674342,0.09108767214947246,0.5469236521783521,0.371456263858707,0.5653857475634169,0.07977415645581121,1.202587809215472,1.1253824786227646,-0.9565089942279383,-0.7194666955981047,2.1038738687701986,2.000504495905907,1.1930360863675564,0.04798881448150691,-1.1696970536739633,1.2773191468082503,-0.9636007807435606,-1.3425982863126282,-0.8796622310356996
1.9082237480211472,2.191787293718443,0.5058754156939032,-1.599673668009836,-1.523486682409874,-0.9382728779594667,-0.2361546122013525,0.9967555293911162,-1.4920145743422581,1.5407456157931076,-2.335831398687898,-0.46398000122911476,-0.470721838695937,-0.4962927060143479,0.8169384897540132,0.18669168805608446,0.9950846044944004,0.6882785134928091,-0.619890335245498,0.6025608155327679,0.8045410429732838,-0.16306046877523855,0.492769124229104,1.3479680838749957,-1.163518301191158,-0.48682352162352444,-0.031022480846887676,0.5458010754078112,-0.3808278427721133,-1.9263918677273923
-0.6009019169256251,0.27888016006652583,0.34952737589576693,-0.3557615287296115,0.9305639692897576,1.6589713042014245,0.25595767600125,0.0900478834390446,-0.19193316277531472,0.8423836210496755,0.9106247357232711,-0.010118399515434532,-0.5651233557296592,1.1151164816860148,-0.2588982311678617,0.22476330624250052,1.1079123918069391,-1.0304101231757778,1.8525661386704373,-0.7014772262412884,0.5934427133393915,-1.0716170260044187,1.70298443867073,-1.2142010112277197,0.5889469259544383,1.8558587895877796,-1.0838576801983717,-0.46631182898541657,-0.5903771663178918,0.2763059605342986
1.3045357384084677,-1.1366729645576212,-1.409933173932418,1.6834966255045607,-0.7550252330866022,0.540456560344318,1.2289172413382183,-0.15288088514772014,0.624443951547176,0.3202666349684012,0.34287742969132046,1.3597232762911684,-0.25429133219455946,-0.7540797106428621,2.8734123157426446,-0.3187032239418527,0.5123419487596639,0.47770617173623636,-1.551634347039242,0.9484177154462003,-0.7435669844996647,0.8768429310217045,0.590176179173132,0.34250871689075857,1.381744515819631,-0.05196027856276876,0.6501150843688375,-1.5208932757278972,-1.6042680651783294,0.2811157779013117
-0.43157025042520936,0.23344263663390133,-0.6773785464157119,-0.33974496805575466,0.8908512105956647,-0.3614195910558058,2.247252023104121,-1.2111813325572403,-1.0896890523038745,0.6876807839410954,0.1310080087928981,-2.6896809583829318,0.18460555376755486,0.2113662945348162,0.34833462958073175,-1.2755422368882758,1.4832279322688604,-0.98834646357849,0.9413328914900397,2.5724734079055307,-1.022688619811039,0.7301597613088845,0.04227661017837554,-0.1550777316776254,0.5125963788915621,0.8717555330686321,0.6234841784475254,-0.31104426097972065,0.1018416130081542,-0.16034443552098004
-0.24441873392868435,0.48983862695148217,-0.33467996773829006,0.23665386998212692,0.5824928425549062,0.9561579986695783,0.2549935771288571,0.40639730348621994,-0.8558104962031226,0.8193843791976482,-1.0620674635244411,-0.06851055922309354,-0.5803289417599518,-0.35856864661101423,0.5059563834140152,-1.245058116671116,-0.6642321444712522,1.2678891560615586,0.7951695414190263,-0.4893173722664365,-0.26384195390606024,1.0550768880934094,-0.19931399877854708,-0.9108207907637169,-0.044075938083530206,0.061179736604150194,-0.8477883317862877,-1.122414403986676,0.04474939515323823,-0.8537444437863669
1.2941846532356491,-1.2617856929947329,-0.5353630493152648,-0.8090354567648032,-0.6836867177642176,-0.25569465441026257,1.1109905661119204,0.027103577766790305,0.21626266710364617,-0.7730909522495305,1.954414264220149,-0.009589880275977482,-1.7118073757416956,-0.16037520967669194,-0.64604143771116,-1.5747078072681235,1.0697543846838626,0.0169887544196349,0.6854387952394768,-0.4459124519020734,-0.9732673104821259,0.07789071644252447,-0.05953714368056025,0.5417405933448214,0.5885548547400757,-0.630583257408434,0.24002948316076744,0.14451189737179643,-0.6414270875079938,0.7429851693181883
0.3047062027204847,1.1162766516571063,-0.6967130004126943,1.274314773336167,1.4368305234129375,0.2170007083978474,-0.2368434617729658,0.49774160168766335,0.6685535248877879,-0.8155609251179499,-1.7127160375771915,1.006077176995684,0.47768399935418754,-0.39494808635546697,-0.645434780595066,0.9057813512463023,-0.3677704099316723,0.4092702473540547,0.7604687431748194,1.0183674735356136,1.8519730309981464,0.15538098074814555,0.48099394182223365,0.5873296495294493,0.08695063992151017,-1.3593550043793299,-1.5107539518897182,1.2444624642097706,0.40673354830461245,-0.8834344687025006
1.6041654282961084,0.24165839272765427,-0.017734849024616094,1.921274307285784,-0.6629745904854661,-0.8572914850100006,-1.174463475881671,1.043577227972592,0.14904325473877678,1.092971839030193,-0.4858754898173665,-1.2535849055171104,0.8842635240910659,0.13686615561499893,-0.8649225901271345,0.5972171530248859,-1.3849611186007103,-0.04037215898027899,-0.8719799128840586,0.3036085806161526,0.7391754735706086,0.4968811878348205,1.675184268378427,-0.23799152755868186,-1.0019496011598796,0.43027687983164326,-1.0133228782466053,0.17243095985968343,-1.0517261022274969,1.590008862425098
-0.980296562562972,-0.041188558852501445,0.7393256750030307,1.908858134767604,0.5899007175376989,-1.5186293940800177,-0.7072192804801696,-0.18482391055398276,-1.1308225686679338,0.45085400783735663,-0.9810519689948214,0.5301693483043664,0.46950188859590786,0.7521950833757631,-0.6046458014357105,0.19246897049617406,1.2269526446034607,-2.7274506952027484,-2.597207382257818,0.19515703601660517,-0.41418525928276245,1.6577739318764668,-0.5299944663283274,1.139978221151378,-1.4665481538489382,-0.3186239036667567,-0.6219767475969081,1.4703825111945965,-0.15317060606132366,2.4771800970931066
-0.1081542173608243,0.3457253305772395,2.496601862410397,1.286519453288717,1.58701583593124,1.0966505583408797,-0.22622657285755038,0.2571978957473873,-0.07632028979755111,0.12475934832838118,0.5562052927246427,-0.735060880496459,0.5316050491489472,-0.31461687472212896,-1.523568305830179,0.445132985030675,0.944503277875263,0.844937968696999,-0.20920035830905528,-2.5541359983041936,-1.6428716651320598,0.9186904002291263,0.35714515976292555,-0.466104564885152,-1.4326239561319007,-0.5678845423890758,-0.594047860417826,-1.8114502038211826,0.8954890049902443,-0.23860911260664347
1.1574282135639495,-1.7491351589961595,1.0421276440236895,-0.2447982828903559,0.4485544515101622,0.9719825764659902,1.0347585683579563,0.39663426828401255,-0.4183604215736271,0.20195974652060858,-0.816766018850786,-0.06867739069024771,-0.00486081939434504,-0.017282056560661983,0.30925616007720125,0.5871852340891912,0.9134279697921478,1.3506843967723743,1.6448678792966287,-0.36671088842968264,0.2496306813092944,0.8848553704010472,1.0488991035253619,0.3899722423573511,-0.4298403749683915,-1.5587815175096318,-0.2413296421350417,-1.4227717079858129,0.8506587878012094,-0.08563131277264349
1.2406301654018106,-0.19732025046212195,1.8886763417583836,-0.5848870881383413,-1.1309724160925163,-1.0242262780185898,1.1550893842399137,1.7167620511712887,0.3499525160106883,0.0854961131646402,1.3060297504562257,-0.652391137284133,1.1305230317267128,-0.17699909644244943,0.8793853257107181,-0.10866068813596612,0.7779980969099827,-0.7287251165625593,0.7448415487788584,0.3910160761210751,-0.11804185403321431,0.437186972314716,-0.3260148914939277,-0.04247412305107382,-0.825184653880068,-1.727323368916708,0.02762175919803112,0.5254559146874312,0.4952139455397022,-0.4534075168144711
0.9772011967162935,0.5063633173118676,0.7780056336823871,-0.3887555713369515,0.3262543821135922,-0.9748249395826293,0.2714030397354197,1.0328202778296018,-0.6574668021904375,2.732045849299794,-0.2276737520286104,1.2378419250628958,0.09141872796268811,-0.8753536597921878,-1.3641260449442627,0.060299509473056546,0.6858379222307858,0.4677393834535374,-1.1332952470569164,-2.453664933576805,1.6300103567093167,1.9460329881812664,0.14357079756376184,-2.0573396503259156,1.115940027952993,-0.09590331038797323,1.458238670050933,-0.42002492401402963,-2.0627451439201643,-1.661841647477936
-0.9593481004439335,1.6793999014838639,-1.0452152449818402,-2.185874714416927,-2.102424585356884,0.2941894180000803,-0.890235092432768,1.6015629681279602,-2.4947800118327774,-2.584622222539314,-1.9861959534984817,-0.46762211669010145,0.8388461945174865,0.02599272669878124,-0.2781881388301666,-1.2625312748563897,0.9280931493574733,-0.7588357910238418,-0.4148637590053953,-1.421141870507208,0.035157027175713645,-0.8325916695553306,0.5921668444747201,0.46342191564575275,0.8838675366872597,0.07713198850652746,1.829603890413862,-2.2896558317155935,-1.2195001579800768,0.3752712925711484
-0.04863459449992188,-0.5877143263966416,-0.7973539863290512,-0.178443756979015,0.3487153493196066,1.4511701621146662,1.2573599052875608,-0.3197818584317286,0.163451225261732,0.54239494254485,-0.8411027860220067,-0.7357397509673361,-1.239861561531777,1.520810222312103,-0.9309300283812223,-0.34074301360137355,-0.921936221020159,1.4933629786980551,1.1179129004661144,-0.02215949991932714,-1.429236050694273,0.18011847746162984,-0.2515582920530692,-0.7394864899936845,0.7058004449088453,0.469867720952281,0.6729092954027979,1.521038422177651,-0.5033237084562229,0.2516267090563314
-0.15897402433404895,0.14991704411583193,-0.39066885630756204,-0.5003831634674119,1.4955894216701013,-0.6274789696719687,1.6472526212895133,-0.0784324491092068,-0.6562511849949588,0.4665533738346312,-1.0255860958497596,-0.5150372556396414,-0.17734579521603192,-0.753079417900994,0.04407766903126694,-0.6082558782641266,0.544005453346156,0.05688326534306983,0.9593511525824374,-1.7491947097161322,-0.2003370822655109,1.3818679993535328,-1.9204715831375945,0.8775119795213157,0.30903206843402986,-0.442714940890414,-1.0644705043570148,-1.5012798773840046,-0.9208643785056927,-0.5954961595663265
-0.12310433372151239,-2.1797953041941205,-0.06604078048368417,-0.1717866267806548,0.1357129844711875,0.9082728115351052,-1.715144398921331,-1.9028162445095178,-0.4363537611206478,1.5405962890101161,-0.4033549026663629,1.4334829547984593,0.3811549331238052,0.28409435753096157,-0.43833769633641473,1.729384969629568,-0.5701962542071513,1.8872662804583031,0.23463327912487705,0.5989408276336295,0.25598125479827505,1.1106855858795845,-2.567256706089827,0.5911982751292199,1.3227712695192007,-1.354904892984319,-0.021667842905084816,0.6427588122109392,-0.7455304281865299,0.2543060674775166
-0.9967974332306759,0.884913803857129,1.54493419268027,-2.538750646837503,1.3595360428706271,-0.2495510007574907,-2.158750078316698,-0.06359688295824763,-1.1178746414959102,-0.41971091145375333,1.0211841698988382,0.12365483905219449,0.8343858248688515,-0.898466094666326,0.9743048481121416,-0.6172063181291971,-0.13528771249425928,0.7852698910852114,0.3894516258594129,-0.6175274064570249,-1.2326121388894142,0.6959818340272419,-1.2543572946301225,-0.09204105965294275,0.3555159263500449,0.9116686417447118,0.17712225307226265,0.927599499673522,-0.4549722631223882,0.05903634727791084
-1.1205741042184485,-1.3505964867452438,0.6919467122569269,0.04318855876455341,-0.3390500953455418,-0.8571089333802375,-1.0220998737588172,1.2674528496563258,-0.4977330616843073,-0.7799118642043984,0.7196369497831447,-0.4177992968940534,-0.6434386940786537,0.49813585983893,-1.085131748377899,0.6926887431986332,1.0141068413838443,-1.6141760183726173,-1.4443243105388068,-1.6405205328957007,1.8085781515320372,-1.168460536488449,1.0497866776069797,0.01817871661605306,0.8290922607227764,0.4337452286291192,0.10096838334821168,0.9084813139356761,-1.5201986433405201,-0.19717115826773063
1.136108122414508,-2.5592510853242167,-1.737259206806722,0.6635952366073877,-1.7336212839177845,0.8432561755511856,-0.28422884208755184,0.5351102677766741,-0.6724468687569002,-1.8986848119611814,1.3978473948391328,-1.7224768704716982,-0.19364161241910702,-0.2241600519453336,0.251632732224819,-0.21794210390297955,-0.5116532655719007,-1.6515655956978734,-2.113993532924729,1.055502597056682,-0.12159929989218494,0.3192325399348501,2.196296482729379,-0.10910721071130115,-0.7885897526036151,-0.5737958161390763,-0.1332308005413474,1.6607704125270815,-1.6771519017374914,1.8695385511774463
-1.3409083269916253,-1.44656454748944,-1.1318093884269307,0.6290371905730663,-0.9017031397359977,0.4924582346783363,-2.5982517674420906,1.5071805020618854,1.2445243108501693,-0.5685635947027117,-1.0133033624719734,0.25283442791815275,0.17365349218303802,1.0246792640956344,-0.5546005192180243,-1.6835425061478064,2.369952469903201,-0.06325820517733637,-2.041433562782859,-0.8964212010572601,-0.7825060510635892,0.07574993210041556,0.14722065279186386,0.1612509476517938,-2.042601117257266,-0.41651550297537776,0.24876038965617261,-0.17928655040725774,0.8592183080179118,-0.2899531990239072
-0.9773454321149618,-1.1093507445463517,0.38411682772828476,-0.6962568051575198,0.2559855778664993,1.9796822083388828,-0.6115201863617252,0.09344210235087072,-0.8997460144053852,-0.6210190310883241,-0.25831646856755,-0.5771267940797086,-1.5139186230368589,0.17467266366364176,-1.041049015500858,0.32228340817829615,1.5336300489668755,-0.28626535305168394,0.6898618810290316,-1.0957839897800883,-2.116378011808162,-0.15861417052362464,0.14670300879473783,-0.28825244815439893,-1.5657104614661967,-0.16389681840475287,-2.5538187021291083,-1.1559000879865124,0.5809160502341641,-0.8706004045481093
1.6199718234795455,0.16362215141497607,-0.2396150094151978,0.8897010653091019,0.2693224977828666,-1.313737852529952,0.4545895679909048,-1.4648039700824895,-1.0137399255910169,-0.23786454841387528,0.9431383154959367,-0.4334092619452732,0.7717449837275588,0.849968992173011,-0.5967188547740642,0.9448821552628293,1.46607822581227,0.7544728175764622,1.7198554677823121,0.37147257889299073,0.11876749789611052,0.23502041503929672,-0.6723941079213087,-0.4609125559963402,-1.5250831145673496,-1.1855846819166367,0.1224780429392803,-0.2789345375678172,-0.4857525995546238,-1.9782797564326824
2.1263012806593506,-1.4723902996709501,0.19620960015068392,-0.5056172570665783,-1.9555474611798516,2.1746593583659632,-0.2366782670396679,0.14534777860588774,-0.04846281920096701,0.12144110902583356,0.5211142123716499,-0.5642250180971509,0.4325212360618303,-0.04569508104989797,1.09893722450694,0.19372679201346218,-1.6223469055230593,-1.984376293105127,0.4206181435248778,0.566612049195868,0.17175487974375403,-0.9657620025538023,-1.1411323470290728,-1.0441500642705912,0.33135774126298084,-0.38892811774439495,0.5689432987719798,1.0260712126136988,0.23921806801356776,-2.615452370382364
-0.25075839478038375,0.0689185474049652,0.1020036840988974,0.4799459900562338,0.6291564155539461,0.2895948369078211,-1.2888496201679753,-0.4166752548433549,-1.0400616310519135,-1.1550796186366914,-0.7107687337108738,-2.2101103459469114,0.6364641363917382,1.011859924276325,1.1015621203024455,1.195499910002652,1.1600856110207816,1.9096746215057852,0.9138282754639382,-0.9172011238912617,-0.10573629003571167,-0.6427028691090643,-0.22114503373307598,-1.3334296468786915,-0.8396467587819311,0.6777375713779449,0.5403833876254779,-1.2052763295988997,0.9711947702431883,-0.6121784992450802
-0.30536486612029423,0.03255809735453762,1.818481193284465,0.3291870721560773,-0.4504138543504082,-0.9791472311992597,1.861298570761631,2.116854715356222,0.6008668138429715,-0.3310290371614462,-0.22015808755264293,-1.149792365584583,-0.3640778306904393,2.103572493799737,-1.2217645543822797,-1.201949804274342,0.6347422319310978,-1.3198918938140909,0.26658946502446396,0.6986224682663879,-0.13658244728029928,-1.2775873918265455,-0.7471922947956422,-0.4163422783651896,0.4920320574430649,1.5597505741932391,0.229828362720164,1.474158346717461,-1.5410364506777823,0.7193740375240667
0.0505577765089383,-0.7780269042048448,-1.1814768676314242,-0.5442168952521791,0.7753377053962348,0.9084738457015871,1.804573420694089,-0.0658096282685476,-0.6754962139100342,0.33806620577597335,-1.4067025873133787,-1.140774861530837,-0.8817809896758687,0.900241521484973,-0.5121452321771234,-0.32291538176232787,-1.3819380162876391,-0.8796907389286973,-2.0638774740569543,-0.8266004107261571,1.9220019086876037,-1.8173819991481848,1.0990253053892716,0.8389707778969492,-0.5225042216186723,-0.3763934793803894,1.7348459745735125,0.40182810721783413,-0.9706189051200129,-1.8928328373777588
0.20991158903838386,-0.6597842452948797,0.21964296387701296,-0.36790061859968637,-1.6177507180022161,0.7408815944897277,0.4032394169111688,0.8794823726560957,0.5545108781691214,0.09956485086138205,0.764515817872161,0.285691939368273,-0.8917734417742904,0.2356228964128455,1.9754013486817785,-1.8579720350583875,0.567219204112018,0.2082514454025593,-0.642165200865645,0.9272545893264488,0.9752019505381008,0.6472440864612765,0.38305349834387337,0.5119417747277574,-1.0091208804284153,-0.18508699528132197,-1.1079661655720834,-1.2140645571646034,-1.5257717681374974,-0.649321070770348
-0.4984163381822132,-0.22306389027834433,1.63690638315295,1.8048562494074252,-0.4513175403004727,-0.004060477922693845,-0.22618753328685026,1.894233223430358,-0.0454881387836098,-1.0009749352046047,2.602602552113399,0.33202214576476496,-0.24272611137112735,-0.6789317720535603,0.6784728479752433,-0.713654675789686,1.1133332514989622,-0.3478880076033431,0.4940510224932995,0.3639087935932572,0.5879895320786838,-0.04854807239190524,0.5424506711729303,-1.7840213328790504,1.8818505467402222,0.07357066685906266,1.005165485309097,-1.9971075107784815,-0.2719479170178484,1.0788492015812572
-1.2849167703422184,-0.46605117995145934,-0.1007765458076051,-1.929331311020696,-0.792916589298151,0.7228806777470641,0.6305190895941648,-0.4618397356974865,1.6382049040209352,-1.4906211666379183,0.568077834180196,-1.0720295638036652,-0.4659455444363135,0.6077914000938198,-0.7002361790293344,-1.3445414250714038,-0.022756318635287737,-1.3125294750792338,1.053644557620865,-0.13428646021040566,-0.8242774148331226,0.5666277618078637,0.847019366573544,0.6872114728997055,0.6099933231884492,1.033425411982849,-0.265679349397133,-0.2360649895448983,0.4163440278414249,-1.2433087732212844
-1.3697413314864293,2.136281330093501,0.2341575772390395,0.7135140811041487,0.007445846535126975,-0.28443559308657895,-0.03263555914031712,-0.15435551644030024,1.6004431617830215,-0.3331967045685476,1.8029564786881858,0.597877074349,-0.04681088950224171,0.39837816322247827,-1.452421305943982,-1.4880540410384275,1.1688818093338609,-0.00629517925172545,-1.3723733702210767,-1.6356042798761836,1.9283606055291302,0.6172278208355525,0.9152844728218285,-0.03379511908603135,0.0871518892732024,-0.28044293209151666,0.49814655571088234,1.8026135503206604,1.5391692850349858,-1.4702580405289836
-0.06157591475946591,-1.2025221072973642,2.4666627370327117,-2.0427987918693007,-1.481063912565092,1.369073343990377,-1.2993435242918794,0.18100145422440322,0.8172996534374528,-1.3276459828777538,1.3996177793515512,0.1279702285021464,1.1289977069083421,-1.6531733900428593,-0.8115691398290639,0.8203682347558158,1.1298952489023875,-2.3324527803502284,-2.016122443418124,0.2849334989058316,0.4497356774086412,-1.5686373245803957,1.4323885834476053,1.2234920822295714,-1.0845569433253788,-0.3768543543274368,0.2269285128792313,1.2649877476375364,0.36899623875449955,-0.5022360370231419
1.1213126931322277,-0.4399108665579617,-1.1891259672396235,1.5712222772721154,-0.03392562419878122,0.10012098578295785,-0.11177759559253186,0.8801250792444735,1.4927985080738218,1.7582047337475337,0.5706328192794106,-0.007694729748413671,-0.10654184620510765,0.5049303905258904,-2.651313877886303,0.194390748259546,1.3572765309248915,-1.671821081387211,-0.3175957665375955,-0.628039362717697,0.2703556743679806,1.4083654408023365,-0.3363895927906598,0.11690833173043944,0.27435902997393896,-1.4344062937980402,0.12782422227667462,-1.3668145134079162,-1.6405060026881686,0.4701332340937699
-2.1476224688243484,-1.5385891657977928,-1.3102778135867221,-0.2782130042624929,0.9577179523735475,-0.8329440161516872,-0.24057096680272455,-0.6100666816471378,-1.1184843273099963,1.6296795974644207,-2.487965939430428,-1.3325280113739506,0.9585993173155554,1.6861110751458732,-0.47898270642853485,-1.20411097764441,0.5753104455920937,-0.9786504841154652,-1.3530501773539483,0.49115671854323434,-2.3933860553329955,0.43813209601317316,1.5990270610006467,1.460294334171022,-1.5398845895267228,-0.093037112912108,0.11068763499504969,-0.42281539616188646,0.9719562591493416,-0.7760782469727334
-0.789577408011379,1.2032467288983753,-1.4227942459059646,1.6133632043613848,-1.3144125778112579,-0.5246840343698355,0.019488974388915305,1.269256717650028,-0.6237894988208981,1.1930150496171976,-0.5582594252878003,1.2422901963750068,-0.6504786017569376,-0.8263045540864244,-1.4200529345875952,1.0400526797219565,0.3051560450046951,-0.4904460440267528,1.0152850380879743,1.5727951847739299,-0.5647477289204008,0.5594174078381059,0.8794860763301903,-0.17154007662276108,1.326598605015889,0.3365299974249709,0.08202319814532325,-0.5557794877185617,-0.8441028825943024,1.1032995845302596
1.461592495892021,-0.46560959357150566,-0.7018998919364862,0.2693094161130833,-1.0978561778334939,0.6109037660015845,1.4051820675029554,-1.4299565780468453,-1.3707198999166224,-0.608257730534347,0.5612830085662082,-0.25947228901152875,1.6268591488772974,-0.0755397479627182,-0.5785368864797641,0.08195951193282326,-0.9127875457566607,0.6487677891458592,-0.42948732679151813,-0.8526211071950571,-0.10306979536866599,0.8602880594650869,1.045370207622812,-1.2743293067494947,2.2327861132208087,-2.204316127787431,-0.5092535124368551,-1.7601319554968742,-0.15471358714655112,2.9113681257833854
-0.8035209013968423,0.2322492138484222,-1.0856343592762243,-0.7591463773670537,-2.0067485563507765,1.3486502792441666,-0.8703314090893586,0.890196974440649,0.40305021273906655,-0.4296771548945269,-1.1197542610982383,-0.041604177143112625,-0.33294566617248267,-0.362205061230071,1.3217076888879618,-0.9659703054507618,0.7921467448597544,0.21887700201462773,0.5372511962297158,1.0726023530789062,-0.6571527045495118,0.21277745298428968,-0.4821002581442611,1.0337511011584586,0.028372822329410113,0.09437407261671496,0.4008988744061913,-0.3396032534955825,-0.34458522217147897,1.1735389782606331
1.1444057110609123,-1.2763836171498875,0.9203613072157095,0.5014803609163245,0.4207062522918914,1.0367124319080825,-1.2133482153042692,-0.49279612446247617,0.46569875818815437,0.9198840482761904,-1.1169274522318713,-1.4681646803105688,-1.7053596318942086,0.4032651571510582,0.35948910355790736,-0.5077438361684818,0.4395633806387108,-2.350341449133788,0.11965862211572795,-0.4766593604649344,1.135541845341266,0.06424458680650506,1.3275284027887009,0.00999892998653115,-1.4319202325734837,0.7519867664512406,2.0717336302559697,-2.660940767899308,-1.2317989157985352,-1.274083871053455
-1.5235517717291063,0.5803245682839293,1.4049917902468845,-1.122539364489281,-0.06405202229554433,1.5970293693850541,0.033677140420529154,0.8728416932994725,0.915178434696774,0.2935527254298249,0.2875154446526565,-0.6026526630555278,-0.9065857953976599,-0.08565913800254192,-0.7706717071088375,-1.1408142257424618,-0.08785321365752279,-0.26350111159465267,0.07530672454224137,-1.092768035642214,-0.30216262724940307,0.223008041110894,0.2073722053145314,-0.09347555265694993,0.5179727990364713,-0.3575969110761196,0.9231484449379983,0.8530089119362849,0.8246635025239287,-2.021908049362519
-1.3306380556339348,-0.9773908620502644,-0.5764144112914892,0.023156078651850025,0.3566559082525454,-1.5981751221513647,-0.5820614323142381,1.496248169948246,1.0992293015943746,-0.9513929637456188,1.2095743461887167,0.016678896936846946,0.5543998955973142,-0.40720884410551955,3.102069189001506,0.358997301924545,0.7805143359686014,-0.8581022888355827,-0.41720851376101525,0.38546661424509704,1.3840302876163173,-0.9930634585448729,0.5038904730326029,-1.700397990145232,2.007458211275265,-0.15416649967396226,-0.5619468948255346,-0.02271174527605163,-0.45232801986976534,0.07624628399216889
-0.7020097610332533,-1.0119461541111059,0.5667151830197259,0.5896729480279803,1.823563528944645,-1.089871439986267,1.2807129713683068,-1.3466969041331152,-0.5103293219517361,-0.6497667379526791,-0.1057973902017145,-0.11308046999410334,-0.6293064927700709,1.2450722481721896,0.38913065583487855,1.7057172115894461,-1.0777039346642894,-0.4070197614080493,-0.6798324443334446,0.5874367148401345,-0.961259064047434,0.18253543585785761,0.04751843436321783,-0.40487625191292403,-0.08807020057644795,0.41341714769748256,0.04762594023214994,-0.8303042777507389,0.7011862633179237,0.5473072873672912
0.11030302553850747,-1.0402101983682515,0.25803750395647734,-0.5566187203585444,1.5272128078523628,1.4441652078844944,0.5763700044808084,-1.9725432768356277,-0.5547566424790294,0.35432610776231577,0.39812159671165465,2.2719444223821768,-0.15150336854468044,1.2908783101490542,-0.3592481634725197,-0.8858550392963053,0.5402239900525097,0.22146375827605863,1.3769395259247628,1.6890819020325323,0.12752880287285182,0.0024156605252777775,0.05194979451601106,0.5533895536238588,-1.1933393488214217,-0.1657514315805852,-0.9455565621167995,2.1050904216250443,-2.99722390355851,-0.7461901341901089
0.5705039027377061,0.0346549405416961,-0.6362809038278887,-0.6473440559566837,0.5056895703014982,-1.044656056990052,-0.0879141553676146,-0.8372093221625839,-0.11845682496696373,0.5491053171650968,0.32199375221308385,0.01425405203652149,-0.7444308996883423,1.5989406319605013,-1.737870728779974,-0.8565318316569415,0.5596916770893062,-1.4672229997910764,0.1408491575291234,0.7779332796305375,-0.08905269419353634,0.37004816597011936,-2.1950850728699436,1.5837884036303544,-1.4904723507419748,-0.11732198926863503,-1.7557622369716914,-0.7333681710736931,-1.3584353908945572,-1.3282089981374348
-0.11891926813968344,-0.6038194160409482,-0.5844227684343516,0.9666963718526025,0.22582096736560256,-1.0848162264196628,-1.169393106977411,0.25560526430935065,-0.7108627124692215,0.7543106119880129,-0.018250431611359724,-0.4841869953823108,0.9688662845490373,0.6902509368470775,0.697416068631362,-0.34752370958986445,1.2958785057173747,-1.065201695713253,0.4263880819805383,-0.04094086451893979,-0.20637609595105913,-0.3841601998246631,-1.5980907150139039,0.8558623467513518,0.24402262734334784,0.5403155021959437,0.6758608698556821,1.0472972328462353,-0.14861695170669104,1.5807358072081719
0.6849955186803934,-0.0834688207761738,-0.0667317381187982,1.1666629357828677,1.7366114383663684,1.803718058351544,-1.0178940295639116,1.0242365501309876,0.02612000999127942,0.09673875716347356,-1.6086291995928612,-0.9144496926976212,0.5581362820674904,0.7981230177955533,-0.01881531766034148,-1.4956726316823732,0.3176151386903255,-2.800766914391838,0.6897309198870847,1.8254058040712156,-0.41875890161867163,0.4830781671274355,-0.019884984405754962,1.2608379346776948,0.35609706545546144,-0.5629304185788367,-1.299038500768571,-0.6220580993503557,0.17599101504219822,0.384199186736358
-0.7880081482002326,-0.8672969112121329,-1.763390505665528,-0.8130161921471751,-1.6643394709385275,0.6429941946727411,-1.5633167188926822,-0.4157538979458059,-0.7798441839853139,0.3659764257687766,-1.3733495891052823,-0.8640223611488697,2.49127563920829,-0.46272058242233116,-1.3285499171778652,-1.0157754924486522,-0.6964273054610343,-0.2220172176959771,-0.5564947936958538,0.9552342024467788,-0.33819809939740086,0.034006579006391965,0.6611767390871001,-1.3343012690036022,0.18855760147812356,-0.25411185481681936,1.1704202856127628,-1.6795982349363947,0.9888350762548719,0.3207810982036252
0.3213034330671212,-0.2515429834198403,0.25639717739725754,0.30158410565899024,0.3219054062406635,-0.09765211626893684,-0.9999716156080245,0.3191173907408957,-1.2611298636989723,0.6049058880973897,-1.3027402894572484,-1.560134892185262,1.9735500805594128,0.2407832239315579,-2.029459877718428,1.413748956330305,-2.4883491542577136,0.003129632414419338,0.3789824154822517,-0.1933637264002073,1.2842670468755382,0.742668313277349,1.972870439351744,-1.4751407072375928,1.3341036335195273,-1.1115860750108113,0.7433864355758604,-0.8707285922630086,-0.07254058698982375,1.1970845360998967
-0.8552258260960457,-0.9803477369925242,-0.48316585179147825,-0.6625225168620992,0.2911352377845395,-0.9021082815178412,0.4409301057175216,0.9855905507498642,0.5290320112515897,1.0520110247956362,1.0475823551543528,-1.3892242961778891,1.1742502908157342,0.6468840286829283,0.5850923687758729,0.6519871189554457,-0.032516107064253987,1.1652239785764231,1.4963589900397547,-0.19949809646198127,-0.5793815406776123,-0.42574590969185394,-0.2981034009710807,0.1486367162706702,0.446455081178839,1.1868483041945723,0.7644135323029301,-0.19755416354795402,-0.9303016398908316,0.38371408583477123
-0.7367203298649435,1.0696991521879609,1.41818033004191,0.722074581125244,-0.24043719657090704,-0.9764847122793427,0.43490127854177757,-1.0899439035632112,-1.707324027074869,-0.3699894837304825,-0.9893765700437688,-0.0015715437197374963,-0.6604098074278124,-2.342338735307373,-1.7586189625218858,-1.1879689041717336,-0.2695764107491455,1.0644749500603652,-0.9031567431442957,-0.8132595468987825,-0.6070972184604169,0.27961774439575804,0.48058750667371697,-0.2249751956033453,-0.889034465747559,0.4928461977025995,0.44260527510038133,0.6905203197036334,-1.1500734675613367,-0.12697844628327787
0.2774214684950168,-0.22936326593346856,0.5030975640805381,1.7415254302739376,-0.639219076898876,0.7633482232898159,1.0786176314699691,-0.2005156846116799,-0.5008564394775462,1.2179171435902647,0.869272115948728,1.1378637107367562,1.6385096597091646,-0.5087494615198752,-0.13017612144383167,-0.06621368412081023,0.057854924003205674,0.5170062224892122,-0.13170297776347525,2.1974039028746444,-0.09859369897954194,1.0341299978730885,-2.0125090680056,1.8351296168529867,0.526278225784936,0.015270704756148692,1.013153321648005,-0.572109291454683,0.2630372131739831,-0.181915956354096
1.9077358550117185,-0.7940054217431147,-0.4913254822070541,-0.01720010903377919,-0.3297799815144832,0.017717489841515006,-0.1293552052470156,-0.16337188240617218,0.26545231833283245,1.8584085395538579,0.7341452998305706,-0.9737186856564679,-0.6722971034193221,-0.4850544979103915,0.035974166993949175,-1.3560263919965196,-1.0067412335277497,-0.41649085863803026,-2.2745961222121838,-1.6331275775948546,0.6064673827968666,0.13410334310003577,-1.339881161672629,0.20324171968693946,-0.9131535053690734,0.24732626134596045,1.7887013615320881,0.35335721161919736,0.2401644405525909,-0.054387015092033496
0.4379434372393084,-0.7590995206090022,-0.7692824121998184,0.2491367129279461,-0.1451283827926204,0.0647165238873726,-0.5694801015157201,-0.8571515015563154,-0.13613617350903431,-0.4692934358848016,-0.8120566350282394,-0.3550614934564268,-1.9750664739921515,-0.7770081055607,0.6200374413085467,-0.5357155017087676,-0.8228188910612623,0.6875690245268108,-0.6319506646275894,0.29723249156857123,-0.012646124832895863,-0.41404793803040496,-1.2199747811927064,-0.17673413826991066,0.37613787508720287,-2.089955680215632,-0.5820038646185619,-1.8831215221553825,1.445311545201508,-0.9852133509724261
-0.9981339104638389,-0.9751160897220253,-1.0624179124395052,0.6290432272007391,-0.18821494606368788,-1.6785566765710296,1.1604721888657683,-1.6376242221169395,-0.18661146688932326,0.07047022234282482,-0.17632213922522708,-1.1166513082360452,0.38065626281880266,-1.2096767290105692,-0.2378546195163817,-1.5377016596575517,0.5615295389294069,0.004288961259552512,-1.836971934695982,0.12142173254224507,0.2600753331358736,-0.5765666264897722,0.31416718074419664,-0.1337813275625113,0.11851632629791253,0.7750585045654232,-0.8426134196612848,-0.09108337920489241,1.1637422381553304,-1.7615684086272738
-0.07483257465319405,-1.1937607078278418,-0.3291091767847749,0.6404741383853294,-1.1492816696995911,-0.3156359442350872,-0.4045976810412214,0.9628247246597565,0.9913750846122665,0.5586609842852835,-0.08819008264165173,-0.3002457950826071,-0.4783784727865205,1.3036660857588511,-0.7870479615682103,0.2272251760103968,0.023579596920229633,1.1221277875587337,0.7455825804490578,-2.0664276009464246,0.5037258047423945,-0.42831825394144607,-1.176093413815666,0.46651027549776114,-0.38771172476139576,-0.23457954446633694,0.05465353703235369,1.2545421282413707,-2.4362847099687115,1.0913429424543017
-0.00849583750431382,0.10818643728016752,0.5968991819497748,0.18166600152345794,-0.3579629609222911,-0.1740665684508248,0.690362805733467,1.0345184971093027,-0.5990528942478276,1.332247843300388,-0.677859124596799,-0.6716812123442534,-1.5232800624387965,0.4669987238014188,0.3310036535486563,-1.8811290159934915,0.7234693692260917,0.021649091754669558,0.2991581907280727,0.8767679840657019,0.5266209257719954,-1.2838557382327214,0.6194242665325393,-0.6754299718771888,-0.8270336381592621,1.1902500472819741,0.9835706254772376,1.6687614752368496,-0.8930893706049896,-0.8580850702851966
1.3437633433512866,0.19001464024887496,-0.6388322897225917,-0.7211847081684672,-0.9782586678752186,0.20600763024940388,-1.8006646279135823,0.2648950408267143,-0.6978511237698704,1.6588736588533164,-0.42206660208183966,-0.29742941418026825,-0.9129851449900294,-1.8254298424665247,2.305204361104763,0.7695288375145662,0.2711632933196949,-0.13420476577292154,1.0320549830093495,-0.4012882298357846,-1.5573138450515767,0.03240114906009208,0.0860941486065234,0.8770365462567871,0.536687938359123,2.106220909945816,0.7068639824193161,-0.8956420878058556,-0.07392214143745433,0.4561046256396839
1.0855982477350417,-0.8882378223575064,1.0024584743688847,1.1596828287182044,1.1066950309422923,0.5248536219959429,0.8755064122065074,0.8333719608345079,-0.8660122374824215,0.5712857903274277,-1.0982430825058611,-0.06767977727796232,0.5055318941045154,0.5379538317572001,-1.4337472208516884,0.5463964665964325,-0.8187093222236409,-1.9878573362271528,1.4257054303837493,0.7524481177385166,0.6782794751113923,-0.5310795617297902,2.516394765135599,-2.1061226317683124,-0.2546137265459188,1.4930834812270768,-0.04007663754585347,-0.37886360741994385,-1.3282583134207422,-0.303008336701637
0.4819612953329824,-2.2471285067160034,-0.7932949060363382,1.5921110267199348,-2.1715179481768643,-0.4177408608001636,-1.2845296185229649,-0.8400047138861108,-0.14773509742696106,-1.2614572916980757,-0.5123198302507324,0.6751137424301379,0.6336515664562498,-0.09011384205870489,-0.39442721675061754,-1.4257834175813922,0.24253806388224952,0.18648521891810207,-0.09065979551557089,2.205477009946974,0.21448067607340784,-3.017006496401991,1.8638438553026169,-0.545463758738268,0.3884835021332599,0.9773023047179092,-0.6368783027893381,0.4720593429619271,-0.7595223337394718,-0.46007341504502114
-0.41934424096669193,-0.9896851230080933,0.5368408880217785,1.2285658300503992,-1.4519108834305037,0.5229662672759178,-0.49458239154210004,0.4217868272281265,0.5157090804267107,1.5612183716720347,-0.5112592528256128,2.2710792138801774,1.0702870563143358,-1.5104349847332077,0.1318363814523817,-2.8317795233158707,-0.3883848474387821,-0.13455632251282268,0.8591372054344929,-0.31174855051328326,0.17214146665792843,1.1221544498007694,1.5053179361632174,1.4809579479315105,0.006788957514010627,-0.8421573397504446,-0.06354021261365211,-0.3036806403309184,2.115209148548368,-0.2932992073792776
-0.9301784017991117,-0.6697465452095893,-0.316457615079537,1.5859794831266756,-0.46141289444708344,0.5860662437071558,-0.02629286501954515,-1.0333082087459284,-0.8713409609147047,-0.8524431073745954,1.634621536693036,-0.9198652610245713,-0.1317793350368153,-0.3161050495758496,-0.13572207819319282,-0.049260380967677285,-0.9061774273845041,-0.908288386015706,1.7222656539297159,-1.0172534857981568,1.189566453031813,-0.2780087672042548,1.3414712828296835,-0.9003209447436091,-0.908963419091233,-0.4054334297421378,0.10412484587323884,-0.36046898621132484,0.7144437425066062,-0.6228642616942733
0.2035754870007718,0.8134207430160685,0.3648833692150188,0.20188047758222638,0.9185125953597928,1.484834588498844,-1.657331614807851,0.10422504202574918,1.120436258120148,-0.33300650635964785,-0.068084521435841,1.188820954158583,1.067484507731241,1.45982867993283,2.0250043963230233,-0.5293016653608837,-0.8470589566501585,1.1611578325710372,0.8851927553048865,0.3930674997355207,-0.7784146903158903,0.03485738681484742,-0.44432075493389556,-0.03701825079328094,0.7051107473668682,-2.112609608039803,-0.09730509974349338,0.362221442591403,-0.3778368612359269,-0.593268090193463
-0.7798135096601111,-0.2392907620976962,0.6804687043013669,1.3767879309408402,-0.08290992569352713,1.924124936756927,-1.0363558646180082,-1.0595814988923093,-0.7507921272017727,2.1313004218703093,0.14393787751261294,0.2282334310375216,0.27118485177332946,-1.5079067363400522,1.398554977380036,0.2043077087408491,-1.1976728524713172,1.9762667849712126,-0.21933725558042583,-0.31805507462258936,-0.622247303004601,-0.37491030684961385,-1.0580132290250777,0.7050862315696267,-0.5303039626216268,-0.877682276131471,1.285842088554717,1.2228532496522144,-0.7661997006414109,0.5200339185353389
-1.9442706915364918,-0.1313741185951015,0.5197571155719956,1.5194583062808948,-0.2681434479223488,0.6254609826652129,-1.5392896395960132,-1.6749876568903028,0.06225660947970712,-0.8404504299554778,0.8744253636794522,-1.101754260815051,0.6584326713744227,1.3918688559863484,0.748838873822531,-1.8573160785159801,-0.3501298235127714,-0.06670441371488108,-0.08237886252013844,0.22338023077785982,0.1842777803948811,-1.3036908599199308,-1.3047044768756397,0.12943676899453058,-0.27683564437269725,-0.07340843491730446,0.34536594740499493,-1.5566462312860738,1.8074491142558409,1.6543517576757951
-0.9849548572350135,0.13057599559735142,-1.0247670184283013,2.2126365663899414,-0.37278426052398184,-0.3078382816821993,1.1790722382829253,1.1907496266154307,-1.3191152713495997,-0.08645759839570098,0.007450595724918488,0.278937053981229,-1.3132535148334368,1.4915751109959086,1.5009770832152307,-0.08550065189058549,-0.019036300973766046,0.3516463874838819,0.3417569345127583,1.4597202714042086,1.8182316890047414,1.2304707449979453,0.37887210767501944,0.49839010682785495,-1.2319366474889548,-0.693647418890949,0.7769289886632117,-0.9917266873807715,0.3987400369569299,1.9929422226763938
0.29051063300580343,0.6585930321200117,-0.415578079174964,0.07633751929171388,-0.5047493276016882,0.8181871941370863,-1.1657429806386674,-0.9923924985177963,2.3202240777749803,0.05980116691203238,-0.3409495714604726,-0.4348219822408044,0.17340553572318043,2.766633019704339,-1.6730153688005918,1.638260471333587,-0.6703363176305969,-1.1931612259248998,0.0026722036029741955,-0.26605367290694204,-0.4575636531767071,-0.8034938852619739,0.6570094256088416,0.6272999396293265,-0.8587646860089768,-1.6285489158648172,-0.22573687139681892,1.1804220311784022,-0.6377717852467355,0.9540270316498549
-0.4722417324691413,-0.19318653973396224,0.32916598153274435,-0.171413898235269,-0.15280877093459008,-0.45054173991461344,-0.5065648835187722,1.286564884193483,-0.23236063149059044,-1.1872260824853669,-1.1152694539320833,-0.2654218604985492,-0.406189573222575,1.7458828584332793,-1.196039609677607,0.6975481165301954,-0.3639413696638933,0.46815225709247194,0.06701097421856478,0.19851270871985296,0.30748289551958813,-0.3303284682387874,-0.18114010763671798,-0.19414594169539687,-0.1527547723473182,1.2323285265607715,-0.06943196504654689,-0.7231523758215287,-0.16547141390089068,-2.434987048922443
0.01972218516886546,0.03446950697898402,-2.8700375386754504,-0.990174792307408,-0.053755381852704,0.9174916764230981,-0.40573517631386813,-0.6696713636428195,1.2483833825925867,0.8324734076119876,-0.07911181889058656,-0.9886149664001544,-1.3928981991041018,-0.38087177789248433,0.11986825876816308,1.481558288449372,-0.48171595699572317,-0.17466354783786597,-0.4465118549652701,-0.00824133732083271,-0.3295538569202677,0.8672246238536251,0.03833611825376393,-0.5640217030554004,0.7183645156464278,1.534712302846844,-0.5243092460064145,-0.34431546649688377,1.5622235632541213,-0.471824100567938
0.5300110337836178,0.6321995566436336,-0.6583495169278756,0.5771541511469922,-0.5725139649873294,-0.0975780967591243,1.1685722058227044,-0.024423179975524293,-1.8641444442178041,-0.2552426334504814,0.5450943694778226,2.1397520146149405,-1.1773486625183949,-0.40072975220858703,0.5753618985757539,-1.0652503879254864,-2.1048236099830735,0.35021760153221543,0.08480592496959179,-1.0533896922258223,0.945128031565894,1.3166920501949335,-1.6227777568704371,0.873496831894175,-0.3577304053295328,0.2651900958621401,0.348269639477663,-0.8092480143733569,0.6408746719579311,0.6256706766352816
1.1015583663325144,1.6366785038460787,-0.7156286262768637,0.8029428716326186,-1.206548391599466,-0.10671483785199605,-1.8372093910239786,-0.36522966090906356,0.17525708674807988,0.41123397165240816,0.24405212842024376,-1.2455731429783163,-1.191486178242035,-0.3103980150209622,1.4894120450136616,1.9077547018701966,-0.6310624146533126,2.6073052702887116,1.357671342330518,-1.24264099139584,0.2745024966310443,-1.0907422955893193,1.066782908994773,-0.2709430543722108,-0.4828260504541028,0.7375122151507633,-1.1028179096642448,-0.5363186626038308,0.01945973866427493,-0.9600358854993414
0.4730285075355942,-2.362785429273343,0.0653394491547942,-0.27317805893711483,0.2590771871109832,0.3362588170208808,-0.2898856041841171,-0.2634997624492726,0.26165569480578216,-1.1154666820713361,1.1739327042129701,0.7451270429632645,-0.880477112238854,1.6186723780643781,0.3156742443294825,-0.5529061626236861,-0.5493961064210282,0.21894183642169893,2.014857481982486,0.5376940285395098,-0.19340367438438485,-0.5460896848970276,0.4464067977401945,-1.7855122431088677,-0.34326009750539704,1.4404785281874222,0.1501050775668688,0.393611069703396,0.13812394091567312,0.7383876536571322
0.447874354999594,0.7664039168972652,0.31422501960377863,2.0111371653525563,-0.5142243477061677,-0.6243214660861932,-1.6796416940479895,-1.345388430438353,1.5895210446041765,0.5261053761307724,0.202421285963253,0.7581495209266639,-0.31481232802350806,0.04043326530666967,-0.4791799475302106,-0.10883696619547033,-0.04956161028878317,-0.44346818341748795,1.529940089732634,2.039430094499268,0.07375974629411132,-0.4463788407823478,-0.7503056480954697,-0.7128221517974165,0.6784346611606327,-1.37902483044362,0.4709967321894072,-1.218720611701654,-0.7736737273425754,0.16560863466674242
-0.0042131951363158305,0.9496512259020619,-0.14511900172669223,0.2578548713269209,-0.7599888460839811,-0.2237753452106739,-1.0422003535194373,0.26484406668190497,-3.9710629440733927,1.536558559683203,-0.38354436988792706,-2.635296489357306,0.36962466551006934,-1.2104225255819294,0.4878934536596291,-0.08986800529730249,1.1511838851799427,0.05984581548750637,0.618877515166768,-0.8653728298673797,0.20442210050269163,0.34552839849573963,0.5160362696964004,0.5387284407452706,-0.06483706804227614,-0.2176586048121495,-0.5162965564136573,-0.6322128482962448,0.38201236569795605,-1.1427951995290284
0.6859916941445451,-0.8899951442718019,0.6793289605325429,-1.130931830625438,-0.4249027505831329,0.4329110491622926,0.4631501160428982,0.6707525393377269,0.45814222103284064,-0.43701402035622583,-0.3141920760982313,0.5092572368208657,-0.668664979048846,-0.9961282064769157,0.7567666584797809,-2.3190640399993074,0.4351075418608906,1.6588555449573008,-0.7062183729585629,0.166613803154094,0.13435630051416647,-0.338043300775118,0.6027595622665481,1.5171791541700295,0.37404984218093756,-0.551263803490663,-0.2307608966057466,1.2924025926817202,-0.7074948323548682,-0.20602651208563244
-1.5382349979928278,1.8537054606723753,-1.0858801483182308,0.6546749918973256,1.8224093861269501,0.7021537164493185,-0.28447889490739975,0.45132890367596606,0.0755390015518855,-0.5247930614648109,-0.06005933347925954,-0.02155129723645937,-1.8370004645576425,0.5031371980759736,1.3040158638548485,-0.06580007532783295,0.1690123837382754,-0.09867259118984427,-1.0348026415407217,-0.5524341103487538,-0.3431961295449431,-0.14316390538566728,-0.2977391578150183,-2.1535826860375886,-1.152420804381938,0.2192058764551909,-0.8068442362972157,-0.9237146863385178,-0.9295650642143589,1.1177220960502434
-0.18361201615907477,-0.17569179325284007,1.5539058558265124,-0.18335809457450267,0.7939140706860932,0.8818343915554238,-3.0776172560556603,0.9367797450084476,0.5987780714183994,-0.1797622069154307,-0.06518495688474042,-0.7402050575377522,0.9383967080785532,0.17559784527947164,-0.1541130012847913,-0.24578077673422735,-0.981062283466898,0.8747902145243085,0.6210566968655268,0.12849504815779447,-0.6658258893644744,-0.841244322384591,-0.14711733931312493,-0.17158293255028012,1.156415648599863,-0.1327167304331115,-1.4390574956721958,-0.801267838115885,-2.171525072860766,0.49959711592847633
-0.041393146078592985,-0.17348882036454666,0.7244595232746658,0.8807557721801539,1.385084473382647,0.009305292143098881,-0.37167031982444104,1.385260858673586,-0.38414219632983365,-0.3996897944989099,-1.2420427553642739,-0.16580154105942224,-1.0553165158755309,1.2523035712115804,1.0702199230936134,-1.3867501063017655,-0.115325590536757,-1.6583327745782706,0.8612815820123967,-0.8112381528592251,0.4816920674128743,0.0054922453034117495,-1.8497968546333934,-0.017928338372522567,0.21123322153329918,-0.01185065352411442,1.5081522061938073,0.3400750227454422,-1.6865728868459324,-1.3600630934146594
0.23333219062153868,0.9354437525538203,-0.49639277015304173,0.6197088321673804,-2.1809039524743077,-0.14008216357584316,0.537137704474379,0.2772544950071709,1.7332540021943397,-0.3275794505045404,0.3162628619725681,2.5283766544947497,1.9205328392404835,1.173956638546674,-1.2594352872820502,-1.440338285610052,-0.0655722553257048,-1.496073866466637,-0.28374032141751904,-1.1922398989605338,-0.13047536909592744,-0.13552173748822638,-1.1338308970633073,0.9778339791314353,0.405180977429712,0.006670988751021949,0.012206016578822169,1.4818579991866028,1.0515026265605572,1.361978746310518
-0.9103728876670755,0.06649304392340638,1.0116421273562415,-0.75665885960046,1.5284713786846718,-0.39645477108401345,-2.090157306080213,-0.031230834171604934,1.367009964647918,0.12042165799347586,-0.44104486217392985,-1.0082616838058012,-0.7357560494093053,0.5823933028223885,0.3547617281586283,-0.6525268980526471,-0.9120119073650076,-0.4383114801348082,-2.073796178708664,-0.820820706410553,0.3732792054836876,0.0109723521863914,0.09970942149684199,-0.8973301595948707,-0.355170211714755,-0.8097637973962407,-0.6320726191393607,1.1637177160163854,0.9994988728847987,1.4386874220006516
-0.27854791653344524,-0.4913950530070298,0.6069038259210008,-0.34930948102462545,-0.6381497845664826,0.4830002995732178,-0.567594821201062,0.20471368955471161,1.2037277196019784,-2.6506110559705935,-0.07234001296118457,0.3337407316067824,0.014123800270452468,-0.39226466368978313,-0.4520913378270971,-0.14244850234956236,-0.20015047161274366,0.5446634878980859,-0.7346296712459528,-0.2756548007391467,-1.6719491158429596,1.2429991900090276,1.0965689782429404,-0.8169351526365165,-1.8622886789681592,-0.06043705488955524,-1.9744395971501802,0.7574559202844581,0.3364300154247842,-0.03643368391681947
0.3170544982324223,-0.2851621375910738,-1.520214865015594,0.561216824554659,0.35689483721599574,0.4743166990854744,-0.565332848250466,0.5440792223948542,0.7475679011030706,1.0533362439159042,-0.11576004488665824,-0.7874744398997608,-2.7560368597234675,-2.359264985365967,0.6469060560825945,0.23539744768958937,-1.1151958597980327,0.050235850946779945,-1.0235202671897403,0.5415850545956186,-1.1874873551298823,0.6818203079187808,-0.03433037491835491,1.1163663578267726,-0.5135694659961022,1.5338949413104372,0.6822491710226145,-1.4187982960663634,2.117986107433223,-0.020505074971855986
0.731153995131611,-1.1363272812411374,-0.14875345532185505,-2.1454412470692716,0.4826472068184295,-1.3705696822029843,0.4948438153012778,0.02263290108893609,1.8052303867463904,1.6581714427484333,1.8660919984834916,2.0467092616612486,-2.007881955001273,-1.0709404168832284,0.45554572534869375,-0.18294804157857553,-2.2211802803237646,1.4233267921422783,-0.6795007284143977,-0.26159886433739243,1.4830418221756179,-0.6721372525039668,1.0916589031234043,0.2286251824138077,0.795682892050538,-0.3213238087673643,-2.318844191215718,-0.8890306242614765,-1.0198777606502643,-1.414745026546835
1.1758578912533961,-0.5796772202542096,1.7177916520034007,0.38092111198814677,1.032019118368095,-0.7840918839017746,-0.19348781772211296,1.7953881666268507,-0.7081669365578982,0.9586544003510014,-0.6125113622770885,0.7397823085182512,1.3934284220870654,-0.906240689060376,0.0734773007444891,-1.4199730313436827,-0.6376391956280814,0.807733369054545,0.5918337707307102,-0.5385713103502401,0.07465380619181237,-0.6560404939830057,-0.04959213470353256,-0.29869896655176786,-0.5917757125285834,-0.01912544420954257,-0.025473644186510477,-1.5870097367965417,0.27692972917147246,0.9371837440459254
-1.0451313891231202,-2.511375994546029,-0.6501379490676831,-1.5096939683952284,-2.4152663946373925,0.125676052295962,-1.2423620294097768,-0.9825099556152264,-0.18112814258417473,0.6530118964643592,0.38505849881755755,-0.44898524836894593,-0.25268831934406594,-0.6407206800796192,-0.1333325677934401,-0.8911053201283519,-0.627348086300624,1.3634665704480482,0.47917020915535463,1.8078400702909057,1.0201488692178584,-3.0812978731584577,0.6475631498189117,0.38302172550644886,0.08431746027700426,1.7365435925332167,-1.186641085450359,1.2439850503731824,0.6509648497748894,0.7797257505361676
-0.0203634736674248,1.3101392993812226,-0.509165558939341,1.1830037189764235,-0.6125288192273352,1.0438520379685166,-0.38732831430755893,1.5735187539067146,-0.8275098687710122,1.133127123724139,0.7302091704721542,0.1198409374838623,-1.9438763672485226,-0.051791367013424364,-0.30706023073105077,1.1677494616996265,0.37237451649053904,-1.194373523721701,-1.6349196087053819,0.6320421099693214,2.1408306971395663,0.8296307155294596,-1.1202344714454215,1.0755963935423096,0.41879492871641133,0.17416309105135971,2.129667148387042,-0.7303869688992332,-0.19624165781933844,2.176642676835484
-0.7178966809219985,-1.3026139714335887,-0.5877828939186833,-0.38242239918624715,0.07273383318349318,-0.2744848477007333,0.033917165017856854,-1.2512203041227286,-0.11353541409828945,0.6701557859904868,-0.19855075058804622,-0.07446911591381795,1.0128729643699779,-0.306242621034349,1.2199540053962743,-0.6185018505238882,-0.23679798509355138,0.7098722499373981,1.898376062557691,-1.6282023913289259,1.2740832233604917,0.0788117408833513,1.7506003395973266,-0.748887732102042,-0.14996328251720323,-1.0785908152201331,-0.5046552542450115,-1.5472336761380352,-0.9504794162991989,-0.7339645247133619
-0.005916155134888953,-0.7145449136490413,-0.9341532136925725,-0.1518002297182209,1.2693802515862342,0.5739920142647331,-0.4857806501652526,0.7352084171638331,-0.8787322696742612,-0.024469264654705013,2.3084625318294942,0.9837696439050702,-0.32717601706517796,-1.1350644294189378,1.0181109610170536,1.534539602369678,0.36854965275734614,0.7352560800096755,-0.21837966016635302,-0.35732183318498606,-0.43500297574969,-0.19422141672511126,-0.3048620406978628,0.46439762702640164,-0.49096320606870003,0.23301892834173799,1.4439896282543718,0.2772799864599107,0.5914316986602106,1.3739851987785041
Pesos da camada oculta para sada
0.8295339700945062,1.4190001569121449,2.8582983811680767,-0.06442399947074401,0.9575293139251556,0.2483778268211079,4.190076054971712,-0.03868489353073186,-0.8916077350077579,1.3630810387027859,0.2568993092390242,-1.942178684782728,0.05867092586294121,-2.134675237615809,-1.6551690426191399,0.9685795223291399,-3.3271069053946034,1.1418026512026187,0.24868371083137017,-3.04054879619535,-0.5472913338087241,-1.8236588717120308,-0.5838558655209424,-3.9683449295145437,0.1651153280962457,-1.6556969498226304
-0.525521163651932,2.0358990343082435,-0.3816124289809968,-0.3208691103377402,1.5669611266273444,-0.5093321355040531,0.5205859320439601,0.28535621394470595,-1.971573717607438,-1.365153836951546,0.6400490571754787,-1.5612825863508006,-0.04052758233961281,1.3499135605941892,1.6709684871899284,-2.9079052953121027,0.5913002917880702,1.6935584010462743,-0.3256872968150224,-1.1086493997753846,0.11275995617539869,-1.1811351747062024,1.5893650205561491,-2.2742325902464122,-1.5434376627321738,0.5557380126252159
-1.997494769575879,1.526132556275111,-0.4063775218099075,0.6605897998771807,0.38449293790800615,0.4617303070614273,1.5523731233653042,1.3136462985401283,0.36427928369699547,0.476197602944875,-1.027626734491294,-2.148560004705239,-1.1796329273049506,0.21188017441605173,-2.0078412759949824,-1.3872520111369797,-0.9125650979723531,-0.4483157070689013,-0.8169865099448524,1.224466142232076,0.5154202245808043,-0.04553533171003251,0.44754164798734,-0.23225024151062942,-0.37523082279080205,-0.770049109969609
-0.40826695679846897,-0.32353731996902835,-0.3437834281226717,-1.1379138155095547,-1.084536760723255,0.28515464681313474,-0.09302415709450795,-0.41803163456506537,-0.8098122591197789,-0.244278908577103,-0.3123857062540821,0.6008572430204673,-2.579861085885284,-1.6628810856865646,-1.252559617306281,1.918533196779863,1.7957916352384808,2.2243332831055738,-3.1566430501862244,1.8119434482130496,-0.8235986005466555,-0.44385665786485184,-0.06398296544316254,-2.5134224539103402,-2.406001496679587,-0.6880182535535233
0.12421491057466147,-1.5578260562446746,-1.4680763010149291,-0.6579255897344896,-0.8213142605318415,-1.465865858146801,-0.8888418131543759,-0.6948083186731866,1.4705445312013656,-0.5068641000899431,0.10875985852880674,-1.6507937236586414,0.6257830716740805,-1.250670444398416,-0.25484128216407137,-2.3559688236762324,0.5581542707203416,-0.9588211308457931,-1.0757748774894962,-1.5007281445235046,-1.9555374190447539,-2.4803910315555893,0.5765145888001081,0.020231848341547003,0.5313586919591525,0.7350258071745986
0.32524697381854806,-1.7342930611818568,-0.7178906165174982,-0.923463576822977,-1.4530609331168074,-1.3087501923228226,-0.36082145012528005,-1.1587271959499275,-0.9213720891841347,-0.9091304500118491,-1.3223530792217755,-0.6353522578662325,-0.01320004813433761,-1.5983392882342204,-2.1274400977551426,-1.5196587587281087,-1.7208029296970473,-2.4812324345338426,-0.41370993238984205,-1.3902245240578694,-1.19190787967911,-1.0805643870214143,0.20389708296840223,0.08259012618545228,-0.5361968381062114,-1.3164333395423664
-1.5182282874905548,1.239433781629414,-2.6006211587405055,0.22044849106540335,-0.7662109596353994,0.3920928510085714,1.2097268185453658,0.41890011805700733,5.254958407356038,2.1760808298955157,-1.223714555113647,3.8700391740717603,1.182758906301599,1.0497004062913324,-2.0987022133626065,-2.5789491635864064,0.2297855745392209,1.6162449674404076,-1.6868528559204605,-3.43262942380685,-1.188718217908764,-0.702004538936147,-1.342814721152914,-0.07107807625205266,-0.9823496014547405,0.0182865382895278
-2.179373591094163,-1.5531650601735536,0.5633624811818958,-0.543978251599863,-1.223214225038613,-0.9443997106500741,-1.0805966453094886,-2.9891190037861404,-1.750596145914842,0.6522821327819556,-2.9002463715770994,-1.2272458779445323,-1.7186386192765568,-0.3574148482877144,-1.3767406162466702,-0.6471327836373765,1.2189350527706613,-1.0481084490744679,-1.0975536304622133,-2.03776023193743,-0.6533950294933851,0.5516918195877969,-0.7321114084172491,-0.8226074595751265,-0.16462880973570482,-1.2269493553876816
-0.5339575744406148,-1.0967422101015587,-1.4103169942595393,1.391077692158567,0.17805011775579235,-1.4175615287807841,-2.611802806670995,0.05280614436319281,0.6186968211784638,-1.6298588394618188,-0.822916410704856,-0.016759540784214915,1.3084687363318863,-0.7187548993110268,0.09976302643760766,-1.977326944953903,1.6770991972097642,0.896734553659601,-0.585659707913811,-1.1457303361743052,0.41587030555661975,-1.809763680747898,-1.7499397566623205,-0.7491460668511098,-0.4400598098254391,0.5309398646952466
-0.4431242030143661,-1.2714405459102534,0.8406757606708171,-0.20682322897285085,-1.3598076734847648,-1.207492771160774,-2.6823866496886337,-0.69015295507295,0.6386219921795246,-0.18493831164917907,0.7308155634100277,-0.323631016809086,-0.5572252358684858,0.4545865557966222,3.296653022378713,-0.09226162497806487,-3.8161769238896004,-0.5406978199755094,-0.30910138482910177,0.9915980009520083,-0.6525089384505168,-3.276656249247044,-0.9331457689205029,-0.07640643367073585,-1.2427135752564729,-1.2517409684000096
1.0229011335911355,-2.170254989162467,-1.4078307974550868,-0.3333657133985225,1.1815947110923877,-0.41027401880116465,-1.8584113188633395,-1.3775342793587984,-3.140483521800271,1.5383420175226274,0.18095885328174924,-1.9691367414590464,-1.301027730016446,-0.7937853712671095,-2.5416055077100617,-1.992301000202156,0.7970992777917615,-1.77658662093292,0.05802310290445372,-0.9338452283948945,-0.12187514360443308,2.2232852553327063,1.1419119103438171,1.063502177258178,0.4443334677778918,-0.5829346981946214
1.0447702988866032,0.6553074638225851,-0.844355264517363,-0.0661782092475343,-1.6868523109793576,-1.4255385167386445,1.1263241812616214,-1.2229488611491104,-0.33400495199537994,0.39167317670844287,-0.40418841443153475,0.21993633465148413,2.719305402096281,-0.09704403390388029,-0.8185141216597104,-1.1293172225165162,-1.6636051617760177,-2.4098257993299947,0.4785423313582729,-0.15423501965903846,0.2818284098894325,-0.8367633176426102,1.0434262893561574,-1.287158767172903,0.21338724352843563,-2.4319394413303534
-1.5172047900042271,-2.0793288256946454,3.2836702595508673,0.7093115951975943,-0.15833698226971352,-0.14278027621518366,-2.780494402977531,1.8647587258842546,-0.6769959619735147,-1.2010532111519165,-0.47829871306505123,3.7585931272482807,0.1351474718997428,-0.973511943944181,-3.258937560934883,-1.332203646232947,-0.43126228650826504,-1.554016333439432,-1.8544748231491242,-1.9326836205384363,-0.21621598484105856,0.5871586537838097,-2.0904792977277125,-1.5733357473652063,0.17943493467835464,0.0253593948226089
0.22603893165364902,-1.9143142795774317,0.22106392142026096,-0.9602355778595134,0.6126770488698376,0.8277713703100359,-0.45892130276279197,-1.5797053909840895,-0.597767338756372,-1.0357211980568766,-0.5943490241205153,-0.7429196963148533,1.4213603623497588,2.1163590156077463,-0.8436390508365084,-3.34899756786294,2.2680689464034782,-1.9503758498315935,-0.5465690812787536,1.8073962799334404,-0.8895958856702044,1.6558945442380402,-2.968622548069146,-1.3382144893221557,-0.9426958967588603,-1.0717440913356675
-2.1941552977270526,-1.369335162547943,-4.570396049954795,-2.820012143229047,-1.0114083005757029,-1.2901998037610636,0.6756341239802981,-0.688816806586697,-5.1513006935305485,-0.337695144996685,-0.11414839312345393,2.29178154362271,-2.315021530416629,-0.19821297918435682,-3.2924622319636954,0.41044407665449134,-1.8793081213761365,-0.006715711712555969,0.6643012249950555,-0.5353102541455687,-2.074497146777671,0.9902948752308199,-0.45815168636201986,-0.4836810298889587,-1.2962280912660593,-1.0313073354659434
0.0007177877959786215,-0.6217846199239276,1.8196025991805254,-0.025014800020960914,-0.05101892463605224,-0.3718971035243416,-1.3074613905490726,0.28127623012986014,-1.0741364774563207,-0.8427423655724662,0.1481925838245373,0.13534391805613852,0.7601807348513098,-0.4352863899935476,-0.6317532916960084,1.424546763087758,-0.22903009183336714,1.0463698535629695,0.2716125757051075,-0.31887299962219684,1.5344195596268377,-1.7593411364850775,1.6154982905529258,0.09736766371121254,0.4027829949469973,-0.7672171198950042
-1.0150429784866373,3.668145088350726,-0.19639120239348104,-2.6077555645298074,-0.7716966351117854,-0.5504546377247536,1.8743460539962054,-2.172084819252491,-1.2037263622780263,0.2094233276024836,0.6292694259306358,2.1539694723960516,-2.963654182111404,1.7814677755298498,0.03368557037130221,-2.710882202781883,1.6829947060031805,-3.0820030334273203,-0.20373228722936862,0.25689951509184894,-0.7659211192262193,-2.6679160588132587,-1.9381660030668122,-1.6657104387617863,1.3147116016284635,-0.8204499835227389
0.46947547653299093,-1.287725065691181,-2.7327918340138773,0.008741120512743412,-1.9001013846299772,-0.10287037885071626,-3.6822658021173735,-2.0433041316311042,-1.6080924449891763,-0.413240562014389,-0.19755166317544348,-2.2655295285081904,0.2278747492939807,2.4127778015198373,-2.8580566701409853,-0.47599182906531,-1.0675207779736948,1.7597748826563109,-1.6360771662087112,1.8831258132079707,1.1420913874073804,0.2400933700984206,0.9770990615606494,-0.1474381386128391,-1.2415374460239106,-0.7430295971858402
-1.2720087012180112,-0.46201838378187443,-0.6761184941168826,-0.2983993698713837,0.2994722013172353,-0.14538148698810743,0.6996403516159995,1.679651367490888,2.974703663760577,-1.023742067369172,-0.7555479227666149,-0.5029198138215579,-3.4135886077486406,-3.6475090601147353,-1.0071755179866764,0.8327602306089521,-2.6417267640412248,-3.9952683735999086,-0.9981383124983977,3.43906259241762,-0.05817697455396285,-2.5157560551058578,0.8118120605521248,1.1723856071542973,0.37611259130930924,0.5069568226727009
-1.2307417934102693,2.002781497676079,-0.2649004273464245,-0.8801700647236039,-0.6314934041770053,0.4872783536062107,-2.669528870152446,0.6859519279999508,0.9958989122637374,-0.10890791996617798,-0.9631045102866748,0.03920794329300643,2.708106485694931,-2.021209327932578,0.7621745365495559,0.6770169000838346,-1.2593763682903736,-2.0839349456507965,-0.9110768606922045,-3.961954057728408,0.5186665405450125,2.8088942919813067,-0.36804864414444904,-0.5246175632557315,0.3795401996868009,-0.8049847387920542
0.10806165077142182,-0.2325007620096371,1.0186292088017828,-2.8103078238884405,0.07967187122022547,-0.6993379808163004,0.8282946441710912,0.35121702982953534,-0.43957293211600357,-2.081299586736971,-0.9670281043280228,-3.6213629937922613,-0.9983673117138708,-0.23837820781829155,0.45075903957651464,-0.5023427681197093,-1.1858951859649363,1.6679284757269464,-0.7612391781992748,1.4470269173688044,0.2868948870162557,1.2824513763284588,-2.7574495283319935,-3.112428489203358,-0.007771262328195992,0.9830452654957663
0.48499738362654815,-1.9134941387054343,-0.16479378946734533,0.6443676722692911,-0.2823771912430769,0.8308400105482316,-1.7539748017526082,0.11281285041577777,-1.6658639105178303,-1.327059568050128,0.8513133264711171,-0.8880661619668941,-2.3615540716020185,-0.24178785541205844,-2.956752281804481,-2.483872763341839,1.8972642132202038,2.3590425105157875,0.1507068236601519,-1.2893802198895226,-0.39268048252384935,-0.5637304236645029,-0.7699787239719544,3.599092618309123,0.867951608489345,0.7929061343997299
-0.8125837916359695,-3.6286074258466545,-0.17152198901031424,-0.05633484019687767,-3.095835981819141,-2.4375865908461716,0.9457856897446347,-0.6721976694165467,0.3141325645488414,0.6675904002502089,0.27648174971838413,-0.7968825378603496,0.4209964780937436,-3.1465704590557078,1.4922771851739107,-0.1899156628425068,-1.1204059834195998,1.3952649504751953,-0.08331843635077311,1.0128357205073562,-0.15305380276143526,-2.2734436779913194,-2.550630370201278,1.0962103783740564,-0.5212000409908558,-0.4500178147038166
-0.08442455087618975,-0.9973896624117852,-0.9864499985732161,0.8269164524707522,0.3705381614719153,2.0312164590608126,-0.11216043587669905,0.8608946652316813,1.1354941907261307,-0.6778241398385871,2.0511101779036416,-2.692951263341059,-3.301195322859168,-1.3753694168088142,2.0567410953510206,-0.9964823374755407,1.3901740477227293,-0.28410939400817203,0.15394486652487094,-0.1770014643161967,-1.2846091443509224,-2.3335731962095667,2.154400418547197,-2.0501228471351127,-0.31522146248045524,-0.5100985068468594
-1.3028281494532539,3.02486372801445,-1.1970294119589866,-0.48089564403057056,0.49557195192354503,-1.0117522253669344,-3.1332400964784295,-1.126534832986436,0.7213999295202932,0.6781343092556055,-1.7817471477024858,-2.788789431002854,1.251291904209397,-2.646109929591997,1.4124032140533225,1.1846452931738698,1.1130483012584667,-0.6834405751916135,0.599247738703888,1.2391911047750597,0.5185998260029815,0.6491942208704194,0.4902922783970203,2.6430447239187087,0.31192398836027135,-1.4055555128138268
-0.20414305104038552,1.0240344692944046,-1.8146475980421002,-0.21891791267782684,-0.10839926180279488,-0.4731026993603685,-0.6311372987025181,-0.34829054740361565,-1.2265140172903701,-2.006994062041289,-0.6226124193553356,-1.4917896345752333,2.361214623354648,2.8279161904432266,-1.1124471157067932,3.882886823631576,-3.047942118770497,-1.3776245500998936,0.5746856038416117,-1.5824252498113953,-2.064282608026544,-2.8992885908402153,-0.6038556732444705,0.9902845810120634,-1.8690543385700622,0.709809092936611
-0.25618372518497445,-0.3663864053866123,-1.0164448270363564,-1.2582514340027973,0.059158174503388054,-1.7076759624347848,-1.4718875942812846,-0.6122913443854757,0.6434753828428214,-0.9575440147595584,0.004263053507620801,-1.2368370000951332,-1.544733093014255,-0.44374668070465,0.48481429981502344,-0.3048216191583,-2.0286983621890964,-2.5062634128722285,0.2493562215415345,-2.0171976424636777,-0.6938560484495233,0.34452940713729224,-0.16940881408887248,-0.46267806824491625,-1.8248141259766897,-0.5901961175781324
0.024572158230754104,-2.737252332405841,-1.7685325152656668,-0.05151318505529822,-1.341270756778885,1.2534339601870694,2.237601466863844,-0.057920313939086525,-0.8798598723541027,0.9759120767946828,0.1927183196162812,-0.46008393892013455,1.4896782551212198,-1.5552464285923169,2.9760051647713315,0.6151800489898208,1.5507085263825051,0.29043512106064145,-1.67302623264622,-0.05834587617532645,0.2870836220662899,-2.883164833074751,0.5595869699129392,-1.0495734437516937,-0.577178558756643,-0.20777140019067392
2.3671963945154433,-1.7943868955712476,-0.46444081901918527,0.43177921615916703,-0.9289407860525988,-0.5349043447038286,0.38764397097088915,1.7393353271418952,-0.33092902585568473,0.7715173237844821,-1.1529063866559586,-0.38846093526438746,-0.3439927061859111,0.5390177706296446,-0.8844513748000618,-0.4373148101586804,1.3734272342849083,-0.7285211445846422,-0.4836247488882907,-0.953573674436221,-0.9103295834856064,-1.7154384206945361,1.2647452610422787,1.1409365705193866,-1.8359030115170831,0.7405609300513157
-1.08761695032034,1.829993472450885,0.14244383885287581,0.7181391272744658,-0.3979900623890735,-2.420630090599691,-2.4426756694368637,-0.17131255967978884,-2.638946473287393,-1.0389147435372657,0.5127525863437632,-0.22985920252834205,-0.09538290823014825,-2.3259722951445414,1.4522468496087757,0.5890684058599901,-2.303509987918026,0.7663096652926639,-2.433324525008924,-2.9406715592044956,0.16229694935239686,1.436093446416105,2.319356632146299,-1.040914604141835,0.8859009501784184,-1.1336655481400884
