Pesos da camada de entrada para oculta
-2.119921889846696,-0.775754306557763,1.0085016551392738,0.08482582872766771,0.8139022354004052,-2.5931528225950333,0.3190495251829113,-1.7146949476606872,-0.9230458801118079,-0.8747417674054906,0.7477349322005209,-1.8986747841903968,0.40302283277823925,-0.7467462518178636,-1.2573467135441185,-1.96561272304868,-2.6266443265802843,0.4628219670066605,-0.07746357279680717,0.13083719466114838,0.12285395027289306,-1.7277916283607764,0.18670718391806246,-0.3781733909137951,-0.7242999558267263,-0.4374162699449219,1.0816753193122424,-0.15052173485755233,-0.2806513641908484,1.1398037692527703
0.40480421203580197,-0.5905030710070124,1.0787611915050992,-0.32770718397211446,-0.04667980893430615,1.8889015411602477,1.1980885011874303,-1.5797759059311394,2.130584495036837,0.8271093990645045,-1.305144024384437,-0.6676253713704489,0.37101078446115227,-1.8439469425471708,0.5488126136591023,0.11935361657584305,0.7817634194623014,0.2019565543942447,-0.6785740289439416,-0.2699858093400814,-0.2933181494575805,0.2644232494674318,1.0073881081632168,2.527080667594708,-0.06239719113810964,-0.39463190365547984,0.9726038504490138,0.3285007722464451,0.07035757909993577,-0.9640935655751319
0.5264912913522908,0.21598228070960654,0.8407714791902905,-0.2935649440290868,1.695086849008663,-0.9601841134569259,-1.0224494142240284,-0.218395473035157,0.9884808472441686,-0.24295995704841047,0.7542431401018824,1.74401722901005,1.5456069303390554,0.004977511903947823,-0.0444031482011541,0.2705256583908377,0.23794779718779513,1.0635159837436305,0.6190499418082721,0.9529567466540199,-2.542906496186757,-0.6785346071574118,0.11970297057748994,-1.5664636456658654,-0.6010671211154474,0.25324577508040785,-0.9086404475464075,0.4627467898391646,-0.6148749691667209,0.01690293447413694
-1.6845925795810466,-1.0548086962819914,-0.3962103212644216,-0.20401825143949698,-0.05036833935872093,-0.5279115116632168,1.464605898474305,0.2081027504590051,0.23244381651079737,0.5731258488537987,1.2854018790512187,-0.6655683264788952,0.5280103748554579,-0.9658943849677356,0.7645083903210476,-0.12250729557248943,0.05410196164613298,0.33171095678831974,0.5090669546434744,0.7452537452296641,-1.2699260879088876,-0.6748667257734267,0.024916173237323824,-1.3625638042041497,-1.176895669874506,0.22481655863944688,0.8984733675013955,0.3710395966903082,0.5919048030426056,-0.5334510555900738
-0.21664309736282475,0.9567127167568019,0.27461683448935265,0.5496062092567899,-0.8945387883790402,-0.875329367734031,1.9086022966477643,-0.3823730914998095,-0.37758935906202784,-0.578273123670639,0.5632683215746461,1.0380081906125078,1.8803612315052982,1.7234850523125906,-0.031252251431814586,1.0680913381618586,-0.1990481444342499,1.6596683651913173,-1.6372306388238422,1.0099889028623172,-1.118337645171551,0.04237883870738938,-0.005446983204147839,-0.5627307352036165,-0.5351545259795029,1.390092955328222,0.9211299905350403,-0.6238332887027606,-1.3055475740879448,0.41889085362819084
0.05365058556254037,-0.34499508345327545,0.4645434545154897,-0.06932210197248707,-0.6468564225443,-1.9415416045433502,0.010563570107823286,1.0585128431987834,-1.2209703774698866,0.10094414862490726,-1.8047219239652537,-0.556483969418109,-0.21657201475471513,-0.8954911936989719,-0.5920575681802903,0.0886660615631365,-0.02876947439356947,0.2824520947191666,0.4363630784195726,0.1321364322968523,-1.5228911727748196,-0.37231093375110175,-0.7084554923509724,-0.14459129870666623,0.7235092985177409,-0.7898519717055494,0.05469856189903306,-0.8809525697734107,0.014498877462115565,-0.5016311703446065
0.5341162014997622,0.860507692485142,1.3981159259738993,-1.0199425025942608,0.4471014231687889,-1.0541361295916096,0.6674670401508879,1.7989475117730376,-0.636796440653714,-1.217271331655451,0.4573821943470292,-1.3057802235162246,-1.3474120266194374,0.3384007562488869,-0.5984000660792325,-0.2299860361264334,0.151337464954944,0.9323232681094757,-0.015508905987563291,0.5927614926875254,-1.0782194702975547,1.0548472126011599,-1.208449337838996,2.538395082935146,0.003568108993260711,-0.32767831025343713,-2.3480654917417283,-1.501029117969119,-0.9887583519572832,-0.4909647639125657
-1.4274089639649594,-0.052033888672655106,0.19065729105400026,-0.621175302343236,-0.7840008746145732,0.6395632647913565,0.8874275773105298,0.5153338778995772,-0.02716422919842689,-0.5385699182828837,0.8778177776500344,-0.8877569208003039,-1.0038535434900053,1.0912338084289364,-1.3455289123914298,1.160580581931415,0.6221858423760475,0.16979393842869583,-0.0360267764268895,-0.26030167687006106,0.342945658267246,0.24717670871782182,0.8498087926677835,-0.0441625747522147,1.7185124439530937,0.2787554339239136,0.588373925769551,0.12457756010672592,1.0424312222710792,-0.5531872743169437
0.876030536922445,0.87156686696592,-0.45317591928847545,0.21418002564990038,-0.8974893222926782,-0.0002735802600365346,0.32054414474308085,0.3658495117366542,-0.5695963175590711,-1.5632784320773012,0.6984141998116529,-1.0110294110730957,-1.282649654359348,0.6444204740187589,-1.223221242178351,-0.2925046668695721,1.8020302834829478,-0.16094311607834086,-1.2340261577255645,0.7968733433027956,-1.0916410185411483,-0.811682030071491,1.513700938838081,0.6061188238751807,-0.4299919717531193,-1.3297776943583082,-1.356725882593885,2.0912394459627994,-0.7170736191317045,0.19835816865215847
0.4010274551611477,0.7189637295043633,0.6971822492394076,1.17319538037178,-1.100639525573006,0.3067169531061672,-0.6591129626345509,-0.5911873255086557,1.1096868622057787,-0.03175521059618716,0.18996555120872174,1.3450724402234757,0.4098194259523092,0.19694628384856808,0.5828747071726094,-1.5329771966448633,1.500374364348517,0.37597343118125787,-0.6909361352204487,0.33407284539088106,1.2634977643872471,0.23358444123733366,0.09278277474121255,-0.23113925696196957,-0.3669529232267763,0.36050217594090544,-0.1528416420518774,0.7944418107748508,-0.16469255645347564,-1.041925156629112
-1.7076224847531203,-0.15485136628459403,-0.06980860100367492,-0.3991469196279399,0.3351875770966656,0.008036400733247174,0.49619562926516364,-1.0338226287617318,-1.2190808737753378,0.3953220986752152,0.40370846443343034,2.089249322862236,-2.1424919404590437,0.6966883050652907,-0.34932783581296306,0.5243237899124693,1.8704758001409296,-0.12465160897611571,-0.5487960061944087,-0.2764390405668145,-0.07331368148563666,0.8348660496051991,0.46431821505626114,1.8647087811836067,-0.8594377084400837,-1.116726354664489,0.7561084714951066,1.1885756415245892,0.61383468114232,-0.690434409026972
-0.15946457979837075,1.56413516587903,1.8453208694254786,0.4386963144331164,-0.3002094816537022,-0.8931219936935785,0.5065108535993883,1.5057196270890254,-1.0271463601109077,0.4011575768409176,0.06986128491623105,-1.0950789701988997,-0.19275714566133342,0.6268989271829061,-0.6698861620155966,0.962104416221511,-0.2637740704920001,0.5780066498540112,0.3922765653667205,0.8459516467841883,-1.891463213458801,0.8310250913074052,0.3867312364245786,-0.5888351099298594,1.064496905800975,-0.4323774907171484,-0.7664457929233992,0.7127587367481206,-0.4249120939911036,0.15644843145274978
0.327132485892773,-0.42604320427818,0.35290286314483604,0.40123624356662846,0.1445874111547091,-0.7308842154236983,0.34805061444984287,1.6199652022018907,-2.6627056464270864,-0.7998447367193177,-0.1326501081598996,1.4873409366900363,-0.26444257561838785,1.1096221051137898,-1.1761904143242743,-1.98765070284834,0.4243405063548932,-0.06061566944879099,-1.7919856027513352,0.26324992260839036,-0.7539606346752334,1.4657915291315673,-0.852087320080068,-0.19086009195613163,0.041146367711010795,-2.015899109352007,-0.35593080606125704,-0.03813449582307579,-1.102053701934723,1.034736835797657
-1.155958704521122,-0.7837875068240276,-0.2682602199464993,-0.5386371050619215,-1.4230911740722099,0.5811831501078982,-1.3175281570659083,0.14835633017291733,-0.3426447551491332,1.0536431090562632,-1.8773556767440283,0.8038088240591534,0.6777953626797796,0.36605315914027114,1.1525092122046259,0.627538858997084,0.4469855850617329,-0.7737749511266929,-1.2607522065432772,-0.5093028445459183,-0.5263051765510395,1.9246808708199734,-0.7865038995905854,0.2109832387734156,-1.9693077524867932,-2.000696344693634,-0.3661919026808495,-0.33662250947180317,0.1324895387778407,-1.34452139294029
0.08120904958959983,-1.7995296048731395,1.377656575116595,-1.401865340282242,-0.46175768808883416,-1.8796904999735056,1.429881897359727,0.5342695941574325,-0.6728700445596828,-0.19570546185691773,0.6476363685364879,-1.0178998731050761,0.7131647628280761,-2.2153628123119407,-1.1946790408881518,-0.9509971049288851,0.928576286103156,-0.9439380188216554,-1.2342436745984673,1.2922594979383926,0.4888835552855731,-1.230958393753735,1.6425168730037367,-0.341245397927374,-0.4566713660531566,-1.7820576178354948,-0.312103154502179,-0.1701477601111513,0.07132452199973127,0.8655592725159306
-0.18428903338245345,0.2220206592811851,1.072126592643007,-2.4608407349787003,2.718208982197116,-0.41876920734575107,0.49419287287662805,-0.9795642820641078,-0.33169608655742544,-0.09558669451895177,0.39466399023980925,0.6560110944857196,0.6239180428306715,-0.3136376365873969,-0.7883833716214472,0.9765157502380788,-0.45144480884999816,0.12293907459347758,1.063174170431301,0.030654538059276815,0.8122283055199371,0.8992829153874675,-0.08632692479357124,-0.35946091613928544,0.9312157657316218,-1.681595882921846,-0.02192350997919446,-1.2035897456868199,0.8437196311236174,2.2848701497821247
-0.2613894030163609,-1.0237931706468588,-0.20725980037015623,-0.5538903597813717,0.31785053337189795,-0.20458188143193648,0.8984173036383998,0.6013585129655622,0.5760177237012524,0.21614204361720105,0.03527993024563186,0.8993642867308043,-2.130604474846505,-1.4844925638019684,-1.1491137564191929,0.3641554536924897,0.4101115016198277,-0.25505723366274596,0.9291438106518384,2.8820307303396797,0.5963761010061995,-0.5586003722632916,1.001315756919147,-1.2296014909327273,0.8626554740012249,-0.9730324428885366,-0.4158812201160684,-0.032844049811026524,0.6171370163781841,-0.39017292898931666
0.7727461450836147,1.6423372151673066,-0.14797054331351067,-0.34778314473714594,-0.9952864203509654,1.3157127332338094,0.4048946269813669,-0.014296760791003242,-0.3265181227868204,-1.0405570562275892,0.9265313774654861,0.15249041798103477,-1.377812292760863,1.61179357216279,1.5457497908896793,0.9223667624103066,-1.9355736700643869,1.5548613705369267,1.4829954074295681,0.49834963519690634,0.5314229357480711,1.0427099452945097,-0.26014120971859955,-0.8080290627073183,-0.13602561417070114,0.9618926675295805,-1.6417333062469095,-0.059694404206633085,-0.8048080842122083,-1.6309519814314921
0.25596317265080504,0.4965287184986223,-2.654833141465709,0.07750505159276572,-0.5012775776205042,-0.6182038306241248,1.3517149262589894,1.0013602220900826,1.5424670907578981,-2.0202194613133377,2.2560577376030233,-0.036329876554302296,-0.3854007863114762,-0.41908621927985296,-1.0640262600993007,0.954067468378361,0.3783578313851177,0.2095683888692617,-1.18759686913125,-0.7124752990435602,1.716569380968619,1.07558526082635,-0.16819519537920377,-0.23639998493494405,-0.8679432368988522,-0.4947954571196839,1.664914851147006,-1.2211037143930363,0.4630475289524501,0.2855865885160218
0.04524162041553927,0.7415759986426679,-0.6533223220503243,0.21024231780582037,-0.04867976335273063,0.5244582225825574,0.18172093253062296,1.8218716913887338,-0.2867684298288983,0.010053993179448814,0.4254274366624538,0.4654658607745643,0.04318921973349872,-0.12353320467790983,1.5856137690984253,0.5627568010468694,2.084399668549597,-0.30705461300988873,0.025562020495587277,-0.48707707005401973,-0.5373772616143826,1.162664002232573,1.3530067849659775,1.1219420529171686,0.804151977848618,-0.8250513053543447,-1.186590986685804,-0.865929480531878,-1.3355252357960157,-0.3836132131262181
-0.5352450917404719,-0.25423308597755273,-1.035280963941,-1.3151022219491064,-1.00847983198905,0.5734706733831831,0.41727859638474035,-0.9624922727689372,-0.4075523149136193,-0.4241946653537345,0.010211712643760364,1.0453152796593355,0.008905018607899532,0.24663115156179732,-0.764579568403069,-0.0069658904413862415,1.2095277406081069,1.458371667967075,-0.24969235208644627,-0.39390046768211406,-1.4758787916241183,1.234499836668394,-1.2420078633594829,0.8523804633510003,-0.5001070102769951,0.04079989600884468,0.618910548504241,1.1611720492794797,-1.6125393214031434,-0.3694144062466443
1.2634455339962438,-1.6044862156627526,0.4316714796509537,-1.0890740590500998,0.5730087950637515,-0.09562126394073477,0.7259545876549083,-1.0300709319999708,1.5997676736830995,-0.6937463451745802,-0.8128858550575929,-0.9573407113585072,0.19038110558975122,-1.193640959623124,-0.4501496272589184,1.966899994245297,0.10425957379662985,2.2950736108150687,2.22059555672123,0.9358482885349286,0.13368181238977453,-1.0337891669642516,0.2307193963656583,1.4153829697082352,0.1505090809015035,2.315774086941601,0.5544520974485914,0.40809375676874954,-0.1186293255258226,-0.40298897190188204
-0.10461978287917532,-0.058529994048843396,-1.3344091972876815,-0.41117373238827903,0.8810481908086037,-1.0484008515106669,-1.1350188919518434,-0.7907510674235056,-0.18421171468118058,0.5709100958124739,0.24722345790145914,0.9634866339928112,1.7456071424244053,-0.5062448727450704,0.1862409368880857,-0.9592814902034862,-1.2902510434044303,-0.7562107232503326,1.0014048213740026,1.132947586476205,-0.0079750342917459,-0.014468846005050478,0.3772501646708735,-0.725636933444205,-1.8356708161008353,-0.3121113679607073,2.1109885425391264,0.33388248502367884,-0.025569708911203262,1.73826244731263
1.9731213270707046,-0.5846560191592178,0.8925994509315166,0.03534017402627769,-0.4708890171228708,-1.4635082037833573,0.022459194909415444,0.9892432808033864,-0.5988050530707023,-1.5013931375045186,-1.2868155740141218,0.15142893387467954,-0.7347947648772295,0.548298836355734,0.07206532125525336,-0.21174121141797617,-1.3874101762570143,0.13405252865342024,-0.8725520359071897,-2.2069817684253916,0.026527814686996345,0.9170363765196278,-1.6778173464477757,0.49565952545610636,0.8190983770407696,0.18727002640235357,-1.07436904749134,-0.6198336474363948,-0.6013036913430831,-0.5563311083300706
0.5354820939893727,0.2864030988612416,2.059879509007873,-0.04581424135921007,-0.6538074706930146,-0.714794537382089,-0.632947533671944,0.11920246339585562,-0.6347083889623971,-0.6384659751455525,-1.459481388878966,0.21524727316827658,0.5466688741602614,0.3872279794674052,1.6698721832192227,0.2877288785728142,-0.3123026516483249,-0.5586963024886806,0.11008623618153199,1.7519344697346788,-1.1103360831898368,1.8457340432863658,-0.654469513665126,-0.6383887653654068,0.7538907981934257,1.823385785437841,1.03234492999031,1.4479305248617196,-1.4255030441125216,-0.3963494986200125
0.4242107302307419,1.1949503487606643,-0.15589432805975004,-1.1516411275194407,0.37826811421907514,-0.7047863150233455,-0.42785750674750694,-0.8665337450362101,-0.035956485635232016,-0.40324630325774913,-1.3772455713248002,-1.1761285828525863,-1.0605594805496892,0.08216071846557495,-0.6877565811409394,1.2659769840149784,-0.020079430841837508,0.0937515527349411,0.7628663260256172,-0.7094122758135708,1.6224721587037478,-0.047952503282217146,-0.5450503881490737,-0.4487576380684721,0.26629079893596114,0.5078803092502967,0.7516271841709926,-1.4285803794972542,0.42055147626144346,1.3124275668501384
-0.005736881882727123,-0.19648654932405063,0.05611124961370642,0.36441479824956824,-0.3211078866229563,-0.8614039154640993,-0.2777701786430305,0.32804706115542803,-0.35549920607080904,-0.3555156017405344,0.5862848545736312,0.7524055457020866,-0.2007131746244044,-1.1408384435725005,-0.6042375648509363,0.7238630187034113,0.14880974100088956,-1.6932710238386643,-0.263424227249017,-1.2843774886480046,0.8403960014999937,-0.578268361553938,0.9291938621934643,0.5697556918786725,0.13110662637409404,1.0264952260686675,-0.33045733640531755,0.2713528646961043,0.023480831219843512,-1.142332845318076
0.767901010082615,-0.2442526901118612,0.1330031597844941,1.034918643264777,-0.7581179458514996,0.7912441093884025,-0.1660465509731757,-1.0216254131675966,1.0108511150812372,-0.4113936365534737,-0.9194713637986986,0.06813427134990199,0.040838286199275105,1.3246982452647766,-1.070242123895468,1.222292167593875,0.08745365019067586,0.010516796581406723,0.7344981351571866,-0.775734236327805,-1.752859111789658,1.4613384883651868,-0.9684324578798306,-0.1151460310795517,0.4049576793099737,-1.5507638131689625,-2.4758941763283917,1.2160757864809717,-0.004576720676866514,-0.6031706521340825
0.94881286282904,0.3091229781239457,-1.3686003187829106,-1.076351724433806,1.3532837592497782,2.0975400663685178,0.0226130546116347,0.18134489525571174,0.7395289715249213,-1.241394784929667,-1.166786127289252,-1.3076955128602246,0.004673004532331502,0.5488944439921372,1.529202613928995,0.029054457124180297,1.3538083212220813,1.3264404065792537,0.11655046111216513,0.2578878330395887,0.4255716061935109,0.6330052153770586,1.0169268606733972,-0.612166590290579,0.086029926588775,-0.2156261813571581,1.7198536448782002,-0.8291975048943556,0.5787490965256428,2.1148098180378425
0.5636718306762764,1.8123151224365357,-0.3373270086939781,-1.644444320532742,-1.9783226884695677,0.8475047767618192,0.5020155375575478,-0.6887409034823241,0.1810528276121624,-0.32219623143462756,0.8223452135318928,-1.0360006193633153,-0.6897801537091895,0.6402586572740152,0.37918126318042117,-0.3604611946888387,0.9811215148552848,-0.7556484374143679,-0.9253905639739115,-0.12219478697419149,0.1302626031239083,-0.6807616625851027,-1.2045513146911246,-0.7031345845961882,1.8838112054816165,-0.5647234983623247,-0.5486424632242606,-1.0369290817539702,-0.3637368025603713,1.186428402579769
-1.3919132332504591,-1.014825668213829,-1.213714456444153,0.1123476865732148,0.8877821989492246,0.8809590999338636,-0.36042871339753885,0.2880367634771366,-0.37922199593217243,0.06925867288595958,-0.4150902906740786,-0.4276559333104525,-0.9951315240453426,0.2700704947910743,-0.21620410132993778,-0.6623917276379636,-0.463915765215368,-0.8601698527939637,-0.6777043673478429,0.8794943686247491,2.4476348104560097,-0.6694166915781948,0.48087487448033556,0.15448479750852637,0.14173425604534207,-0.38148025976444966,-0.48808563664697285,1.268205080850194,0.08481388410088604,-0.9369766750919946
-1.1023635026622902,-0.13665948442019188,0.25808229342826,1.1898062373072749,0.5654491418321294,-0.5390300814484834,-0.6030076992474533,2.1556627469083347,-1.2271268501927166,-0.6070771828898812,-1.269890809880499,-0.8940147305717769,0.5520212951752399,-1.7484924030013758,0.021732538870369664,0.2509535075477994,1.264782297850646,-1.19983180996574,1.0116904025234295,-0.15113737987360734,-1.267981099021206,-0.1663896601265837,1.5390364395228484,0.3169231798900959,-0.6795630453411721,1.201314242350998,-1.31634647259396,-0.5097552258102631,1.5417780530332277,-0.2621285161489182
-0.7602114694418088,0.986481986936644,-0.6957020684475189,0.13308925123325838,0.7137791060917891,-0.12348903977563994,-1.3839273768390365,-0.4392397057453148,-0.4011486198507461,0.3101421849425717,-0.7015842565992889,-0.6353911051497398,2.230680528041629,0.5537621980994047,-0.2415461438290664,1.035034185982177,0.3296240555488198,-0.31826706516770337,0.0016897522250339573,0.3446308676473851,-0.7236691878214638,-0.05111056305841965,-1.0065309680740504,1.1822567356528175,-0.9435594305642736,-0.43382510371069866,-0.03336486392267006,-1.1410193471789498,0.1244951208729666,0.7904105722733701
0.7351319766036988,-0.8258725679899485,0.4437022543389957,-0.06250599315618861,-0.005770406574101522,0.0731294957069494,0.1652677790208325,1.3481729720112026,-0.910188407150432,-0.3540332923757164,0.8322721471224717,-0.7637945579978676,-0.03692582299571476,0.0913897167033265,0.24054235286543366,0.36364546194177455,0.35996593800549503,-1.9459718083878046,-0.7158936680885497,0.649398983614934,-1.144200323325312,0.6440361519908671,1.3378683552306374,-0.28386863729387574,-0.45514010117851483,0.8074578506493918,1.9635469076980159,-0.4377686859087289,-2.1955218112002703,-2.010588137898342
0.7263098257263622,1.2169713750153703,-2.826197973198994,0.24560209822054402,1.4446149251264946,0.37383356298223086,1.2258405314346617,0.5296950531106223,-0.6771994653225095,1.8272075691618637,-1.9251699043552546,-1.6217276328770647,0.5555447240373268,1.101965984050648,-0.2764196627404297,1.1754281345630828,-0.24276478954918182,-1.0658341303471195,0.24846189537832514,0.28560344752243677,-1.313816239976268,-0.7903143205731592,-0.421280045831014,-0.9615047305044732,-0.17168810435716858,-0.08998155003951076,1.1210326212388064,0.32116759419055013,0.5325046975042482,-0.9607837946789124
1.1239339881971306,1.3629808104542622,3.298809733764031,1.7882867319509084,-0.16925388754139734,0.9543638029963135,-1.0132163470010664,1.8582126944139896,0.9181290736088253,1.9386645797608881,-1.2456571769175921,0.677827407000842,0.9337370055642737,1.2750801391443987,-0.31497077484837604,0.19197147073923948,-1.2406849950886287,0.253541785749232,-0.19888425478169164,1.3639994285608577,0.9242988623475528,0.5054910987855611,-0.07956162396535826,1.3053648940434879,0.05980770418876865,-0.3689324173358694,-0.116582746053959,-0.13471816677598,-1.9779839217733768,-0.3566457740564085
-2.0396203065252534,0.08627209939322165,0.5839628294636755,1.0521474555510573,-0.10369792015457216,0.5442148580506061,1.0133780506728944,-1.6754566673282447,-1.1179425802218306,-0.8685694164626905,-1.069210358542104,-1.4116577506476495,-1.0261895189464008,-0.2874767637587521,0.7426521996419034,0.19315675206801827,-0.8659578328279097,-2.061922572726621,-1.114344537426684,0.8556556739194672,0.19818922971438732,1.3512536043044983,0.35740986442855294,1.0618472066465314,1.2326518357665315,0.19315073902202973,1.801515789884988,1.3973938515043367,-1.4719855588250679,0.42991063417454894
0.14033144373549994,-0.33576466011057693,-0.19434032775029186,0.14848225180664668,-0.02475322105977106,0.35598735828788985,-1.495573773244575,0.6283096226986982,0.3248004348438643,0.5396706289710806,2.0686207651261572,-3.6805779571975727,0.6207779460500669,-2.0171770089103918,-0.8991097219251989,2.0639237678347344,0.47821473651283347,2.7941618589811683,-0.2551901746473688,1.4359776596789762,0.8443285304647624,-0.6649975795452572,-0.31826102979410414,-0.4794028338292443,-0.08806688289282716,0.3537300526516887,0.13800772791476001,-2.7044177815021517,0.6027934151564075,-1.651425804771504
0.7451619223897814,0.06917798436144121,-0.7175815827844584,0.41222578582391517,0.10129565265601362,0.5494989275457497,-0.6010836812776519,-0.021763136700405784,-0.333607366196351,0.6808584827714322,-1.9109113692827058,-2.9545771347261285,0.5245695039947702,0.7199809865718777,-0.3434787593796121,0.35638135154099304,0.20726251130101087,0.5903035072615703,0.9656660666701788,-0.23642497668851742,1.7771980090465223,-0.7255276686120049,1.0647598205599318,0.4865254780802242,-1.0205440032525654,2.5713546973275885,-0.14829862422827994,-0.6143060499875191,0.3115247077077143,-2.0019337072198478
1.3251330202503615,0.29099625557378833,-2.216676844226042,0.9692195121234093,0.412875678405791,1.9284496522549253,-1.8891634183403982,-0.06501371045053757,0.06293303975461259,-1.7357905813621424,-0.39288041125155626,0.8465097420633554,1.1773493711565948,1.0589796055068545,-0.2185515121187032,0.3479194219982695,0.34352040742597734,-0.2521412855613806,-0.06232588753430905,-0.22948106500045792,-0.7617266357824148,-0.2919831239152001,-0.07740886667816872,0.9330508547013806,1.5601619584961177,0.7122338970534334,-0.5399599749515458,-0.0032607205620022164,-0.1458084835121711,0.2577288269209014
-0.4218977864221205,-3.0370487938643245,-1.0902171941109955,1.059761372546195,0.8664783892044017,-1.1698556173308259,-0.46347161542075627,-1.035477242812726,0.5241306783702097,1.342503488539355,-1.5944779436406842,1.6948878022918052,1.3632400037945112,0.24566515949423443,0.3748879172027818,-0.3935118776892646,0.7618076181252167,-0.69846407900253,-1.2809609879371795,-2.2905565587616508,-0.8307439526810912,0.09943577513563061,-0.8972305558049907,0.0899868143481431,1.8734318444872493,-0.6652540746696655,0.8039750343511579,0.8173107102175083,1.0090874532449436,-0.39503458592887725
0.7181313982286519,-0.7601119312635595,0.21541995705214814,-0.00151722588879563,-0.34255449944270994,-1.5745557318755485,0.007465915285563281,-2.8168474989438894,-0.08058161017704894,-0.2483603999031079,-0.5404466072071433,0.3628939723756766,-1.1983781227522141,0.05467903259684371,1.4070761531636269,-0.7102813994754021,1.531872925779697,-0.8868199299087594,-1.2383595501596523,1.8520429944955021,0.6595730340344079,-1.1844272353290024,-0.18438424248402804,-0.669359132399319,-1.5516519505869049,-0.8421018306275282,0.1643916848867379,0.10360600349562002,0.7697343742823965,0.3732008894491084
-2.796975694970074,0.2607532367942125,0.40571953529454075,0.09460327375465477,-1.1474597053703026,1.3520610144792742,-0.035425261399813744,0.41002356317832206,-0.9272159481643358,-0.7950430704732903,0.8103948641238833,-0.04167416929547262,0.28525879774942364,-0.5740705914769586,-0.2740073750837138,-0.41914034745158285,1.0660866584742226,-1.943260688103734,-0.8771420187601863,-0.2954046636311375,-0.10700261820052391,-1.16651825810552,-1.0129462362872779,0.45214258211528285,-1.68836636601114,0.1745952729855597,-0.7454512770336865,0.4702804903680807,1.7409232216145336,-0.6910114698613801
-0.8469021126652433,-0.32733581641149007,0.008075414589206471,1.7107438932130774,-1.0246977127425159,1.0493071846763629,0.06232475558413242,1.7249344698773657,0.2755347779486114,0.9899404169828289,-1.0963815733391018,0.01208794879854105,1.6030925390257875,-1.081469684428383,-0.7831784260777395,1.793137924529578,-0.5028305049023558,0.16954997053364476,0.8058930552603798,1.037595093283861,0.06270931509673111,-0.7832339196863137,-1.1894494076557436,0.5697289466578466,-2.5355030780026504,-0.7147268360144551,0.08788325215287733,0.11404751586177451,0.006012487760312126,0.28030357371568415
1.005368046373258,-1.6131690386646527,0.5060894544247663,-1.9044003532563774,-1.2368506299196111,-1.7303208790042601,-0.222130136193147,0.3745099465500735,-1.9933278288880103,-0.45734881118088544,0.47122736626114875,0.2110103123708418,0.8712780426951351,-0.8342523694790649,-0.202603783964155,1.0778835301238934,0.19149394693445582,0.3217532928831363,-0.1960109634121021,0.9471850421903809,0.3974832078470513,0.3777523697941894,1.0363628600115276,0.14783538245806527,-1.489074990535316,0.40172542854257604,-0.7168130008942231,-2.2611095557041825,-0.9199968970245408,0.9308381998808977
-0.1928326148458078,0.12498606910249173,0.5350628229157655,0.4696416852057816,-0.6130922789224574,-2.4346526153742523,-2.1679365333943936,1.1177243615970585,-1.128667882054257,-0.0792105655356978,-0.5336798008934668,-1.5116160389912867,0.90243641505862,-0.2848357765092374,0.8717135711914025,2.111623820006867,0.6102588344166897,-0.821993636543195,-1.9514043721760888,0.2720699202740142,-0.45101510187401017,0.5336280697538278,0.8508934178353694,-2.075958249816567,-0.20093698852870212,-0.23074930048761963,0.5478230457979663,-0.7597683023445201,0.7778176389938938,-0.09669338008269528
-0.005176283975173742,-1.5444476959552451,-1.8815095288101846,0.015831144258048328,-0.8605335126458638,-0.8096733852432585,0.5304812034690771,-0.14027804536590904,-3.325547415659487,-1.6517601438448724,0.7519863280004246,-0.9979244347065461,0.1912850746872856,0.16943216830796065,0.1397278321308291,0.374007798716703,1.4338434595046463,-0.2754195316249985,0.5458262867321383,0.04554456461779747,-0.011117048456191722,-0.2073429186768563,0.014242168069102288,-1.5636965706227093,0.030734123614093823,-1.1372003371380477,2.213841555793109,-0.1217970260079305,0.939579760105497,0.422659245681502
-0.5049491836927789,-0.7254787678668145,1.3149256617195928,1.0478639026864838,-1.1090190490283875,0.25851950520375727,-0.7650952498793492,0.3989972705645065,-3.639845041814421,-0.8361657455491649,-1.8029758355819985,0.05369456453169958,1.5463136209887844,0.29130209700639426,-0.6462496152440751,0.7926355491600191,0.05288992998733141,-0.28906618841806614,-1.050003743945991,-0.8707323330376355,-0.20682370323769061,1.3777877385255652,1.1884307358377355,0.2928768643288382,-0.8347454886907245,-0.8314311519704582,0.6166570175318218,-0.683756160147246,-0.07026861654136568,0.434486795972193
0.42014957556782234,-0.019387164234376586,-1.3503630595478227,2.145594555952989,-0.8849696793144418,-0.27950657971085435,1.2297831848027037,1.484186638288645,1.675234604610532,0.38918603639323496,-0.3863817263833446,1.3381828952777124,1.1891104854488836,0.945630773665309,0.26705166312733364,-0.021111051511561927,-0.9581688742126608,-1.2742465735325246,1.7664870065766858,-0.25471053954160106,-0.0359277151495713,-0.8161635411845716,-0.6859692726854293,0.685244468628953,1.3251485168276154,0.16990682564249332,1.0626886797317059,0.6202920128958458,0.11136871744668236,0.24733617604366598
-0.30939112722695067,-0.284164204686121,-0.8356258370153553,0.9505276299274334,1.0656884413048626,-0.23469247143294095,0.9317108790020528,0.7824895424200838,-0.7083332066073849,0.10654811492113822,-0.4512790132532735,-0.010912877102110042,-0.5698087058487934,-1.1635664537858956,-0.9487140890694662,0.011312488046974907,-0.06893715473378095,-0.5890809948984312,-0.4232450550672375,-0.41111651333549154,1.3823337926484704,0.18749962511562757,-1.8782385114131408,-0.6599047900457665,-1.0680377813647859,-1.5889882588939903,0.613433226436563,0.04523708333726004,-0.6857391618012052,0.19797522751666774
-2.55038912343029,0.413681198155746,-1.5853470720892047,-1.5786454088028867,0.5539528932342701,0.6090211324418086,1.9520260152762539,-0.6024989877807334,-0.07226939032986042,-0.07048192273780748,1.1518129668796753,1.0397627175941735,0.38132113104407434,-1.1632444699481495,-0.44781688340604725,-0.7976788234021969,1.3305900850073489,0.8113033647998301,-1.0948141778304883,0.5561007188494898,2.683069596812612,-0.37905084112530446,-0.5958475875966308,-0.4839660261207027,0.7623098398834887,0.26318897860703866,-1.9433128132799562,0.5802248239729898,-0.41468901121748614,0.36650106532176213
-0.6882703409983307,-0.15553445803669477,-0.624137493530781,0.27159926054425576,1.0135064249354553,0.6638024654797088,-0.5600913483958092,-1.1989352263528812,-0.41088850685299094,0.28346817789130835,-0.36690526746197016,-0.10389786457259167,0.1454185740756476,0.6243583541108867,0.344500939383383,-0.0004387864225589414,-0.21286856864604245,-0.5189873551507673,-0.803091874167456,-0.7234238316051274,1.9421936293883995,-0.8847037638706076,0.33493645762230617,-1.417401571660103,0.370491889856169,0.7694213777419883,1.9765219911927596,0.19331475903978054,0.33444705056086926,0.9469533536273513
0.21770482478006442,-1.1635544822227128,-0.5755235123794546,0.8460510675005158,0.8141641059213408,1.0574277747254452,-1.4133685677086625,0.5458487939230244,-0.5845113607523991,-0.6962831140657869,-2.3073556514332463,1.4254792786382295,0.6626510439541246,1.6077603776570535,-0.015102288133901094,0.27135501222630454,0.4331096467436337,-0.02823389392425962,0.8201539415932775,1.305835953861275,0.38813479389103944,0.2444333062381257,0.87067412755266,-1.2567166972257147,0.568987310872967,-2.8151425027824613,-0.28391419707681176,0.05964085390790324,-1.3662001811219242,-1.2973801848092656
2.2931099858334036,-1.4173066701450872,-0.5554511326832057,-1.133419926418374,0.4950025362395924,0.34448317563444375,-0.22815757616761254,1.6765666007732878,-2.208742642509008,-0.34260616531769045,-0.8516237054909771,-0.7457195652634571,0.2393425643290329,1.2451347992754305,1.7087912523598239,1.6066364841209237,0.7687532640976004,-0.013311925362901059,-0.37999963347965776,2.2348871083852653,1.1339983143073478,-0.6128811819053411,1.4633958204467648,1.1076219392391753,0.3477473596714621,-0.6838813667668302,1.6655214408139798,0.9120234077568532,0.05307009692163258,1.7608493113085721
1.314526149782231,0.3042049148257516,0.07932079666627181,-0.03241740155467705,-1.4624417165741355,-0.8337198029802402,-0.3525461064945863,-0.44014487146643005,0.867591046299501,0.15738935320311948,-0.9253106903500252,-0.7775358232049823,0.5136870996701328,-0.7415383616772264,1.4028446164470991,1.0052901818922029,-3.489803767610991,-0.03833797968551848,-0.9805537602125679,0.12471482358153206,-0.08293220696962808,0.4156561085879716,2.330329914610703,0.12072667407431699,-0.8937296879884251,-0.619429998271186,-1.766855360725659,-0.7200513018233654,-1.4384327342759364,-0.32310256872270543
-0.29097615545716743,0.43828949639203585,-0.431390741168301,0.39148634072235244,-0.4624971667875918,-0.1279206753754799,1.0125277154105266,0.8292151812141353,-0.6441986355021209,0.45617755696786544,0.7793982144674878,1.0180336138410302,0.08574749596274636,-0.4966468347590834,-0.35922570241924695,1.312567139734496,-1.6668602781505117,0.44363959921109924,-0.004801178493389398,-0.6174392587679003,1.2135177204833916,0.6458251929234722,0.07186079326316669,-0.06982513153203847,-0.728722658210713,0.8408902798325225,0.41192210011100744,-0.576271354620988,0.6628401766068938,-1.9173064556247161
-1.011269781579677,0.3671224368101243,-0.6719403807388129,-0.5838539420862543,0.5353862999976859,0.752734216460623,2.285852306763804,0.3844525861222342,0.3164387631367772,-0.11642570059257297,-0.17487774914955026,1.5898614093263475,1.3756986168125043,-2.595301768958989,-1.3252062115165906,0.15627876326854193,0.5364743802875831,-1.1293680778655066,0.37141927917065864,-1.547982398283031,0.7218768397353343,1.0219074599243552,1.0851307763363407,-0.4958129227252169,0.8577298305854227,0.05552850046880818,0.8615144140702574,-2.152175988455334,0.1247677347299236,0.5152487281770145
1.298242813759897,0.6063925506018539,0.7379347088100978,-0.7163919124348309,0.2866017842871164,-0.5356490400382948,-0.4848095174415194,-0.2937482139619057,0.23240124459511732,-0.5910092196300005,1.5319154090303235,-0.7515738163363452,0.7298451865095175,0.10363814175919883,-1.3147121936756279,-0.44343832042194964,0.34180688694052497,-0.041850014690429975,1.6414268893603705,0.5025756722852563,1.57611409396316,0.5100187636286971,-0.251163771376108,-1.1887446681393128,0.43858473382705715,1.1305851207546578,-1.1333356482353198,-3.4263824580347215,-1.2169841417749119,-0.8378127756146978
-0.6947065665661094,0.9421501652785979,-0.1386589997629231,0.6090544108415378,0.17686596891765874,0.9677652391088599,0.6583640252640107,0.5432006893894191,-0.3802980483866865,0.2538543022681746,-0.26629608648171244,0.12086349906242501,0.2619647517566863,-1.8833586293125952,0.07334404062652138,0.36474829593910446,-1.2464116653580195,-1.2319892331095528,0.9067384196297015,0.35885928636665393,-0.25579738360767335,-1.9414087043784105,1.5553476124461159,-0.6678856840632132,-0.6810181961703885,1.7718201556325683,0.9005121133386897,-0.15668709344876472,1.9032229010110189,-1.7945179629915997
-1.0171194315258139,1.4221321683181074,0.406689064324174,0.2641789136146305,-0.8995428264801655,-2.337746597683531,1.3351652772221618,0.4816370812497519,-1.1990243289850668,-0.46088786712191543,-1.4808321388679404,-0.01577142781412782,0.02143608148431445,1.3186895106268772,0.029077958821171354,-1.3960417049284217,0.7745014764805076,0.8591662426977972,-0.7952563205081981,-1.4775002219410556,-0.5509530774742868,-1.310007008091669,-0.21113172872502883,0.5789256655182037,0.1231607586546027,-1.2514580360483272,1.5542792301759671,0.6048513541956447,0.15855229559954653,-0.46687044940566375
-0.9387215618174969,0.19231618895538785,-1.0256819460087723,-0.0017336829581885943,0.013171435386808698,0.3108581706730578,-1.0739609316718097,0.33246671130798744,0.3621652054971613,1.8923203102720725,-2.0041777001584964,0.8003685547606079,0.23384044704786477,-0.09175685786380541,0.1898296940834356,-3.5081430769002546,-0.3202058854772218,-0.07078659148908013,0.28967510645904776,-1.0147198406645381,0.08155441527081277,-0.7467317252757283,-1.2788567072969013,0.40413172756449417,0.16963508978628264,-2.0594968903555064,0.12960417266948868,1.7514148086729742,-0.3999980551228018,0.13961163426554912
-0.07216093128395712,0.59325946681061,-0.10867477301874129,-0.8286945683994583,0.10451383962727903,0.17642913652402942,-2.1575638373994903,-1.5658869161782385,1.3086406283688152,2.046737514581709,-0.7446788116272608,-0.35885337119904864,0.425152330732881,0.14126531722367716,-0.6376277633053551,0.35582874551827054,0.9823496033795949,-1.2610741309311548,1.6864101905524729,-1.7432085173175706,0.2672577515690467,-2.2436881948160656,0.771510534308781,1.0274464546877302,0.9869209436695635,0.8500862918937557,0.28759703459728614,1.7014577516021112,0.4728724927931304,0.160336037149488
2.7759881389453747,-1.7125452613528787,-1.571514584474705,1.165229799152248,0.05127211141227214,-0.6192000662480188,-1.4137470417194895,-1.4194272117121642,0.41991687200956224,-0.15445896635809225,1.5283089898927065,0.5884754759137,0.1660017981737573,0.12966731555522476,-1.001906138272236,1.257219636988397,1.5967834135647951,1.0511888215594347,0.6912659454578471,0.2520032059239396,0.7293047655459081,0.44058732514426874,-0.7085588045694582,-0.1965346480639667,0.20142203930600533,1.58466760115349,0.8262391434049494,-0.4735059484700723,0.3808193853408881,1.6656236083740377
-0.9287592838033661,-0.14998841172961028,-0.8811036688400963,0.20244134666274266,0.9631750862145069,-1.0971454579260564,2.1506438051389467,0.038601919600552856,-0.3386715906609052,-0.7738009361398752,0.6350886627741014,0.34791507066641914,0.029488703324486144,1.6111103822433899,0.3808385874570532,1.0740208062657377,0.8740897756738454,0.3032553608921924,-1.138487705300404,2.3169296407384294,0.6235263056996784,-1.0580054353418158,-0.3347055103667092,0.41154620991817475,-0.4815916223427612,1.7344932752296367,-0.03484690931047578,-0.9950498175440758,-2.3567642127730735,-0.6359456096009688
-0.18273409325394738,-2.2863748166875,0.030239268436706955,0.8135209214916843,0.5279245484781067,0.4221854352876297,0.4186254063440769,0.2539578700426134,0.36552511520047815,-1.1153915913943087,-0.38991963570641924,1.027687444226142,0.28218239587962374,0.20045439619362787,1.257574305057465,1.3771239322116482,-1.2244345423655645,0.5400662536480193,-0.25321395801236485,0.8583530293016838,0.2808540021786254,1.7944374656108761,-0.6746157913151696,-0.8922861580755546,-0.2757044566201649,0.2803545422809711,0.2576548681831474,0.6361015911822145,0.2130364315023812,-1.2563113700030835
-0.7464224575793458,-0.6998245307225482,-0.8869459117849534,-0.5201041544744804,0.9775229821448929,-0.9994256965066267,-0.926309218971584,1.779756061380445,-0.20988068315619854,-0.6352682649848835,0.4672257368106535,0.29958397246122503,1.2714902704147857,-1.2930575252069807,1.519153443309569,0.6082443679439816,-1.2891201557571164,1.7464727836818525,-0.46453777522073,1.2781953073439252,-2.2401361185563995,0.7641581670338409,0.7413016350211372,0.8514222882398023,-0.37562756013837,-1.2941209871797092,0.2796644955190417,0.6149552042857125,3.7195749574097063,2.118287850047743
0.06056157396839807,1.022701841944141,1.4993903655742147,0.05670449176457282,0.08381003778088955,-1.4895998532898858,-0.2355256506930648,-0.8848847286065176,-1.7876402556704396,-0.4069248379626668,-0.3154867536397872,-0.7675766566734662,0.3111781884999491,-1.5772551167304045,0.09797229813856109,-0.004901468372587039,-1.4436664076167736,0.6069799831601389,0.36150239479851,-1.3059256228649405,0.6067387278560091,-0.24273661765841145,2.465005845186987,-0.1852289654109297,0.8978094459535898,-2.241301574709614,-0.4843294210230094,0.5295168455719175,-0.10842766435787746,-0.37039856354213924
0.5005626437305406,1.8538556797805008,-2.470715533775494,0.3573613178632588,1.185071309067399,0.9332405323591185,0.9613687935686744,-0.015851564989668814,0.45966734296141704,-1.261045976287266,1.8697922030855252,2.4071963817255906,1.5282727891888825,1.2575384170045294,0.5319736568672747,0.9457003613586852,-2.9165525790675364,-0.25378163484222166,-0.9012354989067688,-0.5872806142888353,2.1772007519844387,2.869988390289461,0.21140436743912547,0.6543040507304813,0.5101846050857627,0.8044435112670606,0.223429806143056,0.38764032231806794,-0.6672074685588039,-0.9988883177594088
2.047719076697794,1.1508996021712044,-0.47074601978883707,-2.246313889234096,1.4561016686960964,0.30379915317986483,0.5626355037157676,-0.2139460263274312,-1.8775201553607084,-0.9031515717655045,-0.5002568441558052,0.7617944823377953,0.23076580130084534,-0.7088498131731407,-0.9153696532419642,-1.9569732524246315,-0.3729612291643474,2.1922424966524243,0.3495785360283791,1.3659761031109818,0.7107420681141308,-0.4267661516779064,1.5387828772750463,-0.2975561814624995,0.3034279668641158,0.04905776799180342,0.929789959440449,0.6576619316509159,0.8625489469762274,-2.422915726786732
0.05228903822472199,0.8169929756704892,-1.301132886821532,-0.7061849121469287,2.6163845198505027,0.2918290441983419,0.6486593692348148,1.2565435509987068,-0.3717942650176635,0.5740788623629093,-0.3185208383644314,0.5671140531888267,-1.426487743692007,0.4293465696349855,0.46775005656606633,-1.1774829328993235,0.3744093510517926,0.20380671593998073,1.0749231965038895,-0.400173750791085,-0.5126685625651344,-1.1742544533746304,1.3319950701940109,-2.6513679437690465,0.20598978605160428,0.6171112579079929,-0.11774359304090573,0.12202029849452549,0.4310486845332948,-1.043713117391222
-0.7046130147842486,-0.014711139092077502,-1.4355431083689034,-0.2817320610784685,-0.745197972877335,0.288139734907116,-0.21135585240473004,0.7515341398893778,-1.6873923990875073,-0.5129977622021746,1.6000628435478694,0.039557093638431774,-0.5887089296111306,0.8753787079720218,-1.6911502778681906,-0.511835849451694,-0.481605079067554,-0.8032091880909034,-1.7608249344934706,0.44700117696373615,-1.1772594097208329,-1.4379435390553728,-1.4348584254444734,-0.828239207226736,-0.08558489892642453,-0.5602684603404972,-0.48624165816542897,-0.7768862240428753,1.152013330756211,-0.19632784649231858
-0.20331644446759065,2.0892687726478654,-0.03336303038340261,0.3074338081976893,-0.6005560970212934,-1.5694202121096208,1.1229020127140452,-1.782156342035691,-1.1997035686276112,1.5201991931009338,-1.2873498402967718,-2.1384721482746003,-0.14152987765851202,-0.4846717251865645,0.7107336394784098,1.9402109730812152,0.8388641277476372,-1.3238319056600383,-0.13551205782049283,0.3642734048025645,-1.0348513174830698,-1.8141698845626406,0.3975586477519241,-0.19964603912139023,-0.4953129005800297,-0.33879194380299904,0.6856445628990793,1.3119897305012729,0.1162528016965464,-0.10780842228257213
1.146335106331155,1.4501390656906339,-0.8212158103079569,0.600027318432756,-0.5818529492455005,-0.1753141115662995,0.8859747238103509,0.26095665198167756,-1.2483162591418726,0.6356810594903325,-2.0624181694056314,0.8816026015417289,-0.09460928600966073,0.029464057596863658,0.6846390277033861,1.1174262402343915,0.4978033732714561,1.2720539877947687,-1.9009953291458932,-0.7887718774789482,0.7388193365474887,-1.4291305321480614,-0.6971940610602065,1.2625290715415676,-0.5006476925130874,-1.5087300011856979,0.10145127579366535,0.3478066511318196,0.8336087161889933,-0.8546406116514543
0.3323691727237191,0.4559562331216786,-0.3936651099156643,0.5485274364379771,-0.32669942533208424,-0.11764466360259819,-1.7013352247000568,0.7060554951190519,1.4406385448198915,0.3401487004328555,0.2988814578708906,-0.04287830332754551,-0.632980896711905,-0.15944361880573263,-0.6070175835470756,1.1374818250670387,-0.6579852167306783,-0.49775869444766685,1.5255443535994233,0.6929845284735687,-1.2729537979175745,-0.8099718617189118,-0.17113070400844227,-1.68851798357354,0.3422671872958224,0.06391286833581321,-1.497698104142556,-0.46706193785902134,-0.07906538771883798,1.505565617273843
-0.7280867852281716,1.0006749931117986,-0.5383009718757011,-0.8433895928377826,-0.2799211181976327,-0.023790515014159564,-2.2480684275700984,1.3368915258078007,0.7835356603926829,-0.1703219520557526,1.005503507303104,1.4431979782563344,-1.3431049077144661,0.029941779664943886,0.5098865101358031,-0.5039840751317399,0.6069361350473641,-0.9365709017979479,-1.8256770255410413,-0.06000217119139964,-0.38787256001915393,-0.21858984986636554,-1.0504795677552885,0.6774062539751191,0.7929479948088004,0.7482768258414337,-0.5758714497294596,-0.3044141475641558,-1.3724213277918673,-0.6793473770228895
-0.13399621847982862,-1.820838984037038,-0.9991874778736783,-0.6593241356770172,-1.3560643228089193,0.8005939543356397,-0.5976310106969076,-0.8211706127837695,1.0700370876997658,1.3510685056164022,1.8614318236359209,-0.4364763992960244,0.8448044640502711,-2.648867435830642,1.3186543591759823,-0.18984226032523682,0.21435321763677168,0.2998791143740975,1.0858060615214855,0.9631157725258194,-0.6038390828910192,-0.0646510835917137,-0.39563681405047163,0.8890511189339133,0.5298072339780101,2.6655325463074715,-0.26309302259177925,-1.4081774225536734,-1.7073399335229564,-0.27266452119539597
-1.056142443188593,-0.8296938268380805,0.600182949486945,-0.17294253586198752,-1.7974514600701297,0.6376191117154816,0.8482427700896159,0.8878521350200865,-0.01643796751789481,1.0783188979675218,0.3099518360369052,-0.9732812456358757,0.7731617194885951,-1.582865968104975,-1.0852223324916415,0.9186143353481008,-0.16657209277129212,-2.2625742409045446,-0.19224632491722016,-0.6900091432764291,0.4388129601206713,0.7476956793733451,1.0594906240088477,1.089958473420657,-0.05851813216037304,1.2742626566707287,-1.3971144905691275,-0.06119194459543518,0.12387087320002362,0.4646586849293954
0.825888148449783,-0.3905857492590257,0.41811252189857895,-1.328573424661001,-0.5961551008034874,-0.30771499362219734,0.9479429139019745,-2.575290296816491,1.258138642415515,0.5816965603290158,-0.48434486708298685,-0.6487086629938753,-0.6172803371137249,-0.8832866588436717,-0.38626367737882394,1.0551673598864133,0.311662568195275,0.4696863692272781,0.5046903554732718,1.260487313071241,-0.39581821405728723,-0.19058775233155514,1.07760745982659,0.18054199658544434,0.17212258899403016,0.3148550396253505,-0.4464399065543385,0.6414162139466474,0.5961305699788607,-0.9299871601814068
0.8637205234860865,1.1874082925468785,-0.5814557929445975,-1.0015232535107685,-1.1749320674981787,0.11224225614722255,2.6930006164254063,-1.209281311421628,2.2662667607924964,-0.42961120009345116,-0.44047860755139234,0.619543133408234,-0.006398368500233233,-0.9548332494256934,0.8877739180492288,0.720910963182604,-1.6473747721588183,0.8857809429887802,0.7095900886434496,-2.56139412834333,0.19570764655064815,0.08813939432449465,1.3549281161142477,-0.6395402447025884,0.4429166670879821,0.09634337013867292,-0.497679116896965,1.280659220598555,0.9834949084356008,-0.1630395332474306
-0.6253822139059226,0.8373788308552557,-1.08611779934177,-0.6967415213106867,1.4825086908365284,-1.3842625196632303,1.647839203307955,0.6308712721040424,0.6550090494725517,0.7206153178177181,-0.27381195460909474,-1.197386385369276,-0.8512240891487858,-0.26406233472628093,-1.3568523071712733,-0.31501750442575394,-1.1438790049332688,0.35143684838031036,-1.7196322922700644,-1.3709719615178133,0.8435267685794186,-1.4924039440587054,0.3746028741155893,2.632408221340463,-0.6416345563689829,1.5278121829900622,-0.040350541262760185,0.6779460466828067,-0.8036505953898514,-1.212620356349867
0.7387613513498752,0.49298415033881143,-0.653277391177986,-1.1925935661349263,1.6715404387139117,-1.6924810762216278,-2.593247681895222,1.120515369654263,-0.4677438818524381,0.26244553504445867,0.05479581958708238,-1.2342398870311928,0.0136140896788526,-1.0729632015363568,0.8580517173759857,0.061857429982319294,-0.4393385493850843,0.18388523509616198,-1.8092635066134868,-1.2707803161176097,-0.8354099114318105,0.11395235764995601,-0.4557620212379801,1.0413741737817008,-1.2961431930718468,0.07512875603707167,1.8588078926952083,0.694179081138835,0.27310852830503124,-1.1806981371813603
-1.0274905804235581,1.350518032691442,-1.218628266491622,1.2060068112050342,0.01871904092989059,-1.9856300327269565,-2.1666501610432043,0.5022247695484303,-1.035626661341573,-1.1734205975653633,-0.48023242894316986,-0.13538364835191682,0.06031688050653679,0.6028495078709625,-0.3405826935116032,1.215008228837699,-0.16277125761028605,1.513100016180198,-0.6494407143349967,0.394656238053447,0.8415886183067618,-0.6818757306916409,-0.3984257697236486,-1.1628217967703431,-1.189790078370677,0.4102837581325118,1.8190546883176786,1.7982666130050995,0.741088577499767,1.8189836043995122
-0.002436617782459212,0.24702244898888734,1.0866515125930845,-2.0004312049413584,1.7422860754740903,-0.04451210621959829,-0.025743769809722625,-0.10429001033923897,-1.341825560065853,1.124969695626717,0.13229162796946758,0.19188162196384817,-0.9275828415985073,0.008777178445181931,1.396844063865974,-1.5418987331850105,1.1816768072828847,-0.9543842082101289,0.1926998678800004,-1.7566336348948866,-0.9423461639310728,-1.54309231114559,0.08374599414183115,0.07956411240469394,1.3729331320782108,-1.0428360628728353,-0.4091037828367993,-0.23921889320970874,-1.5430675955308335,-0.2723773465575405
1.0461485560323232,1.3425533379751826,1.9368768942504537,-0.9114669794832077,-0.6000926056194095,0.7087439270003583,1.063278088309354,1.0556887507450858,0.9264038322841164,0.5230761086410284,-0.8034108783361126,0.9699066573459452,1.6271828736733276,0.9279554037144564,1.1861343805638092,-0.009223910936684517,2.1908937803976194,0.00735893230211843,-0.43057907517488025,-0.6638045346143908,0.31938550631529405,0.2030877849023309,-1.2929992061577662,-0.3505626208315462,-1.6667449930662306,0.9646126463597846,0.17223364824804213,-0.8051230021778646,1.6333128978988876,0.35540705645418086
-2.1170085758508073,-1.2979804161911395,1.7156574474913548,1.2873768020354177,0.5865940477561915,-0.6008870569391681,1.9477924207580724,0.7605995485145463,-0.43768649116787806,-0.7152854544359556,-1.3393936346648145,-1.6683628401338653,2.0001041113951046,0.5936929027683266,-0.8799672208785538,0.9205432697040116,2.20949087604163,0.16531538714398394,-1.2798631525717423,0.1740795176821756,-1.0653136472402982,1.631590011596547,0.7879659154149143,1.0714839231663196,-0.7928331207018345,-0.38499245191795795,1.5971613339714439,0.48554114279225724,0.8749950745057014,-0.1372144747112442
0.2854346874217021,0.015224343002208452,-1.1418991636586586,0.7362417326216005,0.10192003054299886,0.26936566909603377,-0.36507099072691884,-0.075241269270512,-0.46570213299112984,-0.04462875681605671,0.21504885933515397,0.3003405301241312,-0.21125016982474762,-0.2465894121100422,-1.3082406042638377,-0.4008704598444264,0.7595147125240858,-0.9019974934629209,-1.4169550349167952,-1.1777208937164254,0.45061539025596226,-0.6301321990193385,-0.3033421437187527,-0.043346446392445344,-0.4501319658703916,-0.4664665503766966,0.1384658079744726,0.6549212115238116,-0.5315577607495728,-0.37634085191578587
-1.2075443778612593,0.020222345817736735,1.1692773734211417,1.2361781109201964,1.4735809691144777,0.36441718682359553,1.1075081244947511,-0.5454268724181581,-1.416924569373398,-1.014677368318132,0.4737880508321478,0.4624042064349399,0.05670769064335962,-0.8197982310456123,1.148714213271275,-1.164248535661901,-0.9118777076824022,-1.9454327329642138,-0.036785341665207284,-0.5590739064419349,-0.6430567015624373,0.19470150526472801,1.4882099007484342,-0.5027057128387709,0.4149723938826649,0.7850328994388039,2.7228144414567845,-1.0912533268442912,-0.24441113651411972,0.3058522018736539
-1.897925112675896,0.792738778828553,0.4119024920282687,1.2686366079406444,1.0380034663301307,-0.18117617903385247,2.0853544159523167,-1.2973511673891676,0.3884741347190822,0.85424067394371,0.08040303458293901,-1.5036700746750773,-0.9150294562867896,-2.117922105269103,-0.3661845896178903,1.3748771283725776,-0.3984258566623064,0.036532791274442984,1.2708023384636289,1.957301139556781,-0.23193441320012714,1.396183551733484,-0.8253366413266819,1.0652257106769605,1.201695109513213,1.441649461240428,-0.1391357890956852,1.1464181450616502,0.22588764308442286,0.0647125149770805
0.2509310465721675,0.573419283875504,0.31599623205246896,-1.0910590569962784,-0.7615225550393523,-0.805677409342439,1.882794154188715,-1.3739367357386987,-0.8169130485319622,0.40944421367483624,-0.30484914402961216,-0.5076902840981775,-0.28155454259632146,-1.044048346470061,-0.6044481043573482,-0.1588071609722609,0.04388963386303572,0.39406009770718975,-0.12417270141321403,-0.23668899448670172,0.08949294621197328,-0.46072579148897064,-1.5748020215023675,-0.26801549910441114,0.1801284444260005,1.1541401560301532,-0.39061276141850987,0.45184284719737916,-0.6821372704758648,1.5794489945461316
0.8385640980629141,-1.4742399365578795,0.797292641043118,-0.5237009284515907,0.3536883652802014,0.012624020388095415,0.5090206350517811,-0.40154871470961323,-2.9620523132535235,0.6113864494702776,-0.6236314543446235,1.2248251420884897,1.1453720400067222,0.623101508936072,-0.226092023845582,1.7645416930884024,-1.1975651973364072,-0.9531953535591157,-1.4906182518233067,-0.6246451742562166,-1.1464119088243399,-1.2206484388700272,-1.3914263548943644,0.2556706458009169,-1.4260611864139419,-0.2601885430266138,2.4212241819782183,-0.14614130691874913,-1.9706162047072984,-1.419054959113703
-0.02548513652292216,0.3873104147604147,1.4938819039481674,0.13098474521964135,0.07300460135846323,-0.3440314351254267,1.2610902689147296,-0.5116412214585003,0.36662127818973766,-1.6267022246363467,-1.4919682332729065,-0.6398581860595154,0.8782740822457101,-0.4230031337933691,-2.3674559410729255,0.5851080980922266,0.21488880238388014,-0.453402725685532,0.4773849458743607,0.7648234042849704,0.08445693020695645,-1.3170742070513288,-1.860945434481229,1.0644627194882972,-0.4477978832753949,2.3505707360618318,0.9984561932122348,-0.8774726208596971,0.8269726266352448,0.41355619791851006
-1.02310920460837,-0.31254502279589924,-0.9545466493632186,-1.7748522266371158,0.19442327984209098,-0.26644630442321565,-1.525633781130462,0.5723179469847427,1.8512770864131294,0.15197601571773814,0.5898653708947542,-0.3732831687155803,-0.565044547013604,1.0381782032395983,-0.9360306790827285,-0.18660308480815213,0.7327511095833249,0.5284917290543877,0.339250631505957,-0.9508756254561985,-1.6146686853310501,-0.3667675137817797,0.7560172179646037,1.3746483100977922,-0.2931644773822994,-1.1858420812127282,1.3551127361847521,0.5050056693668112,0.3762161061156129,0.027895689524715505
0.5007925325985152,0.49260776014891805,-0.21663159306690122,-0.5000234663484981,0.850153833689358,-0.44693278565944655,-1.2155133096118225,0.5278111921662844,0.6827077195743115,-0.4310324118660409,-0.20689176692426128,0.25468264489674264,-1.013935387005987,-0.05039860201957624,0.8982929882106678,-0.7443905598777595,0.15321556468592498,-2.2816073332680014,0.5199503787845907,0.7360761256394317,0.7916711113430647,-2.209613809768682,-1.0353868749898274,-0.37092851168819224,0.342676758589809,1.0764676904911274,-0.028549616362880583,-0.10959082779203487,-1.068195649386065,0.13204743074800981
1.0334275427089499,-0.2339970187507924,-0.4872497278472532,1.1904756712709357,0.39502729035654066,-1.1345883245274666,-2.3292255888657283,0.21208321227707796,1.2852284312757687,-1.2322100579398014,0.060872435667168934,-1.8530059253284885,-0.031297453572353175,-0.010013460252942502,-1.3062507150891998,-1.3514610659386195,0.22680265465329766,0.4319456426726439,-0.24495522746271947,-0.4580922227996353,-0.6135455457978934,-2.8044391946554197,0.14517078674523434,-1.093718885592564,-1.3281618283090038,-0.15230106837564106,-0.8972022477849688,-0.2585359595610113,0.30653248569209746,-0.9659995712933759
0.4985202885953341,0.3500404745839601,0.2740299269452349,0.059730907415793004,-0.4428224538723364,-1.9253073362158752,0.8355968594400507,-0.747624252640441,0.6982571055399542,-0.2961022066700661,-0.10874246349015008,-1.9168799795543217,-0.3853618876697646,1.7563659337021067,0.8496792146357696,0.2043585369821573,1.4400564299704983,0.07938482596878382,-1.970246924025437,1.5275698868971626,1.1288888474664938,-1.271202024524658,-0.028532765254143888,0.06000563723208247,1.233639570885589,0.422157215946594,0.2263759890648915,-0.5948228978492572,1.2009361682113513,-1.9863628648655467
0.9844780201970865,1.6823261060428543,0.34256674540752596,-0.03743660817721022,-0.3669591766331261,0.8305477804099466,-0.12494951085691083,0.6477652421915165,-1.3265714992847053,1.0560569928653907,0.6578428888186142,-1.3088737147500162,0.38313724888932105,-0.09069318267174287,0.4379636787792259,0.8542189752191962,0.5528876351422769,0.6783574879643143,-2.8302750657620033,0.18280818083109146,-0.018705945430508967,-0.21546499265424895,-0.6079687431320062,0.34831824102636433,1.3820846196054004,-0.5894071269989326,0.33465733919000956,1.4262442216631928,-0.001839482428254014,1.5175514527527978
-0.9327910506081556,-1.0080458858726753,2.4403267298922184,1.8201626437898721,-0.8238366099997042,0.5531606114630443,0.18720703925641288,0.5388914939934213,-0.6379587725145878,2.1484669090902457,1.6811046921178503,-1.0035898621180728,1.4311469544064046,1.4505912718944205,0.5984691456773072,0.26068415812438245,0.26657734226585633,-0.6115495172712189,0.3987754928251452,-1.8811370431383463,-1.3017720877249461,0.12276985011388075,-1.9722034252134732,0.5951308015821137,0.5277157165401397,0.3861018380049902,-0.549507733561594,-0.5872303302148373,0.7778548230310459,-2.644061628998519
0.07053651086529095,0.5575364087302959,0.9223866951068259,-0.28388097011682467,0.1446432022529816,1.1230100797425226,-0.7227250196239328,-0.6133181855621687,0.7334774295409268,-1.305318684520466,-0.4237412985769912,-2.3835042009299383,1.870243355508918,-0.2469434791852506,-0.09572628456990777,-1.6638985478999395,0.2307469070626237,-2.143545933540063,-1.0227326657245717,-1.4858213409114251,-0.9023434099658659,-0.6689637919999201,0.7498109870220138,2.467178689851605,0.5341989169580761,-0.3207535333690093,0.1664678997298768,-0.7719056048189242,1.1987100772014585,-0.27800955375253944
-0.8368219310044168,0.15151761940750083,0.19483243821833227,-0.8723269145651151,-0.053664359866506015,-1.3846430965084426,-0.09950415735614505,-0.26413353100532444,-0.7865723179696956,-0.40008325447649545,0.6469191832869766,1.2417743963406278,-1.8228101384888895,0.553131631415814,0.19067443902663891,-3.644886437024835,-0.416610560962726,-1.2970513443888494,0.3690831697145725,0.24432673187980847,-1.969695996486737,-1.1271864372560603,-0.6958844724714434,-0.9451041673997819,-0.3098856554389621,-0.28574111494960325,0.1401592005210067,-0.023301854521527984,0.078012492284898,-1.6970844129163678
-0.31170988149219386,0.05463837107062389,0.04322393001135102,1.328987083949529,0.42182338380552203,0.5659821891952799,-1.363649101915514,0.10144159682734039,0.05637493365811845,0.28417566994433896,-1.2000311797833902,1.6601356348798755,-1.4003814792302485,0.5045337216724591,-0.666689938477023,-1.250535101806715,-0.7703329071979013,0.24647329028936243,-1.7546875232605326,0.693240361234663,-0.9721747467527471,0.210372539203125,1.4703273054823227,-1.946785485541245,0.5254707454331109,-0.23642038974518198,-1.276230984968945,0.2813523477717391,0.4757031227639763,1.45863982486623
0.9986353711950957,-0.3238736669504454,0.16349073854492283,0.4430610362924263,-0.8216104930761337,0.23648142418808907,-1.4329284637245236,0.06882071602918723,0.7178422033838002,1.3893801343396914,0.16778020905396285,-0.3078816372901638,1.031207998448169,0.39432345848117556,-0.6829714002707599,-0.6673203943600758,-1.1994997369489875,1.0291630956298596,0.2063339272496371,0.11774502865648864,-1.1369720405340036,-0.4689899453101768,-0.36515148774076556,-1.153727529052711,-1.9221873156536156,0.7660787311533714,-0.04637993902749114,1.0064704317859017,-0.35740341542025206,0.8599316125727645
0.7417643056600799,0.551078131927093,-0.06948683720057651,1.806855938490444,0.21795761514036097,-1.3031935815771272,-2.6941836351408037,0.7054185955011604,0.8689905533017173,0.4980428361710749,0.20835883226843824,1.0010434747092667,-0.03679919109666781,-0.5334992910659014,-1.0709620605790933,0.5319152983807228,-0.4097204242997755,0.8259172808818581,-0.4647228286119727,0.9239156363862537,-0.6356133568632939,0.8466992520447882,-1.5485925574019979,-0.06369953012988756,0.2478259791024608,0.15990726116692056,-2.2701188735733275,0.5325428430764445,-0.7205989493309438,1.7264235982967069
-0.6608016416553629,-0.5495558490016593,1.3559092246027984,1.015158962977067,0.004021473208351318,-1.2932581075483875,-2.146675803308817,0.3715209170248912,0.3176523562714346,0.48888533532152817,-0.49294564117106815,0.8836409124628384,-1.2591058204209944,1.615013068506039,-0.9905601129671228,-1.5147982653354664,-1.7014098248567606,0.10211007507514318,-0.34547181228281526,0.14030579968132753,0.04277576077869007,0.1787993297726742,-1.419943165752705,1.5693334127877496,-0.5658255163554218,0.15092783530754217,1.7598490947912815,0.06844714015502246,-0.4621555296092089,0.406839911294705
-0.7654467525012342,-0.5538765724409711,0.09208932836630351,-1.3481415123142821,1.3981792000772797,0.07968393199053878,-1.6060212058544512,-0.46608344313273853,2.466345723192387,-0.2189124535399786,-0.8820120259436435,-0.45344862520557827,-1.1303022181294224,1.8395733925085072,0.9218023467863504,-0.7775161010934352,0.4450038007691377,-0.42078971434098267,-1.3952147867740532,-0.14085687448037346,1.0055069125343785,-0.16240374631025134,-0.13954233914921543,1.3264845692622604,-0.20004598545511518,0.5188854426181705,1.933874555176251,-1.4670038980468498,-0.8645791933526544,1.3167441097590467
0.7382751698120122,0.35040859878058905,0.9813261086986065,-0.09709097617529351,-0.8658014935393978,1.5749180157750522,-0.551192149544555,-1.0800129489650914,-1.8535081160166447,0.32059320538061764,-1.6777296276103906,-0.9328079534826274,-1.7725558338184524,-0.8158803687742889,-0.39696162452132205,-1.7393011135089322,-0.030516122109945344,-0.30371866605720205,2.1085845878266345,1.4121467883411611,0.12059839172314313,0.4409370587136262,1.3113033981764148,1.0589644422420765,1.6084528662095114,-0.5234848787983968,0.8844291493704101,-2.356276780364355,-1.4749141012070153,0.08484070501900438
-0.10435662580953554,-0.3266300369935872,-0.25672211465920836,-0.992202862752784,0.6149556900671153,-0.76960169866137,-0.7347470558867847,-0.9453183414900364,1.1697750200609094,0.8114858305302332,0.3143153855242249,0.13429544045646066,-0.1598322069074828,-0.5165930358656776,-0.9803791445342916,0.7849504553422759,-0.3637364497466004,0.6757533564985114,-1.8789261914779951,0.048042492584069785,-1.2620312734671495,-1.4716441944982561,0.19123016763796175,-1.739191593902724,0.0907893721312463,-0.23227519549843045,-1.2992074753118346,-1.7701314164901667,-0.9884739834188849,0.705005743220646
-1.4261068719883225,0.8235084937054199,-0.7914366759895617,-1.14415804065359,0.40549336222134497,-1.0855071755460395,0.6163144695713322,0.28720537443538013,-0.9146027390946274,0.25258015123152394,0.8903108638580111,0.047229613163766525,0.9249676754988313,0.1432652835029032,0.4809951525350835,-0.08549516144405969,0.4605623378130951,1.4259064676187172,-1.323705405639966,1.8315567073953827,-1.4823353850179988,0.39368070201923605,-0.8676502419573088,-0.6314015974663799,-0.045055295577022085,0.21086790557729887,-0.3718185822268738,-0.32329864064472963,0.24528525661326886,-1.8278807346507036
-0.342921386340755,0.5379500683092284,0.29145099489769777,0.33476588193879275,-1.0684327829203741,-0.9714310230957439,0.29380331194455345,0.7234499079692459,0.15956126295257664,1.5898404807688067,0.8111338582122559,-0.26011326118930533,-0.8338645939988488,0.009429076854841265,-0.4453718145467274,-0.5452770350701247,-0.41916071587396925,-0.44105952353641303,0.30120436344122237,-1.2517527598197606,0.20544605027008894,0.8404923007416207,1.0489818482190507,-0.9948629963339274,-1.5663280811205014,-0.6411187006069003,1.4160177346381333,-0.8527425958133558,-0.997799521992719,2.362144967602774
-0.9218885732558303,-0.23146338278173917,-1.5070551975335784,-0.3308416428665526,2.05569774962426,-1.2369584935299982,0.7248440872655508,0.8932620436192009,0.024752776759373693,0.8047304464454959,-1.3081768986973747,-0.1678533684050809,0.02098001075687143,-1.5282248619573986,-0.5810784988767215,-1.4732263375832397,0.5108738651594089,0.3633882048371795,0.616160938372591,1.068632180112707,-0.6213423904076675,-0.6391440969091479,0.24394359968459445,-0.28568458254268964,0.8809054852165987,-0.07780734167868375,0.9577878873007293,1.1032726177053527,-0.062496505664055395,-0.029998814877531522
-1.1907154124431987,0.8385950864290755,0.2585191236516782,-1.1336209771311174,-0.7744905182466556,0.5463720220624675,-0.13852166067188992,0.2737136146896633,0.2518385070108397,0.13397972062899494,-0.1141516869431191,0.8123553681266998,-0.1645359005374949,2.310134844929586,-1.5357047519517757,-0.03322059604881319,-1.7172637312470689,0.7648419081154093,-1.0857613811597437,0.5476275761205789,-0.24115081247923578,-1.4405766049648125,1.10480203260865,-1.1092473044803706,-0.06810187232136464,1.0308976487987973,-0.9953597004414637,-0.1708487532544453,-1.620494622480745,-2.0440422596067367
0.49800165618544967,-0.8968019664111628,-1.1251056477882886,0.3352735378513718,0.5886701998460054,-1.9765375449282356,1.0422225116199433,-0.7576532288541513,1.4362496091016088,1.1911931922716816,-2.885570387517313,2.714504522228612,0.10419684610318876,-0.5319135951256203,1.0867300513935196,0.6253428823352469,-1.8779057165192201,-0.25109189109085706,0.46186950557218887,0.8288899728271075,-1.110431809143041,-0.0746020127160701,0.34490665879917615,-2.3005828215708433,1.1597432840794768,1.1836751228278384,1.474681192264814,-0.6464030902486729,0.579971758980413,1.502452209927264
1.1038125139643304,-0.06788753681557412,-0.641981573188495,0.8830293099441194,1.0676257933470832,0.24484034349953698,1.7431760796979896,0.3721908992527367,1.2031758910094774,0.09771802113413383,-2.3251865555140405,0.7964423485204236,0.8414185832094033,-0.45207382982584476,-0.8851526604005899,0.3506115115994594,-1.7618681025545437,0.3811019523015283,1.071539257930092,1.8605455589851438,1.7278385281505226,1.5827761479650548,-0.20075385429616863,-0.7831403291551036,-0.3694841173258795,-1.071043229291348,1.1672855437811236,-0.8711113998310708,0.972628267115275,-0.6556260287023143
1.1883032458135379,1.2259389731340784,1.453660839799249,1.164238792604277,-0.5728287314804179,-2.2942212537790816,-2.3166661678666753,-0.6883647126641591,-1.121849262961481,-0.14863729390403208,-0.47336878256613835,-1.5883438401316972,-0.5028966904505374,-0.13051552408746545,0.45104539603006494,1.4070926410530142,-0.58940667235555,-0.02695378195282301,-1.600604084673069,1.7047829861144035,1.6286062605764504,-0.12620804053518558,0.6774115842692383,0.498379149241182,-0.27829362896041443,0.8185239089347022,1.8504949763365268,0.5625581573930237,-0.13204897913968605,0.0915078978524912
2.486489458997195,0.7133512378490101,0.8194161004201701,0.8962903963148172,1.093410338623543,0.049141492036256694,-0.2610831341018261,0.3255852123276576,0.969516892589726,-0.2877366760604175,0.639794298856676,-0.7812515556927987,0.7394467269221114,-1.273959220788235,-1.1955574802769027,-0.110649830326597,-0.03838559456360286,0.9570314299497448,-0.6314020300608059,0.8410344754294564,1.2805583335229456,-0.8618330272577792,0.8162461685083684,0.4626126310206632,-0.8352401354435288,1.4704997863831824,0.044266056552444547,1.9012881798620611,-0.2875015303178562,0.13888061889556164
1.012851552952689,-2.9975359583675276,0.9030798968792665,0.2548565783588667,-0.7270650105454459,1.9867111885748774,-1.6088755838651607,1.5213504929175794,0.4961339518401102,0.9429488729935694,0.054885035582978955,-1.8894921862631116,-0.43990734066180603,-2.8472689837049527,-1.7531893418940925,-1.497371433967703,-0.4742378008105987,-0.26468397337065735,-0.47667977376249515,1.8496877790238921,-0.5751369193665787,0.41146824152879047,-1.5054820857093638,2.0316195074316687,1.2671912619349663,-0.06178282037224501,-1.3710178751541418,0.08668304123833866,0.47319876994473403,-0.013932603553909706
0.6183584826059464,0.3664140525303361,-1.3066502329930747,-2.2189940425403987,-0.7638975837744197,-1.2730543078745185,-0.9432379380013981,1.1106669393831816,0.24282731507834523,1.2708619659589753,1.2961748929644705,-1.0914922838436465,-1.4052267131729659,-1.1746207986382353,0.7588114899399218,-1.3870586438082337,-0.8949045271504718,-0.07514574482648702,-2.1540060352166286,-0.6227756282235942,1.279747167131004,-1.3276708284900915,-1.8753471372397255,0.20404933139409967,0.5549460025834778,-3.1589712099147067,-0.14732850342136047,0.48897924270369436,-0.19783584287500852,1.0476728014370107
-1.9320606094094037,-3.1050564603805713,-0.5137854962541818,-2.2252009961624637,1.589887181515312,-1.4513765143697828,1.6710104157507129,0.1967111813420486,-0.5304112491974469,1.431833950315393,1.1518113408568145,-1.8464760000761975,-1.429906322249232,-1.2323190822234853,-0.08355373119337102,-2.032287999640473,-0.5016172798081023,-0.15356608266895413,-1.0054902860189951,0.6212178513153052,-0.34078326341389725,-0.7740570751743886,-1.7812985435784345,0.5376439152894296,2.944112147215938,-0.8634435395932556,1.3081577561944113,-1.2443822970539387,0.4158355867237523,0.45503970824060486
0.9211216367251747,-1.2731825819862943,0.4786078698495586,-1.549262171954545,-0.009261312513473858,0.9746185987165628,-0.3722826851395777,-1.8228383430137582,-0.8145111357972582,0.8455620090515307,0.25423979772371386,0.22461958537633683,-1.4263741169709632,1.6920683785803614,-0.8121549308836089,-0.22500117615637427,-0.437958645260904,-1.4912116324470375,1.1020843136149543,0.14315501099975414,-1.0044890906371644,-0.7455621554547385,0.4237684217565047,-0.15999755069290056,0.6698742936717487,-0.396105071971034,-0.5312039536511466,0.9856440348894462,1.0337680198682515,-1.80985940877288
-1.1801723174739136,1.1621958832711232,-0.5143317018013833,-2.2135871552702793,-0.5182687826813343,-0.39758272157958235,-2.0096879997180874,-0.04156255000659731,1.6952463616636375,0.595877370103577,-0.6094612101975064,1.511998360065712,-0.11800273235436265,0.885208649900635,0.7383318543821049,-0.7333243317774295,0.7049619768435001,-0.512471789063393,-0.6119730601519869,-1.292363092174872,-0.30870699855089845,1.6730725488337086,-0.8309361763324399,-2.396299466829676,-0.018344858642534576,-0.8283642452246767,1.1664251187463477,2.114877241372353,1.7819974223990807,0.061902227135366285
-0.5329424554460875,0.7430379805847394,-2.201474506469825,0.44635333791211856,0.4400765012636433,-0.2659360528924208,0.8110215651638812,-1.7805600870360834,1.1180271512401287,-1.4319910822358939,0.20852562104045638,0.8578177499479142,0.9585586916096156,-0.2492761129816929,0.602226847143199,0.289128368213057,0.015445548982300097,0.09872190258449091,0.1031795485563552,0.37906974432660223,0.047697702725715364,2.1670476264532996,-0.8159399137476101,0.15871716796254864,-0.5820283206788792,-0.1948173037340896,-0.9352154371807427,-2.1292792775544522,0.8405821726462617,-0.8766554114176998
Pesos da camada oculta para sada
1.8137826409833897,-1.4794799009402622,-1.4310610526482084,1.500928220445324,-0.16709886492762643,-1.501835997293677,-1.7272377494841584,0.9430660503266077,0.9200488142304486,0.18930796583043286,3.331537645565078,-0.26166471331349855,-0.8741877527867904,-2.005143388339569,-1.5982747758275855,1.2955596640475622,0.08485242229156474,-0.9761666524778975,-1.6943243817705187,-1.852011668076786,-2.1270274211396543,-1.2914839312395747,-1.019962020608307,1.8901908214918177,-1.6664677723472099,1.1352111999793095
-0.8595063431362748,1.1390811484279861,0.41298699167343805,-0.8312660388157022,-0.14232224356519757,-0.14210797438900633,-4.048142912198619,-1.0296093499007404,-0.9418525859718228,-5.069698568020756,0.9144703518240302,-0.6912086596262652,-0.10705938186772868,-0.304739221147969,-4.0269439451605535,-0.858155848,0.45327770941327544,-3.3717927705482453,-1.2964322832491877,0.18869248550834108,-1.164935760042859,0.711068407424626,-0.16901570947681152,-1.9011518646118006,-0.2293427163876952,1.2339959983222812
-0.3521288580146083,1.8024683764668046,-0.10928181435097675,-0.8210231213182958,-0.39141840625886565,1.1991439202846956,0.5640886617938204,0.17983384207984257,-0.7383815815742377,-3.5083185352883013,1.8377219093013057,-2.814668632202359,0.4655346803453137,0.23160679859068323,0.5708859107469174,0.10552533871990603,-0.6783430933115845,-0.09973276253638703,-0.4068653873324891,-1.8486010751476312,-0.6608812655462507,-2.7449219196664054,-1.27223063709041,-2.4134233765120947,-2.461714704252828,-2.71612887226484
0.26736173067304925,-0.17778417256393556,-3.9844462603639546,-1.853005045632384,-1.6795571266849951,-2.6058769581246333,1.1337557204097584,1.0073597143939323,-2.7320630814446263,-0.5923480422217048,0.4688561895511211,-1.8179626183211497,0.4055281289057789,2.298596270822272,-1.8675652279822623,-1.252054021196129,3.4807754017759653,-0.6555481370982116,-1.3669328255364819,3.3030532832932553,0.08973414860497858,-1.558636784706809,-1.2044363837902476,1.0869056922169182,-2.559493112470906,-0.6138789166795123
1.6656047931154736,-2.1995456191807414,2.189491770576789,0.292693035803961,0.78106762285218,0.4243393027109944,-2.8181960862182684,-0.07910212390923506,-1.1254921166950127,0.834850184718322,-1.2018953281994138,-0.5230145661459171,-0.045606543561568194,-1.625541032611526,-1.6686222124931567,1.1436153054366869,0.46870549457703015,-1.1409489790339384,-1.5546978337945947,1.4548832242135221,-1.4034731281127515,0.9151037129337098,-1.379660621390332,-0.21935439332250758,2.0096057445314597,2.520926204783612
1.8001022515874117,0.7958867005983956,-1.4451987051737283,0.22484588536626615,-0.6353415265334242,-0.7657582761201744,-0.8213541306376791,1.2550102164258239,-1.181020526413031,0.3161564162587027,0.11478433746871347,-0.4675921475738594,0.7768107972731766,1.5124550947921234,0.4398640400161916,-0.45306574025055063,-0.6843799544404875,-1.0424656137132793,1.454117120195234,-0.7745041645075982,0.2861329845463539,-0.42100854500011053,0.0821196650975666,0.3968381876079412,0.5336083790219358,-0.9542057026822683
-2.3413112685348154,1.8695457574459349,0.0046549123390562195,-0.798646357663542,-0.5165182288817889,-4.738710530405475,0.7531859997842224,-1.681819864087479,-2.110573099184996,-1.8602093824427581,-0.254046950055789,0.8240459579046314,0.9271400317000862,-1.5696133395897696,0.6039501485189283,-2.1214692419081365,-1.274051300900453,0.20487391628622306,2.480836477917522,-0.8626538360344501,0.8672016707578702,-3.2404769803511093,0.9085149723900902,-1.018793916266215,1.256614797013171,-0.11082706431487506
-0.3807787403699623,-3.3694766378202385,0.42996362816234285,-1.2836668215260754,1.483848194832832,0.21405554489479425,0.5860067768122466,-1.5259439087344926,0.35544510070551544,-0.508314573731718,1.2688051125124453,1.0175937812767046,-0.21549904665958414,0.11591903518575085,-2.6776651072912054,-1.6210302872764344,-2.623118081458175,0.10968732044336657,-2.4495018255967156,1.3845036284848702,-0.36944852138628026,1.7083864184331319,-1.0204598994356482,0.28460206535146115,-1.5776114775268937,-3.8476670227231615
-0.6516198268782544,0.9980462898482352,-0.520214481319009,0.5408784360657669,0.1767950932749185,-1.5670619192820106,0.35423378057114924,0.14489289288072058,0.01985138617038665,-0.5278857871259885,-0.15930903614795047,-0.5600827274956343,-0.3642639670109239,-1.9196988889048137,0.3717210876004444,-0.24778484227251588,-0.1994271199723077,0.7055485183924693,2.1405425285097364,-0.21121381353461863,0.7056279789581048,0.2782372649315361,-2.07328160678037,-0.8337881035793263,1.506371661044506,-1.2081113313761196
-2.423172666307045,-0.057342430107215674,-0.6958011943289824,-1.2508648008960952,-1.421671583694194,-0.39812954864288397,-1.42825861785703,-1.1164002229497103,-1.1633267479920841,0.3533685012022922,-2.4286455937879907,-3.7855244144041067,-1.9764725202196642,1.2019830521571153,0.8617232220056299,0.44055567347916497,-1.2725152643619124,-1.0290327393731322,-0.46145610496281914,0.13300975794782538,-0.21940592778965823,-1.0492184448507949,-0.84273055488562,-1.9704458209308848,1.0819730163075285,-2.4537627773395108
-1.493897949764692,-1.5983730207819533,0.8004568910339505,-0.7200832464528699,0.6043065591498964,2.4235426318541924,-1.7057327418278427,0.42771224613208186,-0.5278010373748656,-0.10939519137381645,1.4312119536789403,-0.4946027413977994,-0.7137097249213905,-0.16667614121730961,0.35645547696431606,-0.852499957739039,0.9624430934700808,-1.81470359187167,0.47040404354100307,-1.3338781820082937,-1.010009468656552,-0.7571179484106885,-0.5269195768075917,1.7274189266913895,0.5581917326223877,-1.294058988457206
-1.5664132975644245,-0.6603234663865425,-0.12797168219966318,2.1911492950236897,-0.16822956996163677,0.3341501254466816,1.9819422994395048,-1.5678082341593054,1.97178741701452,-0.8840201565103022,0.41502869524626673,-1.6711647856302707,0.9738618177820237,-1.4657388277434247,0.2648642973997958,-0.21281165336839197,2.1527220298761685,-0.3962555919591184,-0.580726436687054,1.0796026643246723,0.6151526717817322,0.09019791449021217,-0.17829514078357792,-1.440676613557533,-1.9578315055151352,0.4414398662035158
-0.16499708619522296,-0.00909652526568683,0.3201196927127608,-0.5049728180982715,0.5041958944054366,0.020969020169121277,-0.32074399512732615,-1.2607892755600936,-2.211661715744909,0.6224031121021212,0.8073260546363619,0.7216947645792839,-3.562239421014013,-1.175305271604357,1.0859079292764635,-2.417866321603579,-0.3036687799419814,0.187891201934606,1.1493046767262816,1.3003912907877955,-1.4715021602996674,-3.6956977279829872,-0.4121847978695329,-0.012906825321369796,-4.735533228607837,1.604318091015189
-1.9404462634392983,0.5323100387937144,-0.2345675916940956,-1.2686008797881634,-2.529279465482001,-3.79552316852876,1.330682656134303,-0.47474286057141574,-1.7425397174225103,-1.025848109295446,-2.3149132162985038,-1.8660930623589247,-1.2131574834785295,0.4830597838505047,0.3091446281962585,0.7703294516924536,-0.9641016559814134,1.0688412204929254,-2.6025421894598013,-1.5402661540624645,-0.8727047810744831,-0.8009782865655919,-1.58445464502136,0.4774815619601847,0.7728235925263598,-0.11171584949723687
-1.128070624425597,-2.4721809033530597,0.44664982114724094,0.022504948975610183,0.5758434585145201,-0.538689283121345,0.6681700474622818,-1.128347055541415,0.7168240253834555,0.6925920831252379,-1.346535860306506,-0.2728936135687254,2.2040827611611857,-1.5161970602504244,-0.6979108006864806,-1.76116971848986,2.7063332031651686,-0.23451227143513784,-2.1109410567640143,-0.5448982760232438,1.094571839455026,0.608309592183734,-0.08901437280567774,-1.56097360553941,-1.1663379314618099,-1.618884042879517
1.3341761229073739,-2.793868252238132,1.1298050515030278,-2.1087702751416333,0.6822055114102386,-1.6513212891821254,1.2019332303578891,-0.9805003292593759,-0.8149809331728244,1.3663722140025103,-0.7964917089033478,2.7770168119241783,-3.1611481112005837,2.1676643675616236,-2.1818508453466126,-1.9055147022598844,-0.906593461371367,0.022983785937590213,-0.049903218281894715,-3.3115930641363205,-0.3783268881345143,-0.9117749920427338,-0.4801082306861768,0.5005557150040276,-0.6050145017818938,1.5815206270429207
1.0899958384036617,1.1226546208202406,-4.353134897222002,0.6582266327507411,-1.2206332434295861,0.09124054610280058,1.6708867590025873,-1.4272309428094796,-1.9737300575919972,1.2199098490803337,-2.674209613565921,2.0144765158444833,0.078690154416116,-2.117847523968446,-4.2516412886303625,0.016928487136538446,-1.0810940652710777,-1.6154081588759486,1.8462033293283764,-3.5202539481319306,-0.6400177464049812,-0.019991967007780817,-0.2456040717990846,-1.4922823249393644,-1.4362447652008619,0.7526469831599345
1.801924287475645,-2.027966632891844,-1.1268185189680398,-0.1880085791276796,-1.0711913231133403,-1.4645240534070145,-2.004339985763786,0.8936252905487412,-1.3238592326489826,-1.1608045843270607,1.3588352919005577,-2.3567175315007955,2.0428865932058238,-2.5882959469838056,0.8080015064239476,-0.8668624214045418,-1.2676726404018435,-0.8263643547841565,-1.1332943504070125,-1.2208448263539815,1.238564523873101,-0.7381964608153251,1.3506033784885751,2.2242917250628342,-0.38387868841441053,-0.7046622240472084
2.5126506831645825,-0.10985211989277077,-1.6359738343207064,0.687296370478428,0.6951322368216508,1.4988819107723836,1.3776816372042449,-1.013835744311807,1.7685536411263394,1.0129210855635982,0.3133628943783426,0.37789855276734724,-0.3192656373179081,-0.5148190414566526,-1.0493921340047483,0.9164932412125257,-0.6441168634261178,-1.2731498247613275,1.8638065433369033,-0.5563844609098424,-0.18657440745402346,1.5354916636511957,-0.13005536960313738,1.0397947754554377,-0.5447622207879019,-0.520932700970097
1.1369264472955414,-2.864617521628344,-0.013299352406476814,-0.4471478219561133,-1.0178942133255924,0.09132842525928879,1.994998122577948,-0.404009481142073,-0.6395023722956423,0.9725038192226765,-4.038601751261054,-1.3341850424277988,0.371365236887623,1.133786415076529,1.1575141615815596,0.3131088275266232,0.4597761417884917,-2.138111674367979,1.3078186935847833,-2.1498714860308663,-1.356696878611268,0.7622617438545227,-1.096379062820639,1.522329107980207,-0.11988975339395241,-2.72314193315064
-2.0467674964567824,-0.5992696533340354,-1.2074775993488651,0.5853235569859006,1.59081668316225,-1.8507024198124584,0.3673864218311162,0.7710340645904447,-0.8310666175756815,-0.8318274705236282,-1.1544810429372427,-0.8160536131417772,-1.0673866198176518,-1.1064882190330785,-1.6043837880727136,-0.2995146904240904,0.3131257763240944,-1.5819167424047926,0.6140069291099517,-0.7465340735273412,-1.0955167240480188,-0.5046007733023729,-1.7328160624077815,3.3742716612846446,1.2172597793850295,0.8052954340991336
0.4090166593299966,-0.32621722376364765,-2.200984645548174,0.6396839235290293,1.232272094332019,0.6851605132073743,0.7041777623615615,0.8575350439227495,-0.07042862958886904,-1.8064744490139524,0.8987170567280282,-1.5816463071416609,1.6789562248199197,2.9248795735904953,0.1677393663864532,-0.48766074662930187,-1.4809755237361644,-0.6961979842304392,-1.583939292093165,0.4626997674423601,0.4714092575219056,-0.5747161567003088,-0.258970414948204,-1.3088082508132841,-0.6189439829365222,-0.22907532271179895
-0.6294457576889004,-0.7832761295993091,1.6250062481470247,-0.3739469262375683,0.07667019121007462,-1.3669509020289374,-0.38929837723868277,-0.2248464313607647,1.5265284198620046,-0.8030621759831935,-0.06477516961262492,1.7478407278426757,-2.1625703083326817,-0.5726042528501649,-0.34013560209542587,-1.0554356129095877,3.3156934460297496,2.5409018002537165,-1.9738312377792406,-0.939774351774038,-1.7011778199304965,1.1902819579114399,-0.8602929077396426,0.10275608963904449,-2.1339051209493007,-1.0201902179358142
-1.2423650826354051,-2.2659459859127855,-3.1600959793323793,0.42111661895304775,-1.128728378479724,3.3392997437905576,-1.553169125680632,-2.4279707067087846,1.4935353329381196,2.349979841665805,-3.3134308005174637,2.33395535926965,1.3539705110894258,-0.6359365008664253,0.952501436428009,2.743379153802398,1.031709466849893,-1.381160319468578,-1.5926790803701387,-1.111695805201229,0.5784328795291754,-0.9952823408670024,-0.7856355885783888,-0.37450184880403675,-0.8006653527982733,-1.9113922791182647
-1.3037340959463264,2.620853631924421,-2.08303135925669,-2.9052977495821093,-0.632674821231131,-2.10988255762358,-2.5226056297760135,0.781305719168242,-0.44756656107491954,2.399373027479599,-2.4326767987598896,-1.7903471439783647,0.05408754257627502,-0.33178308401113477,0.42954582594366303,-1.5308516366278722,-2.558770520346582,0.1661128348057454,-3.6340770430061853,1.2076755849195837,0.23763182562733842,0.46896116136998167,0.13413903581796693,-2.5982861967828166,1.5553358936297825,0.3644920318747538
-1.435063496566589,-1.983642208293094,-1.1094730052396904,-0.8707570447227986,-1.2322612140102949,-0.30068504025216664,-2.2012319949467147,-0.5237577056220593,-0.35025170344408685,-0.056582149718349586,-1.0322679114903999,-0.8316836737844189,-0.7202723512052939,-0.7966167176352591,-0.8089966481877543,-0.9126102520075204,-1.926077603231345,-0.47591184079556725,2.2861008430895997,0.19021927971811162,1.087984372593944,-0.7265649688934399,-1.413237259815822,1.6488691422420971,2.2197138905247336,0.08932545903619347
-0.6933061204714668,-1.5190266256901799,-1.5344903930937963,-1.4179910807990401,-1.6448700795040143,-0.111462539227398,-0.8759836823493033,0.5776101946824328,-0.10375540924814836,-0.7923215845174953,1.344421055812977,-0.6527731527012008,-0.08440733051735938,-3.1160405096082915,0.2789625892958979,-1.2402962388243035,-1.2018094533974029,-1.7345404955272627,-1.2409861977796348,-1.1399147774716956,-1.8046944722322402,-1.4979056707862044,0.4021062820482106,-0.9844847526002144,-1.215719622263251,-1.2931334743081526
1.4197662184185547,-0.5661906674984295,0.8517493608854462,-0.46214732125296354,0.1748181349679871,-1.8440518538305894,-3.3296451460242475,0.09931743456569829,-0.3554969524593565,-2.625648489635581,-1.4731407963380416,-0.8095339560808542,0.3908797489223994,1.2081599150154287,1.4274462208799144,2.2468032895641867,-0.045660662494285464,-1.1227851757596028,-0.7973140367846566,-1.6422754386082288,-0.8788191331738567,-2.1916479342025887,-1.531212727849497,-1.1735729111270412,-0.997262157729037,0.7097880364957327
0.6424681077270408,0.42326054945217667,1.1769392491058681,-1.4507806823199414,0.005023138261745965,1.3128941196413189,1.286442664246956,-1.8407895503871365,-0.20642441141403597,-1.3488672624940612,-1.90980444798275,-0.9799164063458103,-0.9667908820524354,-2.9974403783091,0.6945799657334352,-0.9283912086494712,-0.19926983460101516,0.24881170052224685,-1.626918020005884,-1.759446169126938,-0.7237365615658495,2.9506949013732857,-1.3630733902963217,-2.491584716435526,-1.5327279845793438,-0.7167059256920635
1.525918072048839,-0.37760261730690614,-0.5029752124530056,0.27718000511072954,0.18179794529773244,-2.5975021665577716,0.61617695919795,-0.9154247916400491,0.6653301580598009,0.6509220787505092,0.13611190446607244,0.543750986982322,2.133167975092123,-1.6059682146677838,-0.6290814640557962,0.5305628374904973,-1.3253768214292074,-0.24742066765085946,-1.0978516611805664,-0.4095394742793234,-0.8961495624964189,-0.306525825628296,-0.03222299863223735,-0.9600524616099843,1.6072801136211232,-0.7204154670731082
