Pesos da camada de entrada para oculta
0.9570129355788632,0.4550398436699357,-0.3956420542068989,-0.9688173056774668,-1.5555525759451139,-1.455968978240319,0.498364406101444,0.7079346603702208,0.4859930242665657,-0.3091464345963357,0.8421411521224776,-0.47568134206880264,-0.1734932369826861,0.9634107748757467,0.834077632328227,-1.117186616849493,-0.4632132764938582,-0.6973544762410815,0.059354630020230635,1.2593381556393695,0.22694176135718538,-1.5161986376607708,-0.6497105188381472,-1.1731852041187332,1.8252837784834735,-0.41775056185855475,0.2401087207254599,-1.8103533583058067,-0.39319082320713283,0.49953873881996264
0.40886043126602467,1.154760653567014,-0.23316003982907987,-0.9727041871779774,0.5931590099927226,-0.9834612206650332,1.8619977701195847,0.46869708786356595,-0.8826478801543581,1.3883596590245337,0.5793335260083762,0.4494113675063683,-0.4387775420031611,0.16961944495602327,0.1528764644616953,0.13119483342476532,0.38786284114895053,0.0491636742832492,0.6811499299893161,0.489520257712449,0.3076513373580837,0.09226008098019958,0.4105413576440401,-2.261858377124798,0.31633085276297845,0.36348015212426965,0.01498527060410548,0.460574158846863,-0.7542633733962113,-0.9228778485303943
-1.5655169796514368,-0.7836822148909479,0.12169667190680081,0.44141739682058934,-0.9641888863212262,-0.16867245473180525,0.3705810466389654,2.0981492350961144,-1.4399461353637841,2.156373568539631,0.13766812618286267,0.7210809253476631,0.7139962268108577,-0.15693131056107265,0.544330525864993,-0.0007322675134616428,-1.0684387837223301,-0.40051402394623553,1.3253963554674566,-0.6242305358257948,-0.22071973654317933,2.001574498299159,1.0500402722519544,0.20934503177311012,-0.8721211332224745,1.1042170245360152,-0.3748523255327522,-0.836828605705889,-0.4981643920492846,-0.10043615632842208
0.28672331869313905,0.9329830332611765,-1.6445879938460721,0.07410213071444001,0.3645397661746328,0.27137773472931825,-0.09291176315429778,1.8008199263296851,0.6728278687328288,2.407697229554339,2.079645097851604,0.8277736782480106,1.8554213229915417,-0.39356319073346374,1.6881571486603066,-1.2943091975972096,-0.34536793391829607,1.7243533539238718,-0.25321971533713816,2.2306961560094187,0.22659455635103284,1.4044686099054404,-1.378333018855425,0.20140923728371954,-0.05546449726788158,0.3599698404337123,-1.8537450907629547,0.8800143259339612,0.6870433368661947,0.9498638423861151
0.9686095361576165,0.42905873674885187,0.7486257481482052,-0.6953293951954936,-0.2993286619737578,-0.47961918649292706,-0.29042384609030686,0.8808117555610215,-1.0671942943179094,1.5314115716105503,0.8457994776473962,-0.462344703884911,0.07847586577644375,-0.14056502708023053,-0.21603132993963656,-1.3686090226240801,-0.5040412246249281,0.25329549679566626,-0.10525574643779669,0.038704096610730335,-0.006144392376946337,-0.8737308187317346,-0.3232650747408119,0.17580886196651926,1.1903426059979065,1.5070609335093952,-0.959044376991199,-0.8844585479434139,-0.4972595810778684,0.16044875468152198
1.0663664583494796,0.5056665758085659,1.2585726159993278,1.6979060758874773,-2.649422957851368,-0.3226529461661058,-0.4619452095172339,-0.5628565985165196,-0.46471491067852116,-1.1539157611271416,-1.1740590118797467,0.7231089830640035,-0.6604108811956018,-0.9344622807552844,-0.03640881156066452,-0.23127377284590714,-0.7533896612181473,1.36836724412802,-0.49905669521501167,1.3446451974358629,2.092804248100367,2.235425781951311,-0.9522360142117325,-0.8873529569701387,0.5132354417245023,-1.5110015778863126,-1.594968625282732,-1.1407206962295968,1.5134263199534304,0.1575434504934534
0.8734244887430265,0.37679738709075117,-0.5666680479547556,-0.2705575419131312,0.16092694928700058,0.23582318301177246,0.49416374975867305,-0.10889593948135723,-0.2666408051540348,-0.12097941359700268,0.03373024715856764,-0.6001875889551179,0.7436357532518191,-0.43081397464887633,-1.094931960012252,1.6638332497398927,0.43866415566057687,-1.9222230464480086,-0.002459664144840769,-2.067031545411825,1.0883565994590094,0.8100217545389469,-0.8500398064837443,1.41281281045671,0.9965658597050283,-0.38177107746299765,0.6950363708089129,-1.032205959316058,0.10027705212907279,-1.2415636571177753
-1.0371377882245971,-0.48097619389797597,-0.8344666441969608,-0.020397266176147733,0.13588053315887905,-0.19385098519284066,-1.0871198927708394,0.8752898396304544,-1.2105734180090202,-1.4773449299672947,-0.9395782910792242,0.3780249771371108,-1.682449311828211,1.4451908033362462,0.3369617201561488,1.2284075047649412,0.8016452937426548,-0.9136179745164562,0.5049829350745594,0.8972485860019669,-0.5666370871905012,0.8493017677257619,3.1709928010805823,0.07194631864212785,0.4107106519373204,0.306804513460847,0.09914669058721423,0.3127784355304151,1.0806628187882792,-0.03641495350194309
-1.2717522068153526,-1.4131222070495066,-1.1955840942969456,-1.1096631627080271,0.2550181242277769,-1.1561353519538011,0.2373349836431538,-0.328993013035267,1.3221095350650651,-0.3425811090868615,1.2640415894658232,-0.38097608158746743,1.3309146874838111,-2.679087650535814,-0.6669464806068935,-0.24717990994730885,0.5879906532774389,1.602355769218024,-1.1723589241285632,-2.436294339206491,1.5342358370666582,-1.5331589640634276,0.5734229543247148,-1.3415908674089927,2.243651401103027,-0.7194979644687493,0.14797803003297239,0.3796167928788455,0.954020493508906,0.873657919485262
0.6288494724815028,0.7654822270956844,-2.82029102359006,0.41369060206850167,-0.524453903298301,-0.09986948275417741,0.5505628878628261,0.8871836191745287,-0.4924071799800293,1.3811987657802172,1.6712341522958014,-1.0566186494206478,-0.9992788255140612,-0.054036729832309845,1.7344357862845532,0.5661612290929692,0.5479890628145672,1.0146093511215684,-0.3753385858478082,-0.9732726756970184,-1.0177961424265467,1.1200995943769485,-0.420952097668023,-0.17592198233270853,-0.7795886153378803,0.5340685899996824,-2.946655593435822,0.8594062240918938,1.4141623415192885,-0.1624781751664637
-0.7531698967174686,-0.23308313313458365,-0.43739523106891176,-0.7708703447333191,1.0062263744292412,1.0219346431685492,1.2668369777920288,1.157738572441436,1.2405106697009702,-0.028974145701822607,0.9754588257117384,0.4201611138238089,0.920453103030681,0.9713335259685857,0.6107328501183766,0.6781130725166857,-0.5235718689639131,0.06398879762211016,0.555186182964262,-0.13929543075581627,-0.7980729884371325,-0.14423031986143134,0.49587396590965455,-0.18237335119538317,-1.1421300930389318,-9.898873973931621e-05,-1.344696795088001,0.8696658343908749,-0.7402705655034443,-0.7825678215596419
-0.26922408005970705,-0.5882611440826943,-1.12881476731566,0.4097364498630192,-1.562298977715293,1.4304511157723323,-0.14875573730916936,-0.3274999774206427,-0.9786302785246869,-0.11217068128323598,0.6176179190067729,-0.01030168391484265,-1.1313731480080336,-1.1579241510040201,0.9272082011463603,1.4342093534290998,1.059148094731183,-0.10953455430794166,1.1013909828370883,1.1314328549696817,-0.8266580459294174,0.5723908534739802,-1.7665902424542337,0.138816045693544,-1.0149229834982796,1.9051289497519728,1.6300807350811475,-0.3281130897015421,-0.07765731202617523,-1.0439670089204145
-0.002088952373067934,-1.444807267617299,-0.8645666994489809,-0.19820835166584033,1.0583750288744003,1.37714453526924,-1.3678337093328508,-1.770255695540982,1.5143890922451346,-0.35067921324762097,-0.5833827290504086,0.5034239887283415,0.5082765628940319,0.960067797795311,0.21013439005593826,1.899477920827924,0.4773547194673111,-0.5047844439096735,-0.04898579608943122,-1.1883822006161509,-2.605453131858156,-1.6969603656412964,1.2857162712526655,-1.6339485960103366,-0.01341946281982013,-0.5203052307137899,-0.8215696349885752,1.25235169929347,-0.002277074236357951,-0.8230908979650471
0.7812708364289462,0.41496786481569986,-0.27062423797633717,-1.058407185828313,0.03767189328069308,0.861736554141051,0.11415794837923664,-0.5961629077464257,-0.23352592595418772,-0.15243946487515048,1.3552232820048447,0.4606840785539245,1.4935273217867118,-0.4283115321430863,-2.0483436653728773,-1.0047051091162187,-0.26349393637323065,0.22705002781817216,-0.12942618955499555,-0.696083513212469,-0.39313753722066325,-2.6658473035898975,0.1297968349637217,-0.6103693220604264,0.18495113089596643,0.21783895020458788,0.23755193179120976,0.1107507048284769,-0.5572318534883136,-0.6964748586318265
-0.9789610788030587,-0.4732527729406175,-0.165818212249439,0.05830010889292601,-0.3180634880800691,-0.8504976683044453,1.6331946514990783,-0.2924545142803607,-1.064808500530221,0.5139725209158307,1.0655555983709528,-1.1200561988555489,0.5117248369381346,1.4591358591443861,0.38730368829705986,-2.1356462905238036,0.34751882873309486,-0.3764783349726734,0.45296128696672744,-0.6156300307744813,-0.6650419568517509,0.6210748488246695,-0.7797455924655317,0.3460737895909,-0.5865685273297884,-1.9960867255550023,1.212161592565373,1.1924899570250487,-0.5712140558604987,0.947963017031034
0.00548402068230061,1.4226355389787555,1.0407493128066185,0.552268505369574,0.12660084048331144,1.098548966774452,0.85756074664084,2.0254435936400617,-3.5881515799019508,-0.23675719477989898,0.22409795419564033,-2.107576339009326,-0.8930131540823427,1.2439816280270832,-0.9878177836323659,-0.008006007858026843,-0.5332972063950214,2.1683441691541674,-0.7378439231866989,2.628904675186311,2.7334500261632173,0.09531687968333104,-0.4272598734167751,-1.0357986478333845,-0.784607670924325,0.33943805010660616,0.41581674546258235,0.42164849912823416,-0.8385067941160147,-0.5678626438341347
0.8803808542190619,-0.8454725503200469,-1.3764905976553945,-0.8230428958918105,-1.0295371064750676,-0.44677322222915433,-0.8737429252367276,0.09887437948600412,0.370595167066738,-1.4012173096679064,1.1184807917193864,-0.7621809759300026,-0.6907397762327959,-0.6054893487390661,1.3661206413455185,-0.8912928975664388,0.1986358325550814,0.08978066196843765,-0.1342756662281975,0.17305312436274592,-1.065508050479132,0.7066452110106294,0.4575371606789034,-0.8515871147820617,-0.49537905779582203,0.564448641298749,0.032133042268457375,0.5761638878020673,-0.2015218251305217,-0.686436056075782
0.5009912981365109,0.2515532352560921,0.4793589378307616,1.14529164296203,0.08301021534350397,-0.6584566906204268,0.706907891465185,0.5405656608524837,-0.6906491679988567,0.8691306718386714,0.8966554191304423,0.6910491558089754,-0.97234006592105,0.01659540265193153,0.6127250505765679,-0.4337115586011818,0.6135671521424856,0.861305477390602,-0.3055206585652075,-0.16074379330085595,0.5181204227867874,0.831614134428156,1.1604326852156484,-1.2386485970956878,-0.5819788532577174,-0.5498737530573202,-0.578284555694428,-1.3332000124188481,3.1997153017154667,-0.22715542131680294
0.25544071245123623,-0.2709579597551505,-0.1567758739137538,1.6460535142956978,-1.3189045736635538,-0.2337876117400045,-1.3723604486722885,-0.4451710404293425,-1.1956431414167763,-0.4208343844929878,3.609290082186042,0.725893062404435,-0.588092680879148,0.0762776296672079,0.5511656630483354,0.8771610139580174,0.7954133115250954,-0.23303853559704818,-0.7483849940807534,-3.061733700463735,0.9736928996564879,1.70851310151588,1.8341855057390786,-1.44868329141281,0.11209274402778174,0.5540678217487742,-0.1071119126025611,-2.1666991980231574,1.051157649638553,-0.31672669687767246
0.6203922111229743,0.31359990221772627,-0.7575166533121342,0.8307462781133473,-0.527088525757741,-1.5894203129077327,-0.423270021174879,-0.4375048359701907,-1.4175734344084936,-2.124429224892324,0.2126952032918878,0.13177300230454933,-1.2627392410593998,-0.7336567722588082,-1.0503761833474698,-0.7558120776281007,-0.3451006341488182,-0.007532498686985613,-1.6511682415753426,-0.11098461434838512,-0.5390535546093242,1.9341371962515228,1.2480261797562207,-0.3318246723451958,-0.36761519671404524,1.159855728325005,0.4672832540461617,-0.02751046049676522,0.03606960444200607,-0.21467091680331352
1.4069630463059757,-0.5187289288864403,-0.18094461169711762,0.003960343594348702,-1.1716536368358346,-0.6836568623232296,-0.5214429974573448,1.2254234244661888,0.3477067030970767,-0.5056717858108136,2.005223871032544,0.7357787994184577,-0.6813548529302307,-0.48489335939129097,-0.9957196534313666,0.5889837740118602,1.3542269407379186,-0.003475947673648767,-1.9199175556766255,0.3268356831329449,-1.4072042939778575,0.5083336359980186,-0.5763213417722759,0.6325445503407665,-0.09863619712277223,-0.46543904342652376,-0.36420567638783485,-3.0407789873050293,-0.03870606312272017,-0.549699561622531
-0.39454584828540834,0.09219490968636422,0.5514385633296801,-1.0724972309837189,0.3855488851399218,0.8213749841629708,-0.029937702414592777,1.289937894556176,0.06978676916050924,1.0490082756760315,0.5199656078384409,-1.4774416263362713,1.3515706851221483,-0.15064213631269713,-1.298833852835762,-0.42007744489610305,0.4927493790491805,2.744626515323046,0.05749858873295772,0.9341632202908922,-0.7883066537791799,-0.3803012936928939,1.02787723779479,-0.09113295097977067,1.3241204967661087,1.893541770950469,-1.0755985335238722,1.1701053303224689,-0.5767354758267991,0.32101285228321147
-0.9697331441397181,-0.5337549094968483,-0.12583781295841157,-0.8629408527917735,0.5086056162241233,-0.5030969542966837,0.034326075285580175,1.1916419464234942,0.11293428479160017,-0.3716440565819763,-0.2367730745794543,0.3295617805125308,0.7799114497243875,1.6189991120157783,-0.10532359003996077,0.25495231243223415,0.2525599676810644,-0.375015000693089,0.552943354409737,0.4932534581566369,0.49581428253151955,-0.6471697951667161,2.887584380836145,0.8360837757222718,-0.16922345184807894,-0.48097261034644645,-0.8186506194042396,-1.2263513088579625,-0.3327044134558414,-0.333543453811081
-1.791399245941864,0.5567785590353409,0.1473931148596871,0.8573129327161015,-1.2761977082788267,-2.111379969026132,0.933527369277139,-0.17386101648447866,-0.14880967010805093,0.07380028615217772,0.4864220266676003,0.24281133243644037,0.4866226420221811,2.5715331918689204,-0.14445050722105937,-0.7921713344584108,-0.6433689266200154,-0.6982169449952805,1.18231127169769,-1.9407493109917187,0.5964446029736584,2.3982389447159163,1.190813349628964,-1.1167512846644383,2.159326076178695,-0.18922171747603808,-0.3526237838104732,-0.12635117664415704,-0.20537750816869615,-0.18215212501421849
1.1073353480605224,-0.9279372495629378,0.5880209378419633,-0.7147150003658527,-0.34086100131358094,-1.8995556948345955,0.4443967654343157,-0.37181840735902344,0.8680466142129963,-0.21788819746605634,-1.5845699437312457,-2.154883337959647,0.24667157263984965,1.2794152942843933,0.36834913491017185,0.2636677419701576,1.129107482401981,-1.311191120502189,-2.049113902229087,-2.11019154777537,-0.528006132051337,-0.5003397706285911,1.1479992254062512,1.9494681593121315,0.29445326779798087,1.5065600027878128,1.6814278351371768,-0.18273290706486817,1.4018518202455041,-0.14062507813639613
-0.8089187214790955,0.5908916661640469,1.1134578972260558,0.6772691087344876,0.7731948277096391,-1.153541577807541,2.0967373496226522,0.3198153705740412,-0.8671083700428232,1.8904889546094077,-0.9799190841195785,1.1778382533558358,-0.5217154018330746,-1.7632726710482032,0.22841787921636914,-0.5015008238285299,0.12254563190648078,1.7920225034078385,0.7787723503449141,0.27253087588786523,0.7138979608129132,-0.779014554541134,1.0854670351722489,0.4708123451689919,-1.0674171804692278,0.2653049060341155,-0.7510428963269008,0.4946259967999488,-0.38735997165335934,0.05411330545731188
-0.010497659403075042,0.6812430638521585,0.607748407753503,-0.7264085470118364,-0.06057388646155101,-2.14211728956549,-0.18597103924155395,-0.0370027559581699,-0.987331109588971,-0.9309467881013551,-0.562568275791208,0.386324473036448,0.6362368890755304,0.9922630836296696,0.6832872571713543,1.142986047845377,-1.2936329289652626,0.11036570285902048,-1.5756277097007072,-1.2607385975671777,-1.5643109343157067,1.8334858773374287,0.18034124838320484,0.8658730522959351,1.034325708153384,0.32881930933954423,1.0199914231580547,1.2227669250260542,0.2271248777496541,1.1182761828703816
-0.5663855286483016,1.127502853527644,0.8835565895530414,-1.2104424059726417,0.26093866575188673,-0.5885598508262188,1.9377194693929236,0.4937587926549194,-2.2366706867913626,0.7324778525844878,0.43483507260413107,0.3358951622594757,0.019732633881131032,-2.240119661680521,0.8718209610705333,1.3498419577370178,-1.350385419466669,-1.9413902209913387,-0.7573179356594075,0.5953607648197349,-1.095174612844142,-0.07395479965747309,0.2546882766617348,0.28338448075252426,-0.23618715161542123,-1.9544212411033042,1.366732046774803,0.795627407943045,-0.40376337762119463,1.877015313469018
-0.0215575021219581,-0.2312433711471084,0.013079231058897972,0.1403246574054192,0.48504784664885886,1.9901383880607084,0.5276617553819384,1.35832511100236,0.11696241629182956,-0.5086695368384407,0.5234901035142037,-0.7010887442418056,-2.62075964597306,1.292151335897771,-1.4745890635081553,-0.9504032632519233,2.1821292156055105,0.9643501438299017,-1.6254615609763974,0.2393755191529061,0.04785301853338096,0.47180495625030966,-0.36322839737394624,0.7419319147940516,-0.5534082651468941,-0.4190248352724745,1.065492630097969,1.85282566114174,-1.6308534346171137,-0.9276419532914882
1.7914162098820834,-1.72993083323227,1.5619879954252467,1.2447959504672457,1.5536532824206193,-0.16721390585703377,-1.800387355397149,0.7805518446938042,1.2239652648349906,-1.062597061169125,0.01789872040976757,0.023079988898085723,0.14411275560371892,-0.4139468814345503,1.0176908203390829,1.2049328257337675,0.9042264681155003,0.016411783819537732,-0.5816578256870246,-0.7949283062859235,0.8240909244379369,-0.8822154171445821,0.5419587230005917,1.1915656677769282,0.8819751555440979,0.40687428688101973,0.45172679693662093,-0.0822314476337407,-0.1251173621575831,0.05022766891098474
-0.40910529113028754,2.045934882184868,0.07813467622800518,0.3416541153402858,0.6251030903468527,-1.4338804620422987,0.8091381220387677,0.010870957963241109,0.9417241146217693,-0.8239798090739815,-0.06786038483812204,0.744982311737711,-0.025825070932528532,0.5334176267513522,0.82302553598254,1.0815746684633791,0.5482134690485562,1.2760106193412424,1.0918618319272893,0.723794820504616,0.1793030549016519,-3.402143566982944,0.9903563177508252,1.1113224300611888,-0.6160281091867075,-1.15647384431935,1.4535797275985594,-1.324374099991882,0.09281663779959659,-0.5759307182951322
-0.15742319912896882,1.5703068520231422,0.5638864151580215,-1.6031538961592113,0.5352950653717152,1.162401193266464,-0.15809182520906903,0.22650350820067547,0.27167704825775707,-0.6624971875743683,-0.4077177346290113,-1.1210634430522315,1.7402452600423606,-0.015617282638838022,-2.7061973382152886,-0.6385069815587199,-0.4800378981532652,1.357410028065627,1.3930810795466047,1.405385427448548,-0.05398814794149172,0.6577268652783795,-0.9824636112274672,-1.3658432296199454,-0.4205747937314734,0.09912624655807195,-0.4928102025567759,-0.9300210060375527,0.2747613517856184,-0.22882194777782902
-0.10353826117513838,2.056049740353879,0.7228840894987871,-0.42467196713834826,0.28090282258599025,1.9159175457655853,-1.1272112448165559,1.0667628717885687,-0.22194706159757394,-0.4469523506925438,-1.0185610288381068,-0.06350615413153991,1.0942089936769224,0.31142534730599736,0.5200494340839513,-0.9531474597814985,0.0935586025688675,-0.1555317597801799,0.4876614961071507,0.0018011822754023055,0.4894579572711044,0.41763530148925454,-1.901670548070611,-0.6327403436085809,1.3994042007419065,-0.6987978341313378,0.027672323877585874,-0.8827330287263295,0.0024081253761048757,0.6089306885615373
-0.3571387887919229,0.2921668356764602,-2.0008976073302804,0.489931704952062,0.1360836761823358,-1.1259463287119003,0.2888473140890661,-0.0798721751932412,-1.1205700968920558,0.8984451324635224,-0.5152282799945901,0.8468937190442578,0.4815731141934833,-1.8032634088054997,0.45884179401984315,-0.3913800155755264,1.1413601997817562,1.4195638196378633,-0.03889424841266548,1.4398675789129582,0.8780144306968538,0.6097851229654271,-1.1931508542982177,0.41778037936061246,-0.44581272436040914,1.412735187683837,-0.5817162438729439,-1.4422530701410166,-2.4620782611905905,0.6645189471870867
-0.02690324291815931,0.450400731042043,-0.2515712043895082,-1.505665658379348,0.1887849968893383,-0.08559378096898843,-1.38452019721393,0.5171673265074808,-0.4407108955645341,-1.5289487331377822,1.9421567552928207,0.07198411486927386,0.17824049605054237,-0.7697855054335452,0.47027040787094104,0.6692832350539889,0.27680646493156086,1.2962617512160433,-1.538503500150263,0.9934271889515905,0.030780957017150282,-0.1020630073997444,-1.675322667070962,-0.7126580705548237,1.9702365757753821,-0.6516818236213444,-1.7148511896415048,1.17759552967254,0.7929453467718832,0.037384547032219884
1.8901075908765541,-0.9939901500871813,-2.249977250827242,-0.27809162114657293,0.587137951001407,-0.16114552586873568,-1.1696903465040234,0.31154413682579585,0.5782678784196,0.24017599493255848,-0.12394763194975934,-0.24861285114193823,0.06853817960918976,1.0103584912775063,-0.16621462709994658,1.10788073085822,1.2350562890249053,-0.4415942752343919,-0.34490943005102603,0.39046202947381503,-1.311686087624429,0.13306008935616434,0.6764362035243703,-0.08034323003667027,2.327264615300677,0.11833290628937662,1.908135380792006,0.8078622078867675,-2.0389053683337326,-0.8224476013439174
1.820301233867372,0.23077131316757862,-1.0818439353521416,-1.415193738489461,-1.1049971093341662,0.12699446886107155,-0.8331356358738797,-1.4629482326801004,1.5529818566655884,-0.6395668513407327,-0.3531217873417687,1.5837355303924003,0.6494954961911792,-2.1943298282586348,-1.2779136858545521,0.011337526185213834,1.7543490867429647,-2.3972405171332323,-2.2061808586709293,-0.18859853690996245,-0.1611265253505619,-0.4629372144340006,-0.2823358305025557,0.7935803280260725,-0.10184595795201083,-0.07399067618820206,0.7176145943929012,0.7860706735481097,1.8259070685127385,0.35565794483101215
0.6012634816748965,-0.43979203386723525,-1.0107342687717986,-0.4806670729157329,0.44646632503576,2.3072761212655113,0.4750592671403652,0.40166669498161367,1.7664746087958056,-0.6015086582270095,-0.8531006228894509,0.3482143810347156,0.33276958876885254,0.6190183061512677,-1.1861511133702547,-0.561207773066822,0.18204575552766267,0.4375715440304827,-1.3571706894398778,-0.3876140272665034,-2.171215958644177,0.41544858039294347,1.0891851238475272,0.1095544946410002,-0.4209926292727998,0.7426394694981929,0.4399130831133291,-1.4142346299476518,2.2718716155590672,0.5029549521859219
-0.44112990226715293,-1.6100767893510273,1.3335529087054347,0.9809008388929076,-0.6939899075043724,-0.17814689889070778,0.9032384167183853,0.4330658363223887,0.07784525846097849,-0.608913489026221,0.357618841080525,-1.6041839894820955,-0.9540290930769447,-0.5142434933595217,-0.718672081643935,1.6695289321963875,-0.0072694726690374425,-0.7497763845863719,-1.6553420872459714,0.8970563548983549,0.470985113431905,0.6383217513426054,1.8634413545238835,2.9292580758868945,-0.7591984968357569,-2.5294819263605124,0.005128327906373766,-0.7034905673072603,0.882628640740677,-0.5696578963615175
-0.7635877284713204,0.7108303629348018,0.3914922757751187,-0.019702782596177155,2.591463444849895,-1.7620270647317589,-0.6505861692011353,-1.359690452092402,-1.5262000133946683,0.8816445047181809,-0.17593765687586682,0.23197970827297404,-0.5669555288596091,-0.3981341661728236,-1.857463094627688,0.217981616130272,-1.0621342954378197,-1.417737699275686,-1.0435290583933,0.1595919430263423,-0.9779669725666199,-0.1824776517334685,0.2609480608750853,-1.1397302072851747,-1.3955288447049057,0.9330121420995532,-0.8496890272931176,2.219815701812748,0.880329655106985,-0.1608498682093561
-0.4591125811708436,0.44136564073281315,0.48160029243933505,0.38439422550455493,0.4054599029393378,1.1719975834047385,0.9781109423806891,-0.8626590122462605,-0.14648916610653728,0.6421602728332518,-0.4912073522884709,0.18464904645343583,-1.02037137515825,-1.736297371255595,-0.04404683143014954,0.45300604982195236,0.5461198949142997,0.618079565274239,1.0594503960500394,-0.3452342148437903,0.8775471900676892,-1.0268906794080772,-0.910573656056006,0.20347043881682073,1.2733663856114699,-0.6856602304733682,0.24891999958509164,0.1340240312559233,0.49493717593181574,-1.6216203802445577
-0.7867680615374941,-0.04530373377666275,-0.11073395690080763,-0.32720040080466295,0.060206412929372975,-0.8205778335945085,-1.9809951026004629,0.5912399364941932,-0.08327238577654623,-0.038918787733949356,-0.9659582134279974,-0.171243417068057,-0.5623771335981466,-0.2042627442133809,0.005371917950966047,1.007284446115878,-1.1129746869315391,-1.140855167182989,-2.2941835279179004,1.3793772158949564,1.456792896534262,-0.7157896476838351,-0.34503578126193113,-1.1624426589636259,-1.0835759109529608,0.9519885460754653,1.2851509146126636,0.07986045296447315,-1.6466494111279997,0.554144526905772
-2.525919507329406,0.3362457623973305,-0.25882312660536433,1.054376872072106,-0.7228814183137005,-0.12158075343293462,-0.16062543293005355,0.09680928649220714,0.9374060229138802,1.6763447536660192,0.23825445190052433,-1.1001465426355772,1.235484912418965,1.4620583009977126,-1.4435198894941104,-0.3010490105500519,-0.06586108532430245,0.4504556823197063,-0.3574192317816549,-0.7782001697022177,-0.3605529452616536,-0.9706149424761226,0.33682948754029257,-1.1462539592768526,0.8767481825808943,-0.2181469470114401,2.439296643329524,0.36759722888182556,-0.5000583229509419,0.840615577803352
-0.25800036307155233,1.4730361621260284,-0.16984965162620863,1.547910040418947,1.3429979711652371,-0.8366644969861666,-0.7675795316078683,0.24679768280514117,-0.8089836386283537,0.699118039516625,-2.1182048370107776,-0.8224415525604304,-0.5310200225821361,1.6869941302775218,-1.1011249103572018,-1.0670524851547982,-0.7590845243110648,-2.0919293716905396,0.9327393683878622,1.0132085892318343,0.9341279168303073,-0.34340176073359907,0.4462027953633078,0.0577215931436185,0.1947264914340264,1.062150103262741,-0.9548406045749627,0.1410033802432646,0.8068133099392533,-0.5288374650565811
0.017522178669026757,-0.3634178822261847,-1.1373943514633689,-0.43965111316800204,-2.0822161053394717,-1.649654887472956,1.0171610414466596,1.1317026247578568,0.3127951655122143,-1.4856696972004786,-1.9727329710157377,-1.2363528955793694,-0.5489712382262946,1.5382119660927465,-2.1090272459879267,-2.0656842079334417,-0.7122016894285047,-0.558529382078139,1.2444483289733033,-1.0843623493071015,-1.0049656761357026,0.6627529387349603,-0.7442858592202941,0.654854032442465,0.48176822801645997,0.3144613653776513,-1.3230235980798897,-0.9724306747272807,0.6449467988970337,-0.268222488318801
-1.432829363224756,0.9976571693629949,0.16202935204544605,1.3732816756847337,-0.22366551947508087,-0.49294894731048217,0.2325143568748918,0.7561790850630082,-0.627144687461876,-0.2786756276597446,0.12107608783024097,-1.710711415416485,-0.1833883570378736,-0.5056831808268022,-0.3542375764595682,0.3966420384160808,1.398109371483944,-1.2787684587257855,0.328809705294359,0.6199983511153188,-0.11502155332642595,-0.998350202117345,-0.045284645998430365,0.2169321761157651,1.8846581273924363,1.3275543980002742,1.2895862785351346,-0.4513379786251685,1.0780911780607758,-1.090002686774061
0.8079182009679383,1.5005136412282334,0.11450762447763077,-0.6442931673348398,1.5419855839477927,0.5913577392661973,-0.0256106704065893,1.4114745878661474,-0.2372221782785047,-0.7542911657447332,0.36786646330835227,0.040895674919509926,0.772438219999544,1.2598615479898474,1.2070264810360385,-1.294845887959357,-0.17829242061301276,-1.038358350561835,-1.6231693560886606,-1.5086421116847548,0.5821271881128183,0.8022286284645842,-1.4671682869339682,2.5703029087551563,-0.024053029635125282,0.9010489711629167,-0.15726127606415516,0.12452208003627502,-0.15499732908339459,-0.8263697652803084
0.25631865980174046,0.02278331331343361,0.5957832228470884,0.19185935934299408,-0.265216382723788,0.14510789181834494,1.051883724613654,0.8349816087088011,-1.8486829091356138,-0.22781481777342413,-0.1220637473771446,0.4059216886490484,-1.7686379515282247,-0.8555299822363596,-1.1702148712433291,-0.1924101659787599,-1.8891045647699094,-0.08546347877762349,-1.3612226964063006,-0.46399675106613886,-1.3732474631106373,-0.5783187552125422,1.2793803201274758,-0.2302052875387124,0.5334044898685302,0.41630109261130066,0.2509547734955876,0.7726118830277419,1.109783533698122,-0.03591647305772335
-1.0165677679667553,-0.4716728700829824,0.5120777448304605,-1.3018487267276173,-0.8571846395647499,-0.3409878245871284,0.6628614833665957,0.7258885532009229,-0.10162958191632704,0.5621332455347857,-0.22629219393383865,-1.475713082253057,-0.9743258927516698,0.9464429805500776,-0.3002481188593434,0.6758673593325669,-0.0761001485555775,0.2951706232998868,-0.5950690176960522,0.38206383887010403,0.9022464535877089,-1.1148731145273354,-1.4807456756381605,-2.1377021957065807,0.8858211891303294,-1.4296468313363542,0.036799793157663505,0.2208439195928878,-0.2715644960981053,-0.3820403928212561
4.426658886736188,-0.6565650834392154,-1.0536678415524647,1.5198339193294004,-0.38999602387764004,-0.2341216112920787,-0.8392169890248962,-0.2591360403344522,-0.0816304298463034,0.5787761701402657,-0.6559948364462685,1.312474698979033,-2.528378163917925,-2.1765228217822723,-0.3083025265149786,-1.1533865817409792,0.6694961135219677,0.7804759080671789,-0.32197012358246235,-0.13075312942784034,-0.3301065082435652,-0.38717945725872577,0.4611225635071099,-1.1357529917016846,-0.1735621207224631,-1.5642886327072654,2.512026250841573,1.5122178659451386,-1.5573420512297533,-0.8834960714211506
0.6699655315245265,-0.7621705289703284,1.073555528873645,-0.8185224457907563,1.4973032572671796,0.34886981694111374,0.17778183587819163,0.21665219046437015,-0.8516738207980795,0.17488274016158833,0.6391239438273841,-0.5103939161458934,0.5871966472635283,-1.1360557051401547,-0.0676213453879713,-1.1429736976763756,0.3037109804410197,0.8346514941345209,-0.03816724814968429,-1.4321346350594935,0.06626227464852531,0.7874602140430415,0.1572016518845907,0.5579508182518139,-0.7787765230959923,0.7802091233823198,-0.33349223594748073,0.20589090735330728,-1.0711903040479451,-0.8780057077503655
1.2939037756517473,0.8518521502978127,0.7200906655437783,-0.37140516848496324,0.9566735203702371,-1.7942037341721238,-0.30210986983586885,0.07606654243611925,-0.16298309790140778,0.7778108112770635,0.4245066869705962,2.123605111985212,0.5401495093573127,-0.39136095435506,0.20303897910540236,-0.8609465085458332,-0.09971929353125783,-0.33850104691347294,-0.9904368931600954,0.36743328708803646,-1.4644506854545298,-0.47686563717159247,-0.24605439629933648,-0.32731784654033913,0.12112938192438366,-0.5488084093301616,0.49905190616320605,-1.077143998781044,-0.9532613557797563,0.9223549143670611
-0.2611587158909776,1.4111317918367177,0.19084907613286317,1.1584188725901714,1.4320706927395213,0.8157968854519367,0.3826296603362245,-0.016879600444064044,-0.6014659129708784,1.0281914038033697,2.2997675688570918,-1.5465224605492323,0.30414203262025674,0.36494384900662824,-0.6921959445048882,-0.292602636322707,0.8660607014211859,-0.8767167131488105,0.2470723867499275,-0.1794396664704452,0.8156461780121022,1.2684989662743786,-0.630593774507929,0.4647204390067197,-1.238650153544926,-0.003220076147033176,1.110200270319219,-0.3582192834627248,-0.07613666824385941,-1.1050794889453162
-0.2676524790461015,0.606821537150643,-0.6240521459447849,-1.6657357198446172,-0.8026507668629901,0.4009257810889673,1.6761676377662722,1.6216268409323515,1.313453814829796,-0.936625618229568,-1.0836502986684837,0.5517709181722952,-1.1782821078157741,1.042909677180569,1.1731114662074076,1.4162696086227031,-0.9234979506325529,-0.011611556789413982,-0.74435562044251,-0.9551808331109601,-1.3198590984611245,-0.6096165811532027,0.9263982619642999,0.4236483018203749,0.4311829180914137,0.6377132517777575,1.7252584382668805,0.8987100511793576,-0.7571397113856859,0.5995617142484914
1.1708633927252992,-0.6511586394749272,0.5304075077516258,2.6344266422497413,-0.39794397071902143,1.0095517376171412,-0.1578868137242508,0.05210358877511308,0.3359870011896037,-1.6226703579798496,0.0024650613753962373,0.15197784376692056,-0.7670079458114129,1.4029833786408363,1.3581369376249146,0.4492049370009055,-0.8218743369427367,0.19651282735275857,-0.14252468903178087,1.1018125287979486,1.1934871784149805,-1.0070984357637371,-0.08460238627847833,-1.6908835381327771,-0.31139045879655014,-2.3951694549827467,0.5569380600040286,1.3913817148005105,0.7192986633067827,1.4403185893673343
0.885615126385745,0.02206480807720538,0.035176678686687946,0.246552092697555,0.04441891568034318,-0.6432683143985132,-1.186921739842834,0.4751755479066346,0.38131716730644155,-0.5027049665347478,-2.385473170083591,-1.7453996128764202,0.32083542796731535,0.4392213695847177,0.22566256890081443,-1.1576640756140548,-2.170676220469288,-0.1828683957868539,1.10614145090128,1.6134156908240826,-0.18641243411853292,0.14472598117629426,-1.2226034109235324,0.1179806728698107,-0.0005040303170323529,1.7047796714556689,-0.6371960398239477,0.13461848869831436,2.611787363491059,2.3513737270229154
-1.0193874335103097,-1.1369120628496865,2.797385249677343,-0.574500030843317,-0.8044342649321834,0.21153042756715595,0.13482458251885887,1.0276617520028568,0.8893648953249194,0.26648932330145714,-1.585756115562312,0.9080582868371642,-1.0801911638335757,0.5502394660588301,1.0027521774184114,-0.6406427250220719,0.029879239107710048,0.07135053332423605,0.5103673952261422,-1.124807961608445,1.3256769333705698,1.5242477683467726,0.5986790389660438,0.11752905290158387,1.4170409975830014,0.011772682039623379,-0.5066286607880526,1.103064826203043,0.11555712366641605,0.5387788605016729
-0.06154071209990816,-0.3934757682954333,1.1859669146534888,-0.23664176403077805,-1.0157679929191659,-0.4516574623272016,-0.318748639094702,1.1766058424845922,-0.9446109250869478,-0.9327528867450492,0.6938268528557554,0.6056405558571899,-1.3607431241123027,-0.45769513847624693,0.27979691492837616,-1.1440867318713162,-0.0742737952889135,2.313861328152174,-1.4843538268846945,0.03860276169296729,0.8575464791540537,0.30739531154262084,0.1474438466543624,1.0262963586862714,-0.2847916729322845,-0.8531637400807162,-0.15647817935283764,-1.2364411772490476,1.0075493565915248,0.36592686066237706
0.7744110638904588,-0.20721811346671634,0.8296021620626405,-1.255193342078468,-0.41058990685495544,-1.2102117413622335,-1.3457471534800527,-1.2033784992615317,-0.021677619970750683,0.8992110098345207,-1.3009803639654036,0.5748057827724624,0.735249371620771,-1.138175892048766,-1.3998969181051553,-0.7597418854433458,1.3457548350207407,-0.25984699978034964,0.6519521915045786,-0.0013386317436768827,0.19536886062360226,-0.4454336608293922,-1.1490033080959914,0.10118550494107825,-1.2356960195260158,-0.29408066282443396,1.930978803686728,0.5875579935890491,-0.1021421966606972,1.1359864168658145
-0.5505901112967427,0.15395522654578633,1.154569640097167,-0.2729779191572558,-1.1813998958665948,-0.20864755141504285,0.07676098432665802,-0.07265929640394495,-1.3384137039040311,2.59402454186452,1.0984084505692377,-2.3173778713224227,-0.1538733043865399,2.3000832361005603,-0.5991784614773551,0.5192822679837865,0.6526006479017307,-0.501517327234233,-0.15840043494492623,-1.1179098356554318,0.016903131294929832,1.435186505668078,-1.793993894127593,0.19087341494221446,0.33688894814178644,1.8453284525012517,-0.35816529091531557,-0.7864531941704258,-0.42348529385414907,1.1088398602188405
0.47099852916876883,0.1848795472968044,-2.165330048925296,0.76774928479292,-0.3955476325230376,0.8053536530325266,0.43524417934141324,-0.8788136016709305,0.3584809869320835,1.419962294559471,0.4430910734446023,0.2159762794871999,-0.267924446844979,-0.8448880501763036,-0.9326885430143272,0.974816483036306,-0.20169802833527195,-0.20710276958994164,1.0340437282391017,1.254942151236358,-1.316795525790104,-1.421803830304564,0.4652045018156834,0.9403440799036705,-0.932580146831241,0.5393703219984319,0.07450131460178953,0.7976945078769802,-0.12012536910412265,0.19961894780000652
0.9628799324219054,-0.2170698134440664,0.5126866772869827,-0.975862860407355,-0.9205860341145689,0.7920541714951022,-0.3303424149897,1.653928075161616,0.8161053768327097,-0.8392071452320775,0.37724423311232386,-0.6944548457145769,0.24691399402933462,-0.9265943648247802,0.847610901455223,-0.6272974930486689,-0.3397769435995677,0.36283485322723974,1.7405961665604672,0.28936446594072257,-1.8426043196626414,-0.854247444003664,-0.8726803266945546,-0.017003999947242703,1.6484308052993302,0.20385346925481235,0.5802216905412158,-0.28079213419777393,-0.06966352810831418,-0.8611111908342831
1.733604260546281,0.42363393917577374,0.5545505186334193,-0.5935882194498638,1.3295194631647567,0.14119312460722153,0.07895631982069747,-0.35863889581292974,-0.0912226938907282,-1.7142360449734044,-1.0064347498442874,0.7268711085286848,-0.6281901351303162,-0.09295222152431747,1.3434115577851617,-0.03933852706750809,-0.5971598567347671,0.1748686466614564,1.0965454031965665,0.6031268628895522,0.9561618557432273,-0.022775810269406442,-0.4794192303470724,1.2521876922221025,-0.006028083632533913,0.17797045538788087,0.028311123900373825,0.8177676469169369,0.052966534296165386,-0.2950453952077973
0.4028770022577441,1.0385864817166832,-0.3286737856577106,-0.8180968360919944,0.6247207012833936,-0.8856818150673558,0.18592795134424125,-0.5491976467008876,0.3456658404854343,-0.7837689101998322,1.1389491134621637,1.5195148404714092,0.8779364294105687,-2.4119631026156405,-0.09261601158778629,-1.2969275473069102,-1.370704900014276,0.8535035122663548,-0.5895315869814158,-0.5037033765413608,-0.33431638925537605,0.2869857443799608,-1.5947072930930153,2.009019629250225,-2.51383963043942,0.42097738091627435,-1.2716306438473894,0.007170413140970725,0.0014922441908101474,2.083221974247172
1.3681131587456878,-0.28720521008611294,0.5404009885958149,0.14425781374484728,-0.8820200490362831,0.9634131743596327,1.7571162022798568,0.7791261768282143,0.9510940463503254,0.021922318510716236,0.1998929631373625,1.6833422919684151,1.1782214310795551,2.296956205038514,-0.4178936103083754,-0.8568153965222111,-1.658989165290471,-2.0876226027592995,-0.9444480326433194,3.0863600138543528,-0.5171356876334671,-0.7254017735350919,-1.282065180230248,1.0657322239402307,-1.0969207775000387,-0.23143762544522734,-1.6873781067907434,-0.08945692176487122,-0.6142753596854753,-0.19399916782382468
1.8424521370307745,1.3472282836778924,0.7802179848474797,-0.27505267343519085,-1.1856363819457567,1.3786835774706432,0.6812403832449878,1.0379874242742497,0.25813269423588553,0.6704767372313132,-1.6512992622007807,-0.7219101816091288,0.6558218275810773,1.7468876974396008,-0.8814018887576656,-0.3656582685026274,-0.6226374336639411,-0.7093676908846829,0.5338938386097909,-0.305978642236036,-1.5709751233136842,-0.5255857959959938,1.496388781649206,-0.8057946691375278,-0.28984388599654576,1.666409698290167,-0.36996522292389317,0.723021348201136,-1.7896850218205278,0.8199085591226015
0.9750131302831447,-1.3510425576224565,0.3803440112582899,-0.48358298907297886,1.0862025575294854,-0.8770733229190598,1.3080736853808983,-0.08220701388066247,-0.4895459335935341,-1.8271788403587275,-0.2645769793921722,0.1503976591442591,-1.2422718394495407,0.7062189648246916,8.080567503849178e-05,0.40215589720070066,0.5245526591790454,-0.29670478273472695,2.2234970011724977,-1.2133665242041913,-0.3534280381558818,-1.5506642040656453,1.813967945120924,-0.8696183966934854,-3.047970274881146,-0.30429121152143107,1.140476450687012,0.21511328858691495,-0.7087360465280528,-1.015768483786375
0.7895917765840901,-0.41518494975053805,-0.5430816778764812,-0.10735220064414129,0.5237058615219933,-0.2195922957379144,0.24703656558426298,-1.1951682022113352,0.1735097420675969,-1.7673101410901249,-0.8449645981761753,0.18562483571116067,-0.15998249746567442,0.1570556643911153,-0.2741936163061415,-0.015767134904569213,-0.28190066408885206,0.38425795284626674,-1.2383559934205153,-0.43893451538487743,0.26316642850641003,-1.1346763952958185,1.9374538395503742,0.2643921747402428,1.2140108702910561,-0.6550720300015402,-0.6494028317022884,0.4856331849852282,1.570901399472297,0.3742655830324596
1.3164463736860914,-0.8697876345904558,0.302770874823205,-1.3910688089390932,-1.1134420545194168,0.3087245288347005,0.3676978162546488,-0.23630805054758258,1.711371723876924,0.7559557871987225,-1.3317765650239792,0.6131956948062437,-0.02033871635549523,-0.09571256443458889,-0.39856052836204753,-1.164153374459012,-1.6465803962701346,-0.266002906048031,-1.102963650025397,0.3891509494087561,-0.5360808588314132,-0.9105065748170367,0.4836127808018915,1.1196599543513073,-0.4861440439996508,0.27911300983614046,-0.18683490655144597,1.0963061357622703,-0.25695361567917685,0.5380610005695163
-0.05817614174449808,-0.7642054270484328,0.5725270332413974,0.22568550359794767,0.5984804247357037,-0.20547456031173356,0.2856313839737721,0.07689320313617917,-2.437837358082807,1.0128808975309458,0.7698616464611527,-2.157750442192192,-2.6526040384483944,1.0071064472680398,0.7338454465653368,-1.031285984997733,-1.1888371878197452,0.6931802051297201,2.0149914286848163,-1.3539925071838756,-0.03546817395336099,0.6757767765618385,-0.8584607576887067,1.580700007465872,1.0597434506343741,-1.3443879120063138,-0.13793909018246042,1.2668504450608475,0.009410959852592285,1.0547327959043165
-0.6630082777450902,0.32858762171651795,-0.3165851057633735,0.8530193183447969,0.048305203211590104,-0.34570628454363034,1.6343227241819591,-1.069993573389723,0.10331745435305507,0.6186936636197548,-0.22165933670042604,-0.44657368586950363,1.5391607278840642,0.3886004851573781,0.24944215970698333,1.5024358581306494,0.7046038982364289,-0.794844006028644,0.7276499614944925,1.5858273324934715,2.8855264956793487,-0.9878919044272674,1.3107597441867,0.7836253910428551,0.9115781113386486,0.747942069815371,-1.8065058520168082,-0.9046395567716786,0.7914946990683787,0.9264471538469982
-0.31859608776277554,0.17573505748618562,0.8099197686672477,1.8403141853875769,-1.2566907456221141,0.1780338827166819,1.6883777923705285,-1.5265578136740459,1.9132963642458634,0.4369587725332558,-1.734822345133272,-2.5030445112221975,-0.07208199351318866,1.2260203334598703,-0.7006580151002044,1.5374504884692926,1.2070080741083262,-0.6459714757190627,0.07428397970594203,-1.1524470297036693,-2.02783357389702,0.43916185903125077,1.827559147622699,-0.038352724767831886,0.29397249959184774,0.5743791967873574,0.9083908486250636,1.7518483533541882,-0.48404780663667124,-0.6535770248268757
-1.340667437289068,0.4142423708987173,-1.2020884406061092,-0.8950086991370021,0.4068193195793425,0.960161736026501,0.3398341047845589,-0.12259981037649102,0.679877406665932,-0.028342940136966345,0.13781801398652924,-0.2113014169349265,-0.5040098772883935,-1.184660032436239,-0.22143877694255626,0.1265444650393564,-0.00874792571396907,-0.8861120912600067,2.0984849370833474,0.319381700389177,0.5409932624526754,1.452442131321019,-0.11832946897905933,0.4009891860722038,-0.30077955093843245,1.931800699459998,0.39269927030528085,-0.43257241396833646,0.48782558455985764,2.6914371355820745
1.4160700042612069,-0.1741468373664837,0.3293613756379736,-0.9287168281134509,-1.8439848085776323,-1.8396010426072882,-0.6346183541828665,-1.4103642784817743,0.7671360407995749,0.4479796766390614,-0.03694393032946162,-2.3071155839680944,2.1366021273173033,-0.9954886737079872,1.2325931826204841,-0.11580390299957577,-0.036239622523492464,-0.25093625130226477,0.3241239383886612,0.24768558334723179,-2.118100356397934,-1.185524521423425,0.592435378259887,0.5342820504154799,-0.5004481122947122,1.5456035142048958,-0.7627530512885508,-1.0330084918507463,0.1751620239389528,-1.237678962216498
-0.12518897983726748,-0.49206482185969347,-2.7884853126221505,-0.40916904084813965,-0.22236048132125572,0.17498245747385582,0.2787846104556281,-1.6787378277551743,2.593988907796327,0.08755530225279202,0.7493390432695036,-0.6253580980317769,0.4527578596559782,-1.0738101919785676,0.19743019530907413,-2.501875101644832,1.4188446712702243,0.508051166127694,0.8952872110829609,0.9165676090096623,0.3824653897320902,0.6137654278799873,0.4294393570617198,-0.6367135863190487,2.5829483365900083,0.3233389650115292,-1.212709295900233,-0.7649825142894923,-1.8845996106561647,0.39119867182958573
1.9271701222239828,0.18077535511543494,0.7951375783219554,0.9988074636339297,-0.8404468963001219,2.796148027958338,0.4061069278211575,1.9781941264479719,-0.9477020738629248,-0.6837135557965118,-0.05436792248787742,1.2696196377656934,0.6303668179753299,0.1215252848929659,0.4894753136738139,1.654782965350137,-0.4358961804136297,0.3225046093457059,-0.5350384034641258,0.8433107602587019,-0.2736880064280871,-0.7405304835550528,-0.7587391536188313,1.1800169628756283,1.1666517272218868,1.3155083892203328,-0.24435499448587145,-0.5629200737928766,0.452423321079513,1.5796092843211276
0.9442747222983854,0.7339784042548411,-0.5974472024673316,-1.1341702248578864,-1.0712630392382525,-2.003886251203233,-1.9357102024795478,1.013027885415172,2.514452111160692,-2.146261989236088,1.3677064331358826,-0.4148711224001992,1.2900622596063371,-0.8144506321277123,0.6101754381201611,0.8332632595876915,0.37878167388945255,0.7055008027429912,-0.8347211078277111,1.1297150777738845,-1.6895971444757694,-0.20587529433471552,-0.27116489509472336,0.8153123643810563,-0.30627479860855,-0.33684350626084614,0.09609676634659843,1.5552291038416848,-0.6622047255269368,1.0312895898459347
0.5304628522072957,-0.4534940473247543,-0.4565929383634261,0.12551069259496897,0.2250556648072921,-0.43601943650466074,-0.42191638622760896,-1.2113208383469296,0.10148604086168499,-0.5402520886131522,-0.017457757272249567,-1.2843261909969486,-0.45518231060683345,0.36621127636816686,0.5895179425012793,1.1814969267536448,-0.6386928489957663,0.5375954571652631,-0.2294691807541243,0.1892331178821341,0.7266532937584796,0.4319345051335339,0.4188729492861379,0.37627248692341553,-1.9258514429653475,-1.3724821219497698,1.5370983229755812,1.282845663214625,-0.4717316163221796,1.6744190103596719
-1.4033271134398504,-0.5061475872368084,-0.7366237052365409,1.0332646130954122,1.3510693088537382,0.9888872196979339,0.11319156787449132,2.1793483183591063,-0.33005663672739327,-0.5839368457024094,0.36849993409431614,1.6159546208058866,2.0689604189031083,-1.5251267024609136,1.012083727333505,0.6163485253815689,-2.1968917342459333,0.03571459462333804,0.4460725339334278,0.9901945446512729,0.869280041707849,-0.3945788053566292,0.06607615078935546,-0.7665737153648526,0.9124632404033893,0.504298088119333,0.7005936025198103,0.8836773140973917,0.3877661451044745,-0.9488119156635304
0.3939948722037841,-1.756565348414629,-1.971522280467792,-0.10557747062773515,-0.4572565194158612,0.3546109824537924,0.28171081265416603,-0.6097626004769575,1.1956164813385333,1.932205391477181,0.02462197270832214,-0.04239824667263548,-0.7207299600782735,-1.056563195814468,-2.8704628945144575,0.17923106792937585,1.7207974958570265,0.3883773000021677,0.8795959104360034,0.3695256053713265,-0.0022971070637224206,-1.3774384521553176,0.5488396160399386,0.6344686228959557,-1.277157323135405,0.6440431040414143,0.21153801319536392,-0.3999785281720512,-1.0496955673999586,-0.8994228289997303
0.16334371304522644,-0.6753011829329745,-1.2363793406782142,-0.7371748842646174,-0.9343799309302417,0.4846692105203551,-0.23380596922229446,0.02109111647890224,0.36857270095161215,-0.3589795270651142,-0.6251111367462401,-0.8556467450006595,-0.8296084067520816,-1.0043732146942224,-1.9022116943835274,-1.3383822592125536,0.019653193122315032,0.4954535302269492,2.2362730434417912,1.269638505150019,-1.5468264759337973,0.8665551197028899,0.20502863508750416,-1.3974330640846342,0.5694313327996853,0.45933539761081305,-0.23907912630803296,-0.0876209277149422,-1.6461261570913184,0.04633238777932322
0.6458440546823087,-0.010467164754516502,-0.2403637696070692,0.882040390527034,1.6972063229521515,-0.7968307057960667,-0.615770422452451,0.34072944739042477,-1.225571774031588,2.0725182156512956,-0.09464225915300865,-0.2675263386852324,-0.8469698880042864,0.04922375563623811,0.01725668154767225,-1.7257552375516565,1.896996252575047,-0.5029974599013386,0.49698525260177806,-1.412276382797813,-0.9904620878787623,0.035633035291557,-0.10958730858326542,-0.04028384652097133,-0.2519895671622534,1.0614229056155815,0.8917194788635698,-0.6473618409707154,0.008090585497837442,-0.22819198478887523
-0.8377571236709922,1.4858031564455982,-0.22019185272196012,-1.3049209032800955,0.3921052561957006,-0.4827141983672411,1.567850948208319,0.8957180031861521,0.6530499993805594,-0.7129862856521031,0.7603735653376655,0.071304620509292,-0.833094493424389,-0.5650557700884891,1.5665817203013017,-0.955022720639041,-0.10433061722054764,-0.9574964589514057,-0.20842098827730385,-0.7768010872380465,-0.22367242641354226,-0.5624557673604907,-0.8116398205239757,-0.7491070426522819,-0.867087722491286,0.5532320154615028,0.5212797958633957,0.5269263364893421,0.9331279782841477,1.0582210542539283
0.08415457322686577,-1.0080108480615781,-0.5012400230875568,-1.5448681939938702,-0.2326878999861082,0.04931677544509186,0.4695251106497869,-1.0302354655142048,-0.9730537059498278,3.0390296338446405,-0.18310630825012178,0.1757100195011037,-0.8683058102858942,0.5525091054982993,-0.28726048902721146,-0.9221065687768382,0.3105778403115997,0.2979645146875661,-2.2101132383807136,1.1331359533411696,0.5129300926006067,-2.273501905160634,1.1532502380971437,-1.565482201340403,0.521775884506118,-0.8535283707190211,-0.9341158467384514,0.11926506210332663,-1.1935531837617561,0.3969670858289539
-1.2084309409267906,1.519161513302341,-0.3464449132106722,0.45669294663035753,0.6505714268973255,0.7916213623289674,-0.7990982103579685,-0.9214498063805995,0.6127007678564699,1.3656847975855344,0.1959874824744029,0.04685577550973354,-0.4659876328009156,-1.2493518068988592,-0.5878918045166911,-1.143482787647346,2.545207900560645,0.20163579310388696,0.4696669262032187,0.1923499437398488,-2.647781756076125,-1.4840149133871374,2.591153370967335,0.32326177377033144,-1.8796338857637154,1.2681160584520486,-0.521257264067931,-2.0536239388916426,-0.7333723731316092,0.7639038526903229
0.7398053589291906,1.2876935214526273,-1.3191359775683285,-0.12371465295576257,-0.5547079802416934,0.9757406036776944,0.6285799763840229,0.3434306235829132,0.29079294182964865,1.071774376567883,0.3471675433027786,-0.5351997252353953,-0.3105924296175632,-1.1825706219309429,0.562988500062262,0.016173643230320996,0.8965041585357942,-1.1897475245292264,-1.1253934147976328,0.5866083690819953,-1.2520984696446356,0.7290561308517279,0.36574443842242615,-0.4108915939234819,-0.8961405670693398,-0.2893699553741723,-0.24595791626507635,-0.0363754957145851,0.22928565831829797,1.0365739845766668
0.011339577264126707,-0.28199312945893107,0.9850188618727139,0.8347792899356931,1.2859764511188239,0.1704117600714836,-1.5730756247603987,0.446449255019597,1.9374858691241625,-1.5933293801177886,0.3149190763222934,0.6790295549364855,-0.061458790266347686,-0.4349099454309294,-1.7416291570302924,-0.10620541792571433,-0.7262300241822461,-1.2009662272851294,-0.6516675469365109,-0.28249207263685816,0.3677509170139888,0.14020174899602522,-0.6139984849411365,1.5956739506005653,-0.17631409727476982,-0.6668144214366222,0.1606461164008045,-1.359639787279633,0.9202966992618414,-0.9150603215364477
-1.0615247143643511,0.40332419422958954,-0.46127322571266743,-0.034658514236502645,-0.3086772839584484,0.6026325916139192,-2.182940799879874,0.2955331289263596,-0.08991439803239973,0.8540703674859084,0.30762255347510453,-0.7500254464814107,2.4339489307928237,0.30343129224270216,-1.3785605457543746,-2.0470664831239476,-1.1408633492564075,-0.8709277270934731,0.256067040155721,-0.1073999244474446,0.7198327713660214,1.025991136490761,1.4761900268857868,-0.07425988359130399,0.21158604704450837,-0.4389993471556564,-1.3967214210569987,-1.2360114116709038,-0.11579859261408695,2.566878335341307
-0.30084003854413466,-1.0727262896079326,-0.3743301692456923,0.992978938913788,0.26410472584831657,0.08572183379904638,-0.003073809204000558,0.5507886577084503,-0.33730470571557114,1.6347186734807773,0.1391491847384855,0.5672270329159457,-0.42597432496688925,-1.2180484535520009,0.2829615256970944,0.26265137857058984,-0.21319848415030895,0.2918924671203041,-0.08407577767092186,0.7804383468150008,-0.4860684994384705,-0.3050948813217089,0.35422369020563177,-0.8872373863512547,-1.7354928003074037,0.5609882624850961,-1.7513980046442332,-0.1925679579300866,0.912794624560002,-0.7071155635434514
0.13858684201218202,-0.08629722747165224,-1.1238084992011361,2.141764904192995,0.923090891211117,-0.8449648037853813,-1.063860197848322,0.0949937137253057,-0.7122731824324735,-0.5101501452764665,-0.2958576638871107,-1.5189609791461733,-0.2018821291955541,-3.668085795217461,0.5727159983638902,-0.5976636744401678,0.49963386430457046,1.382054149208526,0.4252828351612798,2.2526982907127837,-1.5239258757792788,-2.2683887352647076,-0.6334800091761954,-3.0092895756779052,1.1863561391832727,0.23606895321189128,-8.195747707554762e-05,3.199298339030747,1.875514218272616,1.1642754748336681
-1.1858614935005496,-0.18381462047846642,-0.01257304865945977,-0.5500505051456952,-0.7006558964016413,-0.5802675970901815,-1.278330611079023,1.840011628994014,-1.5629544003406444,0.25598037309708743,0.23576274763774746,1.3279629764007914,-0.4323535164086999,0.596528151392331,0.24702834874209115,-1.6741647798432695,-0.21647751744367072,0.2833426935756599,1.7674272523652528,0.7393702250687447,-0.584960572464791,0.3342689318829261,-1.4274565053029815,-1.2404682114870973,-1.4181042051779376,-0.29932497098018523,1.3906788889013957,-0.8216641725473575,-2.1960295608227365,-1.1323780846091571
-1.594274766097758,-1.4987255256613397,0.2930291873175662,-1.873113382938551,-1.437057352576585,-0.20616660155960478,-0.6707948283077411,1.002437851816759,-0.3915226246271122,0.4165969882027079,0.39615889031785906,-0.044111436376089656,0.28142053557674634,-0.04207734302685957,-1.7893042422514451,-1.269346977413411,2.3431213773077557,0.18027378975154623,-1.1194550942944386,-1.9259057552758958,0.3438323199386818,-0.5800483777799159,-0.55694064226125,-0.4358821639859667,0.7232654822286266,-0.41886410642947713,0.7378043196893903,0.43871547070588074,1.0722198033392223,0.9351155899805786
-0.18337924832692704,-0.34481946894260934,0.24869664356626958,-0.5439141123492985,0.5851255168036209,1.5869950346986488,1.476866104641408,0.5872060218659739,0.5073349754932306,0.02283866910189559,1.1387861143317388,0.08378600948970644,0.9706840762005622,-1.964379990889138,-1.6510471584445554,-1.351231925400904,-1.589331995822462,-2.5293080661216174,-0.12249547925576493,0.7680109251577909,0.4422006004477778,0.38094899903262525,0.11832654354140372,0.5073002198373037,0.5299522219114953,0.37875866459106605,0.705371380905199,-0.7628126933145618,-0.5951761304094284,1.0627541524626105
0.03902827756435739,0.15079099232252424,0.3297533264194124,0.9027841250988521,-1.4296508599443356,1.143685713611275,-0.4150812610629922,0.30234098063727843,0.8337733254808417,0.372205244435004,-1.4961783273906941,-0.135158685744473,-0.12816268993935218,2.2580431592860184,-0.4933165392457856,-0.022125661450350213,1.3753550047562502,-0.5234578355994736,1.5277353131791394,0.23983396184112007,-2.6323204249303256,0.789301945270044,-0.012683813006867254,-1.2897829596975563,-0.6391361778927176,-0.12124946601007072,1.696039673636264,0.6493563745640039,-1.3591366439432413,2.4417086599615407
-0.578550098305891,-0.4670579491658847,0.41730113188368917,-1.6565568305963274,-0.9940284186704402,1.0477267742621907,-0.3921069665099512,-1.3198662686642724,-1.08720454516989,-0.21018429891979518,0.35442512990096486,0.5976122838269732,1.3471658572396126,0.5090369367466729,0.10007151503967202,0.383479193805683,2.943674356267491,-1.3794126874373773,1.118910179535511,0.18144928050356324,-1.3188322007060889,1.0795927393541613,0.5282480191236271,0.18506700969666404,0.23386960381661376,0.783578093099683,0.08948323188087763,-1.4906622275621537,0.6256820898832978,1.6004079238989086
0.256167913390868,-1.0147578492032319,-0.5319861522030593,0.20505544076624285,-0.314167728481475,0.28544812618821774,0.9518687326565176,-0.0038886497295809843,1.5806867095375208,1.018135514719351,-0.4842779621217709,-1.7204854880810583,1.2546810943786686,-1.4839474675118098,2.456414076001573,-0.7191064679446119,-0.18135508059662725,1.8871982885071044,-0.17823060983289588,0.4050078757982562,0.9309332274110828,0.9303913386841492,0.15845088399141805,0.7607907473374889,0.2152876002747189,-0.855404774136763,-0.8420646972744492,0.3156676213867524,-0.537792140930061,-0.05727980160340579
1.0284473295170962,0.3662269829984986,-0.8058744789480379,-1.3801304323886248,-0.21636334448042252,-0.6873863878172012,-1.4722213399242834,-1.1039914460304079,0.5230421721078434,-0.7333882243623775,0.7459167165471892,-0.5592554139066489,-0.5119095161214173,-1.4840201723181503,0.6472699030430032,1.5265024916921477,0.43452123782978674,-0.30406983250007613,0.864834701762682,1.6058961737325543,-0.1548248011924837,0.6727962195740262,-1.1064318960114496,0.20590672927224282,0.28582607571099117,1.454575287946123,1.4456414300160252,0.38942560110300994,-0.2509194706182196,1.086943574089592
-0.0015376633787061356,-1.5398041301765233,-0.24073061810746324,-0.043258378313240746,0.6857784078535029,2.157752074980889,-3.149213014464451,-0.07207148993840752,1.009559434369778,-0.4977844676717037,-0.31727137740750994,-0.45523849273220246,-1.9713092256027192,1.874900729298703,1.2445036059221302,-0.6288631461271973,0.8672445965457656,0.530462931043976,1.1393102201946466,-0.7230204381250783,0.07911181543148998,-1.9006424702281788,-0.5196440383731147,-1.4920724345433554,-1.01439010101364,1.308018959650528,0.23488979283314507,0.16872718946870613,0.47926360619520225,0.6317589742578505
-0.8293401685944763,-1.7194089140581892,-0.6788529506366434,-1.9279472030002176,-0.8122702782326092,0.658078711075594,0.38147088501626386,-0.19506120051124143,0.28211717024100963,0.9212628142463692,1.1970538336656686,1.806322373550419,0.7697366656177902,1.2508211142680434,0.7710609052485485,-0.19204589819841758,-1.6164988341887705,-0.5804273553079828,-1.6678836329577897,-0.37585631928764224,-0.27650756407693633,-0.5484476511108574,-1.0869124261943983,-0.23637218154756306,-1.810717365797413,0.8072563953117164,0.5142636650757964,-0.018595634346949892,-0.6891590360237974,-1.6883178445632956
-0.24176199271972676,0.9794018254879329,1.4167223533079143,-0.04186838785138812,-0.1042174663113367,0.045321334138567294,-1.9272037979913619,-2.3182027592503545,-0.06738823485861685,2.295793846462996,0.1136947458307803,0.7674961158093778,0.5597584802332376,-0.2861934689278897,0.12398024574358674,-0.7774703114530994,0.665994317483941,-1.317682707812302,1.758903999288345,0.7537176994948152,0.9096491794287296,0.9085002231581497,0.1348760652484467,-0.4432999353338346,0.5249388670074926,-0.42124643381961036,0.6018348201146028,-2.2001426743658365,-0.25372675150826446,-2.2102706197903843
0.6859000351210293,0.34133146403168113,-0.5828040942742065,0.613515287616946,1.0857534241075502,2.1110179125141344,-0.33447176428484,0.0485684524931036,-0.9834167651618687,0.18531368325596098,-0.2918341049336682,-0.17940390984299792,-0.2986682381219466,0.9929598662480005,0.4476885615328364,0.57283085201401,1.2143653720602732,1.0990943162528592,-0.4079319933443272,0.4687553364497869,1.0543872900170563,0.2120904454836652,0.14732473979729896,0.7311597186094602,0.968484560816074,-2.431056544416429,-0.8841544435988271,0.570429710087446,0.15248584042260077,-0.07914428110925946
-2.502938343387901,-0.0032123513767769495,0.3777414104398947,1.6514115977449866,-1.001210318318819,-0.5501028548596656,0.6735234903617426,1.0579053423919835,1.5439262171723147,-0.9212570683604027,0.9904989867323152,-1.9371320773819651,-2.6304007192619805,-0.27517005179077103,1.2450863484340642,1.0322800033013695,0.13283716949523441,1.2354245080007926,0.831825348345748,1.3009869319348641,2.0084840011712646,-0.9481185415750247,0.33146183691405734,-0.4412179280665589,-0.6622725888363333,-0.24808526447071494,0.9424184730892937,-0.2171953976081115,1.4486239824858673,-0.8181325908532708
-1.3814448114794176,2.4610600842904136,0.5155708008595317,-0.361527393830688,1.4383247958789986,-0.4394598415400109,-0.37294004610365916,-0.5274915017251308,0.5685822991822506,-1.5747893140263232,-0.037673505464320786,-0.4070509787353379,1.2906485031723471,-1.2034641287675694,0.3951857598849172,-0.08845535406893212,-0.6984982637808775,-0.5447683507778395,1.7714490264763203,0.3745315612680901,-1.0892490361497904,-0.8209285012446945,0.45507425927647466,-0.4514245704245437,0.4147829204298135,1.6564980860877958,-0.01665760679660721,0.2146295946116862,-1.4944089365964028,-0.4351473400364766
-2.2542817081998647,1.5693249402304108,-0.7362935290650953,-0.028139857853452518,-0.01007436785089868,0.6025341423192321,0.5640146200908671,2.2569608483137973,-0.012470126742566357,1.5068726884415773,1.2481716682009556,0.3897946969734745,-0.0017707150738585462,-0.8566679394124466,1.4705991321059604,2.699460052757882,-0.15767669388246383,-1.119453356268967,0.7859811672118802,0.03373466128717139,-0.5313584205743274,0.5156444143589879,-0.8282483658611427,1.0573522435764287,-0.5774779160394088,-0.22824091539123745,-0.385130547953493,1.4241115395195318,-1.1447430330673714,1.449358425228579
1.1634494526642423,-0.49448619304085817,-1.0552425452107184,0.23897299541842293,0.039682038586231,0.5533785882211766,-0.9542890875689681,-0.8300104280603439,-0.064910402028946,-0.29663736602964363,-1.2948300089930453,-1.1007070885658747,-0.29676748849205686,2.7721372752056377,-1.2384306161985297,-0.3540561618224304,-0.6319057706552008,-0.055539422107589935,1.5957568010587553,0.8912630797821276,-0.4713823523868688,0.6750888609710454,1.105579192439559,0.7416172130100357,-1.9599815879417544,-1.7858001068028735,-0.3068935269363859,0.36382443080138066,0.18839719019993734,1.1075600709577567
0.003490408624761839,-1.0286467416095408,-0.5369323011237432,-0.9314599754809928,-2.442555888091685,0.5409274969686779,0.6977285434652513,-0.3302682855178652,0.6785345913810529,-1.2413578082331884,2.4777706280535363,0.4112980205220425,-0.5703214693950045,1.5006195810246556,0.033139602206175144,0.5234702403004275,0.8308030239138483,-0.17912889876610188,-0.9401108079240509,-0.2824088383316015,-0.3141641216943166,-0.38164509076665515,0.1528810892371149,0.1556772915364264,-1.9495507221791093,-0.03866969780305111,-1.159906960174618,-0.42488974606368957,-1.0475104244542328,0.16783443044098964
0.19490557516171614,-1.5080716537468888,0.593033006491474,0.9605976719366489,0.43302528557200576,0.5179961966630756,0.4084040307104839,1.0994260638679074,-0.07826432464860354,0.9342820911901295,-0.8704302588524907,-1.350605334751504,1.6558320012420202,-0.24048362443400292,1.046667344102407,0.494699803108809,1.419609042781401,0.6929721298529884,0.9448014096285339,2.31074188186142,0.7877460471391569,-0.8554714823514351,-0.656437351521642,0.06862014493466687,1.7180958589766093,0.5639380874338402,0.5731543393609818,-1.840774566570959,-1.8508288727493916,0.9426332289436476
0.7866317579687707,-0.26358484454173736,-1.2257533431197978,0.6458317407230956,0.4526542181607077,-2.0376161779345043,0.9979042830536883,-0.9725576534197983,-0.5303084422382803,0.5201520712978698,-0.3056831411703254,-0.8948916415311472,-0.9683996635162584,1.7158743847518794,-0.7862587845879858,0.4821745365371918,0.5359595439640596,1.513683781903614,-0.41457863056169336,-0.9616860718233147,-1.1078788960577945,1.2784745571222405,-0.4195547523905182,-0.14819383131752703,1.7523041846123082,-0.5331821419921831,-0.4870302926655959,1.6268190183660811,-1.965887047939177,-0.4004378803159145
0.3778398964028721,0.1750276415945909,-1.3860170937196277,0.32486997166302584,-1.9287562412158283,0.31962098330805283,1.3297816093653614,-0.036038560588836074,1.5731802859650923,1.074631027945761,-0.5423351087796262,-0.6431798558030132,-1.0786447866887299,-0.06574301272030636,2.904631493998638,0.07426293634773133,1.0039936479425504,-0.4558245467488453,1.4830214123222947,0.3735433359132284,0.3642930212569982,-1.306232819149266,-0.413630345213496,-0.4315938777763779,-0.8770065145744436,0.34897270474533526,1.3604645746584707,-0.04613053392526415,0.16314603349897439,-0.11796864732502729
-0.14531081346108088,0.9341803754862059,-0.5047736513996907,-0.17415420638215925,-0.234802447674332,0.16222308677944197,-0.2459652712168219,1.066876377542879,0.7454417449862817,-0.8989944326793956,0.27412823489457644,0.3793791614219765,-0.7606797038936887,-0.06721227129836416,0.5170407249052472,-0.9085385941277463,-0.31239344050942197,0.4958273609269337,0.6870495533509771,0.10172012083530695,-2.0648092367457846,0.715818292258936,-0.6545637498160431,-0.44848577650973714,0.41567837454432655,-0.3404728983006332,0.34803475137433976,2.091431058633328,-1.0025188561325904,-0.15312802032949283
-1.7850297339828332,-0.31989617935942266,-1.0332068325503048,0.7199250549068252,-0.7699059381083762,-0.5599885244934693,-0.9784979591216665,-1.2707095473407921,0.5854595874143055,-2.029554121768388,-0.32264917017739914,-1.540155391519998,0.003503396514905176,0.2570710986768038,1.0901918113828784,0.7151465496229293,0.09378813273647348,-0.8819391976090217,1.4387898325154078,0.6748688479292421,-0.498602799513504,0.9783958369869546,-0.16796848639073356,-1.9945266638097625,-1.2080696151215828,0.2504741785838636,0.7095683468132639,-0.46582684366416865,-0.8431420614335706,0.08652538403762636
-0.2547344886330272,0.5685821588254606,-1.3147128904514729,0.6079985427279971,-0.4791134159175569,-0.5090570575366316,1.2782833866244843,-0.4839958816391381,-1.0561240513231722,0.8005888703785312,-0.49239566921637884,0.012485906609346202,1.2221320971522474,-0.8099011819869867,1.3013244015847032,0.4598449150510836,-0.6651095330129941,-0.700307386576887,1.187615910502888,-0.22784891355734674,-0.16298593357617774,-0.9403099714099675,-0.1543906516966691,0.21886039878738622,-0.8342628977832028,1.228183670985315,1.6771759855882435,-0.14674393880988648,0.892739714551256,0.3536824578782904
-1.3244066295280457,1.1699691076484107,0.7578588634027554,-1.2017387474456476,0.020299528550453947,-0.3564825878284312,1.831679661144754,-0.09909353478288604,-1.2216016876038343,0.7673155481419834,-0.08287307136144406,-0.4746727692339775,-0.3192226896189556,0.7063128159661399,0.5114606419468358,-0.8333844578784829,0.6789556884692904,-0.5996653831576177,1.8105358603339177,0.1494497104720343,-1.2498120764535487,-1.055051502911508,1.406468062304772,-1.6872476195925528,-0.8199549886186908,-0.6318262633191746,0.2104961705964425,-0.01331039322730536,-0.7495903369751862,1.6180968755308511
-1.2564928098906614,-0.5107500905190638,-1.3825333961176098,0.9308772558400248,-1.4957996028296885,1.4812879550512448,1.2198350005174288,0.8048939761750812,0.6735634305803663,-0.6545358604916177,1.0072986435451,-0.08952454627631304,-0.5107392514267602,0.4614929400088347,0.0935307764613102,0.21441752080069107,0.22689582399617905,-1.5366850831863825,0.6136677894379139,0.19107623643606628,0.012967626431270357,0.30539293886723057,1.9824117190744672,0.004163751978316374,-1.3374565596952448,-0.3393241925177061,0.6959213022940397,1.2349458042076162,1.2337706760744505,-1.464271531163991
-2.756255368532288,0.6346414251298782,-0.3118262030755792,1.9386867321644328,0.13577141662599726,-1.1351864176780107,1.5487548472486294,-0.28738597906871793,1.0435276790369552,-0.14532202003657643,0.2239521143637119,-0.5749228769107622,-0.3311000421650565,-1.0321522045611278,-0.04566754899701809,-0.6420839142667545,-2.9313886028467167,-0.2908178586532667,-1.423140781164207,0.7245482353052235,-0.01491362359874921,0.12403474472216137,-0.7384464657059676,1.7614496552027477,1.4412146747372567,0.36472333663252493,-0.5312572279386106,0.03888497532095952,-0.5937863289613794,-1.0278607123302088
-0.4476983728621137,0.6327683405273534,-1.0142056889011644,-0.8701984441609434,0.17652009964030252,0.47594285234804623,0.77754861847672,-2.037565830959156,1.1922785075944697,1.587345796269244,-0.08025786770788822,0.08313139288942394,2.12009880335488,0.5742977144446998,0.2900727141914164,1.9373224906764366,-0.8751549220101174,-1.8997714895526292,-1.2639141820218565,-1.5363172417940405,1.5655333760708574,0.4949356470374927,-0.21344153826793477,0.8028019167413893,1.692262568689543,-0.26967347513303835,-1.485007959778429,-1.463207508578162,-0.37861735717140566,1.5402898223933887
0.38935204820198643,0.005823806645062146,1.1516194562558897,0.4554910707162113,-0.5426255536134893,-0.37896374267263855,0.6115996633873625,1.2105550531777272,-0.2998121610217263,1.523222061079894,1.5860961447372195,-0.06074503035480212,0.30728029844434795,-0.3729863909936734,-1.499451770554884,-2.263316572449915,-0.8286006779690834,0.1298474064398093,1.0463896271819115,-2.2309421440628037,0.7029073986450852,1.2624589696159705,-1.8566663765156404,1.9085411143118916,-0.6351713811268902,0.7254624911687385,-1.435901151890076,-0.8960220054018362,-0.5822012313896244,-0.5626138394061883
-0.12446981001500411,-0.7209469691834252,-1.9031808255373575,0.5866074009021083,1.1465726449033626,-0.91018199886897,-0.5811586940548599,-0.43382679249622846,-0.20858827329519591,-0.42778125868944045,-0.38610902376128026,-2.0032614663302537,0.8498721819225652,0.06305263331156472,-1.1364004019922511,1.5812956634841437,-1.9665369310684992,-0.9231077830869967,1.0189342721029255,2.207425426740424,-2.9505522988301194,-2.0941554709620234,-1.5232519800274877,2.0011740832156644,0.20782076659046153,0.315056542236373,-0.4794605707519755,1.8413664160304086,0.20814505123877722,-0.2135288714828723
-0.9919704460806379,1.4703316011234442,0.30126135279944244,-1.4860921672328484,-0.7798978992078343,-0.9555724779811648,0.5186205883812651,-0.8595511779881825,-0.20344031433077314,0.18752179289355633,-0.8499588339558348,0.2918254046564645,-0.007200319031042237,0.1520195101579874,0.9784613320012413,1.1625414475023679,-0.5560760138180721,-0.3881294383591953,1.3768901311332447,-0.643754442198141,-1.2209997402214334,1.1382423946181761,0.5308700161850984,-0.03083792403056713,-0.24417286799893753,-0.17633904628825792,-1.042328005389448,-0.45508423657125846,-2.953277383004682,0.6486217304254118
-0.8112636636207479,0.2881196693978584,0.5837875313963022,0.8602863073479978,-0.06158908196514698,-0.016377226322033117,0.19616153945596307,-0.21709713277317086,0.2336358163804795,-0.22130226118030322,-0.688465301165151,-0.16032800719769183,0.28643301973161,0.5416020730965517,-0.061766895571644165,-0.47132029387720764,-0.19573945064141104,-0.34380127856587483,-0.3545718999285331,0.3814498507686778,0.5230556641998243,-0.9950107130014042,-1.0542564309453766,-1.3049356021872953,-0.2897720557740421,1.4227819628158793,-2.0317314024342976,-0.18038351547066672,0.7871614992173599,1.2105078339357276
Pesos da camada oculta para sada
0.41847490175949026,0.8783111091507576,-1.4633327665009537,-2.1899647947191,-2.8930660438206037,-0.3097928638885831,-0.9474807139181989,-2.5664141361946973,-0.20719738923776768,0.8495345651339845,-0.025258937740937293,1.7693732213212519,-1.9903477188332215,0.8457330495128278,-0.6771320325817475,-1.3036895456595274,-0.18171377114047543,-1.7778541240017447,0.7355203755952102,-1.9826651971652876,1.7061811962189037,0.6512046546180035,-1.1367820026000073,1.351828855713101,-1.37149195462064,2.03356467497786
-0.564863506097623,-1.0129498400577486,-0.692223988768886,-0.14436192048821964,-2.511029707417995,0.16859984796251776,2.5866684548695775,1.2081390470636213,-0.2399165213275882,0.9298674323407459,-1.1165153363865195,-0.4425543842038873,-0.0071998762337360704,0.7460412891172966,-2.531203272137003,-0.4438822608779291,1.0421935065585586,-0.4855411404162063,-0.2546990309167218,0.9220169398734698,-0.35878895888604373,-0.5059175842976409,1.6507779859460192,-0.5092181515904571,-1.6915926980693194,-1.7642324994470708
0.42606525474554785,-1.3989118565113328,-0.574993273904572,1.6152520381061566,-0.19158846933391865,0.06619515052959636,0.16486968852499306,-1.2855726708836892,-0.983631005574673,1.3883656962580386,1.2254454507401087,-0.6386146091202244,0.20931654011482123,0.4490269417094597,1.1744429817222968,-0.013108820954182395,-0.33426047290243777,-2.0645751511135564,-1.5854649190921437,-0.31258219492611683,-0.4503461489860923,-0.9577532303626359,0.42191246575042257,1.2726703462586861,-0.8432195243590027,-0.8817017931808298
-0.5926752169323576,-0.08855506162796549,-1.6887741673351744,0.8772348271332069,-1.0494443348982079,-0.08325543210460008,-0.05510843264435418,3.5248449746190342,-0.6921521514292107,-0.879809190226541,1.0648633580010776,-0.5217703481740011,-1.051260698414409,2.355423090877125,0.8615754023384582,-0.25031450910345837,-0.4391502048408072,0.3064681615386657,-1.5467769424987976,-0.06448622519350035,2.9067696598858253,-1.7312486335862498,-1.04033503782126,0.9442836333290621,-1.606005579186153,-1.636756714926751
1.1082791456787944,1.3931210124149216,1.8306594540743701,1.0199970695403577,-1.2879812646966218,-2.407917680572326,-0.04689099845616733,-3.369228258196764,-0.6978645586843633,0.9733392706882364,-1.1105878140467267,-1.639777473339035,-0.07156046279609059,-0.17606805971147674,0.1838328883820093,0.2987277645771361,1.9427769562326376,0.6596179447123838,2.0132918436671416,-0.8467255077764154,0.030488126483635258,0.2712709956989623,-0.4844905362469014,-0.6956111048161744,0.8086830204784717,1.712867154878051
-0.5296250793887671,-1.1136672399901277,-0.10329715652501036,-0.6104456657045683,1.614444001455784,0.7956368130446845,-1.857357671904177,0.3473668587374205,-1.142323401651488,0.5625479047944134,0.5014617094220053,-1.6336419897641032,0.3943268461469965,-1.0315545900232062,0.05206855434923628,-0.578992259085268,1.4843110109991426,0.6044172001429806,-0.5481699359029969,1.694890835549054,-1.1973211428062551,2.480046340438972,-1.4054741166040678,-1.1157281173477194,0.6342468800964186,-0.3884775318661846
-0.18521265206558363,-2.0481970495324875,0.026404809729540527,-0.6668949441775811,-2.826996332051044,-0.47584669488142567,0.9613929313575911,-2.075364612669485,0.008868143458948392,0.5579356205488828,1.2595636954914553,-1.3973723549710244,0.40493373928683346,-1.3193715927630016,0.07042525835017727,-0.3958103417940742,0.9045825268556731,0.16951444221778528,-0.9653093542576068,-0.2484892008040782,-1.7574251136035246,0.06906551968754993,0.3651593371766037,1.102198697385495,-2.9517780153795172,1.3041547367011854
-0.8683667312171204,-0.8752183797565282,-0.7133549933495067,-0.11559778894715682,-0.32048666824490346,-0.049980865336900736,0.9680210525284445,0.002420305355859192,2.401225235301315,0.48202272070264685,0.27688422375757976,1.7771960265785416,-0.278152661526355,-2.605535030771589,1.3096678727125282,-0.1389601874467612,-2.1777346328653047,-1.3415193468223192,1.6031396450295543,-2.3759044851930633,1.1937762909409655,-1.8348754408815926,-2.2042115163257607,-1.2463985959680546,0.17905288326486157,-0.2192356608911536
-0.7034677666762063,-0.48119379998044687,-0.18090435302777227,-1.12465555307594,-0.8731476108643346,0.2817697071287473,-1.5175684455584029,-0.9045161616830986,-2.4242100327857243,1.7201358144267949,-1.5665534039545623,-0.5092968641709898,-0.5079292219862453,0.2720728436065362,-0.08689277846366819,-1.1115896934563463,0.36652710370978686,0.4229091017938458,0.3153270699111615,0.8961496799067559,-1.0503718294977273,0.32411318150225343,-2.218343910557318,-1.4954282272386514,1.7684045735240344,-2.1384502111421506
-0.4457960145055998,0.07683278687380103,0.7409974411941619,1.6205180154162775,0.7168405281897989,-0.9707010092887337,-1.8466520843521286,-1.9303233728732894,-1.743165915664523,-1.3792207270287595,-1.8062128344862163,-2.193339108509207,0.4619849335083202,-1.0733746324175162,-1.6561535719964302,0.7355191548812227,-2.598463872794698,-0.324803662179827,-2.426672332583719,-1.073896596707894,-1.8068657419084098,0.4851052162481641,0.36652218360458877,-0.5670756945999492,-0.29781470791757847,-1.0687511455162921
-1.6959936867472214,1.9586933225449783,-0.879171832756749,-3.2133519310356204,-1.9993607308839814,1.0204862084861739,-1.266079275230728,0.6509278033584956,1.2949794764153404,1.3701172962479626,-1.3925605383643553,-1.8618078946292929,0.9649252405263925,1.408636323518042,-0.4822263436346606,0.6730993855365273,1.04177377487446,-1.1180050019960914,-1.1291995816511966,-2.4008837297165684,0.5281841164414166,1.1330484433586387,-0.8089011636775087,0.32467441021767146,1.1203614121727932,-1.3952999683354326
0.06732319347512207,1.7722600632155159,1.1014896748292682,1.6227615898265868,-0.35225992409650936,2.1481062332920153,-1.2078719812947292,0.18060931929684074,-0.6864375898134348,-1.1218472819965448,1.1835971183131542,-1.3263055390495075,1.9428108751473154,-1.5891111422115152,-1.0343756079855129,1.5453866572606716,0.15290005528292697,-0.6360408765049645,0.9682942919251297,-0.0477766849724014,-0.6045647235392636,-0.29802276853127746,-1.0105062241989766,-0.709469791092894,1.6631941975642712,-0.4766328201462941
0.8756977416438461,-1.518057071727034,0.31173561546799694,-0.752728719809055,0.9793271592822986,-0.34993829678996524,1.9061374046779784,-0.2996080694708322,0.9354318994193751,-1.5567283276784083,-1.6245781044611476,-0.8572635501509864,0.5983911395457406,1.6989800632706746,3.16234124697442,0.8791643927203363,-0.27492739535291444,-1.3240790825328146,1.7711340360652996,1.2646804231989497,-1.462970985366765,-2.14392541743073,-1.0864957188602762,-2.5493377619548485,-0.28460987607544513,-2.5869789430051395
1.089345547653628,-0.6957398849377797,0.7128501766437825,1.2767294651822632,-2.390213834168429,-0.3556955818347226,3.531635698791168,-2.099276335148954,0.3781595402269825,-1.0857554193541148,0.4387652988938747,-0.055611400621492994,-0.38866127892881924,-0.14434689327510536,-0.5476032712991244,-1.51989999672235,-0.33074584147946645,-1.6263658000006362,1.6626286710747091,-0.30951865997938094,0.7686851395259827,1.9822414716163932,0.38084853774026123,-3.1328007179727173,-3.0363257693337675,-3.21647857373601
-1.489055625892978,-0.3613308780490924,-0.8031002547275922,-1.5133430169299782,-1.5197809627569425,-0.9142542547698232,-0.34270932610251326,-1.0347104561800786,-2.6580693438913165,-1.1442793146082997,1.438238968640054,-2.1047610389738245,-0.33421997505079315,-0.5143621850449952,1.0088242690799583,-1.2349486061007409,1.1913309900131852,0.007790619100663149,2.3101799801632716,-3.1240602182959076,-0.34701273646496966,1.2324278015251773,-0.010157969516790336,0.37362869142032434,-0.1812291411284726,-1.0927193719980475
-1.1499003875938782,0.48359550302351056,-0.41626876113010036,-0.7174802100361515,-1.763546812992424,-1.5656862163317926,0.35511876574272144,-0.32432263878702156,-0.7423703694881115,-1.8017584205996424,-2.5464970126851814,-2.1447198048636325,0.6546108651703936,1.074042890852463,1.705501667250615,0.8661826875866155,0.398537562585493,-0.541566180922884,-3.0964497831285267,-1.4973979024053947,1.268028186447002,0.35023104419632484,1.1167087745783761,-0.9382593306261399,-0.9162002891264259,-0.5804051585583132
-0.6777780442711708,0.24524999750431958,0.33219478039285777,-0.7594937301820599,0.4841754189038166,-1.223379740647761,-1.8655277206215382,-0.5240271452219689,0.880659837579747,-0.711072864235058,-0.10903685141148782,0.7434742490293716,-0.6836060852772218,-1.198587151799469,-1.8708801793451673,-1.4725431979670853,-0.09426055697237036,0.4172899956349532,-1.9746498113427615,0.5790548301649121,-0.13642281972359024,-1.7962417505794233,-1.5367129386743037,-0.5959345404342191,-0.6845502588650026,-0.42502508452490717
-0.7263389018027353,1.7119162179019605,-0.15405076796651998,-0.8096911933023303,0.8531946136993274,-0.5006346767476547,0.7652154834387789,-0.17346998642668704,-1.6576272145237059,-2.034451561055647,0.42282172607631274,0.8182767812288965,-0.5828870274116712,-0.05196632103302985,0.845739485723366,1.0331987169784858,-1.8982667727361846,0.8214277510685454,1.7775531488213658,-0.663507002316482,-1.8522341722277158,-0.9640863010909684,0.9446928664072998,0.08665436826585624,-0.4295834156584628,-0.22329445142845966
-0.13104938101706545,0.3812782028697327,-1.0229675335691903,0.01877341662718568,0.08605874260292211,-1.4372087626477053,-0.8689051428337605,1.3031450481672064,1.4248824579741726,-3.5457425181888436,-0.10684544924800639,-0.7645216867462351,-2.3945562798503346,-0.22787525147709442,0.03698471007360851,-1.0278088324491454,0.23817269212398848,-1.832598384674002,0.6355268467095035,1.0647102414165197,0.9941695692708127,0.7510989492168184,1.186116784840221,-0.7596132910064729,1.1642044743977102,0.7512751970562949
1.9835056706143577,-3.2038076774154547,-1.144037414344408,-0.8624277116978725,1.1863542161574316,-0.27600883219385686,-0.1352462018893984,-0.3815671726891791,0.31873960247133354,0.017669052949448337,-2.086617544648909,-1.810826695625781,-2.145971936536978,0.5061344722054024,0.8515165502047749,0.5694878496266063,-0.514104633654059,0.7968180375321867,0.39598574928923713,-0.2834221832062009,0.08644772720590292,-2.8295206135482074,0.33084070867184456,-0.014642984097485361,-0.8452589155163623,0.2782562573849787
0.8379801480389102,-0.6833917553158715,-0.07763586458212782,-0.4425149255399772,-0.965233353925984,-0.8022372429877137,-0.5631898895949168,0.02888706157781081,-1.2845866396933423,0.44273641863137003,-0.769295319881986,1.1386743899138743,2.372590233215267,-0.7906080383276632,-1.0577840377658985,0.4940517563923992,0.7979604269255117,0.03516623239371109,-0.8678037551862942,0.23603803235898363,-1.6922671920744659,-2.033693853786448,0.30684192445902236,0.2126075657087215,-0.03757377263662848,0.48322048035968784
0.7700124053716794,-0.046328140414771374,-1.821173956225221,0.33440170169000283,-0.9362609627794671,-0.27160937287267156,-2.097340263727338,-3.145343753555753,0.18304017543479392,1.6522622691857891,-0.13976790634208716,-0.7920454125824887,0.07116505899811437,-1.3413996913712485,-0.18156584298618553,-0.049479504940864526,-0.3815143599684662,-0.5102394404597663,-0.563275415483183,-0.63875255920994,-1.5862098062196095,0.05324019603080262,2.4961855595448603,-1.2170335828077425,0.9468051013600458,-1.8318918082907045
-0.1341083126676712,-2.696290708018349,0.47954400539229614,-1.5789359536203307,0.3763358113029412,1.1361555626818258,-3.104587267174996,1.5567478403491417,-1.6598187856657414,-1.7581215786911808,0.49176150270495095,1.3960057037019922,0.9628535815648754,-0.0040353659097326,-0.6511378410318412,-0.9102966628003392,0.0029640037281292043,1.5792256708514054,-3.3105868617160454,-2.1384845023703503,-0.17668716822592126,-1.3606103005076309,-1.6184250024410332,0.27775781352100704,1.1969789055787512,-0.8542660885716943
-1.742349472634734,0.12398297788850915,-0.41334907175391106,-0.048460221681655286,-1.1803369601739735,-1.7043599705167054,-1.4599509885275446,-1.8432916896147653,1.5034889675072385,0.8224593499690538,-0.7490525351249643,-2.8167588173947165,-1.4420519610481641,-1.3629438823123616,-1.299064720784226,-1.30541029367705,-0.7140993337548194,-0.5772136716027553,2.293421231491979,2.274304698623241,-0.7658500460960467,1.4128183468260078,-1.545724925360766,2.4027069880699647,0.8327929955822084,1.6962559939329276
-0.18166640132056214,-0.8877921952209926,-1.3176677086027935,-1.5771007040957665,-1.0924761363922344,-0.9494755664627963,-0.12744929707385033,3.0239665947775394,0.556008049134844,-1.1304985514786339,0.11549740352285782,1.04859131589002,0.5851493266932477,-0.1483828153070961,-4.41115247300988,0.26144995714365604,-2.5512668626929926,-0.3596230336672655,-1.8437544176099196,-1.2374496843622558,-3.052899868856894,-0.1524500867097386,-1.1033530054291234,0.03559631496012243,-0.9822276403890413,-0.7952315629220071
-1.3344027417466555,-0.4446057734715033,-1.862908623925034,-0.4283819299533529,1.413151154759237,-0.05062744067208742,-0.2618781329486016,-0.23033290602047143,-0.578132386312358,-0.32721176769549254,-0.8279924468951972,-0.3172643672705798,-0.5594602480284894,-0.883853658546067,0.2094893453033248,-1.5461884869051328,-0.49477743627935566,-0.5595990588943153,-0.10149371094713434,-0.5229700725149145,-0.3404584210898575,-0.9591274917921899,-2.058640472630201,0.5258732997664076,-1.3063814429762408,0.7873224725816339
-0.9401982196285377,1.1109983621674901,0.7489840080205818,-1.2822436131440347,1.701444999176357,-0.8818457773540831,0.40593395214665257,1.661707636194558,-0.9557073898125915,-2.7354042983339397,-1.4536014892641564,1.3139573123407569,1.0793521879287276,-2.382814690063391,-1.8804905578715592,-0.6131616850695373,0.03408381120021378,1.3241021647135514,-2.6961877368956304,-0.9767508619726459,0.7333041224946555,0.09193197976578477,-0.621140594236443,-1.9614583426755188,-1.2435692812930936,-0.4780720789641992
-1.0330087435743964,1.438537596233513,-0.44071089166008476,-0.4584990985379955,1.3626130100579532,0.7179539833615425,0.29681419716857826,-1.1621215201421233,-2.421884531641867,2.1924659155320994,2.149747560612914,-1.4842655052931266,-1.7498456019319608,-1.26806882131401,-0.024440387222038517,0.04365441352959989,1.326986516721059,-0.8112778896714722,-0.5976637330774376,-0.37435892273732285,0.5165108531008353,-2.0640143763570777,1.0877412518545213,-3.4224148923137054,-2.3542874415456407,0.9289940256958434
2.0537339267698167,-1.0608033216220218,1.2713681893325433,0.15214991865332977,-1.3751827228138864,-0.8315930340432108,0.18887693521148757,-0.3900257031025192,-0.638428989172831,-0.3040874322414862,2.6924161155973585,-2.8272103406813422,-0.016874381375373497,2.346669912711031,-1.7990594722798172,-1.1447984586902695,-1.2085599031522145,-2.135412720330132,0.5091060257414121,0.5160643538973781,-0.4154773108137139,-0.7463822723398136,-0.23800015928059023,1.2719885746256776,-1.4552583264268677,-2.3746018261676576
-0.031773873817997816,-1.2790618714325992,-0.5085770397694257,-0.8139701794281364,0.1987002819866073,0.12550814573787605,-1.1605797284073829,-2.198285245274164,-1.7450520412623607,-0.09131637778460168,-0.8166093444421991,1.428534626941491,-1.548697740849766,-0.1423633012643351,0.4913047317216289,-1.3296576577167059,-0.0035241653363527465,0.8487605677861555,-1.1611178247983887,1.117848306237707,-1.670365132572382,-0.6313826323712209,0.49749255975070455,0.07774266126838353,1.6241542539522014,1.0571892972444856
