Pesos da camada de entrada para oculta
-0.8850682613046437,-0.16530866398137553,0.4042622433916729,0.4099906747055394,0.42258146082611237,1.8388180750917722,-0.9291149431502872,-0.6190266032853361,1.2425286039376018,-0.7960287792765112,-1.5119740565178739,-0.5264047750354806,-1.656497185431301,0.20898728966985838,-1.423515631723401,1.6164182150577475,-1.3657345415246922,0.8841949635442178,0.14706674610279566,1.2340609037203096,1.6640534103346143,0.8702875112626292,-2.3560064512671968,-0.78891381828463,-1.8797570848405956,-0.09177920106726543
-1.183415701207212,-1.7626266892264792,2.4177497936531647,-2.8132809159082197,0.9245061462482517,-1.4462791018953944,0.1176829869672247,1.1000855573784643,3.8614687604196227,-0.18984823219116814,-0.8891558742889623,0.20916462096321214,-0.15323343546300594,-0.715934683489662,0.6723775258352158,-1.2701389695573115,0.1439514556230982,-0.7306034276245743,1.6156701102269169,0.0242033830892568,1.7543263234078594,1.5919719418246996,-1.1896180369977785,0.3836540010831263,-0.7803121559774181,0.6806845599379111
0.9885654383769201,1.009210733870672,-0.028729659169988063,-0.09036076728229457,0.6558011094626401,-2.113980854055727,-1.097991024708347,-0.5281824334558496,1.2364046986664092,0.16570633765599088,1.8736448854628451,0.7848445175105803,0.6548593709343331,-0.8781642248423531,0.6884092590460503,0.9685973572069332,-1.1696259925051173,1.0226614774368317,0.40571606103120605,0.5690958137103451,0.19238383350635369,-0.27497603598291026,0.507111552504665,0.4315654509314581,-0.17218853937339046,0.3735023135456502
2.221473968984025,-0.04233252107780398,0.1786463107391208,-1.1374330671540889,-1.4643745489068967,2.272525727360293,-0.9804389884993437,0.9281243331875844,0.16912923724940643,-0.6092199624420916,0.39242647587707796,0.12416629310118679,-1.3695647261372672,0.6000747931588216,-0.2536559453485632,-0.20973148343256565,0.6502594502112287,0.8954333731980986,0.9397938523490315,0.972699060449923,-1.0169792364747898,-0.15476392572745162,0.11924109301710308,-0.10318738011966483,-0.23431306517612996,-0.4892588159686157
0.7604440289858707,0.8717653819150563,1.1560500474038378,0.1139281146324778,0.7502146381164042,-0.06690615606212431,0.782062717673731,-0.3341180261276978,-1.6033235690307703,0.3605299330875504,1.885363800028306,0.9781655345321564,1.332338262399029,-0.06578541726646292,0.45538212045523846,-0.7655184918597291,-0.3367624586774622,-1.654063387006743,0.6525253692374517,0.9035852533680249,0.49572050099686693,-0.6855438911200071,2.3641875575072766,0.6222867426979131,0.8258955261189285,0.013817509570106258
1.2992937654746057,-0.6866538722916206,1.5222515897993498,-0.7235789422160643,0.03227721033733658,-1.4252739502220952,-0.1408507612302391,-2.2625193708993185,0.35428918724884206,-0.9115851641872844,2.689708365480679,-0.8928855795405607,1.1993292686581503,-0.12717443621714605,-0.7521693089310103,0.2560877404124938,1.6365715415049613,0.18579868512085337,-0.9116465585963639,0.8060049657293178,1.2930183073479413,0.2728480284368506,-1.1656454928650455,-0.65884452360206,-0.02888751897901799,-0.244916037324405
-0.3229315772145698,-0.9975078697896397,0.11557838106324322,0.8622410867667244,-1.0394579914873914,-2.9252002637804457,-0.41634829223751113,-0.011856105927855014,0.7470364727333474,0.21146306146863061,-0.37028470545968467,1.1178121509867154,0.38277366748980024,0.23693186856730727,-1.0351394351492125,-0.09049444125485777,-0.8698331247991536,-0.407697438734368,0.40181733364810734,0.6511718784923302,0.1589380066127493,0.4329983920294788,-0.08484709218821763,-0.33088701966811546,-0.1841556810838756,-0.057800210160412764
0.8370995838760367,-0.06699712997266549,0.6941059960513621,0.09969377375429209,-0.5683176616393637,-1.1992731869305617,-1.3038269010890204,0.3168260266266908,-0.21210689396558333,-1.154908274478581,0.4360171686981366,-0.7193623535898231,0.7248589822216764,-0.8732410325475595,-0.40971480550919065,-0.29564785934790716,-0.3331613854415521,0.640024067982501,-0.2928177899230102,0.301969254348051,0.33923980288862504,1.8924495849958958,1.591160947307263,0.5366281413430269,-0.1835366453252728,0.9095711486012836
-0.8149411649034874,2.2134305502991523,-0.33562409884029776,-1.5881080825360603,0.051501135788179234,-1.2935515367056627,1.1479207285833188,0.06003703146069914,-0.7094073018300182,-1.0319028448872178,0.037659514429361364,-0.1679072823959925,-0.5830884176898311,-0.14346882869246386,-1.7891012913392272,1.4152457194452144,0.23649832308616317,3.304054557841944,0.6665784204483748,0.8981534189238513,-0.18404468093412213,0.2307526474606376,-0.2804354618471276,-1.8385044827028847,-1.157433791142781,1.1046748702251423
-0.15983189694735445,-0.7596286209828933,-0.03128012301818269,0.724134113819494,-0.7268673297234247,-0.38252464544865916,1.0595017128747555,-0.619650118752995,-1.5436062845627458,-0.33305649865396364,0.5971300563599737,-2.386688000939883,0.6135274318705779,-1.1659085090030037,-1.1579407495740883,-0.1645549185561175,-1.5388205371801231,1.1286125306359496,-0.9814436721014403,-0.6701592477232076,1.0052201300783454,-0.12497294022532209,-0.04171963227655528,-0.3615803826069128,-0.9222505659124137,0.5443910121764796
0.48958946810037707,-1.4763183160079594,-0.4185244980337665,-1.1891648183238226,-0.13238957674081728,-1.3210064368719907,-0.3762567154739059,1.1480506115857585,-1.5023609881355213,1.6316032960350804,-1.0979083956485018,-0.3189553058979584,-1.3411206692704405,1.2327772790415314,0.2508122529126676,1.5007391123201272,-0.4687011733868571,-1.3867456449832203,-0.18914941605401853,1.2669443399670772,1.2327177950958943,0.10086569960396612,-0.6067842091990171,0.019421869674558983,0.804050923813697,1.129117355681481
-1.6565841038164415,-1.2594792631752276,-0.21226391683888748,0.5258033339652866,1.3812688636000245,0.2690488687212249,0.3252771419069476,-0.6559905648145904,-1.198538035826851,0.10054446125826982,-0.27542870436525585,-0.600461595349786,-0.8687095648755058,1.285351437651633,0.9704111624976234,0.11523627241510949,0.07359194986411102,0.4492406436453481,-0.21632476988555024,0.43769071936800263,1.2566046034997473,-0.4698673531073734,-1.5048592219646302,-0.5393614519971393,-0.6517492565195607,-0.5246337608525373
0.849962051156876,-0.6816786387611131,0.5771469221729549,-0.8177313342886969,0.15842812292393954,-0.7981715309096189,-1.1186089723860773,0.06436358011715997,1.195291178249271,-0.15190209460727935,0.26668023702038535,-1.1587382569520368,-1.061349669905651,0.47827583596676715,-0.04003257321406509,0.5008405450883976,1.591668480100359,1.5583066450561596,0.3048715631469748,1.1599094405627204,2.018034120863975,0.6200861812367227,-1.2092333404636901,-0.5929319033932404,-0.003709496443965474,1.0904767219942333
0.5513709615503453,0.40409435306979774,0.8718968806046911,1.6462327340796148,0.09025336831670122,-0.5571022168448295,0.5293119565549304,-0.08857413962968778,1.3287661918131548,-1.036274833063431,1.0408992805761992,-0.5744808751806146,-0.7099207212028317,-0.06554569515347396,0.303137189920861,0.9867104690190033,-0.507676738271756,0.4334610008262512,0.40295054003551506,1.4340265306549864,0.725432176190311,-1.5980992803726366,-2.680131248407722,0.4153971095101832,-0.2401709670619098,0.9817982429316324
0.2331788080019603,-0.6956030109573522,1.473089580933068,-0.4749401059581524,-1.6174561470088358,-1.294433498422979,1.4851102217299705,0.07984212473227256,0.9499779165828917,-0.8365515834616195,-0.9022533626079754,-1.0902901000308574,-0.046876110984354846,-0.024120386478849856,-1.3469647170447312,-0.9199473548774751,-2.6643606259749846,0.46123895120169517,0.030369532168832918,0.2181007098952428,-1.1770682388004574,-0.18884254102848344,-1.2644332672146323,-1.0155193197905854,0.7481324653982396,1.0380749184340639
2.0546439711967994,-0.8098052213999719,0.06579020932461127,0.3496894787822971,-0.5327506759057844,0.7130089599213505,-1.4188853094796066,0.9208989808551665,0.31415918135221493,-0.3420005003330324,0.46998241137970176,0.5856486345780494,0.7432409375704123,1.4835781692835903,-0.37325367264156095,0.36659711300715647,-1.0146413224700805,-1.1965368841559703,0.39411889115932697,-0.8282852558528441,-0.23075225900440344,0.9876559915475217,0.9486033719704614,0.30652978693007393,0.6894426625826119,0.995843297861592
-0.32198375461257867,-0.8014613727624986,0.0016830362823216296,0.9938151557464929,0.9327936113625853,-1.2837442442137972,1.1696158402625045,1.029508158214047,-0.8089448962297554,0.3371182666381005,2.3447098221575953,-1.7797597248500474,0.10009626009341391,0.3997172754840492,0.13936827313627775,1.2084849087226164,1.0934106883010222,-1.4516712877894802,1.3137615894607004,0.14302098430033158,0.7301169705372811,0.75713292333194,-0.6819789510801637,-0.017724353397643153,-1.7575351755692525,0.2998950527476215
-0.8747712704083836,0.19428196509020418,-0.6326140674637031,1.2143747454945346,0.7574976421903338,-1.3778799870476794,-1.0088391673852108,-0.47810165679888633,0.11936154445191484,-2.1199782536196055,1.2608504395126394,-1.283580074432984,-1.4107561357469836,-1.4047417103203863,1.9093611921653488,-0.010490229393227584,-0.03490870518714068,-0.2775308144713733,-0.1401477436788605,1.8572603945756407,0.7930384353770342,0.5314838196457515,0.5739874694454339,-2.509762571226389,-0.8081891035497106,0.47244635763799636
0.41189827882592545,0.4697049354490475,1.481646373485728,-0.4762352144805173,-0.43029777182291196,-0.21084583472618132,-1.8256827160262203,-0.9299967840130201,-0.19415048281154482,0.7708867274720949,2.51243503682856,-0.6218813645850887,-0.7847478559609598,-1.023641568004312,-0.43872738705600917,0.41728056419336657,0.978334370165088,0.8964957955891236,2.19331766467411,1.936724927700989,2.210984702843736,-0.4167349983336445,-1.250341524839942,1.4993357931293976,-0.11231453917526683,-0.10459245326004175
0.8850250464362902,0.23706927319295631,-0.013296167973907454,0.38009443126016623,1.3537030506637227,-0.694821789691559,0.24428126416662935,0.40079141383711064,-0.35209607998935966,-2.0864775673213005,0.9950741589862522,-1.2838724884992068,-2.3616836191072235,-1.2479437423089017,-0.1988632787900117,0.0037123981745051777,0.9750043002284405,-0.9527598088960327,-0.17801511481015575,-0.8240057001047902,0.058318418249385266,0.4783841397465412,-0.7830211889400308,-0.32536144897367897,-1.0687455969509672,0.9676575326862089
-0.8989867305550971,-2.402854128870204,2.3152441162391577,0.14461182973305942,0.10701143905482421,-0.06475122507121676,-1.493833138395439,0.729511291249817,-0.46986815510490276,-1.8425287013303582,1.0941498453757055,0.2663857713335898,-1.8246842811764412,0.25681394780378514,-1.7759820806103015,-0.8005883611717766,-0.42053881347876576,0.471049700497996,-0.3305962218356006,-0.7651465028178481,1.163768309915674,-0.032837448637200936,-1.1350927404163176,-0.1477543389257753,-0.7087736193754224,1.0852840253350884
-2.1019931099041886,-1.2630471365692022,-1.6369054216314418,-0.044255405405181546,0.9525279913204152,1.467564464276006,0.8257933108055995,-1.596085376813013,1.16866954096884,0.0702707232448962,-0.02633884828920959,1.097152560605341,-0.7379224827708891,-0.29130579155305286,-1.1952822041201274,-1.9768595261532735,0.28111522154567314,-1.0484474460425983,-1.3754424435299397,1.8241355439365856,0.03820341940488068,0.7820297747954489,-0.06810702762692727,-2.453870058428071,0.4032787769060912,-0.0382142625967894
-0.11089104805821555,-0.45438286921092574,-1.3540706189061646,0.032332246785744145,-1.377120896195701,0.11537041124992185,0.6062815094522166,0.6313853849472415,0.30721497796767305,-1.3928275970215345,0.6333643352836621,-1.9970455152937712,-0.8111888865172101,-0.09216833249753216,-2.2189723110759894,-1.7721395590209648,0.40219849379956607,-0.6694832604366397,-1.2843201476053474,1.7520466939982835,0.8493680871095332,0.13467285905840323,0.3680409389532285,1.4312713989262553,0.44606144796720826,-0.1013294519732134
-0.38558048723111205,-0.5035759716760981,-1.338280544440921,0.815545349297062,-0.006590557943061207,-0.22007432178721448,1.9696607673190867,-1.4954727365218883,-0.9968241632601649,-0.9711727288626032,-0.2832108744752947,0.18122580003366862,-1.2140694817105302,-0.18833813281538483,-0.32094183670954435,-0.21299012287532687,-0.9538093189849027,-1.2818759159333444,0.3779175373806483,0.04324284545446815,2.1456014534327688,-0.7326019262318197,-1.3045946244074709,0.08327138729161314,0.005179855051542826,0.17405025177641084
-0.2510294540621854,-0.8020211737243765,-1.380395590651021,0.7137065647227028,-0.8440402232510289,0.39099669017535543,0.5926963216121404,-0.07482540085277814,0.04905312387269941,0.7650190186578871,-1.1252236496424686,-0.018979905399526778,-0.14545921415399304,1.5167086624352302,0.6835079628540174,0.11269240952177895,0.35612260905914994,-0.49556970326969196,-0.9224725734692503,1.1160876823534336,0.4142001530623077,0.02693260732410358,0.5472584657291149,-1.1587545868870803,-1.4094707398614612,-0.39739220157578364
-0.18284649194911015,0.34984733271466445,1.4208976546030285,1.5845827707579414,0.5737412858858816,-0.1450601834729839,-0.003411003099087907,0.014099852053324615,0.023830460701697753,-0.029032976691214605,-0.6340792377624912,0.007793943591704036,-1.374308384641098,1.6537199345175402,-0.4922359569796198,1.1112790889115025,-1.294683914853857,0.29709772371439824,-0.26529214560626324,-0.007482568146654823,1.301719396112863,2.3056961505870603,-0.2177808830259268,-0.09060317892569318,-1.1222789600910092,0.2316802900197406
-2.1672628728650953,0.07957076695880849,-1.8450247797764403,-0.25587093078707224,1.890272749904155,-0.011599372782096539,0.042547505483742816,0.9571784374213067,0.9919032990734331,-0.7347034881259354,0.9530479387861013,-0.8845766881802045,-1.6438188046998468,-0.3047646332506535,0.18094914218252758,-1.0784258974167504,0.1567665991394026,-0.6570727023323675,-2.656263607314665,-0.6398173066929286,-0.10681874855046997,-1.5628259043145794,-1.0149108787257695,-0.8943549100020084,1.075597191301471,-1.1555751684834292
-0.1138541663340431,1.6719827806118495,-1.0831827340634892,0.061660465533244245,1.0162823316370382,0.09706050545806255,1.083572512457172,-0.5618289485656214,0.5343130260296983,2.175230424110791,-0.7368839579273453,-1.2312138534449348,1.2489158472898216,0.36792938902162,-0.31847784169035054,-0.3643641434394681,-1.9009205922148134,-1.77098349539707,0.26262382379641774,1.5733605250771854,-0.47055129203190127,-0.41699431590367836,-0.032984862551077784,2.2859183484454406,-0.07474513428016612,-2.105058431893294
-0.021256451086731343,1.8669537195086785,-0.23944274787839756,-1.458783921557343,0.9631336958602668,1.155675303616423,-0.25658293873045035,-1.8747738915708616,1.6772396265021672,-1.0354464739214242,1.2557441680258394,-0.9390490875135116,-0.707706367690129,-1.6975466422483905,-1.8053897265681225,-0.04589735042321609,1.6286000710591013,2.5878239403041015,0.33244488633820823,0.29235408693452475,2.420496163664685,0.3414135022007768,-1.7693840803939545,0.4721792294167627,-1.7385277490894386,-0.042774342450506084
-1.372271418499308,-1.2920625265813146,-0.14805303418699994,-1.2638367681695888,-0.9723376474108323,-0.2615202127183326,-0.7674529659483278,0.9351816861810611,-0.36290887859598286,0.03680790591128021,0.7290058527605863,-1.7486739790574086,-0.9504446294238624,-1.464376559069106,-1.735987063868429,-0.8779563997092763,-1.228176643760632,0.16310317866964413,-1.8895494436533398,-1.7774915200691546,2.221571342042051,-0.6529580295280739,-0.9917652371582104,1.3886623269115725,-0.28286516720891935,0.8122324253282632
2.270485000951554,-0.27225865908640995,1.3854897382650722,-0.18530737785376686,0.4578371931344851,-0.1725412841010207,0.5469056485362637,-0.22532485203285077,-0.6056863236923438,-0.3843358937028657,-0.5571409741005621,-0.674003116795575,-1.3738657120304365,-0.5886756827045175,-0.5460301787766225,0.015725637910294923,0.8306817787600588,0.8111843245556987,0.2075092751530863,-1.264743861364085,2.071170102262978,-0.3633007256701391,-2.0460088222514483,0.5277638990102135,-1.9379420256683908,1.162196120126922
-1.0801373091147897,-1.238006545611767,0.04996277826640536,-0.44684725446560536,-1.6499582314875976,-0.006280808277669275,0.38824060458709503,-0.4612472726077467,-1.1518546514140222,0.29322072260825555,0.20445957078577118,1.7612905766831142,1.1276709299910106,1.8967989949415829,-0.8551149251831546,1.3171237041050157,0.4435070568088996,-1.0489881076243681,-0.8575648292345917,0.11618356192852866,1.1412410133120052,0.5071450923343388,-1.4715586549439452,0.021294481364098186,0.9381297183709573,0.4571938293628221
0.41739956645516324,0.5517073307253472,0.604810210328548,-0.843862252981875,-0.5099380051398837,-0.9481329831472332,-0.35766582275635445,-1.6553357259319237,1.1511993595047358,1.9153517100416153,0.24831706106878054,-0.2760872196893905,0.05979811770062803,-0.31631998344515955,0.6147105405168527,0.7183629261171389,1.2738737809658658,-1.6735373345641062,-0.5529563516242383,0.895845721732278,0.11350081431266701,-0.9399746551758562,-0.2589000897732329,-0.39421570270799555,2.0965687204380847,0.2261447464578314
-0.18163218982293713,-0.15338656043484813,-1.6680598804506541,0.3757673777058382,-1.4123509294814554,-0.035738884068571376,-0.8801848542821887,0.6132231618475188,-1.3401807525504932,-0.20900565703614413,0.47392876949082435,-0.07881783356849323,0.8210841295637306,-0.8368669966833486,0.21483588307066992,0.822919733544601,1.2308239210482,-0.23390727807998596,-0.7454263305577272,0.12670762627812918,1.459238174485959,-1.5303126248435777,0.5557397102896213,-1.3352399578611212,-0.35068710491600225,-0.13618212690543147
-0.16508752756589828,-0.11463357564883776,-1.527415480734402,0.09635140430297592,1.0230836665943872,1.3103623296731515,-0.26677920516654113,-0.38992095814418365,0.3409575027458772,0.33316926771914684,-1.6096110585405468,-0.27606379646076995,0.5657738596206934,-0.34700161702414895,-0.02476159552826889,0.8620589554421604,-0.995469185908635,0.6975219698520981,0.785683320818096,2.0433939949933606,0.7988248797166855,-0.18656254793199173,-1.242907667967484,-0.509757424661263,-1.1128089165916877,-0.15252151506132913
-0.8559335250224561,-0.8313495255526072,-1.103024822141843,0.8908911968216342,0.02930962752438311,0.6535971952495974,0.2633377306614161,1.4171045540936946,0.2607382193783254,-1.6433976251998672,0.7463663338771389,0.7633810694808888,0.17708634326686243,-0.9873241081706264,0.48466538559199285,0.14265247886687207,-0.08219211343212891,-0.14726005702564463,-0.4372494055238969,0.006466337079202874,-0.1116489139574929,-1.68053493040584,-1.1903436837662789,3.093963506886774,-1.2650931359259774,1.2261835413642739
0.12269151684407081,0.18779571680503315,1.7180295787909712,1.3541326540548027,0.5127118885099384,-2.4071121315649924,-1.926580857061971,-0.34849811051783847,0.29260478135076096,0.6111670837535841,1.0604108643370143,0.18318677366527567,-1.2228801904893247,0.38678367661771335,0.9549258739274525,1.7295391116139756,1.2228521936602406,-0.6440313433666544,-0.03706946021674561,0.37204382516717094,1.7014336307671958,-1.116581252895441,-2.08909111589411,0.6676116952568959,-0.3909331385346097,1.9499615647989896
-0.30414024392234934,0.17608488454880952,0.4813188138302956,-1.2422678571646184,-1.4073593463310454,1.0368035294562288,-2.3746421828755877,0.5988128657877766,-0.43735826741711786,1.6995883426176848,0.11784204308610878,0.20027874041249674,-0.28847905462905604,0.0835042112824026,0.4205801400427852,1.3374518075513284,1.154555869629828,-0.3927312701945719,0.016369545713818382,0.9384929239263223,1.2509815624452978,-1.321321101053507,-1.687236245752368,0.7696765683004385,-0.406660269811774,1.0029868582779078
-0.7816564303042892,-0.44245045832797764,-0.6392054058927396,-0.7727083711839718,0.7672147930115438,0.19319799957715775,0.0998084029745786,-0.580266690904076,-1.1340359350519094,-0.3540952218924269,0.9450675993554177,0.16564346991784673,-0.1542231417054816,0.15552785970956162,0.1827345138415165,0.8615413699665472,-0.7674973609325544,2.3330716497054698,-0.36644427941165036,-0.8432782806057181,0.019288122904121626,-1.6375293690628927,-2.087793788109191,0.33140827626023506,1.2655119574121876,0.7338619913796394
-0.3098314693069451,1.2751670042432715,-0.13397669416660218,0.24535515199548286,-1.159068003827531,-0.3798357711251067,0.6658607611299353,0.41131323187701246,0.02855245464790351,-0.1667799552095268,1.354158030957238,0.5853634105606932,1.4061696889551003,0.7875686496244979,1.118791962290295,-0.8082725654225497,-2.094866682094699,-0.4080880010517065,-0.5328197029767607,0.4536329357700657,0.4918767083760301,-0.20183561205252742,0.6729967940171196,0.7058412400295546,1.9189141758446793,0.4680335713634077
-2.2667238227514717,-0.24668574815519306,-0.9039267823409332,-1.1541621949723324,0.37023382553530465,-0.6770746358679397,0.792999140192971,-1.4818927241207764,0.22625611841809562,0.012879861356049958,0.3599947540623176,0.23741355381021903,-1.1819575480724274,-2.398024220599888,0.5706034246097648,0.48279267865386477,1.6285861396292873,0.8815363123498828,-0.7987193038876759,-0.3958455270883551,1.281182326595222,-1.7525554578786775,-1.0130662664765366,-0.5241869024730614,0.636069034785663,-0.44411572155638585
0.3098626797705311,1.4619728012130935,1.4037018716078542,-1.3661353548669088,0.8650853555883522,1.378535485381497,-0.6668196774126172,-1.5707721465717173,1.5909300991960396,0.241975811022852,0.6227857668863027,-1.9793024914604467,-0.8579534190770189,0.5011877879314534,-0.5297090698963415,0.8359737366489475,0.7153665593823723,0.5393938772965636,-0.3065791665208723,-0.6941886037266518,1.5924594357721162,-0.7745717260934124,-2.5161191472399254,-0.19135620170790665,0.08374561923675909,0.2718689095204554
-0.30367270593967627,0.37877701541348874,-0.3606578787145815,0.8177274756862805,0.5548275766657944,-0.5305393325507493,1.035805283987418,-1.4413351987281686,-1.9621975125820312,0.7812205837372069,-0.1768766946089892,-1.3164213095476143,-0.10258069263717973,2.0904596857544995,-1.3490370509068446,0.89744398044174,-3.070839470219898,-0.29266741824879317,-1.1616115645577392,0.12097944394564394,1.0577620849089948,-0.9242528425282387,-0.6357412031139514,-1.5082498994554414,0.6214924779029287,-0.4432903757382963
-1.5007157413986818,0.757522295628637,0.504131730734809,1.201966424388581,-0.17477329567667982,-1.5724886623683805,2.482889029926603,-0.06987632827281431,0.1569355867181088,-0.34086853396283096,-0.5978618421597509,0.5704725498068701,-1.8072288112471606,0.6142117984713065,-0.8284682194905418,-0.87669626872425,0.11596120943002605,0.9265568575193005,2.1220863949115842,1.0676809066806456,0.7414334677950101,0.9005453615737785,-0.45416623585747534,-1.1501677409436408,0.06502398678250086,2.1821436437784714
-0.9530572809924294,-1.5506161672354308,1.3108235468837213,0.6457680183110549,-1.4513785069906329,-0.7379474356116489,0.7546308603284071,-0.005696546933197018,-0.5681126171998357,-0.36856366542569075,1.8531049029197417,-0.08900909391795006,1.3327867180964343,-0.8199831864634742,2.2969369807710347,-1.3184669066437573,0.8273526747211218,0.6144692327604575,0.2839790731786056,-0.29224455183357384,0.7325353523719421,2.3992402246602618,-0.08000374481945442,0.1403554412583324,-1.0743741165143037,0.052264007312134576
-0.018353557130694566,-0.9570459464611991,-1.1350260067215185,2.265945133087691,-1.0419690194649571,-1.4515808397572223,0.5718215833385804,-1.7001603648423687,-0.01936595679098391,0.4409830594948777,0.9901920860535174,-0.9267352415500022,-0.5724020550367359,-1.8029628068142747,-1.5327852695980033,-0.8735470130756636,1.5308511462857595,-0.4963958248367246,-0.3825301969717229,2.139955722460333,0.5374919924135977,-0.207842477968836,1.0454555608806313,-0.2698630576160253,0.6712391664155903,-0.8304842196007926
-0.7878350521149868,1.3741383396478348,0.5516209652760613,-0.09506586898336303,-0.044663755378492716,0.0209898036013225,0.08929677504313285,-0.8630417207138681,0.7083240253879941,-0.7376191464520756,-1.2855962746835006,-0.042865883456039956,0.09150440696461695,0.5362220024414558,0.35663088968794127,-0.1629138463209166,0.37283908929770093,0.9660046554607481,-0.0689020231184428,0.07455424448435136,1.202866870301443,0.7804976227582195,-0.7571792602872236,-0.1312741533174502,0.12953253405368623,0.30537497839589495
-1.973983207770058,0.9527170654512241,0.03413773919186915,0.3168891211063865,-0.23437868461623568,-0.028625391876039838,-0.037354196841456085,1.1363997586512085,-1.6413607437919704,2.333038950385768,-1.0719804909155062,0.6492263860926039,0.275924042368437,-0.5627139380328028,0.362173155036911,1.5512639842741793,-0.30524540463376043,0.13013589148603524,-0.2102874893044162,1.4187965759622374,1.4037001457271405,-2.0357318203206187,-0.4866201311307705,-0.6233707751922192,0.690226547081395,0.8173077993032651
0.4076746766983178,-0.34033909930460615,1.5623136965909312,0.1937903934740192,-0.16407468825856633,2.1795125847776573,-0.13345099098959887,0.6357753966844554,0.12753071761259385,-0.6738411239991694,-0.14749303119419085,-1.3220288414206895,-0.7208057154136706,1.9460518806608307,0.13035595150457963,2.3668020456418075,0.6707256233478622,0.5468715869647452,0.4240176496121691,1.4230050622589092,2.2182259790047176,-0.8743736459050346,-1.9297500615208811,0.05822521794841582,-0.10232157786783774,0.4812134390032359
0.571975765963839,-0.16410946590860057,-1.130676388822734,0.5798897108531361,0.1627281831331094,0.7351067018801722,-1.4540332102397566,-0.5522960406410714,-1.8192860545508005,-1.6771435059818762,-0.6222666318592927,0.8760654166124984,-0.3312814002083866,-1.1727373066359823,0.7344052084936332,-0.8399014968841986,0.15879170117356006,0.9668760278568839,1.1909443227501848,1.049007590799634,-0.9153826026282041,-1.5855674533010475,-0.14297370499166204,0.15814961830616295,-1.6225351125913086,0.5844491006302249
-0.8821528088076045,0.8482291945554468,0.8786101375663586,0.7330004943371237,-0.31150450027179044,-0.3116554662203627,0.8691338675662639,0.7223303826922396,-0.05126433595411291,-1.088045924193563,0.30421487597854496,-0.4225299441268446,1.7316425320689588,0.20531791330024357,-0.24659996677004464,0.004235873000869366,0.10932088286212847,-0.8456455229637535,-1.0343207708446882,-0.56074318544263,1.3659987240850693,1.8694164184888433,-0.17426835815601718,-0.3073216528627009,1.3823697231900518,-0.329249521981618
2.483673299830606,-0.06937302544818069,-0.31738680469975383,-1.6150969446756067,0.7884859045701401,-0.3203852906821471,-0.007366165199508793,1.6654631702347138,0.2239003272431657,1.068233786290393,0.059849160300814545,-1.5287570904299366,0.33125183731269675,0.4500610421743196,-0.1051748119291002,0.26268365487121204,-0.4402060478128063,-0.28021130470407757,0.5498294374335578,-2.8008051040166033,1.7904923759405849,-0.1765749704943103,0.946756717248356,-0.8498336552987575,0.3731291933843091,-0.06928933874774627
-2.5196511055321347,-0.5304053430261252,-0.8634401873439208,-1.022372438562629,0.6297696783933522,0.036176527036527344,0.08754749635238866,0.44736520008476977,-0.20503850448378905,-1.9056235508859032,-1.0053670080542687,-0.00697345248567931,0.20592950736329949,0.35739047952890896,-1.3868596296327054,-0.8791292950790884,-0.05719767460972569,1.8158539903363589,-0.47444657693293574,-1.210360501665505,-0.41186687510112857,1.0317510854100465,-3.0544301202849122,0.3308816864669422,-0.16721820545955982,-1.1396877636089937
0.44556466921432547,0.6881476288330631,1.819979834454731,0.20469550945874906,0.38553942221175225,-0.19956216531907345,-0.19752000891337104,0.12705149322703396,0.017199900169734102,-0.1157622863078137,-0.9201813827288782,1.4251229235225393,2.188443437048026,0.0188213525593366,-0.8587195086312874,-0.9470058293529395,0.37722985032402023,0.694880216816357,-0.3734201608609589,-0.6271616911338999,0.15349460330060472,1.1324950168654415,-0.14226657888831326,-0.4786600784030993,-0.3815320167694623,0.09171938437594783
0.38004942127917074,0.311072477322396,-0.059269946028213415,-0.34046034033238565,-1.7384645064620805,-1.8347649197965596,2.9174479758906546,0.11665378893644088,0.3247152042449107,0.7409767663114044,-1.7205003085383,-0.805515170559583,-2.071081606465155,0.48670410962471927,0.3254780179114014,2.2792639684002536,-1.529161043656857,-1.6499680525585603,0.9965666736829809,-0.4988662606959828,1.0542971790374087,0.34990154811934476,-0.8235003189450935,-0.6037086020263578,0.6317049864638234,1.1526842086956517
0.8359691884965824,0.4213963917794464,0.8036123892610003,-2.1546520005101835,-0.20778976014834402,0.8550194249998547,0.671339056736395,-1.4121134482891193,0.7142093235168394,-2.0798854856913085,1.0046802226778155,1.6699644018487143,0.6037090069275817,0.19193117665827528,-0.5390748234493554,-0.7831996659151906,0.21126317805943295,-0.16022810671591584,-0.554504720765751,-0.04365166800424841,1.4724285017756382,1.3238556532221757,-0.8299827626460775,-1.2912576489535468,1.6653768554455355,0.6112380800389657
-2.1705623528851774,-1.1723133930599086,0.17618064451451906,-0.8259585494532442,-1.1505161997081188,0.9587834569900117,0.14797501739207877,1.5372944409081144,-0.36818825439088854,-0.46803997365007133,1.5309383955601286,1.8898834822033495,-0.28016072592696595,-1.4039192160311773,-1.0597923263456233,0.6751914637029011,-0.3040767175790505,-0.9549547467476273,0.18865091903534623,-1.2444978063496484,-0.7571208948736191,0.6204729261005338,0.760919818948316,-0.5322479470300403,0.9409630323604465,-0.6325877260985422
0.8532537115704895,2.2020834097084583,1.077293074656487,0.7835082620023232,0.15610795556965615,0.7440892884698352,-0.8749296907737626,0.14056143824413747,-0.02925385828828538,-1.0976055362341033,-1.1865359094836063,-1.6812104450039813,-1.9988622827931386,-0.9134684865223045,0.29070871362265066,0.7736668200408103,0.4181186674528,0.5251245281819741,-0.5647105090410165,-0.3905865334583806,1.218003019505178,2.338361449662827,-1.1558054386244594,1.3959350551107261,-0.4398013710432765,1.6214362582221928
-1.3086852523524237,0.5670915301218236,0.11284043766350542,-1.1147635337366955,-1.152083847923756,-0.5896683209994236,-0.016395383452103264,1.1067698952732572,-0.1678901990901757,-0.5309148172108193,-0.8900140297912368,-0.42914883543715177,1.4810674636682712,1.769439965018082,-0.4144849088593349,1.8825569573723986,1.578619421146542,-0.3933434900838392,1.2971331971453022,1.406468644539342,2.019637865703635,0.4167706366519474,-0.6140694229617005,2.0976765745633212,1.6508549567558946,2.1998669942898443
0.6361257438907691,-0.8860742181825795,0.10417277484594416,0.45528372829564,0.5428121540254978,0.975419729020047,0.2570042085894216,-0.1322050014716589,0.5838793315083499,0.2684995224421505,0.08435792701467147,-0.01063414426033943,0.7771969232141259,-1.5677628066889167,-2.0329367726819014,1.1291064652727811,1.7107499720048958,-0.899170323430805,1.4323194113986446,0.458671224191257,1.0522367538419957,-0.8411822701385547,-0.2131999978748203,1.867179117958041,-2.315191772713754,-0.8807807952629436
-0.26314981194033904,1.160314711641829,-0.9150527993384849,0.14580079815286084,-0.6360131001521808,-0.7766480122014543,0.9682704294716346,-1.4009034286741806,-1.3765818434686605,1.9144898395426164,-0.3161772318258875,-1.039900761659324,0.41420683927563723,0.6864519124544621,-0.8560755623423347,-0.4603381373859673,0.38493081893332187,-1.3383131240827577,-0.20310587751721076,1.742401936776106,0.8062132322628386,-1.1270027306421613,-0.9656098956852841,0.46705142543424394,-0.8481604399388777,-0.9973587586606805
1.0898294301758087,-1.6467848991743863,0.19168354233698665,0.23176697030960627,0.8444426500948222,-0.959057408472271,-0.47334129785687706,-0.2700677980408554,0.2578088562785376,-0.32699916190444467,-1.0097842586813368,0.18645291801731717,-1.006247970853793,0.1511072022099118,-1.814690171595593,1.1733720970662314,0.21783018338258417,-1.4604091526281031,0.39514052156171564,1.1813300035124856,-0.9675965613640536,0.8293032737343197,-0.4160674636728527,0.03777139425673857,0.29821515268979,-0.6753059049758305
-0.7044700553744108,-2.1844071291082234,0.5568957194647641,-0.6016681066348974,-0.2134757750954135,1.08575857300579,0.021773134668752473,0.33487345711374233,0.8439034994662604,-0.15229718537579634,0.7210623550930466,-2.2431565932690494,1.3483480664055243,0.09520555015027758,-0.2817767403788337,-1.8175721646469867,1.329182488992708,0.8305899315449558,0.3005312996008133,-0.1700081151061359,1.2999894685518205,-0.052830928518678426,-1.3532268032243662,0.3392661134869824,2.987710708554059,-0.6010979081181178
0.5012162858995525,-0.9176390945994521,0.539309191154955,0.5202388147542639,-0.008815619722621874,-0.6246920999813007,1.235337459749637,0.728406946298248,-0.5968882508532544,0.6796156773490108,1.5456420288779937,0.48169894038517,1.1986813643860574,0.8001370075272142,-0.5519824211972247,-1.5435984166809125,-2.117270518933845,-0.2441559705576272,-1.1533368038499416,1.683294454942508,-0.1546680350529583,1.606646187145949,0.47496433833829554,-0.4605560922530873,-1.1880924842114884,1.1973779819194361
-0.7130667128217468,0.008118298067779773,2.0382115452543643,-0.5641912834434643,0.8562332743071833,0.002509529864299426,1.5700336321061725,1.2105714657209707,-1.2271895295076767,0.7570611359226406,1.6678349626508693,0.14464391681277985,0.7841609922191837,-0.6410342517315893,-0.5524616046387623,0.6674019329785301,0.11710733866147108,1.5831850000907735,-0.6278493819503298,1.4095779029124866,-0.35936818376221796,0.7580699401845465,0.2453854370131528,0.23171809844780866,0.4660782689495683,1.2184392785117035
0.006731734971268212,0.8527027720815201,-0.007263100346979304,-1.6466023117789839,0.48846967274207476,0.5032302765679636,1.7207838497710797,0.3664544015569065,1.1120289865698745,0.326414567504932,0.19412640154268257,-0.3935387607521284,0.6608218463238192,-0.3141825345811455,-0.6646223432328506,-0.29333791109306284,-1.6404740634783535,-0.3675537179603282,-0.35571043317130097,-0.3001218229898085,-1.349533630303093,-1.3922224714585278,-0.19296165344513708,1.4951366304524278,1.5153666898551734,-0.9092735724654384
1.5856464763505431,-0.07043323822398262,0.8379535303410173,-0.15043294886144173,-0.5415778305782211,1.2091362859109258,0.9803349763228968,-1.253158599364077,-1.299813374161494,0.9979358216543962,0.6647895867783437,-1.6551939229275539,0.20907649349951993,-0.4385810104661077,-1.2397237965283638,-0.0192715001311593,1.6850257630783465,0.3267453934806057,0.566025408413665,0.5263575789401492,0.610955439107402,-0.19027926011555651,0.8713380125192636,-0.42635331554034256,0.5250595261669835,-0.30197639253033487
0.8676535811301456,0.264381474689907,-1.117587776907479,0.02960978179773751,-1.9729385398979422,0.7768794334606487,-1.6508834313444964,-1.9344048255217452,-1.5734641747651943,-0.28014936047689376,-3.1811638626786185,-2.4992742762358633,0.3394332712229412,-1.6236307124080624,0.9488459395277756,0.4163537804497841,1.7212678675748865,0.23245084244456915,1.6111449704502558,-1.049087491746119,0.0426495360849734,-0.5379231550197514,1.832368225514701,-1.6577588461135886,1.2192370123825567,0.5009600396175201
0.2448897821343001,1.051621261484667,0.6355805141940699,-1.4418863722278623,-0.1827486092313061,-0.5929141811532407,-0.08368861707724601,-0.3674220319874511,-0.12326882319292161,-0.2792790364958346,0.4680906237982348,0.48605176000706724,0.4791529175853015,-0.15032497797458969,0.33742852870048695,-1.474742656366315,1.199512775207551,0.1658734574083172,0.34441125574873005,0.6915344189823215,0.063386627230437,-0.6386209805993422,-1.0513922155047224,0.4878490984807873,-0.4303378130247669,-1.2305605909535142
-0.6899005163688291,-0.325174095082162,0.43807282018429994,-0.4753649763778412,0.18346611202587987,-0.8358374875642153,-1.8918065494153644,1.857016482763,-0.5497448327276931,-0.4777045522189823,-1.3141423293534706,0.15194871761989354,-2.0514164297823596,-0.2987729726501732,-0.4351030510740508,1.205377001019101,-1.140652821074623,0.8699717229978419,0.08662340008766549,0.0805806580380468,0.5070034172728851,1.4456074459603354,1.1507994238508747,-0.4932153548142087,1.6288099269978378,-1.6228964268112664
1.2321468937046018,0.7104118200960198,2.041119096336207,0.8056594831865925,0.5307984880289804,0.04842881753897992,-0.4029630501246054,-2.0537739859450084,-0.3995830257774468,1.0795481814341796,-0.22555614886687014,-0.6145756656391458,0.11196334088766412,0.08617258423106029,-1.9537359265124767,2.2267348430526672,1.8291976504550889,-0.12336957092898054,-0.3118337582155759,1.1326199637209329,1.3658844103442631,1.6609796434489519,0.7933516065950637,0.20714362435763078,0.10743283355895542,0.5434719241717354
-0.9517909237876042,1.1772684834029503,0.8384904348848862,1.0027641851247373,1.732886509271404,0.21763936148072366,0.08934747160019822,0.41630069009061677,0.4995499458057541,1.7828902561655107,-0.2975864869689338,-0.47503371427714375,-0.8334713447453502,-0.0848684264462169,0.7796753165086402,-1.7029977966667618,0.5412510962629236,0.4817023342808662,-0.11083274632642505,0.6624492483619864,1.5637706100217825,0.7334813119518768,-1.5976356092075052,-0.21472829435251795,0.3333609419128572,0.7185225447782444
1.6555734123100778,0.22394684714034888,-0.5427273421543207,0.33248436184449437,0.8499743197435988,1.0241968687157952,0.42476763100715464,-0.6063955465944766,1.0832525730313258,0.26569087038125966,0.25519733585488064,-0.06996168551354191,-1.9133793344370684,-1.9138694569054078,-2.107476733904337,1.7462057130411823,0.06479144425653237,0.6409496830954453,1.5237949614952453,0.8578184174288843,1.599787877398423,-0.4101153443631662,-1.6365380125302347,-1.01384921941391,-0.22244438532462663,0.16266338065086586
-0.23747407374548798,1.6698010699700254,0.30240195127084335,-0.8541849837762561,2.7741252306069426,-0.3243640481063325,-1.2288436858478229,0.4444683448375123,-1.6195155066926894,0.589965457742758,-1.3463854835644722,0.6062985881883888,-0.9073931318473223,0.5071895446833179,1.0023461204202349,1.9062645955048094,0.8039092470577415,0.4177849290845805,-0.8936136948906461,2.4080194410100537,0.11046019669999955,2.4193373667953617,-2.3720398715468956,1.2653614172369498,0.6327885844310327,0.21518763819548417
0.5415638038398635,0.1253447714484065,-0.9183277941526027,0.8824160929517856,-0.8092046111505266,1.9126667130183785,-1.0303376173111556,1.461719094356221,-1.4542616318253108,-1.783863208054878,-0.8915541913535469,1.1195483016225318,0.651826973880113,-0.448203982311646,-0.6370177641509825,0.5354186580791731,-1.2429569625653338,-1.0726107371729738,1.296806651995991,-0.4713180364134609,-0.35673066645132256,-0.38777911169297163,0.07815026181048987,-0.961551746603165,0.7030164751319472,0.6756302491474457
0.5569997652645299,1.6680179134721582,0.7623660563748779,-0.9051507338881721,0.015157191799435615,0.04595145907710374,-0.23125359988952882,0.8586399456166692,-0.9285464972493089,-1.2122139511741763,1.4826002621970547,-0.9021951942035418,1.7323982503054065,0.08077638475356301,-0.6964195847108546,1.1540744256340143,0.4757639877940945,-0.034449748839168876,-0.06119655382625218,0.9048050519779495,-0.2709928253610186,0.0962321548616618,1.3070634689373322,-0.20641691702050385,-0.4901075194293418,1.6718204859650412
0.45656645626477366,-0.7641377743996861,-1.0783201885662181,-0.07445214287488358,0.7071184798934389,1.9577200368670247,-0.6328271679496671,-0.6099316073787165,0.059610950127707486,0.6393574868627939,0.7631138965476081,-0.0678577710768711,0.7548735057841242,-1.1427689680514532,-1.7188319412273558,0.6749664271674972,-0.3222770624169287,0.4965443993559728,-0.03168463693328595,-0.0858508354884148,1.774077881264142,-0.6263290790974906,-0.12732421258262597,0.5305109084156052,0.9796535177942941,0.48178663346634876
-1.6950357199052473,2.114586316672776,-0.1284731094999504,2.382314563850898,0.46616212072256674,0.988498089123796,1.297856308610152,0.6516095630420143,2.1136127265677302,0.20173427792403956,1.8286431999260435,0.4472039537333605,0.9098278955327742,-0.8023660567490711,0.24246912796623343,3.779607225899308,-2.290436443650198,-0.933559697042193,0.8492931139498048,0.5084148318070278,1.7669467643060346,0.05222329250086631,-0.6157176436359938,0.178319418634216,-0.7414599676731678,-0.3711288872725397
0.15730657041614285,-0.5247014000862686,-1.169886143308248,0.5186081771394199,-0.18514295308284842,1.2209528610418252,2.357410401933661,0.2962868173027636,-0.21173565130646088,-2.1311914120015043,0.23992703779604385,-0.8564363437129083,-0.8675118245930011,-0.9545806667696612,-1.8876041137296358,1.2367486147759306,-2.208337594421116,-0.9333722587282062,-2.6561239767697296,0.3330643648057668,1.3157924339709208,0.5131947239358144,1.1110483002361293,0.44573740519812355,2.227168439538878,-0.10196644821024048
0.3897129477551887,0.7749793293853606,-0.29624138408909034,0.08626703549454426,1.3291861590259353,0.13951664745592296,-1.8028396250628789,0.7480324028855133,1.1610320789543447,0.3213433848328705,-0.4253982703019976,-0.09445197289589014,0.5759286081208668,1.4268431592936643,0.7345941221823582,-0.48950070543871566,-0.2562805629903923,0.4671633748147646,-1.5152482580633513,0.5375271901048313,2.41974002597133,0.24556422119791932,-0.04200263375022211,0.12795419665398602,0.6687751342285481,0.2553550858453875
0.9095767084860981,0.2977204870223487,-1.5727026451827892,-0.747654849608946,1.497161004024495,-0.15948106428969763,-0.09944610080366557,-1.3070324980483068,-1.4592162301961242,-0.6225447753393998,0.37292898774087774,0.4232153068758043,1.033821864494101,-0.21353492680870487,-2.3614133271662188,1.725448604507214,1.7245622977628445,-0.8096238169013893,1.2632874010478008,-0.0574744805666231,-0.017050797022466768,0.9444936680910129,-1.541229006325087,0.1802449101226938,0.052916102797914776,2.1562355476285786
-0.8595228616156585,-1.4513282086749704,-0.10781553124897077,0.6577378999449995,-0.7544024723473957,0.6247826066091346,1.5604063468612792,0.6989881851985751,-0.5174847389972985,-1.7489825806990125,0.28611679785537014,-2.271775295248363,-0.8864985917664282,-0.6945712378972649,2.2747882718269463,1.3175209818099727,0.48248716695810545,-0.5337443716173993,-0.5566893554431509,-0.3030398372798344,0.8466634855840417,-0.44183981115215293,-0.11511018602259011,0.8449220187766714,-0.2127212232142655,-1.3289669469391612
-0.04676539893028725,-1.0236512077907205,-1.0071777404269227,-1.3139017551360472,2.0684392544320107,0.4611219311057843,-1.2179892450827248,0.7523763870139581,-0.72444458694996,0.6215397828426019,0.2830510471910043,-0.1959750642447462,-1.4020910883090303,1.2714092018008445,-1.0321397902027323,0.5833770582736668,0.2518879380293846,-0.8669628916705721,0.9576487215272643,0.6564690107233665,1.501098470180769,0.9055071898439517,-1.9575286092201993,-0.03930996746385324,1.3854376524250354,-0.5331727083926369
0.2834129282154675,-0.3133247821160722,-1.1066829918513732,0.26240448610827666,0.5925207148025972,0.3563157617235506,0.3970590362149725,0.24643532588019554,0.7524202658255417,0.0031737311122672644,1.1728075367906363,-1.047769325176959,0.3825981564133563,-0.8003064761986252,-0.45670932840298445,1.6432230513112482,1.6288891009250839,0.18929335993572702,0.10904808817425449,-1.1450756674123719,0.86653948947741,-1.9954303322369127,-1.8554909239301647,1.5077590546374722,-2.013002999940989,-0.9881487962513869
0.5958343389333961,0.8076623690264859,-2.5645227138875506,-0.9580378896817104,0.030899531237074382,0.649586961850046,0.4282778501992728,0.7220263813132367,-1.0828659775172451,0.1528235138274519,1.6419422065158236,-0.659313372460591,0.016079850632961815,-0.9096119771812339,0.6363050443154673,3.1608538919694844,-0.2991958269297056,0.5347590950720802,1.5689927023622925,-0.5728534230465873,0.9486461870075658,0.4396737307224926,-0.6587255970465504,-0.36400555274245083,-0.36387062263564135,0.518431356421947
0.15111288359976616,-0.7027974315421237,-0.4338565168963387,0.17565198955789307,0.19694305646470034,0.17692082780585555,0.08976310234696852,-1.34797558958936,1.1075593737521596,0.36572787545919205,-0.08145832706639396,-1.1751556917268449,-0.547209411950768,0.30339734032343285,-1.2710224495042515,1.644307610686333,-0.48963299913002567,0.29879378440615084,-2.470124074058847,1.446068909863128,1.8395598247475624,0.2033923443236052,-0.1309288059331338,-0.4244321208323666,-0.3019946603652537,1.7078716207506721
0.215864533365531,0.42493950041324097,0.24657265573175463,0.5331377359427408,-1.6086384907857567,0.2269811879055199,0.6292230485723733,-1.335595358562411,-2.292058634389421,-0.767064817457589,-0.18918059652797065,-2.1918382400375322,0.6605310741001338,-1.4596736717602734,-1.2923408339713875,0.1660639013384329,0.25391745404459704,1.1558142144187924,-0.16661954721441752,0.5904984755303024,-0.7275810956790989,-3.2896943299327055,-0.874573018681068,0.3082354559638401,-0.3216453334675837,-0.45010822587099
0.5189835398964787,-0.1896553237849514,0.6119887019709522,0.5439318848984663,-1.4558279372274685,0.13638912436647596,0.42200135936224775,0.6441309468094508,0.6847092407171886,0.6568027692308723,-1.490808115909173,0.9107232202134392,-1.1283160354109236,-0.10410773130961845,-0.0884493796721669,-0.05532683794398089,0.2593485537635297,2.4553774156843975,-1.317577312804237,-1.2356464352555476,0.16339039869688401,-1.311456174430647,1.3698160338297136,-0.17515981140317666,-1.7704086513080557,0.5079306315214093
-0.9589672532119321,0.08392225055015796,1.6470607918545175,0.0387011364964385,0.050851222014108216,0.7974168105753442,-1.5960326163530616,0.41591980604213624,1.3528913026829221,0.5515811422273171,-1.3779009972199077,-1.7650624676911066,0.01031793200875833,-2.2704731700958667,-0.43204524846758335,0.06858042325769423,2.1800193247787103,1.1155270235054457,-0.24576287446809825,-0.015107436131429787,0.5916600049293755,-0.3676820718576425,0.3142879615033279,-0.9231068876341154,-0.46572436492412184,0.6643858434871188
-1.3842552335258322,0.09650692472172383,-0.07307199420743647,0.0014905488415613768,-0.7582529468515413,-1.6608118498811528,0.5668480966987974,-0.3164080764088129,0.9925988610663224,-0.9654491471785867,0.811240312186767,-1.9801788520612886,-0.29121439666778787,-0.8084149771372346,-1.2355452155041322,0.6486863055703288,0.4799336686650783,-0.35204797140249966,2.377734615044262,-0.34583705612379273,-0.04288765021074814,0.9500748764262722,-1.6086603211099408,1.9090208616553128,1.9621193794553562,-1.5263453451478768
-1.6690129369802367,-0.113974774698953,0.5033814242021424,2.4737559371999134,0.5133866198269675,0.27086849277345143,1.2140870319707373,-1.1842906602645356,-0.8441727615073706,0.5321586110234067,0.3795727736405429,1.0870440085292554,0.025228255693805383,0.9409972079557881,-1.4303309003632214,-0.3229804174568959,1.0593892835497416,0.21945196597702613,0.42522276550144417,-0.8394249798204327,0.9428642948606457,-1.3681189420604007,-0.6121952527564243,-0.7472829392018581,-1.0120824752261728,0.47727126448605656
-0.31173527846190435,0.38968805289802044,-1.834891104240934,-0.25224007572323226,0.08893528902791249,1.159373538958774,0.18645398817717332,1.0329788032491827,0.419024771805015,0.6943045027198006,-1.794281281321852,0.0770499504763657,0.2751331361289307,2.182661969761107,-0.11161141869519865,1.7146070991243314,-0.22765190630584964,1.1596077770228288,-2.3829712235458578,-0.9372774167806294,1.091679866946059,-2.4221809075072067,1.0190197160169079,-0.32867255518824123,-0.07209919196199605,0.37058744017469014
0.321476694654469,0.20849814816790702,-0.5433904074536043,0.24390375781155216,-0.3226099505697397,-0.37522575689803145,-0.6879780312531685,-0.03975790869944664,-1.3945644936126613,-0.9790431205916001,-1.362898530762518,-1.039118467418871,-0.6737871205230459,2.1204571656550466,1.6825297670630366,0.3720810837504273,-0.7613350675783525,-1.8780014654485426,2.649858330836736,-1.0254641127743078,1.7605333536543017,1.0573119204799233,-1.3236909525433136,-0.28524749229112184,1.5966513948627175,-0.45677146666787916
-1.307717241478154,-1.5445432126803706,-0.46213966955329083,-0.2814296488779748,-0.8209563247056327,0.35555318031359173,1.7496903284108507,-0.9972312537849356,-0.8160392314671973,0.6455370768136087,-0.32152517045808193,-1.4835647330402943,-0.5396604871870666,-0.9717184422429285,-1.1112725941017854,0.8981501062835768,-1.3082714687782349,-0.5639911271248813,-0.3807722335234848,1.5003046735011587,-0.4837996601640114,-0.3153376684778829,0.7781798084313553,0.22900199644036764,-0.05109563875819513,0.5493773480830848
-1.7974644734600849,-2.4943900275773347,0.7413378360717133,-0.8295980068352634,-0.774255602331077,-0.8259825367644703,-0.12284942027851738,0.4822814449911599,0.6782017876740455,1.3731959868744916,0.3120510605480828,1.6485104676762408,-2.387845260222558,-0.7436065283779199,-2.5509791501363,0.6794220938507879,-0.16609651990229649,0.9262617703048528,-0.2511470883878879,-0.7039692851468997,0.2824929879618652,1.3146295157111572,-1.4709814319692498,-0.7509858579868381,-0.05244101525267734,-1.3965077447990009
0.9646721317035291,-0.4247179770991931,-0.6125882334243037,-0.5798404610523864,0.058825921101872,0.01551001326801377,-1.965014989545914,-0.1704804278736343,0.0596497430865965,-0.439547435944566,0.06448008127094064,-1.358086210934781,-0.611449699429419,-0.877453560628644,-1.0783632942649648,-0.13117099809500218,0.3778559541521755,0.5925009990088055,0.8126495203297198,0.07690894099221787,-0.1507051675353393,1.1751562533862947,-1.4104331498258773,-1.9715185936139499,-0.1457256883983325,-0.0895703894707481
0.589706281833758,-1.8397589019482685,1.8745322548082946,-1.7765550465898545,-0.4687593752751641,-2.3534294756338063,1.4833808939925455,-1.3090924651866636,-0.044900686928313664,0.10545065220054396,0.9000722854757195,-1.5128692848329355,-0.2589722732740117,2.358983589318351,1.0261431194758406,1.7730697623377516,1.0113715411936506,-0.43195283838135196,0.082000655804459,0.16550891147349617,1.0072116599889855,0.043012737811318785,-0.21861453965436223,1.7338879066215054,-0.3666712969242326,0.08631858528645306
-0.7058218949870116,-1.5816854470640316,0.14217676721395167,2.0884145732079284,2.2982865476656897,1.1563481194032892,-1.8739184246662588,-0.4866185287083206,-0.15620874636006282,1.2581339455761151,1.5871266172444534,0.7334726835155061,1.7517576884009618,0.9895943045765869,-0.7751203439591127,-0.41647640912284734,-0.891614713197049,0.052857311530087346,1.6942863563836896,2.2287639017472762,1.6007925332581203,-0.029756782662042312,-2.0904525256820126,1.0340525236240743,0.10155147410094847,-0.47130824043659225
0.4336497721551507,0.21524148056022543,1.3852086761082074,-0.1340679422149038,-0.35348705795501495,0.14161127796055079,0.8593984500299513,0.7502618609576646,0.4427867782294031,0.03655121500391801,0.06496225808735753,0.17215730736712723,0.013080934558698645,0.3287187233869659,-0.5002344740662147,-0.07422719912557647,2.168187886178254,-0.1726620747327196,-0.0328889413455697,0.8262239728507961,-1.3210058343458002,0.032660373539005715,-1.169510791910819,-1.257321455536093,1.53301203962884,0.029209201883392134
0.7406916976484602,0.08225176466652291,-0.15910321321607973,-1.781446640881943,-1.0989281545611962,1.3125504686877145,1.1260000711624192,-1.446873224389853,-0.9094982689033616,-0.25201397310871465,-0.6575820431843961,1.35531895790277,-0.005036670342993901,-0.7652008057645313,1.064676201822314,-1.351806165195085,0.024668097287034972,0.13830527927129718,-1.1198970589027526,-1.5897831627177288,-0.7203250734436112,1.4842725505089633,-0.9355660155863241,-0.11976830732825815,-0.4527318721234565,0.1141275374727952
-0.7461168176614914,0.15418427300923776,0.19438068806410863,0.20003953632326774,-0.8216624996182235,0.5335321906197755,-0.21796526750595407,0.24009740292295037,-0.0030726201094302234,-0.519706073194966,0.15104598154418,-0.4328790464932984,-1.5273828381103904,0.8188686463384584,-0.577429716266072,1.2878938986343187,0.967490439366878,0.6580796619043846,-0.7649231808276599,2.2762053010868413,1.064221932932891,-0.0343934043011712,-0.9885628293652139,0.010235950946400781,0.3269175181274402,-0.5082912138745144
-0.30729197167490974,-0.2766529190977935,0.9220647851242086,-0.18553548972410736,0.5943191432149798,-1.2233874491673145,2.532537754763295,1.09493115973443,-1.596038126285603,-1.657174193136514,-1.1531339266906067,-0.509868288266762,1.4917564008942799,-1.8037879796620326,0.5876974148579291,0.5203358267885677,-0.3848872276323557,1.2056551263354187,1.6330693423694282,1.7008206846673155,0.3815927999852648,0.7429378154988204,-2.213109396552176,2.4740204193387445,-1.681168599318136,-0.9767103877260251
0.25159831648698255,0.7863702601736349,0.040473635427228996,1.2699242740831604,0.7468844129880831,-1.2146227278375905,-1.7104949461173968,1.4262980741987847,1.8140714214628515,-1.0197425144774874,-0.0010095038646585433,-1.1859206841554388,1.2878811839459463,0.7567397036149439,-0.935379877149814,2.1706946622985956,0.5445598460422945,-0.08919114402247151,-0.4024439375459499,0.7825146290696706,1.2781695667827746,2.2586005454143345,-1.6544154999206049,0.421754883679427,-1.3534125575265816,0.20802595927425907
-1.556679798279198,-0.6482038958563201,3.673469858039468,2.074352315860917,-0.4009443231495827,1.5468925458129317,0.15302486774610424,-0.5886931255783004,-1.24676745587752,0.13057576268020643,0.030582962786113246,-2.9303225096772136,-0.09536807416333605,0.3391408694877679,0.8483112803883204,0.9129945979523885,-0.9888455131637149,0.12777811146609697,2.007895562336726,-1.1765427061233247,-1.9259479456424964,-1.7334764705902106,0.38574558014854116,0.47777567228528367,-1.2676067156514101,1.027165937804173
0.8402853637520583,-0.5434104941878642,-0.5417167100721688,-0.5626238001739755,-1.5646610043982296,-1.485758333827486,-0.7849567260872048,-1.0892615244497874,-0.9941380389650177,-2.0090994928525676,-0.24127809744407008,-1.4500800301526342,0.5742140461107061,0.40433331499043534,0.6301351743005542,0.980082841966048,-1.4210300470552422,-0.418034804488461,0.6548869289005174,0.35374084839781456,0.6115110262325173,-0.22520435647896875,-0.9035515303781163,-1.121361608055526,1.7051702032066565,-1.0600497882595665
-0.4019340342298067,-0.3701895447443828,0.17652415539978608,0.0479581804042453,-0.01575860524171323,0.6998094327885762,1.7669598266633275,-1.6499329495331327,-0.0702490304828095,0.29547997793523684,-0.898444850422415,1.1368643805077803,0.6525815668325394,-1.7246291470374386,-0.38811768548354386,0.0702681611730966,2.0363611014061824,-0.7163406183785336,-0.5938627489412992,1.9328351826312828,2.016755728876215,-0.22544436062062617,-0.8382982718738773,-0.9120399885452289,0.5830046558006485,0.688148529926009
0.6239618078663647,0.5420498333541998,1.8275662663852685,-0.5380350852470551,-1.4666335066415646,-0.3223540055609723,0.5753173344576403,-0.21253582881858663,-0.035629702191101356,1.8733910947302082,-0.36857398572927574,-0.2084385863212782,-0.5934905006166368,-2.1599141518758684,0.46822121676219913,2.7574849112123174,1.3980977081546178,-0.6418922743369513,0.4781190058874281,0.349557711394179,1.6812438953439655,0.35224770671899164,-0.53574618350241,-1.1458267470466421,0.5403504832648321,1.9155631423645405
1.639111731194091,-0.8414931382007825,0.2820798809746048,0.1218103472037783,-0.042119924985791035,0.4406178909711529,0.5880742126349462,2.338797306030017,-0.7900958056436509,-0.36566823345264976,1.4789495770436905,0.9273817956460307,-2.0080640578786455,-1.5780888955727908,0.26538186121000756,1.538673346872606,0.21454860769742462,1.0328668203297218,0.7362927637076725,0.6432755536063507,0.6365955396861037,0.4287197175238633,-1.8605746333473472,0.15524062276308204,-0.3506607405377598,1.1252775873107264
-0.6798330534736226,0.7977062283753339,1.6548610917359443,0.5390395066801158,-1.518824245203462,1.6972097884641986,-1.7094498210649476,-0.27482107525778204,0.785799821777992,0.41612383035095163,0.39350485390738166,-1.357926030436766,0.5106067268819786,0.3161355242049708,0.40203513400437174,-1.139207045264957,0.458045549358939,1.7825280001017223,0.04028031513822355,0.7697449210627667,0.5042925175787351,1.5349575136339533,-1.5359144541541792,1.421104875736764,1.6839190053456687,-0.19146102087106676
0.6457887103671416,-0.022918117211821423,-0.22429083546436807,1.265712185242363,0.21606155155916043,1.1980290941499836,-1.4317415632764154,-0.4792364156616135,-0.7603815921549241,1.0007870445687925,1.1216357585113643,0.043424153992325035,-0.5065752557709249,1.7220140352986737,-0.7127109834770329,1.1744928871252234,0.7563725993998494,-0.7873196425520764,1.3851204840674733,-0.4850503454770362,0.8453545730609059,-0.421145223849712,-1.7205000304509375,0.13330096651982842,-0.8827727926069027,-1.720615509588195
0.5643253808866616,-0.5366664456034066,-0.4826189541268814,1.393004058316643,0.35161307888918525,1.8543882028364373,1.1631965115529217,-1.4283924281193527,0.7946974487606678,-0.5172997269300608,0.918505973481063,-2.0113944434542574,-1.7774729775066485,0.8758764808661719,-0.8438207214408499,0.6543070060877226,0.495438835791381,1.379811588173296,-0.33633300266171784,-0.034054824363413415,0.340661859929604,-0.9311132353459617,0.38825555235247877,-1.8027422736539107,-0.8865969903270408,-0.5164354529263405
0.3390904519621827,0.9455992501598942,1.2199066277888055,0.8504764511918471,-0.11760451571767108,-0.09770332651719542,-0.16729817425371366,1.736605586373568,-0.41269636687168015,0.9754692137236253,0.24988603590934344,0.22719502445737585,0.39526827580601315,-0.2471293537631206,1.0052570181051206,0.6697209340790807,-0.14387775611973522,1.2698561501949366,0.5146064577364723,-0.9057311554399335,-0.9341558625970594,2.7051881501506974,-1.9510774251252967,-2.2684652787963673,-0.7868030363339842,0.06428390825282759
-0.174752551210759,-0.27463738127803716,0.03595082391155193,-0.6867442933259444,-1.3100038600612505,0.8247161160635833,-1.9087410374945784,-1.8388645843603948,-1.156294418095183,-0.7864749330313038,1.1001742778754355,-0.1161685335816016,-0.6046746995126528,0.8317591803713463,1.6747803362836673,-0.9345296943022502,1.4527708252835396,0.4597249292456923,-0.8868424339120656,-0.5590788603891356,0.1338151205635081,1.1305167777490188,-0.7478357648084357,-0.2957956023171481,-0.9887935595482842,-0.34099957630290767
-0.8227732579087224,-0.25635036258092464,0.33776485961075997,0.8515013057003181,-0.8561673412802467,-0.4425140523248517,-0.8733468198461745,0.7529497123096228,-0.6332808081698535,-0.8373578082052598,-0.04844567734348454,-1.302571914611897,1.1313485676237296,-0.6648422716251869,-1.4008676756417886,-1.3079104134804858,0.17211195066430315,1.1538906995297473,-0.05545693283250381,0.5369729046102603,0.30999108419211335,1.4732195772770829,1.2012939796610727,0.06134886181817398,-1.813862556209089,-0.8757097464588617
-1.64995674330455,0.9243529026533046,-3.8614986065183996,1.7046725299959191,-0.8956912498892237,0.1859981104118683,0.4303725450001474,-1.405879129013519,1.6626412395172303,-0.38746165770994967,0.8801768910891428,1.5814433856258723,-1.1457632369709225,0.8957991823322634,1.2660819050408336,-0.06821976996945024,0.806994592592557,-0.7471595568201916,-0.20737797014452258,1.260644110438063,0.2929780406428804,1.0423930758204805,-0.9443146094106378,2.0586295372343573,-0.13397484383530656,-1.003269632434301
0.966892460181294,-0.1920433380848645,-1.0993363837631356,0.5310541205934165,-0.04796167005254428,-1.5131464227541136,1.9107427153428365,-2.9364240688204992,1.862680037448813,-0.42055782482047527,1.2025983012123465,1.7646287299248042,0.4492288651831825,0.6728983319696864,-1.981671180494965,1.2261711898822705,1.3409234361136713,-0.12451130107996129,-0.48387109336551365,2.0299663133029076,-0.07378517755780463,1.8970607881790762,-0.39757891641753146,-0.11284874690763165,0.12770214039247108,1.491819362441438
-0.3331226075587425,-0.05764324984909075,-1.3241754478989265,-0.9572528435027039,1.5706613528108924,2.1235901998107134,-0.3907352223838221,-1.0034400059357906,1.6283151740168735,0.3183720465806639,-0.31148121938559703,-1.0046319424643548,0.9688870049353414,-1.6050726800033845,-1.4760266794292074,1.6998550723509969,0.7075083456738528,0.3801186215001933,-0.3870195224097223,0.9498719038735033,0.130526875793374,0.6374184059417669,-0.2972703774314674,0.21099977098820832,-1.055056775870343,0.29209037565183676
0.8055783415078153,-0.12433357302768318,1.6232418054520061,1.5206761864655958,0.05762120696366758,-0.5627806044146033,-0.1667232653793849,0.8502198471267659,1.3702488203510577,0.7765654161647961,0.1677173073220653,-3.5249202668022854,0.8836517303024566,2.419323698355235,-0.5029346812059525,1.2611213695609058,-0.48506801065155997,-0.6141308169249827,0.5394427807901966,1.6050355732541508,0.6958071542354135,2.063931637424537,1.2848827969092511,2.7022323176475798,-1.5084869662227987,-0.9730778480980491
-0.4514355211401045,-1.580599891622846,-0.5542895576169631,0.10042394948170563,-0.7940417273744033,1.9858671553436718,-1.5110609460779036,2.738815010232407,-0.6647817836457522,0.04578616421510881,0.5816211948614126,0.4566838317205459,-1.3184405188390906,0.9525246082138851,-2.1500041933472236,-1.1473681410944325,-1.2551015036197974,-1.364007779445297,-0.44426779783376047,0.015405815887805556,0.17421374806239887,2.310629469539523,-0.1619186312904111,-0.63864441881542,0.6055037644336554,-0.3162092514171111
-0.08122637809457078,-0.6709803418147664,-0.8976494388510151,0.4987297506998125,0.8324391080193846,-0.8715847512856505,0.429088421695365,-0.27613737564891205,0.5565217680444632,-0.5536039357598566,0.20127027745146864,-0.8729505855664946,-0.08198047620446614,-1.337471826581857,0.33839882690331297,-1.538678268674071,-0.25985332168760994,0.9513934031373124,2.037032982037581,0.48035740407437993,0.7885012708680255,-1.0326032584734592,-0.44933779948920416,-0.4477080732794555,0.01446549056642544,0.8375180499195491
Pesos da camada oculta para sada
-3.3693184521938684,-2.870923883708306,-3.140980989046648,1.099358631722905,-2.5451753026254798,0.5125875598313628,-2.2166260009310155,-2.480475776292256,-0.9780013234034691,0.3834212254689652,-1.4129205719532913,-1.4668366781282325,3.3134034611652052,0.33196636237347943,-1.4950059869959382,-1.495672173219883,-0.3883036599900128,-0.03916390213202177,-0.48096372494943185,-2.5007768179631666,0.27628053124461804,-4.283238257032486,-1.8875909596643479,-1.9844500922489234,3.0960063401680036,-0.24904505729404985
-0.9822166923432566,-0.24929560708256154,0.4520012841958319,-1.654692237204647,-0.7680127192890688,-1.204714255755999,-0.30461025980898504,-0.42698810470720805,-0.743155698527538,-1.2750008530246342,-0.0279619212124686,-0.08053037152165514,0.8613018515649318,-0.38497216447516786,-4.8887082204645465,0.7446795987081086,1.1369274783152512,1.1130071436670639,-0.5083163209280015,-0.9973881469546145,-0.2003978120631075,-0.957635234477827,-1.6425097398541122,0.35506071088751157,-1.001198105514072,-0.02233221503744819
1.3162393775910701,-3.420713395931743,-1.2939373845521942,-0.8353425335778214,2.848367657516143,-2.7833900303963914,0.7045612747790964,-1.8206098592692792,-1.4290363889231628,-2.5300098767217074,-5.374112333641055,2.109835950312056,-0.9726442889753515,-0.9565298130461286,-2.117776840347151,-2.400670042565395,-5.48929099466984,0.22145303054903745,0.57265428444958,-3.8279798140988763,-1.6894744616089028,-0.5329143074001368,3.209893371605457,-1.513501574553865,-3.2189556773655346,-1.104612866532942
-4.462591699826192,2.033404402981812,-2.986368077958588,-7.609600768980263,0.44963464080224297,-1.438682311653418,3.1527119423701917,-2.20592268059417,-2.359104145731407,-1.7120275548964787,-2.8527527963521386,2.799097098766445,-2.3458363119038834,-1.6306385270885446,-5.650377733824196,0.2955224699015161,-3.903717580615517,-3.3320984845795696,-1.3668741332580792,-0.5436600709705155,-1.4038804151453157,-1.1140058114256723,0.5052901035667818,3.176887868257184,-1.5732861397741456,-2.218114215105966
-5.130261823599958,1.536004361573562,-1.571946314822028,1.636524427133372,1.251265336267378,-0.18332205089799353,1.7185657040508056,-1.497976093692106,0.25550783028159607,-0.03710094784211828,-4.222374351915118,4.162064571250131,-5.184288996058947,-1.5728817712131582,1.3434324469475987,1.8538986845347092,1.9868280604347486,-1.160724923484827,-1.4490380944961367,-3.632946780506855,-1.853697169210409,-1.4347265050471802,-3.058152089571324,-2.710790612448469,1.7781066052363887,-0.74470074860506
-2.1651157721801333,1.2935535924893358,0.18120849764495625,-0.7210010004636624,3.7646406501193854,0.2209345348283146,0.8629906268545763,-1.1804672466142068,-1.5248502347587845,-3.139596474319269,-4.030933841683356,-5.342954725111852,-2.186463115155744,-0.9817574930227255,0.15811100202566983,1.6598228725004975,2.0482109233887753,-1.8095590411541818,0.32388881152823595,0.30214125060831803,0.41063771060511445,-1.4447738571021378,1.1850771564131877,-4.5616893523540005,1.6828748479009066,-1.6892134267161079
3.2440087638300175,-4.949149643414679,-1.6230349449228407,1.050050352194866,-5.61076375305244,-0.4550229454459891,3.689034616708983,-2.0358000702842043,-0.2788999824919998,-1.606601609718548,-3.588071410035316,1.8820874725571146,3.650494275503005,-0.4410096053189187,1.4021842391074277,-2.9822537267049265,1.4035067072491205,-1.3669710407823068,-1.1217173925824329,1.4068116311365282,-1.3890891210169836,0.7485929133771849,2.8065224124224963,-2.147715723310435,-3.000911828248222,-0.15945926960614878
4.33097460932749,4.818736002364294,-0.19793116978212721,-1.8914689485831524,-3.5497629876295713,-3.2537222961528474,0.7485390225683534,-1.018368154620915,-2.37534302191032,-0.8177892152208451,-5.526451262672209,1.0441732677034703,-1.7528257343471592,-2.1043608537555247,6.473163866169412,-2.9193784956312436,-2.5262214703385286,-1.5881498764025532,-0.08404709608556625,-0.2560380949282322,-0.9557263614047011,-2.6097786043221287,-2.23434301527836,2.3805650320893106,-1.6494906873535262,-1.4765297138634763
2.5819270774079004,1.487785278761234,-0.6719082241000369,0.678218793429071,-2.3972835767085843,-1.701678589585341,-0.009158773578057321,-1.3349056858830732,-1.7868629498758333,-1.170454125532767,3.4009877918138294,-5.0524779668096205,-3.1925244104867043,-1.9661634255216094,0.07611921069773,3.5604669119468153,1.925994843822283,-1.4079164236600512,-2.1934978193350494,-3.454094945403429,-0.12513809467581705,-1.302819593975249,1.2209003092179385,-5.853150003576271,-0.36306293871435424,-1.8469304112783602
-3.4500172452212032,-1.2765165994019188,0.04792384249876508,2.9758085409905743,1.1295098649365363,1.2261282745445647,1.8072255453386985,-1.640919562849076,0.28873249216761615,1.0038191094543598,0.5095483669893273,-1.7549329560590998,-1.3410420762980257,-0.27481379061397815,2.0451410801988574,-4.539482144884602,3.1764587853098845,-1.3292934680926762,-0.2073178351410564,3.980738928540503,0.027675727538608173,-0.4070379543002698,1.6202292622697048,-6.0491568108200475,-4.148960051736105,-0.08011001754621529
-1.743771858413059,-3.4256216630592458,-0.2014452904992496,-9.975406602596715,-6.3432169015036575,-1.1627027800990906,1.02089577077419,-2.6705431524403673,-1.4195325871692412,-0.40424085276870636,1.4893027404654255,2.2784205417386296,0.323439356016973,-0.5524003233561324,0.4335796565278382,-4.831187086348603,1.67435022574934,-1.6263496127512114,-1.088489136027458,0.5434385914822161,-0.4656132126086531,1.9320093308780033,1.1412977311215209,-0.03850975949064329,0.6137960686135596,0.4817671937450992
2.3142939756075664,-0.21314131071893766,-0.13867091442010113,-1.7167562687734133,-0.944274130035402,0.13268356198351722,0.8483804032423471,-1.1762851694285403,1.3068297870208894,1.1992787388607833,3.379789713880421,-0.5380936202125438,-2.0632335183452946,-0.8729416575397143,-1.0114097054150486,-1.07456095734655,-0.539624004161468,0.45654254806968936,0.8888682609656251,-0.4003755759002997,-1.2421874524266199,-0.9167124012220105,-1.591935096657336,-2.726373562939292,-2.002487907940195,0.22760476439127947
-0.5056650834872396,-1.3598452565494672,0.3209064673853045,-2.9279396882945528,-0.691085762268755,0.9642375234310264,-2.0008624256290175,-0.5741908451186533,-1.8685985800683587,-0.963934577749529,-0.7616294409768521,-0.3507505547028652,0.9836954414869156,-0.4675298034031625,7.297017278913033,-1.1576877499615748,-4.886969690812488,-0.3815323061030633,0.4626389372037459,-0.23287799481752638,-0.7697388905119656,-0.43643038868990497,5.033627091355681,-0.022814997452488564,-1.0067992494616171,-0.3545871191637704
-1.4099837430708309,-1.584854579777628,-1.065247541082634,-2.416998157041752,-2.9049007359632744,-0.3931214308838477,2.2004317556952593,-1.8200716676847877,-1.2196075747277506,-0.9310656432580356,-1.3237230096682118,2.05402875586036,-1.4646673746652012,-0.31178638513695994,4.177566196403112,7.099769297304642,-3.818581667303252,-0.13378742225632065,-3.325654146463036,1.29502029454094,1.581169703725245,-0.5003889079207826,-1.4598035838008243,-2.982044996182338,-2.6554937928171234,-0.6038459935242805
0.02484182696420323,1.386657807668737,-0.3105072254720509,-2.6404731181875216,-0.6452167812080236,-1.1925018128689857,0.5947332946029263,-1.0738688188969336,-1.2623814438929326,-0.3894826571423663,1.367746729011776,-0.21260593317616344,1.094778319604774,-1.684389593259593,-0.5972560341423029,-0.14760898225634944,-1.6892655031980581,0.21410239092600217,1.2155849161582384,0.6116660015072171,-2.081562419608412,-0.8777461022821623,-1.1043221662959415,-0.9491230085973783,-1.5383156206572992,0.6304115940491138
0.30379279111713153,0.39052519047574547,-2.5339107007164903,0.16069461667072052,0.4537397619442023,-1.1115606564965244,-0.20873768182541305,-3.5964451129341186,-2.8857059539816934,-0.3985079834819823,0.4032379909849115,-1.4472383359683128,0.45987878898071977,-2.6954590369762523,-2.03537560561542,1.2483812240761885,-1.3287596474834875,-3.262687485236864,-0.7437305476507485,-0.7072846797987421,-1.9720392657403616,-3.037248187943487,-2.414841707202658,-2.4014954668663333,-1.1405911380289258,-4.45549831414481
0.47818249901804033,1.293204984559821,-1.5782436258323127,-0.7597108407293182,1.345220704600217,0.28217088472746366,-9.214328899769104,0.08926929011571487,-2.2391528923346193,-0.9872787441760325,-0.5215008330423024,-3.001017445852812,-0.9414955076748791,-0.21034154268622135,2.5084729660634553,-1.0565887081814822,-3.3235347213360855,-2.352669611584234,-1.9779829163213118,1.813397927082152,0.5021653500347051,-1.7818394125903347,-0.7517653341369369,1.1274215187872372,0.15228322769970315,-1.6088753174347104
0.607626163468589,1.2109710064965198,-1.172855298719826,1.6113041065593958,-1.188717428148595,-0.41267705247625247,0.7319227104159652,-0.5778063471154008,-0.413150752525311,-0.7129721611307255,-0.883082910145721,-3.187071868603576,2.462708985525396,-1.631862518498204,-0.18991803007590405,-2.923109611093922,0.35377224602188084,-2.758468937126062,-0.8735388575615417,-1.5951429815115257,-1.7274261102284845,-1.6473337238680719,-4.205634165847532,-0.16916106818411,1.9006463663591762,-0.5279973108370359
-4.195968014002446,-8.59338472086137,-1.4730873248758043,-1.1130662550700732,2.2041483474740753,-3.4064402986945135,-2.4043941472336807,-1.2022879084212326,-2.5022448191604165,-1.3488895143373743,0.5900773914761482,0.3759665412233755,1.5879160024534182,-0.20538349702463474,-0.4164622058212203,-0.24119786050558414,1.9221091464232964,-1.8854844681783882,-0.25602318675523095,-4.763343623911001,0.8831430183169459,-0.5841155744507682,0.3951765913021697,0.923391979478033,-4.539736828528837,-1.5351405701556378
-0.03581951079015339,-1.7281467053073265,0.7489811624149803,0.253529461009049,1.659281094482442,-2.300997379218065,-2.578437498243666,-2.420469332275695,-0.9428131703974196,-1.112785385541439,0.5332102819076967,-1.2437612749736242,-0.9809919803702265,0.4327671227691886,-1.455908774058203,-2.2215861419703136,-0.02710141121409562,-2.4034263434099485,-2.2774436992113025,-1.2232527343948076,-2.807921338160735,-2.4170559106849385,-1.9906117938543233,-2.075186259286618,-0.725309043699971,-1.5939349798162776
-1.4427847134797593,-0.28945846414994775,-3.096899744385113,0.024182854050992637,-1.6552171489248328,-2.6050715185615796,-2.8793746981455457,-2.198134090456559,-0.5192425168756102,-1.7287606697183133,1.3823744976208137,-0.15775562378015714,-0.06824034340323246,-1.6569864921719313,-0.6998214052082801,0.45837326484183627,-1.1637508025665684,-1.150121224763467,-1.3968012032824029,0.3241771587469417,-3.022716223149927,-1.4472608411523615,-2.7800609467427178,1.203103127443703,0.7009955456624166,-3.107238147077687
1.3635856378963944,-4.701417813981874,-2.1671992953335457,2.401408462082587,-5.5082040508550545,-0.07761604838290001,-0.5524685523828617,-0.46436846264933757,0.010896721305086583,-2.708498390661549,-0.49777095879944544,-2.73882496824284,-4.342858479463488,-2.5711433370320855,-2.918154855445207,1.4422214775894697,-2.971307204115715,-2.2821642267624025,0.03382966522160415,0.5912240826779143,-1.139208185542113,-1.7242950024528427,1.1020930146967536,2.433007762069381,2.1624301135687514,-2.385240579755027
0.2824146573404913,-0.8192150023452617,0.03639783945885,-0.19712948962700397,0.4558812526996908,0.5565640571203018,0.613697996798306,0.5881114173644354,0.08411614481246332,-0.9627765797006522,0.3919882460866873,-0.6829411113959492,-0.6385132622415864,0.1108729659042198,0.690324721122088,0.47629794635985595,-0.17468779108221702,-1.7591268733305407,-1.424918064383211,-0.6025137027559522,-1.2195959004396908,-0.18853288113169447,-1.0529733188176063,-0.9094379922089297,0.652761918930125,0.15511582507566168
-1.9065115295202884,2.8671994954302162,-3.703188110100473,1.8518546840121188,-3.875238850390983,-2.1884610124804675,1.0185409844476048,-0.9714022324098734,-2.3518104339453534,-1.0905978659642468,1.744699641540865,-3.5133495792998763,-2.133716190283766,-2.47586783507365,-2.89751522150828,0.5692170581035266,-5.879899171528458,0.8883199777785961,-1.5732669796846879,-4.616595273237026,-2.0350315544194015,0.36383065669200204,0.49539977552805176,3.090681852370636,-4.295390373225288,-0.23989019593480473
-1.0940065031262363,-1.7100212873453868,1.8125977490956142,-2.802266239500381,0.2770323679281092,-1.350011235791411,-5.6435676777782655,-0.998698588670124,-0.2906377683463996,0.605173925744094,2.0868964593576593,5.174049803022408,-3.126668235758339,-0.500175881307032,-5.8794232504538355,-2.4327641992899447,1.3633294156865179,0.41031250441919126,-1.1721710929870022,2.016655509020093,-0.8784347870148884,0.5957336464712759,-1.083455799069675,-5.060015319205098,-1.9449524788450105,-1.7746389134042346
-0.6461464902668602,-1.751516228656743,-3.1534003969166062,-0.605205040211272,-1.6461692375146104,-1.3736473390081487,-0.16339988978384734,-2.3442754964280708,-3.0298915754838807,-1.3785109393329353,-1.3727919117443919,-2.218655610369142,-1.3278023485968973,-2.503660396583354,-0.8248964956301796,-1.8598920321068166,-0.39118359721325363,-2.4218040228134283,-1.6403382940235112,0.475844581655996,-1.0044853005475134,-0.6704604341837292,-2.77120364524456,-1.2932184231220398,-0.15030037842437474,-0.9894652838368377
