Pesos da camada de entrada para oculta
-0.10677732300918304,0.13645915710061496,-1.4017909089502494,-0.6599388745199911,-0.4201267833757682,-0.09545799763229094,0.7424640087321698,-0.31303550808989455,-2.2525021638877543,-1.6554215352346493,1.8726647223568313,1.3664002072933232,1.0699169013417413,-0.43096938759884584,-0.2724407229389943,0.4834060410587191,-0.9910122745946378,-1.119926860830463,0.9742354014321245,-0.007999059970963262,1.1327756015069965,-1.3740332214202113,-1.8538072565012071,-2.2851264802915514,0.2384085557803117,-0.5927090958671741
-0.7595232959654064,-0.9763151027995146,1.6071554940247261,-1.165728823047951,0.7753560378519389,0.9192906101321705,1.2623985757029734,-0.20093849292805058,0.8525035928779032,0.259659748773939,-2.525226932457019,-1.1827592774716704,0.7835709071236587,0.038196261488533154,1.5287789573631025,0.025981333374435835,-0.05538634206457155,-0.21843566712281673,0.6013964102204099,0.9178850591883498,1.8195645954997355,-0.635673762899578,-1.1076846010014096,2.839943404855066,-0.35716881859872057,-0.37178044875619054
-0.4534514612388986,-0.1681607417711634,1.7031438849768024,0.36979661916704626,0.5512672659434023,0.29152642600425965,2.485324016043476,1.0509344178264244,-0.6181121871468485,0.31852711443782444,0.5491075587466917,0.027692331097529867,-0.13285037838160563,0.49604549727301395,0.7742789581037783,-1.1151318168675235,1.4090622681523852,1.4477063239483838,1.2883142022642111,0.023559228560190104,0.5149233930680257,-1.1199065453400374,-2.342506488173351,-1.3650176134218903,-0.10293932885025382,0.5516755160188559
-0.32657424482202735,1.0012906993566666,1.934651934730115,-0.025723321462899667,-0.9495024663836268,2.3061921639481913,-0.29615482709695173,1.8243482152532078,0.5603830818458352,1.6649779801260352,-1.2388977850943916,0.7262475352857769,-0.1799628976569711,-0.1700859296660075,-0.31898418700346404,-0.29108099084816375,0.8912357564587141,1.2108695449376512,0.3884291432282908,-1.6254228585235433,-1.279381301549954,0.9536730800201101,0.6421028837307976,-1.358121471258545,-1.0730854712357,-0.3820274419166021
-1.424396866563053,0.07908944611348837,-1.4368633879422876,0.3852888028910759,-1.635427094086193,0.7206739253002105,0.8603091584785332,0.27074934676260237,0.13445490746653582,0.48819838721884506,0.47165750978362175,0.30798263067071324,0.7159518854093218,0.18645944423062646,1.274703611156395,-0.6567788735043522,-0.6308237732107935,-0.9855448062867854,-0.30573769913108484,0.3145379595083405,0.5434699101157581,0.02839095792121169,-0.4058261167372075,-0.10261606225181713,0.5103904691999938,-0.6277006589955411
-0.44966731336387183,-0.5447095939370682,-0.858908744655524,-0.12620339998068772,0.8939980613653511,-1.0031438626716724,0.6791852270943946,0.031088583023521195,-0.3502558693652283,0.8527898714605684,-0.6408478089828535,-0.5181102346481719,0.43930959522091423,-0.2931645767385837,1.9874218909583135,-2.1292273109039397,-0.21302162547202344,2.13564567919587,-0.33148806100678463,-1.4562132005272859,0.25757947849515567,-0.08542662398828374,0.48227287626617293,-0.20838102537796482,1.3120689919949742,1.0311699099634275
0.4362731941562481,-1.1114883913551683,-0.5835034791045193,1.4732379098726776,0.34982519349292723,0.08051986818110642,2.063733553743951,0.23546289827594225,0.13151240070741246,1.3250366246501182,-0.7095271785192401,0.9103954826647834,-0.3429303488352984,1.5290363537492386,1.465342666390516,-1.1753056031360178,-0.4816218255005131,1.563195199374185,-1.612465331071576,0.44102021462506763,0.1462958732820681,-2.495421029031543,1.195108028603083,-0.3034473121589749,0.36569141599343336,-0.0817405654026479
0.441258683248395,-0.10817012479982434,-0.3534817154552511,0.9062052865842505,-1.1634419525951798,1.0019533609651947,-0.2553479493091156,0.06199841271948364,-1.6085211335825684,-0.6587412966894883,-1.5751902807139113,0.5355053420139946,-0.41818269376366246,-0.0807114660854439,-0.0969697103233223,-2.340104715032497,-0.8729055005342062,0.8482516323258013,-1.0714370678083505,-1.4492983065400045,-0.8677380041172306,0.6442951005640986,-0.18332170269453507,1.5812063397481442,0.6543926824765449,-0.19459335005785983
-2.119344882191882,-1.6981163577622598,1.41145942774984,-0.6395325801908613,-0.4205546666494232,1.0964961635544008,-0.5654430471474653,-1.4892143488964675,-1.8620517971365795,0.1590854968545565,2.55209132171904,1.455402271098299,-1.0790885712763445,0.34876196418174066,-1.9334183165689685,-1.7589305042736787,1.1503536484369707,-0.1911182455076253,-1.1496734586272905,0.4639666838737903,0.6222972855946672,-0.7405638839515204,-0.5417372462043932,0.010161176566765405,0.17986062328905467,0.5519909855881766
0.26909255440065216,1.3907413285990193,0.15247788711605384,-0.8680987358795871,-1.4852377772767573,0.13199440430979117,-1.7543315640069892,-0.7594689615703819,-0.7016317779611387,0.26305801786454774,-0.6845603105711193,-1.0968903182491951,0.14234875114003318,-0.7809062627760361,0.7392248887180133,0.30478842862925165,0.29892320401944183,-0.6688662009930975,-1.3254442389402445,0.7934251937694655,0.8906004497146711,0.9671463985700935,0.2937164727831941,-1.0718784476301224,0.5977068830967995,-0.8396874187164086
-1.3159112214286597,1.749378898611119,0.2898724349000489,-1.1443891448182337,-0.10196274712533354,1.4574463279179324,1.408211207195573,0.21523999333219188,-0.6357375910545495,-0.9746969243228059,-1.9107475940013774,0.18571352668471267,0.2982295815318715,0.18270611309444976,0.08288941577227589,0.2287413440339309,-1.1334595134504726,-0.05482060565458128,-1.90766125905471,1.2062319654773264,1.4302629281196997,1.4040029740305178,1.7859534472407435,-2.3601505951025246,-1.835313234629039,0.5122235334321209
0.1338003106928763,2.1429694381579325,-0.4768989863131372,-1.6627783038078716,-0.3483166287202522,1.7661349993982205,0.9115613520344438,2.182653536746874,0.8585570568861901,1.328520133216949,0.6356123136175458,-1.3660690375766797,1.7442110675599076,-0.8085052641524727,-0.3889545857654066,0.6779254373201395,-2.220327828810055,0.3708475964365602,-0.8721625764337528,0.8166880631045637,1.1424382064774032,0.19770910143879555,-0.6495086201947676,0.0731221344597353,-0.42797312655144587,2.0069933655048984
-0.211820625929147,-2.3139899512957407,-1.7614592157195168,-0.6513557071023167,-0.354008989124047,2.248793152323897,0.8779384563108005,-2.257243922167316,-0.3992012247976764,-0.6884220563642957,-0.9622897739718184,0.9517708792317464,-0.7550597959072218,-0.3339550683349687,-0.3323802072699084,0.8848237242690694,-0.6366337138924927,1.063419139376917,0.5664122897892265,0.5743165640021373,-1.0956735638811967,-0.24453664601768582,1.2809211104248894,0.45768452742482224,-1.3617671385150796,-0.1610032080181797
0.2928847753991835,0.8800300205198891,0.27140960618781207,2.574376316739172,0.021922299732564616,-0.03516800569693567,1.6418524062945783,-0.7306422913898456,1.508946217628664,1.1833125799581703,0.24044571695174752,0.36837057103314763,1.105548251386097,0.665061608761819,0.9326344390392248,-0.20804411982505597,-0.03532859286361036,1.2964066238376217,-0.37164808030506086,-1.3635988156481222,1.1526339775655914,0.32724541568446003,-0.8341428863054949,-0.14016091871214864,-0.2398585539961602,2.164699957729144
0.7803195470988363,-0.3221122134188427,0.6845959220026429,-0.0368427974530489,-0.7444894117056953,1.1373478733893274,-1.1921854015169722,0.5972757096915641,0.1948059377798252,-0.2113575941989474,0.559249994189239,0.12310138046463244,-0.39077049310306866,-2.8097211045864166,1.9099000177149636,-0.03244545373423294,0.5866399326107437,-0.8875146137880905,1.2492396860789556,0.5562178102632483,3.0320670034179216,0.42206120503441513,-1.2279901426320992,-1.5457301802943797,1.5101667108072814,0.372232688115171
1.0314106307119462,0.4082251629869867,0.9374911275605016,1.3963734399069305,-0.6873733782168971,1.6407578734152553,-0.5171843961383134,2.26352026205478,-0.017745127873905697,0.06457636386534976,0.23156314810597026,0.0893786470793891,0.23576606071154427,-0.18051255251900444,0.5282389357870264,0.981531855229235,0.5010666598125602,-0.038779232519079,-1.338924157177572,-1.0459549868519378,1.4132863697789506,1.1210118848467678,2.4737631005335197,-1.2996955931070429,-1.130182050007442,-0.5566214220467363
-1.6287075314154547,-0.2309733339055569,1.0956307107931962,0.521823719319823,-0.5381514352188046,-0.03839993808121378,0.18832123338029172,-1.043922520155652,0.02654365493204567,-0.9271210110200111,-1.3647911607283525,-0.874168108800907,-1.4435157489472628,0.515409790344454,0.8422713347653423,-1.9367097233951056,1.1124381200418885,1.6207106830251001,-0.24607882981381468,-0.705644274374958,0.8187133709162938,0.9678262324219142,-0.8421426554385469,-0.30980814513118976,-0.037376179854867395,-0.5831280590953681
-1.441866027053356,0.8729932103447547,0.6689049750342962,-0.7191204196849922,-0.06842058900643361,0.380804261283969,1.2088185866883274,-0.2740078754784849,-0.8670212086615634,0.27436838962484555,-0.35752829080584736,-0.8643766943769382,1.1520085858577733,-0.19307799654684069,-1.1972086367033343,-0.6920136593030433,-0.63176877546703,1.901514389835701,0.01637074339891167,0.11481307544892165,1.7454139886087219,-1.249567263479902,0.5111145174130576,0.02987952376753153,-0.20339753872718308,0.12990955332499043
-0.32333087537362876,1.362795075583986,0.639581070023963,-2.1657274880125983,0.3841345520583997,-0.022882442531015644,-0.2658818506328022,-1.7000271239961218,-0.8679103674399573,-0.8449680360627035,-1.0964209063746329,0.22466318307278693,0.4155249599986238,0.8648176515499523,0.8887020683995979,-0.274149719302671,-0.6881450505484773,0.5950810549246928,0.7047761273517884,1.9550477085874238,0.8674243992666636,-1.1973396668215792,-1.0174212674506773,1.2982295546047182,0.12647666904782387,-0.2842375531914467
1.1593853892678343,2.480954489166033,0.844965638022468,-0.3738007641730443,1.8836523023126084,-1.015576913803956,0.4190107553267219,-0.3988229132543204,-2.3591594399985056,-1.8364381460519004,-1.6868937091620513,1.3697952961553133,-1.222916946317834,-0.2209031894324853,-0.8536715495139602,0.825944076082196,-1.1811853250890278,-1.5068615549130984,-1.0869835763470495,0.5038889547576724,0.8376422004106894,2.1609566121316863,0.6149178716985111,0.4048639570362843,-0.24536037043254424,-0.6398379737507542
0.18404696460289932,1.3829688845213393,0.15809767827675278,0.5286732361925798,-0.35134927505428293,0.48989192577435864,0.09794168658076871,-1.3761248324404127,1.222085639766652,0.7661436257218192,0.197602593121658,1.2632527866474956,0.6031957981147907,-1.6158841453651493,1.6517184951082913,-0.44712682376013685,-1.012566865013062,1.8175495911789343,0.8894982215012333,-1.8251043000375071,-1.4900124889840873,-0.1477911247797443,-0.9413822981286019,0.7352041142403258,2.0429378115286294,0.20822779989691892
-0.11352570391504543,-1.1028590097916244,-0.9234012130026918,0.6564299767798208,-1.4165740509944649,0.26320643853655884,-0.41576074430759075,-0.6372239681739139,1.6057775974473416,1.6235619131715318,-0.22663265467994928,-0.8097377393361749,0.24289303588607863,-0.853207331247242,-0.5734657877798,-0.37022524828348985,-0.06815917163285226,-0.6639831464695067,-0.5751782631067358,0.7315296028391182,0.7965518399127379,-1.2231173261312327,0.3772647060390115,0.8176589265785078,-0.2787766543765309,1.2330715725592385
-1.0136688416277722,-0.8096988961075774,-1.0116013141621658,0.8114235361230291,-0.9770907380172464,-0.3023944675669874,0.764806336371535,-1.2145219234342524,-1.2086207598939542,-0.1320794187587881,-0.7000463648988198,-0.12724009517839932,0.7161171140941837,-1.2419310877399816,-0.07622177963819571,-0.13463643370667625,0.11239581047270068,0.5987663824813061,-0.5691879448196245,0.5990730541652236,1.5362889423697135,-0.04716063380668176,-1.0719419311748406,0.17588316131093068,-0.11996439920870788,-0.10116226582192744
1.2049695802919604,-0.5935424720045405,0.5082159809480293,-1.4954250008260686,-0.4152728016962972,0.3056080387682625,1.2469863468179037,-1.226158957742931,-0.5941380118084582,0.6418462431379975,0.7252030331634165,1.0035254652375005,1.2729716962556303,-1.5174656576536065,2.235928130393935,-1.220321093132859,-1.0524902796354139,1.1429920632649895,1.3048050262249913,-1.2591920801998042,-1.1321629508134732,-0.4334152664765427,-0.044463251199742114,-0.09356052092597374,0.23018501625748247,0.09261707935094936
-1.8942729190895264,1.4161414859750066,-0.8865953618066218,-1.421535182118824,-2.6152472110784837,1.5697152280161493,0.6641120545475999,-0.4984090535664559,2.7671714013467317,-0.3044012826662762,-2.045232840682354,-0.3104476457203007,0.22008273974277437,1.246422777920864,-1.4358486018496897,-0.14892167717238036,-1.492755957481842,2.2266555547008684,-0.10963155729418009,2.643075113678719,0.41773697020485967,-0.07324499399214009,-0.9344751091678667,-0.09343304110753797,-0.20080902680904275,-1.0879998188050228
-1.3413566245692479,-0.4119984012727788,0.3552046409481065,-1.0447200962280423,0.7852688611688965,0.42391789158023974,1.6165177780151159,0.1553498330391112,-0.6522396303451756,-0.8315148537484542,0.5580693595017804,-0.454668950294019,-0.7132879162343057,0.0803364094144561,0.8123128155327601,-0.7346479505443175,1.447757465819684,-0.10427918406185492,-0.7388443928273393,0.29775515309280076,0.567159944777729,0.9378209256699683,-1.4472573012437346,0.7105084696615116,-2.2160631659771695,0.6513063626295211
0.6743416690108989,-0.5905532886810971,0.8142867190889528,-1.1648428072898844,0.7141291711256961,0.6767485576977761,0.3520577035602054,1.267671264132503,0.8186748562894595,1.2597515726669133,0.6573725380133684,-1.8987326817505268,-1.0178859772678703,1.70052714160481,1.7028878030170098,0.556358677300869,-1.8559953778157914,1.3655160800702493,0.7615291204213002,-0.9227290414321765,-1.5805396257375997,-0.8454569447346281,-0.608693564763817,0.6865303895256276,-1.431256405075692,2.1525940833986934
0.2590930415216639,-0.7130344285034929,-0.6160971248623013,-0.5681203614362571,0.7860205219257819,2.678094704749991,-1.0415188347283815,0.11131544680891556,-0.9391988851568998,-0.6551461123627472,-0.21818662187971752,-0.257627514033602,0.2583911768963215,1.071531903107746,-0.2843112607499732,-0.366187653502594,0.01880841208186268,-0.2838473764560104,0.533481267744071,-0.20597095932072582,1.305628355428206,-2.6637631003658897,-0.07144285618452463,-0.355987880570502,0.2794270154317429,-1.2347880047988773
0.2893261953078217,-1.2849313485105434,-0.2323851500405052,1.5069978112628999,0.7310753217858325,0.18640234985854878,-1.3430487490653273,-1.5068880167624226,-1.4583188780907739,-0.22541006685122555,-0.9692071282170269,-0.9524261048204078,0.9431343530765514,-0.02519830698940154,-0.26888499033756735,0.9839530858129776,-0.062386090664614015,-1.5620137447284665,0.5413223866371938,-0.48456016828589643,-0.480987405059816,-0.4249930310093676,-0.23449229795354096,0.20949438438089302,-0.7362995346976822,-0.5177503431463013
-2.590019029885847,-0.4812106042974397,0.6812851792763076,-0.6515018137972315,-0.35935668136980226,0.8759798516425465,0.37445664440039667,-0.19145343162442516,-0.9632312868435909,0.6631639543982236,0.7685489355747328,0.43904894901706343,1.6495236438353247,-0.08309477996397288,-0.9427963929952987,2.019133405985669,-0.6605507770511837,0.6231066488049771,0.9179556355939046,0.07299315816853495,0.6525923458490641,-0.5756053302543244,1.308499256128453,0.46549975316099407,-0.6950576586687613,-0.9626928936376775
-0.9133815567574738,1.5443480553641815,-1.5641184276471591,-0.9635127654595075,0.560959299542267,0.4265370463719476,-1.796427635972798,-0.8404841788182347,0.8852597780567524,-0.8394387738980859,1.0928026198420127,0.1397761061472219,-0.015378835650738077,0.2429212802603054,-1.5427676746378352,-0.45150048194480774,-0.718861778880831,-0.32641051340634675,-0.8174173600453399,0.7073762284544924,1.6990300226764492,-1.3680885640931668,-1.1103140619478915,0.41181952212758444,-0.36568767289057985,-0.2430025375291819
-0.8453826668425884,0.17389364551289876,0.6632359358100087,-0.6894051949030005,-0.8360288500577617,0.11337914059494326,0.6546224438611066,0.7220822956456809,0.8704792063908823,0.514990519108241,-1.9176371902699234,-0.33256194349655566,-0.2596428813687955,1.3071657231051075,-0.41108059593588986,0.08971576109686139,-2.823023561514064,-2.0019165935033056,0.39945298151946423,-0.23345125513658802,0.10648108051808132,0.10842165948642901,-0.625517994749526,-0.7675482608056516,0.399083511633024,-1.7249821498398514
-0.9081783589931155,0.5743173638367428,1.1355474383617707,-0.33256025518304533,0.01232177559621046,-0.32270002944248694,0.6270272232955115,-0.7013312489087258,0.3890370726798483,-1.3664656798714412,2.439206647157885,-1.2992584456521232,0.7551621592213372,0.12337829007706305,0.2440321527273749,0.5227689103684653,-0.7738400262478249,-1.3218813074814624,1.091641416975079,-0.22087282496370078,-0.4947348760299632,1.3158619816745005,-1.3627994762638564,-0.14093197854768744,-0.4142910070152132,-0.9659499911808375
-0.37176587987171605,-0.267980678040684,-1.014679658886716,1.9124607408648124,0.11664963958267295,0.09399763312324581,0.5962159076997221,0.9764067834410594,-0.2339077312501285,-1.360762542605588,1.1939504691936347,-0.4779441399742414,2.806449329186403,-0.3136769255989193,0.4328216343814456,0.40383539996703627,0.13893035236261922,-0.035583555189457,-1.6609476544491653,-1.306033042917152,-0.4942547042367837,-0.483596072956551,-1.8888844744677913,0.6981240753365894,-0.42852463695440024,0.16418676159712467
-0.26215950169012414,0.31291766397235315,-1.425579040886953,0.9839814254721017,-0.8319656974108258,-1.2329307748239637,0.7764359807168365,0.19438154520643094,0.7155266334176147,-0.23930924590458943,-0.333931622870105,-1.1096720016818926,0.6458208330697018,0.27242769612742257,1.0275831145778036,-0.828185202193019,-0.9751282651813541,-1.3531925237924856,-0.8608848181332076,-0.8422678851795757,2.180330366640574,-0.2379294687650638,-0.4052347865374908,-0.021226103279270436,-0.039293993739053484,0.5161535944192261
0.10214571811635696,0.6418747390513867,-1.5414517439723956,1.5057668360457457,-0.4305128139305704,0.19715569362511617,-0.07162788601671749,0.8367059935290064,0.14577633319140731,0.2859823075541899,1.014029034960894,0.8271473578051274,-1.33102956827238,-0.8871678390121608,-0.07366125146392712,-0.5017328176779284,1.1258619607584994,1.1577341099788356,1.0599364533127937,-1.9686231594066572,1.452903204801994,-1.6276421171151967,0.29532699661180095,0.4945011949050981,-0.15041158485629913,-0.28801030961341
-0.7668293627135973,0.05856005665628877,-0.10226637556247006,-1.5141726714264006,-0.3074163685964251,0.01552038679554809,0.5077418884537959,-3.096981009919058,-0.4364074303080362,1.2083463761212747,-1.7528264006482348,-0.8879796527255582,-0.5827019675817702,-0.27230516047105685,-1.1337002285993822,-0.7611031578876443,0.6431770148077842,1.2751539560317626,-1.251879864875337,0.6436754803476523,-1.223011039116675,0.12291391269983319,-1.7915608251234716,0.5400235196901111,-0.7328732418562851,-0.18834951943473954
-2.1263711299756762,-1.094330974947433,-1.1869305879710674,-0.9041873760730234,0.7333633937813766,0.2891870176467944,-0.2710555422750887,-2.3075113214531906,-0.8959765071069233,-1.1379881710310944,-0.2667144177088646,-1.754955910863711,-0.05723900526374913,-0.6151498211216013,-0.04499730404101542,-0.4636004634317187,-2.1661451257553783,-0.2290804723517682,0.5304121106215913,-0.020870198183220414,-1.027968814273594,-0.08996365421954358,-1.3013205701992343,1.6658492416982595,-1.6934657978019325,1.2717489741371888
0.14975660589106962,-0.5963892789706885,0.3420629963264836,-0.8493917666016354,0.7496277201681094,-0.027366962184819252,-1.3737844040704126,-0.756894135764996,-0.8317018277149442,0.944477768786586,-1.9981830639111138,0.14895647889718128,-0.1043158666215573,-0.2606788105585589,1.2366463904728757,-0.6987531501421116,0.8452132155276206,0.8398196417192175,0.8607038553022747,-0.2658681709183781,-1.1963205369048646,0.167873276375461,-0.22811911867427717,2.0818123374956157,0.7994509383636728,0.8213853217704861
-0.38925607532172907,-0.44597325941533483,-0.44338321144742965,0.8004736058283705,0.9032285620462775,-0.23906402105526198,0.3769167257965585,-2.4464402439897275,-0.43411340796975784,-0.743386777162943,1.486258412397108,-0.9225857475289307,-1.769464574438314,-0.9710404032514917,-1.0733010852745257,0.31949138364249724,-1.580546366440401,-1.938290897776456,0.48242563735192623,0.2817693642845666,0.24414462564981035,-0.9807261257045846,0.5560842945056264,-0.9203832251967552,1.3297884628192418,0.516028754363378
-0.4293866017580012,1.14408272716808,0.7950141310601143,-0.5373887574988809,-1.0735195326120441,1.0155095036013913,0.40314301995067897,-0.4195930732138542,-2.0548965393470513,0.28127621965195987,-2.41137939838714,-0.3146864622887704,-1.0555357517521422,2.39883915088275,1.758409580085931,-1.4281140937037708,-1.725917202629902,-1.9253145793111235,-0.04210120796331758,-0.4837657085872849,-1.1597307758609452,0.31227437721115653,0.8839770283981602,0.3091560185429425,0.8087805467869366,-0.6525871015560305
-0.2224908420753166,0.576646310469206,-0.2681167521168886,0.017545841173241494,-0.29180261878742486,0.16278707855422367,-2.656416734100541,-0.19246560309622732,-0.4562775526864115,0.4820181248131418,0.30661204149642224,-1.3868714047029538,0.9465814642733361,1.4283385862280484,-0.9833508990142342,-0.5941886942753593,1.1025866511429716,0.5092579818332154,-1.0369658335819971,1.9843961296074637,-0.4862204634163842,0.4526104510578167,-1.3961137811156674,0.15720755774194164,-0.6729494350840356,2.0272619574879664
-2.1715116589624586,2.091328790465991,-0.026349303492724435,-1.1677595786359987,-1.4388558984200677,-2.603118043648382,0.25581414482411763,-0.7146725325331597,0.8210872508794864,0.6805252120625974,2.0413842532958424,-0.25598257651752393,-0.3353304742871993,0.35011672932723,-0.005516005472171617,-1.2402513871205247,-0.3611154708386179,-0.7279761288064228,-0.8440475137441049,0.9311015513182417,-0.7024516979210464,-0.3630855069776007,-0.06625090458025228,-0.8477297208115617,-0.19629858646115364,0.6960023986971048
-2.32496002716406,1.2881972744803307,2.151923653830924,-1.2764662635006725,1.9976592956729922,-0.377050703403101,0.3063336251131311,0.033663886217018255,1.3460578732364787,-0.274902202284475,-0.7902640619266167,0.7416343404155666,-0.3595746756561418,1.4355380443532617,-0.09303074011392605,-0.548440868375591,0.5604884201182757,-1.492765593064412,0.15440600029784948,-1.7131272491992706,-0.8935190286251988,-0.4368238580607829,-0.3418001141975355,-1.1969469140720153,-1.329902061573193,0.38739629511816703
1.213718954134932,-0.5138210215061456,0.6299349367294338,1.7526446036181487,1.3469784377712701,0.5850329623777704,2.8139451777089497,-0.43509782672293024,-0.008608581781720167,-0.5463191904502269,0.8709989895579197,0.22199870918310424,0.40822590521373836,-0.32357866205424135,1.0625467683616712,-0.5580286706758362,1.9433761823954834,0.37468161831299496,-0.4779431752631842,-2.092346085498924,1.183353925363936,-0.4603323265801539,1.5711239405483488,0.22539765450002783,-0.4190713156898422,0.9205514688460618
0.47645959135272514,-0.5309148805535125,1.4118784746398116,0.01495686491304663,0.6350722148600514,-1.1651844515998557,0.8376615997534665,-2.4591316966403487,-0.34438321702822133,0.43652860758183,-0.8173422834832944,0.38638409912642036,1.9570544200018203,0.32229506831460786,1.48746604939532,-0.8928084015858915,-0.27914658641616563,-0.3244616514425549,-0.1741729433892291,-0.588826098663594,-0.40179359951092236,0.22386697473213651,0.05447547022226876,1.4916220647294698,0.8484823503960331,-0.7138913351521842
0.27716162919897636,0.09772334503050217,-1.0079369702462941,1.6263409485154057,-1.1788997193828838,-0.5770901256417315,-0.03132191678916763,-1.7197142394365819,0.8233702716999793,0.8475685847624429,-0.2718265455849845,-1.1114613140210798,0.023933046655413598,-0.5407740313455988,0.6154473240268595,1.0310159799002823,0.282083062220202,1.3172190310591403,-0.5739441028688004,1.0697378325387181,0.3847949542564154,-1.00488583757408,-0.1622901349627489,-0.5195813540052552,0.5331298704991642,-0.9941506804546798
-1.0992869927643572,-0.14857936539713332,-0.19334846722491267,0.7153302960535968,-1.2144500576692507,-0.9014982636639352,0.13975669376583663,-0.774829451657915,-1.155044163254588,0.6103970732162128,-0.931467583694706,0.43382375933471945,1.162822178711165,0.9144331742811123,1.7964357329710359,-2.565734114408678,-0.016040734974670918,-0.9959024023209306,-0.36691884337498065,0.06689896004020916,1.8951671819923137,0.48391262416441194,-0.6246243241344962,-0.38393994231222317,-0.6570289389713722,-0.8805610931461189
-0.15445404050878656,-1.949585215162793,0.7856976709272168,1.5247857800862286,-0.9044679607553544,0.11442815078884018,0.9218951942321135,-2.14635482433918,-1.5280603757214568,1.3266548244682672,0.4010674106904083,-0.3189293324955087,0.21634995838694737,-0.5190113066641001,-0.12100140586086262,-1.6634165621731363,-0.7280837116189237,0.07316512612609473,-1.262878410915986,-0.890898091271848,-0.19804120526385935,1.20827571702031,0.9142346044573686,2.4498841565042566,1.0787408670705267,0.5503937309567688
1.5045980593687343,0.4790613170190356,1.090185562726897,0.11056428706173793,0.01775676043224782,-0.5145911461436407,0.8903109630327406,-0.5067020685470032,0.028969081896524022,1.233677765414239,-2.2128950359262562,-0.9444061633883105,0.26250873038511985,-1.0251448865115451,0.7210944841140453,0.22485818872538324,1.0088569218189807,-0.25566201097614094,0.7369908948409826,0.8307245846412078,1.748416857625139,-0.047351279625369565,2.104647027705272,-0.6795395311797972,0.5356048309016443,0.496030873630242
0.42746679580928726,-0.7697806561323443,-1.2913191318809742,2.5765337549183798,1.5544076651692478,1.620692563198592,1.0581057915855996,-1.538566246053896,0.38822455644560616,0.22455107768462512,-0.37894152121002767,1.4855130380111279,-0.35582127817612036,0.08689196860101193,1.228620359723271,0.3104834643538514,0.6092819123843992,1.3283529104813145,1.1291209190195837,-0.5026515605816767,-0.509040781333922,0.3542947180680481,0.31342357256362546,-0.25598120478761754,-0.4669666282746663,0.974255611968507
0.8288546676723307,-0.3224699432029831,0.2924409838083364,1.298438784581606,-0.6288030854794228,-0.33542470071543745,1.2374786486426983,0.21633810600139358,-1.7109095968409451,1.010509206082109,0.9763706111550848,0.35195673826953056,-1.0010442551775984,-0.5431872311200019,0.1926093174065419,-1.185598520998782,0.024088122431612118,1.1492699772418207,-1.230349591482564,-0.9570089004820126,-1.0825549247893531,0.33863130665040353,-0.4345560109107201,-0.3533258405117366,0.3231136908838139,0.8121003178840088
0.5429283471672782,-1.0809744282179443,0.025477972508601614,-0.6290540933457048,-0.9312047923149833,-0.7534951158524139,0.27458576992911016,-1.9315283912754582,-0.5277186257034439,1.4551228308880702,-1.3029662090066003,0.1306061162966041,1.484695654743708,0.575338621889737,-0.5536556522345915,-0.7795567687035379,-0.8875576799528899,-0.7544368617761475,-0.8900957835962724,0.954875935782145,0.5896401793836614,-0.1410747881671022,-0.13591541885767167,-0.13329417258289591,0.4054585151566963,1.1120274114881072
0.18082565259100994,-0.12877143749538808,0.19731982658812647,0.6511352311891374,-1.7799777285106417,0.9824908190910966,-0.6334772818133833,-0.18230008443870466,-0.667704821974881,0.5850579640316921,-0.19553543857349928,-0.22449934355125178,-0.32041962825129905,-0.7020062457649524,1.500021391076,0.5533334984943091,-1.8399438160533579,0.18978724922419596,0.328719206748459,-0.3690516907206907,-1.056570603078185,3.0169290244310143,0.05691817070363247,-0.7880466569379508,0.8779388941320811,0.392701370142604
1.1781091732585092,-0.3275170703079475,-0.3726446622538371,-0.34555141965850245,0.012372179681385853,1.504308480939037,0.6531478285037439,0.5581515632134395,-0.7256004168000634,0.23087927481700116,0.4611431785996773,2.2442648154836102,-1.405745301253582,-0.7907475099978805,-0.28315013695757785,-0.26395379407208736,-1.8387128146115839,-1.4939981286093098,0.3627852577956305,0.2724637037020811,0.15447204733228792,-0.5856259460607517,0.3193971455237261,-0.7330528108744464,-0.24678673001960447,1.2269940885513393
-0.7404555212000818,1.068081108392752,0.12176772460789473,0.19420874164861873,-1.232396553432884,-0.9567977254187227,-0.4141125509022937,1.2218663646930308,0.35084567589305604,-2.2385822531487145,1.9120800514567278,2.255499721266084,-1.0784935732241452,1.206369423132065,0.5829712284796329,0.5611423319313193,-1.1968400974012579,-0.06492673618692327,-1.1203177250799656,-0.7137985110661661,-1.3335301644993387,0.6448474267274636,0.7803569767892435,-0.33670557610446966,0.8810249956559878,-0.18153414848256308
0.039246092021863355,0.8485108082710229,0.9852873357763442,-0.6042296200625956,-1.3756153754876153,-0.028771498067465765,1.688693445243641,-0.7128714674544202,-0.9922790922760767,0.7926457643921886,0.5207791725713524,0.2818016128774381,0.5603224517923759,1.1261091072717677,1.3447815857610042,-1.2011258662764113,-1.3532851064916405,2.022061901501235,-0.8774396633844588,-1.5625890500499013,-0.9077377536857847,-1.4234571303759327,-2.420698574322127,0.927238519320144,-0.4119662802089238,0.3401141144440365
-0.6696839180346235,-1.095673830283125,0.18326066963283272,1.2247975749239244,-0.09072428188291444,0.20605433459406322,-0.025818437632077383,0.38416503831880083,0.3324496992739106,1.2248643342692647,0.4485808691931355,1.3920524494991486,1.5837937643144409,-0.26717461267822046,1.135918631718902,0.002304322458842432,-0.19179025291002685,-0.8024310974565797,-2.44636316172746,-0.5808304534076231,-0.6606854061194288,1.9804350352466475,-1.2585501750684924,0.277280275545027,1.3510412289304135,0.5310021312826995
0.4096699696566096,0.5982391784913379,0.28477693077700095,-1.3566923072506294,0.3229103596203336,-1.0627584178013418,-1.3003172937869085,1.5965124047638843,-1.4366134251342355,-0.9138006184777401,-1.9005820857157862,1.0044934691052338,1.03195558217444,1.5072950519714698,0.15983087612382868,0.785141220646673,-0.39331230380265364,-2.1156365693456918,-1.5637158145402368,-1.324722103041989,0.07594060056729614,-1.068569833578132,0.4022152249989321,0.1519966207671574,0.03488659876878485,-0.15888741540982804
-1.0466657259723513,0.37962483240614175,0.8169967758608441,0.228940659905516,-0.3021705302630431,-0.6608617249381,-0.05378588947870061,-0.2653287470774867,0.4214191140034408,-0.7207274049307154,-0.039546080090784266,0.23380433007621704,0.5494792328197344,1.4026887941519994,1.5013551944882912,-1.8408628035883308,0.08891263589996419,0.3021938482523493,0.3446213896995122,0.6555120873921318,0.6802641341059945,0.6424427941696683,0.7082235279413056,-0.8326389012930603,0.5792122889775582,-0.09541980418056238
-2.6486864040171096,0.2045482886679596,0.2948427269008852,-0.8925676586724127,-1.606940639210406,1.4298439810789558,0.8994170007051191,-1.5662251154566436,-0.8505429793118813,1.6297638538444137,-0.3347664495135112,-0.6750314308153889,1.7578937274204327,-0.5618413739762276,0.21246167417094622,-1.5157535225593064,-0.015463300331451463,-2.7202234693083778,0.5925853283672238,-1.1091134015812416,1.2898420869042853,0.7968520319895638,-1.5522781489706114,0.03371354778477697,-0.2037291622934717,0.8473399210111113
-0.49177977855532784,-0.21552398716604973,-0.4649366114245887,0.7228100564721295,-2.288703116559155,2.247985419212914,0.38361614535523414,-0.09016037601089691,0.045155864209326574,-0.6564769783029567,0.7243426309155848,2.375928479875597,0.30705447889714427,-1.2140777876650093,2.054482275831114,-0.15520154209833756,1.0391550157841822,-1.079405038293637,-1.766566167393186,0.6391491341911505,-1.5370114578157414,0.028900634533469416,0.1902419154378945,-0.729598337024914,-1.0888678404272036,0.9174209269253983
-1.3165658723615836,-1.0681372972738923,1.0137036783781106,1.1571137349156781,-1.2526919911827052,0.5557290056896017,-0.272655814670557,0.14996708841294817,-0.11786690262218599,1.3004491557085356,0.2411015966793721,0.0656130471831283,-2.0687385239590195,-1.4176656813169883,2.1576134814393577,-1.7073764409740106,0.1934459596937711,1.1960830411036822,1.1120172107028838,0.5712226243642239,-0.645572082733076,-0.25845736433517486,1.2237113420441599,0.041738485986133514,-0.28279868338255765,1.2854566853168974
-1.235441933606756,0.23557606153156532,-0.9262764389454119,1.5864835149009455,1.7920351715725518,-0.9156767166736155,-1.667983154893083,-0.29676334514425506,-1.5679700506731105,0.06073365334913233,-1.0312289085357091,0.4429709393618025,-1.210180633561961,0.9289879035026601,-1.7406110434304762,0.19365099427934587,0.5656272821942786,-0.1771854944121542,0.533101277122539,-1.398524037375344,-0.7628585633977933,0.8937332693621983,0.4727248566148576,1.4015155079533703,2.2553685397103966,-0.032979830852751184
0.2895109289605923,2.5740431561951587,1.2524560215499927,-0.6645711839472612,-0.24464504039031074,-1.420539088315294,0.7282727113559301,0.44774403610384494,0.033542393550293384,-1.298292411290903,0.3504309421025094,-0.11071090901191179,0.005132917752701768,1.0930797441261364,-1.0464821596197935,1.0550252989339188,-0.16172317036510955,0.5135726051819206,-1.1982769723728746,-0.8995799029280868,-0.222016178947813,0.037638863547748765,-0.9816871087683987,-0.4266320597237485,0.43665072770346397,-1.0301376891715774
-0.5907741601364916,0.1923518894526672,1.4383479175545386,-0.8960031809991791,0.29288792821421367,0.9957917611891186,1.6217739791617074,-0.9058303595798799,-1.4392845920001642,-0.3261020455660423,0.5416266752861707,1.03339685669012,0.22812897888408834,1.6467292817134487,-1.582915459082114,-0.06230033432063816,-1.0047321272148555,0.46409006999712626,0.13788625639393315,0.022469830104894704,0.6492598267002392,1.28579311968899,-1.7851227780388181,-2.575063617298652,0.8678696084384157,0.7731309188084329
0.8577146049860619,-0.17030515245929106,-1.4800094527286307,-0.9397387178115347,-0.7310777319427383,-0.7001113523256938,-0.31271951349752597,0.5742869897925023,-1.4524698245505376,-1.2904397203188525,-2.0216781279239346,0.12463859423155889,0.6578613416213596,-0.9901615614890912,0.16128293533560759,-0.370930187811798,-0.9601219574815837,-0.3724261405090303,-1.3598492374916786,-0.5385846255253744,0.3046697102627298,-0.9729042489930932,-0.1501223218850098,-1.2317207468640357,1.395751538858441,0.6522226069230597
1.1676157725174945,1.7177887805118142,0.32468483801907033,-0.9477076526524736,-0.8432788195999819,0.4138788473733341,2.3152200949891792,1.222820384170238,-0.2111157159241862,0.8748647817541418,-1.2215491131657426,0.9991387220937349,-1.6492373429147478,0.08005690873862469,0.22636028648591952,-1.5506242168464293,-1.0773877314154598,-0.677915144849766,1.5440636429996097,0.07734550633234229,0.37043144506495335,0.7701567484071251,0.10776763384498869,-0.49451294938365237,-0.8660844004259992,1.053547196390123
-1.450455773823041,0.17176912884368956,-1.7120388091905256,0.4089431823146249,-0.6837327289364346,-0.12793391031114562,-0.5261719555873955,0.24313577920103494,0.46757153983497235,1.5010532463739943,-0.26006372623768953,0.4202310804649377,-0.8664818537387258,-0.42597264587943195,0.30975573413788116,-1.7467124294536267,-2.8948891722549512,1.7077296880369097,1.454813435411091,1.4637638299566949,-2.3748850326080797,-0.4481776158351995,-1.577474041596239,0.2823749404303353,1.2639052487482374,0.821207430365667
-1.2210196840599359,-0.23988694744402767,0.11983024242495069,0.4056818430752852,-0.6477978325010767,1.8342610668788784,1.6847381444402194,-0.9794912088692272,-0.33312236634760745,-0.8593754766437236,0.8127652166008341,0.1259673624278926,0.22907093215055582,-1.4395288815578053,0.977406192949159,-1.584141196687128,1.3112172141084362,0.7185335279972794,1.5636279563707356,1.185823381412788,-0.7626089737453992,0.5321941652400992,-1.4611738443208941,1.5587672562826607,1.737814206761603,1.955938023201394
-0.009874306581214461,1.3293485063050734,1.3864830163550972,0.5331982132112838,-2.1570340302588127,0.46043032056995176,-2.349308343035759,-0.36732597360739566,0.4366012204687877,0.06961199377324241,-0.3046955813775443,-1.6228444062459955,-0.5634085811525543,0.4906205075244277,-0.14011008080054704,-1.1191392042369785,-0.43615493331786925,1.2590818076085473,-2.7289038487880557,-0.3583279750234989,0.4936403406792784,-1.6467372371188227,-0.506747456029708,-1.5423551423566226,-0.0887774264686984,-0.6299023430559293
-1.3688896949802765,-0.39809289298396544,-0.9706250164941412,0.3788607221863246,-0.5620648622177982,-0.33590559096225064,1.4330056866215786,0.3757973932638602,-0.7332586264573564,1.8549208536127295,1.307151528780861,-0.5674370689698248,-0.47028631100114454,-0.8199099276775367,1.9056634122957974,2.2086092340374166,0.7335499817895277,-1.8684113976832368,-1.0867755428276233,-1.0857898413017126,0.8451682600308605,0.4123850985142411,-0.8437891497234309,0.11886101215459127,0.09184759709237239,1.6958923238206407
0.498730203692303,-0.43860347976577563,-0.4429850073139692,-0.5022964994826725,-0.6430789846147513,1.2635228095050273,1.9427398251096102,-0.7657057633461706,-0.9316978732931491,0.8548713833667473,0.9516499495284434,-0.3897030883575649,1.1244486326071346,-0.5596930894025267,-0.5128715856165046,0.05818460448700685,-1.2855762582643093,-0.9488764676783296,-0.5775401330512319,0.6339956306502179,-0.08016712026734839,0.2066562069162733,-0.226567850715543,0.5853346426168283,0.1901788418613657,-0.815569594069581
-2.039197172377276,1.624101560381814,-0.6691008997237612,-0.5375873705719277,-0.3397328249735806,1.8993778652566606,1.7616557434398803,-0.9304502325241121,1.6694724477260534,1.3809399936824782,0.7572426056472064,0.2862235578857099,-1.2062954409535387,-0.4351319313855453,0.5674489305890082,0.362436731680406,-0.952472273049134,-0.6416082299674194,-0.021378394332602375,0.22134719179472806,-0.22756538242208596,0.03582158055262734,0.10470449995961302,1.155341743848825,0.3181733983551951,-0.8659420941391478
0.2687482550959874,1.1981891818522352,0.4153919558640789,-0.8337814833772724,0.18827928802760108,-0.5341222663418226,-1.107694435013331,0.3099352729980357,-0.28271751501865366,1.5527764608753312,0.9314095846375626,0.386694035486908,0.547936966723636,0.4039095315967976,0.25233051241903554,-1.465175252303582,1.312153488734548,0.73198332220367,-1.0020295710928913,1.6885820029712466,1.327899234777615,-1.575862298271022,-1.6902291658223045,-1.1019600688036582,-0.131708299349929,-1.004957889289379
-0.7292284039187544,-0.1403118541215312,0.2268995494020491,-1.157030832996761,0.6846360566688576,0.09923821205385631,0.8098225173691187,-1.0774603330801018,0.2122990998898286,-0.26644230487531234,0.20470088343912438,0.08787870886662832,-0.6291687630593112,-0.5412110343613016,0.3955875936072572,-1.3631327485913396,-0.17727140021985527,2.164041276469147,-0.955704967384684,-1.0456420791150396,0.49972770320177506,-1.082308313857456,-0.05328862868521258,-1.5020354811471193,0.8923026436561204,0.6669836867973445
-1.2614550864641805,-1.9370608843460946,-0.6289659606069158,-1.8129768489093512,0.5107340757929869,0.11152375161666304,-0.2529831854943717,0.3742910831546689,-0.5642098343653078,-1.9694038436573102,-0.49390534620468074,-1.2316851723237958,1.0396161181558659,0.7297666651074657,0.604078656170997,0.1384554236847238,1.2113839821569636,-1.3258477865264884,-0.22304634018239752,0.32588691655042906,1.0210025268659344,0.43313019902688016,2.2341084409610503,-0.7684015850203882,1.2318475401308455,-1.1462365202600338
-0.1509962600981073,-0.7638794323580443,1.4940908886815119,-1.7018347247274643,0.8293009841746084,2.526860790968978,0.15585452789147597,-0.1149539680505962,-1.3102641296180282,0.878110896375443,0.6702957086455162,-0.5462177296162227,-0.1421311306329299,0.5556382703359113,-1.7081069410883476,-1.3928228845117374,-1.0961507244579476,-0.3310401644513074,1.1809550206818389,-0.1871266508395781,-1.930315068215149,-2.02770960825092,-1.932810955209608,-1.1554576760775284,-0.34820789573334976,-0.004643605201486341
-1.059465519898891,-0.9370920502491793,0.2615541956218857,-0.7315103133267375,-1.1346520479517253,0.6577379925724165,2.2581783907661093,-0.19156486581954998,0.5328832282040742,-0.4977560577986349,-1.7943384204559956,-1.8358710823367277,0.9791096304843202,0.865744325732213,-0.8143865622298052,-1.490376273977018,-0.3312043682250911,-0.3066701960077287,-0.16183590683869786,1.2338767703438465,2.411371735409153,0.8651657783239547,0.1285946584728622,0.9582416686323164,-0.48099181212803344,1.374186826309161
-1.1279526270144298,1.5057606495383777,2.6681797669179037,0.10160016990539077,1.2756674029113382,-0.11581119301201916,0.38418391200059626,-1.0246230816303512,-0.061235523675241633,-0.1182196444525354,-1.9406055248208496,-1.4955685545545239,-0.5784448437737106,0.4400748753896081,-1.930450786225298,0.5048189102260219,-0.006940002884886126,0.9319916976727277,-1.859406834918787,-1.9803710999387953,-0.6348573910716762,1.4135898677783154,-0.2394917711992431,3.1056613793515244,-0.3969899630024167,0.02453251569626654
0.21192717565134217,-1.0188010238079883,0.3230184397920477,3.9008354407359227,-0.630804418044737,1.5003008528593893,-1.2135017019400185,-0.7016046383103043,1.0087748041464324,-0.3011894573798241,-1.2731406719223253,0.46708146862370653,3.065426655910048,-0.8792859447185046,2.4999395599778085,1.743964993919699,0.31522363534586456,-1.015218726239545,-0.49626870632584535,-0.8086574715946309,0.4796515487191226,-2.734038201142439,-0.6117261458653921,-1.400726548715509,0.15137881416887605,0.20826450425481857
-1.4553505780800295,-0.2118045418146817,0.6154408194679267,3.693326269437063,-0.5250962918017897,-1.0950175976387533,-0.5551419439968125,-0.9035753605944454,0.03840864736757509,0.01688326553268463,1.3338113172576207,0.19977638434371545,-0.037434180314713926,-2.7096462865826862,-2.31403740893052,0.016981034736270755,-0.35983069485447905,0.10765303683551414,-1.0290950750046302,0.8849314520316215,0.15874181431113085,-0.291468678412587,0.09588758230018192,-2.3014451530178808,1.1927519622536151,1.2872424652641525
0.35461347098477924,0.5797335815583031,-0.7865947643749647,0.47974298837435425,-0.2593999987095854,2.3435015160571266,-2.219650669436933,0.13013513964742432,0.45734490931497684,-0.1612692231095786,1.7525838448599158,1.1374112939434007,-0.8910280233120249,-1.7004511827950985,0.38548703082244296,-1.620490056333438,-1.077723655337309,-0.4380680920273234,-1.6333881281878222,0.5567845762268119,-0.16781604468959294,-1.49045530818201,-1.502695387399034,0.7699973141514461,0.4549315217127416,0.8679480659361375
-0.05213884587303567,0.5348569933538349,0.7075130380625141,0.37428797767629174,-1.4214622096066918,1.2707862729325619,1.0800291521043928,-1.4770173388420322,0.4953251810466337,0.6169095035492754,0.06455268314102511,-0.6258481196207726,-0.09776598527509688,0.6515712061534847,0.04355970034085622,-0.8962221425011956,-0.8886647642014087,1.0497487651939643,-0.324003304656808,1.0098249953692806,1.3938473992072729,-2.8706301973266455,-0.564332229949335,-0.0059076335097530625,0.3825696555098475,2.3075186134704007
-1.179505809528368,-0.9811288513959149,-2.195791593471088,0.47894802893149757,0.11258027848347785,1.166784654064083,-1.1424716749995525,-1.8897874442919151,-1.9200773846622927,0.5676345685452735,-0.6773736506434911,0.5263705215126371,0.4245158413541528,0.315167896769105,1.4084436457126126,-1.6461536351562749,0.9496904008721279,-0.25235818152567324,-0.12967266744368797,-0.7608965130337708,2.2262292910910935,0.5124065903399455,1.4662230779808192,0.1645767813955967,-1.208015678626362,-0.6214962689457498
-1.3690094440955285,-0.1614710031040952,-0.5509029272390331,0.32747107463170994,-1.7244479146267964,-0.5183893664350443,-1.2192295493320318,-0.22742233286000976,-0.6039684652676505,1.1679569865444666,2.9853354622405632,0.6863777655862957,0.22748815938173583,0.45493657510308116,-1.5928217850119188,0.1759535068103961,0.9668007025492045,-1.4226125526183253,1.2682650051981144,-0.356094350536401,-0.517148226262074,-0.056328734233602885,-0.28495444497009287,1.0252277610242235,0.05883498064999514,2.044041896182684
-2.15056902593176,-0.8515881155681775,1.7867200231206977,0.3506259118379216,-1.7697874190656093,0.22483230902476348,-0.3298902023065418,-0.09871170267843332,-1.155687991349016,0.1367005615985312,1.444474417225485,-0.2950670958131761,-0.48973942057180825,-0.5597724178561536,-1.4347233754349316,-1.3580473391597248,-0.4046969608619265,1.1406105769649726,-0.7481898609958743,2.1836329016959675,-0.85800163177474,0.75825856803833,0.16985638535138817,-1.205499293489583,0.32472571172746506,0.8654968218388338
-0.6854203356065606,1.0874209263263417,-0.40149602507149273,1.4804167685796035,1.6275500724342558,0.5868618015900698,-1.0463070845366873,0.6945362723527744,-0.5194385799551827,-0.37745127962904923,2.8975912997310926,-1.4721571057338145,0.681488979752399,1.5262935739887227,-0.17047263846787458,-0.13148718237952822,1.536736418556828,-0.42554040795515796,0.13200568676627208,0.5230294584082882,1.2364460342346895,-0.12673175918314675,2.014119422807968,0.8208233782195635,-0.42341546034798533,-2.5640709450941443
0.6295925738755603,-1.8507958589728162,-1.358098043620103,0.18493832271019753,-0.6951978712779638,2.240305088474693,0.20193706089151958,0.11152777686200871,-1.3161686936477364,0.12072615043456249,0.7853888107948127,0.8192030712754237,-0.9871946994333819,0.39378779666769614,0.9101142663050639,-0.2920075076278423,0.5320015606480817,-0.1942402871337914,-0.17681731168292397,-0.019705410664475252,1.1176030230094844,-2.1700071565038517,-0.28551342576944644,1.334687158347946,-0.6532629766237014,-1.32225663897939
0.4927239311631664,-2.581179031945755,1.003572547603912,1.0829599333926618,-0.10306166615233296,2.0651393371995774,0.33125699390515817,-0.1898055192939805,-0.5803518070925735,0.3179755212432736,0.759193811312462,0.6653583716028372,0.8135883978719497,0.6158215547874963,0.3731479861115092,-1.128524580950249,0.30534400345174934,-0.5697157309384299,0.6760673710297174,0.5004694569941402,-0.7219659816323583,1.8026385880864075,-0.9189014676559882,-0.27097346104005315,-2.5642154707163085,0.43464720788220335
0.14087007981981306,0.9025460202502573,-0.02945434967850361,-0.4128266432590732,0.32852132518034893,-0.2812594093841285,0.8671154406765681,-0.749836604846689,-1.3014837365833682,1.2252583535890968,-1.2969008302153309,-0.7795531304158492,-0.5586338079870553,0.9006870451730774,0.7544110950563563,-0.3836691384303267,-2.48288469382253,-0.4616774051514815,-0.17089983833488942,-0.08434296462240824,0.6607417213296461,1.6411287766990048,-1.560549268166949,-0.2412043466423723,-3.3340346036999087,-0.8619904771265976
0.32973699673647816,-0.9206989758210353,-0.5529746513732987,-1.8689223720459072,0.427536626918053,1.8285092143845152,-1.9872177728607978,0.672492007215842,1.3064366425003797,1.0065726512218334,-0.43937667468030245,1.5599766291514185,-1.4601627930896501,1.7393118553254527,0.4250551631787541,-0.7262972443351257,-0.9184673620264094,0.9847949346324365,-0.34971271909017304,1.1783053798501912,0.8884102883243077,0.5964285616327806,-1.1453969250764067,-0.13425707707181353,-0.8166638791055764,-0.6402388514619397
1.5830759166734192,0.30939385234721817,-1.1621307898203739,1.6225635838035053,0.004581885666324712,-0.7389407677771114,-0.5373504832006483,-1.827536580588044,0.2795843618079205,0.827224635422608,2.3377822418510252,2.052119296163869,0.9978211638317209,-0.05534432755399239,-0.23458399141101047,-1.2296156911063707,0.4224296532557548,0.258013524388043,0.4355914750559056,0.4727248144291764,1.5782314707268124,-2.415883784990559,1.9496129717547843,0.07533172591008036,0.3634289653397887,-1.3470986959413582
-0.9724215536367133,0.7140811300937743,0.7111969153878311,-1.6303653889576903,-0.8853948801438908,0.3956736042361288,-0.7240270374192376,0.19438300658244043,1.0478955045502514,0.25859846646335427,1.5368941803435638,0.10459763847597603,0.12920071233560407,-1.9282866569144808,1.0414705958931259,0.49174931914473946,-0.12428155833498673,-0.9273026069754231,-1.1977477584848153,1.1037283198679375,-0.603073172507824,-1.4082036200132682,-0.8075408018011428,1.2483231037192801,-0.9459267093192861,1.5139871533713276
0.3273464494938416,0.5788341357367437,0.22646695734313207,0.37536673338492416,1.4328753990501848,-0.28427471248916064,0.2601717178991952,0.5880192798590183,-0.9830336938291503,-0.5178673419999612,-0.42479526360678976,0.5613919634069249,-0.9678440854197488,-1.1254851553084249,-0.10666832628431493,-0.718971703083655,-1.1738543493783224,-0.914468187190417,0.7498478011822558,-0.06404628353595637,-0.1489232042388322,-1.3738714535196181,-2.484523307651136,0.37704775866879986,0.22263096154441198,1.9070417126380788
-0.06352901595035944,0.2888020492488015,0.036351996374336455,-1.0112415625278512,-0.11651109929397728,1.6345530571365285,0.9630684836119641,-0.7159428213253035,-0.8780096117596727,0.5693900013080173,-0.126878243751001,-1.1826243543264612,-0.3688455851205225,-0.6308964768143426,1.6150102664668744,-1.282403104612064,-1.6149717195833635,-0.02314251503764198,-1.4796921761165363,-0.4041339983526578,0.3867144266257209,-2.1840512026371144,1.789129974111225,-0.07486512533192102,1.3823884300594216,0.42572268479260966
0.14743297150521745,-1.8899969486792894,-1.344029291252199,0.32372422675403456,-0.31852751162201104,2.1958620893883563,-0.4471027031898411,-1.5709641036690933,-0.6608143385955882,0.615396967643123,0.10520159663994477,0.5069869127832642,0.4436988948604163,-1.3989292500122996,1.594972002316841,-0.8385925448548712,-0.8527202192686053,-0.6986876258851293,-2.421925492317398,-2.109221957402563,-1.9852722275524854,-1.1727670653687567,-0.2236223886894662,0.8854165778539662,2.6924308950552818,0.7348731629586466
0.5048835519249002,-0.1910617227649073,-1.607268021696355,0.694591435573812,-1.419638156325972,1.683966152609017,-0.48452460665723796,1.25104753201841,1.356069625525431,0.1717519454845784,-0.24243393395355864,-1.1822504017748772,-1.5968751471121425,-0.9592890286660808,1.3786538045908583,-1.487384020206504,0.12911493980335256,0.6561484844432107,0.467563814094645,-0.882881740047699,-0.13345335037290312,0.5622977989701701,-1.7922344974748206,-0.27818495249917363,-0.8762149763532793,0.8503154107328019
-2.3496664662151074,-0.404375306708024,1.0348501025621033,0.8593261112251064,0.6400799558452329,0.4138027451957295,-0.7868864871862729,0.5545808707434646,-0.514127417147508,-2.0254967487356295,-0.032649997570714906,0.37116661081365915,-0.3066311876921444,1.7908578703381481,0.8705693401658121,0.7322106202599753,-0.5210782003286742,0.26816952425734214,0.15784768039487967,1.4902667288892435,0.4969798507555434,-0.7752010164045802,0.7847828995473465,-0.09529199254556829,-0.21981493230179258,0.14778072653512112
-0.06352095512854186,0.6072871971373384,0.202707512369459,-0.4035893702064619,-0.9662352026919212,-0.6588944778642443,0.38246747802211695,-2.4098900944702177,-1.693580691047378,0.8158754270678295,1.2226771978740942,0.42316040378905173,2.0578764672049417,-0.3874035943570613,0.41347775017053623,0.9843502222932117,-0.5047581041902457,0.5078280104325923,0.366649601413618,0.8416909426161859,2.0785065560386626,-0.3489689918579732,0.9894073052271318,-0.6838667405840573,2.410597504484034,-2.231728263004297
-0.2784883901137251,1.5063980527951155,1.0054079662923727,1.885498526987654,0.12449280697134597,0.44926767176960125,1.7448819759825245,-0.9624278244069143,-1.2218675045306029,-1.9556169597304993,1.0261168996139967,-1.416672274142738,-0.1255242200511181,2.2191108467545315,-2.2826960814243598,1.4055471690833201,-0.3541735400082638,-0.36639333396152846,0.9927990989791007,0.3829518424326499,0.9396172911782676,-0.5160366447207005,1.1532975997768402,0.15284793684717246,0.9610587340101645,-2.244124072076009
-0.42005674332038895,0.05193246416594644,-0.4867417258307806,-0.6296485734911399,-0.3791243911643875,1.2728965802461663,1.5107440088719852,-2.1744643175551324,-1.3632181740505185,0.12681695808609797,-0.20318544276033915,-0.4300435005422487,0.20772926253500396,0.9356353595492409,-0.1661264437925071,0.612685922736118,0.07528906843104491,0.01224640002967769,0.8851783391583309,0.6203948306888414,-0.8555098834991911,0.9700350060102323,-0.3247927151803118,0.5335781222333665,-0.14920967945626293,0.7098650188827683
-0.3708711626701788,-2.039027926140569,0.3138530166319671,0.3967695025074769,-0.13325873863123114,1.2042602889690643,1.207609442247617,-0.7121215005333289,0.5871180380652253,-1.4647959188356034,-0.7355206176658659,0.5775355015222265,-0.5075906569763166,0.890819272540195,0.9244780652931682,-1.5460696839264336,-1.0472421554382172,-0.19568489376002862,1.2351187394131078,-0.454507787447717,-0.06603645221173023,-1.1359909249004512,-0.23209340669026107,0.2021100263851711,-1.2065566008596385,-1.738777724776019
0.9334972385604533,0.0791598244318645,1.4955392546373196,1.229070646217726,-0.49032192980683625,-0.20948398391192266,-1.4608936566888446,-0.9126253010358951,0.614664605939995,1.119236566419373,0.08844492513620326,-0.9889962026050122,0.9094835469694181,-0.7394006530196652,-0.311819657867991,1.1875625845867734,-0.8864879759683749,-0.4581508992302095,1.0752861093253656,-0.5943701968941223,1.8867019125919497,-0.3753957699753267,-0.5816720141222703,0.5657313988297423,1.0623689366512983,-0.926698598053463
0.571126882183568,0.7966867975086395,0.9306345458853368,0.1531117593803434,-0.7902836791777825,1.4083010289659652,-1.0905740346027224,0.5564960712885408,1.3362604166616083,-0.6012797911379191,0.6308857890297834,-0.29718356862898226,-0.6988471253305116,-0.6505406824477111,1.0347665936954213,-0.4984636711611564,-0.6759649542212274,3.1154883119966654,0.047774724473989075,-1.7327222498613573,0.3392495897304805,-1.0368441738016874,0.5157364775865996,0.5520196926365085,-0.4024436874473069,0.7782908069852379
0.613181043800737,0.25541832614507054,-0.08483752180302502,1.1533949391724092,0.5590116914997216,0.27882476069617373,0.07328118970483037,1.6218251406060682,2.077072109190362,-1.46313166960219,1.2179756552868155,-1.723254169772935,-0.5837774077534125,0.5701054433497711,1.2321520341717158,-0.04755405763684273,-1.247673609075991,0.9467861814194483,-1.6440793196964392,0.24772086963806858,0.4716838713839309,-0.5161245870114811,-1.026811650964287,1.8691595694704954,0.15424853747827114,0.398994802488142
0.3459206305944744,0.02952082866754897,-0.32203128277359744,0.19197332481341445,-1.3765781657252554,0.41238157123232505,-1.1165799650957908,-0.7583747287016787,0.6458280498529881,0.6538867162087598,-1.2270727933268564,0.5025976169870914,0.6374728526767715,-1.7724242654219353,-0.7370478359938315,-0.8754136909476263,-0.6350030610111804,0.4451974059559405,0.07760035144527955,-0.9603598441359286,0.6044145955156259,1.2129712861717277,0.7346626426440345,0.44416434365108776,-0.596189656129654,1.709944813867546
-1.1124108235293586,0.13656709231849673,-0.03171998199614204,1.2954211503554982,-0.035137805052968055,0.02077966299185384,-0.6174929320037609,-1.2705514974476613,-2.2508497781562395,-0.6527652121471869,1.1320637703254008,-1.359902910259311,0.6016432847575787,-0.7726477671099666,0.8006959861742772,2.5476440383114993,0.8265887234104343,-0.016038091170600916,-1.7611892218194019,-0.2067862616121691,-0.4674316911565708,0.33255183563108204,-0.7981418683218222,-0.13978632775352845,-1.7474056310093466,1.834928666863497
-1.252505085569503,-0.7673783186615319,-0.18069962859398864,-0.06921236592432232,-1.5905960894554059,-0.4680063037071291,0.9623447818281381,-0.8717327563682481,0.9820178888486354,2.231729726691267,-1.2458457655238424,-2.5523158400623696,-0.0327655159980105,0.4712186213219904,2.3515171987003627,-0.010127812390540013,-0.8214948946536919,0.04670698136211144,-0.009613811946105538,0.050623101229379956,0.23865679918675203,-0.010993096737252232,-1.026745546536173,-1.6745342912190944,-0.8452314918158065,-0.044224450803727416
0.2798115816612655,-0.5814295663362137,1.5231395227463858,1.0662208759547303,1.5872933369035118,1.6821206503453143,-0.06209170484551955,-1.4457857653055068,-0.6091142784734564,-0.3080062351720644,1.0684725931082752,-0.1681710656040705,-0.9770096406264092,-1.3370601360892824,0.05753089168011327,-0.3994605906629,-0.05022775430546164,0.18590748812834157,0.11555073654037074,0.81343482251888,0.043338140789330036,0.14722540391189354,1.291792580885728,0.3664359609572283,1.0799634181714046,-0.26215360339107885
-0.48313510941519894,-0.3915616206086651,2.159954748720344,1.7103415039232612,-1.4363796062493408,2.6520165229251647,-0.19267834524406197,-0.3161032599042549,0.6691232340758472,-1.9144528352545176,-0.6632573039546491,-0.5873059909212792,1.9142550299154175,1.3737269993931205,0.17878689486126728,-1.0624881814318519,0.7119971175801398,0.4758199686928253,1.2465199844369867,0.4345530024730363,-1.0799983199654029,2.0867860896006936,0.52822669521943,0.7170969078098605,-0.32833932169195146,1.1682078900103599
0.677270685369489,-0.6813635760494318,0.24579912776878673,-1.4341267412144674,1.0628652187161445,-1.5509299607158165,1.6881041897602043,-1.5512918577839698,-1.681990957857921,-1.8968488741967626,1.982701494599059,1.9847074579260393,-0.24215641902844032,-0.13317818328927683,0.10111341560331433,0.15822723844994852,0.733656941809632,-3.9071583786108985,0.3724185228605191,-0.7274942847052455,0.8583123608220529,0.10219440360089409,1.6206633454811141,2.409681810546416,0.7658105961256518,-0.5974542850436176
0.4654580699613742,0.5341533829930276,-0.2894276229806542,-1.7062424997362766,1.6810501868113532,-0.38786557847653125,0.8648099001121413,-0.07445401749015923,-0.7453079619723402,-0.299568109628925,0.3189081049628202,-0.7980457214559589,-0.2877942634688481,-0.14217404263148428,0.8899889842481038,-1.257319367281495,-2.025827761752691,1.5674221205920253,-0.9697765628653873,1.6561586428853305,-1.614864502834034,1.6650388797820075,0.47311243059350244,-0.5039782063336069,0.22568344129921084,-0.09020695834671949
1.5902415639501564,-0.3569196106740418,1.424276086881032,-0.6628149337523733,0.5783507307810691,-0.6095934363649875,-1.296182261314827,1.7810790824615708,-0.7576692441314327,0.9999977942394654,1.0849749291184643,0.2849085069900757,-0.7717894609469215,1.6980863335011083,0.04152635955421174,-1.2603557382387385,-0.9768294183209404,1.395168274733483,-2.526016859749072,1.7205463038073505,-0.8286509167728163,-0.9065403472942786,-0.43433911456540664,0.9419508927123044,-0.2942921018483728,-0.5766170073754717
-0.37089720804461557,-0.7739168385822389,0.9826702690267664,-0.0822428184852195,0.9547135245844883,-0.1906207793907619,-0.4337910138028284,-0.979410391517606,-0.3843921664754903,0.0631005979750923,1.6647695349722962,-0.687249792303535,-1.0799230575637735,1.1811652403068884,0.15389350407985963,0.5515402614725228,-0.7337099855407825,0.5014079108501494,1.1383538720914792,0.18252348646285232,-1.620077050362939,-1.3763997765793754,0.024525658426503557,0.7545706924870008,1.4893447053922695,0.551314649749157
-0.563499379411053,0.6137716079449277,-1.061683776290299,-0.27810754547515343,0.026481621049149945,0.6533295805234418,-2.148824573269065,0.05645667486780391,-1.1099018566755943,-0.8392884771488618,0.40735392333253106,1.0101627669667803,-1.1035490381263044,0.7035232127020534,0.2586169252787753,0.6704936436370631,0.31400005029948186,1.6364959804925399,-1.1287642866004213,-1.9675626355244134,-0.4223076130621393,-1.6387219492823835,-0.6261342750359998,-1.233658986816696,1.7665031459412543,1.0433144132961498
-0.11719500697445036,-0.4027681033924396,-0.9572491889155783,-1.8338844898004654,-0.6810597724647031,1.395177636872063,-2.770364991574464,-1.8213050126192092,1.1995633443896316,-0.9990232415782915,0.8379471712188381,0.06280639731022847,1.2618511167486883,1.3015330795567732,2.561074842953158,0.003584185956784168,0.44215217808042245,-0.22925957089844715,-0.46467063662076247,0.8475134647043453,1.2008321765994021,0.2450057025309607,-1.0336034979589026,-1.5269099073569263,0.8718802494188549,0.38411104547684494
-1.5747531839022026,-1.331474598674649,1.8456196433249872,-0.3741949230634502,1.3526800650033877,-0.1596011382870315,-1.6572457082727428,-0.33378559651249423,-1.2052464940169914,-0.7971860722932064,0.4638994639939469,1.3549260019434712,2.2233796005686206,0.9766148958871925,-0.6942596003806516,-1.748396788983532,-1.466974586649865,-0.9038713027782843,0.15999550167707655,1.0894905466362872,-1.5078090383302032,0.7567424205158063,0.6456353819169895,-0.9167512396724512,1.2498675659046712,-0.46797373490732985
0.5841867605968868,-1.3777722067568425,-0.6853570186873872,0.35075603149587903,1.0002790281283764,-0.590585932044617,1.3659552539294915,-1.9220842415742636,0.8228593778540324,1.8855584103483913,0.2489200814754625,0.3073844341997597,1.1914512061672962,0.16747016514712962,0.7416068244134874,0.008377514863695089,-1.626962627899832,-0.7168764023896901,-0.7048565095749466,-0.44780817720984334,-0.43898671406194617,2.3025883258864144,0.41168465285832684,1.1839963789652088,-0.4073724156651913,-1.0113742268343828
-0.6707051436897349,0.35438506676550774,0.7062277259624019,-1.4541576064627109,0.8447734161474101,2.3604132401899887,0.5603831904858718,0.34270245820894185,-0.7772681765895046,1.263595612500983,0.010261959473359974,0.29537437035000585,0.9972563249231126,1.1843620493039977,1.5499852754496903,-0.1994451417796642,0.5918625455544753,0.2979155016713562,-1.8998375917670518,-2.224208958969904,0.14496638013492102,1.7558633633659373,1.1369866112093459,1.1580307914020704,-0.6971376118551091,-1.153886787229307
Pesos da camada oculta para sada
-0.3878542267153294,-0.15486732463036065,-2.1333276536622865,0.337349042672656,-1.0593126641182717,-1.2036522813487212,-4.668368302729755,-1.6278429233786191,-0.9646305201156223,0.7755745181107275,-1.2602334198510066,-1.1245940900790383,-1.9565237766301844,0.006026937216483743,-1.409308908092143,-1.3494125942110902,-0.26863806775624816,-2.6095851419207596,-0.8623957927045418,1.0284000058235063,-0.7916675715729757,-0.7915745194638879,0.46357367313511105,0.1411824465117118,0.8639693435565025,7.334764240739993
-3.630294125763578,-3.889480933239574,-1.6343477435083955,-1.2091995609229065,1.2747613760148042,-1.669111250582859,-2.5084774110476395,-1.0195276726900997,-0.6207679137715508,-1.2523465038490544,-2.6130912289445485,-0.9635706068885452,1.4041070304358207,0.5516146128014048,-3.8343424316463612,-1.3227430317278537,1.9555542371227324,1.179443862314536,-5.191766664167358,-1.6442061192447799,-1.799136679015444,-2.752641106867545,-1.5440163626515555,1.522183999375257,-0.7901255274932223,-4.159414185343107
1.368747457718489,-2.4201926960053717,3.222570220031411,-1.2596074440549394,0.9349186749502315,-0.979993255614095,3.03398060244603,1.1976796693754674,-1.1091053758198754,-2.6574153936253526,-2.009883429804226,-3.008257815939594,1.1400628706068023,-1.0100732280420692,-3.7173140742684336,-1.5343464510310487,2.5233059034832066,-3.356520854087931,-1.7264159795683405,-4.839957272256462,-1.7312140810023553,-0.3156646191636066,-1.3761705314489365,-1.341197302654273,-1.0625901184239035,-4.503328430153607
-4.5779064155845095,1.7072249096504042,-3.7963317168898296,-0.7158786202948227,1.4842503357155192,-2.4991376300677723,5.460573453553121,-0.06590639051987923,-0.8327810994997414,-1.9007061488157642,-0.0009465837233499019,-1.4869517321917747,-1.0143819210103973,-3.9446441067160545,0.5424852358429215,-2.5047711032430935,-1.0769076484108642,2.0017236195109933,-2.3019912229374664,1.6049499859266976,-3.0178277572764514,-1.5634708799581354,-2.06177753997394,-0.27334949046223284,-1.4043395943847519,3.7048160946526134
-1.2175575069929225,-2.183886455209139,0.0043317847815406004,-0.5330500455068622,-0.5164800692778359,-0.014997149959303228,-2.546739306285214,0.4378502467020474,-1.7820117767156212,-1.0211376340391276,-0.3769202543043552,-0.3022937958527484,-0.0609655950112747,1.4685490278488769,-2.0590927416581484,-0.7009018405261024,1.7652923809183358,-2.936460049280049,-1.1113168245523293,-1.2439785952595137,-0.814620384291991,-0.1330570658145027,-0.1865959611658143,-0.40681679634237305,-0.30061880929557944,-2.3515435936589637
-1.1354551522699972,-1.579458200281306,1.1346405497121983,-3.4132795917693493,-1.4343089180659738,-1.4128153882307153,-1.318378156342466,0.28129525041348596,-2.0746595444634495,-0.6878921033831057,-2.391135349065825,-1.2663171715841695,-1.9240765197101677,-0.23084331906835998,-2.731690281547729,0.42054164160005786,0.765666108793997,-1.3929436374784525,-1.1153711557072905,-2.691439876239892,-1.0976073381258933,-0.9821274909657911,-1.3576773791145849,-0.9093073397619427,-1.4105871464534188,-1.8074741236297227
-0.2310758395714295,-0.42965760287362137,-0.2729298659537337,-1.3711198748871722,1.2421945711260407,-2.001120615943974,-1.8237745645818906,-0.9165426106530725,-1.495554934584691,-1.507048199493222,-0.8861667311737513,-1.7994865099883193,-1.0449647783437268,-0.2593439696745894,0.128714072789916,-8.414367943150296,0.9307541726229193,2.3463251173551685,-0.33245231015321036,0.15669719701139687,-1.6802412542464475,-4.057721679304648,-0.850395676543562,-0.8088004356037699,0.03299539199942932,-0.9723561843053042
0.2568998323435995,1.1723958267370722,0.5223064665240105,0.20261664615041056,-0.9173470049544808,0.515747149921517,-0.19677329926044915,0.5225873690012699,-0.8446990765282831,-2.2145620383315583,-0.20201667641474416,-0.27082651213754966,-0.6631954710602388,-0.7249713629360643,-0.7991535629695709,0.20947068684307021,-0.7236144401798719,-0.03714066212084167,-0.5695716717504489,-0.4554762613234585,-0.9987723132391277,1.3073929440487986,-0.9627751762208607,-0.1280568710683878,-0.5346194906331265,-0.04759275158164569
-0.4967280425021848,-1.438847608102686,-1.1433607826897523,-1.856101274407553,10.772301745720146,-2.0846418978079875,0.0023983076937709514,-3.1077874849500295,-0.9063508721972241,-0.8350549684420588,-0.7017153452777679,-1.5081987852243735,-0.9668505242608642,-0.23612438878628988,-1.692323462248423,2.4529068125072886,0.31767465334530165,-2.700852190819722,-1.1876829216468257,-0.6800820359473488,-0.20767621524133578,0.43721203692218136,-1.6111480957214799,-0.7578559728493175,0.43211319327181075,-3.343401829925848
0.2860664393431138,-2.4510069107077133,-1.2865206025202653,-0.9795429993350591,-1.8471700586024882,-0.41361125740085847,0.0663713861388537,-1.6508246904321875,0.23132378068290216,-1.8800043917858835,-1.040355910494541,-1.015344053273291,-0.5914914407546599,-0.7241834669680305,0.20781358300373007,0.1120744908720945,-1.4340737764540032,-2.529667645433431,0.5694744126454095,-4.96989462269587,-8.706604313128645,0.19504041521617463,-1.8646573911464217,-2.169298191390276,-1.4681459984512464,-0.5942014440237329
-5.414621348657369,-3.311999217550513,-2.4368881018555997,-0.8540123923280313,-3.376923742020692,-2.297327515500748,3.0827212663919026,0.7213512696013188,0.7675280830760388,-2.880772182046436,-0.46682668228468127,-1.5327606392422444,-1.660382455043077,3.3740373745200793,-4.666252593543972,-3.971205109187417,-2.0223657700394306,-0.6799750690281823,3.9250787141338317,4.182920753436369,-1.4964829894757596,4.4620958889928195,-0.3762995970035636,-0.963699920942507,-2.118450756812878,-8.796321533512609
-1.1070141573523673,-0.5481203488962879,5.052476695719537,0.858491667616037,-0.13855045273274733,-0.6696189178857116,-2.1015693829978552,-0.034653106757385914,-0.38640329274080826,-0.6416305368315757,-0.28809917231916177,-1.1791654679690478,0.09021438423505555,2.7899732612544548,-1.5621377094760216,-1.7515075942976837,-1.7660237903815281,-1.0894472607767964,5.294264054455287,-2.122149103742465,-0.12061301734695673,2.0482623054666,1.3547615353863807,-1.65228295562595,0.5154418583650286,-0.5976904395920406
-0.45529750766209787,-0.08728065870480808,-0.9281127662296289,-1.6560559896326517,-2.128528781275376,-2.78742174305004,-0.26485157516882213,-2.8927171812820323,-1.4034200311571012,-0.7761154968336279,-0.4933888163305425,-0.6771449900533248,-0.5268257384512053,-4.9429721057108,0.9779949440603296,-1.4519546644765762,-6.701361598863445,1.4177751081456778,-0.4531433606542878,-0.03896115718488701,1.020529513911173,-0.8843781889688658,-0.42787910625905584,-0.23248240376990528,-1.4545898807787354,-0.5096411763740964
-3.636824651826598,-1.8696168195438412,-4.2720828795825945,0.23992826279662052,-3.4240288737305065,-1.3804487454334808,4.856675912272342,-1.4688389733440657,0.6099951280390662,0.6156155581567843,-2.151676387637131,-1.5037022556780941,0.0687232361933909,-0.3927555924827075,5.956035311606321,-2.1421762528454673,1.4709719279756481,-4.107194624095286,-1.6473291398825047,3.2862883109319005,3.0172561285770776,-1.771039987464261,2.5137044005835825,-1.2581574781851188,1.2373286921192326,-8.550412594305916
-0.05487723600336018,-3.6462258083184267,0.07706302795851347,0.10834666907340534,-1.1916317276778972,-1.0899007264451264,-1.5078180389307867,-2.539999635935389,-2.0094047538291093,-0.6789292296461484,-0.09204645897861223,-0.5864010231478084,-0.2740877707897571,1.102093794795169,0.24332048750120638,-0.05548141680846852,-4.311147756036555,-0.5457663710588243,-1.667453430516303,-0.5127535378564263,-0.04340208848718254,-1.153585677039461,-1.46057580800918,-1.2225076428651926,-0.9682386303492748,-1.3685413787833678
-0.5419281395551121,-0.39398216795561114,-0.4166243354919623,0.42631236119715105,-1.3830568596048065,0.6621863130757025,0.35213372660672415,-1.0938419414161331,-1.0569736886322574,-2.0443294738575606,0.151832262091385,-0.9097113141720525,-0.7866959287206565,-0.8637904050536153,-3.1443773711142176,-1.5467612772831563,-1.1092363165340395,4.312237356871772,-0.5568514927038646,-2.882691763152961,-0.4956594466564641,-2.1309457336843782,-1.5128370502314437,-1.960312913134071,0.8307161775907792,-0.5653151162696155
-1.7542505955512875,0.38593367120651645,0.5661648871580885,0.6060526506807268,1.1322664300487804,-1.5929144015222552,2.0424720269690986,0.29245089629309967,0.6382672507580213,-0.7775373432277624,0.32662215898773933,-0.9047453488692933,-0.1730685102315094,0.41013552109804624,-2.1257346828420958,-1.0720013193074245,-0.19230340114065467,-2.351000735175363,10.908439200467352,-3.4286756812837917,-2.198642610662922,-0.7379567764207456,-0.6237043515885645,0.5628002141731623,-0.9368327559996055,-3.4519945344176635
-0.3332520147480529,-1.6872779967937548,-3.0447041013220275,-0.5183452870510596,-4.304379602636272,-0.005630440714799367,-2.552099422371909,-2.0823833772910167,0.06420260015220818,-0.9467336924677476,0.04232382578428021,0.6976387414604958,2.736838228212353,-1.7495906290847139,-4.465536294109172,1.3414827086466758,1.2319110074896342,-4.590718500681725,-4.862702424242498,-3.9679469944076846,0.44893521633713523,-2.808477475475479,-0.5691170174056598,-1.1078565458759797,-1.5811929846042265,0.8633246165544533
0.30807636686573747,0.22553214464858354,-1.3888350775470923,-0.34203086773870855,-0.36447624718691485,1.0642210174541866,0.1231100694837756,-0.34087066875059424,-1.8604628207217104,-2.1078844224985787,1.721872335836546,2.267939971526146,1.630436814669118,-0.6377849135230191,0.5057035697528518,0.8983544739102782,-0.054006665702825224,-1.1567279989380532,0.12449897998536255,0.7147719858980619,-1.1005588320588602,-1.6730783646842,0.5166796962165396,-2.266892928885364,0.964788448474179,-0.8579254177467925
-3.0657371825434994,5.387106612376343,-1.3704382776300883,-1.8596072508128532,-2.736414032699705,-0.8125046954888726,-4.9978104612053285,-0.38198931646648615,-4.062458628129534,0.35315913284679584,-0.7868702290371206,-0.9204046661212063,1.5131110738610638,-2.3626073934214666,-3.6678069811930243,3.9054256979063475,0.36704242408059945,6.189884715303436,-3.5440724511091184,-1.8503322292814732,-4.9661414970318525,3.662026621954332,-1.2090106043850781,-1.0214371768400663,-1.2283261886005716,-6.068166696550164
-0.6019700636677098,1.4565144275605055,-0.828141904686873,-2.419871869823182,1.1964165315867956,-1.695831162149625,-0.2491358956927921,-2.756560001223739,-2.0667769709879216,-0.6060902055105356,-2.508111542519448,-0.3116117348506086,-1.9009380503330109,0.022594489188397963,-1.1664618869758068,-1.2775719542074309,0.3693397972432603,-6.1510287151936645,-0.32106295644763044,-2.1460210935771733,0.899536337693082,0.029648919924183927,-1.472403948756195,-1.4941555887468172,0.19815754146465542,1.7847389526124968
-1.003389362934683,6.624368438703273,2.0411921719009385,2.048971625698175,-1.1290252641394323,-0.46968154621108005,7.013406506488067,-1.1127853428884111,1.095431334290115,-0.19306215105184632,-0.6989201772617613,-0.6306517152236433,1.930241470952399,-0.8731972491504942,-2.98621770877513,-1.1272687228409797,-0.5243812124991831,-3.049219329268516,-4.086033427340808,-2.0766899440395177,2.290784795703832,-0.6146775953292838,-1.458788990812191,-0.9773022767054493,-1.2243776934006287,-2.4201120052859895
-0.506102348913615,0.9186427043471529,-0.9103909595304528,0.5403042411568776,1.0086268060725947,-0.4888598223762442,1.5216300110927738,-0.7940231959750568,-0.47340573463753816,-0.5966033550621493,0.10582794717617103,0.42532714660602183,2.534724499997721,0.5039729636850817,-0.23984345685882535,-0.5757298649949967,-1.720065547629901,2.1716912379298,-0.5005263064120188,-1.8554440311345033,-0.9583606134004272,-0.3408638251190585,0.2850855119044549,0.5721183733983176,-0.5326409000239523,-0.82478610601256
1.6575825278840286,1.6603174586901561,-0.9431481588363823,-2.9776382856788244,-0.09609113793024664,-1.9187202080836911,-4.8750704083129985,-0.42843146661463166,-1.4799455923400158,-0.4227885222247931,-0.3091594983267975,-0.1462061256235971,-2.2111046515381703,2.248998687112099,-5.5431954374923835,2.2013877783294573,-3.103095781950928,-0.9009818482413967,2.3584081419101284,1.5445370882347382,1.5305656916292658,-4.927623176485578,-1.6804465195615057,0.7000045903842095,-1.267082762739754,0.9290921675159654
6.329545661466671,-0.6707128015464279,-2.3642235650369936,-1.8745933953315652,-1.8942227440349655,-0.6753585241676678,-3.5814170927597346,0.14260319480424213,0.10270040011972849,-2.196601291058787,0.17950876702951774,-0.7427479578363425,2.7110169849983548,0.45285323154194224,-0.9353466402979519,-3.0734107044189383,-1.6585599544579341,-2.4412325506844073,-4.763788604426717,7.051680162361168,-1.8550861311730957,1.7297902006240093,-2.2310956074945345,-1.73450754189973,0.4793864534338308,-2.892857618645061
-0.14905064439961663,-3.3584006900603987,0.13713414263927098,-1.54622309179526,-0.8924875872253961,-1.2771228080913097,-6.4065726655983815,1.0127121118416262,-0.9703654936493514,-1.9217463534191677,-1.4688399107925103,-0.4028699418548486,-4.4488763928555155,-4.545974509097654,4.741977374168073,1.930509578118934,2.4138247028283546,-0.07637843283694774,0.37404646936082203,0.6476155248230303,2.0516790160068092,0.9354222138653178,-1.9911179942034967,-2.9809952466301146,-1.8650452977091152,4.130759957950965
