Pesos da camada de entrada para oculta
-0.2721490147565249,0.9248877473273274,1.8907814357144086,-1.3607897185661566,0.6645564596258818,0.020256082218050184,-2.227119320245928,0.5688962468105987,-1.40421680272166,-0.06908105673318478,-0.5260882419724103,0.19739869569999322,-0.15867600640955762,1.5313568696262347,1.1246660117634022,0.2346600048299553,0.1474386977243886,-1.8775770994360403,0.5948198528531706,-0.9991150697573554,0.6578401766309855,-0.24511556480716393,0.2179892028489352,-0.19780619223569199,1.6853477179437726,-0.15600016852303036,1.5875959722400164,1.759963096854656,0.05171040065264071,-0.6030159051456823
1.9354402643322919,-0.98237143399192,1.0824142579717184,-0.49995622924911987,0.25200259936264247,0.417050784176045,0.16663009400260137,1.0426246164850057,-0.4511187393952214,0.030247183712389405,0.01867407740636388,-0.36635463095615756,1.346062127409295,0.6081853171359056,-0.46160083936104174,1.6955036320587729,0.43123013909551516,0.18265553867910647,-0.6803628976188043,-1.2787089878174052,1.4411235486666623,0.5815960813266167,-0.6667325406392446,0.6160856513216717,-0.1005865811969494,-0.48806761320797665,-0.0945444978645481,-0.5514965180555739,0.45769603350334365,0.43531662636404295
-0.7741890760417931,-0.9027971325507411,0.1662301595139455,-0.20354197115146486,1.1429581711151469,-2.2112588700196936,0.10440986118447143,2.1445358850825333,-0.08948340562208716,-0.23290794501282555,-0.6649382639710703,-1.347075382888602,-0.8093944511786267,-0.9564949780808041,0.46593884099032107,-1.274247356216552,2.0230736980321864,0.7699506282179994,0.4643958419721867,-0.9482862800545688,2.561802244785611,-1.4191125521892587,-0.4818639343495495,-1.6833570931378863,-1.4840151705932272,-0.26231225476236925,1.0601611683320666,-0.1813033729275983,-0.2988759212712969,-1.3479355832913327
-0.7718085356864849,0.16846187304765742,0.33826246469181454,-0.880867254032928,-0.9102432600113921,1.9474996433480576,-1.0580695632589099,1.383582194910843,1.127474347198881,2.2548826190118607,-1.049076999053922,-1.2081149957268624,0.451907120253436,-1.7805541877159863,-0.007549743856706745,1.1139703820357847,0.012966982797715404,0.24454438260902256,-0.290241370544038,-0.5547334265523323,-0.7379741437067111,2.711280052820452,0.4381240529054711,-1.5076230051625457,-0.36478975541741954,0.5046111309601202,0.7105692138467847,0.22836270276190782,-0.45768518131427816,-1.0959270951624547
-0.03173086398532407,0.46172119686087576,1.1025153894234823,-2.220505418965262,0.48960412945827597,0.2553982497648029,-0.4094363544534562,-0.13003096904036518,0.7491237719139444,-1.6136251416312406,0.37129092722381335,-0.9984979555714965,0.01448145762069167,-0.9387916151640502,-0.054791653887967404,0.9630905835508572,0.15472629759350395,0.763007013472228,1.0027006097539775,-0.46577367748053916,-1.8166173568598813,-0.3172886899648832,0.17255774382983533,-0.3980589075166079,-0.18449117115291,0.031591813524009874,2.48449093327515,-0.5872515502247557,-0.5767991501690087,0.5160175077721141
-0.7513635250835417,-0.2611096255657864,1.8435383153011378,0.2783032311544507,0.8516583806001917,2.399597466330757,1.377376401580248,1.3454398851592988,0.31655029841490095,-0.5092198876272672,-0.5903179648923761,0.11096142418180202,0.5740612626614531,0.010664099287429939,0.17817026980537332,2.3708318389507843,-0.14002853952153535,-2.9105470041900046,1.6860903534028298,1.1326309582063676,-0.1313090273259568,-0.09203860137923758,-0.5392746102231479,0.41573966231583165,-0.6771983640477317,1.2898275770436283,-0.016403853067270567,1.468951985990747,-0.08137013675175563,-1.0732079196119326
-0.3449782179293035,-1.355027427571221,-0.5579839867517674,-0.25100926533206136,-0.8747339842155833,-0.4986112321569805,-0.9754804326048192,-0.31715439144485713,1.4629453418863916,-0.5870741973184332,0.7435436742026578,0.2504781944698298,0.9538626140801071,-0.25571330178709784,-1.7049049807240622,1.0740560007934912,0.41760510296929276,-2.2774357329579367,-0.2355868112797919,0.5694072819010483,-0.0042691374830829115,-0.6244854794989501,-0.6385842794826705,1.4671529468450777,-1.1911843594032583,0.8230505445675199,0.6084347339781961,0.5560410809460101,0.44311804597152654,-1.0532890355818887
-0.06497443678444859,-1.901958553906189,-1.407050673130217,0.38718285873315433,-0.08143763054612067,-1.3659491790740266,-0.9011212805535569,-0.37686188139786936,-0.775272165567916,0.7164550487493078,1.3649529715255453,-0.532851800143963,1.2430160464797329,2.2929853759911443,-1.6783493432248666,-0.8905776300672948,0.14901796879771442,-1.3431017990013658,0.06484615234330217,-1.0801123959820413,-0.7636125998452469,1.6598715115823484,0.13122653712159976,-1.1668250630426562,-0.5464637355522375,0.09273081241676875,0.35273155409272483,-1.6734939203913808,-2.3260333536973663,-1.166064577038696
-0.9750354459990588,0.34019595029026606,-0.14313484677313396,0.26000763655078024,-0.30385680933917714,-0.6447499740965897,-3.027012654596404,-0.1330672470303628,-1.1987557480172577,1.356522569991584,-1.4476170573265639,0.7182650285974141,-0.0256663062997801,0.2307350579512127,1.7900166956695247,1.6722545827646396,-1.8125151457022048,-1.0207699690171812,-0.702382437446168,-1.845617562668157,0.8378586341064288,-1.780550803330238,0.26329175206314676,0.7662817841421831,0.4488596932781826,0.3518670184273399,0.20593695566411835,-0.28130142216823384,-0.190413949219465,0.25065808622286023
-0.12243759120222557,-1.888469830440518,-0.36695157431981734,1.7237849340936695,-0.1327078101951834,-1.4624390077803278,-1.2119962738081582,0.3203727937081643,-1.2757243665581925,-0.810007737874862,0.8897705762326944,0.7523424622292789,-1.258830131283787,0.03980499498025583,-0.25215057329566826,0.9174643367726936,-0.35355913720370696,-0.7597226964837016,-1.5952015071269876,-1.7692675133168885,1.670220841861368,0.3237431474481248,0.4252084647861243,-1.8791927775504897,0.400418151403546,-0.787435503242599,0.729677075817617,-1.5360993489356576,-0.14130380568309558,2.2008927717753206
0.7406303727049264,2.7060085965675915,0.2654135989262944,-0.1104772048537485,0.8786938409823039,-0.07391163704157407,-0.6643815875061333,-0.2794988635376992,-0.7181888693332059,3.2058179067402555,-0.5245422345592861,-0.6253937370294033,-0.10664899359152383,-0.09113676863657644,-0.245175917088678,1.3780946822201867,-0.6621371623677674,-0.26207936885660527,3.0051494791539692,1.249778797764472,0.09538253797631999,-0.3889808241722158,0.70369240260803,-1.018596466577821,0.17150015777114846,-0.6757407163368331,0.24301242066716708,0.0288636102847003,-0.6173819968344121,1.1178816641300349
1.0913330686165785,-1.0010548818800837,0.010932418486387385,0.4747415947894837,1.192342807813139,0.6773863536939774,0.9058329233377868,-1.260445684654161,0.7763013207532966,0.14235061757971545,-0.6765714954748118,-1.4840120622875403,-1.0268620285207588,-2.5029218362147914,2.8249856923390113,2.461896872518406,1.393713014233234,0.4252325212150207,-1.3837170726791101,-0.04330063196048509,-0.032264621621614795,-0.5384476235596867,1.2527416402499039,-0.19340911789843673,0.9562647430137377,1.7481277115540363,-0.06530685602231717,0.21251631815855765,-1.601734947348858,-0.675331702518859
-1.2975224720892558,-0.8834002148540042,1.9828561352848226,-0.6961248378125691,-1.071263255122629,-0.9762435608243063,1.76367419690279,0.45390620178562546,-1.673780333946577,0.5966166449113588,0.9338677406463908,-0.31727064746237016,-1.0867226516637887,-1.0331413327614256,0.509300023172728,1.2648040861437,-0.842490133851962,0.9958363265322551,-1.3926010877041852,-0.3261905617908773,2.672857643261289,0.4058603660761205,-0.6095271000268774,0.2962966158317768,0.2178421299268967,-0.6972133606138519,-0.2054476279556985,-0.36901203293971724,0.647374164328649,-0.41699893105451913
-0.5351921997568492,1.3169317137487928,-0.7552141719327091,-1.1737880115078632,-0.4441374207352218,0.6017607572711882,0.545276845376421,0.5910125701557712,-1.3145279318263428,-1.455026945067242,0.48657446489663264,-1.3069462634203848,0.22947068446098592,-1.336410032539394,-0.8454144520232496,-0.02252887618033828,-0.6218487396097241,-0.5827435136749541,-1.8546271930464093,1.1725232849633114,2.188599017223001,0.297448917732361,0.8516943336789112,-0.12024021952678152,0.646941823648801,0.8116022898603605,-2.844367446882413,-0.16119641118045736,-0.22221412919021533,0.09234133034783372
1.3150231227422524,-1.249836448855944,-2.336178198707017,-1.045023346156492,0.6553509023018568,-0.0023682323274575702,-2.188659502162386,0.5777137125045185,-0.18139613501297824,1.3499219336978807,-1.6856853864687937,-1.7317389888154586,1.1283091195354713,-0.24692137426102562,0.8402591350379981,-2.2667051008541073,-0.8255173161943075,-0.14161646796253546,0.5971360679421319,-0.08441427808067849,-0.10412545281199821,0.7920804834599592,-0.6139102634325063,-0.8807913018200965,-2.1226059802923127,-1.2415635967835612,-1.4655296088643224,-1.2232598601633067,-0.8520776147432475,0.786254393747708
-1.4763376599933824,1.327051058823765,0.03084605394200465,-0.007367860254107091,0.5599666573296611,-1.3401416515333786,-2.1220409360589527,0.486641563436004,-1.3411911933382843,-0.335450867264199,0.6113063102371634,-0.9718269336069894,-1.0692036835039866,-0.5445989109048183,1.1217481287945341,-0.9090969831524807,0.09387666050164256,-0.3578319182370173,1.182924984568285,-0.7663435633934353,-0.8654150739909432,1.1192175472339851,-2.291886718855898,0.8903902206279283,0.89567692744482,-1.1965177397292082,-0.0818336043894024,-1.0652915811680752,-0.6665487557854982,-0.40168599748746747
0.04445820625842619,0.12104238286330492,-0.28257364217944353,-1.3953133468954215,-0.3564483038409658,-1.0008245297811464,-0.9151082287862224,-0.13480762793833406,-0.6140374995527557,0.6581032351194727,-0.4935581476146694,-1.2876415846257199,-1.6983755597303136,-0.14078390905802776,-1.114010755615227,-0.9678379262480028,0.8649250223312048,0.2688293899595123,1.2902178732308078,0.5014274638550187,-0.4195239988365716,0.7963836883662653,0.3304408273970008,1.233650931683889,-0.69538804820696,-0.13644686081356658,0.30252340788610826,-0.07385748090197704,0.24103350288905,-0.9461968553901638
0.2512132111736,0.6803165148127593,0.06578428362343638,1.4495537839361816,0.7801023891967128,1.089410698103424,-0.4541659959401168,-1.2779603849693213,-1.383294739133461,-1.6435240227053938,0.07530988407058796,-0.8122389346713479,1.7493790175749913,0.05766256303037794,0.10252118816995277,-0.35560421051380625,-1.6508925504897405,-0.7230296062240821,1.4346763447685986,-1.7474684091978574,-0.14269182729498212,0.38867420021873744,1.6292113006339415,-0.3140663012929663,-2.6479068707307842,0.8806805121885362,1.2719875799730622,0.007546176828352666,-1.3080864203459575,-2.3263035105275627
2.005076927932111,-1.7783903214041519,0.08193996609554846,0.6736706553887373,-0.7709281852772507,1.2019217112665113,0.33818548994355646,-0.6979575192256429,0.6707967195439948,-1.1651358490311645,-0.20565200814231474,0.36961645849925934,1.6740470833447405,0.1291218348784588,-0.520390368001098,-0.8237467459588547,1.8214751449420206,-0.7014871380050102,-0.15859602589032398,-0.2536792319411495,-0.3027440218888101,-1.0271938154735054,0.30195556750087604,-1.0967859756663303,-2.374872331154621,0.8334032842715157,0.7606573573727188,1.7507619428279058,-1.271798359394799,-1.0227632063162682
-0.8838539276382879,-0.7783689262784891,0.16564024675232217,0.7206352841232697,2.0882950583673785,0.04163242350509965,-0.27502644576558544,-0.9340809295801307,0.7935207253877354,1.1416510101095778,1.3552690884057441,-0.9655682669457074,-0.2973348719768855,1.3850938692887826,-0.4576329521134414,-0.3479712969148951,0.66473150686014,-0.11382689757674914,-0.30134183504159956,-0.9130007481360136,-1.2648687151430165,0.3970993532082652,-0.22087926145193004,0.18080136605382002,1.0615532190131731,-1.641167775343071,1.0625552143809778,-0.12957747456145102,-0.0766673945338778,-1.1727929791339087
-0.28115888168510145,-0.06667205786402126,-1.9499411253183097,0.9622530048411151,-1.4351508231115355,-2.163146528502886,-0.810036710283106,-1.2373172327643258,1.045847931649456,0.6018584796954717,1.7654135366375237,1.6715132196411002,-1.0057661525128077,1.2917914999153577,-0.13479536478852872,0.13879882463699275,-0.024885528236499966,1.2538781752720762,-0.35895852231703507,-1.3129966287071426,0.9832356008595892,-1.09432057804324,0.25099935095947745,-1.7141966492085001,-0.3319477261080328,-0.684561567817081,-0.48547117177653837,-0.42535294631166753,-1.341700988413859,-0.5947282572925736
-0.8146934563864486,-0.08701975581885457,1.286513927806973,-0.41991746729712265,1.6555530627882775,-2.9008111293681718,0.4402772541206551,-2.454195497795513,-0.5133025110130501,-0.31530583875373963,-0.5466256488873522,-0.10212595149785614,0.7272176385940482,0.2879688254579708,-0.5944844432784212,0.5764034548297376,-1.535082786713176,1.933833852594642,-0.5145254342041765,-0.3721607496923043,-0.4232717521182375,0.013187961171425582,0.5080944603696534,-1.6982155483655827,0.37672348315181153,0.7673129062482223,-0.8062549868129981,-1.7797188257615386,-0.7728750832440859,1.3015497355255263
1.4215666053819727,0.6463637513539301,0.8328904946202953,-1.3554709778594867,1.4430496063777412,6.89721716067939e-05,1.2026736800493067,1.3981121256429963,0.6491379643948464,0.5335342139173377,0.593058350286821,0.0905594061891155,-1.3470401230138547,-0.5788046790749095,0.4592948301281752,-0.5174308565362578,-0.6472737646757077,-0.7164705659347245,0.29480825504453795,1.6121782942641518,-0.44306858026532003,0.6431072660984274,1.9330881591105629,-0.6808346869748827,0.6475218090778215,0.36648853782141816,1.6187619003215186,-0.665507759100394,0.058756289332733344,-0.9959506026178976
0.7778595593340296,0.035164737509013624,0.053001542106044006,-0.6598441614629964,-0.29724558257310274,0.33534485699182265,1.250909807974368,0.8506604093650291,1.4986371764696071,0.0778001908454109,1.245234032656436,-0.07130022051775063,-0.48224344323888096,-1.3659142163452516,-0.3558688682333081,-0.3080437372410789,0.8010273826457642,0.1616681704773017,0.66948884198937,-0.6972891324837442,-1.0956767934364342,-0.08549936761074661,1.5751002968108252,0.23866330433021193,-0.041645809293490606,-0.12899582848793167,-1.4667741399839829,0.6713569825366194,0.3786330590612399,0.1755203578242727
0.13866751239850317,-0.5996257782307279,-1.865355313938537,0.5538710330739005,-0.37236902697943003,-1.8998643671327708,-1.112698849180862,1.6546862241844962,0.41708002088895774,-0.7554106243308489,1.256578021967567,0.28560963985594273,-0.5312716727126159,0.5558929075458878,0.94286406564761,-0.45179311331980726,-0.19546524371558016,0.774316159513318,1.1954049724504643,0.745251433713388,0.1250646803693545,-1.072092047749143,1.5045145310829238,1.5248044788686672,-1.0397241499425145,0.5521907901376171,-1.3880739682684264,1.7840233341973166,1.0116103071383964,0.9950658714265102
-0.2616962135174684,1.485083435417868,1.4541145512921985,-1.2376652572555087,-0.06439061645921453,1.1192752874421978,-2.1435620248852105,-0.11045165245345596,-1.0079320529974092,-0.34620500471967874,1.9066590221024897,1.0001509756094848,0.21620656283772463,1.1294527339937934,0.11006646971932939,0.3807073272084699,-0.29437611056677215,1.7178185945133853,-0.39102911740008295,-0.4794556573108754,0.1444836425166288,0.5999399205841777,0.04635675541009623,0.5249370916793871,0.5923676619299556,0.47566445132866614,-0.6678204079738436,0.319550868252431,-1.0134184481129358,0.5829890342110885
0.34627521926729316,-0.714878562451236,0.9272413513945201,1.1048375818693241,0.13952886486877772,-0.8389162952395504,0.43538364008509833,0.04432910346088997,-0.45718973721630807,0.652031063568916,-0.8619198315926986,-0.6154504674702782,2.3749495035773913,0.4114912895604711,-0.4720279874508718,0.29194567717566194,-0.9584437194357324,2.61465206044903,-0.38395988154322414,-1.0953705505087115,-0.8504137811564383,0.08382389690395012,-0.5338996147559752,-0.02221524189711966,1.0539650233485034,-1.6974293126280398,-0.34986624420500845,-0.5993136246102009,1.8365709195456112,-0.8709787462529764
-0.18553871363282337,0.20889448540899067,-2.5203250093652128,-0.44057960531647317,-0.6630484506249145,-0.9148066998345388,1.0446482915583482,0.298518018287569,1.0353574122221478,2.6917726739201253,-0.8170292469239092,-0.474404163986319,-1.0533171121259899,0.11919850438900019,1.8989497564320212,-0.8041176980780802,1.449001350724199,0.2703366433755965,-1.7141007293541017,1.1968792432625575,-0.7158159258096942,0.007745246579390129,0.09004517158480715,-0.23320796633037882,1.4906295649430028,-0.3375785628001458,-1.1741202223725962,0.24128332869353797,-1.2982694517047826,-1.097983479681764
0.48286503192474994,0.9351889207205902,0.5381482153800007,0.5319943395047679,0.5399736552936654,-2.1027577995346767,-0.7066968039827829,0.18121200701181686,0.4659429164727289,0.006805048677722559,0.8202323203829065,0.0869513036220894,1.6531045874077785,1.4162491497560474,-0.8883653600439931,-1.774365706757719,-2.0896514907383295,-1.9954852915565635,1.40869087460315,-0.7709096989656927,-1.7159564040627104,-0.06044053918890797,-1.0004622329324526,0.2513300557396118,-0.895840311978501,-0.26682924928127005,-0.0954107481020311,1.258891064780304,-0.14877812331256487,-0.948227266503016
1.0153398918445893,-0.3340877749938972,-2.4492601594795205,1.9782576259043703,0.2195367892722532,0.9769764404508919,-2.290985191756643,0.18601856394314262,-0.5030025036433347,0.39481763364051964,1.5494291617432654,-0.13858519335137018,0.002450612282755532,0.2110414136038122,1.045285921222338,0.905701242211767,-0.4570796942146244,0.12905555629611654,0.8477692376258991,-1.6639235813002888,0.037390672724689655,0.06810098736436188,-0.02160589639507281,-0.21562884661193096,-0.8150235591379537,-0.8211539063811745,-0.3390227231687119,-0.49057341358086637,1.2383509148186034,-1.1092385702452394
-0.29573018178298516,-0.6238620659023034,1.564809167790561,0.8994780115083427,-0.6354072823828942,0.8882114168478239,-0.4882292710511921,-2.1135260385060533,-0.8596006533370867,0.014044908443450552,-0.027514523512380026,-0.7658195945723598,-0.29290343350075826,-0.33691157712575864,1.728702401692009,-0.4689068895454584,0.40236443801275945,-0.7390141488775064,0.034956199145530026,0.09190218694433172,-0.286775600071211,1.7148394787972254,0.9230548141039597,-1.3792175016211934,0.9756563837795471,1.1222928393908005,0.6986024909093325,0.3676311745992366,1.0941001715002177,-2.2289093217093368
-1.7604156832107238,-0.1026129713355298,-0.26585412712418094,-0.04493003737803983,-1.3760126063113083,0.6564704951795306,0.5438595340485567,-0.653481574572088,-0.915714236960731,1.5937959111199382,-0.7930115699050662,-1.6226396451701008,-0.8198890886492949,0.38825480048111,1.0918793990838307,-0.8502275163770618,1.3143072071318822,-1.3019964934848083,0.5629141976934153,1.2009918861807058,-0.516109335876444,-0.41318660443046623,-0.4209063339462943,-1.8994519251738102,1.9409225917784794,-0.2759159119042315,1.2998646229090451,0.5248316486607747,0.7273476993187611,-1.1550706189338282
0.6104799443535321,-0.11899477694718606,0.0996361945792634,-0.25598296355724376,0.08958755281384002,1.7622048964292754,-1.1641067217281558,-0.8990365706629128,-0.2661900198339516,-0.4165825909910426,-1.4162865753871126,-1.5187069192843954,-0.6076234925519328,0.5635845068681286,1.5555588079686755,-0.8158350595780899,-0.8240158595651699,-0.9551528533414206,-1.5384317318274785,-1.1192713174660476,1.3881776006382573,-0.5746991044310866,-0.00566850119813071,-0.6809353843036584,0.9266351535636173,-0.06101231629870637,-0.842922620522068,0.6926324356534792,-1.5907536796966888,-0.39903779840814113
0.37921264530600707,0.37259178470906457,-1.1145055734772895,-0.1944040581604856,1.1212417708050375,0.8319044037869803,0.8403094223604972,0.5195099595370601,0.5423103895347859,-1.8075660760379493,-1.3937618697667997,0.5314274248683167,1.8510793249220183,-0.29374961103944824,-0.49710016523878153,-0.903352761236645,-0.32069667574084126,1.3195652043356938,-0.3519885330570026,-0.08956289518890169,0.5542627341093214,1.5510440289394771,-1.548821201237163,-1.9145870048536358,1.473270685457144,0.11902938828383,1.1171975967966619,-1.5340364178512744,0.3610960236674717,1.0141421790358305
-0.2590585375330436,0.47710937390328306,1.7984490601517393,-1.2597543191325968,1.4602012358897687,0.5573036526083054,1.1091361427142867,-0.3130690768745085,-0.7497425002798418,0.5934196194133651,0.8508899582838011,-0.4343460167816882,1.4915454907526997,-1.9873607353287266,-0.0886916089928674,-0.026260358699502183,0.3048342203382869,0.8033474917973247,-1.4666314163386727,0.30948715451545167,0.13581950112033925,1.4671111225393085,0.9290847648373834,-0.003308575249927538,0.21635929744120722,-0.09956862539722086,-1.0133450828644572,0.22039135140742944,0.3287275950137759,-0.41422321349575336
0.6343459877189801,0.48202154400821456,1.6511977013279995,-2.4483708488245215,0.9140704690950103,0.3408425228754231,-0.9101016718756619,-0.28983679808349333,0.8819187574660315,1.2921821041900812,-1.0315249243903009,0.1666531293381827,-0.33546425182702755,0.4016463039721813,0.3757988315762781,-0.015842349355058613,-0.024839177511037012,-0.7165034503011977,-2.416673560405938,-0.429060435325105,0.357428649732408,0.5943439352856067,1.575219062567209,0.14828911722503182,-1.9382978298516684,0.5896324899254092,-0.6617761917254877,-0.8867422018313483,-1.376342637436326,-0.2724324750313641
-0.9732598066505577,0.8866244510353228,1.1268493732628604,0.5586527134117854,0.04492556546444953,-0.8887653089029945,-0.5140473560601794,-0.48114200833260906,1.075708664443001,0.7434483495238693,0.048093751889992084,0.2965635071509294,-0.13485588551867664,-1.5758901033608206,1.8567802987431574,1.188277362271084,-1.3415559570526547,-0.4488622000091357,-0.009737853237550874,0.35551944517569684,1.6613414674512987,0.03182291543563444,-1.80999314585303,0.4445650783692294,1.8942570702219923,0.5622063862246081,-1.9332488805519785,0.6122686979462802,-1.8278493092076018,-0.7792717172225074
-1.3109397076682414,0.39075279344990765,1.5245519685042122,-0.09474234019990728,-0.6264883703560723,-0.2748085035125091,0.12844450500372426,-2.178996572580847,0.5786093577246268,0.5524780394623805,0.6946251438778401,0.28270917987401206,-2.6114694213692062,-1.1179254553972355,-0.6511809868874743,-0.23850414480334908,-0.4158396983693681,-1.2433532684951207,-0.6656216495865698,-0.28478722129042106,0.4968747071019049,-0.17050001264884984,0.2717632709722033,0.08480288720451357,-0.5632864504890093,-0.7552316451671418,0.8278756801359326,0.3503849555555707,0.41965399810612575,-2.2081990399063725
-0.42183689289393594,0.5263850517676663,0.5443317760660197,-0.2348945557580049,0.7343622991392528,-0.5368260056451574,1.7977232262389293,0.9328590290677419,-0.7131334864697368,-0.5231501034769668,1.595507417933022,-1.0859723630451534,-1.6678462609063516,2.1678128186022674,1.5654055452992526,-0.10877095308625151,-3.0388653734844966,-0.1190389661073115,-0.7319944446064881,0.6466605193132747,0.3489807430872468,0.24895527652272859,1.72030195065185,-0.3663499920325129,0.01584784297122584,0.6911723844640139,-1.394805593970345,-0.06633015967459899,0.6628939916804878,0.849726292337333
0.28595666358198857,0.5536800250249028,0.25470885124837966,1.0472407774158907,-1.696337662140464,-2.0269465147237518,-0.23316640221891333,0.6911063251588648,0.7954160075639467,1.4063356490828178,-0.17627848895631953,0.5230125994487246,0.9718419056675751,1.8242527630009782,-1.3206851246969078,-0.8296171985399906,-1.5370961449372686,-0.6921460012747395,-0.5776241511927308,0.10043705778884066,-0.4736194290357256,1.4100091903677399,-0.7164554362341805,-0.29301219234773596,0.7221682006834925,-0.5031887309213846,0.27477069283699285,1.1694537863480658,1.470267669382179,0.35988515122082143
2.0383943136504117,0.874782658105325,2.3471357641658996,-0.1623708606412606,-1.2047620672399837,-0.12472589580143431,0.7067094824143829,1.99858798375737,0.3221188033851003,-0.5775590325699106,-0.8467403089312038,0.41362709036827056,1.0025327002170428,-0.14385773500158108,0.7201363519780214,-0.9195145971970269,-1.4997842759938937,1.2804553797334575,-1.6376809155553487,0.30117346286755775,-1.5042080354600993,-0.8040827162162115,-1.642854735557156,2.0748268878778005,0.1739337490191748,-1.11270142064973,-0.7195096132048034,0.9501310947454108,0.45558379417227235,0.2539255850271864
-1.4503423988827786,0.8515254576648211,0.2978881484848409,0.2597854696137458,1.6463995628929164,0.17511894025693175,-0.5923239621896398,0.526825275431162,-0.3212460144407099,0.26282732241477746,-0.049073468528184463,0.5681406343616973,0.465650260486043,-0.8974859402900242,0.3387412981339622,1.2341346188600564,-0.44133782609205974,0.9561170544974434,1.056983169779969,0.7198244626633222,0.15613864664960497,0.31683804641404,0.8252112101708077,-0.470888088718868,1.8743806543712362,0.6714376302643071,-1.5194515085852722,1.101923708225242,-0.5456711304614288,-1.0859309253230711
-0.06404284062068281,0.784230860963287,0.17959396064548694,0.3507786627028247,0.19288923970326613,-0.07391093589001804,-0.2625333419696642,-1.8187407180319675,-1.3764073133625911,0.50291824166934,-1.8997096854379873,0.05490195239991788,-0.7908850085538327,-1.2927691157693393,1.6006596080133741,0.7291055101969118,-0.07801096397617249,-0.3739846403060125,-0.06651411360308844,-1.0767835851918985,-0.8385969368499172,-0.7753289067115954,0.8473521391352458,0.09280021621860059,1.7023290578393464,0.7209795700786095,-0.5547077129006444,-0.404352642393442,-2.0158736862301065,-0.7686884735857105
-2.649236343781214,0.20825711570315905,0.3175432599564516,0.43556081839120475,0.12075719613477026,2.6763901470938416,1.937505536779854,-1.2370746915556943,0.009232082841855825,0.5329838039846698,-1.6706458806160438,-0.5300218149409135,-1.9131831859870903,0.8459736320744571,-0.2036294329353192,-0.08065147945999122,0.4260230727176663,-1.0544084721740914,0.8426705452341926,0.3048694125625868,1.2848154235127625,0.8974663182809118,-1.7850558718502063,-0.8089920455883557,0.4550932279426608,-0.6988708387276094,0.40944473121562863,-1.7953010386083692,-1.0516986037785738,0.20584189072311526
-0.4996544481253455,-0.7159192375929081,-1.092634895636593,1.2176824428290833,0.6386948669846018,1.3643265254669799,0.6498452428862616,-0.9082390797296069,0.4122558010017525,-0.9623336158401005,-2.460494139195458,-1.3858883987315929,0.5297581552813608,1.039132688228678,0.2836894064365216,-0.01773391048935274,1.291903504829734,-0.45127023847104475,0.12540600516122621,0.5657743733816095,-1.373481990099244,0.5494914670209179,-1.3642307629902741,1.0469113367609504,0.09191911914863617,-0.008776357753845755,-0.599753176993751,-4.285057742363102,0.1319555813952044,0.15717700898503947
-0.3209967122267006,0.40634696472583115,0.6370718194092397,0.6178801066299457,-1.0763969281412293,0.8674576043453694,0.46517279179451554,0.6458779323796952,-0.9469565461426132,1.3298223671933682,-1.9279820382291333,0.40342796912614187,-1.2192593415311657,0.40525209111214794,-0.16814321957639486,-0.7197077850384811,1.7524167305322509,-1.0474053164168606,-0.6430166390357231,1.0861413418149453,-1.4392325889476525,0.4077862947191578,-1.1231983368136202,0.14319287186806293,-1.271929198511464,0.07840294161977059,0.03602689061023335,-0.3794183840554944,1.0141439008950086,-0.39184525774559664
1.0355495039255513,1.518206882170113,0.9294906549244889,-1.0782576306957947,-0.2524082164348862,0.7775960455745692,-0.3117866254934704,-0.37879554519398145,-1.0220137865104293,-0.10497849507557579,-1.0215218067866518,0.4882872703798705,1.6563747911916231,0.6518244762575616,-0.3998379918263394,-1.0178836285329724,-0.4487001556670705,-0.35543722325352484,-2.3921460710679336,1.3271839876470697,-0.5372404812544793,-0.3709773525210989,-0.500282239224013,-0.2262503283030913,0.06915480543716607,1.55281317395075,-1.7868558122285378,-0.3489615022024782,-0.2657069212317358,-1.4646623593484382
-0.8008465366528486,-0.9873054644053932,0.37309366836949004,-0.5977433507094739,0.44262825092836283,-0.27077050478074915,0.4593783900692804,-1.575351270620412,-1.2426211237269937,-0.6890593156433672,-0.8942256815924515,2.309691881627311,0.2630662974006072,0.5478992211646144,0.8736841811503413,0.01666741185942116,0.8161915767457607,1.717694774446825,0.7083037883193386,-0.3216709328636743,-0.0960435775361011,0.18703098447864816,0.3692640880370267,-0.5305973126485104,0.7312213254804805,-1.1495159635628271,0.8770304050919445,-0.01096314624065249,-0.7068191495834836,1.1716378498712445
-0.9818856149135788,-0.30043275579595363,-0.7488605886346307,-0.5897785833031877,-1.107868091590576,1.2002086435132933,-0.2907116506117466,0.7658928074085086,0.9614584543806427,-0.06405234616564187,0.7298352980503979,0.5068746242162717,-1.6107817639506896,-0.9857406923481253,1.6802572252752381,-0.3416087724367741,-0.9194767146787147,-1.126750341388632,-0.22825414872219882,0.4276623253188971,1.4959688433105303,1.1049575394125608,0.6465063692798609,-1.8188773453840115,-0.7750978756160428,0.8844870541379234,-0.1932606282125923,0.38546000686556353,-0.9121215887620003,1.1887272218470908
-0.27004328100058167,-0.32369920959229936,2.0411616448654044,-0.02222257481613231,0.9160109057821542,-0.5807017329368007,-0.7218739196355771,0.6133107828005901,0.24484998892756868,-1.019398829863707,-0.839719777343891,0.5351819097025075,-0.36281643649924966,-0.7791362441479828,1.6791531036865073,-1.155427408674923,-0.9910375858654022,-1.3092785532531097,-1.9029354178495634,-0.3830534524325105,1.0594772685695768,-0.22558453858688463,1.2524039098800246,0.053101272618279925,0.6020112683964031,-0.008091209555190507,-1.8577627240678427,1.320967836846126,1.3485890951126636,-1.5351737687509603
0.2266293221602159,-1.0303741375291495,-2.2110742232674654,0.10098531126571482,0.0749404598731303,-1.0586975216512935,-2.588508895145328,-0.423207437444495,-1.21094378258382,-0.02065587577383432,-0.8945295629726937,1.2766160500824493,-1.6575352376046475,1.6221970815579567,0.3735697437538927,1.5158397953967626,0.8193298044751963,0.23309722478956754,-0.4649987716813989,1.0098325626558469,0.8412592873212086,1.0448719518469587,-2.674221992229652,-0.8231525332917556,0.348451117692021,-0.23020139026318323,-0.2261543648991851,-0.11480487237383427,1.997359040222267,-0.4678630080899658
-1.1409274744250373,-0.040219251701636566,-0.43308764549672557,-0.8322131490702206,1.2780840605485364,-0.5114731066762609,-2.425231145121061,-0.11409957843245391,1.8992760997245277,-1.5917426887577155,1.0032435051004112,0.7330752656339479,-2.0553321939211373,1.5731326196075002,0.7630484957128902,1.0329903803470857,0.130013836947378,0.3093059920266835,-1.355232338804956,-0.5220198115508072,1.100828535925031,-0.6403625307174271,-0.769755227618581,-0.6516656363505383,-0.054775827569138104,-0.9128039101888956,-1.998740142913485,0.9456989972914538,-0.38791603695595783,-0.9057574477230198
-0.8754616831427874,-0.32282883401416473,0.3439283995053271,-2.7202082374358643,0.005541214425402242,-0.37488244611004456,-0.08739852749882179,1.1180318351048775,-0.020590888100001543,-2.116645595104132,1.0753567220270095,-2.3241933286369196,0.4739711783611437,1.2627687688066351,-1.7875145649117445,-0.8398218710982776,-0.35318911494084093,0.20522926615276393,0.32051852621398946,-2.342562813916291,-1.9080753523365395,0.6141999222054979,0.24925808701686078,0.5318050425450965,0.0293342686803013,1.1106824777469044,-0.8344147780645103,1.2418055871220026,-0.4293636169189219,0.4212204438101523
2.563643013870463,-0.2507719724733009,3.0584524500654893,-2.1204009509812467,0.9984432921703505,-1.00937529256679,-2.533425584576346,0.9684821253322197,-0.5295159933299772,0.4039319821754566,-0.8988527904182755,-1.7689910406196738,2.2022162830736725,1.2737320429113732,2.6120595081641573,-1.8717198350309106,-3.9320517263706147,-0.6431034535503904,0.38452278072011986,-0.7658425373928084,-1.108741586674355,-2.333817323827621,0.08588117090064352,1.093874133639469,0.381246587886286,-0.43275107746286756,-0.14172907839855622,0.2537508051425158,-1.3163489638752766,1.1096003389600713
1.9154336438566915,-0.6732517936451925,0.6662015650487384,-2.3575822976294436,1.1898476981628625,1.6225288826333213,0.6067394513385868,1.0882599115700264,0.6512028895514821,0.40723736698222257,-0.8880099284433838,0.20724535305909728,-0.8815934940534224,-0.2610211419020834,0.462186541071264,-1.3799208781753267,0.07125055646311204,-0.8578982984975401,-0.3349349818470429,0.8166694439517728,-1.6678854483409158,0.38529046611392037,0.10459300632048811,-0.1927739497984166,-1.0627456431675169,0.2952251568370018,-0.06498912835408734,-0.6347468341716912,-2.221442863140924,2.175234650294864
0.7380880284776908,-0.6333880729825544,0.3026319648693413,0.2995575932751539,-0.5501640444345997,-0.1618622965767536,0.07558396480263788,-1.1109184636717206,0.6507177284607385,0.0002486396575218667,-1.3064178049973691,-0.7273168592414692,-0.6237674686314785,1.3223091020481443,1.3571139779400372,-0.43274814843827614,-2.108002860000279,-1.585985025349235,1.8213957664300233,-0.9989951505558434,0.24308644006970442,1.3530886649606668,-1.1506681521343338,-1.9491030741265907,0.05283342887575873,-0.34400793841932303,0.9743403762508838,-2.111334535376271,0.981862700870384,0.18309391110191087
-0.32471576969647803,-0.42439086519104874,-1.8662679509948763,1.0363426341665156,0.07136132682816525,1.6035528903590361,-1.4868468258769092,-0.10336585736043734,-0.4797624742056753,3.545452045824364,-2.3072940812528646,0.6087722353064674,-0.4338441731583401,0.6134767742111006,0.11739442546863463,-0.8188471016156517,-1.6286474809343474,-1.3688940225769277,0.16136990043170132,0.5563115084968676,0.052257637477394335,1.5139253251776394,-1.3000915865688465,-0.19949841345663102,-0.6373427314395343,-0.7697545142028366,-0.7800517707328667,0.08931442608837545,1.4878155086981395,-0.6902913185322924
-2.190199295510769,-0.6771991714276926,0.9061731124129133,1.2963173172573197,-1.2287988199780002,0.4672662439346338,0.007736086732531854,-0.2038255799443846,-0.020620638535056603,-0.4568929812562543,-1.860693422258714,-0.637795742648772,-0.31198293060292054,1.8382744668469762,0.15761735569817836,-1.0399283811784057,0.4729475566140756,-0.12010717916304743,-0.4305816695847994,1.0992245672459702,-2.281186297851489,-1.2560371377447106,-2.8774756876446186,1.3108230742467264,0.6120430247795132,-0.3089790424913348,-0.5718062756291342,-0.009875966138452695,1.0689930024024137,0.04857644527503429
-0.18130300929454957,-0.5292906007782583,0.46346684788941106,1.0608466480017231,0.3898174479213658,-0.06700587008952444,0.3885933239547979,-1.8223300240862896,-1.9865743705813401,-1.1498496227837978,0.21213828878680346,0.588634840568225,-1.8651279375805445,0.6748335026653954,0.9403732287353435,0.36610976335403816,0.9983903436327158,0.80266731411485,1.5720727154385443,0.355441736368978,-1.9117744087318918,0.4689852505666851,0.9962258687484958,-1.0299792417306777,1.8217234127442221,1.8415337095654836,-0.46293275086229646,1.7532582173598088,1.004725095193517,-0.04172345992631489
1.153639287182317,0.3712339271823298,-0.02009518040492549,1.4309450312120349,0.39187061840338167,-0.3832085208827597,-0.08992018188825164,1.333845410998457,0.9953295863288942,-0.030951065717486837,0.10561478079513999,-0.21070705855445002,1.50166836528346,1.1655404730851335,2.2041334846303076,0.4119009742165615,-2.2674361513662644,-0.02466023741412554,0.40573935855903287,0.3643253481826379,-0.06049543153254004,-0.9686767704093583,0.5835272206090686,0.10278244944264064,1.9655822434173253,1.8807041399272146,0.12924854325406687,0.6071717167480526,-0.10397676360146833,1.4086027900377927
1.1799873355364732,0.7012209923331184,0.5311102055892051,-1.4025452643201666,1.0897287086249814,1.721250654089408,1.312360546681881,1.2305937159272573,0.3106550578453959,-1.3166409092133537,-0.7776431219797088,0.179731467329786,0.5498349048475841,-0.12091043618306153,0.435865562687865,-3.4839188978214053,-1.1378593075817494,0.3276538443621595,0.17523232032532884,1.3104334368209434,-0.46708426120484914,0.1942915938155712,0.7889505963350847,-1.0861086732954177,-0.5058699860379116,1.179065576892296,1.2359194931116657,0.14361541795775942,0.11055632955716897,-1.75564021277314
-1.1883265613695517,1.1484093376213482,1.1648392771933105,0.025097887237875434,0.6982307898084011,0.27837021840601006,-1.9119172448585704,-0.20504864976649945,1.7805010134869916,-0.7382976052633444,1.3638654620611186,-0.11026119737315374,-2.228894775641369,-0.7569030578539689,-0.9248119223013783,0.7601674333593332,-0.49631227583424303,-0.3538843625949695,-0.7695529714648454,0.16623778338795858,-0.7357379656673928,0.45556478892286906,-0.10342205807873833,0.8189544217168679,0.3780067360215997,-0.6915299958110726,-0.340251035154919,1.7468088349100481,-1.3168911610290777,-2.4411936868458812
1.0806603800651386,-0.04124979562545149,-0.14855242410308883,1.8233071631661146,-0.8579393496821799,0.17110063441858606,-0.5108977684848076,0.1938086525802531,-0.10573634619395954,-0.7892934854658854,1.8628362767135613,2.528709476929766,0.00044940992903436474,2.619517059008103,-0.5979460858346486,0.8214136920523869,-0.7845465194065662,-0.7345703922165017,-0.3735923896462567,-2.7037469296327874,1.5763879457709211,-0.4043567877298619,-1.06935800971028,0.8001430671504733,0.9530736291273563,-0.18251946696081145,-0.45265358809138967,1.0776177276958858,0.017738704817388328,-1.428177488594898
-0.9003262038430424,1.4121759120918234,0.9395003568607287,2.2278473755163444,0.952933959214592,1.309015190487596,0.564645442373633,0.5879672120762974,-0.44012955814386007,0.05619060343411797,-0.5577717250029078,-0.48361248260702394,-1.5093263915036683,1.10921510853503,-0.8165581313177226,0.3336916517984904,-0.05382162447296014,-1.7085407171521585,0.6056890965314946,-0.32171996832672184,1.3440086571644236,0.40798773734081173,-1.1698585978976621,-0.8154407505332836,-0.3330107366443849,-0.1804315402670543,-0.8908052107638357,0.6080596270708815,1.3136434231955172,1.3115524621431054
-0.7119664946153104,0.6648427769411608,1.736833260270479,-1.0327234838795467,-0.5827540735592123,-0.5015597980461437,1.9348090130820046,2.933240256958969,0.8990063309409231,-1.310406514322282,1.6020478897483579,-1.0186138129286297,-0.08004115362137089,1.4498238364814082,1.0896696940162327,-1.5102427486126673,0.3613300366173917,-1.2176563371728293,1.3879407066923026,0.13958818409050378,0.6084444515146825,0.9808396727442744,0.21675223986537062,-1.0869037472490908,0.5753645495190064,0.8387335390157279,-2.2423841138996523,-1.7353560516446216,-0.4922890829097753,1.0544784660263802
1.2240898331458616,-1.1666923117533616,-0.47561498338646013,0.4232538674227199,1.5259090244760922,-2.678760363420751,-0.4648207429600875,0.4368259120757328,-1.8383408719851886,-0.3246833884460263,-0.3993549737372839,0.58986107165288,-0.640004875707117,0.05306297733447715,-0.5371257971828342,-2.2825748233614447,-1.1392293533536437,0.5376082999973234,-0.159518618752202,-1.4486885028328471,-1.165319941428607,0.01045594042652391,1.3705184688614909,0.11441872577799429,0.10166107995565929,0.25854425112396767,-1.5904812459018884,0.45984192627616965,0.4481079423972122,0.28922852099209273
1.7180672032859827,-2.6294528211485386,0.711383400190976,0.12947352675524457,0.283197845142514,0.7141366325873979,-0.9455380178407162,1.7976566399135077,2.371476525845557,0.8553363051146838,0.1360893729107845,-1.1365177886513653,-0.6257840766177033,-0.25025449907657693,-0.3222864382679018,-0.7347185699790105,0.4893192666343384,-0.6196351030531868,-1.4969492882608333,-1.0845213284620592,0.8454920121830098,-1.0157781506880776,0.3840224880667373,-0.5443921425990688,-0.6554051775245334,-0.9712986752675299,1.7875187178691494,-0.2844469406719047,0.46792146888349284,1.673728378573848
2.963803724262453,1.4545735765860204,-1.0775201572764637,0.4425187597287919,-0.10152207168040413,1.1600171978724083,0.38317738918589334,0.09034572040425438,-2.067953196085952,-0.9866662905899672,0.8830958736789373,-0.2951096819576584,1.6415806600441034,2.155844835746725,0.939597387619484,-1.0112015105343208,0.2969064063476314,-0.3274561635682002,-0.8837618021815986,0.8357570979200791,0.3272167984517265,0.6716830461055192,1.0258678997463737,1.909278723446226,-0.8589526771604924,1.07930330898382,1.1039048253402233,-0.1929302125394051,-0.860332271930261,1.07382898721462
0.06308962220181961,1.37340014614246,1.091862894647865,-0.03915122355554815,0.4727608609450598,0.5432106970185405,-0.4402462659578779,1.7661738236886568,-1.667343912649554,-0.5872630369686241,-0.06349267140801526,1.611815159418276,-0.6254192193321363,-1.2807793960009162,0.6778208929464112,-0.7215384838083392,-1.0668373881154383,0.10760073412138711,-0.6028537323418452,0.9304837021556919,-0.9232215427861434,-0.3215901071376493,2.6878689411914585,0.12128068430889528,-0.5265445405039791,-1.7444463543578774,-0.01387539105257453,-0.20812090550936943,-0.011700504772561954,-1.1729294890444475
0.5994498313386623,0.5318456671934081,-1.3271887312133934,-0.7608417224420755,1.133806682614637,0.6843132450172806,-0.31746601430255067,-0.6013199662427928,1.5614866110633525,1.2581961272289932,-0.23070442816439074,-1.1327075863616995,0.7065531863268006,0.4923509540192058,1.043781971644332,0.5318655067553546,-1.1680367063963344,1.3957143588850178,-0.34200836615394387,-0.21133707020727435,-1.5308862290877288,1.0055118662553844,0.15595737221508912,-0.28826748267803254,-0.299528820188141,-1.0870967664133753,-0.1740687018548405,-0.4446688692991524,0.3210540151613466,-1.5344672557446308
0.5397204939353851,-2.902035990071234,-1.3604943886774012,-0.12049822152478912,-0.201053576302645,-0.5451778070789665,0.9069812385116118,0.773860942042136,-0.5181281194669596,-0.5938932709383777,-0.1459121603162252,-0.3620050781549737,-1.550651413352938,-0.18649348476759267,1.4196044295952956,-0.787421733610121,-0.4895360509611985,1.6645520548073125,0.8966934803701748,0.4076166975535808,-1.6959185939716452,-2.4469605834152355,-2.1096799758310505,-1.1930535287360522,-0.3851201288695883,0.7790636140292864,-1.4520747679207215,0.9729853421990542,-0.011981924629091591,-0.09001061741333223
-0.15713366270173537,-0.5761127393474823,1.416768328310554,-0.49628912078464127,0.0707139574590185,-1.303417041048097,-1.9747017680963754,-0.7391640132805871,-1.3368225200945476,0.5068474149701054,0.6317827562174813,-0.16513451034819632,-0.7995339823258744,1.3780249346174098,1.0974088212147297,0.08192352663010107,1.5239921133622016,-0.5173612683152329,0.006090769791685997,-0.5836395779274035,0.5469477662746328,-0.12504596992513778,-1.3929065460990606,0.04328915555686172,0.6535736854855344,-0.574255134376304,1.503964840022693,-0.7986068168140661,-1.8808048108786373,-0.3661505006027056
-0.3652594475298633,-1.1079974150981278,-0.2791012841269308,0.3958510315293836,1.8973851869775682,-0.22253706361395773,1.6559269309826086,0.5301547292112536,-2.6739057427604354,0.25032145570345143,-0.9313265550948963,1.9655380755078582,-0.0052005010935867735,-0.31083406828627363,1.2763725033752606,-0.2494540456261419,-0.05224586173136765,-0.932530861991981,1.189298668014095,-0.13277342649448712,0.5463289512944681,1.4081045647386907,0.8236656268603945,0.26255335233970706,0.19998749110062453,-0.6609580755478252,1.007617401623514,0.09710451567864219,-1.095751268385735,-1.4398120699997177
0.28374593536925,-0.40609734912130124,0.8791658010950179,0.10384142154924093,1.255034629998151,1.0677367918289369,-0.5814728222651597,-0.7396926457929035,-0.1733163185186144,-0.34102523428000797,0.10122263964218935,1.0670724490749137,1.0584973916430072,0.3324787444724372,1.6036028212759341,0.5128686792925795,-2.212827292274241,-3.613990661203351,-0.7266074438955463,0.6332919034086096,-1.002778814201656,-1.52201031853737,0.059752537990639336,0.12473824110349353,0.17818363406284723,1.2182470757017652,0.10991791518936306,-0.16953326990238035,0.5234729190145042,-0.4465799989025699
1.1967378524387615,2.1421599178839603,-0.07198095542257292,-0.8158804370798807,1.441525233482588,0.7678538174252489,-0.6497055465657441,-1.6972485309068068,-1.11965049030335,0.8791515006089086,1.873602815614509,-1.3801474881031945,0.6365209063974681,0.33491868536223685,-0.48051772940299325,0.9292490679726657,1.0322308165620684,0.11206332336383308,-0.24671347018141473,-0.31317857794390414,1.6192713354485984,-0.7369660493730207,0.6107186624887474,-1.6561272984043436,0.6433913104415989,0.24619696213990377,-1.2039159111724347,0.4087133933334363,0.9279356027236917,-1.4304859013666857
-0.8266199053014546,1.1367027486852272,-0.23019333685357865,-0.2312171602910464,1.1814264354716644,1.2507137066152614,0.5151635039168097,0.9080375081798904,1.7034699635228043,0.7051304374380557,0.18200394034503564,-0.43069500318781284,-0.3040723809315065,-0.49368618916805135,-0.7788590627761369,0.8020597223453257,0.7439611392814346,-0.882259286823809,1.3001928324932863,0.6855632148158696,2.3174685910413375,0.6155213021703657,-0.5452985070666686,-1.362943069058948,0.21222775213033604,-0.2780241267541167,0.826782468075585,-0.8634400840669,-0.44627660871549074,-0.6517313474704227
-0.057719433834200445,2.8986991491478777,-1.3599214758074807,0.17548407872261984,-0.9818723555459116,0.19703548008665325,-0.7996079693455033,-0.7550118886093324,1.3425362498287268,2.192242704551126,1.089174386660232,-0.08983781936745512,-0.274562031271593,-0.30265206349692786,0.03842455022480533,0.28542845554736096,1.6616944010465773,-1.7534809125918709,1.101617087145363,0.18463418724011035,1.3605104786901885,1.4855173504508972,0.31860707758055157,-0.406633063920177,-0.4656541698657218,0.9837454161845781,0.9367482632943686,-0.7808574936522841,1.654801516756798,-1.384192784873609
0.7022589519830644,0.018432313796757353,1.2382802914496083,1.2795210273672717,0.07413468984454366,0.7520694743845309,0.7253271723953981,0.4038248614594529,-0.6719999494360502,1.8184421731619889,1.1722382769310176,-0.6604192712835123,-0.8231445459784231,-0.14719396330452025,0.5247146779627231,0.09140138229737736,0.1401190379293232,0.18187860636290132,-0.9175690838920711,-0.47222355201429994,-1.1707538671487945,-1.120209491020122,0.6331400034653163,-1.646014018531014,1.172167289005122,1.260412674805829,0.5598243489439539,0.5775936851663517,-0.11377975838730849,1.6235277290564258
-0.29412009481850154,-0.3505491926987742,1.5253457737279428,-0.3474987106152783,-0.9418282952281193,0.6198454022494437,-1.404393768708633,-0.6811592555229848,0.15676295838342666,-1.1050588217501838,1.1554728901163442,-1.0181854479126198,-0.18386492645955835,-2.19103315361297,-0.16294137964620206,0.10467592826064379,0.21356499566510254,0.6815885094127861,-2.4699779877948718,0.457762153714322,0.9951733096447987,1.0403242714304,-0.2092438911702,0.7607189027901564,-0.11355602954303884,0.9288896570514549,-0.1640654969808716,1.6232980402672876,1.8780594851314478,1.24272806839863
1.1159927559161293,0.24005905014445503,0.47058176489778947,0.03337503601305895,-0.35348542407325223,0.108743861542377,-1.6060454066928989,0.9029094361054087,0.2393919310930366,-2.0873537225553216,1.6288417283166392,-0.905147237802155,1.7203050353537437,-0.13604306363239002,-0.20447174776300314,0.3135793848354407,1.357670292645316,1.5405034685283645,-1.4190463990221742,1.3369483061292897,-1.0238419664322378,1.4754953175485,1.133966684213036,1.1879877924509517,-0.37431360992598683,-1.2974323084338983,1.8176457392018672,-0.19906026287463,0.20250250398921574,1.2790207922102736
0.7542379987492294,0.48189108898804084,-1.8558988112010384,1.6774545793041429,0.06696429502647071,-0.8825206428578315,-0.5634159477774603,2.909559601029283,-0.9942738135686732,-0.44192384629919523,2.358939307458103,1.2480594706229853,-0.18352747435673383,1.0258645786106986,-0.7390565144626273,-0.9455666212174376,-0.6623381626067024,0.0024211797998624543,-1.106297903805206,2.101902817355502,-0.16865124979109378,-0.701851742221082,0.12745150602257785,-0.43203729813702074,0.42103727521573253,-1.2231905847670148,1.640861712534928,-0.9703650840246847,1.5744096375369698,0.6253747752296355
2.232453161835333,-0.4400335247106453,0.03653208847390948,1.0374531165322185,1.2032958260621798,-1.515634250160801,0.6684175813835659,0.6060578271723328,-0.7975457294271953,-1.5062408319987934,-0.5380655435794154,-0.9488480808827865,-0.04571769941405573,-0.009221743550002872,0.3948746223842098,0.4634745819607165,-0.7024306404492984,0.05780684422763239,-0.5058206453435227,1.5152316761238032,-0.810813199489197,1.3031895362506465,0.5881619811329702,1.2345526911466258,0.32544197358840865,-1.7216625905373253,-0.2748983716093249,0.04849365515439738,2.0262983728171404,-1.0563876318192535
0.3453158390190797,0.4101547462208512,1.6975335349395884,-0.1773146078616526,1.1834297644698297,-0.12428459874132877,-1.2846887905476334,-0.22863044033316596,-0.9483756847026311,-0.7842569319446278,-0.45760487207362244,0.19146350417567806,-1.1290238807968704,1.1573663907925171,-0.23478080835845325,-0.05586458709491883,0.16777640840216293,1.0818935212242111,-0.7227247363554716,0.546103341613843,-1.1595838194441659,1.8746379297406248,0.05106846762028869,1.078805392486788,0.12352635267562724,-1.7234687113593672,0.7994558072112896,-1.9916860621036894,1.8933560211890614,-0.10531855259724456
-0.5651641834206849,-1.147761246925322,1.5987756259528862,1.2133488268596686,2.758739323659325,-0.2363831950340392,0.2413320296238828,-0.24826038510289442,-0.4116146265244607,0.4514887564874216,-0.16335271148988034,0.40947157636967874,0.41418181167018336,-0.16644739632847105,1.2873106290657745,-0.9699974010918846,-1.0450856595609646,2.3139379613302036,-0.3941874874663565,1.0871637987410279,-0.03579977091381656,0.250981256263784,-0.6693818391183303,-0.2214595239247472,0.9685293639312064,2.5927164022838367,-0.30251377358559284,0.8270598363383191,-1.2895430190014938,1.404479321706459
0.9406990247600779,-0.7340727143797933,-2.3861265710586865,-1.236511889838683,0.6618273252270293,-1.509590373631149,0.784235244854956,-1.0734375695434817,-0.5271210329616556,0.9852483073721293,1.4224848198270907,1.3887538962118267,0.7995988706517487,0.4729172715209006,-0.19920134119013153,0.6263529396294825,1.9352054565708081,-0.43295651286844183,-1.4073905522351662,-0.3762629856261685,2.0410494089156646,0.726127868009547,-1.5792269319219925,-0.9730577123050987,-1.2040976661641514,-0.913980103818918,0.02762965145707702,-1.2604889005175755,-0.6464081037550297,0.049234084364827124
1.6590606720542347,0.2819203540791878,1.7255455143005105,0.7409883640478933,-0.7207741868287404,1.860519016397431,-0.7605470240460218,-1.578284688962772,1.3986517251038435,0.6932245565858401,-0.5325033073194844,0.16254244055259445,-1.5007266115886655,-0.6263437916413728,0.4737754750767638,-1.0600567476489642,-0.6174743072158809,0.717038640545275,0.6619185448698655,-0.7668630849900947,-1.3955318528172478,1.2755218960090329,-0.5842398835368872,0.0798477498328259,3.285789112618262,-1.6680807359868013,0.5747358623102752,-0.1871290118646078,0.06074652545686141,0.20297838396390852
3.302270209534622,3.15541104919155,0.678557787443514,0.7910634632466566,-0.24062532267221493,0.32401641611118415,1.1173243902998333,0.034502442545179944,-0.37148114465704424,1.2507800319066658,0.7211711428686118,0.6238606919621915,-0.20493942521092873,-0.8283498682002104,0.796068863527182,0.1684103441685616,1.0755991835220673,-2.0058300687643182,-1.4128328113802726,-0.8629260225758733,-0.35258226849962704,-0.6940249902928537,-0.6863921004233998,0.0662446645733274,0.6407584191302059,2.1759218377667664,0.5510393467360045,0.9682249403645785,-0.7899036118411336,-0.00373829155809227
-0.3974225850752021,1.0493335871098743,0.7299971572213054,-0.4339314690125916,0.7454370239354614,1.0386009816724524,-1.2046698609272508,-1.0759206579964522,0.9815612477149176,-2.4745902399160733,0.04240603443928689,1.095563275363879,1.2180060213193171,-0.38570459761628373,1.1032086888643649,0.7508090822659312,0.11884366389500696,0.44575577318165616,1.6929661853034181,-1.1425329938750532,0.34288860767430446,-1.6837550483288,-1.2701267105482754,-0.6419039768186491,1.9751949564284939,1.1275445669983268,1.1532272352740356,-0.39056846172866133,-1.8807066617960875,0.7209681453196348
-1.3832625792589484,0.4728961735298641,0.7440072506987482,-1.2346442299289977,0.9278799702787136,0.9945220088333103,-0.8802277008080651,-2.5393757179318084,-0.6100368433899123,-0.7305897057917751,0.6081284504297392,1.6208107812712507,-1.287318725228131,-0.4163704543793433,0.7524902264031986,-0.08133169564347467,0.6676001619051136,-0.030137998322673443,0.1359518626248013,-1.5206950215910582,1.2443590002673812,-0.3041540472159219,0.04621124668664908,1.6884756211575542,-0.2310852444187522,-0.6469849908097762,-0.23788289696164225,-0.09683264115372424,-0.6175617165070176,0.8906680096723355
-0.45189684833096716,-2.6600038480687322,-0.2786835039778842,0.5760147399767077,-0.8566975514038166,-1.1433271956075082,-0.4185245114618206,-0.9577838463012275,-0.27259730259021825,-1.690309153237286,0.48948140726854844,0.10598328998994175,-1.6412469858083698,-1.1619697203493615,-0.7706608199422186,0.7569989530053431,-0.9111098641833414,0.1235210113547991,-0.06479115445860364,-0.7504832798450823,-0.2991936509519133,1.6260182436640507,-0.6900912909758801,-1.4219665033001034,-0.9294504486444621,1.0334565225550505,-1.7028687424450712,-2.554244436074534,-1.0757122878426775,0.21054361455153212
-0.30995974178729924,-2.130850964218537,0.37558797083084383,1.3086966036095034,0.26789048976454,-0.029068557582641135,-0.8231472723546923,-1.551278998021888,-1.2270606432947846,0.6627032399002708,0.4622494553763125,-2.7177437624583405,-0.5689565674721025,0.8957685968019495,0.8541883499837245,0.9061739392870776,-0.5671015316105298,1.8151475201125604,-1.390946609505742,1.6605969414603319,0.8687758954327354,1.2904477001753833,-1.5765359453742132,0.21114351251701796,1.517854700604216,1.759746959038251,0.20233513810720305,0.6343548449966608,0.49586014181165716,0.6774066046708229
1.2699309627167732,-1.1275543623392434,-2.5838530958432893,-0.9318341732416933,0.20519961796870684,0.39908441057099414,-1.6182292037237564,0.4105556010273687,-0.15873349974312176,-0.6521339724578012,-0.17136218209114654,0.6337335810120486,-0.3306836743570187,1.2873320823745529,1.509584240097604,0.3563046463591354,-0.38670824573377977,0.6520183827810092,0.07705693085138751,0.7642333267201543,-1.9473222790193452,-0.22405636015059457,-0.40687167733078183,-0.73965077520913,0.24477348070531596,1.1489113003439058,1.8311673563534703,0.0078586813414115,0.6511743483966228,1.2844525351504859
-0.28829177140511514,-0.7738117155328915,0.11079786869996651,0.3657871866495418,0.22739655424742644,-0.057746237652745086,0.7118031180039215,-1.812533935234049,-0.30563640488036203,-1.4090675771755077,0.887897108648483,-1.4143087216151429,1.2901391521686283,-1.4108612648137422,-0.9710312052390312,1.1581771164270802,0.34332072518589596,-1.1208236579120776,-0.36517308471579546,3.216401118299829,-0.8724039656734008,-0.34603749566767744,0.6230089519884319,-0.31236424308718025,-1.3983882284974196,0.489880196235365,0.04677766178520814,-0.0256595433248291,1.7421404512726397,-0.3009192495680921
0.17360310781720278,-0.12187321988939682,-1.050765605392519,-0.17898907682379084,-0.7183166957006102,-0.3094945620118137,1.3236492933735124,0.2734551721047146,0.6104899489054704,-2.266152950809438,0.08657213857929155,-0.4903854656008625,-0.11057700695101218,0.3742822358014933,-0.08634996346016068,-1.0739356631524102,-0.8047698137802104,-0.5988268689296872,0.5674418516966887,0.8625590119258395,0.6561890062219378,-0.32630219318166975,-0.4185161970318871,1.5703831298704471,0.3650373573279818,-1.8590627037984129,0.7782427897924139,0.6783072788803152,1.0358263943881953,0.04658550910337558
0.9388531978101382,0.10655378175328156,-0.7098892738745675,-1.1798039855903872,0.028922058299026696,0.7352123143057147,1.5232673211901377,-0.1634373893025735,-0.9734600726311464,0.6559375086718867,0.6169704860174106,-0.5636453707805487,1.0493351678284266,1.0968739203860087,1.4420709762479136,0.5270365069965385,0.7165267225174718,-1.7248886225332416,-1.355198898855636,0.7933276483681423,-0.18151398806806218,0.7038186432843188,1.3660236246365727,2.087811473129288,0.8326985857096743,-0.9661430251940821,-0.05600532037699299,-0.7519997648986235,1.1145689977198103,0.7823170756078772
-0.5209807852200931,-1.2540492254730835,0.6466687696523858,0.42778164241359673,0.5463925944691486,0.030148999386020708,1.7030311911431808,0.28512301698720993,0.19878660815885155,-1.2766483082674682,-0.012238143390980885,2.375589234994522,-0.7711546476648022,0.05403059657674512,0.6996685494306492,-1.9810487822361986,1.6197453729543825,1.5873844466313984,2.059655378759514,0.6354976511913483,0.6979415103012527,-0.35185200482444423,-0.8062027256992048,-0.10926691697400745,0.88045405332305,-0.1419693183643864,1.509137947355822,-1.3997276028785186,-0.7975425225032003,1.9290790751406766
-0.4651829056811671,0.5051459075427144,-1.5866293381727419,0.9283956389027062,0.5560256559733231,-0.17039192231676756,0.8021644589133843,-0.21204194479081973,0.21740638562001852,0.32098903249681426,-0.4837765292575809,0.216385179822992,-0.890629979104305,-2.6732135794381047,1.2079048098860499,0.4335695338023961,0.23522836048459977,0.6442320441826445,1.3874602430345166,0.24217502239374958,-0.47280770827785445,-1.2113991456425781,-0.9921065155102587,0.084767891648892,0.2756774681354892,0.7963149490548675,-1.5490710191194004,-1.7704442906775884,-0.35571380048514645,-0.5071227097524014
0.6022722567619526,0.24291672708166154,0.11969498893531104,-1.4861164333710797,-0.2734317805182513,2.30796802369077,-0.6790421889832746,-0.4426651636847991,-0.7246122100258966,0.8254180459466904,-1.0987180344777625,0.5943235866179403,1.296564576972101,-1.0010540118222682,-1.6363432556624529,-1.4639743609256004,0.0038286219368327454,-0.31694597223187937,2.170987100823087,-2.5090075961768528,-0.022458622864477692,0.9986822356647281,-0.004336320050019862,-1.331894139677882,-1.317268891698982,-0.7569219722381005,1.2026021888070437,1.409444588845791,-0.26139162298713714,-0.0697075767868277
-1.2314475916635474,0.9655655419290108,0.8838561796381483,-1.5976712852994628,-1.25892213331383,1.8485468426709568,0.8372679348627003,1.132879673967389,0.650956182246609,-0.663592145504536,-0.5231093008482841,-1.5175854153878947,-1.129927946048303,-1.5650703604864977,0.19929014506277037,0.7315942863581976,1.4725178201419757,1.933644184564629,2.5413625120120886,1.3583682485974045,1.7662720242828411,-0.4982379160680406,0.2419434230517473,0.252155576100154,-0.41266085909797545,-0.3805349375369031,-1.3474617550327177,0.4527133935471422,-0.8252509020057411,0.7122547672316029
1.4895700786152433,-0.4134059386562605,1.667268906106061,-0.6667862015058461,-0.17844693743802173,0.39894147335923535,-0.24345733602125313,-1.4284528401768601,-1.983501925097313,-1.126605981159439,-1.0255405104645174,-0.9054153244413269,-0.43208855932305673,-0.9218956707910545,-0.4133089368932324,-0.8563219587144402,1.6774528758309726,1.6662133311812595,0.8726668386731617,-0.06392974542249166,2.4810051637579367,-1.1816578345306947,-0.14002430778686337,1.14155116994166,1.2036762216087469,-0.11470846982674013,-0.7519535586572342,1.8245602839060786,-1.729496207382898,0.7770685603714363
-1.788970543386431,-0.10280336501799626,-0.21343012009043633,-0.3368001873437427,-0.5664694754684925,0.15511435942773424,0.2586549911546867,-0.16419321230114092,-0.29799229993511295,1.8043414130674607,0.7431938585419425,-1.361894159742961,0.7267072757860737,0.13785063875681497,-0.366149733935063,0.9568649856609599,1.3390125742276298,0.5258092079132838,0.14805300304971467,1.0649492292860308,2.178292695564466,2.065459778106095,0.6866939345594987,1.379809779600657,-0.6094831299444743,-2.300390818818435,-0.7097037172190365,0.29874335280205305,0.7994237532541308,0.07081408450515214
-0.6338649335061303,-1.7966394438970632,-2.9445548252568563,-1.6675357274555924,0.9593234697283537,-0.15420029859502163,-0.41210841453283653,-0.4528100517331951,-0.018339204723016467,-0.37149940950244964,-0.7881401155576517,1.3667931000742206,0.8316065033467995,-0.850796108333507,0.5038700831239402,1.3649587497566795,-0.38884432638239924,-0.21556546737556895,0.08062111929492846,-0.21128330969738393,1.8964228957146032,0.49100552275427484,1.3491672559301144,-0.39122240979007794,1.005987841151964,-4.195417772119991,-0.0480426088233756,0.7692627695402275,2.1316430443929684,-0.137224339205644
0.8078930878998793,0.5494174732000904,-0.872629054681059,-1.3390859051196697,-0.2719033434253871,-0.5486104637761234,1.6824444415995714,-0.8040900665443862,-0.09869341570652683,1.170303977822384,-0.45517769203054903,0.8013695806528677,-1.5421042649244656,-1.4306565711125492,0.329486061589897,1.5689594294337461,2.6113043700840874,1.0218910908416279,1.3655508794130362,0.7640070827339157,0.64718093700196,0.6434677083937307,0.18183488386206187,-0.5046219629567236,2.066786609401025,-0.41152561055272835,-0.4373148872749213,0.10467958366742887,-0.8392689997729088,1.0536213079596946
-0.8705392216027787,0.44160229460356654,1.5663257600091067,0.4162153066514138,2.4307501767436506,-0.9395823455901745,-1.5381213361769825,1.0477171667928953,1.2498719164362542,0.6375224570447964,0.45671865360403846,-0.06609154306225463,0.17685318533157182,1.2189499803675168,-0.16286714719324175,1.3325327975701784,-0.46396966117564026,0.3382479045998082,0.646355718666605,0.6154130919907881,-0.8961973177503197,-1.7475776160981291,-0.46989027405244177,0.43262816623467726,-1.244334674996317,-0.5603284561466189,1.44169355216075,0.8592540406466307,1.4309246754277731,1.4630432255928816
-0.5176445290076205,0.9073113494425932,-0.5168564387147419,0.08413470743919309,-0.8910289597828999,-1.5899652938415298,-1.0104853543604506,0.06629013534573445,-1.6391588940315962,1.2400068977315182,0.17224087555896747,0.12196287716141739,0.24553209922299965,-1.0643801342312968,-1.4274985756186505,0.7728404058753465,-0.3319993409586513,-0.0869098512979905,-0.03643297977675862,-1.4041692805958645,-0.31144679237387307,-0.606428215244185,-1.6115593936237609,0.16826352854647558,-0.33907080607252205,0.7958115105208944,1.4857245008117204,2.2832961091164057,0.7086517591553282,0.9013597317152922
-1.5968511802671415,0.8459838788372372,0.351868051903485,2.233136224243164,-0.15643826652941606,1.6995861296627652,-1.1252732110870387,0.03237868111929239,-0.3422090378737329,1.256679026590862,0.8605776862594053,0.03063757894155418,-1.8613764245752464,-0.4239756118886998,-1.2874331806181263,-1.9227434679242374,-0.9006694911427222,-0.6120369655682848,0.4363031089633057,1.5876611800308955,-1.0550293957028425,0.4096055036650704,-0.45716709640874487,-0.7349993628363457,2.0288258356119178,1.188879443756062,0.7170172414596422,0.9586394597888158,-0.3895408228774141,1.1781768084159276
-1.520563114570964,-0.45995706814594467,1.4937700865586712,1.6717204059677915,1.0753946034109823,0.8681632939663158,2.4236799339714543,-2.465156840869422,0.8774885317010344,1.7180685204585395,0.9727038225074326,0.28543854271427754,-1.0079189302184182,-0.22074906258013893,-1.2206495489897247,-0.9570348208535507,0.07891096333316817,0.14967568670656514,-0.24858175575291566,-1.1416806206782093,0.16812810910653417,1.0453232791212828,0.40450842723092223,-0.850000101353148,1.87389429040989,0.027275553978946307,0.8803696757321412,1.440242328091844,-0.923764410414518,-0.4997968859432081
-2.159933828128397,-1.213975102126134,0.9595021005320177,0.17734259312577852,-0.5782528307700183,0.10099426410540968,1.2263558325343626,-1.6052560522915047,-0.611248432952776,-1.3984616069668891,0.4681793959772672,-0.45936713960761694,-0.27344468933567756,-0.44402991582945917,0.4074957883326844,-1.1539448866763826,-0.682083274088114,-0.3724587699486121,1.5362234418708216,-0.4919677127101684,-1.9863153996190162,1.07971705365278,2.8183896728714237,-0.09721472557626558,0.023690711290011515,-1.5855498590501256,-0.041973503101692455,-0.6348143903246881,-0.9244811350768949,1.0648901678144493
-0.06755920072246245,0.03462557599291966,-0.4336805859135889,0.40501676152218896,0.5195625090000473,0.7431843503767988,0.18229549575986287,-0.9617832433535162,0.5878924583772226,0.5530350755887449,0.640964264901925,-0.6963351435865412,0.8355706917982647,0.8565501670787116,0.22170283341009128,-1.4785973074810796,0.46419485495071044,-0.9249366625561335,1.8508604642975715,-0.6971919399964155,0.8093424399562819,1.7335951641112544,-1.044314609282282,0.5332926517582346,-1.450685120494521,-0.17936269971639926,-1.443997887490748,-1.8169777593749663,-0.37644451836383197,1.5798029634092818
0.9499570549060036,1.5884892748247843,0.6386025011944507,0.6149631961384835,0.1970925943302956,-0.32546832906600387,-0.3362832812273239,0.738817822134992,0.5211379992315547,-0.6413271540639397,0.5366987214681065,-1.5455123385918765,-0.6504161515567701,-1.0218553930188277,1.0685730424097746,-0.7549961169314717,-0.087397695467578,-0.7966346489011258,2.8182036051186223,-0.4256298382331677,-0.4343960439103426,0.4308676177877643,-0.37332948433702234,-0.9565118315708006,1.4703717183979872,0.4014460137921392,1.5953682801142057,0.24386737388268392,-0.8661527332855671,1.1854731218584325
0.017575779431950572,2.6859061527429247,1.1480266593079678,-0.23573628331791216,-2.07759156608844,1.7743906897196906,0.041783355950032824,2.9503909162935607,-0.8606563347690039,-0.9864323898772753,0.8381912013596057,-1.8960972453349154,1.2372209393225342,-0.625022407016661,-1.1297800705209127,-2.06791490827396,0.9413169795544037,0.6026260922316079,1.345070404570477,0.8273860064519597,-0.2675601410502838,-0.2302552166306061,-0.7965804786792484,-0.36204547681765276,-0.8599009509574517,-0.17355670198703846,0.19054094791680906,1.0048603365529427,-1.1253854733754474,-0.5933714440917643
0.9580818718353812,-1.1654417429903985,-0.6616165113710222,0.40342926125284273,0.3957043091566108,0.8101761100221431,0.06520231962459769,0.8062218705899047,0.2581388856795973,-0.7655119338135594,-1.3653535629031792,1.0366681044302104,-0.8316007613865947,-0.9796840575972287,1.6665551422286824,-1.4040675287201563,1.1307342081709424,0.6555190654663892,0.88327330518037,1.3312067983957392,0.4582626924604738,-0.2520047181839791,0.4607529577441766,0.10177866730269838,-0.34566767512187013,-0.32058961935454144,0.4469631142593526,1.2449057198405682,-2.4847300752805683,-0.4879465784739043
-0.5893542223986569,1.1814244014592794,0.7353950158833679,0.7103894976245376,-0.40065260507673606,0.45529850741151645,0.4025559375767251,-1.3383803228558,0.4852548677380872,1.1528589221546575,-0.3994041690992157,0.17152184531033884,1.299634889913292,-0.4881689386320245,-0.45641448946660634,1.000974659036688,0.11244699282979995,-0.21663613115407196,-1.0759083185416582,1.529749978133267,1.169132307977909,0.9315308440520567,0.8959624227349435,-0.5712351556805436,-1.3999018732748945,-2.348213661827341,-1.1900202401616453,2.3385844073976867,0.9226641147319993,0.5992077639400153
1.1710389417745939,-0.3401604505385572,1.9300525307565408,0.31779404953859464,-1.7051897002380063,-1.1173166372965355,-0.13073486743932144,-0.7004150135063032,-0.4255333115103772,-0.24952061803892736,0.48836662801423325,1.8167823363841966,-0.010965352918828993,0.38509547870921684,2.197078595190972,0.41799995241296206,0.26956300753004964,0.429659736206868,0.6636373958871994,-0.41662336442890674,2.2038917102118725,-0.459623796827427,0.6921508477698051,-0.6974296432191196,1.0247343209887705,-2.0260079789299477,0.9006164352518075,-1.5622846678735345,0.7977881966065621,0.8744289163505484
-0.23791237602438717,-0.9330436737292188,0.9028388817268892,-2.5940317122262573,0.37272068463145525,-1.2440540456714637,-0.404315760953536,-0.10989383853958025,1.086085134257754,1.3287882081098978,-0.2982013026531912,2.5870888379211996,0.35934862435456505,0.9227322972929239,-0.8454001478595016,1.178405894397158,0.430515207954593,0.19702046025524672,2.0557460476879883,1.8297400168076137,-2.51235052410266,0.11709100913405178,0.6570311645648612,-0.515697026168635,-1.4360705675266043,-0.2386675990176836,-0.040957639736203866,-1.9163240065251936,0.8955857137994901,0.16067091935675354
-0.029015727483243135,-0.6703367721662767,-0.7236235631286029,-0.4642112661038458,-0.7196315712214223,-1.7340471452421578,-1.1795431760189015,0.4321644625143891,-0.9352727989687899,-2.5715587590318023,1.6298746567865863,1.7415971825979677,-1.2672234639365885,-1.0512740449475,-0.5816444897183479,-0.046996717883511445,0.4971479117940635,-1.617342908073133,1.0069663038527403,0.7159768525630258,0.17553481540901233,-0.20537460308754665,0.6248032173946139,-1.0300926415519704,-0.6344730281231944,-0.42514797542419025,1.1338875569032336,0.30099754896806,1.3173871665344503,1.67517026514839
-2.123833334047308,-0.6348944713906496,-0.24919361917643917,-0.6074108893575907,0.10397640754786969,-1.1984016530565456,-1.320646424194765,-0.4576861569088097,-0.45445207973503554,1.1353209703455107,0.8227349004917914,2.2151993575827307,-0.32247420686317174,-0.7062145013584975,-1.3271787949458134,0.30797761915648814,0.7729453992869136,0.5645695715327808,1.4668719009909676,1.1721121335324671,-0.39953301297711435,-0.36331969310074586,0.22651480140024718,-1.0852858850827207,-0.5381173150373068,-0.14467600902697414,-0.22874597779508413,0.7799186608254411,0.41290268771004307,1.2466746439976966
-1.629515826796305,-0.33275947724659677,-1.5273012429569541,0.20251654954563358,0.5987644357718903,0.19419606151743182,0.7422367367126934,-0.49094142151177395,0.21653047531904754,0.9391344463297951,0.8032336779492317,1.3155609212169244,-1.3989313733646203,-0.8536034581638198,-0.5723348537041276,0.4311645214745915,-0.9651763067037574,0.2731124994134052,1.1645763711861832,-1.9249877147515795,0.07576015510158082,0.7239203955717267,0.6241564571901387,0.31810605600591707,0.1752782604462619,0.9185115220205246,1.7140598256264095,0.9965717463206957,-0.14078729208340013,1.8208961352994244
-0.9193802396237983,-0.14212797674052946,0.2880333351674415,-0.060992855700293294,1.7628029850159739,-1.9788655138689484,0.6097091507294734,0.6125216012636892,-0.39927555837295675,-0.5636892952612379,0.0033559732255691553,-0.13947337626012854,-0.7122573678394754,-0.3109277143521158,1.4127000042457454,-0.8507559048402309,-0.48655891834712384,-1.027087650682977,-1.8122405988148853,-1.051764661520136,-0.5333379955050626,-1.7785861896206823,-1.5658675371504838,-1.138303397234578,-0.31351127009587715,-0.5005205628886127,0.668098883309435,-0.37883383002470084,0.8500536291367369,-2.3968999113444287
-0.327647013697717,0.906283601900419,0.8538963503470761,-0.7098030487475807,0.6947224451286149,0.5256106301552185,-0.6744086922385563,-0.7227377455030073,-0.7144739411217105,0.5562854462177471,0.26430328787126073,1.4252684106736542,-0.4204192180196972,2.3646967819306117,0.8760060652294147,0.07540755052266108,1.5743817278754646,1.262005722039534,-0.19618648343543663,-1.010872518780878,-1.1222530975446003,1.5439211667658586,0.4719563336790183,-1.7624691243183261,-0.6439742132282332,0.43763597738521304,0.8776871791702437,0.44959390060651205,-0.16265876488147749,-0.745417276705364
Pesos da camada oculta para sada
-1.2720128788450422,-5.000808918766441,1.217911657101354,1.138899955967478,-3.5112664510516454,-0.7313805585015789,-2.087036331267858,-0.39930436059311614,-2.4608649620581917,-1.9443559250820208,3.121467760465406,1.5382585098137358,-0.8345994548311133,-1.0599302797406163,-1.1542342943816004,1.3449692472659809,3.360710807496899,1.7623473928475655,-3.224773594627685,0.4562701921100522,-1.8505711150576691,1.0992157272873921,-2.8502690848523016,-2.581314670252735,1.3930885035949736,-0.09637079108130474
-2.6501297676251956,0.6484079171716391,-0.8336806183123935,0.0195870191090505,-0.16052752328390857,-0.12027761542602303,-2.8102342798575957,2.1487005697740433,3.367919155392023,3.5166442015525035,-0.16675831672379784,-2.769806569325031,-1.559958367861941,-2.7019175520032706,-3.055739116524647,-1.1672437148741253,4.863446297166621,1.946149950901608,2.7878292380117125,0.6391429839284978,-2.4704664987599436,1.8746618247260622,-1.6530112185976191,-0.5642756671290416,3.0302717025883266,-2.233002693997678
1.5014320639193504,-0.036446773099672855,-3.0274255625890265,-2.0530755349311662,0.4057258237039214,-0.6824616484864933,1.9360449368118249,0.3859347940603022,-0.2928442350510744,-0.05622931791786039,-3.6590551548713464,1.0804581545871146,0.09180493141828447,-0.2178017381752794,-3.2610657305307234,-1.4196982047706317,-1.5310734335425036,-0.6447815107227302,-0.5397336209099001,-2.131709506046699,-2.5922296998421532,-0.16753957600574462,-3.2992785491257344,-0.43971552662432994,-2.8504952604840526,-0.4886201185058281
-3.057663464041928,1.259011986828101,-1.4152780018757511,-1.7603168716204944,1.2706348926115663,1.08559748388927,-2.650033867578907,0.15521939181683844,0.3664531319863938,-3.064299904126621,-0.6408822019875303,3.4447528757808716,-2.7374296671093292,-1.4635561515445088,-1.9421606701509124,-1.9809216984665796,0.1333006370752656,-1.519564366723386,2.2136193016901675,-3.726292986240095,-0.7155841534874761,0.8517273683644953,2.2531501063955384,1.691335514271212,4.0708728556863205,1.8703741632773239
0.0030226478678941526,-2.529910879942619,0.5785209017621218,-2.1995284901674297,-1.9601503379276113,-1.1275660819821567,-0.8173040755062234,-1.5728767836846258,-1.8008037341284746,-0.9013481222358111,1.4155085415056003,-0.8033627887587942,-0.8244147101109741,-3.6900817073370566,-2.1250922597849553,-1.7766306901096485,-3.082147652974824,-0.5398540709568025,-2.403808440684657,0.16337846960517888,-0.15395670262694525,-0.7924913194064346,-0.6961625530323013,-2.9533473192900273,-1.64635621312432,-1.0535633289993396
-4.85278200672129,-0.9562550360396167,-0.1896554454665529,-3.362642401368583,1.735140318905749,-2.0566442699645706,-0.765051062201147,1.045502254701757,1.5180036831505423,-4.56448185087198,2.3981483543009876,1.3126423470714659,-2.184996887584866,2.0644350643742304,-0.597414777759645,-5.252575208014761,0.034466208113408656,-2.8316267305369225,2.9566130962847517,1.8428365502960729,1.284116671894136,0.1959984504143869,-3.0482690705870685,2.405774449721813,1.0298744870079295,-0.507043075625494
-0.9304781802926387,-1.0186825832065536,-2.4536194785948697,-1.2227945859311833,-0.33347702464025203,0.5602975353349926,2.1012721121799744,1.2804912727969766,-1.1989030664161242,-1.026960550156624,1.1947559149168894,-2.2134960873945797,-2.8770570471398944,2.4854684906065745,-1.869928562263384,-2.2427251705886,1.9601987302832515,2.443800718564283,-1.2644051717270381,1.9874687661018682,0.012846944353045977,-2.6730539334480263,0.45060335437975413,0.5222365383574581,-2.0948288255900964,-1.6584338744094635
-2.1482051921556042,-2.0588692068356353,4.878023171313156,-2.718828208876481,-1.200658314047385,0.08133931303212909,-1.4222059002149936,1.3044310094414424,-0.7704197618253715,1.7266116841634784,-1.5151924614225594,-3.2562146105317393,-1.2473817119487405,-2.1108368114440164,3.34946299599138,-0.8792198400716892,0.7894487470133605,-2.164226501083409,-2.5483806724037104,0.6179693367541281,-0.5599342081819327,1.0946488623651374,-1.6512845233709543,-2.6976323406075715,-3.5340240805319074,2.154543938244845
0.11345984374342788,-1.440145170869474,0.6852817441546167,1.199331838757399,1.35625119013836,-1.0857248341703039,0.30001082489630665,1.9508550194376986,-0.9869275201752101,-0.8004066494134665,0.30674621766110666,-0.7176182348422611,-1.3394073195562175,2.5462107028700114,-1.5133764841592483,0.24424371238449208,1.2549063873622022,1.4132305276899506,-1.022432212958205,-0.8603708350982044,0.9760874666472517,-0.4323985518491128,1.6861659104912738,0.463048749112935,-1.1738298719483924,-0.34953248658211916
0.9405480035573607,2.915717391285717,0.2012568134680208,-0.5906302160291375,-2.597331132956006,0.36888128650068625,-0.7313768071446485,0.5558523532084747,-1.414866681635804,0.0743602269632924,-3.211418839993643,-0.03491814040338517,-1.0257904375976115,-1.829863306429226,1.055226205621573,-1.9711663378387294,-0.04241806426610504,-0.12153775999422238,2.2301205203806003,-3.581715807044988,-1.6137582456987545,-1.1997365082654645,1.3475300622803468,-2.1263965151277637,-6.064366583959477,-2.4873170041934074
-2.547503341216771,0.8765466270390327,-2.1198798760877637,3.2895425291200797,-0.31968321126690097,-2.0802694186841086,-4.949266640242623,-0.22123413750794113,2.413812366075408,1.233674516682725,-3.5270151991530754,-0.6250980097951608,1.26986758444981,-0.42218446802672166,3.887962428445272,2.480639417273417,-1.9847873874067272,3.306964595614671,0.22201448857431744,-2.3404867663661375,3.0811586405012954,-0.03010615865021778,-0.49281114854329183,2.246385740009037,-0.7204672810729349,0.7568965240488548
1.7911106452583248,0.21892685715424443,-4.480626850767574,2.203444362300308,-1.8031288752086154,-0.3534980830905534,-3.423079647529321,-0.8612637513020468,-4.141100062809552,1.9135865407211297,2.187901623374574,-0.7936132734108746,-2.1396710563615025,0.43727849329391033,-1.574940517991811,-0.22034526934165463,-4.623480914530549,-0.8941003378137663,0.8690374837209383,3.4336354219183107,-4.26703246532386,0.7843673308140847,1.0838834077341084,-0.7538431494542508,-0.3819307236112313,-1.9244283737926628
-0.5873416620650113,-0.24664859436299025,-1.5576648755018434,-1.26347733505307,-1.3421242090380108,1.3607019638377365,-0.676378059845507,-0.7651088853391007,1.8022982067991264,-1.0276483302877721,1.2548896674289038,0.033888581031181864,3.5854835360895834,0.28456832596260695,-0.7297065700112333,-2.0360189259130204,-1.2243610146039021,1.4031937700063533,1.3765722021643574,-1.712157739865488,-1.5147438262094295,0.32598322300363924,1.1419696511137987,-1.6375011324034066,-2.3619877099301894,-0.464457922956482
2.5778429167030104,-2.4384227820568953,-2.711539372985175,-2.7306436891399453,-5.056849681270258,-0.4581345861574617,0.46057264154380567,-0.9276977277741612,1.9829799947815374,-0.2024379680506487,-2.9859346840808136,3.7316927515591143,-0.4482958179265993,-1.054496701245813,-2.5555107784391002,-3.028563320656209,-0.1893274367093873,-3.2485834977486605,-3.259142794234522,1.2254330943175582,-2.759394851637991,-1.2506101483678222,1.7553190612724798,3.9617759417561693,-1.4929971800290567,4.713205620005075
-0.33109230356915537,-1.6693420357108648,-1.349066147994059,-0.9354944834233688,-1.4828069096820433,-0.10757771651557502,-0.13821342446111246,0.0030028450628282626,-2.9405173021836797,0.141691234987697,-0.35330516099361764,-2.975724318734895,0.2669410029546279,-1.124789839647808,-1.4008062203853153,-2.8745854958568473,-1.58393161372214,-0.2911668859528024,-1.7386465948827914,-0.8071774081078956,-1.75262334347726,-2.429562857715179,0.5593782326317708,-1.8950334487536213,-2.8076071847651636,-0.9167815809970018
-1.0983315215652658,1.0029555195424436,-2.327586917631453,-3.209012025482592,-0.41450764249661864,0.7571075388889262,-2.7618827559531045,0.6517022281401088,-1.3134552206641816,-2.724738053991953,-2.303873757201256,-2.6685083796668017,2.6166414725671507,0.850024972166526,-2.3020357916659036,3.9035490563800335,-1.1789468725659862,0.9673888570455846,-0.9144846693726013,0.521078675180037,-3.139591777246137,-3.943229302877951,-0.6562293158352273,3.2902330623616747,2.1482310727748213,0.3526450941393332
-1.8616240852198542,-0.09640132579340657,-1.6322530971406486,0.5023788226717834,0.09347433646391573,0.2235934896462712,1.9355470954849716,-0.6972931505817835,-1.8998774047972453,-1.4822671745434584,0.33548627757755267,-0.28829752145621895,3.68556776462589,3.351059328910442,-1.6013548192729836,-1.7373550533496902,-1.6637936298554203,0.9529535682353708,0.009524527450799737,3.0251292218097765,-2.5821269431128786,-0.5840289241829586,1.6122280894356136,-3.0268362271349556,1.2774970966063914,-2.6442477098070656
0.15266905020547275,1.8897832565966184,0.7468861185711131,-3.5214992016634885,2.3886565824018575,-0.3624243924462441,-1.1178412589595061,0.42629645388980214,-2.295716415170214,-1.1551704510123304,-1.6966003495931228,-1.39647067607346,2.648937436366758,-4.251213751054711,2.7123274066769225,3.3183641134431694,-0.06956265923091567,-0.21457764597350557,-2.4147947154095974,-0.29339478542334224,-1.7332520815351145,-1.5223586013948953,-0.34890576216736585,-0.09669192131477634,-1.7389443770275426,1.294731310976476
-2.317512398889474,-4.405626227928161,-2.5108231325085844,-4.519776406729827,-5.578823457693793,0.4146466243436453,2.0128120062743267,-1.562815269244765,-2.654277528710495,0.6828321086951822,0.15178865083309898,-3.4803584605572113,1.2923791134765306,0.26675765539095936,2.1560109036220276,0.07060280558561179,0.41194376046406006,-0.9929181648354698,1.9952617091327913,-1.171238070908874,4.02044191027847,0.7392464812382421,0.9275634592319841,-0.7373630421931385,2.349561631773914,-4.63205472138551
1.2330827005227318,-2.924060463939262,3.4729957959817104,-4.465445164098724,3.5659624842886575,-0.557308049010547,-0.6531865713784771,-1.867735946039621,2.5639473797728516,-1.8900024352708327,0.5587274372932014,-0.8131886271149126,-0.6257503486265664,-1.8880579371918107,-2.8357431336729513,0.7117510231768897,-2.191248633872947,0.38289932466312304,-2.176867620186581,1.2582479027903635,0.17173798086660536,1.730529905409714,-2.9337654914043454,1.7006009282612957,0.9776473943476185,-0.1831995719817972
2.7213151559560336,-1.9181163314842014,-2.9758239165866285,-0.6303381935233735,-0.7331675240356215,-2.190694404009171,-1.8770257911573491,-0.4389876672499164,2.9463909843879375,-4.327397750841874,-2.359917303815256,-2.0315059538586104,0.9649104006476771,2.481863282311208,1.9350040585818704,-0.5590454384141436,2.0478044366821266,-2.3474382440013972,4.131797151985359,-1.0810850858100975,-2.8151572620742953,-0.9509687190435503,-1.5675866799192164,1.5615924929436305,-2.1969776655652598,-1.5691180154938529
-0.7400226714453327,0.2482917009784745,-0.8355968693473271,-2.556554835879929,-0.18180157124998556,-0.8567233369961644,-0.01101456424348399,-2.6419895249212817,-0.9611467913004498,-0.13953893911404186,0.6381737018449709,-0.8732158688884886,-4.349936517737313,-1.9988718937326257,0.617287267551611,-0.36476666713521055,-1.739332393045344,0.4958028067775421,-1.3939485767712168,-1.2533948948361093,2.0648817374373065,-3.2777014298116924,1.522122902936622,-0.22087891841954974,0.24329354886137836,-1.5156003781200917
0.31399325703163283,1.900046931244237,2.890001964248682,2.8544834629407982,-2.9141993895938314,-1.0812534878069566,-3.0191700800758987,0.33955407053944425,-3.332039412093394,-4.801008322591521,1.4502343279380892,-0.423226350677142,0.006625195311858963,2.4527276665428834,2.3629190189966276,-0.6504248021275555,1.9548978972907374,1.7360490514482072,-3.8166884517422854,-6.043419131446472,-0.9166737880821854,1.8425820481288282,-1.668653856895203,1.68243714778935,-1.8480044608877975,-4.190724348807713
0.4300541650895999,-0.7618875349787083,-0.609828547910437,0.4835616830531073,-0.8180207717486563,-1.0924974227149025,0.9312215364655804,0.026095305058258505,-0.48568429831313426,-0.8523342601446987,-0.15588942784029097,-0.0019931231589887088,1.4809694101866289,-2.158954043894348,-0.48165731906558146,-1.3073716097583101,0.338282399988562,1.1747211596121778,-0.5374537742709474,-1.5660954244232106,-0.11610542642141355,-0.13780784608394311,-0.876145097026868,-0.6764807170229985,0.15254482249902684,1.0416276767263082
0.32723857030443165,-1.6624169475117185,0.2712583839520054,2.264966991758435,-0.4273992326670291,-1.1045679240315656,0.37409655674650605,-0.10498201271142053,1.398321337855187,0.38671689511872304,-3.3154983037369816,0.19989958439177316,-3.612622610632496,0.7774938333800177,-2.1434491688665593,0.47131802515993226,0.7528248284969835,1.2580425912750617,-0.0789789254472575,-0.6430647614683789,-4.238158713259038,0.8985089655858033,-2.7593151329857366,-3.1328161386437445,0.1402538856465775,0.26455055370825337
-2.9388743231259826,3.9449846683184195,-0.027517270144269967,2.0869898740207917,4.275742626759737,-0.46499199958237286,3.3884513343139417,-1.6051134243363778,-3.198524402925845,-2.6533668413331215,-3.3609326636891135,1.4826926754410272,-1.4884120837292911,1.1266798187869873,1.1882753603768759,-2.4828450178068517,-2.7249441000593198,-4.912736697714603,0.3700575456082776,-1.0685344579487766,1.8861015002086265,-1.116128876423773,-2.4478936174334374,-2.9958911368152115,1.464650259986358,1.9173475847126709
-3.38406438357815,-5.656817295179476,0.8269716344086511,0.20997287444593798,2.3852490958218144,-0.26747252556080736,-4.35558248874767,-1.5188292867883353,2.3951114059077674,-0.37795760571120274,1.1449264364420872,2.448194787101166,2.2860265544232985,0.023790651025147463,-1.4742513198460205,1.3961602827475148,-0.876155033956374,-3.3702671101103254,-2.0254240688034733,-0.5599853315000657,0.8879545071365275,0.612318024468948,1.5338574015694377,-2.0448548794982058,1.0653934078458116,-3.1534082978617937
0.31631330740895786,2.5200912332772787,-2.406547585864057,-1.5920255438056692,-3.6090405314455767,-0.34982496151378173,-1.5127413144189346,-1.753669423142283,-2.2078432712807943,-0.09284151095057559,-3.455633617666853,-1.0114566254681556,1.6805920227522853,-3.2874842511775793,-3.071211928292201,2.0235395251500985,3.055017079658225,-2.924030155273576,-3.225783916451853,3.412590036637467,4.4964206755022165,1.4873328340535306,-0.06785104419792352,-0.8517499435525122,2.013257494232709,2.0758657065128805
-1.0876038281916787,1.2217605878966795,-1.008027435340852,-0.5305570123798584,2.7893466809232588,-0.01880246887183675,-0.6462592021641326,-0.12052663205651974,-2.6108290522480844,2.338725558624069,2.2833730967513595,-4.071838186764566,-1.3527526707865554,-0.7685993089631966,-2.934067605141995,1.8911583604805324,-2.7786741044843684,-0.7725225374177639,0.5100980118280792,0.5283876987386457,-2.632288234905202,-0.40267729345973946,-1.4914109240597528,0.4506261168167927,2.0706804547279556,2.158749698870434
-3.059837765476365,-0.46102170399027387,0.13290038050538694,5.17868554413406,-4.5471608826693695,-1.3260737436681573,1.7393144550553616,-1.6009367412069315,2.0517215725320765,-1.879551422311236,-1.0338305040428997,-3.226281464850279,-1.334182512627864,-3.0669180712264916,1.5210552263220531,2.7446424827799762,2.826477534928772,-1.8633807247899967,-2.932021326405227,1.3789391027265263,-1.9675192120288432,-2.4962448497034604,0.22489114878609068,-1.7309178723824195,0.04042710575675408,1.2059137021288604
