Pesos da camada de entrada para oculta
-2.8456637816993746,0.8798169739567292,-0.12093701010104707,1.3295930494124906,-1.770238289539143,-0.7939718207402255,1.1806421426494342,1.9663722149431067,-0.08437898550118451,1.0755648779082823,0.3648115535667878,0.8587588018334132,0.22936850622050392,-0.3797859715783042,0.5171007810325254,-0.08685352572885761,-1.2306033090573945,-3.8941021413143764,0.5440980635553384,-2.3912756739534657,-0.0023261606678246197,-0.26509017169498333,0.24578138529138738,-0.5493948353109931,-0.571914853291118,-0.22721868564982478
-0.07548356465917108,0.5078370042200563,-0.20136452941056163,0.26575017328821704,-2.226301505068332,-0.9522722158310346,0.1802278433194518,0.9853984834647759,-0.08157393837052765,0.023784750297482265,0.20460165695124838,0.287954575697878,1.1652691767186336,0.6799135566857247,-0.0755614560435855,-1.1455275249715684,1.1226889645378662,-1.953190421840287,-1.0979479778630914,0.3704668203292741,0.36182870577108206,0.5356280184349147,0.0704136168797,-1.9958958290958662,-0.12858574737332198,0.6422377855441309
-1.5107351179770911,1.105243618819658,-1.4318280570791369,-0.057798420315840184,0.9456952848039909,-1.2360337571425994,-1.0697315277373265,0.9227923872977897,0.029286874333341525,-1.8499862072462132,2.440916138700888,-1.0150486302541852,-1.3116864148575784,-0.5390178497344357,-0.43785914792319947,1.1181882887093635,-1.0507470059725847,0.6419807638872373,0.3094487680196644,-0.5209040648061136,-0.2886687579947601,-1.5047440720045049,0.6065086332877944,1.0368237000822664,1.1234806424629196,1.6717077664958782
-1.8022130781522645,0.10107644271876952,0.048324953411766375,1.100260485022589,0.7071198012200518,-0.6572569691010839,0.21646436347880368,0.44289777410206815,-1.061346463216742,-0.9664859267735773,-2.0570507619627625,0.8818863214638887,-0.1837556576296373,-0.8543025445194474,-0.5252580861191617,-0.5122685640569469,-0.9705912789167259,0.10557514073398146,-2.504978177969711,0.6047700126028436,0.9183952539663748,-0.1013962595560226,-0.124715593100891,0.14601899068672727,-1.0539778072016233,0.7538725848599128
-1.6755741110491962,-0.5371670396583113,-2.0545015017538777,-0.9671346940063975,0.2889938275999389,-0.08468394114262645,0.21642140879464777,-1.184255495602775,-1.0043094213287271,0.8393316560641366,-1.65520124350521,0.8378012165893858,1.0099371406228577,0.8924663678527603,-1.2958454862442432,-0.5441725903419918,-0.6418658024934827,-0.8537722864368588,-0.003144431812612922,0.3638780522347854,-0.4032235618859283,-0.5318492823318597,-1.0587047490064283,1.0072816653613745,0.2674750024699789,-0.21368175427064012
0.5259246702130402,-1.7671321867804872,0.08283178419930061,0.5736617950452173,0.020761631183959108,-0.7110542080042301,0.6219009171948499,-1.2233671222821152,0.9533350739970459,0.05198860536109196,-0.0858935735042643,-0.612409861333458,0.9958825832019764,-0.8675006392710982,0.3624433525925978,0.3737635612617711,0.883016115532531,-1.7914437875854923,0.8073678482584319,0.9820136064361571,-0.2233452099823569,-1.1601625696088549,0.0333121901063487,-2.220927107152053,0.8632108799195483,-2.1101697657099243
-1.5708177739852378,-1.6684487752069563,-0.19902169218436436,-0.1062739394234757,-0.8851973057961185,-0.5694264284109966,-0.9698918578566803,1.3121889816474066,0.2889717080803786,0.7055920084140257,0.7923012084235362,-2.5911781346838976,-1.344730230896771,-0.17279399948024127,0.9857608982815855,1.1002709156795307,-0.057274031962045675,-0.7829275035548491,-0.48842708811253954,1.7500959484263483,1.2092510647765795,-0.3031332975628686,0.9336057734721431,-0.3940588614293866,-0.30235496585335186,0.18007402908175965
-1.6147017712656695,-0.6437874719768611,-0.5339732939621327,-0.1063449957972654,-1.059096388575252,0.09275008814968612,1.1636299872418747,-0.4297314309426807,-0.23411820104133133,-0.2469006857439728,-0.3186028473545054,0.11125554517114136,1.6562967966490898,-0.1120920848225529,0.3347093845753632,0.6176486498254834,-0.16324211686574835,1.1098678939841835,1.0882024682417084,0.6965336025522272,0.43327322868984974,-0.42549096659072233,0.5880214513577378,-0.07727787371393925,0.6390038035120034,0.781944726187642
1.341584339250928,0.9474922954247003,-1.9000029744149236,-0.10512573287571973,-3.4944728845240722,-1.226534412636108,-0.8569830554515515,-0.7484691580004412,-0.11144994233205217,-1.1534696575157786,-0.3920813868098923,0.29495026455888423,1.6670326922719174,-0.78125207665608,0.9077057755154198,-2.5985705148223444,0.3397482346672033,-0.6471912649597601,0.06607996391229243,-2.1319896735617205,-1.0110209228452962,-1.9353273069106036,0.6273654173559535,-1.3512801231414862,0.7934948109215969,0.13156701199602142
0.09516652310869518,-0.10261464963460573,-2.0569327932811774,1.0573558132550376,-0.4681898553112787,-1.3959036097874988,-1.3483648533126138,1.5166939340217038,0.47999105037369677,-0.7168720439971435,2.008008880274473,1.0400515356841757,-0.001101954607873114,1.8954868791201147,-0.17339230960201035,-0.3827924353027777,-0.6048865505728944,-0.14700566507582027,0.7011649504530919,0.0791128210970389,0.2103982521549847,0.5495181712049464,-0.7957791007902979,1.1555045030600308,0.4567316101539757,-0.1499404883255285
-2.542659382789999,-0.8539356339703766,-0.7801374181890628,-0.45458627217625514,1.4639762821406592,-1.915519036545043,0.0751103986434087,-0.8611313107395447,-0.5914710541264925,0.0527388244258056,0.6874741347546873,-0.7414156131571351,-0.7002924357441002,-0.30971346089495605,0.45114947949375606,0.4892651465039133,-0.46238868105909453,-0.8294051267725983,-1.3558276919031118,0.8574184923827791,-0.8102328208111298,0.5829970763874458,-0.559250005843207,-1.0650299439654047,-0.40851495368733887,0.8842685326856838
-0.14869699959473195,-0.07880969009991022,0.0031998549231764214,1.4296597232504702,1.4029200841100524,-0.255384921470067,1.2729333904838604,2.3367026907213404,0.12677810679384857,0.123035899189867,0.7424531396781718,2.624643663453779,-0.5320910567563116,-2.251847085681079,0.47709677984676657,-1.1432199191491936,1.266475092865338,-2.3091827426077156,-0.7421606930674267,0.25612011023345266,-0.05182979168214164,0.09392104675935625,-0.42989962165088086,0.41181154290417366,1.2263058459357714,0.0837480794724044
0.38121432496767943,1.7326344556269075,0.01233262863664518,0.11660705912773932,-0.9410945911941248,-2.019587011175192,1.8192141937147845,0.9066351189842613,-0.9020465097756067,-0.55313822489925,-0.24453051302864534,0.96103241367304,-0.8783987583729085,0.9202644071540248,-1.4853897610435929,-1.4865189752780932,-0.5042423725990266,-2.368406521692229,-2.4749356908786564,1.1164310184194963,0.8775062373575829,-0.6756182666818893,-0.22327900322426159,-0.8383493013937805,-0.11232577512086701,-0.37394195029958
-0.700747643069807,1.2565244774188709,-0.2594568455382336,0.1328097406903105,-0.24608164181010012,-0.6619792845684322,1.6498569276750774,-1.169668086030754,-0.9638864022356921,-1.360012879550609,1.5601468784611239,-0.9806616587304838,-2.3143990321045185,1.3612777369232458,-1.3861604634434428,-0.7512673587024403,-0.23680662650024895,-2.109648733804493,-0.7730521204385187,1.3817396098879584,1.3748267399090444,0.19643683226840422,-0.38039462764292087,0.6080034312636682,-0.1294276614275972,1.3794117669007904
0.17637301589028884,-0.48144392833370514,1.823416188741197,0.16830029468950822,-0.2897387448268359,-1.942460753650425,0.09957419937193324,0.6180838490408709,0.5508468734109314,-1.940634235546764,0.016997650982045996,0.8410933427008593,1.4084624042248621,1.1308447685545047,-0.04723695854992039,1.6297379353709815,0.18062155949652134,1.017323054091103,1.0222263510735827,1.1862098272355621,-0.1025897711435667,-0.9681954496557197,-1.1831398349597613,-0.4512476353208343,-1.372735856094178,0.9982788718437046
-0.5233626010705339,-0.08054104133582406,-0.5738940451539041,0.38511431010755953,-0.9703945132836715,1.8859027564511932,-0.34461939681573867,-0.3560255925076935,0.9405384062288664,0.434427975368064,0.8163672528646505,0.04509760872496385,1.1415391561972414,-0.2800043879289391,1.0478440370742144,1.1470324233750926,1.0632448610758594,0.7294876938667809,0.9454332647553565,-0.24561253708552583,-1.5912822710916734,-1.018921041010556,0.4975313527796925,0.5192273287944364,-0.08167383685229218,-0.7169015316125902
-1.5753796328398522,0.7129414925941172,-0.9228157593383467,-0.10793163174086401,-0.08883517058546053,1.192216955831588,-0.15269537540169156,0.1412446994235769,-1.4426252876194892,-0.21055231611329134,-0.858502603874367,0.6038641313760664,-2.5177757927723956,0.11895477682312242,0.5413165098981076,1.1408104845042102,0.0643381082280087,-2.2851100903437884,-0.19342357052947043,1.1272071225662081,-0.24194401259744852,-1.7867288645864352,-1.0996643774178134,-0.1263125986972134,0.9587668060753419,-0.4888401484108203
-0.9182609429562164,0.7075910685841863,2.2733204194197207,-0.523379664324902,-0.3291430884259292,0.000330355563517833,0.7282833364498313,0.8198615979168791,-0.8854796198654458,0.6884483464070826,-0.6890689212198583,0.7833202265363148,0.6602387649953587,-0.6993203665207595,0.06317470251946085,-0.22388729853444658,1.46112988551159,-0.3268041592895319,-0.43413804467924544,-0.9205051801609851,0.6042064745652665,-1.0325935150603789,-0.028373703417631114,-0.27870544833187877,0.6371006121922871,0.9514855095007544
0.6358171415799809,2.1554659899947053,0.09775748996528755,0.10320584585388559,-1.0500148198772135,0.13522116865955816,-0.1206611096369859,-0.10122079195062035,0.4982394701925252,-1.3905450250760736,-0.02565148758183342,0.02032216570800289,-0.42141062023625264,-0.5010539694349623,-0.31964032633014,1.5414583242779785,-0.9690777118806184,0.10840443431410203,-1.1940445661360923,0.20086255034247155,1.254796705283201,-1.5553071880144942,-0.8694084885519443,-0.3093458784253254,0.7469627737730976,1.080689240729002
-1.4169986020645076,0.7615584483060841,-0.7950828104674567,-0.965887413116649,-0.4745032262222116,-0.4139718480204023,-1.3741693379039026,-0.5525023981443098,1.584277647499673,0.09423599801915583,0.2962372944546219,1.8795199821152702,-2.3886642959394875,-0.727914122121165,-0.3659141597994831,-0.8186954834354938,-0.00797066081830001,-1.9218871683250696,-0.8027778389329355,-1.0853926256910247,-2.3744747439142286,-1.4689494523756896,-0.8956305311349008,0.334466123560316,0.7441826785685246,-1.6554538768806075
-0.5485288887292985,0.665554125878061,0.01091685804270156,0.7083996238974752,-0.17586806339278946,2.3285315419733634,0.7280415223772548,-1.1202593138631491,0.6203900562437462,-1.42453735221916,1.0195148363178674,2.2508773347521496,1.9960101832949237,0.008559034918502482,0.2503770910602571,-0.7223849029371553,-0.5382923138293086,-0.39828296467374846,-1.428499807253825,0.08586939670093835,0.3094423901004171,-1.0822019812493626,-0.5769378641312026,-0.19882811017520968,0.6795213768104569,-0.18438490104832458
-0.7719218354021987,1.2730200963756872,-0.21948240330218616,0.314472336266882,-0.3521446264021442,1.599828702753597,0.43927332457955826,2.173135048624527,-0.7077924844451469,0.6202387707234529,-0.049550107007655275,-0.04458837712095619,1.7419413096806715,1.5377099577551228,1.632995516905823,-0.11002452309206842,0.052775381300475606,0.370988394727065,-0.22222485520917384,-1.1777350555071546,0.9775831917689187,-0.5922712794660787,0.44588069221820115,-0.45216060839391004,-0.3231396242334457,-0.029015629214876076
-0.7148365865204535,-1.3270571629811214,-0.8868066742529556,1.1737071557637753,-1.137821402326362,0.6890357347763009,-0.06655608208705197,0.2275782584753162,-0.4377424821055088,-0.09385106096169661,-1.4813441576774955,-1.3660597064727726,0.12047304734480169,0.39423538129260277,-0.356988884135568,-1.9381018116649429,1.3787048826993367,-2.0299204743218477,-1.0618586003829855,-0.12178494400859878,-0.5171745869208183,1.2627789328266097,0.9280633133104589,0.3042060712310095,0.865526908666845,-0.379546237354668
0.7578439402553201,-1.2217468489492211,0.9386055418276488,1.6735495021393292,0.039495040524981845,0.006418950657307786,-0.03660171287490176,-0.32510630583996314,-0.09197261340254005,-0.8932356613301069,-0.9633156813566738,1.8863422979048803,-3.166224893867138,-0.4909761672034307,-0.6717537910607189,-0.02325593337306275,1.5105127401386163,-3.4421192654710664,-0.5594675829665476,-0.34187244342457884,-0.11465444114796021,1.020428883222977,-2.414438791633249,-0.9815306825228093,-1.1677481504630929,1.6674100020325329
-0.9633391547914278,1.21776052168539,0.7402535030874998,3.4316105188639416,-0.3474256318479706,-1.4013600895674652,-0.24610885544558697,2.8726482143173917,0.8499717256715527,1.0846139303248707,-1.26338597000478,0.9631371184917075,0.1362427360441944,-1.5062461574685424,-1.2099381197845926,-0.4163102173193248,0.11515741687116819,-1.4024992442962159,-1.1835264868476087,0.43344974058484786,-0.9740776718078659,-0.3381866990561928,-0.3258353656517807,-1.6005688145655388,-0.5242420225704439,-1.3308410756264997
-0.7786946930887266,-0.01275025039273525,-0.775634280386768,1.0971640959933806,-1.9202925508422208,-1.7059124149558842,-0.13699493397971257,1.6376701027079692,-0.1735732702107505,1.9223704624105473,1.4824612109642306,0.5311672091293318,-0.722926838931579,0.5724900140757674,-0.9953683561907866,-0.03727685405247549,0.6098611126952973,-1.8022544619187117,0.3640377099007438,-0.4465339928924015,-0.6092235306108895,1.3971298026546135,-0.01032238832453167,-0.23869506274954821,0.5934544295215853,0.06380413135867384
-0.21067798097990195,-0.10908076323289304,0.7383992770758119,0.8352757728533966,0.7585763205483562,1.2097034989364086,-0.6390626285913613,-0.8261324508205864,-0.6593131635008884,1.72262157151995,1.4502536813171056,-0.7064231426668909,0.05585239439441499,-0.751201245874391,0.7898882925141354,-0.045430010140154596,-1.1485019749801197,1.1750033679509602,1.872958670877838,0.383878974116329,1.8656140521827105,0.3020240761326799,-0.8885020347751659,-1.0521595041490828,-1.2995101800908075,-0.6085478228527565
-0.6440116624181779,-0.20581430344749269,0.8286194922956918,1.067588558883706,-0.08084500674524261,0.39878574489635804,0.07615055694331845,0.19499739949567474,0.15566542890934218,0.1915015013877341,1.763684395575855,2.487974168073229,1.0871576736545534,0.12131627442157739,1.2350351385318263,0.0627437633442196,-1.3220817432412664,1.073568067844891,-0.43221280356863495,-0.5872762079051361,-0.640081656756215,0.4152746518350778,0.964791027915522,-0.39422391822853203,0.7671310211750629,-1.1445004862952537
2.208485972055047,2.1996959633126107,-2.2258058851471736,-0.5182962458777965,-0.5800424594418007,0.4944000069017714,0.9011845432656352,0.2088449519810991,-0.5587305842059674,-1.8639389147396168,-0.7278663114578643,-1.0736740539047154,-0.44148974606613345,-1.405720765702617,-0.1749687731392827,1.0363667097232114,-0.17811370888336361,-1.654143101339118,0.5633820933263931,2.2310303573678802,0.5933181855377098,-0.42828251410588963,3.845991945826988,-0.5547922464547689,1.130874303075694,-1.3440031295075354
-0.17165540103352853,0.13341549820553106,1.2073120129989874,0.9459590539150079,0.054799073505222694,-0.704623253982193,0.1351288413493133,-0.14248313297579807,-0.20989347030889974,0.7861352995118824,-1.3533450981732362,0.3194099683861207,0.42449045539518526,-1.2334833070010212,0.276400220245364,-0.9959006942324686,0.5708653663740406,-0.9028907281251175,0.7595520067889295,0.26564431228510094,0.7498583566066971,-0.2548946973060859,-0.8869843846580531,0.8723301327121414,1.455260106339473,-0.5915593015034085
-2.1710966619834315,0.33867882544534755,-0.1545384539887446,0.95317409593045,-0.06684088416394164,-0.9255633915881643,2.0112189324599448,1.3109128713719809,-0.0020291549239588942,0.32545307221218794,0.8207193954118926,-0.5894130047773571,0.2225690240110632,1.4617645538500088,0.20569734346744836,-1.920921399137632,1.4626923757272845,-0.800490941719212,-1.2003278192388556,0.07833430660196268,-0.39149019483879605,-1.0943120501745363,0.5892416648543045,-1.283623808839772,0.13690192808385554,0.0984829436809818
-0.3374267034849623,-0.5393205063159157,0.12379503685007348,0.7711948172437608,-2.5567622969857395,0.9323466076696098,1.1396845819491155,1.2118897812708478,1.6615993645077063,0.37171088455005863,0.18596271015213545,0.5552242386295185,0.4147995175029982,0.23284656300782286,0.24593079025891745,-0.9689151795531016,-1.4836456643538756,-0.08545649456975,-0.9682569288158123,1.0736404361386547,0.5693792624918788,0.18772465772139474,1.6310060496246384,-1.5008047123574781,1.6406158530208892,-0.7330794976339036
0.5409372901611812,0.4432237647638852,0.5629889018906125,1.3977172019322617,-0.08994097182140746,0.22406266370740002,1.8743278816850764,-0.32995054716738126,1.7191928203297087,-0.3921652362049237,-1.1576968134362766,-0.375012801042003,0.038972086257701544,-0.18948716661776455,1.0046657566817483,0.7400781474920501,-0.44868039201800103,0.17779662008488623,-0.834301680582135,1.7180165692411218,0.9713899735260211,0.701549901300493,0.26499474076958257,0.6651593348816263,0.28422188854468255,0.6305749774140332
0.5987767883737198,1.4233126555171725,-1.0065074824747915,0.46663861666519674,-0.15893407271526483,-0.004976179266576731,-1.0607086445225413,-0.06357286982250271,-2.745455903358851,1.1879773388436783,0.4010591780123456,0.9032749325152057,-0.7191419372181028,1.4282036659542883,-0.9075945248069284,-0.15634453593045805,-0.34737690927663256,0.5409216581432975,1.7582685791027697,1.1334324239579963,1.413751332373972,-0.19716148385016818,-1.02874998562615,0.5452729253417902,0.8907727329605697,0.5905969891255615
-1.3814337370613228,0.8144331350344823,-0.1388986853339776,-0.38238273723504435,0.36289892870697227,-1.8680251843870896,-0.5633081051680372,-0.5487083009120007,0.2739575834513658,-1.0651823687050737,1.5830565512045471,0.36271502355140883,1.0154074586269066,-0.13792861967986453,0.4943467568115657,-1.1927583513441744,0.9515265029895226,-1.6985175320067818,-1.5200279953773683,1.4386876457584892,0.15336521228658914,-1.1107146807113881,1.1298885311231663,-1.1450145617884389,0.2841601904929298,-2.8681300346683978
0.5543628972729726,-0.3388581682901462,-2.186068582430323,2.5559761701154686,-0.42995109775265794,0.251393880161574,-0.30507596902015455,0.9968456035231756,0.28198129311518805,-0.126080386435651,-0.40336253848911846,1.136687700599427,0.975039378002761,-0.2985141455234459,1.1879020517927847,-0.957732357037144,-0.7642762480286226,-1.7717761980414184,-2.290472291879733,2.4560334289717027,0.9747539260358388,-1.7426731475470452,-1.2808581785068778,0.6553899182192117,1.7684906501633482,0.8322581605941028
-0.9976043981875403,1.2686739926121078,-1.3924808210397606,0.3859582402053212,-1.0547362326659788,0.24236142022435284,1.9465062756615175,0.3073878185436253,-1.4226286335687692,-0.9804203949103312,1.0297179169870867,-1.1073447673664738,-1.0232953723191573,3.317292572581927,0.2713759352679247,-0.6536537875697787,1.115269016713758,-0.9120337611839452,-0.4760733016476186,-0.22173604488059348,0.5221579457521177,0.43810062196604427,0.14842555420331613,-0.9310780793149939,0.37245679042528457,-0.42199381667681546
1.9785426474289385,0.005165212153306674,1.4882896584344971,2.222973237888595,-0.015775740457893626,1.2363054643034252,-0.13895864417533296,-0.8433010840925942,-0.5958830621134503,1.5655925495866136,0.5351168315451491,0.8244632538953431,0.329754473374272,-0.08655400323304063,-0.7361716285223443,0.17079311502709657,-1.1022305816866786,-2.359315073977127,-0.639617414997589,1.4218421202580946,0.6009498185692612,-1.6741369331480482,-1.4286939773692504,0.23313749073131507,1.5713337093778337,0.4565291874809415
-0.13197274156045186,-0.007933751158707413,1.7814893568136154,0.7052751888736292,-0.5472246585990642,-0.7599943853824215,-1.2009998302945362,-0.2589370660692936,1.1411700106453035,1.4014503051843403,0.30624402952384994,0.09287087530465875,0.4843081642486379,0.5257320887186404,-0.428597392146769,-0.26061643278566693,-2.2749257773785696,-0.43479145543792824,0.4300074674558293,0.8198798059053195,-0.03617136425341023,-0.986840413358293,2.723977699815885,0.7964788212643283,-0.5142463285861879,-1.594216590792896
0.09175045887819085,-1.7087284132355234,0.4572156957222373,-1.9420641000035228,1.4962130254738244,0.29628139132230674,-1.1793972106353592,-1.344727493473911,-0.7211488372212487,1.649743796109579,-0.40273301714698956,0.5957842680431822,-0.014563825423295295,0.4064195354780904,-0.5584106510786512,-0.09281039316742937,0.7872899519183237,-1.409763375983164,-1.2562366191799,0.4389656630427155,0.4364588141576391,1.6094923296696364,1.9209131173369556,0.104341930280359,1.4865404376387779,-0.6487454900100701
-0.9398906526565248,1.1488913235895946,-1.0375921598068505,0.5439890582783631,0.5432536683873478,-0.06275941990336638,0.03973036073175876,0.08999771961984211,-1.9327484484213167,-0.19861513363748662,-1.3868338895849004,0.4142907569796267,1.168103682810844,2.951261242955793,0.22651995984568493,2.8630170760828983,0.7132061110408117,-1.332917025482357,-0.2753104718269268,-1.326608555101266,-1.0424138972010122,-0.18386564532366012,1.3330562317576036,0.4329919567213719,-0.6666527334304782,0.125427828581805
-0.8830643798726079,-1.1221620500980805,-1.376311000873108,-0.7653153932386264,-0.9392029357393544,-0.34046609046074666,0.41745825480102633,0.31667958719474754,-0.1200323014365126,-0.7661007587757492,-0.06941463321206794,1.350230052665001,1.0263332019362112,0.9772542714628722,-0.9143727303433183,-0.7135073647397452,0.5211653714954245,-0.581610359409501,-0.6168633871424735,-0.8336594035509695,0.2495725389401127,-0.1386322178629303,-0.7958408926053453,0.04830422250868749,-1.1389565933910586,1.7924599897185904
-0.4424880330955662,-0.7265527656619445,0.2957604478288411,0.4336065941863335,-1.6514927694247896,0.7053122825236177,1.091784585172111,-0.24852059863171908,1.4824924680543237,-1.2886071796592886,0.31137471440793824,-0.5440800163323241,0.9210437269885708,-0.9229726117609014,0.6733656192425179,1.2586647964942281,0.35599024946596947,-0.33684820614054534,1.4982614365595033,-0.5106066445202919,0.6070479107065156,-0.8457335772048653,-0.11790278677677128,0.026135754807795505,-0.7789925477567482,1.0015059192844944
-0.14197986194866954,-0.9114796338403013,-1.4592816439447882,-0.22474711938464453,0.048120815365929416,1.1858943761728198,-0.09671914958963564,1.2538302659172547,-0.6708126439121301,1.3383806525995194,-0.5045047598729904,-0.9566371848812841,0.34751571076229776,2.1476360399534116,-0.054916597640704515,-0.13423109807224162,-1.531425993366537,-0.8418866997101615,-1.5772767764674744,-0.48060858043551424,-0.691104463128712,0.2876881705750628,-0.38539475665277734,-0.5129791301358045,0.7241978760616132,2.1248929460826878
1.3712722090718772,-1.8794410379759268,0.9280212988180531,0.2588431042057807,0.5231234409861314,-0.5923539639253523,-0.2445310713850131,0.49985592943354684,0.4349603041301492,0.10616118863157513,-1.455489538766592,1.779051206638437,-0.21364813561372725,-0.11945814584645773,-0.11263190327056789,-0.8616691861585688,-0.6912178239274247,-1.5545154072761818,0.9349808524426322,0.09584219937581089,-0.35001357805674355,-1.3549031259178386,0.22452130128943049,-1.0454928811602249,-1.2060366264148257,0.7768527190118326
1.3718858455439298,2.006214295199439,0.7444781478146502,0.6719110586467503,1.77851223543701,-0.6550696742279157,-0.39657704079688083,0.7324987215613181,0.011401313879306384,-0.34639917763221617,1.6011983648885098,-0.8266323306831936,-0.5687518596049932,0.24509866880513417,-0.0846126736819161,0.5240597159793843,-0.04279042637278097,0.5596208231915789,-0.5077456970766064,1.5710349084766748,-0.19180609674608548,-0.5313819254671149,0.22833850094445243,-1.3568830793258364,3.0062149113806464,0.3537297331568455
0.3251834958798196,1.562494807781098,0.0741286934505437,-0.3051199523236639,0.8453270033675347,-1.5472192341494795,0.04360999374833058,2.272524481597833,-1.0244683034100317,1.4761699497159664,-1.1203997101129106,-0.30754388162853213,-1.0137055198086296,1.1536570409467073,0.41926828723253634,-1.063917404757662,0.5465479909833842,0.010776445588642058,-0.044109433238432534,1.473834242082921,1.3092089858456144,0.806399298468219,0.08863313698276994,-2.481055097731263,-1.2303628702666511,-0.5461486344570003
-1.1152298073205005,0.34126807398902287,-1.6064464949437869,-0.4874534408744342,-0.11348461552381321,-0.5669646660202211,0.5059338069687672,-0.5516752534177053,1.2969968872310347,0.6115626787592753,1.230589358463347,0.7627687817562976,0.31881484609546573,-0.3532258268923536,-1.1047070265342602,-1.2206323566860522,-0.20297756642619094,-0.9139431654419005,1.2697643096250197,-1.185526803213462,0.7480327100683403,0.20642122331449567,-0.8505887127459903,-1.0032813757934644,-0.3880335369451682,0.6984386107069172
0.2536659782288625,2.0299333699688193,-0.14973332227141473,-0.6799125345564819,-1.6868864037729272,0.49107602126835603,-1.249842350270662,3.1764877059535785,0.43592291704859637,0.5749782961573917,0.11523640465093397,1.2093050092805986,0.8656359042797466,0.4621758073327593,-1.0721465003287276,-2.266068502664169,0.3918707897159057,-0.5516167560975779,-2.102941637657023,-0.3467489504348254,-0.06477426556801362,0.2701778175462701,0.09311729693980338,0.654748405379216,-0.9178625136545695,1.637009329369406
-1.2958251300705532,-0.5067877755091437,-0.5902097609851944,-0.733161762896351,-0.037427152512036675,-2.367086992300796,1.8708691060661906,1.7692472290818138,1.1449130136282042,2.811217505759828,0.5624376872386253,0.0646744476723285,-1.2871258526249514,1.2662055964439785,-1.3571981666716348,-0.6077980875965222,0.5357924734759455,0.12270659372390082,1.6156110104025343,0.8868538629342057,-2.5027578348858626,0.04141473653557977,0.21551275874201317,0.3521480821510523,0.16074560297147175,-0.19403922358641473
-1.6329805815099576,-0.6550702259288207,-0.6212905795523359,2.3994767942991153,-0.6763445199319541,-0.5352052889005834,-0.1301047486822322,0.8970372343580346,-1.4715810869995938,0.9096919272290392,-2.181191345614098,-0.1957417399413854,-1.2852166744088105,0.33641434315366564,0.5022041244262073,0.03058651530787897,0.34509479781046576,-1.078628821160822,-1.5814593446355103,-0.24420686791596033,-1.2083401192951748,-0.30168218394934465,-1.2272407190702936,-2.3548256904182674,-0.32425300112924593,-1.308039957120752
0.9482047964443823,0.20080265645017717,-1.4707421298204568,-0.2598043690479434,-0.3857305667138024,0.7080591602022628,-0.4478745185322136,-0.8463998311024398,-1.0697874148298994,0.7174244595160684,0.029311992416290695,-0.4684060739746538,-1.5142987691840644,-1.256373680580173,0.01842057939272862,0.5612194428878293,-0.22967489809129793,-0.8276906771503901,0.9083814210894289,-0.5412439510924496,0.42197636314662895,0.6712620738675474,-0.6976831745223827,0.8680733898174915,0.1791422218050487,-2.35428165485096
1.1860219875963112,0.15637822874203042,0.30377254424329786,-1.183634984070088,-0.735054017156993,1.027703520545844,1.094926277173728,0.3983744563713605,-1.3486510909102774,-0.9882319245068029,0.3678984793599846,1.2651547969973627,-1.0258975766306833,-0.1757504415510919,-1.2541595980102656,-1.4239013843051342,-2.4640218119944794,-2.0367927894126234,0.22640027019551406,-1.3424747374055874,0.0994663430143828,0.3726617438165386,2.5253067773971947,-2.2228844576707503,0.054969262792581665,0.7879452500879087
0.055687602381816845,1.7116228588294333,-2.023321862918203,0.6962834971413663,2.065588703455273,-0.9371736979026634,-0.6809509575822915,-1.5880607375753846,-1.5530815228444816,0.49888409069332457,-0.4548383101096809,0.16832347087742072,-0.059137736758394316,0.9835111930187023,0.5135087226501415,-0.619606353069906,0.46208191751263566,-1.0368274398476307,-1.7807168373541349,-1.4353712686261753,-1.4599826740257018,-1.0051536850540554,-0.7757296292330897,0.5977775884337702,1.6276668668675187,-1.5799641654993357
0.5750430990131231,1.9172367696264676,-1.9976545554183445,-0.6704892220527946,0.4932956936682513,-0.690661370986318,-0.6085630984405455,-0.039859521033215696,0.7734210606088745,-1.8806222183260526,2.478729119728783,1.0721536635443507,-1.752112842068694,0.47988626420218655,-0.3438344829345751,-1.0483928364645314,0.23067305057352114,-1.967722585913597,-1.9234437944536782,0.03161850802652003,1.0369989310815297,0.20339707153536346,-1.2476640585038334,0.2369908312861007,0.04702674454669417,0.1282795463399339
-1.223378364937057,2.64172169155704,-0.8926653005771749,-0.3924050253553983,-1.227929469006987,-1.783996529151012,-0.14425713718365876,2.5140935069124195,-1.2981386533768886,0.7682967084647557,-0.6015709797881474,-0.03586115454685989,-1.7294108011839573,0.051625694271022676,0.5818623710375103,-1.1760533269863112,-0.5739679975525321,0.07251414007282368,0.5356929340996464,-0.2988217745578901,1.1049821787767005,-0.2982118311697229,-0.9568853715853401,0.30360222283206634,1.9370921936811059,-0.8003820468168813
-0.669760573115173,1.2087840288886393,-0.5487415010631848,-0.0383593913307757,-1.4856109044067907,-0.5270316885012871,-0.7077637528262237,3.1895236486597907,0.9845147894145709,-0.6014422500915411,0.13271826262149705,0.3058400162062859,-1.7135302969095791,-0.9676911080109436,-0.9772883846370031,-0.6267525970462641,-0.8466337051517123,0.3031526356469342,-0.04388487484550442,-1.0480340139995328,0.5527624461521483,0.9920449986915076,-0.44015749557645334,1.1051074413196984,0.3840819967277656,-1.2155812203395586
-3.111447132809372,0.2716434306361801,0.3331695594384951,-0.07761685805999993,0.05413601032874329,-1.1793527131667114,-0.8138563052945484,0.0681799361773641,0.46491378942196293,-0.6716473706294922,-0.4109665052720917,-0.14853583639341889,-0.43599458481177467,-0.9967744221068874,-1.0659668945621235,-1.0020470123983038,-2.060934744061416,-1.0050015209107652,-1.3321903534087038,-0.45874625542693354,-0.6142191882324572,0.10986018581875678,1.1151589058076552,-0.3041016096540177,-0.5586795130671085,1.975946071185613
0.19559974792097384,-0.3564005237257937,-0.7568867792202831,1.5465793144477502,-0.8581307947941269,-0.4680484898710323,-0.7660118513554399,-0.32691410540961985,1.2818696031496186,-0.2864793389645729,1.3255480816738274,0.44951252225032234,-0.6941152128438696,-1.4523153052443842,-1.0171488818159338,0.2012646916094215,0.21979864034012306,-1.238380257690591,-1.3163018646378843,-0.2041431987950132,0.566076827494544,0.7725508833466811,0.34904232637418897,1.0003310567509247,1.516959894041022,-1.0032353589544685
-0.2620808968330666,-0.8042658895076512,0.42600626020736243,-0.15747528429545518,0.8026471631350389,-0.08025585052943798,-0.09176844605295402,1.3639108941468419,1.733951732542265,-1.4400668954122395,0.6667054363957191,-2.3516699325517454,-1.0078901104892832,-0.24572142117516171,-0.6522274766906372,-0.7118517419722998,-1.5581649434392288,0.15261134569038487,-0.9953641721300968,-0.7179455017693692,-0.19679853710032846,-0.20501369391917876,-1.6483273763030126,-0.8576896205112965,-0.04622012066185494,-1.10086367861251
-0.2678506340629362,1.8115448799246094,0.8407511511130102,0.050176244587581506,-0.8722255576996621,-0.05495122009367143,0.534728115286707,3.8329493056589743,-0.015341945205989041,0.18352771282300742,-0.38712095989128675,0.3516929473608817,-1.4118468870549812,0.14027674458486122,-1.425658536185613,-1.2442899201207636,-0.24578640559131607,-0.5699980378592555,-0.9518070690491337,2.776665628524306,-1.4366376654542525,0.27702017381230837,1.8663527603226595,-0.19216275047623488,-0.03631915297712446,0.03559809332390665
-0.1636557577977802,-0.01948546585768692,1.1541323656318572,-1.0996429744787581,-0.9144622195582258,-0.5293347796596347,0.15946688750629062,-1.2938754601752385,-2.433717451590831,-0.9153985335199027,-1.3491680470761762,1.3907854169457863,1.0305052830389025,-1.1372883070386128,0.6980478132042365,-1.0119419762186044,0.9228258924361351,-0.17373299714661294,-0.6896992736003388,-0.6831055349897454,1.0783037518370393,0.8946570159053491,0.5222707241546848,-1.206223496610968,0.7937937190926808,0.2827500515194541
-2.410496176393415,-0.9753808560081415,1.6826458608831845,0.16755135599169999,-1.119232129109102,1.803847841497333,0.09144036109347314,1.088437699215073,-1.7502577884819421,0.741235962129453,-1.1966763125503646,0.21056599366863915,0.5365053144348941,1.088192834130137,0.3720040970199968,0.29117907176076463,-0.7031306885955645,0.4829202730750121,1.1647933695377908,-1.4365924270228017,-1.161214980749765,0.2784682130433499,-0.45796197283656515,0.34140300062915174,1.166817364418569,1.82624228159357
-3.3688095868123646,-0.9186246499121797,-0.5446177953687581,-0.4746976178989494,0.3666886898427292,-1.17452998203066,-0.7106068862769127,0.9041931695264982,-0.24631745665007887,-0.4936785318653078,0.4986241003390017,0.9544438136799192,-0.5971590446261077,-1.098049932988327,-0.06088325580626868,-1.2295421428942797,0.7590087946917515,-1.8059090957408213,-0.6192832361086227,-2.3389851968190927,0.2261077913405388,0.7291565154166,-1.25161419898417,0.24418982287132818,-0.622058766738707,0.776561669342002
-1.6391736742216458,-0.8801039083282121,-0.7333056999154441,0.366914850857455,0.7186437240214396,1.2291126697239096,-0.8606821736115742,0.564912614155079,0.09639720450745443,-1.6680294800355493,1.1098499460893134,-0.7349778690251364,-0.12982287321253588,-0.6611683915276365,-2.1529109210813244,-1.4539177659218536,1.5093423632012304,2.008316765800448,0.737846685296986,0.4952810387425617,1.319007530615841,-1.2418365264754299,-1.192327830318343,-0.9000567857474401,1.7104588074114802,-0.9600807141122301
-0.9318642959667721,-0.7428302462821212,-0.28477217673676536,0.6088599069437184,0.7481153554195836,1.1411188043806937,-0.3559803871913915,-2.528530534909349,1.9153981638054058,-1.212909285929957,-1.6726639570408273,-0.6834991372426797,0.7602235834061594,-1.3345167413959873,-0.17626754395136848,0.22237428945942694,0.6473467011071243,1.8364841420109945,0.0006309463439593293,-0.9996408859249413,2.003996955980754,-0.5583559005159519,0.5377276752646131,1.165758275432926,0.631761894904245,-0.6350875936713174
-0.6504809057642613,1.8196089016355326,0.3091120297455909,-0.12289943248211158,0.557347111553046,-0.24407627306876875,1.9181855200616926,0.5746526214215167,1.7887429171278608,0.809997071140171,-0.062247472632816686,0.042746682961951596,2.3291880864686,1.5075062945406186,0.10926143455639366,0.07788249557239285,-1.8037214953248668,-0.9918005243886701,-0.6524991581387392,0.7702648448282781,0.9261804854335146,0.033157385104779356,-0.6114987158145254,0.010787540158663558,1.7876225363479699,-1.473052178370075
0.16065690205351696,0.08037805343616923,0.4337313571838509,-0.06515603089077372,0.5511738448446277,-0.005639154149276841,0.40905265747962577,-0.6376838379608263,0.2022368553515324,2.1876504940648753,0.7108532443966391,-0.04322741813478191,0.008988927430700847,0.5083059185112706,-0.7306303756010822,-0.016991470700461673,0.19807818820478748,-1.7088246571616528,1.6733355483648202,-0.5567438748633119,1.016945572814434,1.2600854395590733,0.12225079615035761,1.6421763629011352,0.297160438271284,0.17936595591690277
-0.6170194343480331,0.7668275560550195,0.608474382569775,1.5948482261571635,-0.3817410368448174,0.5469116854777328,1.5323607302995654,0.18434220681202854,-0.32402862635202506,0.08053765570318625,-2.074582584947082,-0.0646926200397711,0.6192398147387149,1.3255820672702405,-0.25720172376516953,0.3524225931085762,-1.1833230209848105,-0.47537676270498863,-2.1218403738937015,-0.4985145841756071,-0.5534718896026126,0.3204530113041084,-0.7656786383038763,-0.132515172999776,-0.4722090161095457,-0.6250652811189094
0.8039064496605984,-0.6552102438052686,-0.8582235700057408,-0.5390875026840746,-1.6092252895285504,0.4099805496819915,1.2921906871846554,0.5217446379872356,0.8202508071956723,-0.8615870296527331,1.7353736952992183,1.423558713771674,0.19508799279030226,-1.1870244553157687,-1.4111826433400536,0.8817618438398511,-1.019336094030388,-0.22686146768335314,0.3562600263160887,1.156567537013043,-1.5231690540156118,0.1673624743264014,2.565891982229949,-1.009329485200253,0.7971273609339974,0.12129731943304825
0.34141607320414996,-0.3879331458154193,0.022112007506822472,3.2896483018025524,-1.0107857619837906,-1.5630998949921573,0.9626137558350274,1.3118340281749468,-0.17108259625408834,1.5122717810053439,0.6488374178415752,-1.1190646490280376,-0.49209172790951644,-0.4759960762967023,-1.0290940264384039,-0.7186214671450873,1.7361898816550454,0.9924253695809004,-1.9821253430238235,1.3869281944350604,-0.43261495732911986,0.1124718107961418,0.3169501098369785,-0.4016532781558859,0.3707350943764409,0.13395323491716188
0.8745321493698024,0.0987343353503083,1.0457857789066356,2.1986338736293556,-3.4339513016382814,0.5460744874667577,1.3327133392018564,-1.6367526350660502,-0.421765356538763,-1.4155576328892814,-1.2212380691512983,0.06606095856958613,-1.235550537949099,-1.387572837887637,-1.5290618869109533,-0.3615028634634647,0.05297703006617693,-0.22924377008812197,-1.0981220677719152,-0.6396852406410518,-0.3040723496621039,0.03177140037269938,-1.2442578008919751,-1.1907784844315297,-0.9304267901913751,-0.17835433675494924
-0.06615256168668601,-0.4561185063225001,-0.6153659028619218,-0.040885643899904636,1.392567640970197,1.1435318081818684,1.303023256446414,0.7295164709111736,0.21938903747635663,0.9244507729523824,-0.7802792841749832,0.09961711364863764,-0.4031794365379407,1.7337426987533604,-1.26468311336251,-0.9349444084488906,1.1788313407543318,-2.6899819308934756,-1.2739859980920714,0.12625835185380577,-1.3202044914029034,0.9323477678868941,-0.52022192668526,1.1628528003468537,-0.2925053961410592,1.621711397064607
-0.28552421973528064,0.7879694173990373,0.17073984348663168,0.8291610689296129,1.1461320753315762,-0.42861582029968676,2.6350523094241987,1.5251499755585793,0.4150576851470399,-0.2263391818580953,1.513905253790117,-0.5718141967766632,-0.8386617509974975,-1.0400373888170964,-0.14828902708415923,-0.11309087412929952,-0.6209232454868966,-0.6382912903235857,-0.4929119076908562,-0.051869447245556664,-0.7466904619380542,-0.3543900162067461,0.4976100939220056,-0.9803036472789035,-1.6567004137346681,-1.5415082321198343
-0.7955928435964117,0.15198575152099497,-1.4588472081863966,-0.48267328083763705,1.22877067808715,-0.24459619840383723,-1.6816847752565822,0.2385493430038002,1.0823895937349717,0.8240650218090516,0.3475852328015262,-0.03976080429914626,0.30133609862643446,-0.4289757097583638,1.5400123962246317,-0.726563654525697,-0.5621141511991836,-2.093642778231689,0.8773457972533993,0.13966405451631003,-0.5470347224248396,1.0067426053131507,-0.5290100696147741,0.21758026089320526,0.3070735251817255,-0.1889481195689158
-0.3052933600085243,-1.130720665516876,-0.3360628844550516,-0.47579535960874053,-0.3623935749838318,-1.256174608455011,-0.26616060238510114,-1.7981472832408176,0.6252448199373446,-0.6753183805836135,-0.39690198806576255,-0.21470133247914375,2.186524205236885,-0.7633449121031184,0.08613661395803549,-0.677450766199048,0.17577072621364476,-0.24912258756951394,1.995969169218976,-1.1436369025086348,-1.6117996068532219,-1.1353320085301621,0.4185735722792194,-0.8464649252988143,0.7697779496746763,0.17591814148022192
-0.6180860041864278,-0.5591609207475149,0.7596974536819943,1.1218971662141113,-1.6869386361059828,-1.1744138235304362,1.0088693280499348,-0.08720951880744324,-1.2343181380821222,0.6664411991927406,-0.936569361068048,1.8672494183810007,1.137215763646392,1.7254576077989403,-0.8383653499700668,0.27310220676405383,-1.6662098254871103,-1.5113101122767592,-1.1415037310444491,0.8278342099502454,-2.1447851045663415,1.6078383008253423,-0.4406327792698449,-0.3547701851745395,-0.5049295764488589,0.5397133272923758
-1.9949175496356715,-0.3131805159477153,0.9318632949756696,0.3985444607959861,-0.7273367315534541,0.4402294304384618,-0.3817054790161927,1.8942163548474842,-0.4092316429808856,-0.4152461501765219,0.2633394052322737,1.2019077916515064,-1.1461501604434783,0.5201137842975024,-0.803662326562325,0.049720950843589726,2.926537943892956,-1.0891624234509705,-1.163927493598656,1.633191259926707,1.2419058872292605,0.6657851653064775,-1.1444705729354585,0.8702301870247576,0.4021678105919678,1.039668316352337
1.3973732306689204,1.4660244895459398,0.13911054932382821,-1.0776392840816666,-0.6516955156940991,-0.2651342721645287,-1.2563356972893678,1.6604441051325387,1.2565800944980774,1.8534712590484836,0.9610403889274347,1.0220852119098371,-0.4119329099032902,-0.29866405241334754,-1.3340464741160463,1.7432356313412205,-1.4739326411938405,-1.2722671046623273,-0.6220083041048844,-0.4055069756566787,-1.309010914355376,0.08643654135398635,-0.07428358625736632,-3.1850146644017134,0.13256142973106988,0.20710741749357256
0.8342990979477362,0.034139540131879,-0.6740963306419694,0.17557948099830292,1.509900916803828,-2.277442118145872,0.5359163926436236,0.16290297593903064,0.3246992012244504,0.3508221567986065,-1.2880295329120874,-1.046649059047832,-0.5690808280474724,0.7014776872136552,-0.21381341181221014,0.2220701966747929,0.03083269019272685,-1.7321692438611174,-0.9558148830740331,0.5335788884395801,0.47872151242258243,-0.6582643743165003,0.06751802339843761,0.6314793564080511,-0.8684695355969495,-0.6469077776601704
0.44973651401077996,0.2298698949706845,-1.2088955590241623,-0.6915847700589164,-0.9537331300167279,0.25858643781477425,-1.0544262779496627,0.9408125429050297,0.7402149636674745,-0.7778314064021359,-0.21001605459088665,0.12589380419388588,0.3338031424311197,-0.1383016060013052,0.5858882877429186,-3.062532719745983,0.09114820360284352,-1.0683662703967387,-1.865857426243389,0.48831285494399873,1.9550947693769614,-0.02685807929570891,0.24646608652647037,1.8180693255756242,-0.5512254014048503,-0.13377636650556732
0.520128517772342,1.1863932429721626,-2.092169177395424,-0.1137130826199792,-0.8304804689354253,1.4108222093709435,-0.7841412410187298,0.31522986301249434,-1.211691066199144,-0.012789966370843274,-1.178441991383684,0.06772022190453962,0.9974352646141845,-0.8158352984072436,-0.8136736228383147,-1.216125090678864,0.47821101635441005,-2.174265993194496,-0.29112389867937427,0.3007608252182335,-0.2225874288906544,-1.4446623218483334,1.2126843440864024,-1.483279263071727,-0.8134354464004507,0.8648494711183169
0.33727156515449924,-0.7399799412242213,-0.09657473650247177,0.11908820503927735,-0.7120691883802442,1.0281042083463314,-0.522441191864264,-0.6117252789993729,1.8159062714464032,0.956091615594292,-1.6086784540409742,1.0568488235711992,0.5040850696608281,0.06647678951574083,-1.4785242902500495,-0.3125615768858737,0.8179123355633449,-1.650624069841303,-0.29750024158632943,1.2287398107899854,-0.15655741428735637,1.2653936698905341,-1.1228903328956636,-0.587635204164548,-0.7786146574241326,0.7735239880466486
0.4855602753121385,0.04078246113269344,-0.9823918077069649,1.8419872502688834,-0.005196955860795069,-0.714563721057586,0.4240744591005557,2.515950625160975,0.5856397669468163,-1.0090299584586573,-0.07167982926966554,0.8912128985433942,-0.8091388240372851,0.16923522473608263,0.5557388103653955,-1.4191958274342167,-1.4446472151318208,0.5116090232995627,-0.6652575108612166,0.5810793105073313,1.0703240135955154,1.7551751601633845,0.9688355313396738,-0.8376778178422134,0.21381059111645148,-0.29470919750859026
0.5084503042578791,-0.7571722717825288,0.6289626130349893,0.12694427689522236,0.37595093477852287,-1.961889721740961,0.047244139683657906,0.0744327898076272,0.7277682834814208,-0.8355577622171143,0.3594068653197496,1.2245760552722311,-0.5099106273650762,-0.7702830899307612,0.45345501897935425,-1.7752748241483105,-1.3502309469636369,-1.9534351976909723,-0.9072500867727367,-0.36858057689264245,-0.30883018324252093,1.9042448870988953,-1.806475047566788,-1.2213239230936848,0.8135412013381617,0.49718203174922015
0.933556700542708,0.38007864607886443,-0.5136531907565975,1.6770957368389878,0.11437037827438101,-0.24644435799474565,-0.9350637282688307,1.0608794994134743,-0.8963206066243287,1.694563416722098,-1.208118465840099,0.562395314518845,-0.4074514266181974,0.9312436233802834,0.27289975109423403,-0.2844907810722871,-0.45850583547355056,-0.6881320920774004,-0.2676407297230445,1.469011027785903,-1.1745161334195864,-2.1398282538546742,-1.0634568691368613,0.8697459520269986,0.8588918277050771,-0.004567652968773807
0.9788891409555357,0.6230717150938103,-0.876421571577529,0.547046262442775,2.131150625590892,-0.06941951191452264,-0.027857307419581638,-1.020679954118793,0.05635256171843067,-1.1559882721533363,-0.5578958434439151,0.3765598956134203,0.5771266779399367,-1.2057031547480141,1.7411901523827729,0.30881427419555757,-2.1944703481330383,-0.6051883743441568,-0.5061433023134203,-0.05839838150195835,0.7122984595486276,-0.020643296789080064,-2.2850916224923363,-0.14516042757463332,-2.312157554300967,0.6778043036311615
-1.1010381208704143,-1.2683773759053216,2.387776270680418,-0.43006483417950747,0.45555648886012245,0.576036906580426,0.33668907003250914,-1.6889278711068623,-1.6362248951721496,0.42339014743545367,0.7720135653737366,-0.5703195133391173,-0.030546154167688907,0.8461260655264324,-0.13725696366095577,0.9072641659094762,-0.7936421461198705,0.6046227965610056,0.4243205905861575,0.5876322385858282,1.8178173378042943,-1.0467406889305746,-1.0968301417034114,0.812380660547471,0.5196003404044948,0.23716495163578835
0.37630754353637647,-0.44099312392712575,-1.26799676628681,0.5943571001679478,-1.1557395169997828,-0.8169289047087023,-1.02223727843122,0.7286211404584344,1.2076136095398369,0.8527771191287777,-0.7266239042477566,1.1931023239955674,-0.7787286982186956,1.2418018234900678,1.1384509617712693,-2.183389406145763,-0.23867185051813075,-1.4899534444292328,-1.1362565707658705,1.2798172192324002,0.47540091054805916,0.7740383632110321,1.3494758183953175,0.19181769482484368,0.10638292524934809,0.3112171945557865
-1.4443916320756913,-0.34984345786097704,1.0807149084138172,1.922702885053095,1.4202228431297517,0.936359127873585,0.02033397834532872,-1.320776932991398,0.7648357837617827,0.2853591916616551,-0.636413812487304,0.6858381910754848,0.060458522139981825,-0.7923797389987064,1.0380877896258691,-0.7855349437839613,1.0930555305155127,-0.2935474050309633,-1.329875765312103,1.3217171987393563,0.6757644414281121,-0.11019064369749729,-2.259651302003155,-1.973177633253994,-0.15349375151110434,-2.1418515914303478
0.2869187334705566,0.7534318233796458,1.4268442756629256,-0.6072695681902179,-0.13355555165051364,0.36712361611360844,-2.2178701013774607,-0.44204275256941805,-0.36758048658863285,0.948070920823386,0.40281850231686944,-0.8170754813813076,1.5302237642545182,-0.04494863295957174,0.036534546544093265,0.4515638936077696,1.1212685621345972,-2.2826753453276862,-0.5399305589684957,0.044509527577638,1.1787240968845518,0.27417589690203925,-0.12447262640104947,-0.6248923987421784,0.9057483307289115,0.5590982172283916
-0.7934723229216719,-0.5278756612402982,2.293096349667034,-2.2753228021312095,0.020618704792996333,2.0940919292733033,-0.6724728807502781,1.2180365571720797,0.4608772519177644,-0.36577532021474524,0.021332528988695382,0.22326496830719703,-1.4012930871515075,-1.101167098802647,0.23802631425714224,-0.24670134231348573,0.5934659482280603,-1.9794304246146042,-1.2936057596107873,0.40523682419208806,0.7005145624569177,-1.0384716690911413,-0.33310643932992323,-0.5260752451521613,-0.36135644158041624,-1.4836500716151495
-2.2540381850135085,0.33183663887334164,0.9806248969035484,0.738715483272307,-1.860468116702098,0.013653976077876299,-2.5877625846876255,1.8266126127667184,-0.5032299198838049,1.8704910629964535,-0.05712721245712485,-0.6860923092700043,0.0552647183141891,0.5127020566039153,0.926095634994393,-0.5236995413787219,0.24459246615740834,-2.6019312179012974,-1.423717312144287,0.46371913198678294,0.35973451743716844,0.1073759416370665,-1.1514971092544903,-1.4101249344967537,-0.28341508897101136,0.08366701605627838
-0.7439475371090482,1.0575905879228074,1.2376869782884123,-0.0384883167979961,-0.27080487970829076,1.862120022960629,-0.0916711528550629,-0.8848667367076568,-0.3849429333523985,0.914416757965407,1.3898498760221614,0.9920575338405533,0.30819463088488497,1.0254655182017425,-0.4217256875015723,-0.7152095951861033,-0.14064314848882184,0.9591155435368308,-0.01648475875566537,-1.2501892191075457,-0.21368825811328593,-0.39712150227984216,1.6982804038472337,-0.2774301332858132,1.3447246350002886,-0.5827955088962831
0.17104539123250584,-0.25015545993420685,-0.19739228387569607,1.6528207873994472,-0.5006244951322997,0.08407937962348523,1.2393577449828548,1.7145080991871273,0.1378483665878139,-0.12574652861224891,-0.6237477274825254,0.20458009552602477,0.6391607127965506,0.33786216289537185,0.7599379110923176,-0.3272380965227596,0.34723587071344947,-1.3355629744343553,-2.701668973631373,2.2217878781790934,0.8753811020838043,0.14679602905969202,0.23170537847038963,-1.2657243581698894,1.6758318393812692,-0.7191761146410239
-1.212683506772621,0.9161712106245783,-0.462844330432449,0.9699418689659987,0.8028094542511413,0.9099264084014428,0.2216235097715642,1.4073953860017663,0.7180721870590128,0.3234744795508823,1.2263840861211774,0.37076809947963685,-0.09925799603531167,2.219603679815023,1.4773650047286695,-4.054284236124573,-1.2501229459664966,-1.4579506454850668,-0.30185161512370684,1.442843497531164,-0.9250645511483849,-0.27217601258001356,-0.7169003929627993,-2.859739845870471,-1.3505752799848383,1.8878870671394419
-0.5655423363373852,-0.6750363243894308,-0.9699251628799623,1.8987159300510714,0.418994996903665,0.1798669892631688,-1.7051509164179641,1.1429204873594483,-0.8670801002786886,-0.3150210240296411,-0.21273660690837612,-0.525940370654134,0.6099477579659848,0.2426439214584914,-0.15435930434207218,-0.5097580241012121,0.05495721730659913,-1.3965696682032573,-1.575653062523351,1.4796703664290114,0.15303656342270885,0.4169961152620266,0.4319018203429518,-0.7545411114385512,-0.6372303991019165,-0.7495667873931106
-0.02911647639611465,1.786194498960011,1.0432985491723379,2.9235878708181406,-0.33542474940467637,-0.08194028341095011,0.28926671783297847,0.9136978396397185,-0.8944017436783489,-0.44165326548277584,-0.02121364707366827,-1.1834871896145578,0.7652564415022838,0.6059018082614168,-0.01498596122038605,-0.641493423566784,-0.6919492508981225,0.404927612363691,-1.0003693313206972,0.5189042029390547,0.4450429572636784,0.6083156079896216,-0.9324699411341186,-0.8696745465546343,-2.1683122917082467,-1.2434210038124018
-1.8840050776794877,-0.21593542830715454,0.5820256862095516,-0.8426618608212834,-1.6686718493730386,0.11670986405674671,-0.4085888400150415,0.7149326632874312,-0.06361204006632636,-0.14610045179760495,1.767292156395856,1.277605264211562,-0.7140218278105868,0.8907336198031754,-0.6300705921625968,-0.14340173002477763,-1.433574100904309,0.6461068760054858,2.0739404311590937,-0.1758363320827827,0.6065985132734728,-0.9891337421702865,1.2899499463214312,0.19232312127284845,-0.5041674096249186,-0.022894470363440965
-0.0877328679505135,-1.1193305120673172,-0.7565882711725858,0.7749174838156961,0.5490857117454856,1.814186901515996,-0.8520695314514308,0.7865730621028854,0.6569772892287836,-1.011308308009653,-1.7123560311869692,0.4830760989228933,-0.42224917496314374,1.5923966757839916,0.7715500903326719,1.1597142319628373,0.19561943938927087,0.20642002118464445,0.8131742851473602,2.5351594328308718,-0.8795374590917122,-0.891831433659573,1.1465752903933122,-0.9421382191054646,1.7595096521934586,0.40007327745678856
0.5831215240397083,0.16831388778239584,0.6435241337343935,-1.6265488894167919,-0.10674829618829186,-1.2665305857975078,1.0787505044294392,-0.5875345810874166,0.02061061583023283,-0.6884052831076897,-0.2328342052798631,-0.855070883903743,-0.8907457784799382,0.4084184543078909,-1.247623904295967,0.09925360591392787,0.597080575190408,1.3657701860572795,-2.346662393751026,-0.6946362688730006,0.49044247829676263,1.654671955763008,0.39684344611413297,0.24733262972491346,-0.508579074997424,-0.20332380243562614
-0.6065924394478422,-1.3931294388699662,-1.8446307400135782,-0.4750772358067295,-0.41933231914825747,0.8225663816204152,1.8352192562777778,-0.7324069210865093,-0.11411302036191115,2.044124715033897,0.11628461980358859,1.6544062625517777,-0.6259606461656628,-0.11765631870898928,1.3167460878212678,0.2412421516352358,0.519659853621286,-2.8461884817620864,-1.1434098603830043,-1.3343412199360347,-0.17781467245201293,-1.209663553890338,1.7770092242165472,-0.1748273792406325,-0.5777276485275682,-1.3151216009087932
-1.2576710639541993,-0.8125679051023601,0.7339660930499284,-0.40941827082960713,-0.21807326145647032,1.7562541148197235,-1.3706773813392705,0.9938870591167706,-0.7518734420100113,-0.13903229736133407,1.6200473884499187,-0.23270966299505375,-2.2535311709648385,0.16834146611283657,1.7490321010672119,-0.06804748787362022,-0.5648542951649567,1.0116621137088426,0.2135570791528646,0.15180988050363745,-0.8980867056493457,1.5393099822573748,1.0196722084505856,-1.1827858059197458,1.283122290656101,0.0704123003495048
-1.3520505002505219,0.6476412253101391,-1.7982047623735897,1.0519042731046293,-0.8857061505267623,-1.064772590252139,1.7945678409647252,-2.314623270890673,-1.9152443064243958,-0.6812557273909176,-0.10186517671845725,0.9776844331551792,0.2841849001625321,0.4540866183647626,-1.4278946674372668,1.328703075275001,-1.1108378327737267,-0.34553087325308196,-0.37661982462988947,-0.1026349164639234,-0.8171899549360108,-1.4312876519965012,0.8978670814329529,-0.8041120237675202,-0.8288143811603214,-0.812312392827079
-0.2978172699105351,0.4022781452077617,-0.8133999257779855,-2.187315698860309,1.7969930190645118,0.41303977254571284,0.5163620985259305,0.6649356946692383,-0.476699201669357,1.1184760806432104,0.14752306681203056,-1.0078777660543783,0.3574897866730795,0.33020668173874,-0.030169659391510003,-1.218939914845386,-1.3985889678539694,-0.05450756056612479,0.6257844668027004,-0.5229004493082825,-2.4601869444269866,-0.46962831840008507,-0.7082764251678549,1.6329383495487713,0.22276473626728333,0.7325051313603939
0.22901643665426186,0.01149115706431527,0.8280298600990171,-0.033465416888375184,0.8163060123753108,-0.15487766087083887,-0.20398851266562684,-1.5377465220228734,1.2979976100689097,1.5368991853701919,-0.3441047633783478,0.40201242821285454,-0.443332660959061,-1.07834290992512,0.24355352854682694,-2.6614341085758126,-1.067754996853742,-1.6298358882179325,-1.4419576846761273,0.10267279950763825,0.3636339724329964,0.09066316929064663,0.16923134597901687,-2.5883228811898533,0.9512697390951478,-2.0978786758553154
-0.9653092548591603,-0.4037803298577859,-1.5951903731313797,1.2163213278084641,-0.3214421012159273,0.9548276044857058,1.0383881010263856,-0.2042234788411957,-1.1290077849892706,-2.468297225727603,-0.7205260138053635,1.8425685047053466,-1.0756255407503013,1.449828301731117,0.5409560774500316,-0.36497772243400706,-1.6962513217553408,-1.1571876415774227,-0.27519178362563584,-1.0254970735820768,2.576140326944333,-0.4339530634942869,0.44214995624815967,-0.6434915875446737,-1.1134059912001704,-0.31223076637478303
-1.7025971822251509,-1.4991687764333046,0.33254661741138614,-0.7942033219779164,-0.9849094335458709,-0.520446241705224,-0.8865751935386464,0.4442105218960831,-0.31413676997121964,-0.01148378765319517,-0.2491512826292877,0.12807095982210842,-0.08580101809501739,0.7001311739283135,0.14028655815198804,-1.1617582096081582,0.944204359874813,-1.6575053724323094,-0.3730142308700608,1.4674092481269148,-0.8186608315112663,1.7616142871238623,0.023250928738757268,1.2677501842985317,-0.04852330795257295,-0.524291450301916
0.4217797650442959,0.23059035955311577,-1.8749107872874318,-0.29123740154626754,-0.07501905380822953,1.4467528407712127,-0.21319266063951223,0.3071129242151599,0.22897598825986093,-1.426995425923299,0.12429194773435494,0.22804010439628655,-2.0697329213080917,-0.14215780663664696,1.4811610064405998,0.4349925027505298,-0.17791272892676516,0.1633422505858937,-2.3877919001562047,0.01827779264528881,-0.44727519482264605,-0.9145071124965065,0.3224668060446862,-1.804825308747911,0.773414539945551,-0.6775137789877862
0.8754011448015893,-0.2129225454877176,-1.3507533497358684,0.15341043246672278,-0.09957081114230827,0.8313084621929903,-0.5727175515587536,-0.9068365077146183,-0.0985283200440992,1.1852114724130567,0.9743111260161665,0.18703504786762165,-2.24647109770369,1.9900559213857805,-1.741234188901817,-1.4411070825245063,0.6126811262457722,-1.4148956830672508,0.464050806514321,0.09179885041273758,-1.0956357452890244,-0.42020689523230037,0.05166377102186667,-0.4852451027074032,1.256197737279471,0.38233642708869325
0.18261145307861157,-0.5076591286226086,-1.4381564249343648,-0.5457225836191982,-1.4070476900268534,1.6727304073874163,0.5356964708537083,1.675516733702616,0.6377504013118399,0.07686507171711117,1.3540713986110977,1.0802272478678487,-0.024196164850003404,-0.7002497384013955,-2.091933855266744,-0.41671605548993973,-0.8687511804882311,-1.6382618057617475,0.8673166231580527,0.147910711317922,-1.243122513384564,-0.9984923016530776,1.3663231548798795,-0.08522126436838054,-1.8064412975797892,-0.2235591657483752
-1.410771176951379,-0.5670645989333326,-0.34096694277691464,-0.10419342655684387,2.095245119164892,0.20179605996211403,0.5432577856417323,1.178205606822127,0.09882096399979506,0.704791610082553,-1.3683936638349852,-0.1666301152254153,-0.2698709775252301,-0.068849992070892,1.7292117928101054,1.54358049423213,0.5641542296495914,1.011067638705805,0.6928818946945764,-0.8475045806792915,-0.8194198484671118,-0.027221793565699367,-1.1893564318304575,0.2404272976293196,0.6858593040306,-0.46110618559477434
-1.5227407148771068,0.6327048186341158,0.5663460583973632,-0.18958035058639663,0.5535174273992663,1.0041880789789421,1.3515400633026728,-0.15046282611639789,-2.1076489867632766,-1.347641789098465,-2.7665290921744337,0.33096016972655334,0.14193741794464765,-0.9557955218127918,0.654034571912711,1.0733469208378073,-0.6000734731684046,0.21662590921982894,-0.9256408295832471,0.5676910120132665,-1.8471578110680675,-0.19256349890585459,1.7616800057714344,2.0799063771565725,0.15035782654870228,-0.8683756112851158
0.4782365063656738,-1.4725606568193057,-0.9422868057834204,-0.20933531877132827,0.8594018389938904,-0.17733483317451754,0.1112097090730643,-0.42685217513935914,0.1452348665935111,0.790984175088205,-1.1356734805302517,-0.2481319396949059,-0.41802856140398725,-0.2509164559789575,-0.1272807507941871,0.218335770085898,1.096398633195549,1.895612742837217,0.9259128581243388,-0.40457552637965827,0.7673231715888511,0.4190244265976286,1.5691549163845917,0.04078883990984083,-0.3447534559936661,-0.09005469116109903
-2.336118940258302,0.8921646081126559,-0.8599729081615063,0.7000046891039703,-0.65311081168348,0.8975539672920401,-0.8554097300758262,-0.8959519173775177,-0.6808154564647116,0.2361740243067843,2.2563085473326927,-0.41401348715157804,-0.47512062692843304,0.3179952927230528,0.28589019050902964,1.2469812474001456,-0.9201653153733871,-0.9142419502613792,0.5515566504058195,0.07814453037399091,-1.0406035795000588,-0.6651295112848786,0.17822511060558033,-1.3306812219844504,0.4018619904115815,1.1431427374446395
-0.15057073503227547,-0.4915502574617453,-1.753921227864564,-0.31750470476947484,-1.0385040627055095,-0.5937128291082158,-1.1214700924293795,0.19723479381346296,-0.9632658578780732,1.864659365125289,-0.19625750808421516,1.0387837708055834,-0.7800737531867553,0.5571026873493857,-0.23701644544847936,0.5516375958928588,-0.02241153462447391,-1.2208309208651795,-0.619584541484409,-0.38689140491559726,-0.6403701193807728,-0.8749820985208079,-0.7609523307877697,1.4421598483514395,-0.6188830402217084,0.6842039443286545
1.3446798284008195,1.2797033482329463,1.4910400355337066,-0.5372195838752765,-1.1437477066334762,1.2200557521549087,-0.2513999659393027,-0.14277859809986132,0.5762832229609984,-1.8717237782911733,0.21735700866974197,-0.0158183384825614,-2.1263972051815685,-1.0279581266412785,1.9167516123438102,-1.6626575113003803,0.044051833501047036,-0.7732766678219138,-1.0072297369948937,-0.6618184356249155,-3.12392656792514,1.5818064450606972,-1.336077364668794,0.537335958377148,0.34677875028427796,-1.1595313910139633
2.153905919508489,-0.42952593995582206,-0.5846657716840346,-0.8439189977714306,-1.1638937227304669,-0.4589696110911592,2.6108379699996034,1.0923302825709331,0.3064767035428505,0.3560992260921641,-0.6500525533571382,0.5246083197932465,-0.9708306175640424,0.5488284926947242,-1.5851698269289327,0.4061199243697575,0.030790420885766598,-0.5892701829073075,0.7958219726636634,1.158926293446624,-0.19664350665118913,-0.02734402592525507,0.9981747254575544,0.08230868972888587,-0.831024005599361,-2.246417980914384
-2.3609034944113723,1.4010866374062503,1.5920178387695396,-0.11553042281827998,-0.848099456899413,0.5993394011049032,-0.36494445784311286,-0.3046490493676594,0.42712829931240137,0.4321694930095104,0.1548971486115255,-0.13921481789215903,-0.6086798214814056,1.2304887376830482,-0.5208852229285885,1.5306225052373679,-0.18555529642748508,-1.8824915158006124,-0.202265436608913,0.6167797721159309,0.5890407338236906,0.11630070518785254,1.6950507746150603,-0.40850680858562727,0.36054276030378585,0.15096997351280636
0.2733603582819603,1.9745152416858776,-0.45000356215410175,0.12468768730203682,-0.9803807086231557,-0.9933051324851855,0.6557183705312929,0.6000806694796634,0.2092680629010819,-1.5048679119740365,-0.20671602280773937,1.4570099733986464,0.36806526164129644,1.2399627379596014,0.7683475508704083,-1.6757689491582954,0.507846108514003,-3.471622246966021,-0.8598683169452223,2.1630789156212873,-1.2136657820292431,-0.27626309720363035,-1.5815965499699938,-0.09729840361460884,-2.486494266613713,-0.8786881486504772
Pesos da camada oculta para sada
-1.519799684548633,-0.6939023483778248,0.46487603565561825,-0.6378844425232444,-1.3183659687796707,-1.9626599010590158,-0.6817041072625126,-1.4266287792767745,-1.2414038848597588,-1.0129081704889624,-0.7037579509862207,-0.9742013434799194,-0.4681092686613024,-1.332127317595242,-3.432185042208299,-1.3659636846623082,-1.47687609326535,0.615612837172099,-2.316374628907793,-2.4643465623312943,-1.1352262380202895,-1.7677468858565484,-1.9268635143242734,-1.5709192524769446,-0.6838666518392558,-0.787254476370224
0.234538285149402,-1.2688293497266991,-0.07103395018585487,-0.8959222049499369,-1.3915319994103217,-0.47100950595681357,0.45009363331471397,-2.1982382137922816,-1.2056320627528012,0.465880512155584,0.8447292621277696,-0.5082271633907751,-1.6027952355195259,-8.013673161652994,-1.048700786443058,-1.3035168179550756,-0.832418039155318,-3.108461049375934,0.42244076637625444,-2.5217146752638717,-1.1928393035767995,-0.5128025270932981,-3.2215383547437413,-0.2549219656612524,-1.9445338621906758,-1.7033035139998451
1.353556027530749,6.584840291320925,-0.01545903856415198,0.6746718891587591,0.1597307766574215,-0.628456432016768,-1.8752972751423476,-0.5084785434392852,-0.760712387085714,-0.6438341395647641,-1.3493203592463947,-0.36131904727422454,-1.0180040537899788,-0.7113177869503355,-0.0815444618496815,-0.3562072497740964,-0.7832402775878304,-1.0250812234732662,-0.23930946459049823,0.62791433378459,-0.3341336152680243,2.2021619349376684,-2.082204611077104,3.8799430230253886,-1.9135545876175104,1.4943779276304159
-1.7868467629316471,1.283528407326372,-1.9438788499788382,-1.1425628645976371,-1.3372210533668718,-1.315961823450879,-2.0203894053220677,-1.399201348137319,-2.1913625196052013,-1.3291114070688883,-0.845718178885103,-0.3517926398377789,-1.132142577586977,0.35271868646966037,-1.726392111067635,-0.41942775626891676,-0.9461908876603726,-1.1143471965277674,-0.7033565310564811,-3.4591014801465922,-2.2554355905483714,0.017626416711145048,0.6617784056159414,0.1878010495335286,-2.9885359446608613,-1.4134979530562102
-1.642026287400753,0.1395727523852935,1.807757226360507,-2.1754802331678142,1.4647509389492428,0.36612290560280547,1.2127352121332133,-1.0605177265165011,-1.3014613597239304,0.4914058958863272,0.6774303010360327,0.8007955659196446,-0.97762133742228,-0.2079644509798583,-0.051876584382089974,-1.0410361861698705,-0.6772377805353805,0.022939499119871917,-1.4964529574591998,-0.3227397976528775,-0.43527101562591214,-1.099388577639186,-1.154546092504815,-0.07548986710360044,0.9410254384609537,-0.6377049921658376
-1.2592649550886386,-1.749149808634421,-1.2229326303994557,-0.7396672751025687,0.0721139113554084,-1.331486398226172,-0.34309425229721524,-0.42184415320293933,0.09058301083823568,0.5337564025085989,-0.48837209792494485,-2.8913479086998835,0.2663526969523971,-2.5000804579146703,-0.6124245757588503,-0.8459763433382556,-1.7338641517770774,-1.5022021677673465,-3.4836065761828547,1.761777781157284,-0.44862297447314237,5.686873794880938,3.058728659041928,-1.4942863461172993,0.4060341958463865,-0.906793031808602
-0.4399075491824117,-0.028845235143010666,-1.8194903574741932,-0.38595493199441316,-2.1463659024502397,-2.5091179192930464,-4.115989408825477,-1.0515440827669804,-0.584137196019034,-1.4373710289050878,-0.7778218756197046,0.4113310690789856,-3.024381060510346,0.2659103834093309,-2.028340647449778,-0.3854884174385456,-0.2864968390428604,-0.09548924417710444,0.6366212536185997,-0.21121975364623635,-0.6407074398480833,1.0796669715525775,-5.072214134010133,-2.9915736445891503,-2.4866720140241276,-0.10302890212671935
-0.5455572875220073,-0.7484244209808275,-1.3042609175114803,-0.8898334682347713,-3.019740208008362,0.5900500165657733,-0.7975701735755057,-0.8451407564247518,-0.11812181611715833,-2.4411473819521534,-3.5784120664983976,-3.2612129646119983,-3.8308941069846685,1.101138772901991,-2.760650807489501,-3.2673415751971886,-1.5223174596149185,-1.2395095926597826,-2.1890795519807185,-2.3563515582339285,-2.2834439221125864,-1.2375664652267757,-2.055897020808105,1.3530076291086572,-3.4959191180419835,-3.6515518105921942
-0.3435903095005951,4.609549630484291,-1.2641301685425668,-1.151651100185771,-0.5489031636519381,0.8697705433659874,-5.095895562652792,-2.379945945622744,-1.7148272023621882,-0.03224670304666401,-2.5492238116327246,1.081952549670846,-1.900314510810216,-1.8910099408041354,-0.6394778810728048,-2.146119862636401,-0.397868149096705,-1.0952469425946108,-1.763870031174984,-1.5962364219077365,-0.297163256242538,-0.7547169179426274,0.7072398624938332,-2.402084606784172,-0.7158968823108381,-3.847560713337746
-6.294006878495841,-6.0723835815460765,-1.4824922166421475,-1.754505114509284,-0.48419380183154964,-1.530839084720007,-7.336413680183802,-2.221641892328826,-1.2877652770934527,-1.7080876887600014,2.1061965154276865,1.688981387122153,-1.239622621505629,-2.1631357535821296,-2.447776854661802,0.4675057130936027,-0.3596665655863639,-2.211779622356112,-1.4705408338484585,3.846546548300764,-2.55236450553144,-4.747330041911586,1.3131421993967467,1.806469766720709,-0.47477769729107233,2.1969636415862017
-0.36464650048688557,2.265729340845181,-0.969354040910711,-0.35401516682801515,-2.3720708688403773,-2.0510750774454136,1.3941375506190108,-2.8119849942148574,-2.0949420723436982,-1.6430040096634742,-5.720990449458618,2.6350769988979783,-2.704448002650761,-1.68636584899821,-3.619368480497753,-2.8617356962622345,-0.7117918528419274,-1.7846066486234682,3.90903930478934,4.028407338413601,-0.9294563868683491,-0.15753601536176215,-0.45866094774060684,-0.36706679558601313,-3.7265933878390913,-0.9243462311389352
-1.2374330462436587,-1.9357527750630008,-0.8579309841356833,0.6992889615330573,0.2135236931486751,-1.157287804917791,-1.7679307422746293,-1.2125212102331415,-0.29926682526769005,-1.6987605409522255,-1.4814288398810946,-0.19986636560921794,-2.5065900026449865,0.6009914363422317,-2.2544756958471264,0.29765706746701226,-0.7249698111610301,-0.4923164022412153,-3.064922787785759,-1.522390318384947,0.062381781414146915,0.46318075538423076,0.7114259409803116,0.4297335484870652,-3.222280088500539,-1.9207911532716024
-2.782508460704732,-0.5528678423939464,-0.4625447700322992,-0.2663087525187945,0.6508853309778676,-0.9850595127984497,-0.18256603733479831,-1.0201199644511012,-0.04473180851176795,0.83572587517447,-1.495060523867365,-0.42794297559874517,-0.7237668879740226,-0.647808969252876,-1.8260159682233343,-0.7631759266185728,-2.0662142885030113,-0.0588029237255131,-1.966084979010738,-0.7521448182729527,0.12127323682512725,-1.565501718351562,-0.5830811200392565,-0.9184477354645588,1.090375381959958,-0.14913629149671342
0.1079823498602846,-0.38802822857636077,-0.5417915155793798,-0.003648578093722527,-0.9010330425492797,-2.1461790471079385,0.09499121714184237,-2.889605076284655,-0.5364472459756326,-0.6599608128368973,0.5614996223166175,-0.6801330645797499,-1.6913749395247277,-0.4978048393659866,-3.0914273646883514,-3.646051218022998,-0.9329112688529718,-3.581950486175841,0.5759249437473085,-1.975199055222374,-3.3686421759411993,1.1776723712381392,0.029409602034228582,-6.553657439338526,-2.653180769510012,0.8173326284198791
-3.821472344773573,-1.6547376420746027,-1.577770019928316,-0.28449285310555916,-2.240173935442568,-0.12958621653573263,-2.493914446846655,1.07776519239182,-1.3031653612302225,-1.0348927424077714,-0.6172808047173809,0.7363294157919273,0.7726754459856215,-1.180510455578442,-1.2017928408560217,-1.9497859678269216,0.11074576994283389,-2.160885745329379,1.3092773468546504,-2.8204296729116702,-0.6771693411499576,-2.9992609377838897,-0.1439663028216275,-1.2226040628188484,-0.6032731500469348,-1.62644954833271
-0.06610230067705904,0.38661819697670924,-1.809949138880015,-1.9184230047534754,-1.8991456178834596,-1.2108822725238961,-0.6041717456478376,-2.1202231627470822,-0.06976545457247252,-2.0339889891944907,-0.8806045617119415,-0.5497352621368864,1.0333334152906446,1.0720632746920427,-2.4120772380396533,-1.1914010863125244,-2.6288673147213797,-2.374609133215928,1.2920332747839345,0.3033451586616442,-1.0427446477701798,-0.5594487372256367,-1.0000735930531848,-0.7169017519649648,1.4091127416247171,0.8169262527808302
-4.454121035535185,-1.8426679778605075,-0.7080227169909441,-0.14416946069267264,-0.8129871938182623,-1.1426928704023533,3.6597480086154603,-0.4388198757033007,-1.0566161304888126,-1.1067318175646779,1.6995966215995075,-6.868641673049344,-2.269173827530046,1.1368353803517772,-2.6845786541007115,-3.2775980748413907,-2.8872101622346116,-2.730290305460775,-1.6322073045646124,-3.7129911828938713,-2.859823869585586,0.19359149913332094,-3.5534369781147355,3.0333337444011095,-2.500040481509764,-4.933027634812688
-1.0784657686735093,-0.07785086155665709,1.4064199313489059,-0.19537142375769564,-1.0572839458091081,-0.9707550805107558,0.5306780071063669,0.5370646801556682,0.7660965957008443,0.7044248579151431,0.31634539876879814,0.08757540622250407,1.1436680123305216,-0.008852896800202584,-0.44413838551490087,-0.2661338226040734,-0.4783543776397772,1.4197092808123404,-0.3348490768453497,0.48044814517569,-0.6795795458582768,1.5454161889866496,0.20404448370473313,-0.012553773190119787,0.14457417756260715,-0.6809984571130433
-0.77204919127647,-1.0333853613406563,-0.27843988842859757,0.015814000359166854,-0.16778988674859718,-0.9700366298851824,-0.1278378858466251,-1.1504746459992021,0.298266956877474,-0.9875152097606367,0.7778586689054406,1.9510348880728194,-0.725128442559129,-0.7058954197181637,-0.29077138442212336,-1.132184607208335,-1.1338687672368113,-0.7367315615748649,-0.4942726203649808,1.005082854797544,-2.484677033891411,0.09702006788678454,-1.9461619710472473,0.23392724904316647,0.7933089432257443,1.4938953642822652
-1.3297823961078992,1.3952956313237004,-0.5250668256084985,-2.3350789797742126,-0.798191707749941,-2.448090818309107,0.43167924406948516,-1.5289100448510728,-0.4143713735308491,-0.7934718012867336,-1.1196792485023639,-1.7878610125815608,-1.3651120061253958,-0.21667985949653915,-2.4804222854514864,-1.9821530926767383,-0.9248638226108813,-3.1644383973746892,0.9326162701654983,-0.5041965567381247,-2.1217011014514298,0.49598482897688523,0.005813045088435064,-0.7318477958491889,-4.524721289252625,-1.3922739766100856
1.0164998998108357,-1.4957505242455365,-1.7755983644016171,-1.4274868250567958,0.532567173046116,-2.255884282094837,3.7241198159241704,-1.1637601677537701,-2.122764360931824,-1.970799387730004,3.5736418565318933,7.44691407921487,-0.24125227370955338,1.7678350588240812,-0.14855040198050667,0.3940111828750725,-0.8891661508493623,0.7070241005362218,-5.639632433921668,-6.804763763127268,-0.14207983924731726,-1.8488046941583969,1.4835731835575103,-0.3785264594081812,-1.3229983632508802,7.515976290483666
-2.0212518790382443,1.0773052412839188,-0.8901262221622981,-4.111169456299121,-1.691618233063759,-2.8771406872662855,-0.853146575716187,-2.6014528355412194,-1.7657823633619099,-0.7431484223086582,-2.71388177227682,-6.130542489169782,-1.263214727934156,-0.10752664451266579,-1.4778514111784915,-2.469641598839116,-1.167394751059387,-2.4355700901959545,3.2034346697904463,6.473188443758569,-2.6950235593921623,-4.618898267953916,1.1657684518391414,-0.07739504014097012,-2.1481601498861007,3.0624836119468184
3.234936869628608,2.0839748387273835,-1.1019130973726916,-2.2037014430279376,-1.9181967334329943,-1.0136122092019926,4.593547258219247,1.086357340487368,-1.7479493454101653,-1.3391301927306318,4.394352727758863,-1.8840021729210725,-2.2718942035891123,-2.0454135396603155,-0.3059787820134759,0.828182698139318,-2.548563594619939,-2.111166409633241,-8.637133349521465,0.19575238500101202,0.5309819931375044,-2.467549479836769,-2.0479738498769904,-2.188251188186203,-1.8612004315079023,1.7824084265876956
-0.5109027485548764,-0.7329420709442032,0.35654112285707557,0.33749252064714835,0.22749449047994574,0.7019036907104833,-0.030305663041719513,-0.9562987508651494,0.04545731502635665,0.1912945079576488,0.0521386474450064,1.176822556418293,0.06410748351711855,-1.0130229344186394,-0.9875148826394342,1.8781419823627314,0.6671373670476737,-0.14779278687330222,-0.6848146738845841,-0.6982936417064461,0.07707565326686606,-0.8154830301254486,0.7972741175712721,0.2262322759760663,-1.227022585296338,-1.0720420759985583
2.9425158436069596,-5.768700971748205,-0.39127141857414716,0.3103033698138208,-1.0278759775568376,-1.0106346324082387,0.7181189721006432,-0.537312099921911,-3.3825126368803717,-1.582398286593601,-1.1042128414902288,0.7805206182560337,-0.4192660778674254,0.22625475689747762,-0.8564352967935559,0.06937783769829983,-0.27080112499013415,-1.427801577959205,0.5335077270402617,4.852182167196333,0.45924363709717225,-0.09668734537801286,0.19576198237530934,0.6749520803746986,-2.9137411519525975,1.3597013969575387
5.668481586983241,-3.682983910200553,-0.5468189729922944,-1.7843793211587302,-1.3524503915924233,-0.22397520402804705,-3.259987242143787,-1.2036620569292218,-1.5659419718375207,1.7434150601062797,3.8680751944086733,-3.2802614503310448,0.17934905668950984,2.4198646986170433,-1.4483777864483818,-0.9521602093464222,0.5656763219986349,-0.5021046356864171,3.784305864417312,-3.7619313793282685,1.7019374161388343,-2.4879446759903425,0.5338946657328071,-1.0692748500036668,-0.12179946568448737,-4.393208988488635
