Pesos da camada de entrada para oculta
0.6502637940603396,-0.8709423272371454,-1.2772906704987932,-1.7550476650790465,0.8388906453550624,0.43058161212492885,-1.1273735977626034,-0.49875847552733504,-1.1433622122240532,-0.23477756633284885,-0.14622728108413063,-0.4914169623646735,-0.2167540883006318,-0.3095036304158873,-1.3154366537117268,0.45137701800768737,-0.4581253019089082,-1.8259498544196735,0.06693951607889011,0.6682731970447469,-1.6794207599449493,0.8720220712312037,-2.6379224695814694,0.19954163837758435,0.9277725921026578,1.2507896738511877,-0.03683090752563503,0.23693152297360734,0.591579057985192,0.01729209945836885
-0.02718672416488652,0.5666311404147255,1.0981222228053371,-1.3750060070713515,0.15082190297678932,-0.17085492297358434,2.8184913906995965,-0.4675463113800961,0.38610692498242305,-1.462001553765817,-0.33595811223475347,0.18834414142438421,0.9849295176020295,0.5394054341378857,0.3639540912662992,-0.8455314376296886,-0.4274217821340156,-0.4513760473686983,0.5937259919740979,1.6232379168761,1.2228144166929007,-1.4931866568199443,-1.6666972653300964,-1.106396203450133,-0.9469752535042266,0.11810006540242576,-0.6634897977670543,0.40113449996037137,-0.7829425420064388,1.8548875923219117
-1.114480579682234,-2.1301334681621857,-0.39201352089422214,-0.20087157076166345,0.7493224356223133,-0.6093029225755742,-2.3112622459175727,0.06651953349345213,0.27770685633474046,0.7949562566245727,1.2103092388110896,1.788469513607074,0.8115402849447928,0.42592638485597306,1.5015943994447833,1.0358961851006383,1.411375621036231,1.0625676420739596,0.0680031092019567,-1.064452902644748,-0.2180563362816007,-0.7464765028498763,-0.7414779880261141,-0.9383914756267921,1.3249843407541233,2.351658480745025,0.1831774096116574,0.029017757445077605,-3.0144176342167572,0.14777116953957598
0.8717565171678151,-1.0983302760563798,-0.5421457026980061,-0.19931403099741501,0.01992307905841461,0.27156346931542685,-0.042012215436997125,-0.2620694460111507,-0.8836959598551662,-1.3687556615051497,-1.1580579213872684,-1.2322413152083584,0.8948567483571023,1.3749046842424393,0.37303467824115943,-0.10329196867025882,0.8846976764080082,1.092172225285652,0.22971862798955364,-0.32072714971240873,1.292245613373863,-1.7019262633297416,0.4505190581401877,-1.499786930088231,-0.6310527907655838,-0.7585577588251247,-0.38600197474988795,1.3633722095434406,0.9961267534215531,-0.07128150515473956
1.0591547606946605,-1.0569762422313485,-1.415136367120164,-0.1294224790943258,-1.3315561051321385,-0.3786254358526732,2.665924363905079,-0.8478084420880313,-0.9847847746696315,-1.3521041824751032,1.1134315939689379,-0.7592573777697446,-0.8880815524621382,-1.180000806925778,-1.0691515897317674,0.4978442416684365,0.18445300209528778,0.3369715451645698,0.4608888422964288,-0.17523985097514114,-0.07664859341989713,0.9257383827554944,0.3555472562142968,0.5036235357292617,-1.481325166074133,0.5195634105140929,-2.600531835430705,1.4304065231080854,-0.3874835160633349,0.24389107932604018
0.6300469945462984,2.1129451599040543,1.1136633860813518,-1.4495655651901347,-0.7994356633441899,0.15790638415788472,0.24823709680651235,-1.1145827422763148,0.28196669323584206,-0.16312253540538618,0.30254820609241445,0.19492395450275382,-1.7705246516058506,-0.8076008502128853,-0.14121721995678124,-0.012034040636174508,0.5722650017008176,0.6803330939124602,-0.4700216990363469,-0.6916832525465012,0.07264381271030115,1.0127290957566322,0.8718781069626542,0.9035333872069592,-0.34707096505377405,0.32848287529876846,0.7901346683531388,1.0699903133087367,3.1507898002399166,-0.6232162672404503
-0.9573522507065134,-0.510481732440033,-0.06657127499179682,1.317089053928836,0.11947411898713525,-0.5854079670369894,-2.5714592305260915,1.2685839250957676,0.3862911871389462,-1.8678468762117793,-1.1622545470104397,1.354135622872048,-0.5615666666033988,-0.6527745663708284,-0.18636103475048818,-0.7681023914890799,-0.18007972563201305,0.9609320892593071,-2.0818691280891026,1.008216573975855,2.0801704780390295,-0.10744990498118426,-0.21556194885297916,0.8342704998327984,-0.3881118861867262,-0.04311223832320596,0.18463184565014362,0.3727148162765788,1.0358028322777266,-1.8946772907178902
-0.4242190190114495,0.8646179217287238,-1.1312402157006871,0.31298132569941106,-0.9116280065497688,1.769341306913488,-1.6188774358913456,-1.6246231460456422,-0.13363918455996268,-2.1070035001355047,0.8877461550787301,-1.3692261656086353,-0.09116567310283763,-0.524274224725761,-1.1521605139807412,0.08691515299090778,-0.23450947077194312,-0.45984943494761343,-0.40475038313809153,-0.001971597001544125,0.9241181341986746,-1.479974673659759,-0.49643398423606877,-1.5829539123493446,-0.6493852048410174,-0.6578807798053281,-0.4684090836799475,0.7466617971460136,0.23884597641971345,-0.7170071267173417
-1.532931908986421,-1.003001525722814,0.9186476315850025,-2.3710433849137695,0.7934956523881209,-0.49454962678188163,0.4910502487474657,-1.270360826989016,0.6530355190557288,-0.03692906317693744,2.702821706821776,-0.3078970744022157,0.43517418364908184,1.8868283575078126,-0.018667701644825764,-1.339111630309225,-0.6929296757027292,0.884833452153321,-0.1344372849738269,-1.1841343910536537,0.03937467076649182,0.37253268754834284,1.4544708984214725,0.35278634921741525,0.5794503691762877,-1.1688151675259593,0.2137477787918876,0.9171540430371136,1.0577090403280012,-0.3315195792715274
-1.171361667909982,0.018073982730354144,-0.23529380129122748,-1.733373551483715,0.21859081092125332,0.6405448057365315,1.2178956953542355,-0.20690577214859757,1.0467774189567793,0.23810901148777602,1.8862799629491542,-0.6820053116969426,-0.27002839154341873,-0.09470228915408564,-0.5898662376592033,2.1817813039664187,-1.580728026081241,0.5634345828323436,-0.4240350175056553,0.3309794414292791,0.1885434274380058,-0.7600042462624024,3.1774871117084835,0.4483961911902206,1.153644699713,0.29854538167371036,-0.7340694356551574,0.8515557668904767,-0.6653933929966496,0.40097033205893406
-1.2712878221804205,0.29075576716245294,-1.0115053154262692,-1.4676503422491445,-1.030633025389987,0.43137271171095665,0.29531868871408423,-1.0651116718491973,1.3350100849299538,-0.1431776660014351,-1.562733333445101,1.3831255131396263,1.033767288685498,-0.8155273198108557,-0.0971567562577149,0.21241360860274838,0.0855153858777239,0.1489062208838527,0.32945111288449136,-0.018707044655316335,1.1578948261749105,-1.60176780902278,-1.0144005679338257,-0.3825287487874593,-1.724026283006824,-0.24725392240183594,-0.8495760821184695,1.5767659390996993,0.2114432419205619,-0.2804902997983241
0.8913309838034494,-0.5570069632923248,-0.6311469090413303,0.7634744169302979,0.6230452951984666,1.1771073216904477,0.8298609224695863,-0.47339729936398783,-0.43043957359834867,-0.45581331476659975,0.05954824157543453,0.27755585805675814,-0.5159194669811379,0.8258179380084055,0.2061008971445411,-0.5109346442211774,0.9371873571045644,-0.26438390223877084,1.7938730637169733,-0.43264569182326645,-1.2174510978118755,0.7501694741331686,-0.8781293918366486,0.5564596830762532,0.23404070645400377,-1.3270123418174693,-2.2049487371989933,0.8542003924370356,0.7938511675909464,0.5535082047810057
0.40409990569114324,0.4137789831771193,-0.9782192612950426,0.9574792918101676,-0.6968261448199864,0.8415768661519153,-1.0680455381524738,1.1452663793070101,-0.7127214601336422,2.5184117366690164,-0.17445559075254877,1.7709832374338916,-0.3794014322468409,-0.8201852488575162,1.8083871997921004,-0.34548536789995826,-0.33800512157841583,-0.3339851294873919,-1.7033175424706506,0.2702571354921931,1.3334252166252338,0.8867999790819148,0.8555550338420521,-1.2944937061219266,0.474998962715174,0.7169060955742292,-1.4129021235274017,0.405700734065464,-0.3719023667960629,-1.0910001400906366
-0.594395492085215,1.2465050938575328,-0.9320775194377118,-0.2291934521858661,1.9597687418132284,0.009420377662038914,-1.2505514152637425,-0.6496976687558678,-0.22761973410394198,0.5713948821757375,0.027054657607579524,-0.8157296994287538,-1.3313918919435432,0.5315792521469735,0.5657740783055013,-1.373953812724083,1.321152757126978,-2.382171324566058,-0.8113338189191391,0.6655694997589374,-0.5225434712379884,-0.20855825224362648,-0.8417363246723705,-1.759178611161805,-1.5232011926446858,-0.27804215430232065,0.9865208141173494,1.6785096679898655,0.11782580952322769,-0.19794830908297478
-1.5378669259881852,-1.8233106984318006,-1.4159758521502315,-0.9767341279386411,-1.3227716334574118,0.631009995461231,0.3478818693365382,-2.203478610782436,-0.2889358472925366,0.43990028882707033,0.5793494568005291,-1.7656646046746476,0.11943340659481735,2.0290264740760073,0.006248597214498702,1.6222767050469138,-0.6323770200939359,1.0350238722866434,-1.2582942438495748,-3.8706904392913413,-0.7406768028634267,-0.08426845686160994,1.096558478950367,-1.1027467559034625,-0.9525392389223529,-0.2048993019794897,-0.7777753416707048,1.9090444303761702,-0.14934236396237885,-0.8186313532399184
-1.409706222987964,-0.5812244300805284,0.15275300411851525,-0.46029842440958424,-0.13086254399306038,-0.08687493893309584,0.022498900639333942,0.2775995609653314,-0.9176241289055782,-0.5440788647836002,-0.3624016123960571,-0.339734717130789,-0.351405599122766,0.521467872345092,-2.0571127318115177,0.5896336752560623,0.7925494285954936,0.3174798739357242,-0.5930590429632239,0.4244714634489853,0.09847433689960775,-0.6442109491008663,-0.35946376751913156,-0.5478294034789303,1.0052970651767468,-0.11790685293952936,-1.4221415299210702,0.51040194569152,0.35748361523480787,0.24956763034075385
0.2332048364295439,1.2987734733267553,0.18401946211331371,0.3951364893746495,-0.18289926704382986,-0.02782332387294449,-0.2823230263613715,-0.7929492446667722,0.0933682234759985,0.9293044218965135,-0.1895095475459233,-1.0324297745055282,0.7337824160790297,1.1523426673073622,0.23264517718911948,1.1626602348440787,-0.5220486578933572,0.3681878898701809,-1.5486154517928938,0.9954561132825073,-0.896018140834461,-0.2873959975586425,0.44544582291052376,-0.018201764016385513,0.7070578245410551,0.4900098698282963,0.8508583519218702,0.7163680734151266,-0.34573036265395257,-1.0800793822059236
0.3637242941300759,-1.3210475050723047,-1.0172139566183556,0.5022238323017265,0.30249216971177584,0.9617406826471113,-0.016172170557302967,-2.108182005207361,-0.5162127956253074,0.7715561353257518,0.4586323642078438,-1.1209574774286095,-2.2314622047066615,-0.11544568029107496,-0.22419509153814804,0.15687371915300347,1.1485364729570007,1.4275961332783018,-0.4798802655569178,0.8973229686903886,0.6181516866689809,-0.934962539252803,-0.29586818967406064,-0.8200216780211219,-2.4879217800509936,1.5750272697524523,0.2531536558448516,-0.12633514641595467,1.4466746753229234,-0.11621433754601622
2.4186672164961944,1.7687244088663625,-1.3370674476123772,-0.8215759205194032,0.25907228159683326,-0.07671787335255136,-0.988831858499125,0.11054015833369313,-0.185282014270634,-2.39636553313447,-0.09357953887288104,-0.027665754845082966,-1.052534126601665,0.10480273628241843,0.3859370016645623,0.37238765651013145,1.3687639191664653,1.0553991315930267,1.2548267786031286,0.06395211495076855,0.39708913530194795,-0.32634665748828173,-2.0822456036332504,0.06901790519927274,-1.6964686306526722,-1.098936838299226,-1.3216657561615324,0.47481958987373124,1.9787772710196891,-0.2795026906312328
-0.3288446820736315,0.8416224847300385,0.9302318633485219,-0.8841001966834207,-1.011756223403905,-0.9414322006631908,-0.7305851889350086,0.7534940354961615,0.05022519248883723,-0.10657845912496051,-0.04227063031411662,0.3229382969046226,0.9545257552087092,1.7178284505551296,-0.22850430878706812,-0.3585454858080697,-2.193524717798287,0.49386943351809814,-0.4918691580854401,1.5485410542603903,1.4036852572681415,-0.17851465274239595,-0.21510476109008284,0.35488182272723495,0.262636240118725,-1.2050977463098191,-0.30821444572178114,-0.3745766718706593,-0.208444330884664,0.013336975380662468
-0.9819844213992104,-0.930311565505274,-0.5044363990152855,-1.206330819285177,-0.8395371808242587,-0.19197670472326667,-0.9604291355887974,-0.39122759488900316,-0.7738138524117597,1.4560668164962447,1.3379860335378315,0.23923309170973164,-0.16735239384261588,0.8501120660528291,1.8578255639205548,0.674125977168396,-1.3854685367292043,-0.1878804627513513,-0.7210755150106101,-2.1035559233555494,1.4557029669088977,0.23070740513818708,-2.4812055674839617,1.700816210682071,0.7112050226132166,-1.0987590117365926,-0.08182731373179253,-0.12620020270972776,0.5905272563676475,1.6347346755242524
-1.859855279078005,-0.8249974086251269,1.5340798587274544,-1.5239470931184487,0.3325615490074514,-0.6191085571065695,0.5636285026405194,1.1511494968286862,-1.565181018164353,1.5349771371335668,0.012290369326931491,0.5111284927420046,0.46563167457385035,1.4492352804436184,-0.9574542567421472,-0.11631775828688015,-0.2892846791010064,-0.769066140363566,-0.8379831940013497,-2.9175322941839044,0.23578308980493803,0.885224069489115,1.2942778328889881,0.39967661912749064,1.1023135444540932,-1.325110015591472,1.123545685631275,-0.6248980079938867,0.12343552521026711,-0.8740429284496984
-0.4757568020149472,0.5104724181377105,0.8373048472664727,0.9416097538196293,0.9872035709013711,0.43735589845521194,0.6901675234572929,-1.0366356291528622,-0.28348083834726695,0.5002463253065178,0.9407228704680621,-0.5537904306481571,-0.6294660021469476,-1.0075994058309274,-0.24448080024401245,2.210811788453889,0.26145869991986365,-1.3448200626049363,-1.7400309971570427,-1.8058217826665348,0.18139029810340385,0.2726360187209485,1.1862017282616175,-1.3463908186252371,-0.1673696367006934,-0.923323531084136,2.202944395830699,1.786324335282165,0.5685341319862331,0.2885163595877592
-0.926697590417354,-1.0971151174787732,0.7995164025860497,-2.527863484361057,-0.010058998434226918,1.3719897139431996,1.4573753959952245,-0.5885538981708727,1.5160516620216853,-0.10100136469189255,-0.9188920289803232,0.8980729767099325,0.7636416515238647,-2.364199135604224,-1.0138507044201872,1.3583037066669166,-0.3710512751721496,-0.1350121645396341,0.5004323793677067,0.35497256636891916,-0.4685321758675263,-0.5151495478534044,-0.005121421004778636,-0.2767512686122091,-1.2864585200755958,1.1956348430377486,0.26242828686329767,-1.423351456015134,-1.4289885383221426,0.7902243717573462
0.1978349068511072,-1.444493172945951,0.24785640231997025,0.9693566561106275,1.269135760431247,0.46509905709795063,1.4209184618215707,-0.3682455402803667,1.2186032003146172,2.193088805773751,-0.14876686149657417,-2.0459409108929667,-0.951731307784557,0.3088811188741343,1.157022236712138,1.4936649656304943,-0.9746936536474922,1.906425024073078,0.56663717033529,-0.026750533577735658,0.10923201034334015,1.1093669798723846,1.2776748011887726,0.5901812352415191,-0.1360964984279072,0.2738970219109918,-1.135099312129053,1.2964620630012895,-1.2222466856481269,-0.21336421628567187
-1.6984759038403652,0.9020811187273992,0.11259387620295466,-1.094490926010881,0.7889483156853787,-0.4808089032354934,-1.7762261849038106,1.3211218368505595,0.005429956622611324,0.8637085161719197,0.08781853866108671,0.3513510048879004,-0.7017941603635444,0.6908412576733927,-0.41004658076748574,-0.5789458383557726,0.39054879987668656,-0.2223603209454136,-0.9695379699992599,-0.11288987814934472,0.21290972731062416,-0.7255114486227734,1.4853851144544619,-1.5901659882565415,0.8987009556009647,-0.14288712212999757,0.6758795504189844,1.6678785423789353,2.0803709938822985,-1.9780883272166216
-0.40950523356650875,-1.2544054940246538,1.3657871147060399,-0.8820532859368424,-0.719751066826482,1.2534078650593232,0.9686433693663918,1.0348011036881108,-0.40502732934044666,-0.2647665875469246,-0.6519492072559457,0.7002513316385351,-0.8279000236092032,-0.19901829417840744,-1.2678577076988233,-0.7095725396895161,-0.7387783787878992,-1.2299669208312194,0.48598061883189864,0.10985886590497207,1.288163460347311,1.3350272003606594,-0.6149987496749826,-1.1929985063989534,1.3471153502883453,-0.20287380306855296,0.17975732989556167,-0.039029355726212835,0.00440877700268831,0.799092900540961
-0.280755728570387,0.04822287104251691,0.2587904597381421,1.0190893700349168,0.6348385918605451,-1.2453719519936761,0.33976791849427557,-0.36972728220796963,-0.09456409323707295,1.298632816086844,0.4516650082031979,-0.9293039336933557,0.8838304669017825,1.1939337114001811,0.020556852415135198,-0.9539453913943394,1.0214333266409965,0.34696049304392085,-0.1323308425385004,0.33448494244737964,2.114061897624,-1.0938417816677266,0.03912874132348514,0.41888676980528866,0.7680928318063527,-1.4701174399720394,-0.3384676667278085,0.5951126309872673,-0.045587745290592355,0.5024426096460161
0.5930441018569006,1.031951633257792,0.31686467897477893,0.23582596984600213,0.35843998127946597,-0.174262282789857,-0.510172104725124,0.3583324278699471,0.445667155263901,0.3497955278911915,0.1773190392736515,-0.823497926242118,-1.019258519903611,1.0660588662973045,0.5653935771735763,-1.1585688020268623,0.2972736495070445,-0.07648903088509737,-1.1314084079431066,-1.2784775885228148,0.8289956712239761,0.03166512823268916,1.4869320704984212,-1.120587461058915,1.5960747765883376,0.022551046183450465,-0.3919516731278806,-0.3422925486761158,-1.4618476319795513,0.6830742997043033
0.8480464193017672,0.4001443261447973,0.8977456919530163,0.19221491993865342,-2.350360610065578,-0.967864835728315,-0.43252436382373444,0.2738949627642657,-0.33329848748444574,-0.25369915324325365,-1.4487675956301134,-1.352057478468337,-0.6050755422142592,-0.6520995372357807,-1.1564744051008056,0.6492448615225961,1.0457828528096402,1.5722606794974097,0.5726641388154619,1.5092815131076605,1.0652851272059296,-1.9656260832801262,-0.8072332331358992,0.12266654603385525,-0.5901831698115985,0.4318528887606606,0.9276400441285467,2.2523611987241354,-0.33238473328901347,1.2567745254706146
0.09685460862144239,-0.8572684320230017,0.029248250682237402,-0.7138307718138408,-0.3962215554847125,-0.17917290475704004,-0.9423862937283142,-1.1422548687323266,-1.7909046767493981,-0.23472790559495138,1.1043985949790858,1.4763285369011945,-0.49288546110625486,0.007651085486999143,0.7719876357445168,0.43405632057479593,2.3890352300473445,0.2926243689313331,0.25005655418882194,-1.299925721379021,0.5917222384451938,1.0013502644719279,1.2888681038652832,-0.7985372253171059,0.41369948968285114,0.02524553261093713,2.0521923912768236,-0.039715609623426684,-0.024341568759796883,-0.8263648486677385
1.197095507837282,-0.9478563626042413,-1.5305353138614428,-1.3653161479341864,-1.0509365999801314,0.7869675596642731,-0.3204622276651002,-1.5496616796659335,0.7817829197156004,-1.399060751875888,2.3134885227998145,-2.2912929015960626,0.2697011382799813,-0.0731708132991453,1.8619669027763743,-0.5353017628119188,0.26315668971288414,0.671870623226328,1.1986686779756268,-0.5633558041838778,-1.3003984094687233,-1.9494789399233392,-0.1600836482367395,-1.0423277221425884,-0.07686760043273351,-0.09245618749842048,-0.6679692626585225,-0.09969836610042776,0.020217033944024094,2.8308420942678554
0.0038196634786879205,-0.7408971400324926,0.364008721910791,0.3070377291289905,0.802619300547571,1.3834530245630385,1.6028748273874232,-0.9125931393516834,-0.4984567260757711,0.09676967657462719,0.806738410168754,0.42740447981350244,-1.041608494528213,1.677589514795986,0.37354355657731103,0.3545544924791021,1.8577165133097329,0.3030518743461531,-0.6116312867223512,-1.3943698582049926,-0.5878255365491221,-0.9762450170973697,1.0213778515599106,1.340885162123023,1.0427155950569256,-1.0967546513586426,-0.5354733062361386,-0.3821978215922736,2.1607470081580784,-1.1784684682407554
0.733771804913753,-0.23261528091629657,-0.2890673312543947,-0.25761347475972085,0.14930747681087936,0.41184298603114017,0.20497330223041585,1.3563551930552242,-0.4891947960114054,0.7311182153745102,0.08326879352452143,-1.2043413165941013,-1.2231964507244573,1.3622135465230687,0.07927557896190657,-0.9339463794361317,-1.0373409584948583,-1.3900666837020084,-0.19265523257614006,-0.3521362851230051,-0.5557691386860717,-1.2532374793114285,-1.609038349989662,-0.7991782419414871,0.33769892937141033,-1.804005371373287,-0.8486430982091905,-0.06603811479815942,-0.13953609528157268,-0.9310019091810358
-0.5867784775509071,0.7820682290373395,2.3091676621311903,3.7618816251863065,-0.573719389426031,1.0915206640345654,0.357139391890596,-1.2581829842400465,-0.2832954064680574,0.2503601604889338,0.3195592541010152,-1.8320710499592159,-1.7220227847865577,0.557242645474562,1.032704727481732,-0.5347429649164399,-1.0937306963943485,-0.6604481331364971,-0.419859193763804,0.09060424117222586,0.21362075497833657,1.248927653895945,-0.13576718025405607,-1.8841669482207755,-1.9233102637309365,0.8944915983061007,-0.6664087661001549,0.8294527240375866,0.5592487313476558,-0.9789945436342792
0.4894130565091279,-0.6502585960410234,-1.8740959310089607,-1.6175093532665372,-1.8342483777040053,-0.7616563722106858,-2.4777656183668353,1.1724929898275127,-1.025277598551259,1.9662303408989257,1.0162899124883158,-1.5148578423411054,0.2394167111409865,-0.6604852486522804,0.4055244709703806,0.1389835479826181,0.7312617784812362,-0.4490482656635814,-0.496139964507338,-0.8828573563036449,-0.36909344188639,0.8680011959315561,1.2695747115052218,1.1554635052326467,-1.0189507160690965,0.7361859913813058,1.5461892575536036,-0.08144345641465962,0.37998971314562946,-0.8540700515986106
-0.11972505011990847,0.9812536136693298,0.9287209571135958,-0.10497137251784476,-1.1716745039934056,-0.6616429124924792,0.029575012769642584,-1.3532380283279015,-0.7048056909248426,0.0011680970984433677,-1.3954755293084202,-2.1896612429661713,-2.07611538773801,-0.760397285237553,0.15932104733307453,1.2264433418371967,-0.6456676994278705,0.7409305129808832,-0.8625973994022705,0.19721844244803646,-1.1664728161283169,-0.4290354750833071,0.1348930049160269,-0.35819513925125523,0.9116849531024795,-0.5699876310351657,-1.8195803617633228,0.446164488378921,0.8892901393403565,0.7304992791979642
-0.03018947193472133,0.01269432134874565,-0.1007541952004857,-0.5067900547125058,-1.8188535153781926,-1.31356297788874,-0.10748354965847692,-1.9034018032080173,1.0002108575472883,3.0990069262269535,-0.1654585188919705,0.3012954855108887,-0.1783885045636826,-1.349130695788727,-0.7223612881477359,-0.11633276845864937,-1.2650480919184275,0.3386964888606574,-0.9871126576124177,-1.739357268311635,-0.7830069871176537,1.1060149228645513,2.698466205427132,0.6860037949897003,0.0452371145364759,-1.3820261042778117,0.9518345192839719,-0.5859056372315868,-0.2711294052070007,-0.009171688968425582
-0.6307466070235206,-0.3716961113939301,0.3413723972854796,-0.20468147789097038,1.4080960130589752,0.04800224978575465,-0.8657880455959589,1.4730949502872366,0.7483519448226063,0.1811151477357118,0.017847413435993616,0.9729479609475578,-1.0023986458799197,1.261983302777517,0.20111248802859008,-0.3116255120102751,-0.0711738331695869,1.513024722260064,-0.40266508510537186,0.9823350732527014,0.5533527643027145,-0.9343611661941967,-0.5387129562099985,-1.4432247469613957,0.09236466205653206,0.22048564427726006,2.0450617733101693,-0.6629856477198155,-0.23832427762891586,0.7019725916292875
-0.2674757563438995,-1.1113269646640664,0.8185722572236818,-1.8568147654839766,0.6888738946161488,0.7542655879377232,1.0360787816907915,0.9156008098344679,-1.9591345347729197,-1.2497305530438334,-1.563903908729679,-0.5262094018092067,-1.2053360901073003,0.19836134418138437,0.350635139610028,-0.5702440777352948,-1.1629304147398898,0.5085091098283478,-0.43493384231615906,-0.49822508379520286,0.6573631075350124,-0.31659508000487707,1.2276101134798945,-1.4946337327623551,0.9816084661047307,0.7914457210878064,0.7079316574651306,1.8913248032681316,0.6290191934773182,0.8547454536295774
-0.278884549467455,0.22723940787482302,1.320230216369563,1.1929409227666377,0.17843577998336188,-0.032867607322810875,1.3686167580561233,-0.7074692605723738,0.44803766814959767,0.09527421856381339,-1.3987495279934006,-1.1515724926528736,1.2655338302149322,-0.17767396527777252,1.1809693848256817,1.4751107498303246,3.14222188625475,-1.49168153572047,-0.7638758462313172,-2.030619338447723,-0.05687471739566085,0.7387425580730037,1.3498638800047094,-0.5816962061949142,-0.9544910465738046,1.315613850894027,0.2629786078446453,0.7867536651206107,-0.38265886769781643,0.42094401123730085
0.7464597083362696,-1.3500104347377324,0.8381194608892995,1.0270599629328423,0.2805450372313069,1.3419173203954062,-2.093526741709918,1.0085474301267303,-0.05878313757102952,-0.006560378925408579,2.090276532668568,-0.7868887874740033,0.7446050473332839,0.30791218904934553,-1.0915207517899186,-0.9923911926394201,2.3706166681656033,-1.557954046294592,-1.2167934812796424,-1.2360398011644878,0.3685950024787091,1.1099878081248185,1.1078578619380135,-0.9068405235956541,1.3360320853388308,-0.7542391516962864,1.2783538488685287,-0.5738231004591173,-0.17486278839126373,-1.7890368999569524
-0.01966491499056939,-0.9610853537573606,-0.03383148875350394,0.16097843542832052,-0.9002497325312148,0.5814280437192875,-1.1185430491566863,-1.486427654720506,-0.12052024927287086,-0.3063701270711725,1.2678356219074554,0.7603387418140476,0.5723169005833298,-1.6221296566782368,0.2763029057701199,-0.9689542711417544,1.3844703255998503,-0.8553561835374053,-0.08518783843707177,-0.06386276197748957,0.1656419668647047,2.451370526748494,1.716778321554977,1.1007988813344602,-0.8867001024172229,-0.7758369224923267,-0.13668365821995368,0.7204291989910988,-0.3988854171392188,0.874315179183528
1.556297435860517,-1.3598950536653762,-1.2925456066998717,-0.030319009036683393,0.47806611021488216,2.7766862983553597,1.8144020395317668,0.4187687237275947,0.05846440360318811,-1.1101614429703173,0.02728325580408776,0.6396546347880382,0.8217867487566746,1.3005980091160452,-0.2446785843436345,0.7301898783705265,1.5220464724854454,-0.05916786930596105,-0.8761694815018681,0.6790263524288772,-0.270217602348396,-1.2511352049287665,-0.8023822297481419,-0.547156101904687,-0.4134720571995274,0.041855360815577475,-0.45865128769635627,-0.5935349632993505,1.4984230084447172,0.09409625909773721
1.9364154668020017,0.46623753381234684,0.054893197407614794,-0.318683741851766,0.49409584795244427,2.8720442549230416,-1.3289080410592655,-1.5915099726775472,-0.6326588249022719,0.22734344604889536,-0.9709998246371334,1.278975880828388,1.0178899059219517,0.9358365115726276,-1.0967681313332296,0.3376704514977663,0.27854296489175173,1.5560121225670664,-1.514115142568039,1.1211023317236581,0.6960278698295133,-0.598407540499702,0.45609247569557476,-2.6188920536492275,-0.9803880830386843,-2.87230127385364,0.067671547599382,0.2890089975657255,1.1422031107147197,0.30142573547796364
1.1139899306296517,-0.2607050435690015,-0.1259012972372162,-1.0701274447518458,-0.4742526644011283,3.8835610226374815,-0.016767525535691795,1.4358560063298234,-0.5287194767773589,-0.8749104538784561,1.595081295636015,-0.9534205006944592,-0.19323573802786945,-0.8286108033938457,-0.12159832199167854,1.0653934542405588,-0.3383674262864708,1.406344669311935,0.4946697398959455,0.37322768753978697,1.0551263715796069,-0.803780765235622,1.7571084797501098,-0.4364042203554647,-0.4149864164354506,-0.4130496568309963,-0.4412137144829461,0.03491138652665946,-0.9145227225160875,0.8356491513189603
-0.6055674793149235,-1.125953506811364,-0.2713249143104538,-0.8835122260416173,-0.7875172138492386,0.8065953026330538,0.08592023312637627,0.6036949020470488,-0.19454809451092261,-0.5886640887973182,0.6487895857011546,-0.36020851445611446,-0.1096113598309734,0.8281880429199542,1.614342745653719,2.3832727902575987,0.811257442456184,0.5090095292589211,-0.2556892333688867,0.929857563942181,-1.7960444980915438,-0.302740805575405,-0.25645588747630915,-0.8671135303210845,0.028433896874606495,-0.7099308623607566,-1.6979088534446776,0.9073250983475639,0.5037323317939301,-0.9539061709187442
-1.1197260203425972,-0.9006855141536071,-1.179784288735448,0.5963385724900728,-0.03960147619056916,-1.355047051584997,0.5936987304306434,1.1015862008150794,-2.016733078395413,0.031230416808773625,0.7353379466398372,-0.5209556292468013,1.5054434355440238,-0.9138218281960022,-0.23902652553087153,1.6302799497183438,-0.3882352939886414,0.09218240925355617,0.694078891477859,0.9805447343120189,-0.19510911009978898,0.2727551352139323,0.8619708746901326,-1.5594793116338923,-0.28832804663269074,1.0479925592910602,0.5359118154038428,-0.30634847723035724,-0.8053435549545261,-0.31959203967159516
-0.8287285200566676,0.6783192411264984,0.6264567738536858,1.0655053556128882,0.8629741215129292,0.36607593875714345,-0.034710211592779754,-0.5241877770668882,0.02679928387211628,0.18513968152006333,1.1006815440997055,-0.7295486431320022,-2.6830707733183567,0.2719442295690234,2.5576473125131014,0.7096305349316793,0.9893252785802155,-0.17970991228723457,0.8623261297952491,-1.5745056549874095,-1.216070166037829,-0.9405982003468053,0.1663324513867403,-0.8344793121001861,1.008700717767558,-1.269004024246888,0.14174328083252755,-1.3614611208144067,-0.6778596371194434,-2.6284249511383084
0.8772470654335356,-0.16181630252075876,-0.7807856504275205,0.27869930161490775,0.08486851597378396,-1.3215286614505894,-0.15048275784218534,1.4953690866323508,-2.5443842571421897,0.08331507806896893,-0.1537990404508998,0.9268321893970485,-2.1666800494402123,-0.6205199144677447,-0.6345128894817026,1.0613748481791556,0.41027333812880984,0.7577157705376613,-2.416825336186078,-0.820441883249599,2.0709452545551343,0.4932897438450126,2.525496736758822,1.1305740997741573,-0.7618500330306797,-0.26672675035133897,1.4091572241087909,0.07373057721897168,0.37727033167997504,0.5729720445825243
0.8834108367553452,-1.0737018469731896,0.5068190102413451,0.4773214519913454,0.8537024935183395,0.6856508998535198,0.0219872026101668,0.3083879416630823,1.628536316387188,1.65430552925192,-1.1260783946560071,2.34819946242406,0.7881267205142134,0.1492211364591212,1.1077709301151297,-0.13900423704072357,-0.8649989540750876,-1.0898082779535794,-2.0352831589661724,2.194365806975376,-1.1473055715919291,0.5243462982042435,1.3484580345912167,0.019216847378797183,0.593666851394106,0.4949510342383484,-0.15701281564016717,0.8130934778815307,-1.6490372867012157,-0.5088489276543454
-0.7350502977646459,-0.6356844142032079,2.853224438487173,1.1231763223947233,-1.3767303536398845,1.3552060159257708,1.3547658253646666,-2.232834638160013,0.4106725009167375,-0.5701194361245764,-1.413557807051804,-0.14646183411316677,-1.2336923179502475,1.4905893628980604,1.049213510574594,-0.12261629878255215,-0.6129642574503799,-0.20062567938995066,0.8501825179788035,1.518588113852678,-0.12310458855045227,-1.7354960116860043,0.42283759664440357,-2.2713817946971346,0.3114411556584253,-0.15928891515531876,-0.49051204228666173,-0.7320984083060961,0.3997432390016998,0.8970625068356947
-2.2779643112356665,-1.4207850383721983,-0.677507188180009,0.6083727154374731,-1.3297427195078035,0.2841583138751864,1.0891229467498726,-0.04989258514821731,-0.4267039517439238,-1.085451071845358,-0.7530894294895114,-2.0567639313243093,1.3012240177329184,-1.4348965431897576,1.1977456255836152,-1.0078439955692977,-1.0830212367821996,0.6147297260602748,0.19642444276680004,-0.5391360247833797,0.35917170096251516,-0.18249467040026243,-2.0857057772707996,0.2939864559158279,0.05214262617768492,-0.7449866955462563,-0.3103472089760277,-1.8844996480168832,-0.7872593022177304,0.694950135462564
-0.22414887402876382,2.695842824353977,-0.5284413308943122,-1.427181811045482,-0.5879282268569697,0.09339062529183814,1.6708185778067113,-0.6249870816245057,1.3685766484190873,-1.4686482391039835,1.2138819808684445,-0.6267100626740086,-0.18272437734701946,0.00041814913290347976,0.9637963253724907,0.35593262250677504,-0.7403782656184842,0.5209965920199873,0.3497298025162607,-0.4504443069261579,1.0428125699030446,-0.8850795667598388,1.8420960401504431,0.4728830660043014,1.242997969222777,-0.7360228485739823,0.2819390296150552,0.633395807623659,-1.1271333786584752,-1.5035667699703334
0.42834980899007835,-0.28780355000929586,-0.0172411234984655,0.6370283362438223,0.7220895963442654,-1.2617934120800811,-0.1759949384414272,-0.683006091939847,-0.632885800603018,-1.0558962377475776,-0.48878329896067263,0.36673901389793073,0.11792054030668912,-0.6011709895022812,0.34754169989162764,0.2695238860842562,-1.9411602614611454,0.6142422308976784,-0.07970680959865063,-2.0893657599081785,-0.9306589071348353,1.3345359653241482,-0.7847855453569191,0.7233633902042531,0.09102369887950004,-2.5884032688819936,0.32101447004132644,0.7920302533081499,-0.0013716357380861325,-1.54585144532169
0.29730079538264387,-0.4784532588959553,-0.6164693846859309,1.3954676847050178,0.06690757487513029,-1.3359655739735372,-0.9954853407663475,-0.8230761298209075,-0.3611104825954323,-1.059781045169401,-1.1345023434883608,-1.6636959868133978,-0.1717267417113846,2.7334206535542567,-0.0965966932151837,1.3793971214792304,-0.5246333286049693,-0.5904950058203512,1.0514053651972024,0.26450963421344353,-1.3502544878293956,1.6366379432010916,-2.3206309383026316,0.0632885208160573,-1.0453734076801384,-0.191115945590375,0.07929579244085828,0.0024949475967090563,-0.14436624554219407,-1.744734509927819
0.9768942016007783,-1.115711922616747,0.21121814808427222,0.9070650808321102,-1.1629851713321726,1.8236110652153852,0.34200071615704225,0.6869260527637726,-0.917431287994327,-0.07619571558236413,-0.8880278724186332,0.3031460996753736,0.370572833951506,1.1734918972850308,-2.1207431190342096,0.6196776004500456,-1.366133804224944,1.4897777966703778,0.015655002990340276,0.38765578012281665,0.7680018548548322,-0.7138801950513516,0.6856629359721095,-0.24730021231195634,-0.6586585879382882,-0.8036276947909695,0.4242423651093254,-0.050643732989990656,0.9771151560246706,0.258439828088552
0.752303932420832,1.187075648932917,1.1902749808006294,0.23258510261083057,-0.8372147630013552,2.7600079426751747,-0.7444793024536196,0.07337301923977181,-0.1484560465365222,0.20855450373886802,0.1105876838699562,1.2788015469159737,-1.7182069996386282,1.186907692959729,0.718163302544998,-1.8796146385783616,2.26730420368739,1.6149454515594521,0.012908957681533726,-0.969701878618423,0.3266415025106632,0.3146924447910536,0.7788294207907753,0.10152367958802817,-1.3526260287707434,-0.8043338093832585,-0.4744503016875035,-1.1536648982233757,-0.5610235591220243,-1.2899811289157201
-0.1973216161227685,-0.3124300771854459,-1.378104353037562,1.2797237870034455,-0.4330974129160666,0.46055109599364275,-0.8017360326547819,-0.6090052080932944,-1.0543125030210883,2.2893091185760173,0.3946936481920871,-1.021131261854324,-0.948478122104292,-0.6713375308603862,0.6798538074028936,0.7540986618300818,0.843393693167465,-0.11951243215363852,1.147743150479933,0.3090420905828729,-0.873960367244902,-0.38625675073501003,1.781790362859546,0.828854234220408,0.3061448094999692,1.5762243690160356,-0.486908930226202,1.0452734867216515,-0.2557661007620728,-0.32797951988066737
0.8075562552298445,-0.8091066575352668,-1.0475173853518849,0.060904459605728,-0.7269339974408623,0.46511010151237187,1.1353639869271908,2.2909464600724028,2.3271004860336224,-0.8856552182189834,-0.5039161573986057,0.9827268540267887,-1.0536244029487634,-1.4302557421385842,-0.5769652497542468,1.9930686635102508,-0.5962753275430005,1.2885977238080195,0.2992982184457856,-1.52716650550062,0.5294430659693943,-1.278145405257939,1.8780087197255375,0.5646907822014946,-2.7798057984587388,1.565784573912186,-2.513904172341502,0.18655558655880694,0.2649842149370951,-0.9755979187634765
0.9685629971481328,-0.9809484098137139,0.4975653890166406,0.42265204443109067,0.732578314653242,-0.3414614719934775,-1.0809831317241336,1.4357384511609632,0.307517209388561,-0.6106033754846436,-0.21844197379923028,0.5033175539236295,0.03415884297571336,-0.5344210949781752,0.5204184082227051,-1.2629804022450557,-1.4192808776315464,-1.462748779204055,0.8015133379722177,-0.6312509100943053,-0.3246847750563396,-0.9431455188906693,0.1166103609148924,-0.1799844428421163,-0.7836914632140528,1.150829233871169,-1.3620173992589806,0.8652190177755692,-0.5339683540707946,-1.894836479784193
-0.20590953598499528,-0.7869800069430922,-0.5056655915614863,0.8814651850791851,-0.4967277139567085,-0.7075635793765555,-0.39651222396647307,0.07690056559462465,-0.8113820719691761,1.1369685293103107,-0.774213891265738,-0.03581392004221932,-1.0216077583373093,-1.5270926844936463,0.5174432570096325,-0.2525215873770769,-0.5608098509723339,-0.49952435515540494,0.10704079926318767,2.1720944167712477,-0.870542302513906,0.6054768480148813,-0.6341779497273861,0.37388088203932185,-0.7946449828578487,-0.019414119863725463,-0.32214544036696474,-0.3690838180366884,0.2007068263090331,-2.468492267761032
1.9111677869268122,-0.3823548517513612,1.3611481806786399,0.800509934893136,-1.78177095586958,-0.9828297577157489,1.266550857693182,-0.2554917133785967,0.9267477098843454,1.3032049408064235,-0.4748938374286487,2.325116823325763,-0.7365279627310809,1.0095111911604786,-1.1911340525796008,-0.42124527523686484,0.0764678902785033,1.5375046347943455,-0.1772521927014296,0.20014940676305504,-1.3954691640970622,1.977616900671147,-0.7158510566888043,1.489825263216392,1.1936084981122714,0.4519694469205245,0.8733008275330493,-0.25884450230029454,-0.128767977833854,0.31106172131307547
-0.5576137443273025,-1.9084370663914918,1.9876915214159847,-0.2057093659743461,0.1959801902878728,-0.5423183874879439,-1.2627669366404628,0.5274020120849016,0.6714303624345388,0.11415572585057326,-0.4158120117531786,-0.711988985234696,-1.4503419399386592,-0.17112017785170705,-1.1915388556597073,0.8976135701558978,-1.1601562848935012,-1.7445505910666181,-0.39040001070900515,1.153302225780191,0.18211512648891595,0.7545994226927759,-0.43525394399918654,-0.10273777182007875,0.8965750421124343,-0.41648267074010226,-0.9927896874711966,-0.32457171365754817,-0.8726415649185068,-0.5786775859063962
-2.8273688735551956,-0.36256300013758014,0.42352114506304184,0.8075120038094871,0.7630041520191092,-0.07361758392636089,-0.0040624718268278326,-1.7892803993822008,0.16143375092253925,-1.3155711296704753,-0.3635278790043576,0.3372216028976612,-0.02958593230737055,0.27070498931957643,-0.12017111714866648,2.8906592694165996,-1.1309191355116754,0.3145142685973043,0.8744152817543506,2.0770044643185703,-0.35836686739853124,0.9733856498741266,-1.3601510201058264,0.002801272336097452,0.9598854712254123,-0.9131937737851589,1.2602250407266318,-0.6830527236025736,-1.078443874982819,-0.9433601973493473
-0.12791900704220885,0.9018104233922007,0.8977854070127713,0.6388155566642761,-0.8469701938775838,0.08463433553943447,1.1002478909239928,-0.08922323611810841,-0.8190106150118971,-0.008718345079010743,-0.11492671633388435,-0.02130742432542719,-0.13938416369262918,1.2892329255087693,0.6818825836177621,1.4530977318719818,0.7434676879197197,-0.7486626407634214,0.45191865958582994,-1.3970171805096343,0.7274159274163641,0.6302009079368391,0.05343962347395762,-1.330951616882403,-0.15127987885513314,-1.7654182788651598,0.24968799011978587,0.6840902094680543,-0.30648043887117044,-2.4505595370832944
0.037833793089019276,0.9711315014882347,-0.2418528582146487,0.2714048435751373,0.7227058403885167,-0.03152810226378789,0.9449622875025776,0.24569719913819288,0.03954027394999656,-2.4278066081605982,-0.764477935697862,0.9631183415525029,-1.0184069477179354,-0.20004623133588806,2.159550088847661,0.9792555864058994,-1.9104525786837754,-1.524441807136519,-0.022862919722973222,-0.5696188899383212,-1.51805938365672,-0.6243338118980509,0.4586108377233747,-1.4545655913537525,-3.4200700041131453,-0.3232257870962662,-1.420102086565371,-0.4013048017763248,1.393109917295979,1.0824925828000937
0.3978883712962884,2.7217107849727182,2.9873206190058266,0.9140299122189225,1.0175074672247597,-0.08573948990321117,0.5827120018717067,1.6457080291879078,0.07693800871473339,-1.5828157355562404,-2.0298138863557704,-0.24151901288569638,-1.6132405159166172,0.6052559501051249,-0.02174600709448309,1.1139798849834721,-3.362995527159701,-0.6015199745548138,-0.31188738097147023,1.1441598172501517,-0.42690911527060166,-0.7357962972364401,-1.2138516351732067,-1.435484577131094,-0.019559491033244742,2.8645189662768384,-0.7502538459228743,-1.0782540801085783,-0.7822953882145761,-0.007882050967208976
2.2513954780737344,0.5501779571201272,0.21462144932820873,0.3045286195731186,0.6653383813638846,-0.6950526154295035,0.5185138341202205,1.0662966144886483,-0.9472795332945955,0.7904939000965095,-1.1343478813813708,0.30069528363817066,-0.8754476421340438,0.5392081320551101,0.4336952301095586,-1.4109030237772355,0.9892218987254261,-0.3141509962205177,1.775239844372593,-2.589649172429324,1.1462130357669171,0.998775832673704,1.3156511685097418,-1.5230858427097458,0.8796304008404301,0.8126127986396013,0.596292503115068,1.0686243833936615,-2.7316970878596396,-1.2932778919396388
1.6216992356365407,1.3996757078884399,-1.8728998320939887,-0.35511742842828803,-0.058331636859784666,0.7940080491798898,-0.4015874471446055,0.28518965813097075,0.5818109757352686,1.1960234430759762,-0.561713318207144,-0.051436501475004975,-0.835617402730026,1.6862443800718516,0.11575185777557229,0.6424293969915374,-0.863177956407749,1.7250394716360848,0.08150316366865425,-1.1983341135584689,-0.9460612360037738,-0.10337535132715688,-3.9906377773273087,-0.7871327682768391,0.9223379823250496,0.2111388266668325,-1.2438565448274634,-1.0434109665343203,1.6351034984331057,-0.6384367196033482
-2.4843330308925764,-1.7463645678492525,1.6781330925949858,1.5317094018148938,-0.25057738938828633,-0.6638823281673488,0.6342591310534794,-0.19218111373983132,-1.787216165319111,0.5135060639246593,-0.3563280431166105,1.3398486925103223,-0.8322430014573544,-1.8173474838409343,-0.10870864350806121,1.112157786474378,0.23488095172761997,0.8693430644538171,0.19888973881543676,1.6495581053715944,1.6883494167087596,-0.4550928381439266,0.033381761206118424,0.3342797692294021,0.9097837897655104,-0.5253233968154899,-1.533451156415075,-0.5025870683239562,-1.2229448502981635,-1.0135237565291206
1.2696113907974602,0.8980674158891833,-1.246878326985262,0.9111552168192736,0.5178537111762922,0.36640806665519776,0.9720239143659144,0.26521728396573985,-1.1018114927491895,-0.45802435269731734,1.0969801330570412,1.4070616526887745,1.435975188407988,1.122696641016798,0.09040952172527997,-0.37030016742585087,-0.8866767892141109,0.5683005967405823,-1.3544746778807157,1.6306841684193414,-1.0643553654625224,0.8072319443747707,-0.2801069708528882,1.0927959863183316,-0.17149901282262672,0.7796825934039994,0.5365085467714044,0.9398285100546996,0.8504065062837314,-1.194607933307868
-0.30703999356585815,1.752593313734253,-1.9350326682364254,-0.34221472442358103,-0.5822530752649551,-0.42917302345372565,1.4892249234687678,0.6916787959038977,-0.5973053938654542,0.06499214672279094,-0.12634169617812535,1.108814013371724,0.702841677920775,0.4107689599583619,0.4903356703217214,-0.9054978811839651,-1.643789541691296,0.005381394274125309,1.729583485937854,-0.562161740079137,0.3445186512704046,-0.8646034221811809,0.35647925228359856,0.6818634732125609,-3.2523689531259143,1.3858718705813822,-1.486464112205329,-1.6217104636301334,-1.8857224017134864,1.0268543089426527
0.8009097682190647,1.2115743828555268,1.1837213018195742,1.9939657595634581,-0.5326643413510613,0.5496035167611609,-1.0745657154688988,1.2193808886086435,-2.109445249531518,2.837609376527951,-1.1427066566970463,0.4241836256909069,-0.7612251011438924,0.08463065569218496,0.8083958986773354,1.5181433238275437,0.4321054294001258,-1.0231269306995943,1.2871592058616963,1.9019992105395376,-1.8965086713306938,-0.48619504612095893,-1.9066379211201905,-0.6791966880119126,0.44784287294956426,1.1121791976170634,-1.1563608768242553,-0.6447546586083384,0.10764607371643359,0.04406791346004105
1.0261596540645916,-0.3024180894804884,-0.5460034980895085,0.8935467910623388,-0.9584610527488313,-0.3441199550370957,-2.0429342401626465,1.6689333545430134,0.9274765235033948,-0.03757000270887567,-1.2576750200466973,0.634753177005642,-2.191490780530409,0.0749473851254555,-0.8799490614467473,0.208483195523372,0.446450323025699,-0.286116257629847,-1.5271104143167038,-1.154303528489837,0.4545986488993122,-0.1482745801704695,-1.8079535157734479,-0.10271523602967994,-1.0106548255696697,-0.592513289092852,1.0119759154862076,-0.31731067100530974,-0.18662520364571553,-1.4176791485057378
0.058399157885796325,-0.43827997068311475,-2.732203505065553,1.2912158899797561,0.05778483460669434,1.0433562707906954,-0.8074415185281588,-1.6677153301849246,1.838376256673732,-0.16121288382862334,-0.8613580503134235,2.4960973309269314,-0.37168516946645325,0.9426418301681438,-1.4634432385629943,1.4672518203609695,-0.028289808086946124,0.39891676565080963,-1.5246175255521373,-0.680863581198321,-0.3431743392299876,-1.22296254867882,0.28470800981535244,0.8089016619671631,-0.6986986182540662,0.8391077429502887,-1.1075446459534417,0.6163437957097228,-0.731084081687898,0.31139184851204976
-0.08293112108082283,0.09808596349774874,0.33427776245319746,0.9786875809776989,0.4133039537232225,1.1762482614537524,-1.1455940157052131,-0.740334488888967,0.5132794837164569,0.6744147206960778,-0.8785437975467228,-0.9517672961972583,0.20477690884973623,-0.13549911594422948,-0.5099868076105756,-0.22078345043256442,0.07183352191171702,-0.013767111301922784,0.07730445193353161,0.6193404248770612,-0.06693281112971836,-0.22053696235078868,-0.34486957183135764,1.1733719057985852,-0.37303339735581215,0.24931457454674227,1.7824163733928404,0.7492046048293832,0.39388452298053517,-1.3709487163462786
-1.4878882784137106,-0.7110933241812196,-1.109749888819047,1.1339198150379846,-0.21146317051942948,-0.46266667549066876,0.4977603832696686,1.60382303512366,0.3357115726803624,-1.5461903496848328,-0.31756269603103854,-1.2286953155047524,0.869763339831115,0.28637807762297446,-0.8522656048425044,0.34121533254379455,0.21403284072429027,-0.26788985290538037,-2.570427397838179,-0.8746882008629313,-1.7838642134827782,-0.6013059781742214,-0.5176281706947327,-1.036847014279488,0.8764216563920454,0.9473071613201296,0.822706270709383,-0.8602285728695364,0.99759613408138,-0.6377542131435168
0.6765140518691783,2.4956439364172653,0.4806995833627512,-0.892058430911064,-0.16780452595971532,-0.4977469955887397,1.1843953366730127,0.17850967015642827,-1.1349946877540258,-1.31041843271005,-0.5268020714223972,0.5940913430111123,1.2786598623301395,-0.5940590893124472,1.8783234279740735,-1.3609452896515308,1.248283826253452,-1.267322989962156,-1.2851383802103846,-0.8356596375385756,-1.6745603513482086,0.5012691910857321,0.18119027587122125,-2.1595829847417796,-0.7837209425705793,0.7648872651031242,0.3897328152606877,-0.3001686297568241,-0.005836040827261974,-1.51574569902255
1.1862590730821962,0.3217116228802901,0.8245883334984404,-0.828385312083686,-0.17902087179656695,0.09297296799251151,0.10407415661993173,2.0153393368925583,2.476112096483445,-0.019763702302713248,0.49810127316784575,-0.5978535929146287,-0.6199479001611898,0.0178236904754296,0.36759716667556247,0.890392943254581,0.6411323824145471,-1.5353739779957087,0.6838045312831637,0.31496374989382614,-0.17169533335404105,0.10154959278508166,0.2364223635939466,1.522765272797594,1.7662803823417166,0.022949724911298982,0.19105078917232432,-0.5160255999721195,-1.3660880482872342,-0.8551010844502922
-0.8617813039583693,-0.6581341710954158,0.2751771205003338,-3.573059860792209,0.31301125983646383,-1.494609379579956,-0.6965458984315441,1.9714263566294747,-0.6637372912484636,1.316293898898857,-1.0165512593632962,2.1976002557310528,0.19020759617777472,1.0861002810218574,0.20785886203789564,1.285449896246927,-2.1263876679188995,-1.4395211606455576,0.5292603504368818,0.663353302632254,-0.33241907284969946,2.5201918089413278,-0.2916159780612844,-0.3693795249167884,1.2181226468705832,0.25727033067026017,-2.6659031259941193,1.1947040631944885,-0.42939959043532605,0.09384251992910299
-0.6386527926960277,-0.03373895437193271,0.4607322727478603,-1.6603403714457907,2.2188302830573323,-1.0325362298169383,-1.1215253098822213,-0.4240393844126811,-0.7257567314364887,-0.0050661153753050496,0.11278941919939053,-0.07698176647185015,0.3448782269480006,0.8712841461232792,0.8128269931629637,0.049286555628731916,0.7153871608062687,0.4644610567230587,1.3157019727621162,0.509539375949127,-1.084464842470178,-0.19562373325232849,-0.08732898387521124,-0.7734723569456272,-0.4611888869469498,0.18885208120401747,0.06038630419337508,1.5580198316467269,0.8502432176141682,-0.08422371837007155
1.2524129275181157,-0.18925351205720753,0.3108672251410329,0.3148189048639301,0.32707440031562385,-0.5823276383501977,1.5996005883436353,-1.7310658145513023,-0.7610957135959567,-0.1656198762303721,0.13381113511012277,-0.47595377581483356,0.6770339863699566,0.36798351177593286,0.3067852895199608,0.9204918503279043,0.21153231389645452,0.27066170355195984,0.055219522792460375,0.8315802245985073,-0.4861738684226076,0.16830906352035924,2.539390788829422,0.3894102476462138,-0.6195775925207644,-0.43785839727082637,0.27174663566900814,1.0492740769040179,1.9041063862226386,1.1036098490866237
1.1886932346149282,0.6196628279614309,0.7931204682133791,0.5384413692098877,-0.21506958416166996,-0.44930229355837226,-0.4534999295864442,-0.9498653915863986,-0.9143810524961146,-1.6070917684482258,-2.234421384466325,-0.757046317872128,1.8862441551205882,0.016591658872105102,0.09461197169270852,0.0818576816642394,0.3460489034844062,0.1856850938331269,0.19190149363072473,-0.7642516362744126,-1.2403300383637124,-0.7646017395340795,1.9948391707271558,1.460207079092911,0.2368499525372709,-0.008812349761445504,0.8411249089734316,0.3996413995422611,1.2504287753582473,1.6201502200388145
1.0147858263971283,-0.38232179894276447,-0.7896146179269983,-0.09674691651118635,0.9928343050352146,-0.2269765117583784,-0.9911193919514952,-0.04031056671019422,0.34114063897349245,0.1217946786788284,-1.340646037028538,1.0857060890875407,-0.049999091342262374,-0.09911615052384212,-0.7640279106093945,-0.28328618692334634,-0.4071875505627535,0.7672775606443072,0.3955857892860642,-1.246346590301894,-1.2550213020122334,-1.630425571016413,-1.5458566693880034,1.693157983014716,0.014499011073689472,-0.5988028376239489,0.6302957241773045,-0.3607692529184144,0.030834580442613085,0.2522730091318282
0.1715705587477276,0.6169051647282651,0.22873044257418898,0.2683610297269525,0.5573464380434993,-1.6299945858592284,-1.7531538168998182,1.0439114586767786,-0.02853417141835994,-0.5046362311384175,1.0886448229353847,0.5809556013714661,-0.0592941823180967,0.19445709709915615,1.1931480519679072,1.04659330661894,-1.7316619196844276,1.1287553693817738,-0.6835161847856169,-2.0933736838926613,-1.0629404393915054,0.11755677426900345,-1.9426587136306228,0.3869563467902192,-0.4848651337215399,0.3524453607966086,0.05073773000606723,-0.6881600176198074,0.11191718506347077,1.0292491983673215
-0.555293293760158,0.2632048108359395,-0.47955213510514105,-0.9203717238926813,1.685236660553802,1.4830308575412678,-1.3966158879978288,0.5972506037699769,-0.24892708658851279,-0.12120639836713508,0.03322496483022883,-0.7510959931173727,-1.391820523563901,-0.4372839207178616,-0.3116925277510708,-0.17264709892615127,0.36319863319439294,0.1705072997139175,2.045114128002605,-0.6170738241551675,-0.6712285746051705,1.6668762103353494,-0.10675737731791898,0.5737103279366402,-1.117353149898253,0.5542714554931241,0.0030015784169104363,1.4902450917517889,0.3760992139082638,-2.2402305661917072
1.526024679463486,0.8042933462580395,-1.0061526422437115,0.765051770052366,0.37607751145916607,0.6043938459306413,-1.6678085713562383,0.4868317617525592,0.24336560838526566,-0.46829202905139783,2.4694043819363443,0.5865643398713802,-0.362360372332896,-0.46656634825728255,-1.1795718606157501,-0.4270011874308226,0.8206640344585506,-0.6343842910333657,0.8137938210765411,0.2501629076745989,-0.14578527661648272,0.3018837506710281,-1.4873251017296336,0.92993687115245,-1.4991400244966806,1.3659280284822857,-0.1259307152165463,-1.3418694383235805,0.31067480036058837,-0.8409243629035899
1.2172361797325608,0.13832577485580325,-0.13402764876587434,-0.33123809192030623,-0.3434124840328967,-1.8325810146719859,-1.606388848703215,0.1164999491708467,0.08620513885635972,0.9579498893977162,1.2893243502899239,-0.4853725941160209,0.08791815571191848,-0.7678992001505829,-0.0018180724740592842,0.004632690544996542,-1.701319931514393,0.16283420919225997,0.5747140170132949,-0.9194226413304474,-0.7767607645963959,-0.2611969633445585,-0.016814285879837503,0.9274926608738852,-0.7424109210599273,2.1937212939186486,-0.2101031771902262,0.32584881246553543,-1.936767430127027,0.6228787055394355
-0.05873977810014064,1.501898400055717,0.45710011046658494,-0.5705057808640356,0.3214747901837115,-1.1918675330464927,-0.395608665997766,-0.8368528471336211,0.14122125614371436,-1.8132356448355418,-0.8157690940263645,0.48387313665448256,2.0480319239081752,1.7060133785724412,-1.7362586570940803,0.7091846805498441,-0.42470072821405125,0.03257601119431766,-0.7345685394865323,1.4740901573413296,-2.1343395019898472,1.6603507477886534,-1.3385371301463123,1.1373309201340003,0.5192663192903937,-1.79663194999778,-2.082179596818599,0.7659719838600562,-2.7596481924968392,1.4334866084787843
-0.16100889417862688,2.0599193450802624,0.08556984125628911,-0.13872989566241162,-0.6709672300024353,-0.3571225988419121,0.17207591799053254,-0.3859698672654221,-0.9785345016110762,0.2508620183049063,1.5878796651786493,0.3056327858030608,0.12396370721397094,0.08973916989905834,0.04054053950645816,0.31090888869240935,0.231321033325859,0.8401692071859321,1.2895844108433259,0.4093271863708959,0.6461532676614072,0.6187622937782605,0.5172301992797478,-2.2871465498209798,-1.1981873610384395,-1.079942772799788,-1.0066003590284907,-0.10800901300091484,-0.8129313298610513,0.4518216425356579
1.0648436526420533,1.4222671200996448,-0.7102624198954947,-1.9979224177371533,-2.132036854659386,-0.9140793142970445,0.8619510161922699,2.4297296995985422,3.0721769925040188,-0.22513174554397503,-0.41661020595413206,-0.20876308257980514,0.575896968512595,-0.6572598904931413,-0.17122912369215243,-0.8464377954556307,0.13693934455752452,-0.3480711640855188,-0.005038579957483284,0.30004818875148004,0.6684758047761952,0.04659008696611085,1.7200726014551928,0.6570937264006477,-0.09843319049401796,-0.34573931296236493,-0.6740720320544958,0.6085423268279054,-2.2959132386953987,0.45976808280449144
0.03271501800887513,1.8016042970105546,-0.9438627810167738,-2.7778008520425246,0.7161237352110251,1.4108530277631497,0.6240272917420163,0.8336665315509476,0.6182914811545511,0.42070658240644077,-0.6646338354372775,-1.0059002398699064,-0.14453802962946596,-0.8811551509548573,-0.4286496983412696,-0.2803159744408924,-0.9881052697791995,-1.321396681968158,-0.40719787280440684,1.5319707828814142,0.5131623279853715,1.3058415314553866,-0.796335807922098,0.7842159796588738,0.2816250782265877,-0.62842562617273,-1.2097718906581785,0.609558209353169,0.24797960217789342,0.9828224192152551
1.5136733629404262,0.810004659188102,1.043326732423527,-0.961882806546751,1.0578340211452115,-0.2516847055035225,0.46592888672951593,-0.7326645411541542,0.2597408348846164,1.0864239724907019,-2.010968245141637,-1.2557567497105255,-1.1051043393639035,-0.021179349155618542,-0.5017163757451188,-0.5162480762082913,-0.8849424350457759,-0.048382103311002345,0.4928116151238161,0.1585404869565183,-0.4613433864035217,0.9833202128572723,0.3972622885248655,-0.5049148807131334,0.9651476158623824,-1.1761213225984932,0.7698588834552575,-0.28997317496915914,1.720961172751245,0.6297071142511714
0.7398444877951782,0.15488752576150477,-1.65796722077551,1.1365931982247022,0.32190117114634487,-1.965738193689864,2.543163010279496,0.8122114325185332,1.1077076679476332,0.23742722715804626,0.4533397843433443,-1.4803564429672058,-0.868647972419546,0.5735901775243727,-1.2172545166036206,0.717244587165254,0.438780030205825,0.4720230951419645,-0.5141568449772297,-0.8168308074931617,-0.7031886725449741,0.21489572416911273,-0.21543229196515037,-0.3499286347169549,0.26895588495416645,1.029267253680307,-1.9963198563199143,-0.43769175644613745,-1.9783898396140212,-2.8661363653759944
-0.8508946419254199,-2.4800939752389257,1.2078293873649706,-0.21158798069182697,0.07800819496808394,0.6078487198552306,0.37264145968045304,1.1221071522582984,-0.9159557772481445,-0.3163815978785098,-0.7005616694053652,-1.7552651184778594,-0.38921631966632264,0.38593428351138126,-0.26087162514191414,-0.22392346650876094,-0.12153202054688357,0.14367283545693174,-0.05079853297622007,-0.7305666024725065,0.830496841048768,-0.9325470377311292,0.24048956783825406,0.23174110303209763,-0.3554702363931099,-0.7463933764961529,1.9063667577495436,0.8132368253465095,0.5171143921789351,0.16372322043424403
1.3101672335942924,0.5541152814791628,0.9815675102510383,-0.38130465403519526,1.3639144210774128,1.9528470101597215,1.9349033457676923,0.6648666572494724,-0.720480369746415,-1.4922467988139327,0.1278629263591155,0.4204400801897388,0.8004813136845668,-1.4754115488638897,-0.3091844510495134,1.4975527420154437,0.15822841122925085,-0.5385511405607374,-0.4103976898660298,0.1448507409670434,-0.5656039400280056,0.7192342961697792,2.498706256537755,-0.11740451130850166,1.1089769101897693,0.7209561590314832,-0.07986053844249193,0.6454825961888343,-0.7336608703667991,-0.6780344778582831
-2.1488264674599935,0.8995686440284381,-2.868769182316312,0.4222200996478472,0.5941957505558643,0.2512498181426749,-0.06907412433171989,1.3995500197536406,1.055913254655492,0.10549194217106345,1.0384830553560485,-0.13950846157831512,0.36609448198491834,-0.9010058481330988,0.8057270317178112,-1.6865681813662228,2.411570979315231,0.5164009448206813,0.25844960468626854,-1.11675826349985,-0.35567986620863445,0.48867816886239934,0.05800442038673049,-0.8619988438950881,-0.026923821663028032,1.692209173742656,-0.3503093287668329,-0.09833370338107136,0.28572328437648326,-0.4130373491800532
0.2195040350141059,1.0139305194401096,-0.8042876332535407,0.6087837953468069,-0.041621518945165616,-0.7312301456848976,-0.00883794022582219,0.4561931316870899,-1.1848502226823026,-0.8791401113920857,0.239031449766945,0.9386173889303777,-0.770929478075711,0.6353302690299693,0.2272327217717182,-0.6551166234767182,0.31661946173668953,-0.2642457333361224,1.1626229658956797,0.2677952941581463,-0.9304158800376,1.1551651596956307,0.6520471832167037,-0.6716178885529271,-0.1164112138805721,0.5693168528002293,-0.1518099848133107,0.09462939196222168,-1.5100503562646739,0.4761811141378407
-0.2730748316637176,-0.35546531509892815,1.4761021287676468,-0.7479766925472237,1.1904356288135554,0.793995124734691,0.34742676816765705,0.42426802760557225,-0.21730653872261782,1.292622087775373,1.691204933979523,-1.071402640361188,0.4227356860818876,1.59167219849106,-1.7542979010233317,0.9565963689339813,-0.48337683111102736,0.5906945112592927,2.2962575773494556,-0.22485113540444351,-2.4001023880422294,0.9351868289158163,0.1480680846032304,-0.3521949607183304,-1.4293545186952223,0.5950275363528433,1.1636017926678244,-1.403076281492396,-0.47827578475388344,-1.1283350689759086
-0.2738281234308213,0.12651379610703198,-0.5564898466822158,-0.7905432716301652,1.9939833521066206,-0.5304523997707444,0.3220199853252527,0.10869071780497547,-0.16383396904055766,-0.2670664985252735,-0.10267899482116831,1.74243890660784,-0.38619350051962115,-0.39284275590716483,-1.4337362043049822,-1.204135215817835,0.0876712329853024,0.3898378883953329,-0.12055408207385201,0.6146599687904902,1.3089614628101616,-2.0279099886822767,0.24933667926735922,1.9653477384129885,0.3674154393434416,-1.5250421413054869,-1.03428816196819,-0.8452870007162214,0.8333488723797005,-0.2671723743413943
-0.6742954576802865,1.8958413974336938,0.5965047177556968,0.41030022614496814,2.2830508828642504,0.5403457388980392,-0.49936681496245405,-0.4584152418914485,0.9139368939416647,0.6489163222529358,-0.6375824536421875,-0.6029119702001771,-0.1561508970687659,-0.768390291531927,0.7345580759443591,-0.9193867589502094,-1.2138950023032788,0.43225543386139215,0.5081047814104703,0.633893052645832,-0.41962524686861663,-0.0489971219011396,-0.010891975596070667,0.011368801407408462,1.6009297013025587,-1.0383943732375227,-2.108661270865685,0.6148392141340728,2.161363675721851,-0.2229971524016254
-1.4955357564459024,-0.14375547881808795,0.7189864250068905,0.2990362786268266,-1.070878660108171,0.4024384439394151,0.5728479308823508,-0.2481249780092704,-2.255034155542073,0.5862025607861359,2.708420833664251,1.4478549954657147,0.34392992807884626,-0.6983776078157043,0.5412863307753549,0.4249276740872678,0.4329236454889223,-0.474334452059117,2.445590813852423,-0.7243299458236843,-0.9388303571805048,0.6709475311888657,-0.48364845803515805,-0.21572054769573756,0.5915431116077694,-0.4633418691065575,-0.023089573833039403,-2.7111477556052805,-0.09827911260407511,-0.4656090702311761
0.4556368732165378,0.9078244056566646,0.03723138299256129,1.0108020091995495,-1.2468656251012367,-1.3618708768349832,2.0893745043243377,-1.2283188477925986,-0.23373962622451433,-0.16630980506861848,-0.7063254659063062,0.9552716512792718,1.1943709039607802,-2.2083176697016325,0.2984518130513994,1.7893980159792824,0.05401112289584771,1.1937678390441442,1.673652886057567,1.6257785141134011,1.2252016146105347,-0.9769594175442151,-0.7385710611805312,-1.0137473570149362,0.7914868261737229,-0.43862431946188263,0.6138103222715359,0.5653073119008257,0.8699084936001719,-0.6830981768028904
-0.22100042578605225,0.8850425390418174,-0.21159236180974056,-0.10830837250572045,-0.9138719574881986,-2.6326634795376105,1.5409246596457713,1.750995066266956,-1.2566116317204794,-0.4691996679082544,0.25959266359548583,0.7159632417300381,1.562187208903268,-1.863227031620465,0.9044402503799215,1.1317907075051614,0.821933584631877,1.3275785973764247,1.1243353308374613,-1.112989137299323,0.09958343049697696,-2.7356635077106204,1.02831239051481,-0.6555642326705068,-1.3045375337878966,-2.916959751635381,0.24873743587774835,-1.4040702321510241,-1.457529281488296,1.7130934010007508
-1.166591044957989,0.2681212760589341,1.3002615766853747,0.049461540327641,-1.456417284533719,-0.8508851036444172,-1.2749446385198493,-0.02785066574406824,-0.41544582524504814,-0.7538696733857381,0.17219474977738133,1.2741031163264882,0.8509789723435784,-0.5376040504969095,-0.3453708872863938,1.0145392915330724,0.1982836563096888,0.014299978391858462,-1.27211494516575,-0.8909941462668856,-1.4375023563339575,0.9105578641717287,0.8499070180653968,-0.47854857428070946,-1.5443173679222872,0.552637968473569,-0.0598331116693157,0.47806455863487685,-0.4003381167422688,0.006186764705004106
1.1761576945069396,-0.27568797193330963,-0.9299632443037487,1.0943263146021864,1.4064741065805535,0.9228675802449917,0.07660440762530549,-0.7700839784901008,-1.1759931399695214,-1.773775506453794,0.9460526882296452,-1.8040666248557662,-1.1374053669917565,-0.7785627924679064,1.2006130219707303,0.4756367878770162,-1.9115130189276885,1.7132103749439984,0.023587333801539347,0.44717529833339464,-1.2096090804278101,-1.8791293223005487,-0.9110139188950206,0.713624122352873,0.7209775627927077,1.594421980754602,-0.8270953129042817,1.025816742360668,-0.14251345385688194,-0.658373458128933
0.17148488794349392,-0.10297885664488846,-1.1338135795848625,0.3429306168528314,1.0860093267810207,-0.4604444389400685,1.6882262326358033,0.7271215697349567,-1.2374821804213796,1.0092792000653248,0.9083031822485967,-0.0722356644718549,-0.8602395317342657,0.12602744353386294,0.7708194626248924,0.8869039844275876,-0.16719918508047396,-0.1282497876140908,2.255457265593301,0.6767481376596983,0.36394746132379485,-0.6845843479895275,0.5366184403860562,0.25258685100850753,-0.8615191782590725,-0.8621347612704405,1.2839831244290998,1.4317260195854695,-0.33898292238533384,0.27109598249829153
-0.5626499928014832,-0.7966240906949906,0.9527273658211232,0.1225920297345031,-0.479123405154113,1.9296473204220257,0.8466031690905041,-0.59303517066198,1.5686440835529443,-1.2498805461986637,0.9688385985094408,-0.239098639683809,-1.3552585567851105,1.6314638795649454,1.0527358945457563,1.2367092555082961,0.3658800605717944,-0.7337563469441735,-1.402535962876658,1.1150582552898043,0.1973094265196006,-1.110543541297241,-0.8937175081545478,-0.04822097659371594,-0.9418628836638437,-0.8171761291892944,0.04200799642831844,0.2997170808712865,-2.0755409674571474,1.4595801562875348
-0.6435487478820769,-0.01299060768909072,-1.1147113686868744,1.4694610945548825,-0.18936220620858155,-0.9676747716576516,1.4195449301294882,0.5194540470222903,0.21699717638850646,-0.9387061445556282,1.568129814893459,-1.2459226433706776,0.6393484960872847,-1.1890478473532404,-0.17096729867407165,0.6210480700200881,1.111172484878422,-0.8931077791708391,-1.231457723141347,-1.1464495509651833,-2.161868250538036,-1.10050800109876,0.7577263612052156,0.8110536962323217,-0.6744224327840584,1.4178913289233415,0.942540704385273,-1.0866326199389493,0.30935985503552166,-1.006187435860202
-0.5707449437585231,-0.772533642017878,0.3737030852787909,0.5374502333910617,-0.5163080836201793,-0.5182316077750158,0.19247341888803055,-0.3080490077236619,0.4552325751516743,0.03567126352557635,-0.09291317332785955,-1.3651060934039345,-1.2795668651474046,-0.3651475361922092,0.3697977830318345,-1.1483712497593443,1.4156677261894783,1.1786325035322474,1.107528743897898,0.6803962684490699,0.9909188432613792,-0.007165868406861094,-0.644435626988974,-1.7648020016194768,-0.8431193094541864,0.7239849513414236,-1.370436115814677,-0.6650523676688458,-0.7224650651065948,-0.9369826626952193
-0.13041826127727865,-1.3047063317486267,1.059373881846934,0.6721143037207943,1.74433480107277,-0.11859673948991684,-0.6565879448745928,-1.6700030622061874,1.0785214987702503,-0.9821007470858584,1.7866442354693002,1.9395193223458946,0.7317234979945033,-1.0931187385192624,-0.18001216228536077,-0.3296626399996687,0.5868284242262635,0.15987847628282012,0.8803475658236899,0.19690127716630837,0.3416999076747355,1.4901249223654989,-0.22067119231463642,-0.6592116278744616,-0.845856191343525,-0.2524110475821237,0.7746614309400283,-0.29170946141125426,0.044734266056885824,-1.430852135671424
-0.8259434109193986,-0.32290527777577266,1.4164507408118177,-1.3731564160065406,1.8450130875888542,0.5654531423872389,-1.2318924845108543,0.12316273564055082,0.8335451330316745,0.9434522816496623,0.7578851189786044,-0.17855156928369253,0.6876253109743541,0.007548214582676712,0.538705537848769,2.2832274191555,-0.33011394813404843,-0.6582430684509224,2.009578349418051,-2.3210517224705454,0.6860676492494631,-0.5365108288076341,0.4809312170339105,0.21279304364670604,-0.9003384264292814,0.7632169744798196,1.4570893182236548,0.397104829302574,1.9218084656124512,-0.10243217361339475
-0.553221040670279,0.7254906111105128,0.12936438344236076,-0.8488009268509147,0.4285802922312679,-0.3212371412269795,-1.367837939843297,-0.6192725794104847,0.6428518354541936,-1.3882979122244261,-0.25352249943142996,-0.24582170388261576,0.6410687774011246,-1.259624608787449,2.3150102326139583,1.0826724160123058,-0.6186874384559976,-2.47797880746152,0.8217587070343471,-0.8588199932685116,-0.27396503296707325,-0.09680056652892047,-0.02523558455497216,-0.6767312784401731,0.2845761270178698,0.9307260215984834,0.14424846203527597,0.6112961870418607,0.1446526555070144,1.201262526932104
-0.3155265477694881,0.562443141770591,-0.084081691244533,0.5184747260327659,0.22234912037250135,2.8156447691821143,-1.3787575128175913,-0.5022684663017166,-0.5139019117739915,-0.5712036549071923,-1.023028029834424,-1.5219088064015456,0.026190855199759944,-2.3651351464498687,0.41092285270497375,2.156701212633936,0.7713212072522957,0.35250804057501706,-0.18867537510973767,-2.29639372441158,-0.1595628658624402,-0.6075427322723931,-0.9758210335621738,0.11068719334736962,3.4060190058057986,-0.30903016840983166,-1.679788733698891,0.9055375606774839,1.2789589828522931,-0.9341109618608521
-0.4800716905676606,2.223916791399889,-2.3165900698057467,1.0902766782025395,-0.21692147525197025,0.22363437451108997,0.02502990330189856,1.5176637473043078,-0.34253909041322517,-0.4305080038755056,0.49895161290701434,0.34362693164374214,-0.08487589631964598,-1.3446046879318498,-0.2865727430503181,-1.4182446381305311,-1.2752754609120922,0.7460704593595052,0.8728761215477169,0.16479207933696502,0.4545990743580816,-0.9228430119144493,0.022294786535653244,1.6097246997910803,1.1568743332524545,1.0490293749653843,-1.6080748339086446,-0.5219191041646868,-0.5425356299152783,-0.010177761789808074
-1.0240141913336198,-0.2289737535220568,-1.747115292819273,1.6586693923970304,-2.4576554293066275,-2.6213654783435794,1.79234041167101,-0.4407915765772411,0.4281889420824425,0.07753074963841365,1.0522931959644153,1.2334870865743146,0.3812727606264404,-0.6351700192063565,0.2609723963726975,-0.6413881111318014,1.4300293477920185,1.2452187592629569,1.1563636689761607,-1.1105269209209543,-1.5209886694300034,-1.790194200327665,-0.6095916070518442,1.2563827499845812,1.6939507449328874,-0.20706000600578522,1.0211065831704764,1.0831194767124488,-1.7909858308217306,0.48076849830559265
-1.86820909890693,0.7830518449722464,-0.40666747478444654,1.6029068924233603,-2.2287753351758632,0.04224950891009449,0.5169544945403464,1.0390674983554884,0.21657257850221465,0.054983864245178274,1.4640557751400467,0.2725710541207975,0.023670502709682264,0.82822344708173,1.189635765654493,-0.977450714633003,-1.3342191123005476,-1.4344893052135297,-0.19140328660108988,1.3417196391076494,-1.5554687663265327,-1.4733463617576703,0.003916930104765517,0.05548071073035796,0.07346679024122568,1.1854641434907955,1.0353608599914847,-1.5037384824678737,-0.13865360771608432,0.5144221151618129
0.013638364201720848,-0.19527588262452883,-1.7410993362767955,-0.3834534852010774,-1.5886757535301654,-1.1974653352700664,-1.1444531043543753,-0.6870910930595291,-1.784687973770232,0.1059980987782899,0.5919234431574005,1.887888045955254,0.5936634183131849,0.7281395437222231,1.4396871406382095,0.5258554820190137,-1.3888120758301417,0.9056548315797244,-0.20614898643171942,-0.1787525385893165,-1.0987345532856705,0.11696079785777791,-0.21817568206506666,-0.830601777584744,1.284152096069133,0.9925100609510129,-0.25990785486921053,0.2565552041898539,0.9205272588525598,0.6744680585349324
-2.1820620917177305,0.8306265018632688,-0.05676600053712672,-0.312525973567333,0.33247231540768485,-1.1218407489358864,-0.8004872993748519,-1.1180665235887717,0.15520944941981807,-2.8265453219335996,-0.038877982684027576,-0.3895914691395291,0.41783791027946837,-0.18355811297821062,0.026594093552499413,-1.3823347657755087,1.020762785303788,-0.01483408740997933,1.0105564815827273,0.09388673608272657,0.36011373559956744,0.015771802911192297,-0.00010001201767608861,0.2780176522536416,0.12274710018170953,-1.161618662172019,0.7245743866433022,-0.48986597290977674,0.0475039215829416,0.6890972370422267
Pesos da camada oculta para sada
-0.14327197748414752,-2.548456146857321,-1.0526383430024815,-2.3107912735077227,5.383642235054291,-0.5914611738082648,-3.250560467313155,0.7785106429412558,-2.8996207763074895,-2.209711976319417,4.348945171478107,5.056878822049712,0.23978098228167136,-1.3677695259451441,-2.092625673013276,-2.6928301411427205,-0.05882495749328485,-3.5497770252324563,0.3022130134413695,2.45713119267487,-3.3381104034508478,-1.7380274528264987,-2.0838428138009215,0.46297457389575447,1.0158048630556002,-1.049723363405256
-3.1961673482847135,-0.38728513654104996,-0.8261312815677818,3.720979689709609,-4.4945820130364345,2.465070945105045,-3.266408249395142,1.6117880712919466,-3.1482838032060916,-2.249549967479511,1.4743858725609507,0.7780597661564179,1.1274556596106096,-4.285931566709692,-4.064018453326756,1.4006225286112595,-2.050508374676881,-1.3064688869607237,-2.6300484012867362,-1.7018698479662022,4.226797078252071,0.9771967373108585,-0.9442442849968503,-1.995167714291023,-1.0077612632702404,1.9431214294133066
0.6408493339917513,-1.5038240884777576,0.9815278914585922,0.5897182546953527,-2.220487205402654,-0.30100443298068597,-0.5568171007663075,0.1945326603868282,-3.2425420327600265,-2.1651629405642785,-3.9863020819009103,-0.6852134340280364,-0.5879349483622606,-0.7088901527062852,-2.124082678281794,-2.0235485191238527,1.259702304836113,1.1554184717136262,-0.9123341412731456,-2.6817736925607623,-0.09485703619058483,-0.3673882358266226,0.5175125729391487,1.603176355533126,-0.35142246483269934,5.752030965755676
-0.7286933170318379,0.9199091002086384,-1.255783722627879,1.482330770345025,-3.241374389308055,-3.2130331907667418,2.3945396708227986,-1.6815665970162177,-4.259578741879301,0.7182224634821768,-2.5729869397157055,-2.337847271544698,-1.1481314353835554,1.0858271474828454,2.337233387030598,-3.1738914177546707,-2.2744570180407093,-2.7699584229431777,3.0450480928674355,2.9897561334672416,1.5013601254009419,-0.7103084222688161,-0.9071822330131304,-2.569984712568359,-1.0621522749130583,-0.07167626952708571
2.240838985015684,-2.56596565270631,-0.614419574534395,-1.7419046504873748,-0.4441922934957489,-1.5294829845972615,-2.2514439042639594,1.2296762729599824,-1.3936314306981494,-3.5524420580736082,2.0765813732114573,-3.9158962921747635,-2.4645151296901475,1.4863290450060354,0.5626167253783317,-2.0508468642323674,3.116341211898515,2.7241327802593434,-2.356840723252597,2.789669397066119,-2.7750775358612074,-2.0758565213199853,0.9468407885694814,1.9578591077774843,-0.13205142113734522,-3.0513766220924463
0.9339386352986644,-1.5259988939200857,-0.5454510559436108,-2.5867680011830183,0.6752068270405133,3.9899188495717,5.820431842586966,-1.01141505228979,0.9122813273160659,-1.6285696844420023,-0.2694385798664127,0.1883632563947266,-1.651791435253001,0.13290054198310433,-5.17805245364956,-4.0793247441786145,-1.9111272509925956,2.395527062778672,0.6172157770278814,-0.8173741370556493,-5.136116143831594,-1.6976717815347397,-1.3715228455025517,-1.2214891093131586,-0.8522760747173155,1.7176010651948197
-0.8367575444046873,-0.6590584782388873,-0.542475745937152,1.2272112452906216,1.3772464259890471,2.1350422378414913,0.6243493130516923,-5.315839799189097,2.080146690720567,0.9430624626921734,0.27875630196999035,-2.2919022769078237,-1.7423734849017738,-2.3327989956835116,0.26298351910174544,2.3270147140478787,2.999178622004763,-4.372198321776649,-4.8151848781583775,3.2550663635966686,1.1424852025848091,-0.0692979313732252,0.20913279843740287,-2.583649157953144,-0.6014424818767066,1.2120037594017565
-4.358486509518582,1.7254408134359267,0.3290829617854416,1.061417275070105,2.3083661494937604,0.39274352251640515,-3.6127990270502175,-2.44526923053723,1.6589757794138977,1.5951313268694756,-0.24846026816146505,-0.10959193812211594,-2.474416552899101,-0.7293017459706342,-2.557233960794901,0.8971172021882917,-2.8260364274472516,0.7632061410083999,-4.331376470764906,1.4835291729518578,-3.776996150345763,-0.15706075910011172,-0.26874157846275953,-1.4449867928525562,0.22639928665968706,1.515544659420905
-1.053419416317941,-0.6054071589594353,-0.06596343322872955,-1.1169526697902843,-1.227458982618106,-0.29246223620916206,1.0700261862440452,-1.7053292439164744,-2.241096790829751,-2.10289211508479,-2.5114230492765386,-1.0295650995299483,1.6628407292688816,-0.029541325194015807,3.0829423508295997,-1.0272491943640552,2.075466831686265,-1.0150507764467005,2.5676654413055218,2.7045505490679416,0.16626557146934248,1.1050496555106646,-1.0343499513203762,-1.311317664070881,0.005560119293655951,-1.864495441228836
3.290108848431736,3.0748634402804935,0.8356777832063708,-4.164822001094603,1.7894933844088532,-0.4646425820456101,-2.5763221406841597,-3.338344529032359,2.620782108909045,1.3535593912500754,0.18753995208389374,-3.8015073352599096,-2.839963880874709,-4.085878133360727,-1.8375698771403532,2.6580998887513156,-1.2858755873322474,2.6546932675084536,2.3197077848745464,-1.9597077644132075,-1.3623352283818364,-0.6912827156484507,-3.1062138052765285,0.5488973613664792,-0.9899758963597078,-0.8736203312569777
2.541981772477341,-0.24739354779385003,-0.5708576226773816,0.481542240264404,2.7067568598974376,-0.04726158244564813,1.2898006039558618,0.8290481969863992,-0.8144060336997752,-6.6082146931090415,-5.0456082474127655,1.0670822154553525,0.27207031385801117,-0.022728200558446564,4.763157014609989,-0.7408895747379156,-3.496223020924391,0.3478686254683999,0.09825632411214856,-1.5956861471139152,0.6555364473701145,-1.5336104017322623,-1.408600867139808,-3.092631111668708,-2.070219630255885,-4.273282751888231
-0.08389433933801743,0.7109799919759806,0.9026946832662074,-0.8721846964485882,-2.8839036499079134,1.437011555263681,-4.442390363735181,-1.5276229105283798,-0.48330447672591054,-3.2008829942170367,-2.932037618789911,0.24820982404658692,0.5714073780481164,-1.799955233075996,-0.6513375496827376,2.082053901808645,-1.9860787605262278,-0.8251066486749649,3.828326019174168,2.065606149730614,-1.9214677138396454,-0.8280480441707467,-0.12272587881732089,3.4431968698932125,-0.6435402133869009,0.319047551040727
-1.709796494468209,-1.1949488162049875,-0.946035814188242,-0.1721365845515314,-0.05312969725761086,0.3571644730694252,1.904863815952498,1.3604614670430082,-0.7731873304715312,-0.6844962567041396,-1.8537286255032477,-0.9541477743544295,-0.9016397663985728,-1.3950257682960308,-0.25555341093754697,0.6910699786476893,-2.475629740541265,-1.523667281036494,-1.8373052396935075,-2.24288245100303,-3.46461800333069,0.5019459968217062,3.093963283472368,-0.17457398357393933,-0.8185579956620487,-0.8079065722722403
0.8279510990088986,-0.5984933778883064,-0.12370232534856751,-1.7649231884058443,-2.545666299872997,-3.2708574733482214,1.50729107198637,-1.269320856860706,3.0346685650344662,-0.8859104419310492,-1.3357977971821526,2.651761329831916,-1.1142038714417228,-3.2170543866994183,0.19009925263949254,-2.17838352634891,-0.054235205353895234,-2.861959850256164,2.10148860024474,-2.0553135136737137,-0.22284650030471376,0.9547510837249332,3.4763314033658816,-1.5790824654604905,-0.3550272739755957,-0.08676231927152957
1.0083312976793577,1.540865359462119,-1.6133511788181272,1.8299651683775022,-2.3079429698486065,-0.27543586086236266,0.03259088404564805,-0.11010357914904004,-1.4496576449720282,-0.853727005458932,-0.7404036333462783,1.0984906480460206,-1.541620106583439,1.207198694306066,-1.3944979423661883,-0.17941708478116836,-0.35038918841363786,0.9821410629363982,-2.5487641349042813,-0.8664733492154508,-0.4570647075215433,-1.7336698940616364,-0.7280279096969722,-1.100596111526524,-1.1770424294727195,1.2167269965307017
-2.120798902658746,-4.527348800959154,-1.0343104832692007,0.19179025910256792,-0.462796706311978,-0.20588601465626408,-2.156691652270607,-1.9621058796871238,-1.3033810026861978,-0.05736269253248985,-1.2742848777085138,-1.4352456990725093,-2.1627984658055763,0.13173964332362775,-0.5493987635129042,-0.8846003763491849,0.06494064480162036,-1.2362832433290787,1.1693597182962825,-0.5271705431326962,-1.0373072656886744,-0.33460944796236974,-2.1626141778096875,-1.5049993547391944,-0.7139967526017252,-2.831269658482949
-2.260498260305084,2.411338294341864,-0.6729071951583465,-5.674637484167835,3.591755251733513,2.418444870306619,0.7659294895792845,5.877772944000533,-2.906678359655337,0.4203584991777532,-1.1570417414560366,-4.314511998469092,-0.012846423388180721,-3.215983248468552,-0.31873453073859626,0.24562029904396546,3.0496613886250685,-0.4434159718124316,0.37724863464323094,-3.5099635316845803,5.119191217945005,0.6397241524908384,-2.047298171515268,-0.9664526035461536,-1.9686764540612474,-1.808449783667918
0.33671435998345056,-0.908529494182351,-0.021773803679654487,-0.24892002040369382,-3.4720664837638004,-1.2995174294065126,0.8325964932721713,-2.0469503848141506,-2.535445647728104,1.0390502329798734,1.7173985050155578,-1.3183667979154572,0.0849600503439502,-0.8437475137013026,-3.8263316078139926,-1.8091386377679861,-4.75376120300825,-4.176197656632486,1.005071744069399,1.3949342871724748,0.3149527260765216,-1.5722772053017102,-0.25803444829628747,0.2153335041951441,-0.515378459467467,-1.499255303051038
0.18740028360700142,-3.0769936885113665,0.5144625417658772,-3.7885343602580117,-4.84459551396304,1.0384107044748505,-2.4455141619108263,-1.8715566276419666,2.549153401033001,-0.24370884436489643,0.10108987075941935,-1.801257262908397,3.470253960178452,1.1878758805276692,-4.026852035786116,2.3045140213143704,3.725953491012069,-3.30201370124798,-3.470792680830278,3.0179444306736065,-0.7096290710301059,-0.9037760974886733,-1.1306929009212432,-1.760042430136573,-2.4011067621112194,-2.4889494651651733
-2.139570082205769,-0.8388969742074447,-2.1607996582680227,-2.567794473882072,1.2868990133428369,-1.8151634635469567,0.8583189196256675,-2.50184793991407,-1.1749920978270916,-1.963398006727747,-4.290842454578981,-3.3988198972822463,0.8963917471885262,2.3106384966426465,-2.1890537036900533,-0.8329849739398709,-1.9561305577322894,-1.4057419043192518,-2.4975984827373603,-0.7975019180453291,1.6039996810901231,1.098346358391705,0.29626980994530794,4.017233757650717,-0.7670057595639369,1.294926480639305
-0.9972073087847187,1.2448606617878402,-0.3126656992533523,-1.0553147770151947,-1.2813800042681422,-0.579845830216727,-1.6322773806417157,0.20950569434040822,0.4575786731813454,0.5340381911206559,-1.4095550696122612,-1.6649475664680458,5.949273922476158,-0.23719163734337095,0.650516627308574,-2.752201577083592,-1.3781554748058211,0.1537031171481681,-1.2528590645508226,-0.9876742237041688,-1.0542903698374284,-0.39217046643380565,0.01960354572806939,-1.245166403083186,0.22343112805952556,0.8652539783086364
-0.5976189134995586,-0.9325710225268562,-0.8901912523291023,-0.9703066109455715,0.5411608941387871,-2.6693449043142365,0.24409820634654025,0.32167230233265054,-3.7618665697544436,-0.4683080072209071,-0.7416698745919925,0.6141868192722839,0.8052686224533616,-1.0515903013798136,2.5251064330306443,1.4816971772893242,-0.4927703340556703,2.422798503935761,-1.5299202942933552,-0.1930295686015463,1.008063622455239,-1.2394359423835541,-0.2225425436298583,-0.07740906915676664,-0.6128230524092355,-1.3505836309183281
-1.744336559496544,-0.7504124495053367,-1.1924836754430743,-1.9014939656804184,-0.6166803540659865,-1.2961000247279137,-1.19724457064416,-0.2917908022347392,0.4101333453835957,0.4717959269964681,-0.6624288052399768,1.048410710130297,1.1961567699181572,-2.155773361681976,-0.04035583427699304,-1.3592977522969607,0.9176566006482749,-0.13283700805699647,-0.8429913443553378,-3.4499519099135663,-1.5234405673289162,-1.60392210750164,-1.6944846101130666,-1.5752585599424873,-0.08703754084396725,-0.5751114525896655
-4.091293220757317,0.6707094745789419,0.744226488961541,2.6351730478156066,-3.1732131333589875,-2.267604047028003,-0.3599341575647043,-0.6711828567501994,-2.7447231646077177,-2.136833983191079,-0.03491751607367781,-1.1269842234218914,3.05587752439333,2.7321574474243144,-2.6638338308688128,1.2519073961302754,-3.643516967413428,3.413555191040387,1.3277927702543995,-2.2890071299607944,-2.6373577799929704,0.7914447570004093,1.028873837349933,-3.455608970804364,-2.2800938234157715,-1.6056373004412843
1.768225268325755,-1.8736453840791374,0.5859921499981986,0.17933791257559398,-1.8134200918085672,1.1728593801514087,-2.167455208077895,-1.1222362669226071,-6.040579438294687,4.196499842024472,-1.0048064342206646,-0.27944200606679337,-2.377577046472063,-0.6576296287681945,0.7049215358987095,2.3984588412534538,-2.0741525520037665,2.461744925221167,-0.7532377332014295,-1.4803478162802082,-1.411588129375318,-0.9699804734293558,2.8233227763536166,0.48656050702448717,0.7324456893677957,-2.670587558473024
-2.056403936024458,0.7672785861062977,-0.9518653488793404,-1.0957830156586874,-1.1670718491577272,-1.6012065168036553,-4.1027839881686,0.545350004021026,1.5131339373952217,-0.435319958496223,1.290625935142436,-3.2955545803004083,0.11007998493370891,-0.7791149182761393,-0.841118120063245,-1.3651014555774217,-0.507441926737006,-1.380895991279069,0.09001313287564054,0.2678463543867971,-0.4229669831540259,-0.4184196781612431,-0.36806025158532746,1.8530895820596838,0.492931713589369,-0.6521323470681197
-1.3466316430365457,1.6398338290056942,0.7659203141009779,4.721021066276243,-3.7232696031874464,0.42860932325160084,0.4105077385823991,-1.8945506663135365,-1.5484387827485575,-1.73157641072308,1.254431675104316,-1.4695651001508665,-1.8460370207129884,-0.26530612759293626,-2.921762821999168,-1.6154224663835608,2.065032478523416,-1.0265676724038584,-0.3705703098610921,-3.0194962364806504,0.08702497640306432,-0.19892640564363173,-0.23373648235386613,-1.1481549853279356,-0.6469119719833005,-1.5204031078330935
-2.4177425778014143,-1.0281289332181962,-1.1828650168507384,-3.6025702965883473,-1.16190641492593,-3.8020931312078914,-0.19828361866310268,-0.47018776440256294,0.21701898476841497,0.5734876388456563,-2.0399279330573594,-0.8324891247297406,-1.686175532686047,-1.6458255183875439,-0.286664890908763,-2.8501734914230883,-1.1651991718007013,-0.802570001013994,-1.9450922701837905,-3.728807290012333,-2.450453297250566,0.46211074944750463,-0.6662520480841208,-0.601194330247027,-1.250988080601985,0.5807480467430725
2.710797091830121,0.6416486799084348,0.1971942553475002,0.5728420112332496,-2.138426985778858,0.2418192515214376,-1.8386895625132995,3.8968918134760844,-2.7873137137854203,0.7587586341117522,2.417701358580839,1.1825730047144563,-2.586404253952797,2.4186501846557205,-2.300000449758638,-1.5654352226299293,1.214588361211846,-2.0889343883854687,-2.720223148308599,-5.45178501850436,-0.5816923392717663,-2.0161319433350404,1.970097079674181,3.290036991596206,1.7772142448459425,-3.4483418175260296
-2.024625361297577,0.2603194998781326,-0.12900624890143944,-1.1450397845875027,-0.34916925535756593,0.1485547014892834,0.3818017316667293,-2.264049313737514,0.4068553315647285,-0.42585387569771166,0.3759398621547912,-0.43102986479641336,0.977834736371532,-1.977643855527641,0.8069665083739164,-0.5436346881697495,-1.240734720613321,-0.7558880355849955,-0.2708408306021473,0.27539344631633716,-0.45148398796792866,-0.8355775311718704,3.3778482090027993,-1.1919275354428396,0.926933614661119,0.48380848385582614
