Pesos da camada de entrada para oculta
-1.1728475250497605,-0.25717524934292674,0.20319648281921443,-1.382735384220778,0.6778077054923382,1.3968775687445039,-0.0038831787937232244,1.2738768067858168,1.0732822304500067,-1.4268315578349096,-1.6428553367442518,-0.35301004007227854,-0.5405663121860512,-0.728150553672856,-0.7596733206810613,1.3100301210124443,0.5860682340093011,0.238294256556619,-0.4778394569971122,-1.1100601129665981,1.191183920990314,0.31577565555142156,1.015507461980485,0.09027902789071762,-0.386931566704791,0.7052148419416888
0.4178899097036325,1.1508868503601972,-0.5208942419260673,-1.8964619073130546,-1.8387025573540003,-1.3761751774815596,1.8156184757676699,0.7744441022268022,0.7478134473812507,-0.3364476448104798,-0.16094036353585037,-0.7112045393230059,1.3188170293586705,0.28139500013704016,0.7933531865377255,1.061044994849647,-0.9441487481670321,0.43943832311939013,0.8028001152256,0.3620939565846024,-0.9513798151622085,0.5049920189596055,1.6149467274566727,-1.206608494700736,-1.4552281312755837,0.026181758991063207
0.7372684062907974,0.663582598777446,1.0559115237913725,-0.41285543280699033,-0.9676408060324593,-2.2006675128723407,1.3840056934111191,-0.588050174137801,0.09801867719669721,-0.12510849918576816,0.3875616184716362,-1.3897632871953578,-2.7137620285465442,0.38030722346140605,1.5810186366518602,-0.7016894128700568,-0.9919549624043228,0.586729127164225,0.36111074587307157,0.9359124874630643,-0.025659100886738596,-0.19580989181618824,-1.0062700950615953,-0.9578293856699205,1.5791848986755161,0.16555699582697478
-0.5267181979319822,-0.6265136905535588,-0.12130508593989343,-0.8860465050279208,-0.3446191016547217,1.2255573024172612,1.0109874561617378,0.058924719927605604,1.1485017477550112,-2.569666658665481,-0.42948737300351186,-0.5864978225941997,0.06221592265129126,0.04215195003013277,0.6285234583924798,-1.4084206817788105,-1.3209219639016505,-1.2963343741859472,-0.2636459522931848,0.3034413415223956,-0.08314606724274735,0.320497647463144,0.06632246060503026,1.1548786573921126,0.2003758234766733,0.11553558775896024
0.035957190103654085,0.9648183819608419,0.023540876810617468,2.4668499902371397,0.5519868129406211,0.8993578241412273,-0.29044371249675605,0.6327482987145366,-1.7027707183803282,-1.0321566500392603,0.5740251974902406,-0.803343026825094,-2.440625850018538,0.7000116887720876,0.35658679245466346,0.11455937425932504,-0.18599741400984032,-0.25325155575223524,0.6995756913209655,0.059910797079098986,0.05739372047931282,0.3308904335746428,-2.0199870555499713,1.3235160468373612,1.7011729239069189,0.4268918463485215
0.6557361011668846,0.16104741814586207,-1.0406281574342526,-1.2712037352480456,0.31014060615922445,-0.29566908724587637,0.40035470937222173,0.779534380170444,-0.382392957903114,0.03328512420471461,-0.8700031651621318,0.1632372482389801,1.3779958926069773,-1.6330368237481143,-0.4406296906224404,-0.5403512255455684,0.22496219117053085,0.42405416513401295,-0.3814942631671577,0.6062359641068248,0.44225553162423337,0.08132030745876302,-0.34971455702740306,1.0019850143792104,0.9724599553806558,-0.06976722498438913
-0.9065988386009103,-1.293335828451782,-1.0085268262110896,-2.438341633242703,1.0737465870628031,-0.7128853735786032,0.9747709527854334,-0.25997179868024833,-1.0412436838372507,-1.3667517695426035,-1.065232851771747,0.9683515901900104,-0.4324736729126636,-0.17617456656634603,1.3986058502019936,-1.4674052505911732,-1.3088001291924642,-0.26162932248954174,0.2550857272219246,-2.619275898858686,1.4967859205536722,0.3413524520345344,0.4945929670000442,-0.6998565334820361,0.6250792686119538,-0.5770371660522132
-1.658952348385075,-0.7160068352364528,-0.764037204389617,0.35659080668292203,-0.9955689845589606,0.4530445486888377,0.5166985972188038,-0.32272738364893727,-0.306389506784412,-0.7452652188672291,-0.7804872272603975,0.35098799905111183,-0.8790523665521626,1.3331868847538737,0.13401892152458922,2.5779143943622596,1.590990083650628,0.7985115078655062,0.5668293150326666,-0.8511924061730028,-0.9093385653608278,1.3814555896095466,-0.3780218068769237,2.2151900988249165,0.046695577176067746,0.3206337180957017
-1.3164611672195314,-0.3065251439753036,-0.9191104655148545,-0.33723687227988686,0.39884963545859525,1.1058679465876078,0.7460728885050039,-1.2542934910159436,-2.355224558640435,1.1551752134457405,0.6476521712605363,-0.29339939242862023,0.1878252552010611,0.2599385170928511,-0.3758950816823267,1.583617956936904,0.05357801001359058,0.7387423031174022,0.04827422671290996,1.672427957376398,0.14671323786950363,-0.17040913733167373,-0.3009346007514209,1.1447203671244341,-0.5487864983625442,-1.1880027115854408
1.7878403966425909,0.2566440396426529,-0.44704299885660786,-1.2644643585570519,0.5676779830586239,1.105971205080319,-0.9786134040986627,-1.6139691738026105,-0.4457885189642555,-1.9549268998940215,0.6027794194935618,-0.8923277140309349,0.13459065291514613,0.261960865554161,0.5911300280054409,0.823834328025966,-1.1382445849923324,-0.30645186921794276,-0.4884959895590271,-2.1875270296678004,-1.078131873456399,-0.08387732803504042,-1.4476719614179188,-0.41424681828533116,-0.36880164377484137,-1.6808552709912703
-1.5180789402630923,-0.012664494185906074,-0.15414242947270046,0.11310429728333718,0.150589321330344,1.7515498994991545,-1.1920862299517099,0.25487901400582713,0.6063656061004761,0.8056459193841582,-0.025678253729236804,0.2701001910839451,0.8949908988852485,-1.230254783367021,0.7908593173014479,0.17648449332032623,0.9554809832136739,1.6016295463523045,1.3171694516224728,0.9275649685339652,0.07949769923837553,0.7172269339345347,1.5432769199345948,1.6057281437238706,2.2635327500010867,-1.6628333265111626
0.41169040955777647,-0.5533667154737935,-0.5052419564681528,-0.8636063354884896,-1.5478559940998806,-1.7820279662758394,-1.4208062241019563,-0.11840855214413538,0.38582151374623486,-1.1498322474182856,0.2798440137264997,-0.3985675405074504,0.6838020695340884,-0.8387887095341268,-0.46645052327766856,-0.823841618675053,0.46904061023263494,-0.7586726681049563,0.9173272239981154,-1.0748064194514035,-3.0832990532533575,-0.6493686747740605,-0.40282336466493135,-1.4152258361426342,-0.14496661315057238,-0.6226469057551569
-0.5540813943937856,-1.6284495883563574,0.8844589188859425,0.58716559159261,0.9933804581444191,-0.5349161557550378,1.6335182418392913,-0.04753705184041297,0.34771715906150125,-1.8510693650067183,-0.6524071391442685,0.43341601594715945,0.04767401939952332,-0.7454988182800225,-1.1347415406715222,1.6185563948806525,-0.24151495921628982,-1.081063157050182,0.6815675438212698,0.26455267124248605,-0.979925156888429,-0.03334666704729982,0.9883126999200009,1.1237102300818576,-1.4715781985431495,-0.7518373197784155
0.053018434056049016,-1.0095713165248799,-1.3686471641769744,0.16606087389323473,0.11479643985139719,-0.12847577599035467,0.8455480589261336,0.28381494512921246,0.9734629433167444,-0.3135177831670603,-0.5970379587518636,-1.3068044608865177,0.3302406277976715,-0.4946014594676759,-0.5960887238773972,1.7788582792455037,-0.6617645770562451,1.059327603249598,0.06396642402278523,0.9178414866912366,-0.6799526780281309,1.045609384343587,-1.079933109548316,0.14622723510772118,0.9618268229880699,1.184533643765057
-0.3903676043017329,-0.7071137728268739,-0.6313393063756252,0.1759666860116245,-2.0094239259723996,1.0001954652676337,0.8216509734407222,-0.0654388653727713,-1.1706939668819925,-0.5205362130982594,-0.10540452980756213,0.602242833217429,0.655539921028489,2.4139473497491464,0.01741297951307329,-0.9909851882873835,0.02136027856962846,-0.46873325273046706,0.6719050413981031,-0.8444550542300537,0.22161329766355847,0.754741354784904,0.17511136571687516,1.1548581769879696,1.1804772755570507,0.18141569698629598
-2.288026757318945,-1.4794716625209108,2.7469092664011714,1.4887011337282334,0.5673379431635326,-0.23213749760443925,-0.19576175708837046,-0.7672688258966271,-0.7806944011497765,1.2384166430254404,-1.3634813563203951,-0.20007099424067398,-2.0793060737768614,-0.7693454442919719,-0.6001197075138794,-0.18713418217501424,1.0411241629035752,1.2881074092026168,0.413886566410709,0.05053562828584402,-0.29373959917305686,-1.7080068468844285,0.01739033187080032,-0.10438525190231995,0.3952853059151326,-0.6653290332336609
-1.7458370422285117,0.8826339509484626,0.6143369582112053,-0.5904831112546978,0.5376291377589665,-2.176549675481759,-0.0073455571660496636,-1.6676450167157337,-0.6382324408813934,0.40337906772542304,-1.3079606555231316,0.11990906886018689,0.6626001369201225,-0.7774944186566509,-0.03410891329671155,-0.9724722108350676,-0.8209316251910174,-0.2255474430085949,-1.7667355611500037,-1.0300429942537892,0.45016114682171704,-0.01996526706039538,0.11572892998934026,1.0555449407951267,-0.3566394319483319,1.1844886600366837
-0.8396193918375924,0.19822501235111284,0.5958137174260242,-0.9180970181439766,-0.7383165063606186,-0.3961836832911983,0.7984773775971878,0.9050253894191689,0.2449035123880194,0.05188998553208187,-2.176684162144513,-0.5708693165295423,2.362791942618262,0.4380153444523566,-1.0658069752118433,-0.9893152654191574,-0.395687771298408,-0.8003962356993869,-0.26215435886725985,-0.13141506343562806,-0.7079837534253568,-0.48586399086488463,0.28812367217489865,-0.7479059986426524,0.8217726163757969,1.1760724695056366
-0.3086641145193065,-0.6026607901780991,1.9484014207515976,0.4924434316600098,-0.202839006609864,-1.7845409438776074,2.650879615070358,0.5517013617847383,-0.5856068442330798,-0.837984559831165,-0.4390332725211267,-2.6104202900364832,0.46068301237365794,0.2547641185620628,-0.7435354603998572,0.3209608816531377,-0.9137851204000473,-0.9797060877633632,1.018971542500774,-1.9667666760307216,0.21897151860940184,-1.5556385333261746,1.1404684495931128,0.46068120602625573,-1.4922939443465906,0.10374890314778644
-0.5186424960139098,-0.15369817089729412,-0.35011613137729264,-0.3355964404516593,1.0530988591122177,0.19525820242825162,-0.5963910699327517,-1.191029652261556,-0.38014804860498846,-1.31275672064593,-1.2270700455404062,1.0629152648723434,-1.4268179664530383,-0.7881017602132705,-0.6114167949949587,-0.7590584843228774,-0.4258546206103527,0.6412428028982936,1.1247590812833959,-0.7736090724688595,-1.7909874453614565,0.36761987724466594,-0.8346476121546992,1.3089489764559619,-1.2754838045794434,0.05290049578107827
1.1955594721800247,1.45361499613293,1.2504805982189193,0.2052381156917884,-1.0333212385531723,0.8876927992074122,1.7148076142793731,0.7636344255989113,-0.4901180514328717,-0.13187342373654382,0.08103540313637445,-0.6091170489275908,-1.8670730658863286,0.635370090227771,-1.7813199438582072,-1.4222600005606272,1.0244758663811755,0.15124916066279073,-1.5994956318225564,-0.18132657891969448,-1.4300414203588876,1.3943325104995399,1.4282438511084445,1.5839429388185218,-1.0060998263874192,1.0603027189012475
0.8133815120168651,2.2596792027950627,1.9733823511156785,-1.665545967651335,-0.17484243668294694,0.007164442033105385,-1.1250700010010983,-0.17926199331858284,-0.5777221994794531,-0.7660532799062334,1.6368939180336441,-0.6307113223393038,-1.2735007694282632,1.7423980434151642,-1.473627127669442,1.3494149001397708,-0.3594092970008447,-1.1228889060206142,1.0538399103617988,0.719947693874155,-0.7359306908011729,0.559108180791556,-0.34216364120651577,-0.8900935467354456,-0.2248399442237023,1.192757459485234
0.07169927842925646,-0.4506436409432706,0.1879286504202236,-1.219320397599212,-0.0928806961747893,1.792584638918649,-0.2366091331649845,-1.3010938667837069,2.398265102392822,-0.4701681875063719,0.9641271936743075,-0.8510454298250933,0.43229344696075106,-1.8108433100983587,-1.649047678209713,0.549100564144128,2.374141946365997,0.15731772099034497,0.9220715476663467,1.9168407340111417,-1.6700494242809796,-0.25139052503631987,-0.0073853811390472614,-0.5565220792126495,-0.06984217125827914,-0.6318673035244878
0.5888496885430416,-0.523931519547313,1.6703624130914299,-0.41408859057842684,1.2310116213072455,-0.3355736245079053,0.17426970197250533,0.13950836580522732,-1.7167030182773402,0.35338243548898884,1.241927896323391,0.6277559119358477,1.112066767407628,-0.9769647778368915,0.27576857344702166,-0.2577638176172037,1.2957757512972494,-1.0526310411795186,1.6887306351612168,1.454373222739897,-0.7691512251472928,1.1348442301029502,-0.2082592467989862,-0.40437219775115724,-0.3933968936216026,-0.4339663070071499
0.41142079220547456,-0.7173056962097131,0.9228790288083855,-0.3523308608884808,1.7482429100824577,-1.6664037743639657,-0.6496318324487435,0.794149074870984,0.7430844201790615,-0.14965710899227924,0.6318390224485,-0.23559977122209252,-1.3136844325245698,0.009105643811910263,0.46562558016586303,0.010675031863743056,-1.0270974514276343,1.156500503028303,1.0542698355843227,0.2621636280699048,0.687931519403841,-0.9811906432839435,0.7456497425484004,-0.6392972506865241,-0.5880772669524484,-0.580423613860389
0.23661906739755306,-0.7600897149113611,0.6095131015341566,-0.5136490143860134,0.7607257542949524,-1.3662588468073802,-0.6135759803383417,0.5691511271175417,0.15516591235000626,-0.011051261657201912,0.4944988783338248,0.6215929497089564,-1.1459847152020153,-1.6905061057902118,-1.0539470974263665,0.8620031866608129,-1.2107165329552676,0.10103915021494202,0.260754891212864,1.535849186181576,1.3611792576284134,0.8804042707803359,-2.434254531614085,-0.15577333383786626,0.7216375631336394,-0.613215357401262
-2.1881836403399,0.4316465969656885,-0.11552135129884085,-1.0318831426317272,-0.9200650833156334,-1.238365448045212,-0.32216475470327594,1.3258301259721872,0.1028368315542287,0.567077219843733,2.8602747279637604,-1.871044366937355,-0.45456526121662233,0.07157727176984484,-0.31690001193029366,1.273281580439029,-0.49530242960472365,1.4344552105559585,-0.7044710830859163,-0.6159197944184868,1.1890618556959303,0.8294902000515652,0.0637624763240654,-0.1565239463890613,-0.6934468973855716,0.31274742902555214
1.4174431173976825,-0.9400914889113756,0.5442450986961818,0.3302413682103909,0.5906322210451678,-3.151120073646971,0.13676896711958636,1.3869568448699634,-3.0638408942876993,-0.09434129305426632,-1.101635002024791,-1.2112669798731623,-2.524271677860447,-1.3979778702309742,-0.693302772795017,0.43463027803151116,1.0458036967612474,-0.713772759410792,0.647712625901958,1.5635728830387718,-0.41473777101412335,-0.44168396276526045,-0.3572278329528108,1.8449434325639729,-0.39784400109971063,2.575878917719075
0.3989304667176402,-0.633345969933279,1.686292843849805,0.08328583826612336,0.27910262197905533,-0.31920670888511166,-0.20706803115402583,1.3560608798586948,1.733273382249558,-1.0623289624582841,-0.2921217474585706,-0.08075747094520433,-1.1699919444420597,-0.7436125875444575,0.5460634277585362,1.852797427906168,1.7846597419610022,-2.2793371367961925,0.17177958901264026,0.6108254352715952,0.2645147124737445,1.3728084165288308,0.9023263826409869,0.9006933353438501,-0.9380432731039149,0.5061962194051189
0.6347270179893032,0.15415820731930693,0.6325712926516769,-0.5199262635775456,-0.8155173078086383,-0.6973897141130532,-0.011481252994439702,0.20463327326112163,0.3560926465054188,-0.5808464998096875,-0.14634841061904028,-0.5961325232625976,1.31497915846488,0.08059191213077645,0.5091359607109827,0.12881005969531734,-0.2956810894003919,0.9628956405685928,0.23449674218175998,-0.14307767028502885,0.637402785062553,1.1076089071979798,-1.6926358789408373,-0.21391125599131872,0.0646708470720733,-0.13331853836682767
-0.4479139504271996,0.8617814754121452,-1.3213265039801387,-0.05221607292171715,-2.180943356942357,1.5314362962355308,-1.0686894880920517,-0.8393275127754499,1.3588470154269237,1.9442544472971341,-0.7809000375208965,0.6111281614722076,0.22442342630479978,0.22407823398238666,-0.7936043611008223,-0.500936675411497,-0.34399789878407927,0.8908324582807932,1.1905734850710503,0.2350630062477889,-1.6113628067083117,-0.2366988072719405,0.5746331534285772,-0.6991968009734993,-0.5212647087775415,-0.46917678766143883
0.5343751160900051,-0.06650387978493948,0.6893270879752055,-0.32410118546031635,1.9778508851302203,0.2595333873364061,0.8055469416629176,-1.6402761628059948,0.8467205523870259,-2.7220911607872385,0.03810169054101114,-0.29131404402657324,2.0293573126652644,0.8345191688408915,0.5934847015381841,-0.80210765908164,-1.7812434829872785,0.8086144203558939,0.18052595630233725,0.14797941351277732,0.5822392594912127,-0.6254795645262736,-0.048899807647750225,-0.1130322296371993,0.5276930390287937,0.5232154009954638
-1.6414875739253378,1.0735086370646207,-0.7346929548174871,-1.664372974608353,-1.7359231106553887,1.1242965159564848,0.8206148210827198,2.4217508256845077,0.6574358356199973,0.008029287242166352,1.0646598022192104,-0.22221236133912944,-1.2477054996624029,0.12403466117574717,-0.40613259383415945,0.02514313961051774,0.10481083521329299,-1.4020980256023723,1.906511988264109,-0.9799503022549941,1.3657761893330773,-0.033453074241913835,-0.6312982825377941,2.9081146648953418,-0.5081941391919698,-1.176895631188654
-1.6387560768820766,-0.2796906882589351,0.370440991130817,-0.36273929667707877,-0.13939940317351665,0.7076819122562076,0.8069936719160149,0.10468963693515544,-1.2866437365297378,-2.190348220047944,0.7259224633061259,-1.281952394582361,-0.8241480255153185,-1.2796088408410238,0.7139124976537631,-0.2179689058271518,1.8769023548346222,-1.1393830329432704,1.4119012108255697,1.2314214157663819,-0.5384280513593375,-0.19636517353294447,-1.1651842471710465,0.30490707137941536,-1.1404812858077733,-0.35487502720780395
0.6314876046217112,-0.003944176557558099,0.23478053400699875,-1.5879548389501204,0.10083408535895973,0.5429901463229894,-2.2711342560218735,0.5128352668524476,0.22166977244466327,0.06992439509085781,0.4120189434179103,0.3483798314651976,1.3100923104960542,-0.47770185844170776,1.8965775313850688,0.9802246788314217,-0.8186834496576311,-0.15766950637412758,-0.22588332539864592,0.9955745346914168,0.8660316598831391,1.7122603732532717,0.10067887806704225,0.7333581591025348,1.1987420170205907,-0.7353842463587665
0.09303866254556789,-0.6955170745656157,-0.42085151743720556,-1.0608330493883051,-0.4650734141263853,-0.006590670886465987,-0.29108893667577046,0.014101951048394503,0.3558661412296396,-0.8783513121342362,0.8221264976715666,-3.0525322554845933,0.19202925499049078,0.5032615933681882,-1.3867301829502379,-0.817719671259509,0.344720471519111,-0.2182828101992449,-0.12759024927284635,-0.9589821244607717,0.7878637196082079,-0.1048024068925019,0.6268120008636846,2.12645942344535,0.29830715283189846,0.7764287254074846
0.20674802507469658,-0.05966941823282798,-1.4768216545091672,-1.8241882305382966,-0.14469949904933568,-1.6092503955822042,-0.6351577855921328,0.18946763587620707,1.5467124689037124,-0.12626505571980648,-0.004379508745787882,-1.1265938789140513,0.8719222312704918,0.4940537855105698,-2.1909474880849364,-1.0186320861366585,-1.9129325405324684,-1.0200931806115734,0.9302542896405624,0.02432419109439125,-0.028895336383398203,-0.5223855148696224,-0.9973328406981102,-0.26586896561443857,0.12266617601880192,0.10840537126110243
1.5492436620890375,-0.20012940881370617,0.02279481519851005,-2.0930192882282674,-0.793904443795614,1.2670382171447203,0.6928317415214814,-0.5458569433984556,1.1197534255155261,-1.5892319562663564,-0.24235563116987352,0.35924376459783686,-0.030673226291213766,-0.22416478275301868,-2.2103351152881587,-1.1110209138137155,0.6007628354294599,0.7149862589858905,1.0383071123395764,0.821651359996433,0.12022993703318376,1.8124377248773353,-0.5396978578261035,0.9737503783830421,-1.1109298979961455,0.7352154799585192
-1.825439763670031,1.1471894709912474,1.1786107089874482,-0.8363983000084556,-0.3745039994352605,1.1231604843552687,1.6868377512047148,0.2564063758608551,-1.6199983903942299,-0.8877804822089594,-0.26927017111456153,-0.43739785340407317,1.8761697406701932,-0.663824346957676,1.0779770932633665,-0.3096311657817864,-0.5376816227707556,0.5622974065276155,-1.145951008286544,1.3927024748493393,0.8106452170900522,-0.24949150758392624,0.14292749175395095,-0.2708696152583845,0.2790545293736683,-0.014125724366274243
1.783058464141839,0.711485677285272,0.1802373703994026,0.6357531801000785,-0.4823764220180167,-0.6195373498281105,-1.1471817358866365,-2.0364496849952083,0.874323899961192,1.3314074577830666,0.03346361298337404,-0.3758935319878051,-0.7386083005950822,0.34935728595652593,-0.9198030512847531,1.80129631269659,-1.4049082439086231,0.6756451756431725,-0.17230229386811222,-0.7040571129391592,-0.7184115209903216,-1.477442037626267,0.168718218605485,-0.0004830276160379886,0.08519560691053525,2.098604670025614
0.7117742416165453,-1.2648910852009858,-1.5689503140113596,-0.3238583046522158,0.540067346671222,-0.6471105046528225,-0.6503422097002496,0.4195214919960905,0.34604773065222333,1.571643581809497,-0.4890503882378934,-0.7910120500098209,1.1780804446991981,0.583326460921899,-0.08458227923219272,0.6309034823863179,0.7035440158790347,-1.0445981696945725,0.29370527301557703,0.3855538077739615,-0.5921754491467379,-0.9783055619940085,-2.3574311128592265,-0.7167007449306467,0.678429222506423,-0.7522435387248841
0.2403618517499442,-0.08661317665126173,-0.13247519599831045,0.120375934618785,-0.06590575766798507,-0.09651313230389916,-0.4731987751048928,0.5671846543524605,0.1936504556407205,-0.7191149219502893,0.08210706967934235,-0.5545825364243752,0.536699245851159,0.16827283732671347,1.675659226805748,0.9357211385536982,0.09339413057023119,-0.6469532419580051,1.0303238319531347,-0.6402855731649916,1.021919426161796,-1.4608852046342051,-0.687153101960186,-0.6554247328176651,-2.368642496058503,-0.7597405233590091
-1.0302230215893495,1.242665812064197,0.6001737164089663,-0.37449222035430396,-0.2592534786482536,1.5792529989770117,-0.07118450252813725,-0.6399154675711709,0.8648989400317241,2.352081510989492,-1.2744947952712729,-0.9539628645752605,0.2575007693218474,-1.4072058057040324,-1.4459524517234037,-0.10959244420834546,1.096331031075873,-0.9534182787120914,-0.6855587513496855,1.57142043036163,-1.484040339260726,-0.9548035737837637,-0.8813291612213521,-1.4051770744617431,1.0193010000527392,-0.25392834277684606
-0.44881625855157575,0.12595206031389658,-1.0233529198375915,1.22584191183278,-0.6297606211466117,-0.20479747921455954,1.721722737737715,1.6687282785325646,-0.782614945407853,-0.839966611722828,0.18137656777057923,-1.1860137020257826,1.2579652748632417,1.019204415320818,0.36907285738444523,1.27119803054491,2.2035615454662962,0.11725041056740998,-0.08933259811625532,-1.2423834236497215,1.3271631901262697,0.13663053161768582,2.541690902979652,-0.8838049438443007,-2.6497339931984065,-1.7240043472192488
-0.5849448646573191,-0.3402865112319857,-0.5987684561442409,-2.2713398369060025,0.710853247732234,-1.5080498829986486,1.3440498479566096,-1.1689290664051595,-0.2977949593936568,-1.3976000906090007,0.1720960278745437,0.7968724060697966,1.117025934489687,0.09168219862442281,-0.10119283135612867,-0.33189637622674145,0.32376489167018835,0.6000629767909873,1.859892158349077,1.4413708021366618,-0.3779942335159446,1.0376736222779899,-0.6051364132651584,1.1154190009128644,-1.1699965257713103,0.42449353191810024
0.09702493444387915,1.1501595754387455,-1.6991247925590465,-2.473620281311744,1.0995176959027728,-1.0848184763129038,-1.2338860828201759,-0.3213928565131097,0.808444623280153,0.2572359070684006,-0.6649816592928792,0.17840666886616233,0.938844474794741,-0.26710566819774895,-0.3512106354248258,0.6665205239595923,-0.7624746805576013,0.8611263086718559,2.123609902710563,2.4308461751149957,0.6491577431502188,1.1041761696894816,0.253349507414209,1.4216725877685568,-1.3953260790818842,-1.306109214359987
0.2279851507135788,1.2506977272973638,-1.3487086554453178,0.25599170108212793,1.1966518423145551,1.6738957155596719,-1.9563676858419452,1.0751703378815747,-0.067945677542815,0.8155131010045507,-0.7804872354051952,-0.38669431734435555,0.6274314038315546,0.5654539611179362,0.7070375409494868,-0.5382811410974759,-0.6675948939673221,-0.37478538529965594,0.2632629504341632,-0.8858278503993848,0.5107099151379354,-0.968733936866347,1.7805538703765627,1.4093049923691943,-0.27971017012456845,-0.07973104247970875
0.6877798180060928,-0.3246071025178156,0.004216173679773563,-0.3395904208617136,-0.5222930619535271,-0.19784997426191717,0.5965839478462367,1.1216662188446835,0.822980449996441,1.3493852484055215,0.04623784667892181,-1.0776366515218112,1.8533611408657313,-0.4146039700501941,0.6428199437603654,-0.5179039473030755,-0.14057694129918089,0.6497221052563971,1.0114536965142464,0.24467290359761362,-1.194540271822635,-1.23008884031556,1.0135921480714818,-1.6985003557466694,-1.9156603795835192,-2.2548400627839635
0.264375154242806,1.0541269732128897,1.7133629374807418,-1.016013607321567,0.16676157057815438,-0.7821564152394633,-1.406511282876942,0.15169212354469044,-0.12481429579651873,-1.8679417331779848,0.08165993684247047,1.9899151478301211,-1.2122139460227082,-0.9287050912305362,0.220098727117272,-0.22763602643345146,0.11114380384643797,0.020485309389681357,3.0663248449509086,-0.23718474064792208,0.32090982820950376,0.6561027015091486,0.12307550342906537,-2.4563309425732807,-0.013114010517371698,-1.116429978519381
0.6921742281026316,0.8276914614975003,-0.7001002563721769,-1.2705556002968759,1.050520632040619,-0.3496829766325326,-1.9675412094128093,0.8022745708439601,0.24675778743088747,-0.11017237456767344,1.928424624045133,0.5814536671605376,-0.5059470850618621,-0.7535805742352695,-0.556646996338599,0.5397278319174411,-0.037511015589748974,-1.145912575217659,1.5338451570471796,0.4545030060298197,-1.5305499850922653,-1.1024406731306438,-0.9598683058993344,0.006147381233852621,-0.09110221351817273,1.0482398833458089
-0.5450088192829874,0.6436771363289405,0.9302773040944017,2.7043262868895366,-1.3146182568135703,0.46599813191244394,2.036301094270533,0.07426799397595311,0.991756891319308,-0.7436012105245283,1.935046529808039,-1.4537442784126087,0.7788296536965357,-1.7169818478718464,-0.2830504184525914,-0.5535672347930495,0.1664514026244187,-0.09834729079899455,-0.4805935682180567,1.472388554334062,0.5191422493841327,0.4223836886307913,0.1054828845432485,-0.1461732633136205,0.75788809628865,1.0812955029861366
0.5994840178702442,-0.7882394909355372,1.368680212597224,-1.277883468737217,0.9350939399360556,0.7772892910789441,1.6514515959145133,1.3779045219763009,1.6806773209307853,-1.3996386666152925,0.8734299751386616,-0.9075028087811514,-0.4666317189522643,-1.129305802188686,-1.4106853691093897,-1.463432045405166,-1.158929355759688,0.6599068558351588,0.17039708179046315,1.5471862837272157,0.6948378207592348,-2.2391063414651042,-0.8561875504886131,0.7815531173187644,-0.8832038526618327,1.5906055926965141
0.12166648069111768,-0.5747830311333464,-1.282677667730555,0.7119303065164647,0.10264600549337419,-0.3982329645729365,-0.4286301887198334,0.7106622516864786,-0.5414091666891937,1.3117662108606927,-1.9153933525347546,0.11561073197001483,1.4253424943415185,-0.7899762315362172,0.43767387767923605,1.1287533838226784,0.603361834376801,-0.6678881413370383,1.361599325435799,-0.805996986671396,0.4406190005017727,0.2390386028105329,1.3670379390946448,0.3085851207926799,0.7436105046409057,0.34415009488745496
1.9224533615289505,0.2710109463041831,-0.5920253805909582,-0.025042709825890394,-0.15750393669972257,0.8855003825537104,0.09197035217682464,-0.6648162211405899,0.9188943485155602,-2.1867974522748814,-0.5684309267421706,0.5880177191139867,1.0287916913519597,0.7674446318400803,1.2667648143608852,-0.673196705617585,-0.930662303595632,1.8252628359540177,1.6328453262980185,0.1679275177667446,-1.4121343544604148,0.8347258519155117,-0.9071635292978909,-0.9368637689507388,-0.5379092128543054,1.5751948348840041
-0.025320633925097234,1.7925700879800144,2.13190915859724,-0.561327962757843,0.3634372890661992,0.0651827853781729,0.13639015885313133,-0.135692896806937,0.8258543306500505,-1.681676340537583,-0.05784745766099503,-0.6022091408135876,0.14678627922125553,1.3324944186401717,1.0594765115145937,1.914266865895566,0.3486843474144887,-1.5894464886361115,-1.0695877832586458,-0.585985212487444,-0.23214618619377028,0.5459280045226124,1.3584982174523046,0.08753604916426334,-0.6170540832835288,0.820974924546884
0.3915394293969787,-0.7532264891798882,0.9702383829727421,-0.005472406040685538,1.1939861362634925,0.2549600756458962,0.823624525017528,0.07482110088344009,-0.8026326559613229,-0.4434787270851225,-1.7397424429690698,-0.711234209590216,-2.1222521012556386,-0.5606761370749945,-0.19919342516267546,-1.0680063748610242,-0.14074210631736667,0.4912909078788396,0.9287400417916855,-2.200922636689729,-0.9790158194378573,1.066778964033235,-1.6397982931802373,-1.2751706052567429,-0.5114788989221379,-0.500044339961486
0.8905423849133512,1.0739587389849217,0.3320906598146202,-2.078676837580978,-0.0877033721549767,0.38224866179392586,1.6111893302975993,-0.19215265091217057,-0.3396719580158098,-0.10581448457173044,1.1889438105236805,-1.3515467920033195,-0.08525909746860115,-1.7258059871856464,-1.5318389052849684,-0.6174134441574678,-1.0678405284509886,-0.7919360610347075,1.2816495600527196,1.3472831616260845,-2.1223545162552138,-0.8905868934754092,-2.603665467497202,0.06590371779946981,-0.37556867990648496,-0.569712214938512
0.7541557747781621,1.0832744393405762,1.7900985021547382,1.4907007197325162,-0.7025243994178653,-0.14607416426707026,1.0448908333587772,0.4934817192156079,-1.1391216392491053,2.2384638773273116,-1.3086937785112365,-0.9029494178059783,-0.8012887296990981,1.539359753494824,-1.5241175991576945,0.5450381270896552,-0.0797089429074636,0.28953681747266846,-0.1424276902905682,0.39444433129384665,-0.9665092684318992,-1.3324369733062904,-0.3935942268841116,0.28445628105944565,0.6848861748572727,0.46410035135773037
1.1796775193067863,1.2127045268118688,-0.9494247430718875,-2.1098303201206696,1.0367840067110772,-1.5908376279905874,0.479356047153224,-1.7628627043794713,-1.1086191651869488,-0.6635767726768023,2.0490228718626087,1.510724989383321,0.567952711409059,0.36477256970174754,-0.7147362567471321,1.1082313770444245,2.3080191488904833,1.217325206998805,0.16623133757608255,1.9727755950539694,0.032375169661219574,0.8057931309847809,-0.459658060502204,-0.43884888565178154,-0.9225018497900725,-0.044741606751124194
1.161336486810498,-0.34820461398359054,-0.31883869739210685,-3.362779233437898,-0.10443490663099858,-0.15674310483151557,1.5084905527127812,-0.44346361622780406,-0.6528058115206417,0.07122920486802646,0.518121710512446,-0.47884901660785234,0.8505027388749534,-0.5714975912250252,-0.38844892741745685,-0.8034619004628155,-1.279436497780288,0.136329930794131,2.2580544718094235,0.9668230155697807,-1.0351541701449498,-1.7389628310308183,-0.007387378873175769,-1.125238694283579,0.4936340187985973,-0.5455033015575383
0.34356664614770127,2.220379928004816,0.580314367841661,2.169325441588031,-1.3165805713821483,1.2198004767803126,-0.7311098893467987,-0.033482066727012275,0.32599296103832626,0.08325049636718697,-0.4116072906145415,-0.32304236837606376,0.39825290298037574,1.767408602592318,-1.0145844443219603,1.8578036710610601,-1.5980353137039496,1.8837281867675701,1.9636334495906294,0.7674626510589027,1.675217846171645,1.7747227382259498,0.5395815604962368,-0.09946523543058812,0.2405730952684415,0.5073460609353001
0.5369768321477733,-0.8840717225439801,-0.23507824898076948,0.17704965026408506,-2.3179094840154173,-1.2693670464909612,0.5023709514895696,-0.48741132445569857,-0.15192865612307954,-2.010925016435404,0.8624894515391159,-1.1693820536477795,-0.8371912827673278,-0.16909901356166224,0.17669960212149344,0.297269906523145,-0.2586539186915294,-0.4364433033522522,0.48884274997042104,0.3312792863035417,-0.5634820689275849,0.14260106574504045,-0.3587019006371682,-1.236817730135185,0.41330543899394473,-0.11562863096628676
-0.8492502323736236,-0.35252256459853293,1.1199098225280701,-0.41198730195795497,-0.6760474120573416,0.422278317915685,1.075575365461566,-0.6042707983248301,-0.6030320928749953,1.1227365407579413,1.1971913294804502,-0.2775817867686917,1.1122355518752423,-0.2973328133362178,0.8815012019541978,-1.4829795901727834,-0.3955217141114985,0.3376068319715344,0.2609112983654902,1.8679141287283771,0.6399295835599845,-1.7050128113050915,0.15250968593925204,-1.8835032659287712,1.1044882814090784,-1.0660326744862265
1.3408373513862513,0.5534878084624861,-1.7020561385953572,1.3399072467381337,-0.5256804441814441,1.7028178910502425,-0.4849455114534059,-0.50896019241169,-0.9806561322801108,-0.374769921101687,0.8791715679406773,-2.703140624656477,1.2514346730294297,0.886848939118967,-1.7266299614017286,0.4144342989897198,1.515099609947506,-0.6519061775929716,2.2691514479876322,0.5340613056744004,0.32423199563280614,0.30242507412950337,0.4345225814333382,1.3959555648842794,1.1920545321065417,-0.48603217735260174
0.15115615431951643,-0.5041643876019325,0.27736606320363427,-1.725031615782585,0.2675431416677666,0.07108684103954976,-0.25921761308550145,2.4102117832509427,0.606984291399634,-0.4763831504457557,0.07975615049981481,1.1816111715034672,1.3793002366561087,0.9854857693549891,-0.017671977573405988,2.7992350738859795,-0.22092723289375957,-0.11805839196758383,0.6762591901278403,-0.018887568431922873,0.727874860217468,0.9229889453149799,-0.4676006959606632,1.4147237189165596,-1.0046681498648438,-0.5047220348878982
-0.4074159258394591,-2.588545282460702,2.3333300988006935,0.23808708537406562,-1.2848495654992649,-0.318393546487336,-2.1634986982506312,-2.0534421036698216,-0.3741809612399112,0.16293042817204353,-0.2252366916381067,0.7236521780827807,-0.785008793954642,-0.13820600147294493,0.8710402467873835,-0.16918283915030718,0.221795140914244,-0.17891990368097938,1.2917902683921878,-1.4284516424906368,-0.6146818379305873,0.5398720416365581,-0.7225708443917117,-1.424722349583692,-1.183638061932994,-0.1667515328209082
-0.31607311918124925,-0.5159136912360687,1.4913507450531973,0.10247429166778392,-2.1674010010256857,-0.18625309729393416,-0.6480138646664125,1.938707514994023,-0.9708119743216387,-0.3531088689545458,0.6141202551458349,-0.22893158560078664,-0.9342804675740505,1.2529763783917744,0.8912546414186554,-0.059973987628765456,-0.7348361799283841,-0.863528056040559,-0.21097702463539436,1.9093235693068482,-0.8614125234970492,0.7608210404085601,-0.15680639388066678,-0.001023770048760937,1.1797621000001817,-0.24796640946754533
0.6517448754274247,1.3946279835071134,-1.4263571693056294,-0.6569052342454755,0.6467237655728229,0.15699425804017758,1.9828476025397372,-1.796599971414357,0.22954936448877067,-0.8822704747366176,0.1720819756867367,0.6511108337717072,0.36966815114331636,-0.36161276988687163,-0.8411763098717728,0.36685279100320195,0.6621389123427325,-1.494028541076672,1.5688157688954494,0.3349928643488455,-0.8537732534151966,0.9943162525413585,0.23900588886651292,0.47637210453385936,0.1510174258521597,-0.3973912674467963
0.21745678718901715,-0.4440191320195624,0.37553491411820517,-0.5826933808203907,1.046194183926723,0.7508787750984136,-1.2040891829693632,0.3589103086287759,0.46580774298779287,-0.23092042069064583,0.16073563968666726,-0.9229819629457235,-0.29814875033484844,-1.1053464633751666,0.41866526718322983,-0.8753550986936616,-1.345732753986194,-0.43500743835634276,1.485622830349526,-0.49545661196575264,-0.6520068603019318,-0.502077803215773,-0.14188413808209405,1.1969166746894624,-0.1312818969320358,-0.8022565633566984
1.211906615449897,-1.5086741596285291,0.5744773201251034,-1.6374677300869147,1.9205247037379456,1.969571774752405,-0.6336058977770352,0.8044693622786713,0.16995904421317182,-1.3929006912475868,1.6339231424504488,-1.3320562563540475,1.6004889028021783,1.0658706620875495,-0.4838032114852466,0.5010010595343242,-0.18156442256678648,-1.3088389799653846,-1.3474834630030392,1.185148910858241,-0.9677110431046458,0.3666943663925883,1.440281588111076,2.378953536443161,-0.15199247304492824,-1.7815209265611531
0.83143069286221,1.5129549666713626,-0.14606209517231258,0.9002754298096494,1.403179120283382,-1.331044860777444,-0.9531576469787654,-0.10998649774008389,0.09739978067129425,-1.6314880839541517,0.11856018474894807,0.9420697314895867,-1.5923771977438301,-0.8778814206881674,-0.9983432573880057,-0.5601658421903823,-0.6722888330461051,0.6690318184339605,-0.0314072762296436,-0.8510233234587877,-0.08886081188724176,0.2997841130768123,-1.6317986062873493,-0.4668983028360617,-1.6453960922853774,-0.5166814874073116
-0.958172113839241,-0.2934430591950385,-1.1353279832138987,-0.6096569325423156,-0.28532810964576616,-1.7761771392007597,0.4737788317546673,-0.3821217416685616,0.19985859685915083,-0.9401217944921237,-0.08906017076808613,0.9821026301860124,2.3912674950620842,0.20851919083115344,1.648926981934536,-0.6802715847593915,1.30236159600535,0.5485745521738246,0.41572430039909225,-0.12755596210649472,-1.3268142511225212,0.2235522011642025,-0.6065140682653496,-0.9460406302053083,-1.7681509797972452,0.020531826861077365
0.2176210323694478,-0.7721452570844441,0.09283033408113586,-0.3084797803795361,1.6673927740196035,0.7456233590931739,1.8979719478230426,0.10718719515454596,-0.6860570157314484,0.42498295702259437,-0.9337721161202086,1.1987672417965858,-1.1643496954768704,-0.2527016940091271,0.45541541671617436,-0.04284576423983416,0.7729529671511473,-0.01084351227719193,0.8267872292407452,0.608545915882744,0.19352631718456714,1.338545743571395,0.89786766579419,-1.1467475898568287,-0.5030376042429164,1.499662076878541
-0.23574463508061014,0.5009087960337447,-0.22607818472128896,-0.519395618393046,1.1391313881977876,-0.1370288250915183,0.03817321283647636,1.610626488742356,0.3800797972356611,-0.5325431107716353,1.3113417909758236,1.0532171009675206,0.2872519003577923,0.008937354252732798,-0.649490946468604,-1.2909348850420703,0.8370733055590155,-0.6085315233441956,-0.10925891366772829,0.1304449263809701,-0.425514975170643,1.0280061138931262,0.6658534263040946,1.2768720749486033,1.999102309517839,-1.8336335010798157
-0.5492715801554507,-1.3845982646146073,0.007331604111228031,0.07597540539187621,-0.11757604431430166,-1.2411814345479502,0.5198216193890324,1.0645073734456365,-0.1605012171972039,-0.3547268592558209,-1.0053989240800276,-0.09538704699831757,-1.1154760457063804,-1.7646019716909276,0.015311644419937077,1.089532006007903,-1.5959803949100997,-0.39353615105204404,-0.3593751053858386,0.4999046431413574,0.4920022547528677,-0.09947691405652902,-0.42183863716020203,-0.3530524008157277,0.3913242866317305,-0.3836335594386868
-0.22979961792405448,1.3015946698740455,-0.362731973706089,0.1499326441534646,-1.8081346022255405,0.9104003785141757,-0.555621134325981,0.11945202299466372,-0.5267026451757423,1.3105190595087801,-1.4684579500161377,0.4637081095213595,0.45178398087379806,-0.1138003437809326,-0.21238212925770916,0.7348581934069515,0.984948237642222,0.35087375043305397,0.37813700445601794,0.6704392480021253,0.9179407057397727,0.6083325160562263,-0.1964114337826866,-0.6095335833313824,0.2786958345838888,0.36023867945556776
1.0118169885422803,-1.311090959075115,0.5662596241608489,-1.8302975640377683,0.6090640857270249,0.595968940450426,0.35599993516677436,-0.25245740383669574,1.9513792551432056,2.0525845602713977,-1.3029542813459698,-0.10113640890588674,0.6477169168755451,0.36124298627863505,-0.4934533865391315,0.4178909983327252,-0.5295120088193913,-1.2170807258092224,0.9075535695867867,0.5961816523874585,-1.1236013939172556,-0.495026889669873,0.09911481432220941,0.5656402659154769,0.873893752365649,-1.798691361148193
-0.7051899605587427,1.3142666816237838,0.6096971782365702,-1.1008681959706628,-0.8878188759145088,0.4163509900730204,1.044246240814797,-0.38933493703769373,1.432056043217099,-2.0109620990673958,-1.3533058198536627,1.0928419830139773,-0.2206671235392313,-0.29918479417063487,-0.19152683668954953,0.9778171229683035,1.2609316637985288,1.0182145993840392,1.8302147645260267,-0.8865706162111746,-2.659716407053666,-0.3609535005082334,-1.7561359591140386,-1.305244726802096,-0.28977663907699447,-0.614104803981734
-0.35144869623410957,0.700203151510398,0.2268047327324184,0.8513237996565418,1.0232130836220323,-0.035651172655511175,0.037477578969911406,1.652567787631495,-0.38393894167119624,-1.3270636208155178,1.3989326232887809,-0.9005016363035656,1.5046532433047852,0.07256967646910631,-1.219455263356486,-0.2567042489199876,2.5069876960645936,0.28536896713494714,0.7456049495381637,1.5444127970324049,-1.4518441775905047,0.4625962700878427,-1.1932927114959897,0.9355961981171576,0.6994016744293035,0.4437767769406869
1.035569600810226,1.5311492149631187,1.0929240647967828,-0.4096604106980548,-0.9291207643211893,-1.2364943028502797,-2.412588358917432,0.8959915779415148,1.724736285158845,1.086757736198821,0.3123410489772805,0.0831130021064131,-0.26555168507689864,-1.3605928909474165,0.5400440391075216,-0.727763681319931,1.1823851616067207,1.435838358110599,0.19812486204045962,0.24379862621503692,-1.0615707534880716,2.1133854972978328,0.011896400744349568,0.16775773255774473,-2.2668110611186343,1.118434547574669
-0.06017701538446982,0.4161478672480968,-0.5437281366885338,-0.5935898440727975,-0.6052528835985982,-1.6674016318882436,-0.125667409067772,1.5424698221323982,0.9614806396806056,0.01038416773044323,-1.0287275093715738,0.40018690722347117,-0.16520374168786775,-1.3183862370752046,-0.6024857392728797,0.0801488939784525,0.13714542623113282,-1.0357989076874208,0.3509250412620373,-0.07707419877345963,-1.0074048886053788,1.6901495560942599,1.0470127396853,0.8084124727472901,-0.11759639322953779,0.09309845935379692
-0.5613323394137935,-0.7226503339514772,0.9148297890798658,-1.7421749651722411,-0.5177014958600713,1.4125545403720852,0.4536990874437861,0.5067155198067886,1.6758775807724975,-0.6010018575222698,-1.0769266687348162,-1.1383491530569012,-0.03616720835016214,-0.6499378575283766,-3.3155914185696758,0.8423914387309989,-0.6302932965965581,-1.047992487689978,-0.35967646793111063,0.08785492299555588,-0.26869676252923347,-2.2814668989087057,0.5078409693235246,0.37736929901932176,-0.08550074573383587,-1.5586003866495488
1.1395380936161266,0.32350969197313106,-0.5789181951321709,-0.028517348258332142,-0.793848333467743,-0.14936219429426872,-0.3070436581318935,0.9265549558370342,-0.7313396511565873,-1.0737763753715301,-0.6341427945888325,0.27475393904467893,-0.8863565647871383,0.09346780659527153,-0.6966566035473986,-1.0136609613566827,-1.085833282484925,0.9509216834332517,1.5534612963029528,-1.7566855533335066,1.2896723857711652,0.03524336542596156,1.5098939828864677,-0.03238493166070153,-0.14747765036399402,1.4310487581604954
-1.2717852922098358,-0.7744443848879791,-0.6336577276224783,-2.8404564765607248,-0.31594412175324094,1.0219536022717635,-0.2600252549598149,0.5894471448251597,-0.07152424668649306,-0.10134534290607236,2.641607344137426,0.12314704516918483,-0.16341588365783208,1.0501286850574358,-0.11635843421244933,0.6547979660041895,-1.2901408408852604,0.7893841347197205,1.3831910031510286,0.6563748442807689,0.15759998261415578,0.31658316226692473,0.1666478919590136,-0.1639164147003569,0.6666982283147057,-0.4355307587477743
-1.8674798969247566,0.38963685399082076,-0.7164476564472616,-0.08183901992941918,-0.9052473533370385,0.4072991392840205,-0.2386273861830669,0.7649361775009694,0.5965016676429135,-2.120104825564927,-0.3320963460778631,-1.2311209308195505,1.046763009041954,-1.528222088100506,2.1220984819993607,-0.16030853734786818,-1.3560971350023123,-0.9342388523799032,3.2079453244924365,0.49735113880435344,-0.7046701253739176,-1.083558993818062,-2.5996713929278066,0.7793917287833189,0.5348622353940099,-0.871049417411839
0.8640862649446153,-0.9621668587741135,-0.2520045777079352,-1.0240297414412163,0.8352882779165323,0.2485813275387602,0.9230394037042019,-0.07101430812827439,-0.7196232173592585,1.473841622757845,0.9184747034686804,-0.6558391746670177,-1.3073540417340386,1.2486790313619058,-0.14245635026120718,1.6087621494184585,-0.1443460234969915,-0.32430805675651936,0.03545109508235974,-1.3974767241795791,-0.440488756564422,0.24724374925235534,1.2318483813665226,-1.7272930523667092,1.5674798402830887,0.35926141591993815
-0.7537098393333951,-0.2816892996079413,-0.7890725464679875,-0.5046385325216701,-1.3149360625563993,0.5802851240304726,1.0399082860663844,-2.2707736001203007,-1.77327433884603,1.0618305275112565,-0.03471360006473266,1.2313603853601922,0.34919472513082406,0.8886604234234065,-0.015386791144131015,-1.1762327983459793,-0.5135971749009384,1.5693478856139078,-1.488768836833207,0.680012423814453,0.2547208402693578,-1.6325714086300898,1.5706513188501332,0.983971293672507,1.9985509711621237,0.21685435263167732
-1.0141183988830642,-0.4076099326774071,-0.021183192511466116,-1.0142353302290974,-0.04556108021121692,0.2587358689923643,-0.3131949794129492,2.340156482296414,1.358603216033072,0.10200527395861951,0.672855677170189,-0.4403382885354508,-1.2315457382219082,0.9737207269828057,-2.341087407072458,-1.523877490570116,0.02176798641012697,-1.197545145165789,0.6183907030171186,0.9780058796727336,-0.8933092917889309,-1.5048801579754592,-0.46601389150488903,-0.028312589923610007,-1.2753885634440216,0.5437689937898407
-1.1452078180359837,-0.9211411256035155,-3.3109112364475783,0.2539639677272249,-0.5166392145240128,-1.3734998514217347,0.408887117448418,0.08207456825490905,-1.3436198245894024,1.9487171125295568,0.5240041567320878,-0.8585631314694238,0.6930979049646601,-0.5829916174359465,-1.190326565415163,1.5649149215179337,-0.7608562243728729,2.002270839640422,0.21812735757842827,1.3374306216781533,0.13772752455649348,1.0672229431439104,0.23629471206143252,-0.16768813596864374,0.38374119805408136,0.524309894767333
1.1378659882764481,1.5165221761133332,1.508111399917423,-1.632086962955098,-0.07378351324934972,-1.9766799447096197,1.1291129294758315,1.0412951855108852,0.9341403099321586,-0.9165302980005652,-0.021206325298376582,0.21702854140092953,0.048904005925073976,-0.05673397151950826,0.42760553622098857,-0.008176616728649971,1.6207864193151855,-1.1171496273426307,1.3314408498123722,-0.43251214652351677,-1.2084928025529638,-0.5477560002944507,-0.22763817747451287,0.6780955549995803,0.34545734491777175,0.3045825218479436
0.8257558595772235,0.8204069530367584,-0.6312499858529586,-2.886836700634573,0.5591742003083422,0.5947094981728307,0.9030442423920843,0.5513291523192267,1.3735624062258163,-0.9384452913846156,0.2573533562970235,-0.529414641883412,0.6396195364168472,-0.22855147092226918,0.3873857652478846,-0.07489655981262752,0.09853884312251995,1.26391139997885,-0.615856420314523,-0.2059638894113955,0.703140446770476,-0.4478819483309989,-1.2584313872994284,-1.0444394829578054,1.86956420627217,-0.9315662613319269
0.9394906615360773,1.638950749501277,2.577300832268379,-0.4367564893110003,0.8579321067883684,-0.9474066167447539,-0.440530101906415,-1.582519279533681,-0.8561371296626783,1.6471472154431086,-0.00276056228866329,-0.15454344374178755,0.26564787787959104,-0.25065162963082466,-0.33905034883131807,-0.30510348030467443,-0.9400090752303211,-1.526203727783088,0.275559069565487,-0.33416832555894027,-0.3899877250327817,-0.4160875629984986,-3.2700816399882284,0.4549708469958217,-4.122702726227953,-0.4178242424566195
-0.10493076021486179,1.6706216784497738,1.7853715454874728,-1.0575011091731426,0.5659440614392421,0.7293603943935184,0.9015317865557393,0.872154098353526,1.0146644474742863,-0.6745255467535706,0.5452969302311738,0.455214931945586,0.2771111148503313,-0.2618707473179814,-0.24487701630275238,0.594432692044616,-0.25455092924581096,0.15952170135144822,-1.0000786052772999,0.5644615204378971,-1.2843897771822765,0.631905838491167,1.3554549846190431,-1.8178238708228187,-2.262865014048976,1.433210941540548
0.1905079844326366,0.8179153192836497,0.6992688498513441,0.5085162647656696,-1.5800731861076893,0.20263897251283033,0.02349555994151788,-0.10235823775990867,0.5558696408629621,1.0680206852916188,-3.1976585034613634,-0.6371608005895534,-1.0006425564957033,0.0764337550768892,-0.6067931970467031,-0.8853153177720924,0.491451705789378,-2.470486140454843,0.8966794652611284,0.30961678760305056,0.15363271736317957,1.7810370409748082,3.1569704137916994,0.6862881908290759,-0.38206786547699034,-2.004691760944167
0.6649792070830354,0.9532276680251675,-1.4317555613374306,-0.4564281872191566,0.793971548634086,0.8839459075099935,1.7735479002154306,-0.23809432683309117,0.6321494351529808,0.7962203750312766,-1.2124352832688705,-0.06356805960668202,0.18610922578510347,-0.431849156676781,1.923624670178948,1.0575644685181418,-0.2079587533570179,0.13963636830223805,1.2749142562877283,0.4396859816309517,-0.4635966537302359,0.670543349585934,-0.7131420072399758,0.19625459755153504,0.6540985636147858,-1.4797119484573933
0.8407621131078111,-0.26952614101160216,-1.7967806023941317,-1.5303508610490106,-0.43917621996244827,-0.14785221882714775,1.5171665380554942,0.4700775884713829,-1.5952935613347108,-0.11664192528532145,1.188548664046437,-0.46065215074820104,-0.6534045041756945,-0.8653626752520727,-0.097584612091725,-0.009735197846547429,-1.2174122438201669,-0.08361739846724826,1.0848181451693502,0.24004185766191538,1.7535804845803786,-0.9132162597562596,-0.7591075740579383,0.43327609840603276,-0.4958851579429787,0.33966137192826623
1.181680848171955,0.35561041264642385,-0.5263070711239672,-1.5007345253386402,-1.0230845385710872,0.561742481969147,1.5228655723257418,-1.1510068843493644,0.3633127470058355,-0.5907361929308017,0.2972646938462477,-1.5850212215133364,0.6627986737919626,-0.27233928873372704,0.9814579019034431,-1.405910201241686,0.24074699696922702,-0.23662078499136513,1.1416726855986676,-0.2944621527039782,1.1591363141229505,0.7960001853076651,-1.2844990396069753,0.8311685977362423,-1.5241596820962096,0.45311156942823655
-1.1788180087947366,-0.5594125517363009,-0.13392653908039573,-1.479219614286382,1.2228570404340715,0.39258335669620376,-0.7195690676891479,2.0331097133465335,-0.6614622220369267,-1.5259664616546458,0.3813332316002747,0.3058315895208069,-0.39530639630945785,-0.8666225213366318,0.01828224336206616,-0.9006623984180332,0.8244669644132299,-0.34076400849980965,1.3015395788929258,1.6729133310067033,0.24249466558278404,0.13304749470521593,-0.3654263552705967,-0.6247323972845193,0.049700135000929145,-1.6490454487059114
-0.3772214419896109,-1.6516064882835813,0.16908042288021313,2.3525546610306267,-1.6396063821526246,0.7839180785208094,1.0638470066270607,0.1771064406109444,-0.19337935074573617,-0.6783019254120822,-0.05686402815390523,-1.2528211884963691,-2.0469634142425783,-1.436796198487605,0.34844579372897555,0.43885343528535514,0.6773946139140767,-1.0614764581557101,-0.6353811048211604,0.09873268968057915,-0.6262170018863178,-0.4332167698032031,-0.4879502467514853,0.15428126125131914,1.2404364870441216,-0.3653961601630177
1.1046696172213646,1.6274880797701146,-0.3286852759758759,1.5897677018825347,0.9522098865104838,-0.25524461017420763,-0.20197186655112337,-1.081666343374601,-1.9978873187432165,1.5913266578102527,1.431702760892426,0.20873910449585464,-0.8324144754008628,-0.3926351860851486,-0.09483341823933684,0.37177251422886354,-0.32427372843405233,-0.6846346098586369,-1.1061240812382878,-0.20120628342137575,2.373670421437454,0.748590242129266,0.22038842563853206,-1.5447805296068264,-0.9743945994337481,-0.3174692510506037
-2.4966938186537533,0.7775867633753087,-0.47756590090147205,-0.4720096501090758,-0.8720487517223668,-0.5761990254022393,-0.11288707043639622,0.1921334307139042,-1.53136691841484,-0.009709946062420642,0.2773780979294846,0.9163373471247258,-0.7125824845043466,-1.2559783164583636,1.177348701147284,0.3598245708886569,1.3213718703149722,-1.334463847374202,-0.738048753740781,-0.8185830016888856,-1.9919658348756781,1.183777009382235,-0.6548576434835696,1.3260687747273099,-3.1314901651471625,-2.2434453822180767
2.2099696254298804,0.516516975433704,0.0675594542334715,-0.7020920666135576,-1.3834263006970107,-1.3659179192175148,0.8549943731896441,0.19730094142265767,0.595023296013778,-1.3474230895265393,-0.6735406897822084,1.367390269670973,-1.5460870325150868,0.14149790946750168,-0.6499867991679991,-0.10491969238289627,-1.0034984388617025,-0.5155595728097822,-0.7858749497622642,0.24375721718551707,0.6037764761338791,0.5898182294489044,0.19647061386422046,-0.7085618604898553,1.1534110487850897,0.15933976855227858
0.901258666564092,0.4380903331857615,0.760081534227786,0.5704159386101874,0.6202172111920543,-0.1251584138230595,0.8785646404319277,-0.2578665336614771,3.078886254053729,-1.7675734189749894,2.3578219687953506,1.1221169495114502,-0.89587515722599,0.5652976053788871,-1.0978678271945925,-0.021716932268822105,-0.73247690683063,2.2653317800244457,1.4746669781091675,-1.7157243996596978,0.1987903085095535,1.4911026832535308,1.050661325745906,1.3896106301428173,-0.9526257590350923,0.7107268758479148
-1.7778019575144173,-1.498882963506509,0.5829107719867106,0.5227486328904624,1.0086980931700744,0.9184048964732923,1.5141437540839262,0.39393102485542764,-2.1125643493798467,0.836464280007159,-0.8227192532449288,0.9414676590105564,-0.7954051235841983,-0.7561094265813323,0.5127517801331434,0.7709828254400583,-1.414453035102691,-1.7046315033133406,0.5876401793617515,1.1643486499185152,-1.673736612638037,-2.6211493348034196,-0.2857979752825564,1.3321335167769257,-1.712129075799691,0.6515934666455665
-0.7974401874534379,0.2597339774747078,-0.7663430131706005,-0.9405227498517165,-0.6555555903034416,0.7427418567090075,-0.7371195318025716,-1.3836174058442268,-0.0578026492682423,-0.5290360595699629,1.2116424668428993,0.40760590071970115,-1.100315075895296,-0.6463765528202049,-1.1200175146760596,0.06139446365244859,-1.0663124097555376,-0.015709853167396995,0.05990368404483143,0.3881124777576816,0.06930787493880716,0.5161231104981291,-0.7546901169580221,0.857722377346173,0.2056270304449796,2.53292193918449
1.7302033686762852,-0.7545270747566349,0.9089691511074526,0.7860465315957764,0.09011041584518394,0.6537165652009026,-0.41504897860704826,0.3280026496674983,0.39803554809900765,1.7597672062335448,0.15482081175078813,-0.03731026714893701,0.5429300403837953,-0.39710619056817953,0.452492289573243,1.1805096514480495,0.18022355415926603,0.7660923100998297,1.0652432680081785,-0.24050007310282806,0.9664465218589353,0.21805450535891466,-0.7157281741548057,0.4585380943371443,-0.6913591802009593,-0.3268633430417803
0.5102843306196208,-1.695474513226707,1.7589306782841931,0.5077811909795306,0.219415164565722,0.09004771322057978,1.8200357969807317,1.740392960304357,-0.7473696311797406,0.8575820838232788,-1.0364859914577005,0.6953214335012615,0.6540087104997439,0.2947382138212858,1.2900730427858123,-1.3112295918734789,-0.5883419929651372,-1.3963988575520765,1.6996940733459498,2.2010705931431556,0.4631487791514767,1.0191506464525952,1.7174482970269453,-0.3715958028934364,0.40337987102932843,0.42857729803567146
-1.1999998096574793,0.0823610442378707,0.08886599302673673,-0.978729195343291,0.957029893751708,0.49756837818596467,0.9270213783126764,1.501238485965404,-0.023856268915658126,-0.19804581677607372,-0.1752490662272433,0.13742649066724455,0.08369089629073206,-0.4066737849453421,0.29091925728662515,-1.8668568859289913,0.4733327169184981,0.46814542058591146,0.8743046814224263,-0.5560194515009639,1.1909778319002917,0.10512533817776452,-0.14813486672875845,-0.3389741660416836,-0.5734299102713688,-1.8231111370773954
-1.955858892820526,-1.623110654531604,-0.741246607538562,-0.7212410671400248,-0.6978822519628919,-1.040644592002593,1.5704770676141226,1.6810348855362371,2.6092017542227954,0.22192131294640244,2.3004062809633585,0.9413061408797796,0.1237945990300743,0.5661405813138225,0.9972922434297734,0.20433059758601754,-1.2112806664578064,0.15876034279805043,2.0536017784407994,-0.6005297847262254,1.2584034004780593,-0.2551812127126037,0.6364839396395006,0.7005431715562876,-1.105819703684259,-0.3239190508184416
-1.5321770970207187,-0.6470983022047055,-0.07304130783970372,0.791966606213787,1.5075075309187793,0.4384564915022759,0.16049819658244951,0.54702761411284,0.1034311983032381,-0.8984065140533607,2.5152502583595693,1.347258046499231,1.6315327803957105,0.8418529452657316,0.8771709939670006,0.29130245870622945,-0.3169626074863576,-0.44921177318790034,-0.535359602762295,0.40314679818643506,0.6111319001841368,-0.8011055651707127,0.5606010839042379,1.003753773439471,1.1169957463272433,-1.3821336948274767
0.8441474861115864,-0.6423282199474251,-0.509383625550632,-0.8853057043245033,-0.9230113283835247,0.7529532139790357,0.2154534928744595,0.5127186015773499,-1.184401015539907,1.1298317176632018,-0.33119012397558323,0.20857672835673685,0.07939198149055063,0.4994716618429829,0.472806103116325,-0.8625485933310972,0.4522550951643293,-0.23039375495537529,-0.2689571268113304,-0.4105562255639386,-0.25878041187658013,0.8504887976149049,0.544182671493786,-1.735466176056926,-0.02488664595719661,0.14312223732979876
0.11816339407404497,-1.681247522760621,0.6517088539629264,2.3175352189802023,1.055387307160109,-0.3154536687704495,-0.1529001869820743,-0.6504870232392315,-1.499872945935374,1.5510437069854206,0.16531616290590523,-0.8158070198905139,1.211366628552742,0.18003312463560348,0.5420325564039714,-0.5046200117432965,0.3681441524325719,-1.7802723476878466,-2.226842560987123,0.03382841391309439,0.3967781895127446,1.1168246662326748,-0.7159685523237505,2.4919756682609666,2.388048727826394,2.0012433767352276
0.3699685110640448,1.3217071739826152,-0.14017981302204371,-0.4086188470236684,0.5535353766171913,0.4731022734811838,-0.42101620214436986,0.4971061370752661,-0.22208893446028402,-1.985231731597522,0.2930228528892841,-0.475720574968502,-1.11166143425462,0.7352078790363391,-1.3181364615115199,0.20130589083329656,0.2764267555170249,2.173001021155183,1.8536456401484809,0.5101303839745812,0.5799849121451952,1.5437482837379983,1.1990025979292946,-1.3439746301752722,-1.815330622757256,-0.7057438404604687
-0.4797019700328186,0.841618678874554,-0.788881233915193,0.7477600862359204,-1.16973367090067,-0.6213923474073725,1.1432828459022608,0.3023820858921257,-1.3226625810494774,-1.9711755635913013,0.012842103748143466,-1.0579147634293327,-0.12793345339256715,-1.3619038922652906,1.2749730393702676,1.1321614327384306,-1.857500537139921,0.20977314668622504,-0.43202228173945056,0.4375730876230303,0.08221537712848073,0.4256591470314625,0.3068926945727282,0.7453990976556681,-0.6393170491989992,-0.7905437621900883
0.43053643370823785,-1.241577788344228,0.07346727887251288,-0.37004685608334176,-2.119135596216376,-0.807007936800943,0.8772409760530414,-1.5400409303084484,-0.03332698955077547,0.3511130121644727,-0.5698783735038851,0.9842071422875638,-1.5074145120328446,-0.13470618372163046,1.591458277313604,-0.1892601873991237,-0.5438738766816907,0.36672513488285396,-0.6953405487981336,0.6528540122503232,0.8911787473616696,-1.5201150187465364,-0.7887424012657409,-0.9967820386174305,0.22535346700609782,-0.6811800950893399
0.32098796964123283,-0.767607409898115,-2.1630390633870142,-0.8889095470162193,-0.29517919492355255,-0.055013538603487296,0.699040822288776,-1.3821796331754845,0.5282542872167207,-2.5458500216189632,1.5003335141990664,-1.3265040343706926,1.184990044646169,0.7483056716846658,-0.21706794321872472,-1.7207694722557523,-0.5743280117669183,-1.1860267453376168,-0.7110911104773039,0.7130257512922644,0.054478205387094546,1.1768342701891064,0.09226978093373969,-0.38004650777440596,0.9090568338142879,-0.049015953234942886
0.8841512309386599,0.7412631007370771,-2.3792393169850548,-0.5006057439857714,0.8469019707888931,-1.6240183196580873,0.3891224512154868,1.8614872861378462,-1.9653406353125804,-0.4195292281682798,-0.021562827535838863,-1.9026122337367524,0.16224079713258252,0.45121960921280674,0.8892082217675099,1.0909260949345736,-0.057723720688183905,0.22075928055418195,1.3381196675445046,-0.027134752738325357,-0.10025998536036419,-1.0516876772315018,1.1102065306049649,1.1866501632006405,1.3554559734524492,-0.21011773227851152
-1.6555045658403555,0.8078053638582475,-0.9252926839888521,-0.40953870575825424,1.4650471849831348,0.44120965411404256,-0.5018679947668571,0.6313983141221632,0.647687601787001,-1.6408385461931612,-0.40791842323952265,-0.5516720712520164,1.1324208329313756,-0.5236718402411982,-0.3837450093887315,0.5732219577572856,-0.9648559473072045,0.4111238857092998,0.5605298458765685,1.0134761466831126,0.7926550378421686,-0.28870528248897936,-1.5301291809864164,0.2968501906702141,1.2273444468242267,0.12401762894998974
2.437237473993946,0.3255647887669842,1.059335233538964,-1.6853855053595195,-0.7655946216919123,0.6909012209626962,-0.02858223459628018,-0.7189381044153812,0.3182509088761109,0.1710557010450421,1.4593834766482545,-1.4452353054643654,2.8368450954687496,2.1831202258326416,-1.635721864357944,0.05707581302146237,-1.2241738938666684,-1.1093516820331717,-1.1007225184277811,1.1927276986032636,-0.31257905825211485,-1.4707794303282897,0.8628113816505509,0.7782857830891339,0.29699252648414637,0.7600756109653901
0.08338705660367204,-0.13245108920748244,-0.8455675117337876,-0.3964945633814971,-0.6247480759829628,1.288064353051446,-0.8540333320789426,1.0782911597146363,-0.5112124018090254,0.4565624698926508,0.04531797115804796,-0.5443846716579895,-1.9423984125170393,0.7591229482572172,-0.7170578113022363,-0.7917290286238816,1.7328542070468005,0.8274962756902006,0.32466553952163035,0.6609507215159547,-1.222488141424247,1.1966846844712964,2.5382167953088897,0.5471442167767314,0.5455701953154549,-0.8980345274512426
Pesos da camada oculta para sada
-0.7589544294540975,-1.2416086822487644,-0.62175749550641,0.6596381314906097,-0.8220707442398546,0.7047119450746328,0.2096153834176893,-0.6549063498032028,-3.340996076492841,1.8614449041808132,-0.5450107086098598,-1.9180150453474945,-1.4491432950598846,-1.6940172269296232,-0.46722043123501666,0.016351725630636596,1.0460740997087896,0.6336383909713701,-1.272217708934,-0.1656653390588766,1.5563310087134767,-0.5166454653574408,-1.8372294193951169,-2.3828893375636824,-3.053107697665634,-1.692673842168755
-1.3459075200205202,-1.0654984545344732,-2.0479586685353053,2.1590857827470207,0.3866687518062965,-2.19508851238227,-0.31542930634590083,1.2260845854458775,-0.2406732300282622,-3.3275221031019395,1.272900804225098,3.581177124806561,-2.0028498162596255,-1.0671654813223315,-1.308536863004379,3.323355155907892,1.015314833203643,-5.166534048395414,3.050357411923373,-0.26810372473736177,-3.3270911417279643,-2.888745054170826,-0.8736485406807939,-0.17382384923109293,-2.5363980469521263,-1.2169534770504429
-1.429625436337443,-0.8868290501460016,-1.713899333507229,-3.827224293006063,2.0655137149155425,-0.5708610668397393,-0.06834388948536625,0.13195527842014176,-2.0183911216164794,-2.4446534514614413,0.058192927965030304,3.608384404821553,0.22820322506763338,-0.1312915009811554,-0.6814529112580908,-2.8264386892601445,-0.07714812950616022,-1.2685007491923417,-3.697126533735127,-0.551238032083557,-1.7346612251864886,3.2903485387535434,-1.3852958955695738,-0.596044937732808,-3.236661369151811,-0.322622406343459
-1.5471928738526528,0.9190194229014979,-2.4111024340318443,-1.7238018627425267,-0.286081267944997,-0.4246758555626682,-0.0017079086852798422,1.1634203405322008,-0.6733387606324611,-0.6955125551367287,0.5325960303159736,-1.6985408741671586,0.35753628426999884,-1.0089022239915937,0.2049283011895599,-0.3047390876918471,-0.2634612035106151,-0.6366919767379157,-0.3913598864078628,-1.2900890271342733,-0.20738258855160577,-0.3826537995424008,-0.125187611792906,0.7282208470288057,-1.152465042258168,-0.37540878068167444
-2.9869771383403445,0.006080354302788826,-0.6732116349080508,0.09360905079715819,-1.3782341844657853,-1.5783383095351473,-0.33021395112453583,-0.8148227551231717,1.1290764132437798,-3.547547030691049,-0.27572132948577094,-4.884946443654075,-1.4371127990075119,-0.5481533346592198,-3.688299602410048,-2.202079172278415,-4.304308293326962,-1.158547125931138,-2.456243281293996,-0.6887059593569546,-0.7654337005936968,2.0025543410361473,-0.11072713729516083,-0.4379206226276948,0.3774062111791773,-0.8956518797897328
0.3095065418043888,-0.5980406328793963,0.008444433395707204,2.4419724083515457,-3.003216543052617,0.10120748747900997,1.2430330842091044,-0.16801954336439764,2.373523172084972,-1.6482286445312702,-1.1283668400094111,0.5789832388093445,1.2577220764101757,-2.2482532601677363,-1.3183481749678287,1.617436831172881,-2.107838589471826,-0.8431381579966354,-0.35535180769549063,-0.06789937619906775,-2.5112595475015573,-0.17401073022619898,-2.6637255504354003,0.8937327620015332,1.9360661695677286,-1.1982941138943775
-1.381709414717112,-1.8404982098945912,0.3650247922182591,-5.6972531270739175,-4.429223463409804,-1.784146724675911,-1.9951038211420524,-2.5650423583540887,-1.011966753666401,-1.5603101268981894,-1.3508066293249308,1.3314251788769504,0.5731882611763879,-2.016740258117623,-0.6188565847147389,-2.8208130313124324,-0.3387683091140742,0.7815477618777725,2.7418786676896874,-1.4029070346042798,-1.714655398771218,-1.9721863636709218,0.9652196833660147,-2.9566520844607167,-0.04016945546431744,-0.5249159814007007
-1.546979827045747,-4.003065229187491,-1.9718187131549667,1.0991367473325584,-0.21863683014814786,-1.3271787657929068,0.28667738675925486,-1.5879168771865464,-1.0834913753812092,-0.7671412156903853,-1.5768006742155658,0.17372200705389115,-1.0134673047159917,-2.394696277732948,-2.8925559749522476,0.9697614352231351,-1.1756461909000082,-1.0701980366599362,-1.162033256369788,-0.47377619061712506,-0.05998443109122282,-1.051637658229632,-2.3760554785846,-2.776404280798739,1.0572389754878986,-0.13358505712555688
-3.4391681132305507,-0.3815319781028803,-2.1140352321154645,-1.9588043149740557,-1.0194138139694662,-1.008200170487012,-1.454096403598291,-1.3884508205938246,-3.504523002228531,-2.5063542539932024,-1.17973138213417,1.3290353790256466,-2.6819776735528293,-2.5832424341866393,-1.7136693255247442,-0.7774665487249885,1.0744681779007568,0.40870423274951867,-1.1268312373353515,-1.323526714686257,-0.3239494153483994,1.7926690244887378,-2.4990776219434814,-1.0822695170389347,1.5211958308382136,0.07166910867407834
-1.2686886049098829,-1.0863281270186658,-0.9583196214641282,-1.4050313853024126,-0.9463438592979494,0.34215986770865087,-1.1587156507205738,0.14822121880265418,-0.12151677097525872,-0.7016667780539424,-0.33992158611510154,-0.8567685946447049,-0.06961338695578594,-1.8526463922612522,-1.2084605652189384,-0.9138511588921977,0.8806139143496272,0.7981825970833639,-2.6264553369314436,-0.7115829561159909,-2.1471623175792596,0.14864521796876085,-1.2345538427792577,0.7871436458342412,-0.9362778198452588,-0.42821121762436126
-1.0381869358460218,-1.0472302620034415,-2.8795562642743873,2.505716344728381,0.7554338992872427,-0.31350487945567806,-0.20656688791979214,-2.3062321548880353,-0.15101559096875322,0.1726687818002318,-0.7249959435272563,1.406251906871051,-0.6965748863816504,-3.131205686854734,-1.4580590017576391,-1.8247251737085908,-2.0237970247210244,-0.3842241836991284,1.2340802432859883,-0.16893876029898083,-5.439101586234587,-3.002871516515533,1.0357192559491286,-2.212816303865356,0.9383464939455672,-3.033532834584223
-1.051339205711808,-0.5314756681111765,0.3093023672143835,1.814908168098852,3.9486202699148367,0.6247616180251384,-0.5149862891201956,-1.7481182033494551,0.1332814252490457,0.189348473497483,-1.0262805048549717,1.1211918163069614,-0.8841953680915698,-0.8243686556626397,-0.9863769442783307,-3.5621203617392996,-0.3095743833411842,2.4907207290308393,-1.146539439316663,-0.5300052454006726,1.825470016110802,-1.112801817763426,-0.4298956101403106,-1.195654414022172,-0.8750482960966904,0.12393252761201644
0.10179943385470376,-0.8200704027772207,-0.7011131875903582,-2.5467151841520703,-0.5530731608648917,-0.35771219464401727,-1.927185704918339,-0.9115237574783513,-2.8324097748170183,0.20369769530130533,-0.0938658878339094,-1.891639952078363,1.5389468845543939,-1.741452262416187,-1.2156710117164056,1.2836655157592503,0.33737095594234906,-0.8197827474526602,-0.2115958372560073,-1.4307091674519519,1.0181367845440965,-1.8296719428256591,-1.2332752674675203,-1.6727123019442611,0.5155215626423464,-0.0012104989029349056
0.8003213374836754,-0.8086204014366056,1.325178302412882,0.2223616625701398,0.07335207955609341,0.46361409438845547,-0.3294349794426044,-1.0215320895895839,-2.188801776499734,-1.9468922286187302,0.40472525131277565,0.37340548175423155,-1.3947693426159251,0.8429750009126855,0.716188448760595,-0.38349061979686666,-1.9681259063515926,-1.5966678785007768,0.040326580902641,-0.486042183358721,-0.681496203652608,1.436298296263159,1.8996651786968484,-0.9240616149896373,0.38444080303895983,-0.8804576308861527
-0.606650118742533,-1.538750607738092,-1.9694998318001145,-0.12251445939685784,-2.5813122599571834,0.3544840828362011,0.317598389646374,-0.822422072020719,-1.8641305683324183,-2.961298335457132,-0.9506625949662132,-2.2145263801379294,1.4977448452744258,-1.9434479570749474,-0.835395357019459,-0.700374088357039,1.9333273818341619,1.6993947481816551,-4.342497734175276,-0.7316143323094008,-1.0758772129925074,-1.1505028380247888,0.16365965114484013,0.3922874963548035,-2.8132977413184665,-0.8283682439845016
-1.7789083940298112,-0.7960212264943027,-2.4301220393192904,0.2413455307335582,-1.4487768116613473,-0.30823387245367384,-2.56740143754505,-1.6500568395984585,1.9706250491113395,0.5594221636810213,0.5778126259637658,-0.8501420395654392,-0.8651031680207202,-2.786458673328849,-1.1874819498602844,-0.22970357675519318,1.0677152205534188,0.3739253187433808,1.302892931350208,-1.157083493493395,0.35481562725252463,-3.1172220675999562,-2.5026460813983444,-0.5788027481310141,-4.994998883944362,-2.7886659362006436
-1.2696223774388453,0.3240729291457968,-1.514097303206511,2.1999944428328204,0.8935473397744877,1.2923445018250117,-1.3304300763303156,-1.0015918679427078,-1.3167982643069243,-2.6633904133764945,-2.0964891379024864,-1.8711489868433073,0.19958745470138217,-0.6357739828752674,0.06416617052172607,-2.9132374360479854,1.536455067213872,-0.7758456277825835,4.975874396976079,1.0032693462590814,4.220249340951037,-3.024656841808393,-0.6791510708716677,-0.05932668320613187,-1.2230772246029353,0.17534017387847017
-1.7257823869652713,-0.4388552035371693,-1.323333698886566,0.5131373066394534,-0.44562455832197,-3.4501908709406153,-0.5164665467058517,-0.48310127303128575,0.5607320017925892,-2.225922319273282,-0.8017947206999566,-1.8698813484823686,0.24423580025980463,-0.15254095797466427,-1.9597140788931433,1.0883420394880203,-3.3696107906681734,0.03737762940005516,-0.4976068477496779,-0.17865269917843077,0.7043750491965929,0.33466267425366414,2.2849593714564422,-0.6066719073495116,-0.8016401938283099,-0.7004152186218259
-2.36919838437598,-2.087094469016522,-3.7939250221283882,-1.0429720941597167,-2.0154455070427226,-2.368809492514838,-1.859195669400397,-2.759463272005134,-0.663056508481264,-0.3357065931153681,-3.4099556190061313,-2.4240772799841013,-0.3877998351590321,-1.8301801983923194,-1.9075191305466597,-0.4332450105374874,-1.0746175254999268,-1.0382854914799704,-0.9841478349980646,0.41326667126823197,-2.089050718974226,0.03299436836683205,-1.449614025356695,-1.9878585526380623,-2.134633456800695,-3.6385304180653537
-2.1493559749927726,-0.7164069991784353,-1.570891264071118,-3.0752196152779945,0.626527109399419,-2.3738849974434544,-1.196370704445908,-1.0865931441568506,0.9432844623807994,0.6465416896192321,-1.7923637451341234,-1.426073679425086,-2.563843365622716,-0.6439633543235537,-1.9049976485442366,-0.8337726112253568,1.2123265256826707,-1.534415532163624,-0.5689708119183954,-0.5034265585549252,-0.7998019033216023,0.32646859324612465,0.6930747488118835,-0.6430665790366284,0.7698608821051091,-0.7390785368969566
-0.6385168054883082,-0.5013838462381068,1.197427835638136,0.9113809088609728,-0.9826166972245276,0.20647536778856146,-0.5279448239923024,1.0575581723929566,-2.3797829116670113,-0.6255461773457415,0.8995420746594832,-0.546998524189204,-0.7770823226437799,-1.9032119829770453,-1.5081391526836865,0.01873306597371623,0.7934925329575294,0.003206711438237805,-1.2203258427943615,-0.16240324555820174,1.5497364797474444,-3.24116717000157,0.4379785326039907,-1.280489461050426,0.6040743585472436,-0.8748899599402783
-1.1719979642836083,-0.4841070842580532,-1.1945266746127294,0.08904033729068656,-0.047524294028641285,-0.7337801685175602,-1.1984701564358955,-0.6850498620346368,0.3926618420822801,2.610465478165454,-1.0923379331097056,0.13796190381979673,-2.464645936367877,-2.8422185339869226,-1.486167533582013,1.0937258751853147,-0.39332426486085936,1.6669308566032155,-3.489502061149068,-1.1479290596137806,0.035921161497976535,-1.3415062433839633,0.8903048127225376,-2.6353425802075217,0.7902119882579629,-0.6230191277512895
-1.97798782964891,0.08329787845660251,-1.9429723768649068,-2.644396661694851,2.145860385481987,-0.9123379895545088,-2.660280410567157,-3.566213936964099,2.386206361821835,-2.2441293444271597,-0.5294010387500657,-3.7634981128975666,1.062902920865765,-1.368496723515978,-2.8954617380689034,3.300779793932715,-1.9748689383529956,2.060761676538922,-0.45926829222946297,-1.0723170772838446,-3.3341804227877807,1.9036456284532342,-1.3833009315892117,-0.4854904532698993,-2.373718798017866,-2.006748788847554
-2.1077821143693174,-0.9871010639600606,-0.7436241337175722,-0.5944998601256419,1.67718301598659,-0.19366548844582837,-1.5063828924105576,-3.561250068475623,0.11253175228552419,1.4258852968890574,0.24408217221657205,-0.6513461900242831,-0.18120133985512255,0.21806399601043663,-0.6311007973882872,-5.185417632561443,-2.1967212842756623,-5.294890765442574,-2.5910867265617927,-1.122505145744196,3.0305731273697436,-0.5008522888521818,0.7295517807025095,-1.3702077388973064,0.1960362839223384,-2.3765240853397023
-2.0916042760625895,-0.3752505148449682,-0.10391256094655053,0.4692048077870585,-0.8468982849064717,0.1820877853353396,0.3715484097501694,-1.9385133982679414,-0.8252900474548849,1.654123271789631,-0.8937223278216656,-1.72222386931486,-1.9457379844476022,-1.5982188749933457,-1.9793948593883925,-4.2663965885447634,-2.0764764156328135,2.7361574103762547,3.04665963058091,0.6937470544877914,0.8871176417464123,-0.22794873878622926,-0.23949367702850016,0.6395688910001845,-1.0832741323119164,-0.9295928058673568
-0.7759397417410956,-0.22384149159264813,0.4107098165136156,0.30954321617867236,-0.7027594507252474,-1.10336692932246,-0.6534546975960345,0.2728792902595553,0.2975293251866114,-0.28382512678053373,-0.6232342354670503,-0.8081908957990452,0.43769450090366135,2.082746283113759,0.31561386489171117,-1.2692650113395247,-2.3563505299911958,-1.3821520922816408,-0.3683712227438773,0.45469268955493264,0.34056309867625373,-1.0996838989391573,0.15408362972823347,-1.0385011782066347,-0.14553097133729026,0.26685959025029676
